{"learner":{"attributes":{},"feature_names":[" day"," trace 40 quant","competitiveness","empirical_distr_p","empirical_distr_q_0","empirical_distr_q_1","empirical_distr_q_10","empirical_distr_q_2","empirical_distr_q_3","empirical_distr_q_4","empirical_distr_q_5","empirical_distr_q_6","empirical_distr_q_7","empirical_distr_q_8","empirical_distr_q_9","my_layer_size","n_level","n_opp_level","opp_layer_size","trace 0 price","trace 0 quant","trace 1 price","trace 1 quant","trace 10 price","trace 10 quant","trace 11 price","trace 11 quant","trace 12 price","trace 12 quant","trace 13 price","trace 13 quant","trace 14 price","trace 14 quant","trace 15 price","trace 15 quant","trace 16 price","trace 16 quant","trace 17 price","trace 17 quant","trace 18 price","trace 18 quant","trace 19 price","trace 19 quant","trace 2 price","trace 2 quant","trace 20 price","trace 20 quant","trace 21 price","trace 21 quant","trace 22 price","trace 22 quant","trace 23 price","trace 23 quant","trace 24 price","trace 24 quant","trace 25 price","trace 25 quant","trace 26 price","trace 26 quant","trace 27 price","trace 27 quant","trace 28 price","trace 28 quant","trace 29 price","trace 29 quant","trace 3 price","trace 3 quant","trace 30 price","trace 30 quant","trace 31 price","trace 31 quant","trace 32 price","trace 32 quant","trace 33 price","trace 33 quant","trace 34 price","trace 34 quant","trace 35 price","trace 35 quant","trace 36 price","trace 36 quant","trace 37 price","trace 37 quant","trace 38 price","trace 38 quant","trace 39 price","trace 39 quant","trace 4 price","trace 4 quant","trace 40 price","trace 5 price","trace 5 quant","trace 6 price","trace 6 quant","trace 7 price","trace 7 quant","trace 8 price","trace 8 quant","trace 9 price","trace 9 quant","ufun_param_0","ufun_param_1","ufun_param_2","ufun_param_3","ufun_param_4","ufun_param_5","ufun_param_6","ufun_param_7","ufun_param_8","ufun_param_9"],"feature_types":["int","int","float","float","float","float","float","float","float","float","float","float","float","float","float","int","int","int","int","int","int","int","int","int","int","int","int","int","int","int","int","int","int","int","int","int","int","int","int","int","int","int","int","int","int","int","int","int","int","int","int","int","int","int","int","int","int","int","int","int","int","int","int","int","int","int","int","int","int","int","int","int","int","int","int","int","int","int","int","int","int","int","int","int","int","int","int","int","int","int","int","int","int","int","int","int","int","int","int","int","float","float","float","float","float","float","float","float","float","float"],"gradient_booster":{"model":{"gbtree_model_param":{"num_trees":"10","size_leaf_vector":"0"},"tree_info":[0,0,0,0,0,0,0,0,0,0],"trees":[{"base_weights":[2.406841E0,1.6583111E0,1.760442E1,1.3085519E0,1.232247E1,1.8790698E0,2.2457308E1,3.6240485E-1,2.8483171E0,6.3399506E0,2.5519337E1,3.7983193E0,-3.9175257E-1,9.712264E0,2.4707338E1,2.3529686E-1,5.0206184E0,2.3359275E0,8.70534E0,3.2161171E0,1.2725191E1,5.857143E0,2.9959183E1,2.9357798E0,1.1090909E1,7.708333E-1,1.2060241E1,1.8229815E1,2.7073944E1,1.0254867E0,-2.1408738E-1,1.990196E1,1.8091286E0,1.7823687E0,7.3454695E0,1.339604E1,2.7302904E0,4.280303E-1,5.714789E0,3.8970587E0,1.5556123E1,-4.347826E-2,1.6615385E1,1E0,4.9215684E0,2.5E-1,1.8416666E1,-0E0,5.6E0,-0E0,1.3587838E1,3.392857E0,1.9442568E1,3.2566265E1,2.564099E1],"categories":[],"categories_nodes":[],"categories_segments":[],"categories_sizes":[],"default_left":[true,true,true,true,true,true,true,true,true,true,true,true,false,true,true,true,true,true,true,true,true,true,false,true,true,true,true,true,true,false,false,false,false,false,false,false,false,false,false,false,false,false,false,false,false,false,false,false,false,false,false,false,false,false,false],"id":0,"left_children":[1,3,5,7,9,11,13,15,17,19,21,23,-1,25,27,29,31,33,35,37,39,41,-1,43,45,47,49,51,53,-1,-1,-1,-1,-1,-1,-1,-1,-1,-1,-1,-1,-1,-1,-1,-1,-1,-1,-1,-1,-1,-1,-1,-1,-1,-1],"loss_changes":[2.1927511E5,6.8443945E4,6.877803E4,2.59118E4,4.5547766E4,9.7258276E2,1.9231469E4,6.480634E3,2.019855E4,7.8380713E3,1.5267148E4,5.757002E2,0E0,2.0877852E3,8.0366562E3,3.824226E3,1.3654146E4,1.7177438E4,1.502091E4,1.8379839E3,3.0187754E3,2.3882524E3,0E0,3.548642E2,6.823257E2,1.4253958E2,1.5902705E3,2.6026445E3,1.935625E3,0E0,0E0,0E0,0E0,0E0,0E0,0E0,0E0,0E0,0E0,0E0,0E0,0E0,0E0,0E0,0E0,0E0,0E0,0E0,0E0,0E0,0E0,0E0,0E0,0E0,0E0],"parents":[2147483647,0,0,1,1,2,2,3,3,4,4,5,5,6,6,7,7,8,8,9,9,10,10,11,11,13,13,14,14,15,15,16,16,17,17,18,18,19,19,20,20,21,21,23,23,24,24,25,25,26,26,27,27,28,28],"right_children":[2,4,6,8,10,12,14,16,18,20,22,24,-1,26,28,30,32,34,36,38,40,42,-1,44,46,48,50,52,54,-1,-1,-1,-1,-1,-1,-1,-1,-1,-1,-1,-1,-1,-1,-1,-1,-1,-1,-1,-1,-1,-1,-1,-1,-1,-1],"split_conditions":[7.229965E-2,9.31713E-2,1.75E1,1.65E1,4.05E1,2.75E1,1.65E1,7.767723E-2,9.803922E-3,8.5E0,3.05E1,5.5727556E-2,-3.9175257E-2,2.5E0,1.35E1,1.95E1,7.889823E-2,2.75E1,3.15E1,1.45E1,1.4642859E-1,1.4642859E-1,2.9959183E0,1.6784038E-1,2.55E1,6.5E0,5E-1,1.05E1,9.761905E-2,1.02548674E-1,-2.1408739E-2,1.9901961E0,1.8091287E-1,1.7823687E-1,7.3454696E-1,1.339604E0,2.7302906E-1,4.280303E-2,5.714789E-1,3.8970587E-1,1.5556123E0,-4.3478264E-3,1.6615385E0,1E-1,4.9215683E-1,2.5E-2,1.8416666E0,-0E0,5.6E-1,-0E0,1.3587838E0,3.392857E-1,1.9442568E0,3.2566266E0,2.564099E0],"split_indices":[12,14,55,55,55,71,0,8,8,28,0,8,0,70,96,71,8,71,55,53,14,14,0,12,71,54,16,92,12,0,0,0,0,0,0,0,0,0,0,0,0,0,0,0,0,0,0,0,0,0,0,0,0,0,0],"split_type":[0,0,0,0,0,0,0,0,0,0,0,0,0,0,0,0,0,0,0,0,0,0,0,0,0,0,0,0,0,0,0,0,0,0,0,0,0,0,0,0,0,0,0,0,0,0,0,0,0,0,0,0,0,0,0],"sum_hessian":[1.9294E4,1.839E4,9.04E2,1.7808E4,5.82E2,2.14E2,6.9E2,1.1035E4,6.773E3,4.02E2,1.8E2,1.18E2,9.6E1,1.05E2,5.85E2,1.0745E4,2.9E2,6.231E3,5.42E2,2.72E2,1.3E2,3.4E1,1.46E2,1.08E2,1E1,2.3E1,8.2E1,1.6E2,4.25E2,3.903E3,6.842E3,5E1,2.4E2,5.614E3,6.17E2,3.02E2,2.4E2,1.31E2,1.41E2,3.3E1,9.7E1,2.2E1,1.2E1,5.8E1,5E1,5E0,5E0,1.9E1,4E0,9E0,7.3E1,1.3E1,1.47E2,8.2E1,3.43E2],"tree_param":{"num_deleted":"0","num_feature":"110","num_nodes":"55","size_leaf_vector":"0"}},{"base_weights":[2.1683354E0,1.0173572E0,6.981116E0,3.1821698E-1,2.6430924E0,5.4855003E0,1.9646711E1,1.956344E-1,4.6735544E0,6.177732E0,4.4547555E-1,2.9393213E0,9.824185E0,6.916881E0,2.4366625E1,4.672379E-1,-2.6859182E-1,1.7950788E1,1.8613086E0,2.2114098E1,5.2865043E0,5.322985E0,2.5625752E-2,2.2633602E1,2.2648647E0,6.2580967E0,2.0972006E1,1.42743845E1,3.208374E0,2.9733965E1,2.2152197E1,2.990424E-1,2.0918949E0,-3.3929268E-1,1.9946781E0,9.6489227E-1,9.3470335E0,4.532083E0,2.4509853E1,1.0211793E1,3.2389936E0,1.9081738E1,-4.9525332E-1,-6.900671E-2,8.9648075E0,5.953528E0,9.874151E-1,1.5635365E0,1.3644077E1,2.4668346E1,-6.15319E-1,5.915668E0,1.9747639E1,1.2356595E0,1.2464427E1,1.3342941E1,2.3456274E1],"categories":[],"categories_nodes":[],"categories_segments":[],"categories_sizes":[],"default_left":[true,true,true,true,true,true,true,true,true,true,true,true,true,true,true,true,true,false,true,true,true,true,true,false,true,true,true,true,true,false,true,false,false,false,false,false,false,false,false,false,false,false,false,false,false,false,false,false,false,false,false,false,false,false,false,false,false],"id":1,"left_children":[1,3,5,7,9,11,13,15,17,19,21,23,25,27,29,31,33,-1,35,37,39,41,43,-1,45,47,49,51,53,-1,55,-1,-1,-1,-1,-1,-1,-1,-1,-1,-1,-1,-1,-1,-1,-1,-1,-1,-1,-1,-1,-1,-1,-1,-1,-1,-1],"loss_changes":[1.0679573E5,1.7671215E4,7.0146234E4,5.7676436E3,3.627647E4,3.6641273E4,2.3071422E4,1.338744E3,1.0820765E4,2.5060742E4,5.860486E3,2.7620486E4,4.8494016E4,2.7261934E3,2.2098594E3,1.8068531E3,6.0818195E2,0E0,1.538602E3,3.5579883E3,1.6966121E4,1.8367053E4,2.3414604E3,0E0,9.509085E3,3.221204E4,2.3954555E4,1.2277744E3,1.198804E3,0E0,1.6970391E3,0E0,0E0,0E0,0E0,0E0,0E0,0E0,0E0,0E0,0E0,0E0,0E0,0E0,0E0,0E0,0E0,0E0,0E0,0E0,0E0,0E0,0E0,0E0,0E0,0E0,0E0],"parents":[2147483647,0,0,1,1,2,2,3,3,4,4,5,5,6,6,7,7,8,8,9,9,10,10,11,11,12,12,13,13,14,14,15,15,16,16,18,18,19,19,20,20,21,21,22,22,24,24,25,25,26,26,27,27,28,28,30,30],"right_children":[2,4,6,8,10,12,14,16,18,20,22,24,26,28,30,32,34,-1,36,38,40,42,44,-1,46,48,50,52,54,-1,56,-1,-1,-1,-1,-1,-1,-1,-1,-1,-1,-1,-1,-1,-1,-1,-1,-1,-1,-1,-1,-1,-1,-1,-1,-1,-1],"split_conditions":[1.4881187E1,1.35E1,9.4494045E-2,7.767723E-2,2.95E1,1.95E1,5.5E0,2.95E1,7.889823E-2,1.25E1,1.5E0,1.4924713E1,4.05E1,3.35E1,9.761905E-2,2.95E1,4.5983087E-2,1.7950789E0,1.15E1,2.25E1,7.5E0,5.5E0,2.65E1,2.2633603E0,3.45E1,6.5E0,4.35E1,3.85E1,1.45E1,2.9733965E0,4.003482E1,2.990424E-2,2.0918949E-1,-3.392927E-2,1.9946782E-1,9.648923E-2,9.3470335E-1,4.532083E-1,2.4509854E0,1.0211793E0,3.2389936E-1,1.9081738E0,-4.952533E-2,-6.9006714E-3,8.9648074E-1,5.953528E-1,9.874151E-2,1.5635365E-1,1.3644078E0,2.4668348E0,-6.15319E-2,5.915668E-1,1.9747639E0,1.2356595E-1,1.2464427E0,1.3342942E0,2.3456275E0],"split_indices":[108,47,10,8,73,45,42,57,8,63,42,108,73,73,10,45,10,0,63,73,23,96,57,0,21,50,73,21,92,0,108,0,0,0,0,0,0,0,0,0,0,0,0,0,0,0,0,0,0,0,0,0,0,0,0,0,0],"split_type":[0,0,0,0,0,0,0,0,0,0,0,0,0,0,0,0,0,0,0,0,0,0,0,0,0,0,0,0,0,0,0,0,0,0,0,0,0,0,0,0,0,0,0,0,0,0,0,0,0,0,0,0,0,0,0,0,0],"sum_hessian":[1.9294E4,1.5573E4,3.721E3,1.0895E4,4.678E3,3.33E3,3.91E2,1.06E4,2.95E2,1.791E3,2.887E3,2.101E3,1.229E3,1.07E2,2.84E2,6.701E3,3.899E3,5E1,2.45E2,9.3E1,1.698E3,2.26E2,2.661E3,6.8E1,2.033E3,9.33E2,2.96E2,3.4E1,7.3E1,7.8E1,2.06E2,6.079E3,6.22E2,3.786E3,1.13E2,2.21E2,2.4E1,1.2E1,8.1E1,4.96E2,1.202E3,6.7E1,1.59E2,2.633E3,2.8E1,5.2E2,1.513E3,5.72E2,3.61E2,2.53E2,4.3E1,1.5E1,1.9E1,6.2E1,1.1E1,2.9E1,1.77E2],"tree_param":{"num_deleted":"0","num_feature":"110","num_nodes":"57","size_leaf_vector":"0"}},{"base_weights":[1.9539741E0,8.8253045E-1,1.3886069E1,2.1246054E1,6.9506764E-1,5.897924E0,1.59993305E1,6.2196654E-1,2.47815E1,1.3834477E1,4.3093976E-1,2.1629922E0,9.627084E0,1.1419124E1,1.995376E1,-8.0617654E-1,1.0821262E1,5.5663943E0,2.2759863E1,1.6766027E-1,2.749963E0,-8.216747E-2,1.1110956E1,1.7964273E1,8.226772E0,1.6641754E1,7.5773997E0,2.4556934E1,1.8408731E1,1.457657E1,-0E0,4.3031907E0,6.766831E0,1.6723324E1,2.622632E1,7.127388E-2,4.39725E0,1.5864602E1,2.3410687E0,-7.217522E-1,5.2555766E0,1.2243082E1,-0E0,7.2250614E0,2.0027355E1,1.4891871E1,2.2266039E1,5.020672E0,1.9025045E1,2.4712511E1,-0E0,-0E0,1.8979557E1],"categories":[],"categories_nodes":[],"categories_segments":[],"categories_sizes":[],"default_left":[true,true,true,true,true,true,true,true,false,true,true,true,true,true,true,false,true,true,true,true,true,true,true,false,true,true,true,true,true,false,false,false,false,false,false,false,false,false,false,false,false,false,false,false,false,false,false,false,false,false,false,false,false],"id":2,"left_children":[1,3,5,7,9,11,13,15,-1,17,19,21,23,25,27,-1,29,31,33,35,37,39,41,-1,43,45,47,49,51,-1,-1,-1,-1,-1,-1,-1,-1,-1,-1,-1,-1,-1,-1,-1,-1,-1,-1,-1,-1,-1,-1,-1,-1],"loss_changes":[2.4651831E5,6.736058E4,2.6510656E4,1.146993E4,6.074797E4,4.527208E3,2.2189094E4,4.7302603E2,0E0,2.504961E4,1.0473676E4,3.5264336E3,1.5282959E3,1.1369086E4,3.8904688E3,0E0,1.690303E2,1.3464844E2,2.5846016E3,6.255209E3,9.165177E3,4.2275076E2,4.7571143E2,0E0,1.2967881E3,1.7179297E3,9.615318E3,6.463672E2,5.4385E3,0E0,0E0,0E0,0E0,0E0,0E0,0E0,0E0,0E0,0E0,0E0,0E0,0E0,0E0,0E0,0E0,0E0,0E0,0E0,0E0,0E0,0E0,0E0,0E0],"parents":[2147483647,0,0,1,1,2,2,3,3,4,4,5,5,6,6,7,7,9,9,10,10,11,11,12,12,13,13,14,14,16,16,17,17,18,18,19,19,20,20,21,21,22,22,24,24,25,25,26,26,27,27,28,28],"right_children":[2,4,6,8,10,12,14,16,-1,18,20,22,24,26,28,-1,30,32,34,36,38,40,42,-1,44,46,48,50,52,-1,-1,-1,-1,-1,-1,-1,-1,-1,-1,-1,-1,-1,-1,-1,-1,-1,-1,-1,-1,-1,-1,-1,-1],"split_conditions":[7.2181664E0,-4.0763447E-1,2.15E1,8.5E0,-4.75E1,3.5E0,9.615385E-3,2.9411765E-2,2.4781501E0,1.8E1,3.2928922E0,1.75E1,-4.7E1,1.85E1,-4.100699E-1,-8.061766E-2,1E0,1.05E1,2.05E1,2.8174603E-2,3.2970588E0,1.633943E-3,2.6E1,1.7964274E0,1.8807018E1,1.85E1,1.6472221E1,2.8611112E-1,4.5E0,1.457657E0,-0E0,4.3031907E-1,6.766831E-1,1.6723324E0,2.622632E0,7.127388E-3,4.39725E-1,1.5864602E0,2.3410688E-1,-7.217523E-2,5.255577E-1,1.2243083E0,-0E0,7.2250617E-1,2.0027356E0,1.4891871E0,2.226604E0,5.020672E-1,1.9025046E0,2.4712512E0,-0E0,-0E0,1.8979558E0],"split_indices":[3,106,69,28,77,28,12,13,0,47,3,47,77,77,106,0,2,61,61,13,3,106,59,0,3,61,3,10,30,0,0,0,0,0,0,0,0,0,0,0,0,0,0,0,0,0,0,0,0,0,0,0,0],"split_type":[0,0,0,0,0,0,0,0,0,0,0,0,0,0,0,0,0,0,0,0,0,0,0,0,0,0,0,0,0,0,0,0,0,0,0,0,0,0,0,0,0,0,0,0,0,0,0,0,0,0,0,0,0],"sum_hessian":[1.9294E4,1.7706E4,1.588E3,1.6E2,1.7546E4,3.34E2,1.254E3,2.4E1,1.36E2,3.44E2,1.7202E4,1.69E2,1.65E2,5.84E2,6.7E2,2.1E1,3E0,1.8E2,1.64E2,1.5453E4,1.749E3,1.35E2,3.4E1,2.1E1,1.44E2,2.45E2,3.39E2,1.63E2,5.07E2,2E0,1E0,9.4E1,8.6E1,6.3E1,1.01E2,1.5112E4,3.41E2,5.1E1,1.698E3,1.23E2,1.2E1,3.1E1,3E0,1.35E2,9E0,1.91E2,5.4E1,2.79E2,6E1,1.62E2,1E0,1.5E1,4.92E2],"tree_param":{"num_deleted":"0","num_feature":"110","num_nodes":"53","size_leaf_vector":"0"}},{"base_weights":[1.760923E0,7.9537755E-1,1.2513064E1,1.2475384E1,5.6267595E-1,1.0693231E1,1.9581842E1,5.5368533E0,2.1606152E1,3.8977998E-1,9.680473E0,4.2894864E0,1.2276917E1,1.9720865E1,-0E0,4.5485725E0,9.723744E0,1.6175474E1,2.4109808E1,-7.93705E-2,1.5020878E0,-1.835886E-1,1.8024477E1,1.6464176E1,3.4146557E0,1.39060335E1,4.698178E0,1.9794748E1,-0E0,-6.182978E-1,3.730162E-1,3.0159426E0,5.38167E-1,8.382042E0,-4.8758122E-1,2.2114406E0,2.232144E1,4.5762634E0,-5.5959576E-1,9.148607E0,1.6438417E1,7.7840977E0,-3.2346076E-1,1.9862043E1,2.7299564E0],"categories":[],"categories_nodes":[],"categories_segments":[],"categories_sizes":[],"default_left":[true,true,true,true,true,true,true,true,true,true,true,true,true,true,false,false,false,false,false,true,true,true,true,false,true,true,true,true,false,false,false,false,false,false,false,false,false,false,false,false,false,false,false,false,false],"id":3,"left_children":[1,3,5,7,9,11,13,15,17,19,21,23,25,27,-1,-1,-1,-1,-1,29,31,33,35,-1,37,39,41,43,-1,-1,-1,-1,-1,-1,-1,-1,-1,-1,-1,-1,-1,-1,-1,-1,-1],"loss_changes":[2.0017148E5,4.7989445E4,1.9928766E4,2.1466105E4,2.7267086E4,1.2630969E4,9.8703125E2,6.323369E2,1.2194531E3,8.90754E3,2.6684176E4,2.4502935E3,1.2268125E4,5.4535156E2,0E0,0E0,0E0,0E0,0E0,2.9236938E3,7.3494873E3,3.1051782E2,1.1596215E4,0E0,1.1460764E3,9.629422E3,2.8974646E3,8.733594E1,0E0,0E0,0E0,0E0,0E0,0E0,0E0,0E0,0E0,0E0,0E0,0E0,0E0,0E0,0E0,0E0,0E0],"parents":[2147483647,0,0,1,1,2,2,3,3,4,4,5,5,6,6,7,7,8,8,9,9,10,10,11,11,12,12,13,13,19,19,20,20,21,21,22,22,24,24,25,25,26,26,27,27],"right_children":[2,4,6,8,10,12,14,16,18,20,22,24,26,28,-1,-1,-1,-1,-1,30,32,34,36,-1,38,40,42,44,-1,-1,-1,-1,-1,-1,-1,-1,-1,-1,-1,-1,-1,-1,-1,-1,-1],"split_conditions":[7.2181664E0,-4.75E1,1.8943382E1,1.65E1,4.65E1,4.5E0,3.75E1,8.5E0,2.35E1,1.7679486E0,3.3431373E0,-4.65E1,6.5E0,4.45E1,-0E0,4.5485726E-1,9.7237444E-1,1.6175474E0,2.410981E0,3.2529068E-1,1.5E0,1.8E1,3.05E1,1.6464176E0,4.95E1,1.95E1,3.25E1,4.35E1,-0E0,-6.1829783E-2,3.7301622E-2,3.0159426E-1,5.3816702E-2,8.382042E-1,-4.8758123E-2,2.2114407E-1,2.232144E0,4.5762634E-1,-5.595958E-2,9.148607E-1,1.6438417E0,7.784098E-1,-3.2346077E-2,1.9862044E0,2.7299565E-1],"split_indices":[3,77,3,75,37,26,39,75,75,3,3,77,74,73,0,0,0,0,0,3,54,75,0,0,0,0,75,37,0,0,0,0,0,0,0,0,0,0,0,0,0,0,0,0,0],"split_type":[0,0,0,0,0,0,0,0,0,0,0,0,0,0,0,0,0,0,0,0,0,0,0,0,0,0,0,0,0,0,0,0,0,0,0,0,0,0,0,0,0,0,0,0,0],"sum_hessian":[1.9294E4,1.7706E4,1.588E3,3.44E2,1.7362E4,1.266E3,3.22E2,1.97E2,1.47E2,1.7041E4,3.21E2,2.53E2,1.013E3,3.2E2,2E0,1.63E2,3.4E1,5E1,9.7E1,1.198E4,5.061E3,1.47E2,1.74E2,1.5E1,2.38E2,8.32E2,1.81E2,3.19E2,1E0,5.477E3,6.503E3,1.964E3,3.097E3,3E0,1.44E2,3.8E1,1.36E2,1.86E2,5.2E1,2.92E2,5.4E2,1.13E2,6.8E1,3.17E2,2E0],"tree_param":{"num_deleted":"0","num_feature":"110","num_nodes":"45","size_leaf_vector":"0"}},{"base_weights":[1.5862664E0,7.16745E-1,1.1268475E1,1.7254549E1,5.64394E-1,3.3465152E0,1.273058E1,5.406803E-1,2.0105587E1,-1.9553402E-1,1.3746098E0,-0E0,7.169798E0,1.3918964E1,3.6237142E0,3.7417688E0,-5.9758306E-1,1.1131674E0,-3.9587808E-1,1.4683397E1,1.2770615E0,-5.0509214E-1,5.4903526E0,9.344545E0,1.2918974E0,1.0706474E1,1.6302454E1,-1.3973955E0,5.1576176E0,-0E0,9.6308975E0,-3.30644E-1,1.8832402E0,9.469675E-1,-4.992726E-1,3.669307E0,8.199658E-1,2.0699866E0,-6.462409E-1,8.502554E0,-0E0,2.8632045E-2,1.0909028E1,-0E0,4.8726277E0,4.1882253E0,1.141711E1,8.745956E0,1.7158264E1,1.7310601E0,-2.0372872E0,7.1977196E0,1.2846048E0],"categories":[],"categories_nodes":[],"categories_segments":[],"categories_sizes":[],"default_left":[true,true,true,true,true,true,true,true,false,true,true,true,true,true,true,true,false,true,true,false,true,true,true,true,true,true,true,true,true,false,false,false,false,false,false,false,false,false,false,false,false,false,false,false,false,false,false,false,false,false,false,false,false],"id":4,"left_children":[1,3,5,7,9,11,13,15,-1,17,19,21,23,25,27,29,-1,31,33,-1,35,37,39,41,43,45,47,49,51,-1,-1,-1,-1,-1,-1,-1,-1,-1,-1,-1,-1,-1,-1,-1,-1,-1,-1,-1,-1,-1,-1,-1,-1],"loss_changes":[1.623145E5,4.442577E4,1.8201594E4,7.454617E3,1.0815848E4,3.2147114E3,1.4276234E4,1.2476991E2,0E0,2.3658303E3,1.0855475E4,3.6321832E2,1.3771685E3,8.621172E3,1.2540073E3,2.4500925E2,0E0,1.3447974E3,1.0866066E3,0E0,9.18002E3,3.2170418E1,2.467638E2,1.1145762E3,2.0442154E2,2.153871E3,3.9625469E3,7.865636E1,8.698943E2,0E0,0E0,0E0,0E0,0E0,0E0,0E0,0E0,0E0,0E0,0E0,0E0,0E0,0E0,0E0,0E0,0E0,0E0,0E0,0E0,0E0,0E0,0E0,0E0],"parents":[2147483647,0,0,1,1,2,2,3,3,4,4,5,5,6,6,7,7,9,9,10,10,11,11,12,12,13,13,14,14,15,15,17,17,18,18,20,20,21,21,22,22,23,23,24,24,25,25,26,26,27,27,28,28],"right_children":[2,4,6,8,10,12,14,16,-1,18,20,22,24,26,28,30,-1,32,34,-1,36,38,40,42,44,46,48,50,52,-1,-1,-1,-1,-1,-1,-1,-1,-1,-1,-1,-1,-1,-1,-1,-1,-1,-1,-1,-1,-1,-1,-1,-1],"split_conditions":[7.2181664E0,-4.0763447E-1,1.75E1,8.5E0,9.2403847E-1,3.5E0,6.125731E-1,-4.9229673E-1,2.0105588E0,1.05E1,9.2546296E-1,1.4277389E-3,3.05E1,2.25E1,-3.0668918E-2,6.5E0,-5.9758306E-2,3.309524E-1,2.5E0,1.4683398E0,1.5E0,3.5E0,5.882353E-2,8.242857E0,6.5E0,4.5E0,2.5E0,-3.2415283E-1,3.55E1,-0E0,9.6308976E-1,-3.3064403E-2,1.8832402E-1,9.469675E-2,-4.992726E-2,3.669307E-1,8.199658E-2,2.0699866E-1,-6.462409E-2,8.502554E-1,-0E0,2.8632046E-3,1.0909028E0,-0E0,4.872628E-1,4.1882253E-1,1.1417111E0,8.7459564E-1,1.7158264E0,1.7310601E-1,-2.0372872E-1,7.19772E-1,1.2846048E-1],"split_indices":[3,106,55,24,3,28,4,106,0,75,3,106,75,75,106,60,0,3,44,0,36,24,6,3,22,30,60,106,55,0,0,0,0,0,0,0,0,0,0,0,0,0,0,0,0,0,0,0,0,0,0,0,0],"split_type":[0,0,0,0,0,0,0,0,0,0,0,0,0,0,0,0,0,0,0,0,0,0,0,0,0,0,0,0,0,0,0,0,0,0,0,0,0,0,0,0,0,0,0,0,0,0,0,0,0,0,0,0,0],"sum_hessian":[1.9294E4,1.7706E4,1.588E3,1.6E2,1.7546E4,2.49E2,1.339E3,2.4E1,1.36E2,9.048E3,8.498E3,1.33E2,1.16E2,1.183E3,1.56E2,8E0,1.6E1,1.194E3,7.854E3,6E1,8.438E3,1.23E2,1E1,8.3E1,3.3E1,5.08E2,6.75E2,3.5E1,1.21E2,5E0,3E0,4.11E2,7.83E2,5.54E2,7.3E3,1.349E3,7.089E3,2E0,1.21E2,7E0,3E0,1.3E1,7E1,2.3E1,1E1,5.2E1,4.56E2,7.1E1,6.04E2,3E0,3.2E1,7.7E1,4.4E1],"tree_param":{"num_deleted":"0","num_feature":"110","num_nodes":"53","size_leaf_vector":"0"}},{"base_weights":[1.4288504E0,6.454967E-1,1.0150949E1,1.1085547E1,4.3744147E-1,3.027238E0,1.1464961E1,4.250604E0,1.8369911E1,2.9638976E-1,1.0630221E1,8.660662E0,1.5255786E0,8.20982E0,1.4722084E1,3.4141836E0,5.8201756E0,1.37329235E1,2.1585629E1,8.502926E-2,2.1790533E0,-0E0,1.7248598E1,-3.2897416E-1,1.083294E1,8.544886E-1,1.034399E1,1.2172072E1,5.1960874E0,1.1123618E1,1.6142717E1,1.0492538E0,1.3937468E1,6.3224655E-1,-3.356287E-1,1.4175448E1,1.798903E0,-9.283305E-1,1.5182292E0,1.8053438E1,-0E0,-0E0,-1.0170566E0,5.654472E0,1.4430176E1,3.365971E0,-0E0,1.6119877E1,-1.2140326E-1,1.0681526E1,1.671221E1,3.1996524E0,1.4338244E1,1.1378688E1,-1.3368549E0,-1.7074808E0,1.6435349E1],"categories":[],"categories_nodes":[],"categories_segments":[],"categories_sizes":[],"default_left":[true,true,true,true,true,true,true,true,true,true,true,true,true,true,true,false,false,true,false,true,true,true,true,true,true,true,true,true,true,true,true,false,false,false,false,false,false,false,false,false,false,false,false,false,false,false,false,false,false,false,false,false,false,false,false,false,false],"id":5,"left_children":[1,3,5,7,9,11,13,15,17,19,21,23,25,27,29,-1,-1,31,-1,33,35,37,39,41,43,45,47,49,51,53,55,-1,-1,-1,-1,-1,-1,-1,-1,-1,-1,-1,-1,-1,-1,-1,-1,-1,-1,-1,-1,-1,-1,-1,-1,-1,-1],"loss_changes":[1.3171834E5,3.834142E4,1.4694453E4,1.6872648E4,2.4850523E4,1.9997961E3,1.3857016E4,1.2409326E2,1.8256484E3,6.79276E3,1.6768686E4,1.104531E3,1.062766E3,7.811418E3,2.9575469E3,0E0,0E0,2.2302734E1,0E0,3.5492756E3,7.6769453E3,1.2402527E2,2.192664E3,8.227398E0,4.999414E2,3.7257086E2,9.4775183E2,1.503293E3,6.823909E3,7.322168E2,2.6512969E3,0E0,0E0,0E0,0E0,0E0,0E0,0E0,0E0,0E0,0E0,0E0,0E0,0E0,0E0,0E0,0E0,0E0,0E0,0E0,0E0,0E0,0E0,0E0,0E0,0E0,0E0],"parents":[2147483647,0,0,1,1,2,2,3,3,4,4,5,5,6,6,7,7,8,8,9,9,10,10,11,11,12,12,13,13,14,14,17,17,19,19,20,20,21,21,22,22,23,23,24,24,25,25,26,26,27,27,28,28,29,29,30,30],"right_children":[2,4,6,8,10,12,14,16,18,20,22,24,26,28,30,-1,-1,32,-1,34,36,38,40,42,44,46,48,50,52,54,56,-1,-1,-1,-1,-1,-1,-1,-1,-1,-1,-1,-1,-1,-1,-1,-1,-1,-1,-1,-1,-1,-1,-1,-1,-1,-1],"split_conditions":[7.2181664E0,-4.75E1,1.75E1,1.2E1,4.55E1,-2.1199428E-3,5.6349207E-2,1.05E1,2.25E1,3.29222E0,1.85E1,5.5E0,2.25E1,1.85E1,2.15E1,3.4141836E-1,5.820176E-1,1.25E1,2.158563E0,2.05E1,3.2970588E0,3.3431373E0,2.55E1,1.6666667E-1,1.1734848E1,1.7857144E-2,6.5E0,2.4E1,1.6472221E1,3.75E1,3.5E0,1.0492539E-1,1.3937467E0,6.322466E-2,-3.356287E-2,1.4175448E0,1.798903E-1,-9.283305E-2,1.5182292E-1,1.8053439E0,-0E0,-0E0,-1.0170566E-1,5.654472E-1,1.4430176E0,3.365971E-1,-0E0,1.6119877E0,-1.2140326E-2,1.0681527E0,1.671221E0,3.1996524E-1,1.4338244E0,1.1378688E0,-1.336855E-1,-1.7074808E-1,1.6435349E0],"split_indices":[3,77,55,94,55,100,12,67,67,3,27,94,77,77,67,0,0,73,0,67,3,3,67,4,3,10,65,73,3,59,38,0,0,0,0,0,0,0,0,0,0,0,0,0,0,0,0,0,0,0,0,0,0,0,0,0,0],"split_type":[0,0,0,0,0,0,0,0,0,0,0,0,0,0,0,0,0,0,0,0,0,0,0,0,0,0,0,0,0,0,0,0,0,0,0,0,0,0,0,0,0,0,0,0,0,0,0,0,0,0,0,0,0,0,0,0,0],"sum_hessian":[1.9294E4,1.7706E4,1.588E3,3.44E2,1.7362E4,2.49E2,1.339E3,1.79E2,1.65E2,1.7127E4,2.35E2,5E1,1.99E2,6.73E2,6.66E2,1.23E2,5.6E1,7.1E1,9.4E1,1.5404E4,1.723E3,9E1,1.45E2,9E0,4.1E1,1.87E2,1.2E1,2.88E2,3.85E2,1.93E2,4.73E2,2E0,6.9E1,6.705E3,8.699E3,5.1E1,1.672E3,6E1,3E1,1.39E2,6E0,1E0,8E0,1.9E1,2.2E1,4.4E1,1.43E2,8E0,4E0,2.21E2,6.7E1,3.18E2,6.7E1,1.9E2,3E0,7E0,4.66E2],"tree_param":{"num_deleted":"0","num_feature":"110","num_nodes":"57","size_leaf_vector":"0"}},{"base_weights":[1.2876482E0,7.5466614E0,5.885874E-1,2.7786949E0,1.1595877E1,3.7709734E-1,9.306071E0,1.3404323E0,8.90942E0,8.361844E0,1.3287812E1,8.56096E-1,-3.6032578E-1,-0E0,1.5472798E1,1.7364439E0,-7.0956355E-1,9.3714075E0,-2.517543E-1,1.5296606E1,7.3042865E0,1.3588904E1,-3.8473353E0,6.4357023E0,6.180349E-1,-4.6829897E-1,1.5496719E0,-5.500064E-1,6.4882455E0,1.737112E1,-9.464513E-1,1.39572E0,1.0782734E1,-0E0,-9.1583586E-1,9.707725E0,-1.063248E0,-1.7045126E0,-0E0,1.5837293E1,-0E0,8.2161665E0,-8.183885E-1,1.2201259E1,1.7258463E1,1.1873144E1,-1.9120157E-1,1.0519848E-1,2.1097794E0,-4.762948E-1,5.3776746E0,1.8159853E1,-7.8818464E-1,-8.588221E-1,4.5851245E0,-0E0,1.1706698E1,1.7616507E1,-0E0],"categories":[],"categories_nodes":[],"categories_segments":[],"categories_sizes":[],"default_left":[true,true,true,true,true,true,true,true,true,true,true,true,true,true,true,true,true,true,true,true,true,true,false,true,true,true,true,true,true,true,false,false,false,false,false,false,false,false,false,false,false,false,false,false,false,false,false,false,false,false,false,false,false,false,false,false,false,false,false],"id":6,"left_children":[1,3,5,7,9,11,13,15,17,19,21,23,25,27,29,31,33,35,37,39,41,43,-1,45,47,49,51,53,55,57,-1,-1,-1,-1,-1,-1,-1,-1,-1,-1,-1,-1,-1,-1,-1,-1,-1,-1,-1,-1,-1,-1,-1,-1,-1,-1,-1,-1,-1],"loss_changes":[8.433813E4,3.7220773E4,3.190378E4,7.750852E3,5.395875E3,5.9924253E3,2.3626438E4,6.000719E2,8.0458984E2,2.3318047E3,3.6734766E3,1.3585592E4,1.3648379E3,5.5145154E2,7.8794336E3,1.7495254E3,1.976873E1,6.6177246E2,1.9830502E1,5.235303E2,2.443502E3,2.9166797E3,0E0,1.5217088E4,7.525324E3,2.4877795E2,1.3856972E4,2.0930356E2,4.5415952E2,9.749453E2,0E0,0E0,0E0,0E0,0E0,0E0,0E0,0E0,0E0,0E0,0E0,0E0,0E0,0E0,0E0,0E0,0E0,0E0,0E0,0E0,0E0,0E0,0E0,0E0,0E0,0E0,0E0,0E0,0E0],"parents":[2147483647,0,0,1,1,2,2,3,3,4,4,5,5,6,6,7,7,8,8,9,9,10,10,11,11,12,12,13,13,14,14,15,15,16,16,17,17,18,18,19,19,20,20,21,21,23,23,24,24,25,25,26,26,27,27,28,28,29,29],"right_children":[2,4,6,8,10,12,14,16,18,20,22,24,26,28,30,32,34,36,38,40,42,44,-1,46,48,50,52,54,56,58,-1,-1,-1,-1,-1,-1,-1,-1,-1,-1,-1,-1,-1,-1,-1,-1,-1,-1,-1,-1,-1,-1,-1,-1,-1,-1,-1,-1,-1],"split_conditions":[6.051425E-1,2.05E1,4.45E1,1.65E1,1.4717426E-2,9.536673E-1,2.25E1,2.95E1,7.5E0,1.8333334E-1,3.35E1,5.5E0,7.5E0,-2.0819633E-12,-3.758236E-2,1.75E1,3.15E1,8.391608E-2,4.6813726E-1,5.373655E-1,3.75E1,2.45E1,-3.8473353E-1,3.25E1,1.2931737E-2,2.2991544E-2,4.5E0,2.55E1,9.5E0,4.4E1,-9.4645135E-2,1.3957201E-1,1.0782734E0,-0E0,-9.158359E-2,9.7077245E-1,-1.0632481E-1,-1.7045127E-1,-0E0,1.5837293E0,-0E0,8.2161665E-1,-8.183885E-2,1.2201259E0,1.7258463E0,1.1873144E0,-1.9120157E-2,1.0519848E-2,2.1097794E-1,-4.762948E-2,5.3776747E-1,1.8159853E0,-7.881846E-2,-8.588221E-2,4.5851246E-1,-0E0,1.1706699E0,1.7616507E0,-0E0],"split_indices":[4,73,51,51,12,4,53,75,18,4,53,92,62,100,106,73,61,8,4,106,73,49,0,73,106,8,18,61,70,73,0,0,0,0,0,0,0,0,0,0,0,0,0,0,0,0,0,0,0,0,0,0,0,0,0,0,0,0,0],"split_type":[0,0,0,0,0,0,0,0,0,0,0,0,0,0,0,0,0,0,0,0,0,0,0,0,0,0,0,0,0,0,0,0,0,0,0,0,0,0,0,0,0,0,0,0,0,0,0,0,0,0,0,0,0,0,0,0,0,0,0],"sum_hessian":[1.9294E4,1.936E3,1.7358E4,8.91E2,1.045E3,1.6949E4,4.09E2,7.24E2,1.67E2,3.63E2,6.82E2,1.0283E4,6.666E3,1.63E2,2.46E2,6.11E2,1.13E2,1.6E2,7E0,4.5E1,3.18E2,6.71E2,1.1E1,4.18E2,9.865E3,6.315E3,3.51E2,1.52E2,1.1E1,2.21E2,2.5E1,5.91E2,2E1,2.2E1,9.1E1,1.56E2,4E0,6E0,1E0,4.4E1,1E0,2.87E2,3.1E1,4.92E2,1.79E2,2.3E2,1.88E2,7.347E3,2.518E3,6.309E3,6E0,4.3E1,3.08E2,1.46E2,6E0,5E0,6E0,2.18E2,3E0],"tree_param":{"num_deleted":"0","num_feature":"110","num_nodes":"59","size_leaf_vector":"0"}},{"base_weights":[1.1597844E0,5.217078E-1,8.26316E0,3.3433846E-1,8.460663E0,6.983216E0,1.3227328E1,1.1095785E-1,2.2441049E0,1.435572E-1,1.4504911E1,4.4772096E0,9.753725E0,1.33549E1,-1.4986596E0,-4.6435842E-1,4.2698184E-1,1.1701577E1,1.7646701E0,-2.1775992E-1,5.3765187E0,1.5616839E1,-1.0656506E0,4.5402735E-1,5.8161373E0,1.7399555E1,8.539455E0,1.342272E1,-0E0,-3.3437735E-1,-7.451094E-1,3.5506922E-1,1.6484747E1,1.8884622E0,1.6233969E1,1.2582099E1,1.4210012E0,7.023237E0,-5.106722E-1,1.1423468E1,-9.932152E-3,1.7257288E1,1.186623E1,-0E0,-1.1164615E0,-2.6468545E-2,6.524301E0,1.459086E0,7.2379303E0,1.7714363E1,-0E0,7.623175E0,1.2610594E1,1.34889555E1,-0E0],"categories":[],"categories_nodes":[],"categories_segments":[],"categories_sizes":[],"default_left":[true,true,true,true,true,true,true,true,true,true,true,true,true,true,false,true,true,true,true,true,true,true,true,true,true,true,true,true,false,false,false,false,false,false,false,false,false,false,false,false,false,false,false,false,false,false,false,false,false,false,false,false,false,false,false],"id":7,"left_children":[1,3,5,7,9,11,13,15,17,19,21,23,25,27,-1,29,31,33,35,37,39,41,43,45,47,49,51,53,-1,-1,-1,-1,-1,-1,-1,-1,-1,-1,-1,-1,-1,-1,-1,-1,-1,-1,-1,-1,-1,-1,-1,-1,-1,-1,-1],"loss_changes":[8.73624E4,2.6248674E4,9.801805E3,7.356889E3,2.031159E4,8.610691E3,7.453711E2,2.8170283E3,8.0380605E3,3.7985962E2,4.230789E3,3.5383926E3,5.153203E3,4.0278516E2,0E0,1.8904333E2,1.1388316E4,3.6131309E3,6.2438228E3,2.799382E2,5.376795E2,8.575742E2,5.275173E-1,5.609971E2,2.9998809E3,5.705332E2,1.6412891E3,3.8844922E2,0E0,0E0,0E0,0E0,0E0,0E0,0E0,0E0,0E0,0E0,0E0,0E0,0E0,0E0,0E0,0E0,0E0,0E0,0E0,0E0,0E0,0E0,0E0,0E0,0E0,0E0,0E0],"parents":[2147483647,0,0,1,1,2,2,3,3,4,4,5,5,6,6,7,7,8,8,9,9,10,10,11,11,12,12,13,13,15,15,16,16,17,17,18,18,19,19,20,20,21,21,22,22,23,23,24,24,25,25,26,26,27,27],"right_children":[2,4,6,8,10,12,14,16,18,20,22,24,26,28,-1,30,32,34,36,38,40,42,44,46,48,50,52,54,-1,-1,-1,-1,-1,-1,-1,-1,-1,-1,-1,-1,-1,-1,-1,-1,-1,-1,-1,-1,-1,-1,-1,-1,-1,-1,-1],"split_conditions":[7.2181664E0,4.45E1,1.8943382E1,3.29222E0,2.15E1,1.3451433E1,6.27212E-1,3.2529068E-1,6.5E0,-2.0819633E-12,4.85E1,-3.002254E0,-4.5455912E-1,4.2222223E-1,-1.4986597E-1,1.45E1,9.8346996E-1,2.8414768E1,3.2970588E0,1.323015E1,1.85E1,2.05E1,1.2302454E1,8.5E0,9.154762E0,1.614762E1,4.05E1,4.2E1,-0E0,-3.3437736E-2,-7.451094E-2,3.5506923E-2,1.6484747E0,1.8884622E-1,1.6233969E0,1.25821E0,1.4210013E-1,7.0232373E-1,-5.1067222E-2,1.1423467E0,-9.932152E-4,1.7257289E0,1.186623E0,-0E0,-1.1164615E-1,-2.6468546E-3,6.524301E-1,1.459086E-1,7.23793E-1,1.7714363E0,-0E0,7.6231754E-1,1.2610594E0,1.3488955E0,-0E0],"split_indices":[3,51,3,3,45,109,106,3,45,100,29,108,106,4,0,51,4,109,3,108,45,31,108,34,3,3,19,45,0,0,0,0,0,0,0,0,0,0,0,0,0,0,0,0,0,0,0,0,0,0,0,0,0,0,0],"split_type":[0,0,0,0,0,0,0,0,0,0,0,0,0,0,0,0,0,0,0,0,0,0,0,0,0,0,0,0,0,0,0,0,0,0,0,0,0,0,0,0,0,0,0,0,0,0,0,0,0,0,0,0,0,0,0],"sum_hessian":[1.9294E4,1.7706E4,1.588E3,1.73E4,4.06E2,1.266E3,3.22E2,1.5494E4,1.806E3,1.72E2,2.34E2,6.68E2,5.98E2,3.2E2,2E0,5.482E3,1.0012E4,8.5E1,1.721E3,1.6E2,1.2E1,2.19E2,1.5E1,1.69E2,4.99E2,7.9E1,5.19E2,3.19E2,1E0,3.773E3,1.709E3,9.969E3,4.3E1,2.8E1,5.7E1,5.1E1,1.67E3,4E0,1.56E2,6E0,6E0,1.48E2,7.1E1,1E0,1.4E1,1.56E2,1.3E1,1.25E2,3.74E2,7.8E1,1E0,4.28E2,9.1E1,3.18E2,1E0],"tree_param":{"num_deleted":"0","num_feature":"110","num_nodes":"55","size_leaf_vector":"0"}},{"base_weights":[1.0449728E0,4.70291E-1,7.44198E0,9.069174E0,2.9882956E-1,6.291656E0,1.1900242E1,3.946889E0,1.53315735E1,1.94584E-1,1.1373598E1,5.654728E0,1.5424272E1,1.2088088E1,1.7427611E0,3.0835462E0,6.2643437E0,1.0096027E1,1.6238045E1,5.29336E0,1.4007422E-1,-0E0,1.3203106E1,9.650448E0,3.8985517E0,1.5965351E1,-6.322465E-1,1.2246822E1,-0E0,-5.2227297E0,1.2513934E1,3.1287665E0,-0E0,5.1209253E-1,1.24855585E1,1.8574168E-3,2.2899444E0,5.757333E0,-1.04091436E-1,1.1250273E1,1.479657E1,8.406545E0,1.5012677E1,2.8353794E0,1.0125054E1,1.1690679E1,1.6291471E1,-1.7595581E0,2.9327555E0],"categories":[],"categories_nodes":[],"categories_segments":[],"categories_sizes":[],"default_left":[true,true,true,true,true,true,true,true,true,true,true,true,true,true,true,true,false,false,false,true,true,true,true,true,true,false,false,true,true,false,false,false,false,false,false,false,false,false,false,false,false,false,false,false,false,false,false,false,false],"id":8,"left_children":[1,3,5,7,9,11,13,15,17,19,21,23,25,27,29,31,-1,-1,-1,33,35,37,39,41,43,-1,-1,45,47,-1,-1,-1,-1,-1,-1,-1,-1,-1,-1,-1,-1,-1,-1,-1,-1,-1,-1,-1,-1],"loss_changes":[7.085049E4,2.6010398E4,7.8923047E3,1.0813545E4,1.992761E4,7.0719023E3,4.5692188E2,2.713501E2,3.0358594E2,4.7262075E3,3.2296836E3,8.156289E3,8.671426E2,6.207031E2,7.3848096E2,1.5772705E0,0E0,0E0,0E0,6.0534395E3,5.0357285E3,6.654297E1,2.4902344E0,2.0408359E3,5.322919E3,0E0,0E0,2.3153516E2,2.9586287E1,0E0,0E0,0E0,0E0,0E0,0E0,0E0,0E0,0E0,0E0,0E0,0E0,0E0,0E0,0E0,0E0,0E0,0E0,0E0,0E0],"parents":[2147483647,0,0,1,1,2,2,3,3,4,4,5,5,6,6,7,7,8,8,9,9,10,10,11,11,12,12,13,13,14,14,15,15,19,19,20,20,21,21,22,22,23,23,24,24,27,27,28,28],"right_children":[2,4,6,8,10,12,14,16,18,20,22,24,26,28,30,32,-1,-1,-1,34,36,38,40,42,44,-1,-1,46,48,-1,-1,-1,-1,-1,-1,-1,-1,-1,-1,-1,-1,-1,-1,-1,-1,-1,-1,-1,-1],"split_conditions":[7.2181664E0,-4.75E1,1.8943382E1,1.55E1,5.4138217E0,5.731108E0,1.010101E-1,7.5E0,1.95E1,6.5E0,2.0504032E1,-4.7E1,1.5839286E1,3.6E1,2.3291668E1,1.6729994E-2,6.264344E-1,1.0096028E0,1.6238045E0,2.15E1,1.9419307E-2,1.9E1,4.296875E0,2.15E1,1.9756097E-1,1.5965351E0,-6.322465E-2,2.25E1,2.323125E1,-5.22273E-1,1.2513934E0,3.1287667E-1,-0E0,5.1209252E-2,1.2485559E0,1.8574168E-4,2.2899444E-1,5.757333E-1,-1.0409144E-2,1.1250273E0,1.479657E0,8.406545E-1,1.5012678E0,2.8353795E-1,1.0125054E0,1.1690679E0,1.6291472E0,-1.7595582E-1,2.9327556E-1],"split_indices":[3,77,3,75,107,107,7,75,75,45,108,77,3,75,3,100,0,0,0,75,13,45,3,75,12,0,0,45,3,0,0,0,0,0,0,0,0,0,0,0,0,0,0,0,0,0,0,0,0],"split_type":[0,0,0,0,0,0,0,0,0,0,0,0,0,0,0,0,0,0,0,0,0,0,0,0,0,0,0,0,0,0,0,0,0,0,0,0,0,0,0,0,0,0,0,0,0,0,0,0,0],"sum_hessian":[1.9294E4,1.7706E4,1.588E3,3.44E2,1.7362E4,1.266E3,3.22E2,1.91E2,1.53E2,1.7202E4,1.6E2,1.186E3,8E1,3.15E2,7E0,1.44E2,4.7E1,2.6E1,1.27E2,1.79E2,1.7023E4,2.3E1,1.37E2,3.59E2,8.27E2,7.8E1,2E0,3.11E2,4E0,4E0,3E0,1.4E2,4E0,1.09E2,7E1,1.6E4,1.023E3,1E0,2.2E1,6.8E1,6.9E1,2.95E2,6.4E1,7.09E2,1.18E2,2.79E2,3.2E1,3E0,1E0],"tree_param":{"num_deleted":"0","num_feature":"110","num_nodes":"49","size_leaf_vector":"0"}},{"base_weights":[9.4216937E-1,1.115759E1,7.567195E-1,2.2519996E0,1.2226969E1,1.0989111E-1,1.7295167E0,-6.7364466E-1,5.565044E0,1.3715244E1,1.0530981E1,1.2063534E0,-1.3309804E-1,1.5082563E0,6.6693873E0,-1.2470945E0,1.1095142E-1,-0E0,7.967871E0,1.384231E1,-0E0,-0E0,1.0645631E1,8.729539E-1,3.7814915E0,4.037629E-1,-3.1134036E-1,1.0879258E1,1.3913931E0,-0E0,7.2863817E0,-0E0,-1.459031E0,9.559733E0,-0E0,-0E0,1.3938772E1,1.5675092E0,-0E0,-2.5799108E-1,4.0655246E0,-1.1116968E-1,1.7421387E0,-3.245818E-1,5.6144824E0,-0E0,1.1513386E1,4.0615826E0,9.912008E-1,-3.4533744E0,3.835645E0,2.8149836E0,8.299163E0],"categories":[],"categories_nodes":[],"categories_segments":[],"categories_sizes":[],"default_left":[true,true,true,true,true,true,true,true,true,true,true,true,true,true,true,true,false,false,true,true,false,false,false,true,true,true,true,true,true,true,true,false,false,false,false,false,false,false,false,false,false,false,false,false,false,false,false,false,false,false,false,false,false],"id":9,"left_children":[1,3,5,7,9,11,13,15,17,19,21,23,25,27,29,31,-1,-1,33,35,-1,-1,-1,37,39,41,43,45,47,49,51,-1,-1,-1,-1,-1,-1,-1,-1,-1,-1,-1,-1,-1,-1,-1,-1,-1,-1,-1,-1,-1,-1],"loss_changes":[3.6425797E4,3.0942188E3,1.1907267E4,4.3068164E2,3.8294922E2,3.0457795E3,8.174508E3,2.0498327E1,3.3291028E2,3.5464258E2,2.5085352E2,1.7307874E3,8.908535E2,7.7930547E3,1.3922471E3,2.3819218E0,0E0,0E0,2.3574585E2,2.2108203E2,0E0,0E0,0E0,1.1057523E3,3.0760303E2,1.6078044E3,4.9897192E2,7.1934863E2,7.591202E3,3.673588E2,1.2059463E3,0E0,0E0,0E0,0E0,0E0,0E0,0E0,0E0,0E0,0E0,0E0,0E0,0E0,0E0,0E0,0E0,0E0,0E0,0E0,0E0,0E0,0E0],"parents":[2147483647,0,0,1,1,2,2,3,3,4,4,5,5,6,6,7,7,8,8,9,9,10,10,11,11,12,12,13,13,14,14,15,15,18,18,19,19,23,23,24,24,25,25,26,26,27,27,28,28,29,29,30,30],"right_children":[2,4,6,8,10,12,14,16,18,20,22,24,26,28,30,32,-1,-1,34,36,-1,-1,-1,38,40,42,44,46,48,50,52,-1,-1,-1,-1,-1,-1,-1,-1,-1,-1,-1,-1,-1,-1,-1,-1,-1,-1,-1,-1,-1,-1],"split_conditions":[-3.9753693E-1,1.65E1,1.75E1,5.5E0,1.1805555E-1,1.05E1,1.4642859E-1,2.974359E-1,4.5E0,2.8E1,3.5E0,3.05108E1,4.5E0,1.25E1,6.5E0,2.4E1,1.1095143E-2,-0E0,2.2198929E1,1.95E1,-0E0,-0E0,1.0645632E0,7.5E0,-4.081294E-2,1.05E1,2.15E1,1.8E1,-7.5918503E0,9E0,1.85E1,-0E0,-1.459031E-1,9.559733E-1,-0E0,-0E0,1.3938773E0,1.5675092E-1,-0E0,-2.5799109E-2,4.0655246E-1,-1.11169685E-2,1.7421387E-1,-3.2458182E-2,5.614483E-1,-0E0,1.1513386E0,4.0615827E-1,9.912008E-2,-3.4533745E-1,3.835645E-1,2.8149837E-1,8.299163E-1],"split_indices":[106,0,55,64,14,75,14,14,0,57,91,109,15,63,93,55,0,0,109,57,0,0,0,74,100,63,63,0,109,0,75,0,0,0,0,0,0,0,0,0,0,0,0,0,0,0,0,0,0,0,0,0,0],"split_type":[0,0,0,0,0,0,0,0,0,0,0,0,0,0,0,0,0,0,0,0,0,0,0,0,0,0,0,0,0,0,0,0,0,0,0,0,0,0,0,0,0,0,0,0,0,0,0,0,0,0,0,0,0],"sum_hessian":[1.9294E4,3.42E2,1.8952E4,3.8E1,3.04E2,1.139E4,7.562E3,1.9E1,1.9E1,1.55E2,1.49E2,2.073E3,9.317E3,7.241E3,3.21E2,1.8E1,1E0,5E0,1.4E1,1.54E2,1E0,1E0,1.48E2,1.84E3,2.33E2,2.308E3,7.009E3,8.7E1,7.154E3,2.6E1,2.95E2,4E0,1.4E1,1.2E1,2E0,1E0,1.53E2,1.02E3,8.2E2,1.3E1,2.2E2,1.662E3,6.46E2,6.996E3,1.3E1,4E0,8.3E1,9.28E2,6.226E3,1.5E1,1.1E1,5.7E1,2.38E2],"tree_param":{"num_deleted":"0","num_feature":"110","num_nodes":"53","size_leaf_vector":"0"}}]},"name":"gbtree"},"learner_model_param":{"base_score":"5E-1","num_class":"0","num_feature":"110"},"objective":{"name":"reg:squarederror","reg_loss_param":{"scale_pos_weight":"1"}}},"version":[1,4,2]}
