{"learner":{"attributes":{},"feature_names":[" day"," trace 40 quant","competitiveness","empirical_distr_p","empirical_distr_q_0","empirical_distr_q_1","empirical_distr_q_10","empirical_distr_q_2","empirical_distr_q_3","empirical_distr_q_4","empirical_distr_q_5","empirical_distr_q_6","empirical_distr_q_7","empirical_distr_q_8","empirical_distr_q_9","my_layer_size","n_level","n_opp_level","opp_layer_size","trace 0 price","trace 0 quant","trace 1 price","trace 1 quant","trace 10 price","trace 10 quant","trace 11 price","trace 11 quant","trace 12 price","trace 12 quant","trace 13 price","trace 13 quant","trace 14 price","trace 14 quant","trace 15 price","trace 15 quant","trace 16 price","trace 16 quant","trace 17 price","trace 17 quant","trace 18 price","trace 18 quant","trace 19 price","trace 19 quant","trace 2 price","trace 2 quant","trace 20 price","trace 20 quant","trace 21 price","trace 21 quant","trace 22 price","trace 22 quant","trace 23 price","trace 23 quant","trace 24 price","trace 24 quant","trace 25 price","trace 25 quant","trace 26 price","trace 26 quant","trace 27 price","trace 27 quant","trace 28 price","trace 28 quant","trace 29 price","trace 29 quant","trace 3 price","trace 3 quant","trace 30 price","trace 30 quant","trace 31 price","trace 31 quant","trace 32 price","trace 32 quant","trace 33 price","trace 33 quant","trace 34 price","trace 34 quant","trace 35 price","trace 35 quant","trace 36 price","trace 36 quant","trace 37 price","trace 37 quant","trace 38 price","trace 38 quant","trace 39 price","trace 39 quant","trace 4 price","trace 4 quant","trace 40 price","trace 5 price","trace 5 quant","trace 6 price","trace 6 quant","trace 7 price","trace 7 quant","trace 8 price","trace 8 quant","trace 9 price","trace 9 quant","ufun_param_0","ufun_param_1","ufun_param_2","ufun_param_3","ufun_param_4","ufun_param_5","ufun_param_6","ufun_param_7","ufun_param_8","ufun_param_9"],"feature_types":["int","int","float","float","float","float","float","float","float","float","float","float","float","float","float","int","int","int","int","int","int","int","int","int","int","int","int","int","int","int","int","int","int","int","int","int","int","int","int","int","int","int","int","int","int","int","int","int","int","int","int","int","int","int","int","int","int","int","int","int","int","int","int","int","int","int","int","int","int","int","int","int","int","int","int","int","int","int","int","int","int","int","int","int","int","int","int","int","int","int","int","int","int","int","int","int","int","int","int","int","float","float","float","float","float","float","float","float","float","float"],"gradient_booster":{"model":{"gbtree_model_param":{"num_trees":"10","size_leaf_vector":"0"},"tree_info":[0,0,0,0,0,0,0,0,0,0],"trees":[{"base_weights":[3.2128E0,9.3116647E-1,1.4047804E1,6.090195E-1,9.66676E0,1.0331523E1,1.5994199E1,4.5552132E-1,1.3387293E1,6.4297814E0,1.5115124E1,7.204555E0,1.6100195E1,1.0844335E1,1.6398577E1,3.4008914E-1,1.3884663E1,1.5038176E1,5.753623E0,1.4344996E0,1.2462069E1,2.2355715E1,1.25035715E1,3.9453251E0,1.337454E1,2.342314E1,1.3751548E1,6.28E0,1.1769322E1,1.3527422E1,1.6748058E1,1.975852E-1,2.3055685E0,9.486793E0,1.5956443E1,1.2145696E1,1.7655804E1,4.1925464E0,1.0765958E1,1.2640961E0,9.520833E0,5.9663463E0,1.53089485E1,1.96E0,2.3820553E1,1.3120671E1,2.1052632E0,1.5973091E0,6.4474564E0,1.1373918E1,1.5956153E1,1.9171259E1,2.6290411E1,1.2546836E1,1.9617737E1,3.75E0,8.516666E0,1.0717592E1,1.3577814E1,1.1921317E1,1.6308449E1,1.5649773E1,1.7924652E1],"categories":[],"categories_nodes":[],"categories_segments":[],"categories_sizes":[],"default_left":[true,true,true,true,true,true,true,true,true,true,true,true,true,true,true,true,true,true,true,true,true,true,true,true,true,true,true,true,true,true,true,false,false,false,false,false,false,false,false,false,false,false,false,false,false,false,false,false,false,false,false,false,false,false,false,false,false,false,false,false,false,false,false],"id":0,"left_children":[1,3,5,7,9,11,13,15,17,19,21,23,25,27,29,31,33,35,37,39,41,43,45,47,49,51,53,55,57,59,61,-1,-1,-1,-1,-1,-1,-1,-1,-1,-1,-1,-1,-1,-1,-1,-1,-1,-1,-1,-1,-1,-1,-1,-1,-1,-1,-1,-1,-1,-1,-1,-1],"loss_changes":[3.005626E6,2.825385E5,1.5254975E5,1.8985642E5,6.2666375E4,1.3086269E5,2.844625E4,1.4823388E5,1.4185594E4,6.743141E4,2.4502188E4,9.469041E4,4.3249625E4,4.030875E3,1.23765E4,2.6556598E4,7.02E3,6.6274062E3,1.4249785E3,1.5736023E3,1.846586E4,1.0152266E4,6.1085625E3,1.806902E4,7.9639062E3,6.5755938E3,1.31281875E4,8.356797E2,1.2111406E3,5.7944062E3,1.419175E4,0E0,0E0,0E0,0E0,0E0,0E0,0E0,0E0,0E0,0E0,0E0,0E0,0E0,0E0,0E0,0E0,0E0,0E0,0E0,0E0,0E0,0E0,0E0,0E0,0E0,0E0,0E0,0E0,0E0,0E0,0E0,0E0],"parents":[2147483647,0,0,1,1,2,2,3,3,4,4,5,5,6,6,7,7,8,8,9,9,10,10,11,11,12,12,13,13,14,14,15,15,16,16,17,17,18,18,19,19,20,20,21,21,22,22,23,23,24,24,25,25,26,26,27,27,28,28,29,29,30,30],"right_children":[2,4,6,8,10,12,14,16,18,20,22,24,26,28,30,32,34,36,38,40,42,44,46,48,50,52,54,56,58,60,62,-1,-1,-1,-1,-1,-1,-1,-1,-1,-1,-1,-1,-1,-1,-1,-1,-1,-1,-1,-1,-1,-1,-1,-1,-1,-1,-1,-1,-1,-1,-1,-1],"split_conditions":[4.5115333E-2,4.9691357E-2,1.4564393E-1,1.4784457E-1,4.1241497E-2,5.6873314E-2,-5.2270765E-4,4.2261904E-1,8.699092E-4,1.4550266E-1,5.0641026E-2,4.2481202E-1,5.0641026E-2,-2.810629E-3,8.5E0,1.6261237E-2,6.602564E-1,2.65E1,1.6843972E-1,3.0384618E-1,-1.1180622E-4,-1.1870258E-3,7.5E0,-2.1810331E-12,7.38796E-1,5E-1,1.8350169E-2,4.5E0,9.901961E-2,2.6785713E-1,5E-1,1.975852E-2,2.3055685E-1,9.4867927E-1,1.5956444E0,1.2145696E0,1.7655804E0,4.1925463E-1,1.0765958E0,1.2640962E-1,9.520833E-1,5.966346E-1,1.5308949E0,1.9600001E-1,2.3820553E0,1.3120672E0,2.1052633E-1,1.5973091E-1,6.4474565E-1,1.1373918E0,1.5956153E0,1.9171259E0,2.6290412E0,1.2546836E0,1.9617738E0,3.75E-1,8.516666E-1,1.0717592E0,1.3577814E0,1.1921318E0,1.630845E0,1.5649773E0,1.7924652E0],"split_indices":[14,12,14,8,8,12,100,6,100,12,8,6,14,100,0,8,6,0,7,6,100,100,2,100,6,2,7,15,12,6,16,0,0,0,0,0,0,0,0,0,0,0,0,0,0,0,0,0,0,0,0,0,0,0,0,0,0,0,0,0,0,0,0],"split_type":[0,0,0,0,0,0,0,0,0,0,0,0,0,0,0,0,0,0,0,0,0,0,0,0,0,0,0,0,0,0,0,0,0,0,0,0,0,0,0,0,0,0,0,0,0,0,0,0,0,0,0,0,0,0,0,0,0,0,0,0,0,0,0],"sum_hessian":[1.21585E5,1.00437E5,2.1148E4,9.6867E4,3.57E3,7.273E3,1.3875E4,9.5719E4,1.148E3,2.242E3,1.328E3,4.719E3,2.554E3,1.014E3,1.2861E4,9.4905E4,8.14E2,9.42E2,2.06E2,1.228E3,1.014E3,3.49E2,9.79E2,3.09E3,1.629E3,6.17E2,1.937E3,1.74E2,8.4E2,1.403E3,1.1458E4,8.8495E4,6.41E3,2.64E2,5.5E2,4.52E2,4.9E2,1.6E2,4.6E1,1.205E3,2.3E1,3.11E2,7.03E2,2.4E1,3.25E2,9.23E2,5.6E1,1.597E3,1.493E3,9.23E2,7.06E2,2.53E2,3.64E2,1.611E3,3.26E2,8.5E1,8.9E1,5.39E2,3.01E2,8.95E2,5.08E2,5.938E3,5.52E3],"tree_param":{"num_deleted":"0","num_feature":"110","num_nodes":"63","size_leaf_vector":"0"}},{"base_weights":[2.8920686E0,2.2475286E0,1.1906651E1,1.5189713E0,8.214923E0,8.174698E0,1.4196877E1,5.476817E-1,4.141686E0,6.27065E0,9.969305E0,1.4640556E1,6.4076715E0,1.3122408E1,1.9251266E1,4.203703E-1,3.8837173E0,3.7176607E0,9.745808E0,2.5673192E0,7.613296E0,2.050537E1,9.847919E0,1.0759374E1,1.9444365E1,7.75457E0,1.4409986E0,1.2002517E1,1.6452282E1,2.0213148E1,1.5191401E1,2.8963798E-1,2.4557896E0,1.5687773E0,5.417529E0,2.7774973E0,5.49777E0,1.2309125E1,3.5433822E0,1.9874425E0,7.4408555E0,9.916434E0,5.6047835E0,9.687585E0,1.6596516E1,9.360514E0,1.5984764E1,2.2068184E1,1.458363E1,5.6647964E0,1.2863552E1,5.6928134E-1,7.962538E0,2.0592268E1,1.1299454E1,1.9834906E1,1.3867933E1,2.4214796E1,1.9229876E1,1.2381112E1,1.7241623E1],"categories":[],"categories_nodes":[],"categories_segments":[],"categories_sizes":[],"default_left":[true,true,true,true,true,true,true,true,true,true,true,true,true,true,true,true,true,true,true,true,true,false,true,true,true,true,true,true,true,true,true,false,false,false,false,false,false,false,false,false,false,false,false,false,false,false,false,false,false,false,false,false,false,false,false,false,false,false,false,false,false],"id":1,"left_children":[1,3,5,7,9,11,13,15,17,19,21,23,25,27,29,31,33,35,37,39,41,-1,43,45,47,49,51,53,55,57,59,-1,-1,-1,-1,-1,-1,-1,-1,-1,-1,-1,-1,-1,-1,-1,-1,-1,-1,-1,-1,-1,-1,-1,-1,-1,-1,-1,-1,-1,-1],"loss_changes":[7.0627775E5,4.932328E5,6.8993625E4,2.5757348E5,4.1883875E4,3.4988594E4,2.6707875E4,3.130102E4,6.4768375E4,2.9021078E4,7.788375E3,1.1812734E4,1.6145922E4,1.49863125E4,2.7636875E3,1.8889867E4,9.543988E3,4.242628E4,3.0323516E4,4.308045E3,1.9675875E4,0E0,6.5165625E3,2.2941602E3,3.0484766E3,2.0123516E4,2.8720015E3,1.8230125E4,8.470719E3,1.8699375E3,4.9283984E2,0E0,0E0,0E0,0E0,0E0,0E0,0E0,0E0,0E0,0E0,0E0,0E0,0E0,0E0,0E0,0E0,0E0,0E0,0E0,0E0,0E0,0E0,0E0,0E0,0E0,0E0,0E0,0E0,0E0,0E0],"parents":[2147483647,0,0,1,1,2,2,3,3,4,4,5,5,6,6,7,7,8,8,9,9,10,10,11,11,12,12,13,13,14,14,15,15,16,16,17,17,18,18,19,19,20,20,22,22,23,23,24,24,25,25,26,26,27,27,28,28,29,29,30,30],"right_children":[2,4,6,8,10,12,14,16,18,20,22,24,26,28,30,32,34,36,38,40,42,-1,44,46,48,50,52,54,56,58,60,-1,-1,-1,-1,-1,-1,-1,-1,-1,-1,-1,-1,-1,-1,-1,-1,-1,-1,-1,-1,-1,-1,-1,-1,-1,-1,-1,-1,-1,-1],"split_conditions":[5.0316457E-2,9.022385E-1,9.245014E-2,1.5186878E1,-7.5726047E0,5.594679E-2,4.6674576E1,7.842506E-1,1.36060715E-2,1.0753982E0,-7.569051E0,2.3316376E1,9.045455E-2,2.2318009E-1,9.232955E-2,1.6261237E-2,-5.96231E0,3.0838604E1,4.4949494E-2,-8.194153E0,-1.60629E1,2.0505369E0,1.4467818E1,1.1965813E-1,3.1260054E1,1.4638768E1,4.6203372E-1,9.5491394E-2,2.2874355E-1,4.7242897E1,1.4039409E-1,2.8963799E-2,2.4557896E-1,1.5687774E-1,5.4175293E-1,2.7774975E-1,5.49777E-1,1.2309126E0,3.5433823E-1,1.9874425E-1,7.4408555E-1,9.916434E-1,5.604784E-1,9.687585E-1,1.6596516E0,9.3605137E-1,1.5984764E0,2.2068183E0,1.4583629E0,5.664796E-1,1.2863553E0,5.6928135E-2,7.962538E-1,2.0592268E0,1.1299454E0,1.9834906E0,1.3867934E0,2.4214797E0,1.9229876E0,1.2381113E0,1.7241623E0],"split_indices":[10,104,10,108,108,10,108,104,10,104,108,108,10,10,8,8,108,108,10,108,108,0,108,8,108,108,104,10,10,108,10,0,0,0,0,0,0,0,0,0,0,0,0,0,0,0,0,0,0,0,0,0,0,0,0,0,0,0,0,0,0],"split_type":[0,0,0,0,0,0,0,0,0,0,0,0,0,0,0,0,0,0,0,0,0,0,0,0,0,0,0,0,0,0,0,0,0,0,0,0,0,0,0,0,0,0,0,0,0,0,0,0,0,0,0,0,0,0,0,0,0,0,0,0,0],"sum_hessian":[1.21585E5,1.13474E5,8.111E3,1.0113E5,1.2344E4,3.088E3,5.023E3,7.3803E4,2.7327E4,5.86E3,6.484E3,6.6E2,2.428E3,4.147E3,8.76E2,7.1094E4,2.709E3,2.5408E4,1.919E3,1.562E3,4.298E3,7.1E1,6.413E3,3.68E2,2.92E2,1.908E3,5.2E2,3.109E3,1.038E3,7.03E2,1.73E2,6.6809E4,4.285E3,1.083E3,1.626E3,1.6632E4,8.776E3,1.356E3,5.63E2,1.399E3,1.63E2,1.998E3,2.3E3,6.268E3,1.45E2,2.94E2,7.4E1,1.86E2,1.06E2,1.357E3,5.51E2,4.61E2,5.9E1,2.32E2,2.877E3,4.45E2,5.93E2,1.32E2,5.71E2,7.8E1,9.5E1],"tree_param":{"num_deleted":"0","num_feature":"110","num_nodes":"61","size_leaf_vector":"0"}},{"base_weights":[2.6033826E0,1.15248315E-1,1.3902778E1,-4.5583045E-1,1.7872597E0,1.1366587E1,1.8691475E1,-6.3626117E-1,9.7655E-2,1.7007471E0,2.8328415E1,8.673015E0,1.3149629E1,1.75531E1,2.2186037E1,-5.8846295E-1,-1.0098538E0,2.1257586E0,5.2681807E-2,1.2771505E0,4.0701447E0,2.9425014E1,-0E0,1.9404182E1,8.532934E0,1.3404979E1,-3.0200312E-1,1.7844563E1,7.2894564E0,2.1053835E1,2.4321304E1,-6.071943E-1,4.3289313E-1,-1.0132152E0,2.059411E0,1.5546835E1,-5.6723744E-1,-2.5020102E-1,2.9429546E-1,2.1675386E0,6.453545E-1,2.7608957E1,3.5646355E0,7.825226E0,2.1891771E1,8.740098E0,4.2191467E0,1.1582564E1,1.4587525E1,1.0845032E1,-7.187749E-1,1.6286062E1,1.8537777E1,-2.16905E0,1.6781427E1,2.107313E1,-0E0],"categories":[],"categories_nodes":[],"categories_segments":[],"categories_sizes":[],"default_left":[true,true,true,true,true,true,true,true,true,true,true,true,true,true,true,true,true,true,true,true,true,false,false,true,true,true,true,true,true,true,false,false,false,false,false,false,false,false,false,false,false,false,false,false,false,false,false,false,false,false,false,false,false,false,false,false,false],"id":2,"left_children":[1,3,5,7,9,11,13,15,17,19,21,23,25,27,29,31,33,35,37,39,41,-1,-1,43,45,47,49,51,53,55,-1,-1,-1,-1,-1,-1,-1,-1,-1,-1,-1,-1,-1,-1,-1,-1,-1,-1,-1,-1,-1,-1,-1,-1,-1,-1,-1],"loss_changes":[3.4181775E6,9.516113E4,2.659615E5,7.4227803E3,5.7913867E4,6.857775E4,2.9423E4,9.8389844E2,1.6424178E3,2.5327117E4,2.5957656E3,8.1535312E3,2.97745E4,1.67745E4,3.5308125E3,9.527969E2,5.6930664E1,1.4290491E4,1.307301E3,1.2043785E4,4.5187125E4,0E0,0E0,1.6053887E3,4.8818438E3,1.7820875E4,6.5450146E2,5.372875E3,1.4637081E4,5.525E2,0E0,0E0,0E0,0E0,0E0,0E0,0E0,0E0,0E0,0E0,0E0,0E0,0E0,0E0,0E0,0E0,0E0,0E0,0E0,0E0,0E0,0E0,0E0,0E0,0E0,0E0,0E0],"parents":[2147483647,0,0,1,1,2,2,3,3,4,4,5,5,6,6,7,7,8,8,9,9,10,10,11,11,12,12,13,13,14,14,15,15,16,16,17,17,18,18,19,19,20,20,23,23,24,24,25,25,26,26,27,27,28,28,29,29],"right_children":[2,4,6,8,10,12,14,16,18,20,22,24,26,28,30,32,34,36,38,40,42,-1,-1,44,46,48,50,52,54,56,-1,-1,-1,-1,-1,-1,-1,-1,-1,-1,-1,-1,-1,-1,-1,-1,-1,-1,-1,-1,-1,-1,-1,-1,-1,-1,-1],"split_conditions":[7.767949E0,1.4040507E0,1.7775253E1,2.4845678E-2,9.534632E-1,1.3024405E1,2.2496155E1,2.7899025E1,2.5158228E-2,5.2034483E0,1.4219368E0,-4.5E0,1.7770979E1,2.940927E-1,2.428869E1,1.6261237E-2,5.409357E-2,-9.868131E-2,-2.7764337E-3,8.0447274E-1,5.219131E0,2.9425015E0,-0E0,5.639535E-1,6.120048E-1,1.5427401E1,2.0454545E-1,1.894936E1,2.9568914E-1,2.4267857E1,2.4321306E0,-6.071943E-2,4.3289315E-2,-1.0132152E-1,2.0594111E-1,1.5546836E0,-5.6723744E-2,-2.5020102E-2,2.9429546E-2,2.1675387E-1,6.4535454E-2,2.7608957E0,3.5646355E-1,7.825226E-1,2.1891773E0,8.740098E-1,4.2191467E-1,1.1582564E0,1.4587525E0,1.0845032E0,-7.1877494E-2,1.6286062E0,1.8537778E0,-2.16905E-1,1.6781428E0,2.107313E0,-0E0],"split_indices":[3,3,3,5,4,3,3,108,5,3,3,2,3,12,3,10,10,106,106,4,3,0,0,4,4,3,4,3,12,3,0,0,0,0,0,0,0,0,0,0,0,0,0,0,0,0,0,0,0,0,0,0,0,0,0,0,0],"split_type":[0,0,0,0,0,0,0,0,0,0,0,0,0,0,0,0,0,0,0,0,0,0,0,0,0,0,0,0,0,0,0,0,0,0,0,0,0,0,0,0,0,0,0,0,0,0,0,0,0,0,0,0,0,0,0,0,0],"sum_hessian":[1.21585E5,9.9645E4,2.194E4,7.4272E4,2.5373E4,1.4347E4,7.593E3,5.6026E4,1.8246E4,2.5292E4,8.1E1,5.719E3,8.628E3,5.734E3,1.859E3,4.9697E4,6.329E3,3.9E2,1.7856E4,2.1461E4,3.831E3,7.8E1,3E0,7.1E1,5.648E3,8.468E3,1.6E2,5.574E3,1.6E2,1.225E3,6.34E2,4.8812E4,8.85E2,6.326E3,3E0,6.5E1,3.25E2,7.905E3,9.951E3,8.9E3,1.2561E4,7.9E1,3.752E3,1.4E1,5.7E1,5.386E3,2.62E2,3.34E3,5.128E3,4E0,1.56E2,1.728E3,3.846E3,8E1,8E1,1.224E3,1E0],"tree_param":{"num_deleted":"0","num_feature":"110","num_nodes":"57","size_leaf_vector":"0"}},{"base_weights":[2.3433642E0,1.03841566E-1,1.2513691E1,-2.3923919E-1,2.3692172E0,1.0311262E1,1.6985739E1,-4.9054745E-1,4.651351E-1,2.1785017E1,2.2849848E0,7.806984E0,1.1903089E1,1.5948508E1,1.9970272E1,-6.063068E-1,-1.2264917E-1,3.3100036E-1,4.6318455E0,1.7297878E0,2.8836205E1,1.7106093E0,3.6648672E0,7.217673E0,8.958016E0,1.0424655E1,1.2774067E1,1.4813172E1,1.6711712E1,1.8949959E1,2.1893005E1,-5.3191143E-1,-8.1431854E-1,-1.669551E-1,1.014646E0,8.6132504E-2,9.04298E-1,2.651976E1,1.8595445E0,2.5221107E0,-0E0,2.4935803E0,1.1647648E0,2.5183292E1,3.208267E0,4.954991E0,8.094061E0,1.3711614E1,8.049534E0,1.0587556E1,-2.7012281E0,2.535374E1,1.2573131E1,1.5445508E1,1.0850729E1,1.6033573E1,1.7194225E1,1.8967537E1,-0E0],"categories":[],"categories_nodes":[],"categories_segments":[],"categories_sizes":[],"default_left":[true,true,true,true,true,true,true,true,true,true,true,true,true,true,true,true,true,true,true,true,false,true,true,true,true,true,true,true,true,true,false,false,false,false,false,false,false,false,false,false,false,false,false,false,false,false,false,false,false,false,false,false,false,false,false,false,false,false,false],"id":3,"left_children":[1,3,5,7,9,11,13,15,17,19,21,23,25,27,29,31,33,35,37,39,-1,41,43,45,47,49,51,53,55,57,-1,-1,-1,-1,-1,-1,-1,-1,-1,-1,-1,-1,-1,-1,-1,-1,-1,-1,-1,-1,-1,-1,-1,-1,-1,-1,-1,-1,-1],"loss_changes":[2.7691975E6,7.746741E4,2.15657E5,1.5318836E4,2.115014E4,5.8329625E4,2.17255E4,2.7093867E3,1.266159E4,7.5635957E3,1.0286984E4,3.6535312E3,1.1206E4,4.09725E3,2.825625E3,7.366953E2,7.621391E2,3.0840408E3,4.256757E4,3.4818886E1,0E0,3.9030957E3,3.727608E4,7.3528594E3,7.993875E3,7.25125E3,1.35734375E4,5.021625E3,4.40125E2,4.5734375E2,0E0,0E0,0E0,0E0,0E0,0E0,0E0,0E0,0E0,0E0,0E0,0E0,0E0,0E0,0E0,0E0,0E0,0E0,0E0,0E0,0E0,0E0,0E0,0E0,0E0,0E0,0E0,0E0,0E0],"parents":[2147483647,0,0,1,1,2,2,3,3,4,4,5,5,6,6,7,7,8,8,9,9,10,10,11,11,12,12,13,13,14,14,15,15,16,16,17,17,18,18,19,19,21,21,22,22,23,23,24,24,25,25,26,26,27,27,28,28,29,29],"right_children":[2,4,6,8,10,12,14,16,18,20,22,24,26,28,30,32,34,36,38,40,-1,42,44,46,48,50,52,54,56,58,-1,-1,-1,-1,-1,-1,-1,-1,-1,-1,-1,-1,-1,-1,-1,-1,-1,-1,-1,-1,-1,-1,-1,-1,-1,-1,-1,-1,-1],"split_conditions":[7.767949E0,2.7679486E0,1.8016376E1,8.2207E-1,2.7709603E0,1.3024405E1,2.2496155E1,3.2742947E-1,3.5590317E1,4.9E1,5.2080994E0,6.139533E-14,1.5427401E1,1.9513638E1,2.428869E1,1.5186134E1,2.3537693E1,1.9194595E0,3.563109E1,1.041493E1,2.8836205E0,5.5E0,5.219131E0,9.503623E0,8.055727E0,1.5425758E1,1.5430502E1,1.9326435E1,-3.0060399E-12,2.4267857E1,2.1893005E0,-5.3191144E-2,-8.143186E-2,-1.669551E-2,1.0146461E-1,8.61325E-3,9.0429805E-2,2.651976E0,1.8595445E-1,2.5221106E-1,-0E0,2.4935804E-1,1.16476476E-1,2.5183294E0,3.208267E-1,4.954991E-1,8.094061E-1,1.3711613E0,8.049534E-1,1.0587556E0,-2.7012283E-1,2.5353742E0,1.2573131E0,1.5445508E0,1.0850729E0,1.6033573E0,1.7194226E0,1.8967537E0,-0E0],"split_indices":[3,3,3,3,3,3,3,3,108,0,3,105,3,3,3,108,108,3,108,108,0,15,3,3,3,3,3,3,105,3,0,0,0,0,0,0,0,0,0,0,0,0,0,0,0,0,0,0,0,0,0,0,0,0,0,0,0,0,0],"split_type":[0,0,0,0,0,0,0,0,0,0,0,0,0,0,0,0,0,0,0,0,0,0,0,0,0,0,0,0,0,0,0,0,0,0,0,0,0,0,0,0,0,0,0,0,0,0,0,0,0,0,0,0,0,0,0,0,0,0,0],"sum_hessian":[1.21585E5,9.9645E4,2.194E4,8.6536E4,1.3109E4,1.4704E4,7.236E3,6.3791E4,2.2745E4,5.5E1,1.3054E4,5.719E3,8.985E3,5.377E3,1.859E3,4.8502E4,1.5289E4,2.2039E4,7.06E2,1.5E1,4E1,9.224E3,3.83E3,3.793E3,1.926E3,3.34E3,5.645E3,2.175E3,3.202E3,1.225E3,6.34E2,3.5763E4,1.2739E4,1.4725E4,5.64E2,1.5456E4,6.583E3,7.8E1,6.28E2,1.2E1,3E0,3.78E3,5.444E3,7.8E1,3.752E3,1.064E3,2.729E3,3.05E2,1.621E3,3.3E3,4E1,8.6E1,5.559E3,1.871E3,3.04E2,1.354E3,1.848E3,1.224E3,1E0],"tree_param":{"num_deleted":"0","num_feature":"110","num_nodes":"59","size_leaf_vector":"0"}},{"base_weights":[2.1094024E0,9.119206E-2,1.1253274E1,2.002469E0,-2.3675126E-1,9.197441E0,1.5150028E1,7.5659686E-1,2.567883E0,-3.8853157E-1,6.8379766E-1,7.0187635E0,1.0649183E1,1.4041105E1,1.7539051E1,1.0641629E-1,1.02046E0,2.088114E1,2.469359E0,-5.456995E-1,-7.680724E-2,5.2963644E-1,2.3006525E1,6.472958E0,7.9655433E0,1.0879349E1,-1.0973296E0,1.347653E1,1.55413265E1,1.6743423E1,1.9707151E1,-1.677329E-2,9.378186E-1,9.699362E-1,4.213003E0,2.2893004E0,2.6022915E1,6.48703E0,2.3146772E0,-5.2832377E-1,-7.8582543E-1,-1.1146839E-1,8.718991E0,8.024857E0,4.1082144E-1,2.3901354E1,-0E0,5.8787007E0,8.87491E0,8.0882015E0,-0E0,9.382126E0,1.185056E1,1.056189E1,-1.89666E0,1.3841778E1,8.2382685E-1,1.1947033E1,1.6128624E1,1.6755547E1,-0E0],"categories":[],"categories_nodes":[],"categories_segments":[],"categories_sizes":[],"default_left":[true,true,true,true,true,true,true,true,true,true,true,true,true,true,true,true,true,true,true,true,true,true,true,true,true,true,true,true,true,true,false,false,false,false,false,false,false,false,false,false,false,false,false,false,false,false,false,false,false,false,false,false,false,false,false,false,false,false,false,false,false],"id":4,"left_children":[1,3,5,7,9,11,13,15,17,19,21,23,25,27,29,31,33,35,37,39,41,43,45,47,49,51,53,55,57,59,-1,-1,-1,-1,-1,-1,-1,-1,-1,-1,-1,-1,-1,-1,-1,-1,-1,-1,-1,-1,-1,-1,-1,-1,-1,-1,-1,-1,-1,-1,-1],"loss_changes":[2.2436648E6,6.2448977E4,1.7572475E5,1.0243906E4,1.1875429E4,4.5278125E4,1.9543125E4,7.7127344E2,1.7813812E4,3.5697363E3,4.113063E4,2.7815938E3,2.3453E4,3.8970625E3,3.44375E3,1.453425E2,4.657268E2,4.72384E3,6.0985195E3,1.8881543E2,7.380614E3,1.0548117E4,1.7280898E3,5.0344844E3,2.033875E3,1.19914375E4,1.4804282E3,1.732925E4,2.49875E3,4.3609375E2,0E0,0E0,0E0,0E0,0E0,0E0,0E0,0E0,0E0,0E0,0E0,0E0,0E0,0E0,0E0,0E0,0E0,0E0,0E0,0E0,0E0,0E0,0E0,0E0,0E0,0E0,0E0,0E0,0E0,0E0,0E0],"parents":[2147483647,0,0,1,1,2,2,3,3,4,4,5,5,6,6,7,7,8,8,9,9,10,10,11,11,12,12,13,13,14,14,15,15,16,16,17,17,18,18,19,19,20,20,21,21,22,22,23,23,24,24,25,25,26,26,27,27,28,28,29,29],"right_children":[2,4,6,8,10,12,14,16,18,20,22,24,26,28,30,32,34,36,38,40,42,44,46,48,50,52,54,56,58,60,-1,-1,-1,-1,-1,-1,-1,-1,-1,-1,-1,-1,-1,-1,-1,-1,-1,-1,-1,-1,-1,-1,-1,-1,-1,-1,-1,-1,-1,-1,-1],"split_conditions":[7.708995E0,8.1284344E-1,1.7780193E1,2.767594E0,1.4021276E0,1.3024405E1,2.1760952E1,-1.4728866E-2,2.7709603E0,3.2742947E-1,9.534632E-1,1.1427249E1,1.7770979E1,7.229965E-2,2.428869E1,2.5358973E0,1.8353468E-1,2.7698612E0,-2.7134198E-1,1.1968033E-1,9.8346996E-1,1.4127789E0,1.4219368E0,5.6556374E-1,5.131579E-1,1.5427401E1,2.4242425E-1,6.504495E-2,1.803125E1,3.541667E-1,1.9707152E0,-1.677329E-3,9.378186E-2,9.699362E-2,4.2130032E-1,2.2893004E-1,2.6022916E0,6.4870304E-1,2.3146772E-1,-5.2832376E-2,-7.858255E-2,-1.1146839E-2,8.718991E-1,8.0248564E-1,4.1082144E-2,2.3901355E0,-0E0,5.8787006E-1,8.8749105E-1,8.088202E-1,-0E0,9.382126E-1,1.1850561E0,1.056189E0,-1.89666E-1,1.3841778E0,8.238269E-2,1.1947033E0,1.6128625E0,1.6755546E0,-0E0],"split_indices":[3,4,3,3,3,3,3,106,3,3,4,3,3,4,3,3,106,3,106,106,4,3,3,4,4,3,4,4,3,4,0,0,0,0,0,0,0,0,0,0,0,0,0,0,0,0,0,0,0,0,0,0,0,0,0,0,0,0,0,0,0],"split_type":[0,0,0,0,0,0,0,0,0,0,0,0,0,0,0,0,0,0,0,0,0,0,0,0,0,0,0,0,0,0,0,0,0,0,0,0,0,0,0,0,0,0,0,0,0,0,0,0,0,0,0,0,0,0,0,0,0,0,0,0,0],"sum_hessian":[1.21585E5,9.9603E4,2.1982E4,1.4591E4,8.5012E4,1.4394E4,7.588E3,4.561E3,1.003E4,7.2989E4,1.2023E4,5.761E3,8.633E3,5.19E3,2.398E3,1.328E3,3.233E3,5.2E1,9.978E3,4.8502E4,2.4487E4,1.1942E4,8.1E1,3.666E3,2.095E3,8.468E3,1.65E2,3.783E3,1.407E3,1.764E3,6.34E2,1.147E3,1.81E2,3.187E3,4.6E1,1.2E1,4E1,3.66E2,9.612E3,4.5271E4,3.231E3,2.4393E4,9.4E1,1.84E2,1.1758E4,7.8E1,3E0,2.945E3,7.21E2,2.063E3,3.2E1,3.34E3,5.128E3,9E0,1.56E2,3.676E3,1.07E2,2.03E2,1.204E3,1.763E3,1E0],"tree_param":{"num_deleted":"0","num_feature":"110","num_nodes":"61","size_leaf_vector":"0"}},{"base_weights":[1.898775E0,5.297207E-2,1.0007008E1,-3.3285332E-1,1.2102735E0,6.9916034E0,1.2267593E1,6.882718E-2,-4.549646E-1,1.1449783E0,2.0732979E1,5.949153E0,8.159766E0,1.0731571E1,1.448016E1,-0E0,8.3971214E-1,-4.6799734E-1,7.578115E-1,2.259761E0,7.2337395E-1,2.1541473E1,-0E0,1.416892E1,5.827005E0,8.264836E0,-3.353023E0,1.0994199E1,-0E0,1.3724369E1,1.6921755E1,2.8215095E-1,-2.0281088E-1,2.8860757E0,-6.6561705E-1,-2.3559906E-1,-4.9749902E-1,-6.023938E-1,1.9495293E1,5.17598E-1,2.7904983E0,6.49353E0,6.5534806E-1,-0E0,1.432367E1,5.4746585E0,8.779365E0,8.379894E0,1.0197692E0,1.1147459E1,-9.7554016E-1,-1.5868026E0,1.57260895E1,1.3576161E1,1.7057627E1,1.6643309E1,2.0622711E1],"categories":[],"categories_nodes":[],"categories_segments":[],"categories_sizes":[],"default_left":[true,true,true,true,true,true,true,true,true,true,true,true,true,true,true,true,true,true,true,true,true,false,false,true,true,true,false,true,true,true,true,false,false,false,false,false,false,false,false,false,false,false,false,false,false,false,false,false,false,false,false,false,false,false,false,false,false],"id":5,"left_children":[1,3,5,7,9,11,13,15,17,19,21,23,25,27,29,31,33,35,37,39,41,-1,-1,43,45,47,-1,49,51,53,55,-1,-1,-1,-1,-1,-1,-1,-1,-1,-1,-1,-1,-1,-1,-1,-1,-1,-1,-1,-1,-1,-1,-1,-1,-1,-1],"loss_changes":[1.8195794E6,4.4233043E4,1.534015E5,3.646963E3,3.1332746E4,1.1578719E4,4.3372625E4,9.1791614E2,8.9802246E2,1.1572297E4,1.410543E3,4.8530938E3,5.5807188E3,2.142225E4,9.191875E3,9.087464E2,4.392205E3,3.7910156E2,1.5441793E4,6.223379E3,6.958992E3,0E0,0E0,1.1670703E2,5.0553906E3,3.657E3,0E0,1.3739125E4,4.624765E3,1.4554375E3,5.6090625E2,0E0,0E0,0E0,0E0,0E0,0E0,0E0,0E0,0E0,0E0,0E0,0E0,0E0,0E0,0E0,0E0,0E0,0E0,0E0,0E0,0E0,0E0,0E0,0E0,0E0,0E0],"parents":[2147483647,0,0,1,1,2,2,3,3,4,4,5,5,6,6,7,7,8,8,9,9,10,10,11,11,12,12,13,13,14,14,15,15,16,16,17,17,18,18,19,19,20,20,23,23,24,24,25,25,27,27,28,28,29,29,30,30],"right_children":[2,4,6,8,10,12,14,16,18,20,22,24,26,28,30,32,34,36,38,40,42,-1,-1,44,46,48,-1,50,52,54,56,-1,-1,-1,-1,-1,-1,-1,-1,-1,-1,-1,-1,-1,-1,-1,-1,-1,-1,-1,-1,-1,-1,-1,-1,-1,-1],"split_conditions":[7.2132034E0,1.4040507E0,1.5427401E1,9.510196E-1,9.534632E-1,1.2162041E1,1.9337719E1,9.4858575E-1,1.6261237E-2,7.1631706E-1,1.4219368E0,7.2296705E0,1.5425758E1,3.4313726E-1,2.3327045E1,8.9672947E-1,-2.1810331E-12,9.679135E-1,9.8138666E-1,2.7065997E0,1.4127789E0,2.1541474E0,-0E0,2.7727273E-1,1.9292805E-1,2.6158231E-1,-3.3530232E-1,1.9326435E1,3.8492066E-1,2.6136363E-1,2.7324074E1,2.8215095E-2,-2.028109E-2,2.8860757E-1,-6.656171E-2,-2.3559906E-2,-4.9749903E-2,-6.0239382E-2,1.9495293E0,5.1759798E-2,2.7904984E-1,6.4935297E-1,6.553481E-2,-0E0,1.4323671E0,5.4746586E-1,8.779365E-1,8.3798945E-1,1.0197692E-1,1.114746E0,-9.755402E-2,-1.5868026E-1,1.572609E0,1.3576162E0,1.7057627E0,1.6643308E0,2.062271E0],"split_indices":[3,3,3,4,4,3,3,4,10,4,3,3,3,9,3,4,100,4,4,3,3,0,0,4,12,9,0,3,9,4,3,0,0,0,0,0,0,0,0,0,0,0,0,0,0,0,0,0,0,0,0,0,0,0,0,0,0],"split_type":[0,0,0,0,0,0,0,0,0,0,0,0,0,0,0,0,0,0,0,0,0,0,0,0,0,0,0,0,0,0,0,0,0,0,0,0,0,0,0,0,0,0,0,0,0,0,0,0,0,0,0,0,0,0,0,0,0],"sum_hessian":[1.21585E5,9.9041E4,2.2544E4,7.4272E4,2.4769E4,9.663E3,1.2881E4,1.7296E4,5.6976E4,2.4688E4,8.1E1,5.114E3,4.549E3,7.609E3,5.272E3,1.5879E4,1.417E3,5.6379E4,5.97E2,6.767E3,1.7921E4,7.8E1,3E0,7.2E1,5.042E3,4.509E3,4E1,7.427E3,1.82E2,4.034E3,1.238E3,6.64E3,9.239E3,6.03E2,8.14E2,6.39E3,4.9989E4,5.57E2,4E1,1.585E3,5.182E3,2.06E2,1.7715E4,1E0,7.1E1,4.51E3,5.32E2,4.437E3,7.2E1,7.334E3,9.3E1,1.66E2,1.6E1,3.87E3,1.64E2,1.159E3,7.9E1],"tree_param":{"num_deleted":"0","num_feature":"110","num_nodes":"57","size_leaf_vector":"0"}},{"base_weights":[1.7091283E0,8.786163E0,1.0734808E-1,1.1929045E1,8.385315E0,2.8783693E0,-9.7810045E-2,1.1575657E1,2.2360287E1,8.780845E0,4.4679484E0,2.6706135E0,8.873097E0,3.6724395E-1,-4.1128865E-1,1.1251706E1,1.5501159E1,4.0306807E0,9.063767E0,6.573651E0,2.525524E0,3.217211E0,1.0347084E0,1.6388628E1,1.9518429E0,2.8295234E-1,4.853582E0,-2.5003257E-1,-4.6251863E-1,1.1505565E1,8.587167E0,-2.9828644E0,4.6090837E0,1.1685851E1,8.728619E0,8.400669E0,3.7135925E0,-1.5308965E0,3.380049E0,3.8762398E0,1.0490366E0,2.2556884E0,2.0802093E-1,1.9946018E1,2.690013E0,5.389389E0,4.0702622E-2,-1.1555011E-1,6.4396596E-1,-5.9417236E-1,1.4154485E1,5.4567105E-1,-2.9139996E-1,-6.7358375E-1,-4.411363E-1],"categories":[],"categories_nodes":[],"categories_segments":[],"categories_sizes":[],"default_left":[true,true,true,true,true,true,true,true,false,true,true,true,true,true,true,true,false,true,true,true,true,true,true,true,true,true,true,true,true,false,false,false,false,false,false,false,false,false,false,false,false,false,false,false,false,false,false,false,false,false,false,false,false,false,false],"id":6,"left_children":[1,3,5,7,9,11,13,15,-1,17,19,21,23,25,27,29,-1,31,33,35,37,39,41,43,45,47,49,51,53,-1,-1,-1,-1,-1,-1,-1,-1,-1,-1,-1,-1,-1,-1,-1,-1,-1,-1,-1,-1,-1,-1,-1,-1,-1,-1],"loss_changes":[1.3781914E6,2.7966E4,5.6393477E4,8.739125E3,3.0672875E4,8.3771875E3,1.3458104E4,2.6774375E3,0E0,2.412825E4,7.377418E3,5.8664766E3,1.1592443E4,1.3998574E4,4.4840234E2,1.2370938E3,0E0,4.167797E3,1.4685E4,4.4198633E3,3.337461E3,7.0211133E3,1.6524646E3,4.982967E3,7.3383575E2,5.2528276E3,3.4750965E4,4.3694855E2,1.7724219E2,0E0,0E0,0E0,0E0,0E0,0E0,0E0,0E0,0E0,0E0,0E0,0E0,0E0,0E0,0E0,0E0,0E0,0E0,0E0,0E0,0E0,0E0,0E0,0E0,0E0,0E0],"parents":[2147483647,0,0,1,1,2,2,3,3,4,4,5,5,6,6,7,7,9,9,10,10,11,11,12,12,13,13,14,14,15,15,17,17,18,18,19,19,20,20,21,21,22,22,23,23,24,24,25,25,26,26,27,27,28,28],"right_children":[2,4,6,8,10,12,14,16,-1,18,20,22,24,26,28,30,-1,32,34,36,38,40,42,44,46,48,50,52,54,-1,-1,-1,-1,-1,-1,-1,-1,-1,-1,-1,-1,-1,-1,-1,-1,-1,-1,-1,-1,-1,-1,-1,-1,-1,-1],"split_conditions":[4.7655678E-1,-3.665942E-1,7.1631706E-1,4.7493735E-1,3.150376E-1,1.9375E-1,9.5480084E-1,8.737867E0,2.2360287E0,-1.4674659E-3,-2.175704E-12,6.391071E-1,2.0526317E-1,3.7259889E0,9.95E-1,3.175403E-2,1.550116E0,-1.8263092E0,-1.3253493E0,1.5477735E-1,3.186654E-1,1.3458267E-3,-1.634885E-1,-2.4002157E-3,-2.3318356E-1,-2.2265523E-12,-3.0674118E-1,-2.694154E0,-2.5252738E0,1.1505564E0,8.5871667E-1,-2.9828644E-1,4.6090838E-1,1.1685852E0,8.7286186E-1,8.400669E-1,3.7135926E-1,-1.5308966E-1,3.3800492E-1,3.87624E-1,1.0490366E-1,2.2556885E-1,2.0802094E-2,1.9946018E0,2.690013E-1,5.3893894E-1,4.0702624E-3,-1.1555011E-2,6.43966E-2,-5.9417237E-2,1.4154485E0,5.4567106E-2,-2.9139996E-2,-6.7358375E-2,-4.4113632E-2],"split_indices":[4,106,4,4,4,12,4,107,0,100,100,107,12,107,4,9,0,107,107,107,4,100,106,102,106,106,106,107,107,0,0,0,0,0,0,0,0,0,0,0,0,0,0,0,0,0,0,0,0,0,0,0,0,0,0],"split_type":[0,0,0,0,0,0,0,0,0,0,0,0,0,0,0,0,0,0,0,0,0,0,0,0,0,0,0,0,0,0,0,0,0,0,0,0,0,0,0,0,0,0,0,0,0,0,0,0,0,0,0,0,0,0,0],"sum_hessian":[1.21585E5,2.2438E4,9.9147E4,2.532E3,1.9906E4,6.837E3,9.231E4,2.452E3,8E1,1.8077E4,1.829E3,6.611E3,2.26E2,3.7156E4,5.5154E4,2.271E3,1.81E2,1.019E3,1.7058E4,8.74E2,9.55E2,4.95E3,1.661E3,1.07E2,1.19E2,3.6474E4,6.82E2,1.3346E4,4.1808E4,2.067E3,2.04E2,7.6E1,9.43E2,1.926E3,1.5132E4,5.3E2,3.44E2,1.64E2,7.91E2,3.792E3,1.158E3,6.65E2,9.96E2,8.4E1,2.3E1,4E1,7.9E1,1.7324E4,1.915E4,4.3E2,2.52E2,6.47E2,1.2699E4,3.8E3,3.8008E4],"tree_param":{"num_deleted":"0","num_feature":"110","num_nodes":"55","size_leaf_vector":"0"}},{"base_weights":[1.5384398E0,1.08122416E-1,8.525182E0,-1.6724071E-1,1.7646432E0,6.9493136E0,1.1455058E1,-2.7778915E-1,5.0229466E-1,1.7202625E1,1.7035179E0,5.7310524E0,8.22518E0,1.056187E1,1.3242173E1,2.7799062E-2,-3.708049E-1,3.793408E-1,1.8622368E1,1.0728772E0,2.2833681E1,1.3432447E0,3.991515E0,5.7995358E0,-5.321963E0,8.438369E0,-7.7092804E-2,1.0003441E1,1.2196925E1,1.2590807E1,1.4938424E1,-1.3820314E-1,4.6434647E-1,-3.3794105E-1,-7.180484E-1,2.7126607E-1,6.545296E0,1.9351011E1,-0E0,-9.206263E-2,3.4993248E0,6.272453E0,1.1289867E0,1.6839969E0,6.1360307E0,5.2546067E0,6.7995934E0,-5.600552E0,-0E0,8.301497E0,1.54431095E1,8.350692E0,-4.266492E0,1.0324177E1,-2.2508292E0,1.5528031E1,1.1899127E1,1.2122089E1,1.3542307E1],"categories":[],"categories_nodes":[],"categories_segments":[],"categories_sizes":[],"default_left":[true,true,true,true,true,true,true,true,true,true,true,true,true,true,true,true,true,true,true,true,false,true,true,true,true,true,true,true,true,true,false,false,false,false,false,false,false,false,false,false,false,false,false,false,false,false,false,false,false,false,false,false,false,false,false,false,false,false,false],"id":7,"left_children":[1,3,5,7,9,11,13,15,17,19,21,23,25,27,29,31,33,35,37,39,-1,41,43,45,47,49,51,53,55,57,-1,-1,-1,-1,-1,-1,-1,-1,-1,-1,-1,-1,-1,-1,-1,-1,-1,-1,-1,-1,-1,-1,-1,-1,-1,-1,-1,-1,-1],"loss_changes":[1.214953E6,4.605359E4,9.5125625E4,6.4030234E3,1.3361711E4,2.0702062E4,1.11500625E4,2.1150132E3,2.7097322E4,4.8227793E3,1.1758512E4,5.244953E3,1.1691625E4,4.060625E3,2.18725E3,1.2578164E3,6.3940576E2,8.0399517E3,1.1454766E3,7.962142E1,0E0,1.3005316E4,9.541268E3,3.5717969E3,9.64353E1,5.7655625E3,5.785192E3,1.4276969E4,7.502031E2,3.57E2,0E0,0E0,0E0,0E0,0E0,0E0,0E0,0E0,0E0,0E0,0E0,0E0,0E0,0E0,0E0,0E0,0E0,0E0,0E0,0E0,0E0,0E0,0E0,0E0,0E0,0E0,0E0,0E0,0E0],"parents":[2147483647,0,0,1,1,2,2,3,3,4,4,5,5,6,6,7,7,8,8,9,9,10,10,11,11,12,12,13,13,14,14,15,15,16,16,17,17,18,18,19,19,21,21,22,22,23,23,24,24,25,25,26,26,27,27,28,28,29,29],"right_children":[2,4,6,8,10,12,14,16,18,20,22,24,26,28,30,32,34,36,38,40,-1,42,44,46,48,50,52,54,56,58,-1,-1,-1,-1,-1,-1,-1,-1,-1,-1,-1,-1,-1,-1,-1,-1,-1,-1,-1,-1,-1,-1,-1,-1,-1,-1,-1,-1,-1],"split_conditions":[8.988636E0,2.7679486E0,1.8029858E1,1.407192E0,2.7709603E0,1.4741657E1,2.1760952E1,9.510196E-1,9.534632E-1,2.7698612E0,7.150758E0,1.4737274E1,7.514353E-2,6.781609E-2,2.4018518E1,1.686015E1,3.0838356E1,2.1866761E-1,1.4219368E0,5.769231E-2,2.283368E0,-2.7151912E-1,5.6610775E0,1.3024405E1,1.4739542E1,4.5804197E-1,2.1182054E-1,6.504495E-2,-4.7693583E-1,1.25E-2,1.4938425E0,-1.3820315E-2,4.643465E-2,-3.3794105E-2,-7.1804844E-2,2.7126608E-2,6.5452963E-1,1.9351012E0,-0E0,-9.206263E-3,3.499325E-1,6.272453E-1,1.1289867E-1,1.6839969E-1,6.1360306E-1,5.2546066E-1,6.7995936E-1,-5.600552E-1,-0E0,8.3014977E-1,1.5443109E0,8.350692E-1,-4.2664918E-1,1.0324177E0,-2.2508292E-1,1.5528032E0,1.1899127E0,1.212209E0,1.3542308E0],"split_indices":[3,3,3,3,3,3,3,4,4,3,3,3,102,4,3,109,108,106,3,7,0,106,109,3,3,4,4,4,106,4,0,0,0,0,0,0,0,0,0,0,0,0,0,0,0,0,0,0,0,0,0,0,0,0,0,0,0,0,0],"split_type":[0,0,0,0,0,0,0,0,0,0,0,0,0,0,0,0,0,0,0,0,0,0,0,0,0,0,0,0,0,0,0,0,0,0,0,0,0,0,0,0,0,0,0,0,0,0,0,0,0,0,0,0,0,0,0,0,0,0,0],"sum_hessian":[1.21585E5,1.00926E5,2.0659E4,8.6536E4,1.439E4,1.3438E4,7.221E3,7.4286E4,1.225E4,5.5E1,1.4335E4,6.881E3,6.557E3,4.823E3,2.398E3,1.731E4,5.6976E4,1.2169E4,8.1E1,1.5E1,4E1,1.239E4,1.945E3,6.84E3,4.1E1,6.394E3,1.63E2,3.605E3,1.218E3,1.743E3,6.55E2,1.2525E4,4.785E3,5.2078E4,4.898E3,1.1962E4,2.07E2,7.8E1,3E0,8E0,7E0,5.13E2,1.1877E4,9.4E2,1.005E3,4.438E3,2.402E3,4E1,1E0,6.275E3,1.19E2,5.3E1,1.1E2,3.514E3,9.1E1,9.3E1,1.125E3,1.184E3,5.59E2],"tree_param":{"num_deleted":"0","num_feature":"110","num_nodes":"59","size_leaf_vector":"0"}},{"base_weights":[1.384852E0,9.742432E-2,7.6735663E0,-1.504661E-1,1.588745E0,6.254832E0,1.031116E1,-2.9770938E-1,2.6205012E-1,1.406076E0,5.8498507E0,5.158129E0,7.4032383E0,9.637611E0,1.2242308E1,-3.638155E-1,-8.733381E-2,1.7190626E-1,3.0576777E0,1.0501614E0,3.7977166E0,4.428576E-1,1.3505722E1,5.2199044E0,-4.788577E0,7.6331935E0,-9.706923E-1,9.839046E0,2.4057226E0,1.1654235E1,1.3643402E1,-3.0527464E-1,-5.273391E-1,2.8973165E-1,-2.3351718E-1,5.860048E-2,1.166485E0,1.0315362E1,-1.1644998E0,1.5529222E1,9.8147124E-1,3.1465003E0,1.2262559E1,-1.3210689E0,2.6496544E0,2.1331917E1,-1.6355953E-1,4.7292647E0,6.119917E0,-5.054157E0,-0E0,-0E0,7.836388E0,-2.2062247E0,1.1688734E1,8.852419E0,1.0185247E1,-3.6443124E0,9.724063E0,1.2722046E1,1.1247875E1],"categories":[],"categories_nodes":[],"categories_segments":[],"categories_sizes":[],"default_left":[true,true,true,true,true,true,true,true,true,true,true,true,true,true,true,true,true,true,true,true,true,true,true,true,true,true,true,true,true,true,false,false,false,false,false,false,false,false,false,false,false,false,false,false,false,false,false,false,false,false,false,false,false,false,false,false,false,false,false,false,false],"id":8,"left_children":[1,3,5,7,9,11,13,15,17,19,21,23,25,27,29,31,33,35,37,39,41,43,45,47,49,51,53,55,57,59,-1,-1,-1,-1,-1,-1,-1,-1,-1,-1,-1,-1,-1,-1,-1,-1,-1,-1,-1,-1,-1,-1,-1,-1,-1,-1,-1,-1,-1,-1,-1],"loss_changes":[9.843141E5,3.7325727E4,7.7080625E4,5.2567124E3,1.1120766E4,1.6762062E4,9.057E3,8.8261914E2,5.699368E3,1.1696922E4,2.4236332E4,4.258E3,1.27023125E4,7.6664375E3,1.1205625E3,4.5582275E2,8.423011E2,2.4714019E3,2.1768285E4,1.1774368E4,9.641523E3,1.3675278E3,2.6210941E4,2.8834375E3,8.424475E1,9.9345625E3,2.668161E3,1.5010938E3,6.6491147E3,1.9084375E2,0E0,0E0,0E0,0E0,0E0,0E0,0E0,0E0,0E0,0E0,0E0,0E0,0E0,0E0,0E0,0E0,0E0,0E0,0E0,0E0,0E0,0E0,0E0,0E0,0E0,0E0,0E0,0E0,0E0,0E0,0E0],"parents":[2147483647,0,0,1,1,2,2,3,3,4,4,5,5,6,6,7,7,8,8,9,9,10,10,11,11,12,12,13,13,14,14,15,15,16,16,17,17,18,18,19,19,20,20,21,21,22,22,23,23,24,24,25,25,26,26,27,27,28,28,29,29],"right_children":[2,4,6,8,10,12,14,16,18,20,22,24,26,28,30,32,34,36,38,40,42,44,46,48,50,52,54,56,58,60,-1,-1,-1,-1,-1,-1,-1,-1,-1,-1,-1,-1,-1,-1,-1,-1,-1,-1,-1,-1,-1,-1,-1,-1,-1,-1,-1,-1,-1,-1,-1],"split_conditions":[8.988636E0,2.7679486E0,1.8029858E1,8.2207E-1,3.6815174E0,1.4741657E1,2.2496155E1,3.2742947E-1,3.5590317E1,7.150758E0,1.5390972E1,1.4737274E1,3.4313726E-1,2.940927E-1,2.506202E1,1.5186134E1,-1.3076878E-3,1.6261237E-2,4.251856E1,2.7709603E0,1.9615385E-1,3.9596274E-2,1.650137E1,1.3024405E1,1.4739542E1,-1.6763727E-3,3.693182E-1,1.894936E1,2.9568914E-1,2.5320513E-2,1.3643402E0,-3.0527463E-2,-5.273391E-2,2.8973166E-2,-2.335172E-2,5.8600483E-3,1.16648495E-1,1.0315362E0,-1.16449974E-1,1.5529221E0,9.8147124E-2,3.1465003E-1,1.2262559E0,-1.3210689E-1,2.6496544E-1,2.1331918E0,-1.6355952E-2,4.7292647E-1,6.119917E-1,-5.054157E-1,-0E0,-0E0,7.8363883E-1,-2.2062247E-1,1.1688734E0,8.852419E-1,1.0185248E0,-3.6443123E-1,9.724063E-1,1.2722046E0,1.1247876E0],"split_indices":[3,3,3,3,107,3,3,3,108,3,108,3,9,12,3,108,100,13,108,3,12,13,108,3,3,100,9,3,12,6,0,0,0,0,0,0,0,0,0,0,0,0,0,0,0,0,0,0,0,0,0,0,0,0,0,0,0,0,0,0,0],"split_type":[0,0,0,0,0,0,0,0,0,0,0,0,0,0,0,0,0,0,0,0,0,0,0,0,0,0,0,0,0,0,0,0,0,0,0,0,0,0,0,0,0,0,0,0,0,0,0,0,0,0,0,0,0,0,0,0,0,0,0,0,0],"sum_hessian":[1.21585E5,1.00926E5,2.0659E4,8.6536E4,1.439E4,1.3438E4,7.221E3,6.3791E4,2.2745E4,1.3802E4,5.88E2,6.881E3,6.557E3,5.362E3,1.859E3,4.8502E4,1.5289E4,2.2039E4,7.06E2,1.2019E4,1.783E3,3.46E2,2.42E2,6.84E3,4.1E1,6.383E3,1.74E2,5.215E3,1.47E2,1.321E3,5.38E2,3.5763E4,1.2739E4,4.252E3,1.1037E4,1.9795E4,2.244E3,2.6E2,4.46E2,5.5E1,1.1964E4,1.658E3,1.25E2,1.9E2,1.56E2,1.54E2,8.8E1,4.438E3,2.402E3,4E1,1E0,1.65E2,6.218E3,1.6E2,1.4E1,1.369E3,3.846E3,8E1,6.7E1,3.49E2,9.72E2],"tree_param":{"num_deleted":"0","num_feature":"110","num_nodes":"61","size_leaf_vector":"0"}},{"base_weights":[1.2465739E0,3.01445E-1,5.734265E0,3.0989451E0,2.733504E-1,3.773626E0,6.4430666E0,1.1564449E0,9.230526E0,2.3816329E-1,2.3668227E0,5.2636967E0,2.3536966E0,8.424282E0,6.0090365E0,4.5424657E0,9.920583E-1,1.4866279E1,-0E0,1.3763833E-2,3.9921838E-1,1.5683645E0,7.464295E0,9.9011135E0,3.956354E0,6.1572385E0,1.1751196E0,8.059825E0,2.2503122E1,5.3953986E0,6.793828E0,-0E0,5.5811496E0,1.9552741E0,6.038259E-1,1.0759869E1,1.758532E1,6.854161E0,-9.7209716E-1,-7.699009E-2,5.0959206E-1,6.6098237E0,3.8777533E-1,1.0189493E0,3.8571439E0,9.196854E0,1.346663E0,1.1634381E1,3.4081686E-1,3.353017E0,1.7394638E1,4.452734E0,7.4412723E0,2.914765E-1,3.1670575E0,1.1142111E1,7.8010955E0,7.409099E0,5.187045E0,7.3780265E0,5.913159E0],"categories":[],"categories_nodes":[],"categories_segments":[],"categories_sizes":[],"default_left":[true,true,true,true,true,true,true,true,true,true,true,true,true,true,true,true,true,true,true,true,true,true,true,true,true,true,true,true,false,true,true,false,false,false,false,false,false,false,false,false,false,false,false,false,false,false,false,false,false,false,false,false,false,false,false,false,false,false,false,false,false],"id":9,"left_children":[1,3,5,7,9,11,13,15,17,19,21,23,25,27,29,31,33,35,37,39,41,43,45,47,49,51,53,55,-1,57,59,-1,-1,-1,-1,-1,-1,-1,-1,-1,-1,-1,-1,-1,-1,-1,-1,-1,-1,-1,-1,-1,-1,-1,-1,-1,-1,-1,-1,-1,-1],"loss_changes":[5.1563847E5,7.859247E3,2.9265688E4,1.1736498E4,7.298678E3,1.180643E4,1.31585625E4,3.6206378E2,1.2430703E4,3.5306035E3,6.5688906E3,1.6427969E4,1.284774E4,1.3798078E4,5.9796562E3,1.4959222E2,2.4509113E2,1.1798281E3,5.933175E2,1.8444829E3,3.9721719E3,1.7329453E3,2.2139941E3,9.818617E3,1.708491E4,1.3362031E3,3.845649E3,1.8895938E3,0E0,2.8417656E3,2.6953281E3,0E0,0E0,0E0,0E0,0E0,0E0,0E0,0E0,0E0,0E0,0E0,0E0,0E0,0E0,0E0,0E0,0E0,0E0,0E0,0E0,0E0,0E0,0E0,0E0,0E0,0E0,0E0,0E0,0E0,0E0],"parents":[2147483647,0,0,1,1,2,2,3,3,4,4,5,5,6,6,7,7,8,8,9,9,10,10,11,11,12,12,13,13,14,14,15,15,16,16,17,17,18,18,19,19,20,20,21,21,22,22,23,23,24,24,25,25,26,26,27,27,29,29,30,30],"right_children":[2,4,6,8,10,12,14,16,18,20,22,24,26,28,30,32,34,36,38,40,42,44,46,48,50,52,54,56,-1,58,60,-1,-1,-1,-1,-1,-1,-1,-1,-1,-1,-1,-1,-1,-1,-1,-1,-1,-1,-1,-1,-1,-1,-1,-1,-1,-1,-1,-1,-1,-1],"split_conditions":[4.4610284E-2,-4.082005E-1,1.24355674E-1,1.95E1,2.6021537E-1,-2.1910251E-12,-3.0644262E-1,-6.964382E-1,-2.1795898E-12,-6.35238E-3,1.1792848E1,5.0641026E-2,2.7110124E-1,-3.0675834E-1,2.6807493E-1,4.5E0,1.3744753E1,-2.295275E-12,-2.1810331E-12,6.797805E-1,-6.3020578E-3,4.64289E-1,-2.215228E-12,-4.3856367E-2,-2.1939117E-12,3.55E1,8.808981E-1,-6.868583E-1,2.2503123E0,-8.231552E0,9.329951E-1,-0E0,5.5811495E-1,1.9552742E-1,6.0382593E-2,1.0759869E0,1.7585319E0,6.854161E-1,-9.7209714E-2,-7.699009E-3,5.0959207E-2,6.609824E-1,3.8777534E-2,1.0189493E-1,3.8571438E-1,9.1968536E-1,1.3466631E-1,1.1634382E0,3.4081686E-2,3.3530173E-1,1.7394638E0,4.452734E-1,7.441272E-1,2.914765E-2,3.1670576E-1,1.1142111E0,7.801096E-1,7.4090993E-1,5.1870453E-1,7.378027E-1,5.913159E-1],"split_indices":[14,106,14,0,106,102,106,106,102,106,109,14,109,106,14,15,109,102,100,104,106,106,102,106,102,0,104,106,0,109,104,0,0,0,0,0,0,0,0,0,0,0,0,0,0,0,0,0,0,0,0,0,0,0,0,0,0,0,0,0,0],"split_type":[0,0,0,0,0,0,0,0,0,0,0,0,0,0,0,0,0,0,0,0,0,0,0,0,0,0,0,0,0,0,0,0,0,0,0,0,0,0,0,0,0,0,0,0,0,0,0,0,0,0,0,0,0,0,0,0,0,0,0,0,0],"sum_hessian":[1.21585E5,1.00436E5,2.1149E4,9.94E2,9.9442E4,5.621E3,1.5528E4,7.57E2,2.37E2,9.7804E4,1.638E3,2.738E3,2.883E3,2.783E3,1.2745E4,3.1E1,7.26E2,1.47E2,9E1,4.0892E4,5.6912E4,1.419E3,2.19E2,5.99E2,2.139E3,6.79E2,2.204E3,2.715E3,6.8E1,7.164E3,5.581E3,6E0,2.5E1,2E2,5.26E2,6.2E1,8.5E1,1E1,8E1,3.4549E4,6.343E3,1.02E2,5.681E4,1.149E3,2.7E2,1.69E2,5E1,5.06E2,9.3E1,2.049E3,9E1,2.97E2,3.82E2,1.531E3,6.73E2,2.04E2,2.511E3,6.64E2,6.5E3,3.344E3,2.237E3],"tree_param":{"num_deleted":"0","num_feature":"110","num_nodes":"61","size_leaf_vector":"0"}}]},"name":"gbtree"},"learner_model_param":{"base_score":"5E-1","num_class":"0","num_feature":"110"},"objective":{"name":"reg:squarederror","reg_loss_param":{"scale_pos_weight":"1"}}},"version":[1,4,2]}
