{"learner":{"attributes":{},"feature_names":[" day"," trace 40 quant","competitiveness","empirical_distr_p","empirical_distr_q_0","empirical_distr_q_1","empirical_distr_q_10","empirical_distr_q_2","empirical_distr_q_3","empirical_distr_q_4","empirical_distr_q_5","empirical_distr_q_6","empirical_distr_q_7","empirical_distr_q_8","empirical_distr_q_9","my_layer_size","n_level","n_opp_level","opp_layer_size","trace 0 price","trace 0 quant","trace 1 price","trace 1 quant","trace 10 price","trace 10 quant","trace 11 price","trace 11 quant","trace 12 price","trace 12 quant","trace 13 price","trace 13 quant","trace 14 price","trace 14 quant","trace 15 price","trace 15 quant","trace 16 price","trace 16 quant","trace 17 price","trace 17 quant","trace 18 price","trace 18 quant","trace 19 price","trace 19 quant","trace 2 price","trace 2 quant","trace 20 price","trace 20 quant","trace 21 price","trace 21 quant","trace 22 price","trace 22 quant","trace 23 price","trace 23 quant","trace 24 price","trace 24 quant","trace 25 price","trace 25 quant","trace 26 price","trace 26 quant","trace 27 price","trace 27 quant","trace 28 price","trace 28 quant","trace 29 price","trace 29 quant","trace 3 price","trace 3 quant","trace 30 price","trace 30 quant","trace 31 price","trace 31 quant","trace 32 price","trace 32 quant","trace 33 price","trace 33 quant","trace 34 price","trace 34 quant","trace 35 price","trace 35 quant","trace 36 price","trace 36 quant","trace 37 price","trace 37 quant","trace 38 price","trace 38 quant","trace 39 price","trace 39 quant","trace 4 price","trace 4 quant","trace 40 price","trace 5 price","trace 5 quant","trace 6 price","trace 6 quant","trace 7 price","trace 7 quant","trace 8 price","trace 8 quant","trace 9 price","trace 9 quant","ufun_param_0","ufun_param_1","ufun_param_2","ufun_param_3","ufun_param_4","ufun_param_5","ufun_param_6","ufun_param_7","ufun_param_8","ufun_param_9"],"feature_types":["int","int","float","float","float","float","float","float","float","float","float","float","float","float","float","int","int","int","int","int","int","int","int","int","int","int","int","int","int","int","int","int","int","int","int","int","int","int","int","int","int","int","int","int","int","int","int","int","int","int","int","int","int","int","int","int","int","int","int","int","int","int","int","int","int","int","int","int","int","int","int","int","int","int","int","int","int","int","int","int","int","int","int","int","int","int","int","int","int","int","int","int","int","int","int","int","int","int","int","int","float","float","float","float","float","float","float","float","float","float"],"gradient_booster":{"model":{"gbtree_model_param":{"num_trees":"10","size_leaf_vector":"0"},"tree_info":[0,0,0,0,0,0,0,0,0,0],"trees":[{"base_weights":[2.143745E0,1.4263966E0,1.8952658E1,1.1455363E0,1.8049145E1,8.77551E-1,2.471601E1,3.4584612E-1,2.673799E0,1.0909091E0,3.01875E1,3.9268293E0,-2.0560747E-1,8.221154E0,2.6748148E1,2.1700978E-1,5.154661E0,2.4069593E0,1.5260204E1,-0E0,3.0735295E0,-0E0,4.6666665E0,-3.537736E-1,2.75E0,2.3793104E0,1.4520833E1,1.2659091E1,2.7459635E1,9.539749E-1,-1.7724365E-1,1.990196E1,1.0295699E0,1.9302995E0,8.619335E0,8.470589E0,2.1947916E1,2.5833333E0,-1.9672132E-1,9.615385E-2,1.0222222E1,-3.9175257E-1,-0E0,-0E0,1.6625E1,1.6666666E1,-0E0,-0E0,1.5194445E1,3.282716E1,2.590625E1],"categories":[],"categories_nodes":[],"categories_segments":[],"categories_sizes":[],"default_left":[true,true,true,true,true,true,true,true,true,true,false,true,true,true,true,true,true,true,true,true,true,false,false,true,false,true,true,true,true,false,false,false,false,false,false,false,false,false,false,false,false,false,false,false,false,false,false,false,false,false,false],"id":0,"left_children":[1,3,5,7,9,11,13,15,17,19,-1,21,23,25,27,29,31,33,35,37,39,-1,-1,41,-1,43,45,47,49,-1,-1,-1,-1,-1,-1,-1,-1,-1,-1,-1,-1,-1,-1,-1,-1,-1,-1,-1,-1,-1,-1],"loss_changes":[1.7730888E5,6.572301E4,6.2434656E4,1.6944357E4,4.782204E4,5.2353876E2,1.47154375E4,5.5979395E3,1.579682E4,2.0336566E2,0E0,8.6447205E1,2.3868145E1,1.7101394E3,3.311E3,2.5906445E3,1.4127008E4,1.3706621E4,3.959791E3,4.2402325E1,6.19501E2,0E0,0E0,1.6200886E0,0E0,9.413901E2,7.7282324E2,6.301238E2,1.7639688E3,0E0,0E0,0E0,0E0,0E0,0E0,0E0,0E0,0E0,0E0,0E0,0E0,0E0,0E0,0E0,0E0,0E0,0E0,0E0,0E0,0E0,0E0],"parents":[2147483647,0,0,1,1,2,2,3,3,4,4,5,5,6,6,7,7,8,8,9,9,11,11,12,12,13,13,14,14,15,15,16,16,17,17,18,18,19,19,20,20,23,23,25,25,26,26,27,27,28,28],"right_children":[2,4,6,8,10,12,14,16,18,20,-1,22,24,26,28,30,32,34,36,38,40,-1,-1,42,-1,44,46,48,50,-1,-1,-1,-1,-1,-1,-1,-1,-1,-1,-1,-1,-1,-1,-1,-1,-1,-1,-1,-1,-1,-1],"split_conditions":[9.1966175E-2,4.55E1,1.75E1,5E-1,3E1,2.45E1,1.65E1,7.767723E-2,2.55E1,9.5E0,3.01875E0,3.9E1,3.068182E-1,5.5E0,2.25E1,1.85E1,7.921569E-2,1.694678E-2,1.95E1,1.25E1,3.5098523E-2,-0E0,4.6666667E-1,9.5E0,2.75E-1,4.3303573E-1,8.5E0,1.5587044E-1,-5E-1,9.5397495E-2,-1.7724365E-2,1.9901961E0,1.0295699E-1,1.9302996E-1,8.619335E-1,8.470589E-1,2.1947916E0,2.5833333E-1,-1.9672131E-2,9.615385E-3,1.0222223E0,-3.9175257E-2,-0E0,-0E0,1.6625E0,1.6666666E0,-0E0,-0E0,1.5194445E0,3.282716E0,2.590625E0],"split_indices":[12,55,55,16,0,23,0,8,53,60,0,0,14,60,71,71,8,8,0,23,14,0,0,22,0,14,28,12,2,0,0,0,0,0,0,0,0,0,0,0,0,0,0,0,0,0,0,0,0,0,0],"split_type":[0,0,0,0,0,0,0,0,0,0,0,0,0,0,0,0,0,0,0,0,0,0,0,0,0,0,0,0,0,0,0,0,0,0,0,0,0,0,0,0,0,0,0,0,0,0,0,0,0,0,0],"sum_hessian":[1.4723E4,1.4122E4,6.01E2,1.3889E4,2.33E2,1.46E2,4.55E2,9.123E3,4.766E3,9.8E1,1.35E2,4E1,1.06E2,5.1E1,4.04E2,8.888E3,2.35E2,4.669E3,9.7E1,6.5E1,3.3E1,8E0,3.2E1,1.05E2,1E0,2.8E1,2.3E1,2.1E1,3.83E2,3.106E3,5.782E3,5E1,1.85E2,4.339E3,3.3E2,5E1,4.7E1,5E0,6E1,2.5E1,8E0,9.6E1,9E0,2.5E1,3E0,2E1,3E0,4E0,1.7E1,8E1,3.03E2],"tree_param":{"num_deleted":"0","num_feature":"110","num_nodes":"51","size_leaf_vector":"0"}},{"base_weights":[1.9319059E0,1.4757667E1,9.239847E-1,5.3927503E0,2.267516E1,6.637975E-1,1.5359531E1,5.1853085E0,9.143648E0,2.2770155E1,8.034519E-1,2.3980916E-1,5.241321E0,6.610649E-2,2.424801E1,1.4412583E1,6.1579275E0,2.0787704E1,2.4401619E1,7.794208E-2,2.9110193E0,2.4816616E0,2.2608963E1,-9.224485E-3,5.587113E0,2.7190947E1,-1.3360372E-1,-0E0,1.601418E1,-0E0,2.0840752E1,2.2676585E0,-2.8651906E-2,2.1522034E1,3.356843E-2,3.6940374E-3,7.689035E0,1.4901834E1,2.9708204E1,-5.626315E-1,1.0733038E0,8.620833E0,-0E0],"categories":[],"categories_nodes":[],"categories_segments":[],"categories_sizes":[],"default_left":[true,true,true,true,true,true,true,false,true,true,false,true,true,true,true,true,false,true,false,true,true,true,true,true,true,false,false,false,false,false,false,false,false,false,false,false,false,false,false,false,false,false,false],"id":1,"left_children":[1,3,5,7,9,11,13,-1,15,17,-1,19,21,23,25,27,-1,29,-1,31,33,35,37,39,41,-1,-1,-1,-1,-1,-1,-1,-1,-1,-1,-1,-1,-1,-1,-1,-1,-1,-1],"loss_changes":[1.9017194E5,7.9082266E4,5.110948E4,1.9289844E2,9.5103125E2,2.5976105E4,3.251566E4,0E0,5.1637817E1,9.0703125E2,0E0,5.27909E3,5.4092152E4,9.326167E1,1.1180742E4,3.5934326E1,0E0,1.6190625E2,0E0,2.7258164E3,3.7163215E4,1.2581576E4,7.5919766E3,4.8216076E1,5.499005E1,0E0,0E0,0E0,0E0,0E0,0E0,0E0,0E0,0E0,0E0,0E0,0E0,0E0,0E0,0E0,0E0,0E0,0E0],"parents":[2147483647,0,0,1,1,2,2,3,3,4,4,5,5,6,6,8,8,9,9,11,11,12,12,13,13,14,14,15,15,17,17,19,19,20,20,21,21,22,22,23,23,24,24],"right_children":[2,4,6,8,10,12,14,-1,16,18,-1,20,22,24,26,28,-1,30,-1,32,34,36,38,40,42,-1,-1,-1,-1,-1,-1,-1,-1,-1,-1,-1,-1,-1,-1,-1,-1,-1,-1],"split_conditions":[-4.75E1,1.25E1,4.25E1,8.5E0,5E1,1.9419307E-2,1.85E1,5.1853085E-1,3.1E1,2.05E1,8.034519E-2,4.05E1,7.5E0,1.35E1,1.55E1,5.5E0,6.1579275E-1,5E-1,2.440162E0,5.5E0,3.85E1,2.05E1,1.7E1,9.5E0,5.15E1,2.7190948E0,-1.3360373E-2,-0E0,1.6014179E0,-0E0,2.0840752E0,2.2676586E-1,-2.8651906E-3,2.1522033E0,3.356843E-3,3.6940374E-4,7.689035E-1,1.4901834E0,2.9708204E0,-5.626315E-2,1.0733038E-1,8.620834E-1,-0E0],"split_indices":[81,47,73,73,23,8,27,0,23,57,0,23,32,87,23,29,0,16,0,23,96,81,23,36,21,0,0,0,0,0,0,0,0,0,0,0,0,0,0,0,0,0,0],"split_type":[0,0,0,0,0,0,0,0,0,0,0,0,0,0,0,0,0,0,0,0,0,0,0,0,0,0,0,0,0,0,0,0,0,0,0,0,0,0,0,0,0,0,0],"sum_hessian":[1.4723E4,1.071E3,1.3652E4,4.92E2,5.79E2,1.3412E4,2.4E2,4.71E2,2.1E1,5.76E2,3E0,1.2278E4,1.134E3,8.9E1,1.51E2,5E0,1.6E1,2.69E2,3.07E2,1.1581E4,6.97E2,9.8E2,1.54E2,8.7E1,2E0,1.35E2,1.6E1,1E0,4E0,1E0,2.68E2,5.41E2,1.104E4,9.2E1,6.05E2,6.66E2,3.14E2,7.6E1,7.8E1,6.4E1,2.3E1,1E0,1E0],"tree_param":{"num_deleted":"0","num_feature":"110","num_nodes":"43","size_leaf_vector":"0"}},{"base_weights":[1.7408758E0,2.1230558E1,1.174841E0,-0E0,2.2648308E1,6.589607E-1,1.0883077E1,3.6114473E0,-2.589559E-1,6.3411486E-1,2.32011E1,4.595508E-2,2.2893362E0,1.9192641E0,1.3712664E1,6.1549177E0,-0E0,-0E0,2.3533323E1,-1.6645218E-1,1.7579776E0,1.3271504E1,2.0470116E0,-1.4548038E-1,6.7337003E0,1.0794498E1,2.0342632E1,2.380789E1,1.0158318E1,-4.9673253E-1,2.9926914E-1,1.0084841E0,1.4294327E1,6.6465294E-1,1.6556211E1,1.3238411E0,4.3710537E0,-7.181258E-1,1.1398047E1,9.36582E0,-0E0,8.957549E0,1.7965364E1,2.1590725E1,8.394835E0],"categories":[],"categories_nodes":[],"categories_segments":[],"categories_sizes":[],"default_left":[true,true,true,true,true,true,true,false,false,true,true,true,true,true,true,false,false,false,true,true,true,true,true,true,true,true,true,false,false,false,false,false,false,false,false,false,false,false,false,false,false,false,false,false,false],"id":2,"left_children":[1,3,5,7,9,11,13,-1,-1,15,17,19,21,23,25,-1,-1,-1,27,29,31,33,35,37,39,41,43,-1,-1,-1,-1,-1,-1,-1,-1,-1,-1,-1,-1,-1,-1,-1,-1,-1,-1],"loss_changes":[1.6218381E5,1.248025E4,7.154599E4,2.7828617E1,4.4807656E3,1.3558787E4,1.8104727E4,0E0,0E0,7.13429E1,3.115375E3,3.609758E3,9.690223E3,1.8064636E3,1.0052039E4,0E0,0E0,0E0,7.919375E2,1.3537273E3,1.0130476E4,3.0881611E3,6.0398086E3,7.078485E2,8.847993E2,4.614918E3,1.9793672E3,0E0,0E0,0E0,0E0,0E0,0E0,0E0,0E0,0E0,0E0,0E0,0E0,0E0,0E0,0E0,0E0,0E0,0E0],"parents":[2147483647,0,0,1,1,2,2,3,3,4,4,5,5,6,6,9,9,10,10,11,11,12,12,13,13,14,14,18,18,19,19,20,20,21,21,22,22,23,23,24,24,25,25,26,26],"right_children":[2,4,6,8,10,12,14,-1,-1,16,18,20,22,24,26,-1,-1,-1,28,30,32,34,36,38,40,42,44,-1,-1,-1,-1,-1,-1,-1,-1,-1,-1,-1,-1,-1,-1,-1,-1,-1,-1],"split_conditions":[-3.482716E-1,3.147059E0,7.904546E0,1.55E1,3.65E1,1.8449519E0,-4.493866E0,3.6114475E-1,-2.589559E-2,3.4509804E0,3.5E0,1.1502068E1,6.5E0,3.5E0,1.8301436E-1,6.154918E-1,-0E0,-0E0,2.0438778E1,3.8098693E-2,8.196721E-3,1.8115942E-1,1.6506758E-2,2.15E1,3.35E1,1.6416668E1,2.3303168E-1,2.380789E0,1.0158318E0,-4.9673256E-2,2.9926915E-2,1.00848414E-1,1.4294327E0,6.6465296E-2,1.6556212E0,1.323841E-1,4.371054E-1,-7.1812585E-2,1.1398047E0,9.36582E-1,-0E0,8.9575493E-1,1.7965364E0,2.1590726E0,8.3948356E-1],"split_indices":[106,3,3,49,33,3,108,0,0,3,42,108,49,28,12,0,0,0,108,5,10,5,106,69,61,3,12,0,0,0,0,0,0,0,0,0,0,0,0,0,0,0,0,0,0],"split_type":[0,0,0,0,0,0,0,0,0,0,0,0,0,0,0,0,0,0,0,0,0,0,0,0,0,0,0,0,0,0,0,0,0,0,0,0,0,0,0,0,0,0,0,0,0],"sum_hessian":[1.4723E4,4.14E2,1.4309E4,2.6E1,3.88E2,1.3589E4,7.2E2,1E0,2.5E1,1E1,3.78E2,9.881E3,3.708E3,1.74E2,5.46E2,1E0,9E0,5E0,3.73E2,8.786E3,1.095E3,7.8E1,3.63E3,1.21E2,5.3E1,3.82E2,1.64E2,3.64E2,9E0,5.153E3,3.633E3,1.035E3,6E1,1.7E1,6.1E1,2.773E3,8.57E2,1.17E2,4E0,3.7E1,1.6E1,3.07E2,7.5E1,1.47E2,1.7E1],"tree_param":{"num_deleted":"0","num_feature":"110","num_nodes":"45","size_leaf_vector":"0"}},{"base_weights":[1.5687076E0,1.2518786E1,7.0808697E-1,4.7844105E0,1.9178265E1,-9.945339E-2,5.696475E0,4.643357E0,1.3910251E1,1.869314E1,2.4949484E1,5.2969193E0,-1.7621464E-1,3.6329572E0,1.4539099E1,3.9794543E0,5.347684E0,1.8716208E1,-0E0,-3.2209396E-1,1.3711562E1,-3.2333127E-1,1.5373832E0,1.1065292E1,2.0929968E0,3.0041733E0,2.2661478E1,-5.2480733E-1,1.5533363E0,-0E0,1.4643051E1,1.6517006E0,-3.7919852E-1,1.8546894E1,1.9676252E-1,4.1163243E-2,1.5468445E1,8.2915205E-1,4.719692E0,9.206498E-1,1.3487645E1,9.1235444E-2,2.3050749E1],"categories":[],"categories_nodes":[],"categories_segments":[],"categories_sizes":[],"default_left":[true,true,true,true,true,true,true,true,false,true,false,true,true,true,true,false,false,false,false,true,true,true,true,true,true,true,true,false,false,false,false,false,false,false,false,false,false,false,false,false,false,false,false],"id":3,"left_children":[1,3,5,7,9,11,13,15,-1,17,-1,19,21,23,25,-1,-1,-1,-1,27,29,31,33,35,37,39,41,-1,-1,-1,-1,-1,-1,-1,-1,-1,-1,-1,-1,-1,-1,-1,-1],"loss_changes":[1.3861583E5,5.488403E4,5.5055254E4,3.9091602E2,7.070469E2,4.816956E3,3.4507574E4,1.1597754E2,0E0,1.1225E2,0E0,7.845276E3,2.9096768E3,1.7540002E4,3.3310344E4,0E0,0E0,0E0,0E0,2.7787043E1,8.855156E2,1.1661077E3,2.058272E4,1.2659068E4,4.1998193E3,3.1198833E3,1.6115234E3,0E0,0E0,0E0,0E0,0E0,0E0,0E0,0E0,0E0,0E0,0E0,0E0,0E0,0E0,0E0,0E0],"parents":[2147483647,0,0,1,1,2,2,3,3,4,4,5,5,6,6,7,7,9,9,11,11,12,12,13,13,14,14,19,19,20,20,21,21,22,22,23,23,24,24,25,25,26,26],"right_children":[2,4,6,8,10,12,14,16,-1,18,-1,20,22,24,26,-1,-1,-1,-1,28,30,32,34,36,38,40,42,-1,-1,-1,-1,-1,-1,-1,-1,-1,-1,-1,-1,-1,-1,-1,-1],"split_conditions":[-4.75E1,1.65E1,3.2928922E0,9.75E0,2.65E1,6.5E0,7.5E0,5.5E0,1.3910251E0,3.7E1,2.4949484E0,3.8E1,7.5E0,-1.9338897E0,2.85E1,3.9794543E-1,5.347684E-1,1.8716208E0,-0E0,3.45E1,6.5E0,-1.075897E1,1.5E0,2.05E1,7.9019136E0,1.2625E1,9.5E0,-5.2480735E-2,1.5533362E-1,-0E0,1.4643052E0,1.6517006E-1,-3.7919853E-2,1.8546895E0,1.9676251E-2,4.1163242E-3,1.5468445E0,8.291521E-2,4.7196922E-1,9.2064984E-2,1.3487645E0,9.123544E-3,2.305075E0],"split_indices":[81,59,3,3,75,39,80,77,0,19,0,0,40,105,0,0,0,0,0,0,15,105,97,81,3,3,43,0,0,0,0,0,0,0,0,0,0,0,0,0,0,0,0],"split_type":[0,0,0,0,0,0,0,0,0,0,0,0,0,0,0,0,0,0,0,0,0,0,0,0,0,0,0,0,0,0,0,0,0,0,0,0,0,0,0,0,0,0,0],"sum_hessian":[1.4723E4,1.071E3,1.3652E4,4.97E2,5.74E2,1.1749E4,1.903E3,4.92E2,5E0,5.35E2,3.9E1,1.62E2,1.1587E4,1.545E3,3.58E2,2.64E2,2.28E2,5.34E2,1E0,9.7E1,6.5E1,1.0677E4,9.1E2,2.63E2,1.282E3,1.49E2,2.09E2,9.3E1,4E0,4E0,6.1E1,2.88E2,1.0389E4,6.5E1,8.45E2,7.6E1,1.87E2,8.69E2,4.13E2,1.26E2,2.3E1,4E0,2.05E2],"tree_param":{"num_deleted":"0","num_feature":"110","num_nodes":"43","size_leaf_vector":"0"}},{"base_weights":[1.4139737E0,1.7247696E1,9.539871E-1,4.9534014E-1,1.8525814E1,5.329028E-1,8.875737E0,-1.1252681E-1,9.539607E0,-0E0,1.893321E1,3.3194523E-2,1.826636E0,1.8675421E0,1.1361028E1,2.4950647E0,-6.519074E-1,5.4226975E0,1.9297125E1,1.8673346E0,-1.7198749E-1,5.5017204E0,9.7340137E-1,-1.0022864E0,7.1011853E0,1.2591222E1,2.3514664E0,-0E0,1.4847533E1,1.7268917E1,2.2133238E1,2.6069553E0,-4.1933948E-1,-3.429555E-1,1.8250763E0,2.898901E-1,1.0427554E1,1.651568E-1,2.6354487E0,3.1026492E0,-1.2140986E0,1.0278826E1,1.0659016E0,7.0548944E0,1.429465E1,-2.1303484E-1,4.637509E0],"categories":[],"categories_nodes":[],"categories_segments":[],"categories_sizes":[],"default_left":[true,true,true,true,true,true,true,true,false,false,true,true,true,true,true,false,false,true,true,true,true,true,true,true,true,true,true,false,false,false,false,false,false,false,false,false,false,false,false,false,false,false,false,false,false,false,false],"id":4,"left_children":[1,3,5,7,9,11,13,15,-1,-1,17,19,21,23,25,-1,-1,27,29,31,33,35,37,39,41,43,45,-1,-1,-1,-1,-1,-1,-1,-1,-1,-1,-1,-1,-1,-1,-1,-1,-1,-1,-1,-1],"loss_changes":[1.0704084E5,8.686375E3,4.7635406E4,2.6577332E2,3.007625E3,8.767129E3,1.2404449E4,2.398302E1,0E0,0E0,1.50175E3,3.709097E3,1.1786011E4,2.9368613E3,5.7063047E3,0E0,0E0,7.493784E2,1.3290781E3,1.7007109E3,2.9969119E3,1.8117357E4,4.0983013E3,9.182687E1,1.1988762E3,4.080375E3,4.3216156E2,0E0,0E0,0E0,0E0,0E0,0E0,0E0,0E0,0E0,0E0,0E0,0E0,0E0,0E0,0E0,0E0,0E0,0E0,0E0,0E0],"parents":[2147483647,0,0,1,1,2,2,3,3,4,4,5,5,6,6,7,7,10,10,11,11,12,12,13,13,14,14,17,17,18,18,19,19,20,20,21,21,22,22,23,23,24,24,25,25,26,26],"right_children":[2,4,6,8,10,12,14,16,-1,-1,18,20,22,24,26,-1,-1,28,30,32,34,36,38,40,42,44,46,-1,-1,-1,-1,-1,-1,-1,-1,-1,-1,-1,-1,-1,-1,-1,-1,-1,-1,-1,-1],"split_conditions":[-3.482716E-1,3.65E1,7.904546E0,5.1150896E-2,3.2058825E0,1.7679486E0,1.75E1,1.45E1,9.539607E-1,-0E0,7.5E0,8.5E0,1.5E0,3.5E0,6.132479E-1,2.4950647E-1,-6.519074E-2,1.6434525E1,-2.1810331E-12,9.622507E-1,7.5E0,1.5E0,3.281746E0,2.45E1,3.25E1,5.5E0,2.15E1,-0E0,1.4847534E0,1.7268918E0,2.2133238E0,2.6069555E-1,-4.193395E-2,-3.429555E-2,1.8250763E-1,2.8989011E-2,1.0427555E0,1.651568E-2,2.635449E-1,3.1026492E-1,-1.21409856E-1,1.0278826E0,1.0659017E-1,7.0548946E-1,1.429465E0,-2.1303484E-2,4.637509E-1],"split_indices":[106,55,3,11,3,3,55,53,0,0,24,79,36,28,4,0,0,3,100,4,32,24,3,71,53,30,71,0,0,0,0,0,0,0,0,0,0,0,0,0,0,0,0,0,0,0,0],"split_type":[0,0,0,0,0,0,0,0,0,0,0,0,0,0,0,0,0,0,0,0,0,0,0,0,0,0,0,0,0,0,0,0,0,0,0,0,0,0,0,0,0,0,0,0,0,0,0],"sum_hessian":[1.4723E4,4.14E2,1.4309E4,3E1,3.84E2,1.3589E4,7.2E2,2.8E1,2E0,8E0,3.76E2,9.809E3,3.78E3,1.9E2,5.3E2,1E0,2.7E1,1.1E1,3.65E2,9.91E2,8.818E3,7.09E2,3.071E3,1.22E2,6.8E1,4.65E2,6.5E1,7E0,4E0,2.19E2,1.46E2,7.52E2,2.39E2,8.128E3,6.9E2,3.46E2,3.63E2,2.071E3,1E3,3E0,1.19E2,4.3E1,2.5E1,1.12E2,3.53E2,2.9E1,3.6E1],"tree_param":{"num_deleted":"0","num_feature":"110","num_nodes":"47","size_leaf_vector":"0"}},{"base_weights":[1.274052E0,1.0582741E1,5.423309E-1,3.901582E0,1.629032E1,-1.01261385E-1,4.519047E0,2.8524308E0,4.484349E0,1.56230955E1,2.2040318E1,4.679304E0,-1.6936035E-1,2.8452208E0,1.1686779E1,4.011927E0,5.6132674E0,1.337179E1,1.6493225E1,-2.8865144E-1,1.0945121E1,1.6746433E0,-2.5862274E-1,2.0398517E0,1.4128682E1,1.1124302E0,1.8010103E1,1.8094032E1,1.5215932E1,2.9918928E0,-4.6945632E-1,-0E0,1.280491E1,1.5348354E1,-3.156094E-1,7.977984E-1,-3.4238872E-1,1.4682716E1,1.5596015E0,1.7048096E1,8.066828E-1,4.544896E0,4.6201985E-2,1.865946E1,-6.049504E-1],"categories":[],"categories_nodes":[],"categories_segments":[],"categories_sizes":[],"default_left":[true,true,true,true,true,true,true,false,true,true,false,true,true,true,true,false,false,false,true,true,true,true,true,true,true,true,true,false,false,false,false,false,false,false,false,false,false,false,false,false,false,false,false,false,false],"id":5,"left_children":[1,3,5,7,9,11,13,-1,15,17,-1,19,21,23,25,-1,-1,-1,27,29,31,33,35,37,39,41,43,-1,-1,-1,-1,-1,-1,-1,-1,-1,-1,-1,-1,-1,-1,-1,-1,-1,-1],"loss_changes":[1.0017354E5,4.061335E4,3.49879E4,2.1710059E2,1.4927031E3,3.7809243E3,2.2664738E4,0E0,4.7092285E1,5.033672E2,0E0,5.1836367E3,1.8936593E3,1.3858538E4,2.3793281E4,0E0,0E0,0E0,1.4607812E2,3.0155788E1,1.5847559E3,1.4578665E4,9.743539E2,8.58834E3,3.7747285E3,4.5161078E2,2.8995078E3,0E0,0E0,0E0,0E0,0E0,0E0,0E0,0E0,0E0,0E0,0E0,0E0,0E0,0E0,0E0,0E0,0E0,0E0],"parents":[2147483647,0,0,1,1,2,2,3,3,4,4,5,5,6,6,8,8,9,9,11,11,12,12,13,13,14,14,18,18,19,19,20,20,21,21,22,22,23,23,24,24,25,25,26,26],"right_children":[2,4,6,8,10,12,14,-1,16,18,-1,20,22,24,26,-1,-1,-1,28,30,32,34,36,38,40,42,44,-1,-1,-1,-1,-1,-1,-1,-1,-1,-1,-1,-1,-1,-1,-1,-1,-1,-1],"split_conditions":[-4.75E1,1.55E1,3.2928922E0,5.5E0,2.75E1,6.5E0,7.5E0,2.852431E-1,6.5E0,2.15E1,2.2040317E0,9.5E0,1.5E0,1.9756097E-1,1.85E1,4.0119272E-1,5.6132674E-1,1.3371791E0,1.02631584E-1,1.5E0,1.05E1,1.5E0,8.5E0,3.2970588E0,2.0344828E-1,5.1666665E-1,2.65E1,1.8094033E0,1.5215932E0,2.991893E-1,-4.694563E-2,-0E0,1.280491E0,1.5348355E0,-3.156094E-2,7.977984E-2,-3.423887E-2,1.4682716E0,1.5596016E-1,1.7048095E0,8.0668285E-2,4.5448962E-1,4.6201986E-3,1.865946E0,-6.0495045E-2],"split_indices":[81,79,3,79,79,39,80,0,79,79,0,56,26,12,27,0,0,0,12,22,27,97,79,3,12,4,67,0,0,0,0,0,0,0,0,0,0,0,0,0,0,0,0,0,0],"split_type":[0,0,0,0,0,0,0,0,0,0,0,0,0,0,0,0,0,0,0,0,0,0,0,0,0,0,0,0,0,0,0,0,0,0,0,0,0,0,0,0,0,0,0,0,0],"sum_hessian":[1.4723E4,1.071E3,1.3652E4,4.95E2,5.76E2,1.1749E4,1.903E3,1.85E2,3.1E2,5.21E2,5.5E1,1.62E2,1.1587E4,1.545E3,3.58E2,2.28E2,8.2E1,1.53E2,3.68E2,9E1,7.2E1,5.29E2,1.1058E4,1.444E3,1.01E2,1.35E2,2.23E2,1.54E2,2.14E2,1E0,8.9E1,1E1,6.2E1,6.7E1,4.62E2,8.03E2,1.0255E4,5.1E1,1.393E3,8.2E1,1.9E1,2.9E1,1.06E2,2.16E2,7E0],"tree_param":{"num_deleted":"0","num_feature":"110","num_nodes":"45","size_leaf_vector":"0"}},{"base_weights":[1.1486235E0,7.8086114E-1,1.4257548E1,6.3322496E-1,1.2258131E1,1.20426215E-1,1.5291648E1,3.9766836E0,4.4338095E-1,1.4107152E1,3.2350335E0,-2.9758605E-1,5.3073993E0,-0E0,1.5532327E1,1.0475503E0,9.468567E0,1.9266285E0,1.9370988E-1,-0E0,1.4583691E1,7.5147405E0,-0E0,-0E0,-4.3803442E-1,7.2619834E0,-0E0,-0E0,1.2029223E0,1.3781227E1,1.7991241E1,7.799355E-1,7.555326E0,9.989517E0,-1.3836905E0,4.6040425E0,-4.933521E-1,1.2875618E-1,4.8079305E0,-9.9452995E-2,1.2057095E0,1.4707554E1,-0E0,-0E0,8.770596E0,1.7015289E0,-1.1552984E0,1.3941034E1,-0E0,1.8122953E1,-0E0],"categories":[],"categories_nodes":[],"categories_segments":[],"categories_sizes":[],"default_left":[true,true,true,true,true,true,true,true,true,true,true,true,true,true,true,true,true,true,true,true,true,true,true,false,false,false,false,false,false,true,true,false,false,false,false,false,false,false,false,false,false,false,false,false,false,false,false,false,false,false,false],"id":6,"left_children":[1,3,5,7,9,11,13,15,17,19,21,23,25,27,29,31,33,35,37,39,41,43,45,-1,-1,-1,-1,-1,-1,47,49,-1,-1,-1,-1,-1,-1,-1,-1,-1,-1,-1,-1,-1,-1,-1,-1,-1,-1,-1,-1],"loss_changes":[7.082244E4,2.4134781E4,5.706328E3,8.931736E3,2.8007246E3,1.1455587E2,1.3196406E3,1.2062367E4,4.9363213E3,9.737539E2,5.0171027E2,2.4943602E0,4.5535248E1,2.8940444E0,1.0145625E3,7.745771E2,1.5810938E3,1.2503051E4,3.3864973E3,2.9569252E0,3.061328E2,1.529336E2,3.6057205E1,0E0,0E0,0E0,0E0,0E0,0E0,5.90375E2,3.7078516E2,0E0,0E0,0E0,0E0,0E0,0E0,0E0,0E0,0E0,0E0,0E0,0E0,0E0,0E0,0E0,0E0,0E0,0E0,0E0,0E0],"parents":[2147483647,0,0,1,1,2,2,3,3,4,4,5,5,6,6,7,7,8,8,9,9,10,10,11,11,12,12,13,13,14,14,15,15,16,16,17,17,18,18,19,19,20,20,21,21,22,22,29,29,30,30],"right_children":[2,4,6,8,10,12,14,16,18,20,22,24,26,28,30,32,34,36,38,40,42,44,46,-1,-1,-1,-1,-1,-1,48,50,-1,-1,-1,-1,-1,-1,-1,-1,-1,-1,-1,-1,-1,-1,-1,-1,-1,-1,-1,-1],"split_conditions":[4.7362537E0,1.9756097E-1,7.5E0,5.6892914E-1,2.2086722E-1,1.3392857E-1,1.45E1,2.05E1,7.5E0,5.5E0,3.229167E-1,6.5E0,5.229885E-1,1.625E-1,-2.1810331E-12,2.05E1,4.15E1,9.529346E-1,7.767723E-2,1.4054054E-1,3.35E1,1.1E1,-1.757971E-1,-0E0,-4.3803442E-2,7.261984E-1,-0E0,-0E0,1.2029224E-1,3.05E1,9.0625E-1,7.799355E-2,7.555326E-1,9.9895173E-1,-1.3836905E-1,4.6040425E-1,-4.9335208E-2,1.2875618E-2,4.8079306E-1,-9.9452995E-3,1.2057095E-1,1.4707555E0,-0E0,-0E0,8.770596E-1,1.7015289E-1,-1.15529835E-1,1.3941034E0,-0E0,1.8122953E0,-0E0],"split_indices":[107,12,24,4,12,12,96,51,92,70,4,79,4,12,100,73,73,4,8,9,53,75,106,0,0,0,0,0,0,79,4,0,0,0,0,0,0,0,0,0,0,0,0,0,0,0,0,0,0,0,0],"split_type":[0,0,0,0,0,0,0,0,0,0,0,0,0,0,0,0,0,0,0,0,0,0,0,0,0,0,0,0,0,0,0,0,0,0,0,0,0,0,0,0,0,0,0,0,0,0,0,0,0,0,0],"sum_hessian":[1.4723E4,1.4323E4,4E2,1.4143E4,1.8E2,2.8E1,3.72E2,7.56E2,1.3387E4,1.48E2,3.2E1,2.5E1,3E0,6E0,3.66E2,4.95E2,2.61E2,1.922E3,1.1465E4,5E0,1.43E2,1.4E1,1.8E1,1E0,2.4E1,2E0,1E0,5E0,1E0,2.2E2,1.46E2,4.78E2,1.7E1,2.5E2,1.1E1,9.14E2,1.008E3,1.1309E4,1.56E2,4E0,1E0,1.42E2,1E0,2E0,1.2E1,5E0,1.3E1,2.18E2,2E0,1.45E2,1E0],"tree_param":{"num_deleted":"0","num_feature":"110","num_nodes":"51","size_leaf_vector":"0"}},{"base_weights":[1.034792E0,9.102434E0,4.005323E-1,3.596323E0,1.3784826E1,1.2618288E1,1.607285E-1,3.4466333E0,8.960247E0,1.329665E1,1.8804516E1,-0E0,1.4842578E1,-3.613473E-2,4.6812067E0,2.6615658E0,3.6812227E0,-0E0,9.490025E0,1.2646529E1,1.5639283E1,-4.5528144E-1,6.92636E0,-0E0,1.5204466E1,-1.3684571E-1,1.7110794E0,1.2427437E1,2.0024664E0,3.6918101E0,-0E0,-0E0,1.2713649E1,1.1810987E0,-1.0916263E0,1.5357113E1,-0E0,-2.4302879E-1,9.4581836E-1,1.4657435E1,4.020106E-1,-0E0,1.3350487E1,6.3215947E-4,4.6306205E0],"categories":[],"categories_nodes":[],"categories_segments":[],"categories_sizes":[],"default_left":[true,true,true,true,true,true,true,true,true,true,false,true,true,true,true,false,true,false,false,true,false,true,false,false,true,true,true,true,true,false,false,false,false,false,false,false,false,false,false,false,false,false,false,false,false],"id":7,"left_children":[1,3,5,7,9,11,13,15,17,19,-1,21,23,25,27,-1,29,-1,-1,31,-1,33,-1,-1,35,37,39,41,43,-1,-1,-1,-1,-1,-1,-1,-1,-1,-1,-1,-1,-1,-1,-1,-1],"loss_changes":[7.524374E4,2.741468E4,3.987162E4,2.424961E2,8.4533594E2,7.411418E3,1.1964374E4,1.6096191E1,1.745935E1,3.2959375E2,0E0,1.040329E2,1.2689531E3,2.2424573E3,1.1471644E4,0E0,9.213867E-1,0E0,0E0,2.3850781E2,0E0,4.100537E1,0E0,0E0,5.453125E2,1.3887087E3,1.1605195E4,1.6202305E3,2.1580977E3,0E0,0E0,0E0,0E0,0E0,0E0,0E0,0E0,0E0,0E0,0E0,0E0,0E0,0E0,0E0,0E0],"parents":[2147483647,0,0,1,1,2,2,3,3,4,4,5,5,6,6,7,7,8,8,9,9,11,11,12,12,13,13,14,14,16,16,19,19,21,21,24,24,25,25,26,26,27,27,28,28],"right_children":[2,4,6,8,10,12,14,16,18,20,-1,22,24,26,28,-1,30,-1,-1,32,-1,34,-1,-1,36,38,40,42,44,-1,-1,-1,-1,-1,-1,-1,-1,-1,-1,-1,-1,-1,-1,-1,-1],"split_conditions":[-4.75E1,1.45E1,-3.482716E-1,2.55E1,2.45E1,8.5E0,7.904546E0,6.306818E-1,9.4871795E-1,3.65E1,1.8804516E0,1.913519E1,1.5573586E1,3.6236694E1,8.054412E0,2.6615658E-1,1.05E1,-0E0,9.4900244E-1,5E-1,1.5639284E0,-2.1839197E-12,6.92636E-1,-0E0,-2.01128E-12,3.2928922E0,3.6290565E1,1.4165623E1,2.45E1,3.69181E-1,-0E0,-0E0,1.2713649E0,1.18109874E-1,-1.0916263E-1,1.5357113E0,-0E0,-2.430288E-2,9.4581835E-2,1.4657435E0,4.020106E-2,-0E0,1.3350487E0,6.321595E-5,4.6306205E-1],"split_indices":[81,51,106,61,61,42,3,4,3,51,0,3,108,109,3,0,29,0,0,16,0,100,0,0,102,3,109,109,81,0,0,0,0,0,0,0,0,0,0,0,0,0,0,0,0],"split_type":[0,0,0,0,0,0,0,0,0,0,0,0,0,0,0,0,0,0,0,0,0,0,0,0,0,0,0,0,0,0,0,0,0,0,0,0,0,0,0,0,0,0,0,0,0],"sum_hessian":[1.4723E4,1.071E3,1.3652E4,4.94E2,5.77E2,2.61E2,1.3391E4,4.84E2,1E1,5.31E2,4.6E1,3.9E1,2.22E2,1.2831E4,5.6E2,1.24E2,3.6E2,1E0,9E0,4.24E2,1.07E2,3.8E1,1E0,5E0,2.17E2,1.2138E4,6.93E2,1.42E2,4.18E2,3.58E2,2E0,3E0,4.21E2,6E0,3.2E1,2.15E2,2E0,1.1063E4,1.075E3,6.2E1,6.31E2,1E1,1.32E2,2.4E2,1.78E2],"tree_param":{"num_deleted":"0","num_feature":"110","num_nodes":"45","size_leaf_vector":"0"}},{"base_weights":[9.330122E-1,6.350294E-1,1.1549902E1,3.4861055E-1,5.962211E0,-1.6688746E-1,1.2355984E1,1.6988666E-1,1.9810845E0,5.7049865E-1,7.6335397E0,-0E0,-3.021079E-1,1.0704667E1,1.4787595E1,8.990986E-2,3.5071833E0,8.524097E0,1.5273007E0,1.02441E1,-2.7220023E-1,3.7274795E0,9.236779E0,-0E0,1.1018244E1,6.704401E-1,-2.3766263E-1,1.3466871E1,3.2392988E-1,1.0879908E0,1.2587641E1,7.578735E0,1.115778E0,-0E0,1.234158E1,-6.947399E-1,1.3986164E1,1.6533077E0,8.999641E0,9.998179E0,2.6096692E0,-0E0,1.1153203E1],"categories":[],"categories_nodes":[],"categories_segments":[],"categories_sizes":[],"default_left":[true,true,true,true,true,true,true,true,true,true,true,false,false,true,false,true,true,true,true,true,true,true,true,false,true,false,false,false,false,false,false,false,false,false,false,false,false,false,false,false,false,false,false],"id":8,"left_children":[1,3,5,7,9,11,13,15,17,19,21,-1,-1,23,-1,25,27,29,31,33,35,37,39,-1,41,-1,-1,-1,-1,-1,-1,-1,-1,-1,-1,-1,-1,-1,-1,-1,-1,-1,-1],"loss_changes":[4.645241E4,2.1790445E4,3.9112695E3,3.9449512E3,6.4828613E3,1.5575924E0,1.0965586E3,3.236252E3,3.8532026E3,1.5290956E3,3.3115312E3,0E0,0E0,8.3830664E2,0E0,2.282292E3,8.861726E3,2.4179888E3,3.0224575E3,2.5365161E2,8.46783E2,1.6829275E3,1.8207734E3,0E0,4.2147266E2,0E0,0E0,0E0,0E0,0E0,0E0,0E0,0E0,0E0,0E0,0E0,0E0,0E0,0E0,0E0,0E0,0E0,0E0],"parents":[2147483647,0,0,1,1,2,2,3,3,4,4,5,5,6,6,7,7,8,8,9,9,10,10,13,13,15,15,16,16,17,17,18,18,19,19,20,20,21,21,22,22,24,24],"right_children":[2,4,6,8,10,12,14,16,18,20,22,-1,-1,24,-1,26,28,30,32,34,36,38,40,-1,42,-1,-1,-1,-1,-1,-1,-1,-1,-1,-1,-1,-1,-1,-1,-1,-1,-1,-1],"split_conditions":[4.7362537E0,7.904546E0,3.65E1,3.219545E0,-4.493866E0,2E0,2.45E1,2.8174603E-2,3.2970588E0,2.45E1,5.5E0,-0E0,-3.0210791E-2,3.2058825E0,1.4787595E0,1.85E1,1.5E0,9.803922E-3,6.5E0,8.888889E0,4.4582045E-1,1.640625E1,3.65E1,-0E0,5.0188503E0,6.704401E-2,-2.3766262E-2,1.3466872E0,3.239299E-2,1.0879908E-1,1.2587641E0,7.578735E-1,1.115778E-1,-0E0,1.234158E0,-6.947399E-2,1.3986164E0,1.6533077E-1,8.9996415E-1,9.9981797E-1,2.6096693E-1,-0E0,1.1153203E0],"split_indices":[107,3,33,3,108,36,45,13,3,75,38,0,0,3,0,75,93,12,45,3,6,3,77,0,107,0,0,0,0,0,0,0,0,0,0,0,0,0,0,0,0,0,0],"split_type":[0,0,0,0,0,0,0,0,0,0,0,0,0,0,0,0,0,0,0,0,0,0,0,0,0,0,0,0,0,0,0,0,0,0,0,0,0,0,0,0,0,0,0],"sum_hessian":[1.4723E4,1.4323E4,4E2,1.3595E4,7.28E2,2.5E1,3.75E2,1.226E4,1.335E3,1.74E2,5.54E2,1E0,2.4E1,2.29E2,1.46E2,1.1977E4,2.83E2,8.4E1,1.251E3,1.4E1,1.6E2,1.64E2,3.9E2,6E0,2.23E2,4.331E3,7.646E3,6.7E1,2.16E2,3.1E1,5.3E1,7.7E1,1.174E3,3E0,1.1E1,1.57E2,3E0,1.2E2,4.4E1,3.48E2,4.2E1,2E0,2.21E2],"tree_param":{"num_deleted":"0","num_feature":"110","num_nodes":"43","size_leaf_vector":"0"}},{"base_weights":[8.4117776E-1,1.0238866E1,5.6788063E-1,-4.4578943E-1,1.1281328E1,1.1005775E-1,1.3017749E0,-7.44962E-1,-0E0,-4.981663E-1,1.1434972E1,8.9531386E-1,-9.515496E-2,1.1308407E1,1.136672E0,-0E0,-7.610567E-1,1.3180424E1,1.0071594E1,6.081506E-1,2.6605234E0,-2.6057407E-1,4.7104347E-1,-0E0,1.1888342E1,2.109716E0,6.449351E-2,-8.320889E-1,-0E0,-0E0,1.3399148E1,-0E0,1.01750765E1,8.158764E-1,-2.2802188E-1,1.3401848E0,3.8707764E0,-3.0934322E-1,5.016061E-1,4.140996E0,9.230545E-2,-0E0,1.2036005E1,1.690201E0,7.806236E0,-4.2278495E-1,1.94292E0],"categories":[],"categories_nodes":[],"categories_segments":[],"categories_sizes":[],"default_left":[true,true,true,true,true,true,true,true,false,false,true,true,true,true,true,false,true,true,true,true,true,true,true,false,true,true,true,false,false,false,false,false,false,false,false,false,false,false,false,false,false,false,false,false,false,false,false],"id":9,"left_children":[1,3,5,7,9,11,13,15,-1,-1,17,19,21,23,25,-1,27,29,31,33,35,37,39,-1,41,43,45,-1,-1,-1,-1,-1,-1,-1,-1,-1,-1,-1,-1,-1,-1,-1,-1,-1,-1,-1,-1],"loss_changes":[3.7702664E4,4.735801E3,4.793806E3,1.1515982E1,8.009922E2,1.429704E3,8.931198E3,2.4491501E-1,0E0,0E0,5.27125E2,8.973834E2,6.522334E2,6.18499E2,5.613904E3,0E0,2.7257156E-1,3.799375E2,2.4968555E2,2.8171796E2,3.4538464E2,1.996987E2,2.133947E3,0E0,1.5188477E2,6.6477363E3,2.373879E3,0E0,0E0,0E0,0E0,0E0,0E0,0E0,0E0,0E0,0E0,0E0,0E0,0E0,0E0,0E0,0E0,0E0,0E0,0E0,0E0],"parents":[2147483647,0,0,1,1,2,2,3,3,4,4,5,5,6,6,7,7,10,10,11,11,12,12,13,13,14,14,16,16,17,17,18,18,19,19,20,20,21,21,22,22,24,24,25,25,26,26],"right_children":[2,4,6,8,10,12,14,16,-1,-1,18,20,22,24,26,-1,28,30,32,34,36,38,40,-1,42,44,46,-1,-1,-1,-1,-1,-1,-1,-1,-1,-1,-1,-1,-1,-1,-1,-1,-1,-1,-1,-1],"split_conditions":[-3.482716E-1,9.5E0,1.55E1,-2.1798119E-12,3.5E0,1.15E1,1.25E1,6.816681E0,-0E0,-4.981663E-2,1.0044643E-1,2.8258904E1,1.05E1,3E0,3.45E1,-0E0,1.0982444E0,6.5E0,1.21323526E-1,1.9268997E1,7.5E0,8.562957E-2,5.5E0,-0E0,1.55E1,9.5E0,1.6744401E-2,-8.320889E-2,-0E0,-0E0,1.3399148E0,-0E0,1.0175077E0,8.158764E-2,-2.2802187E-2,1.3401848E-1,3.8707766E-1,-3.0934323E-2,5.0160613E-2,4.140996E-1,9.230546E-3,-0E0,1.2036005E0,1.690201E-1,7.806236E-1,-4.2278495E-2,1.94292E-1],"split_indices":[106,0,55,100,42,75,63,109,0,0,14,109,63,38,63,0,104,30,14,109,15,106,44,0,0,70,106,0,0,0,0,0,0,0,0,0,0,0,0,0,0,0,0,0,0,0,0],"split_type":[0,0,0,0,0,0,0,0,0,0,0,0,0,0,0,0,0,0,0,0,0,0,0,0,0,0,0,0,0,0,0,0,0,0,0,0,0,0,0,0,0,0,0,0,0,0,0],"sum_hessian":[1.4723E4,4.14E2,1.4309E4,3.6E1,3.78E2,8.821E3,5.488E3,3.3E1,3E0,4E0,3.74E2,1.837E3,6.984E3,8.7E1,5.401E3,1E0,3.2E1,1.57E2,2.17E2,1.586E3,2.51E2,5.419E3,1.565E3,4E0,8.3E1,2.826E3,2.575E3,2.7E1,5E0,3E0,1.54E2,2E0,2.15E2,1.28E3,3.06E2,1.25E2,1.26E2,5.106E3,3.13E2,1.43E2,1.422E3,1E0,8.2E1,2.635E3,1.91E2,2.041E3,5.34E2],"tree_param":{"num_deleted":"0","num_feature":"110","num_nodes":"47","size_leaf_vector":"0"}}]},"name":"gbtree"},"learner_model_param":{"base_score":"5E-1","num_class":"0","num_feature":"110"},"objective":{"name":"reg:squarederror","reg_loss_param":{"scale_pos_weight":"1"}}},"version":[1,4,2]}
