{"learner":{"attributes":{},"feature_names":[" day"," trace 40 quant","competitiveness","empirical_distr_p","empirical_distr_q_0","empirical_distr_q_1","empirical_distr_q_10","empirical_distr_q_2","empirical_distr_q_3","empirical_distr_q_4","empirical_distr_q_5","empirical_distr_q_6","empirical_distr_q_7","empirical_distr_q_8","empirical_distr_q_9","my_layer_size","n_level","n_opp_level","opp_layer_size","trace 0 price","trace 0 quant","trace 1 price","trace 1 quant","trace 10 price","trace 10 quant","trace 11 price","trace 11 quant","trace 12 price","trace 12 quant","trace 13 price","trace 13 quant","trace 14 price","trace 14 quant","trace 15 price","trace 15 quant","trace 16 price","trace 16 quant","trace 17 price","trace 17 quant","trace 18 price","trace 18 quant","trace 19 price","trace 19 quant","trace 2 price","trace 2 quant","trace 20 price","trace 20 quant","trace 21 price","trace 21 quant","trace 22 price","trace 22 quant","trace 23 price","trace 23 quant","trace 24 price","trace 24 quant","trace 25 price","trace 25 quant","trace 26 price","trace 26 quant","trace 27 price","trace 27 quant","trace 28 price","trace 28 quant","trace 29 price","trace 29 quant","trace 3 price","trace 3 quant","trace 30 price","trace 30 quant","trace 31 price","trace 31 quant","trace 32 price","trace 32 quant","trace 33 price","trace 33 quant","trace 34 price","trace 34 quant","trace 35 price","trace 35 quant","trace 36 price","trace 36 quant","trace 37 price","trace 37 quant","trace 38 price","trace 38 quant","trace 39 price","trace 39 quant","trace 4 price","trace 4 quant","trace 40 price","trace 5 price","trace 5 quant","trace 6 price","trace 6 quant","trace 7 price","trace 7 quant","trace 8 price","trace 8 quant","trace 9 price","trace 9 quant","ufun_param_0","ufun_param_1","ufun_param_2","ufun_param_3","ufun_param_4","ufun_param_5","ufun_param_6","ufun_param_7","ufun_param_8","ufun_param_9"],"feature_types":["int","int","float","float","float","float","float","float","float","float","float","float","float","float","float","int","int","int","int","int","int","int","int","int","int","int","int","int","int","int","int","int","int","int","int","int","int","int","int","int","int","int","int","int","int","int","int","int","int","int","int","int","int","int","int","int","int","int","int","int","int","int","int","int","int","int","int","int","int","int","int","int","int","int","int","int","int","int","int","int","int","int","int","int","int","int","int","int","int","int","int","int","int","int","int","int","int","int","int","int","float","float","float","float","float","float","float","float","float","float"],"gradient_booster":{"model":{"gbtree_model_param":{"num_trees":"10","size_leaf_vector":"0"},"tree_info":[0,0,0,0,0,0,0,0,0,0],"trees":[{"base_weights":[1.166827E0,8.510107E0,-2.4759175E-1,3.01292E0,1.3145055E1,-3.949964E-1,2.7083333E0,1.383871E1,2.0364146E0,1.06469E1,2.377647E1,-4.24E-1,2.939394E0,-0E0,7.2727275E0,3.0833333E0,1.5403846E1,-3.6125654E-1,4.8263474E0,1.1012569E1,-0E0,2.4361446E1,-0E0,-4.3667963E-1,3.125E0,-0E0,6.1764708E0,-2.0472442E-1,9.25E0,7.6986303E0,-0E0,3.8E0,-0E0,1.6666666E0,-4.4444445E-1,5.165605E0,-0E0,9.793103E0,1.4045918E1,-0E0,1.75E0,-0E0,2.4664635E1,-0E0,-4.5500633E-1,-0E0,8.2E0,1.2083333E1,1.875E0,2.375E0,-3.669355E-1],"categories":[],"categories_nodes":[],"categories_segments":[],"categories_sizes":[],"default_left":[true,true,true,true,true,true,true,true,true,true,true,true,true,true,true,true,false,true,true,true,true,true,false,true,true,false,true,true,false,false,false,false,false,false,false,false,false,false,false,false,false,false,false,false,false,false,false,false,false,false,false],"id":0,"left_children":[1,3,5,7,9,11,13,15,17,19,21,23,25,27,29,31,-1,33,35,37,39,41,-1,43,45,-1,47,49,-1,-1,-1,-1,-1,-1,-1,-1,-1,-1,-1,-1,-1,-1,-1,-1,-1,-1,-1,-1,-1,-1,-1],"loss_changes":[5.4094387E4,2.1226797E4,1.877663E3,3.9042156E3,1.148693E4,3.7811322E2,2.576373E3,2.894751E2,2.4344893E3,1.3617969E3,1.2065977E3,1.6010645E2,3.634082E2,1.7644783E2,2.5390308E2,1.5158329E1,0E0,2.0739962E1,2.9926978E2,9.483242E2,6.125E0,6.253789E2,0E0,3.2241455E1,2.1901251E2,0E0,2.6969977E2,3.393523E1,0E0,0E0,0E0,0E0,0E0,0E0,0E0,0E0,0E0,0E0,0E0,0E0,0E0,0E0,0E0,0E0,0E0,0E0,0E0,0E0,0E0,0E0,0E0],"parents":[2147483647,0,0,1,1,2,2,3,3,4,4,5,5,6,6,7,7,8,8,9,9,10,10,11,11,12,12,13,13,14,14,15,15,17,17,18,18,19,19,20,20,21,21,23,23,24,24,26,26,27,27],"right_children":[2,4,6,8,10,12,14,16,18,20,22,24,26,28,30,32,-1,34,36,38,40,42,-1,44,46,-1,48,50,-1,-1,-1,-1,-1,-1,-1,-1,-1,-1,-1,-1,-1,-1,-1,-1,-1,-1,-1,-1,-1,-1,-1],"split_conditions":[-4.95E1,2.45E1,3.175403E-2,1.5E0,1.75E1,1.0555556E-1,8.5E0,1.5E1,1.05E1,4.416921E-3,7.5E0,9.166667E-2,-2.1810331E-12,7.5E0,6.5E0,2.1E1,1.5403847E0,5.5E0,2.95E1,8.5E0,1.9E1,1.9E1,-0E0,2.5E0,5.5E0,-0E0,1.95E1,1.5E0,9.25E-1,7.6986307E-1,-0E0,3.8E-1,-0E0,1.6666667E-1,-4.4444446E-2,5.165605E-1,-0E0,9.7931033E-1,1.4045919E0,-0E0,1.75E-1,-0E0,2.4664636E0,-0E0,-4.5500632E-2,-0E0,8.2E-1,1.2083334E0,1.875E-1,2.375E-1,-3.669355E-2],"split_indices":[71,92,8,60,55,14,38,55,96,100,15,7,100,88,70,19,0,27,55,55,0,23,0,34,15,0,53,20,0,0,0,0,0,0,0,0,0,0,0,0,0,0,0,0,0,0,0,0,0,0,0],"split_type":[0,0,0,0,0,0,0,0,0,0,0,0,0,0,0,0,0,0,0,0,0,0,0,0,0,0,0,0,0,0,0,0,0,0,0,0,0,0,0,0,0,0,0,0,0,0,0,0,0,0,0],"sum_hessian":[5.199E3,8.4E2,4.359E3,3.86E2,4.54E2,4.156E3,2.03E2,3E1,3.56E2,3.7E2,8.4E1,4.124E3,3.2E1,1.27E2,7.6E1,5E0,2.5E1,1.9E2,1.66E2,3.57E2,1.3E1,8.2E1,2E0,4.113E3,1.1E1,1.6E1,1.6E1,1.26E2,1E0,7.2E1,4E0,4E0,1E0,2E0,1.88E2,1.56E2,1E1,2.6E2,9.7E1,1.2E1,1E0,1E0,8.1E1,1.69E2,3.944E3,7E0,4E0,5E0,1.1E1,3E0,1.23E2],"tree_param":{"num_deleted":"0","num_feature":"110","num_nodes":"51","size_leaf_vector":"0"}},{"base_weights":[1.0537694E0,7.6737037E0,-2.2109725E-1,2.7219875E0,1.18465395E1,-3.545657E-1,2.450714E0,5.4980297E0,-3.1624398E-1,9.345152E0,2.2354294E1,-3.6956447E-1,2.4051406E0,-1.003599E-1,6.215348E0,4.440829E0,1.3189879E1,1.5555555E0,-4.0030524E-1,9.755195E0,5.6725516E0,-3.8843998E-1,1.3683338E0,-0E0,1.0439433E1,-3.1908843E-1,1.3594356E0,6.919812E0,-0E0,8.792815E0,3.7249753E0,-0E0,1.3835627E1,2.6666665E0,-0E0,-0E0,9.8814125E0,7.8821263E0,-0E0,-4.1222912E-1,-0E0,5.4375E0,-0E0,1.3162916E1,-0E0,-3.7101173E-1,-0E0,5.703898E0,-0E0,-0E0,7.119356E0],"categories":[],"categories_nodes":[],"categories_segments":[],"categories_sizes":[],"default_left":[true,true,true,true,true,true,true,true,true,true,false,true,true,true,true,true,true,true,false,true,true,true,true,false,true,true,true,true,false,false,false,false,false,false,false,false,false,false,false,false,false,false,false,false,false,false,false,false,false,false,false],"id":1,"left_children":[1,3,5,7,9,11,13,15,17,19,-1,21,23,25,27,29,31,33,-1,35,37,39,41,-1,43,45,47,49,-1,-1,-1,-1,-1,-1,-1,-1,-1,-1,-1,-1,-1,-1,-1,-1,-1,-1,-1,-1,-1,-1,-1],"loss_changes":[4.3961793E4,1.7199395E4,1.5346946E3,3.3176147E3,1.1433309E4,1.5260034E2,2.0209609E3,1.4240122E3,1.8021835E1,3.4757617E2,0E0,1.265072E2,4.3499954E2,2.8665476E1,3.9420312E2,4.090691E2,2.0996313E2,6.962962E0,0E0,4.2485352E2,4.5024E2,3.6139282E1,1.635101E2,0E0,1.4814062E2,3.737917E0,7.912271E1,1.11538086E2,0E0,0E0,0E0,0E0,0E0,0E0,0E0,0E0,0E0,0E0,0E0,0E0,0E0,0E0,0E0,0E0,0E0,0E0,0E0,0E0,0E0,0E0,0E0],"parents":[2147483647,0,0,1,1,2,2,3,3,4,4,5,5,6,6,7,7,8,8,9,9,11,11,12,12,13,13,14,14,15,15,16,16,17,17,19,19,20,20,21,21,22,22,24,24,25,25,26,26,27,27],"right_children":[2,4,6,8,10,12,14,16,18,20,-1,22,24,26,28,30,32,34,-1,36,38,40,42,-1,44,46,48,50,-1,-1,-1,-1,-1,-1,-1,-1,-1,-1,-1,-1,-1,-1,-1,-1,-1,-1,-1,-1,-1,-1,-1],"split_conditions":[-4.95E1,2.45E1,3.175403E-2,2.95E1,1.85E1,3.95E1,7.5E0,3.35E1,5.5E0,8.5E0,2.2354295E0,8.712122E-2,9.5E0,2.3138298E-1,7.5E0,1.5E0,4.5E0,3.55E1,-4.0030524E-2,2.55E1,2.85E1,9.5E0,1.5E0,-0E0,4.2E1,1.3392857E-1,5.5E0,1.15E1,-0E0,8.792815E-1,3.7249753E-1,-0E0,1.3835627E0,2.6666665E-1,-0E0,-0E0,9.8814124E-1,7.8821266E-1,-0E0,-4.122291E-2,-0E0,5.4375E-1,-0E0,1.3162917E0,-0E0,-3.7101176E-2,-0E0,5.703898E-1,-0E0,-0E0,7.1193564E-1],"split_indices":[72,92,8,63,63,47,34,21,27,30,0,10,66,8,64,64,66,21,0,87,45,52,30,0,21,10,21,23,0,0,0,0,0,0,0,0,0,0,0,0,0,0,0,0,0,0,0,0,0,0,0],"split_type":[0,0,0,0,0,0,0,0,0,0,0,0,0,0,0,0,0,0,0,0,0,0,0,0,0,0,0,0,0,0,0,0,0,0,0,0,0,0,0,0,0,0,0,0,0,0,0,0,0,0,0],"sum_hessian":[5.199E3,8.4E2,4.359E3,3.86E2,4.54E2,4.156E3,2.03E2,2.03E2,1.83E2,3.69E2,8.5E1,4.138E3,1.8E1,1.2E2,8.3E1,1.81E2,2.2E1,2E0,1.81E2,3.28E2,4.1E1,4.1E3,3.8E1,1.4E1,4E0,1.11E2,9E0,7.5E1,8E0,2.2E1,1.59E2,1E0,2.1E1,1E0,1E0,4E0,3.24E2,2.8E1,1.3E1,3.853E3,2.47E2,7E0,3.1E1,3E0,1E0,1.09E2,2E0,2E0,7E0,2E0,7.3E1],"tree_param":{"num_deleted":"0","num_feature":"110","num_nodes":"51","size_leaf_vector":"0"}},{"base_weights":[9.5167744E-1,3.9734817E-1,7.5597296E0,-2.136224E-1,1.5742708E0,6.492984E0,2.3629328E1,1.8809855E0,-3.601685E-1,7.4341364E0,6.5799844E-1,7.917928E0,6.9004464E-1,1.619165E0,1.1936314E1,-3.7580067E-1,1.2134691E0,8.09463E0,-0E0,2.6249585E0,-2.3840897E-1,4.9077168E0,1.05670595E1,-2.9997596E-1,5.88085E0,3.2186527E0,6.879907E-1,-4.017749E-1,-0E0,3.7850182E0,-0E0,4.7518864E-2,8.457639E0,4.757717E0,1.673859E0,-3.4699494E-1,9.74039E-1,2.9448934E0,6.9399595E0,1.303297E1,2.4522824E0,1.2218644E1,-0E0],"categories":[],"categories_nodes":[],"categories_segments":[],"categories_sizes":[],"default_left":[true,true,true,true,true,true,false,true,true,true,true,true,true,true,false,true,true,true,false,true,true,true,true,false,true,false,false,false,false,false,false,false,false,false,false,false,false,false,false,false,false,false,false],"id":2,"left_children":[1,3,5,7,9,11,-1,13,15,17,19,21,23,25,-1,27,29,31,-1,33,35,37,39,-1,41,-1,-1,-1,-1,-1,-1,-1,-1,-1,-1,-1,-1,-1,-1,-1,-1,-1,-1],"loss_changes":[1.8965219E4,3.4654556E3,6.419367E3,9.539175E2,8.751944E3,3.0340889E3,0E0,3.7692206E2,6.474585E1,1.152831E3,2.538811E3,2.2016738E3,4.5327618E2,2.5511017E2,0E0,2.5318573E1,9.5069595E1,5.1046387E2,0E0,8.4053E2,1.2269432E2,4.5910938E2,2.9748145E3,0E0,5.6088525E2,0E0,0E0,0E0,0E0,0E0,0E0,0E0,0E0,0E0,0E0,0E0,0E0,0E0,0E0,0E0,0E0,0E0,0E0],"parents":[2147483647,0,0,1,1,2,2,3,3,4,4,5,5,7,7,8,8,9,9,10,10,11,11,12,12,13,13,15,15,16,16,17,17,19,19,20,20,21,21,22,22,24,24],"right_children":[2,4,6,8,10,12,-1,14,16,18,20,22,24,26,-1,28,30,32,-1,34,36,38,40,-1,42,-1,-1,-1,-1,-1,-1,-1,-1,-1,-1,-1,-1,-1,-1,-1,-1,-1,-1],"split_conditions":[5.369318E0,1.9675925E-2,2.1296429E1,8.7083334E-1,2.5978409E-2,3.25E1,2.362933E0,6.5E0,6.9711536E-2,3.5E0,8.729839E-1,1.15E1,9.5E0,6.5E0,1.1936314E0,5.3933725E-2,1.0833334E0,7.5E0,-0E0,-4.590392E-2,1.2749128E0,2.1507863E-2,3.5E0,-2.9997597E-2,4.5E0,3.218653E-1,6.879907E-2,-4.017749E-2,-0E0,3.7850183E-1,-0E0,4.7518867E-3,8.4576386E-1,4.7577173E-1,1.673859E-1,-3.4699496E-2,9.740391E-2,2.9448935E-1,6.9399595E-1,1.303297E0,2.4522825E-1,1.2218645E0,-0E0],"split_indices":[3,5,3,4,5,61,0,40,14,64,4,47,20,47,0,106,3,59,0,106,3,5,40,0,28,0,0,0,0,0,0,0,0,0,0,0,0,0,0,0,0,0,0],"split_type":[0,0,0,0,0,0,0,0,0,0,0,0,0,0,0,0,0,0,0,0,0,0,0,0,0,0,0,0,0,0,0,0,0,0,0,0,0,0,0,0,0,0,0],"sum_hessian":[5.199E3,4.799E3,4E2,3.154E3,1.645E3,3.77E2,2.3E1,2.01E2,2.953E3,2.2E2,1.425E3,3.01E2,7.6E1,1.98E2,3E0,2.931E3,2.2E1,2.03E2,1.7E1,4.49E2,9.76E2,1.44E2,1.57E2,6.3E1,1.3E1,6.8E1,1.3E2,2.721E3,2.1E2,8E0,1.4E1,1E1,1.93E2,1.34E2,3.15E2,9.04E2,7.2E1,7.7E1,6.7E1,1.19E2,3.8E1,6E0,7E0],"tree_param":{"num_deleted":"0","num_feature":"110","num_nodes":"43","size_leaf_vector":"0"}},{"base_weights":[8.5996693E-1,6.4241714E0,-2.112156E-1,-2.525175E-1,8.620271E0,-2.413419E-1,2.401963E0,2.3300319E0,-4.1746962E-1,7.2825155E0,1.8360575E1,6.5222096E-1,-3.3033964E-1,1.6134209E1,8.36127E-1,3.6572378E0,8.762297E0,-3.841604E-1,5.323522E0,-3.5449415E-1,1.586472E0,-2.31653E-1,4.872546E0,3.8817894E0,4.7129762E-1,7.234127E0,1.1143414E1,-3.795628E-1,1.7706168E-1,-0E0,6.0588584E0,-0E0,-3.711858E-1,-0E0,9.922664E0],"categories":[],"categories_nodes":[],"categories_segments":[],"categories_sizes":[],"default_left":[true,true,true,true,true,true,true,false,false,true,false,true,true,false,true,true,true,false,false,true,true,true,true,false,false,false,false,false,false,false,false,false,false,false,false],"id":3,"left_children":[1,3,5,7,9,11,13,-1,-1,15,-1,17,19,-1,21,23,25,-1,-1,27,29,31,33,-1,-1,-1,-1,-1,-1,-1,-1,-1,-1,-1,-1],"loss_changes":[3.1056934E4,1.2417164E4,3.2221628E2,7.045448E1,7.8709688E3,3.4014734E2,8.059188E2,0E0,0E0,2.8479453E3,0E0,1.8959546E3,1.7043176E2,0E0,2.32868E2,7.339722E1,1.172918E3,0E0,0E0,5.395456E1,2.930641E2,2.6380422E0,3.295967E2,0E0,0E0,0E0,0E0,0E0,0E0,0E0,0E0,0E0,0E0,0E0,0E0],"parents":[2147483647,0,0,1,1,2,2,3,3,4,4,5,5,6,6,9,9,11,11,12,12,14,14,15,15,16,16,19,19,20,20,21,21,22,22],"right_children":[2,4,6,8,10,12,14,-1,-1,16,-1,18,20,-1,22,24,26,-1,-1,28,30,32,34,-1,-1,-1,-1,-1,-1,-1,-1,-1,-1,-1,-1],"split_conditions":[-4.95E1,4.8358974E-1,1.2368422E1,5.5E0,1.0264706E1,-1.9063412E1,-1.1970971E0,2.3300318E-1,-4.1746963E-2,7.5E0,1.8360575E0,-1.908413E1,3.85E1,1.6134208E0,1.6E1,9.5E0,2.9136028E0,-3.841604E-2,5.323522E-1,5.1446486E0,8.5E0,2.5E0,6.5E0,3.8817894E-1,4.712976E-2,7.234127E-1,1.1143414E0,-3.795628E-2,1.7706169E-2,-0E0,6.0588586E-1,-0E0,-3.711858E-2,-0E0,9.9226636E-1],"split_indices":[72,3,3,25,3,108,105,0,0,59,0,108,25,0,0,60,3,0,0,3,26,32,26,0,0,0,0,0,0,0,0,0,0,0,0],"split_type":[0,0,0,0,0,0,0,0,0,0,0,0,0,0,0,0,0,0,0,0,0,0,0,0,0,0,0,0,0,0,0,0,0,0,0],"sum_hessian":[5.199E3,8.4E2,4.359E3,2.07E2,6.33E2,4.314E3,4.5E1,8E0,1.99E2,5.59E2,7.4E1,3.8E2,3.934E3,3E0,4.2E1,1.65E2,3.94E2,3.1E2,7E1,3.891E3,4.3E1,3.2E1,1E1,1.51E2,1.4E1,2.45E2,1.49E2,3.734E3,1.57E2,3.3E1,1E1,1E0,3.1E1,5E0,5E0],"tree_param":{"num_deleted":"0","num_feature":"110","num_nodes":"35","size_leaf_vector":"0"}},{"base_weights":[7.766806E-1,5.791624E0,-1.8853593E-1,-2.2153854E-1,7.7710342E0,5.651052E-1,-3.2799706E-1,2.122918E0,-3.7593138E-1,6.56368E0,1.6548998E1,5.078508E-2,4.511368E0,-3.379568E-1,3.230021E-1,4.1490088E0,7.835144E0,1.6784182E1,1.9765354E0,-2.504098E-1,1.9561316E0,4.798668E0,-0E0,-3.41964E-1,-0E0,-1.3106798E-1,7.0559173E0,1.0503028E1,2.937354E0,6.7031727E0,1.1340848E1,-3.535048E-1,4.428167E0,-0E0,4.1034145E0,1.7307111E0,-1.1455816E-1,9.761352E0,-0E0],"categories":[],"categories_nodes":[],"categories_segments":[],"categories_sizes":[],"default_left":[true,true,true,true,true,true,true,false,false,true,true,true,true,true,true,true,true,false,false,true,true,false,false,false,true,false,true,false,false,false,false,false,false,false,false,false,false,false,false],"id":4,"left_children":[1,3,5,7,9,11,13,-1,-1,15,17,19,21,23,25,27,29,-1,-1,31,33,-1,-1,-1,35,-1,37,-1,-1,-1,-1,-1,-1,-1,-1,-1,-1,-1,-1],"loss_changes":[2.5227756E4,1.008723E4,4.5606616E2,5.8617405E1,6.379453E3,1.3140098E3,2.4190338E1,0E0,0E0,1.5669434E3,3.6259766E1,3.595799E2,1.08499146E2,5.152954E0,1.9551912E2,1.3591223E3,1.1840527E3,0E0,0E0,2.0729337E2,3.781217E2,0E0,0E0,0E0,9.511026E0,0E0,8.670807E1,0E0,0E0,0E0,0E0,0E0,0E0,0E0,0E0,0E0,0E0,0E0,0E0],"parents":[2147483647,0,0,1,1,2,2,3,3,4,4,5,5,6,6,9,9,10,10,11,11,12,12,13,13,14,14,15,15,16,16,19,19,20,20,24,24,26,26],"right_children":[2,4,6,8,10,12,14,-1,-1,16,18,20,22,24,26,28,30,-1,-1,32,34,-1,-1,-1,36,-1,38,-1,-1,-1,-1,-1,-1,-1,-1,-1,-1,-1,-1],"split_conditions":[-4.95E1,4.8358974E-1,8.729839E-1,5.5E0,1.0264706E1,8.7026644E-1,2.1882353E0,2.1229179E-1,-3.7593137E-2,2.65E1,7.5E0,2.45E1,1.2580645E0,4.15E1,9E0,1.5E0,9.5E0,1.6784182E0,1.9765355E-1,1.4713816E1,6.5E0,4.798668E-1,-0E0,-3.4196403E-2,4.25E1,-1.3106798E-2,9.115385E-1,1.0503029E0,2.937354E-1,6.703173E-1,1.1340848E0,-3.5350483E-2,4.428167E-1,-0E0,4.1034147E-1,1.7307112E-1,-1.1455816E-2,9.761352E-1,-0E0],"split_indices":[71,3,4,25,3,4,3,0,0,19,15,55,3,43,30,60,55,0,0,3,95,0,0,0,19,0,4,0,0,0,0,0,0,0,0,0,0,0,0],"split_type":[0,0,0,0,0,0,0,0,0,0,0,0,0,0,0,0,0,0,0,0,0,0,0,0,0,0,0,0,0,0,0,0,0,0,0,0,0,0,0],"sum_hessian":[5.199E3,8.4E2,4.359E3,2.07E2,6.33E2,6.69E2,3.69E3,8E0,1.99E2,5.59E2,7.4E1,5.95E2,7.4E1,3.65E3,4E1,1.97E2,3.62E2,7.2E1,2E0,5.1E2,8.5E1,7E1,4E0,3.609E3,4.1E1,3.7E1,3E0,2.9E1,1.68E2,2.78E2,8.4E1,5.02E2,8E0,4.4E1,4.1E1,2E0,3.9E1,2E0,1E0],"tree_param":{"num_deleted":"0","num_feature":"110","num_nodes":"39","size_leaf_vector":"0"}},{"base_weights":[7.014807E-1,5.224589E0,-1.6884857E-1,-1.937371E-1,7.0097423E0,5.1105857E-1,-2.9493064E-1,1.9342141E0,-3.3852622E-1,5.9182916E0,1.4932446E1,4.638812E-2,4.0634923E0,-3.041262E-1,2.8721383E-1,2.4923317E0,6.9877214E0,1.2700719E1,1.848787E1,-2.2261448E-1,1.7605036E0,4.3255596E0,-0E0,-3.078762E-1,-3.2023806E-2,-1.1830609E-1,6.5678496E0,7.503488E-1,3.0523822E0,5.7831154E0,8.838485E0,-3.1822458E-1,4.034552E0,6.7874384E-1,5.5230145E0,8.156382E-2,-1.8461868E-1,9.110595E0,-0E0],"categories":[],"categories_nodes":[],"categories_segments":[],"categories_sizes":[],"default_left":[true,true,true,true,true,true,true,false,false,true,true,true,true,true,true,true,true,false,false,true,true,false,false,false,true,false,true,false,false,false,false,false,false,false,false,false,false,false,false],"id":5,"left_children":[1,3,5,7,9,11,13,-1,-1,15,17,19,21,23,25,27,29,-1,-1,31,33,-1,-1,-1,35,-1,37,-1,-1,-1,-1,-1,-1,-1,-1,-1,-1,-1,-1],"loss_changes":[2.0521725E4,8.204127E3,3.7174652E2,4.8783573E1,5.185467E3,1.0646888E3,2.0014923E1,0E0,0E0,1.9395254E3,4.8410156E1,2.9058734E2,9.004553E1,3.1658936E-1,1.6969629E2,9.3339355E1,7.479512E2,0E0,0E0,1.72112E2,2.8426517E2,0E0,0E0,0E0,2.5535681E0,0E0,7.6462204E1,0E0,0E0,0E0,0E0,0E0,0E0,0E0,0E0,0E0,0E0,0E0,0E0],"parents":[2147483647,0,0,1,1,2,2,3,3,4,4,5,5,6,6,9,9,10,10,11,11,12,12,13,13,14,14,15,15,16,16,19,19,20,20,24,24,26,26],"right_children":[2,4,6,8,10,12,14,-1,-1,16,18,20,22,24,26,28,30,-1,-1,32,34,-1,-1,-1,36,-1,38,-1,-1,-1,-1,-1,-1,-1,-1,-1,-1,-1,-1],"split_conditions":[-4.95E1,4.8358974E-1,8.729839E-1,5.5E0,1.0264706E1,8.7026644E-1,2.1882353E0,1.9342141E-1,-3.3852622E-2,6.5E0,2.35E1,2.45E1,1.2580645E0,3.75E1,9.5E0,1.6312218E0,3.03125E0,1.2700719E0,1.848787E0,1.4713816E1,9.5E0,4.3255597E-1,-0E0,-3.078762E-2,9.128788E-1,-1.1830609E-2,9.115385E-1,7.503488E-2,3.0523822E-1,5.7831156E-1,8.838485E-1,-3.1822458E-2,4.0345523E-1,6.787439E-2,5.5230147E-1,8.1563825E-3,-1.8461868E-2,9.110595E-1,-0E0],"split_indices":[71,3,4,94,3,4,3,0,0,59,59,55,3,49,26,3,3,0,0,3,22,0,0,0,4,0,4,0,0,0,0,0,0,0,0,0,0,0,0],"split_type":[0,0,0,0,0,0,0,0,0,0,0,0,0,0,0,0,0,0,0,0,0,0,0,0,0,0,0,0,0,0,0,0,0,0,0,0,0,0,0],"sum_hessian":[5.199E3,8.4E2,4.359E3,2.07E2,6.33E2,6.69E2,3.69E3,8E0,1.99E2,5.59E2,7.4E1,5.95E2,7.4E1,3.65E3,4E1,1.36E2,4.23E2,5E1,2.4E1,5.1E2,8.5E1,7E1,4E0,3.564E3,8.6E1,3.7E1,3E0,3.8E1,9.8E1,2.62E2,1.61E2,5.02E2,8E0,6.9E1,1.6E1,1.2E1,7.4E1,2E0,1E0],"tree_param":{"num_deleted":"0","num_feature":"110","num_nodes":"39","size_leaf_vector":"0"}},{"base_weights":[6.3403684E-1,4.7141643E0,-1.5083042E-1,6.2760215E0,-3.058773E-1,-2.3163669E-1,1.3542289E0,4.399013E0,9.919928E0,3.8035727E0,-2.4277647E-1,-2.6408854E-1,3.7788403E0,2.6670072E0,5.3857813E0,1.1099141E1,1.2488066E0,-0E0,1.2434273E1,2.4003778E-1,-2.7447852E-1,2.0210612E0,-4.5471302E-1,4.2596426E0,-0E0,2.119782E0,4.833478E0,5.445138E0,-0E0,1.1533879E1,1.1639322E0,5.9879203E0,-1.1611409E0,6.050445E0,-0E0,-2.7816585E-1,-0E0,5.8023806E0,-0E0,4.488432E0,-0E0],"categories":[],"categories_nodes":[],"categories_segments":[],"categories_sizes":[],"default_left":[true,true,true,true,false,true,true,true,true,true,true,true,true,true,true,true,true,false,false,true,true,true,false,true,false,false,false,false,false,false,false,false,false,false,false,false,false,false,false,false,false],"id":6,"left_children":[1,3,5,7,-1,9,11,13,15,17,19,21,23,25,27,29,31,-1,-1,33,35,37,-1,39,-1,-1,-1,-1,-1,-1,-1,-1,-1,-1,-1,-1,-1,-1,-1,-1,-1],"loss_changes":[1.669861E4,6.6555566E3,5.1934326E2,4.2110625E3,0E0,1.5163867E2,8.836843E2,6.3659766E2,2.0712812E3,3.336289E2,6.3732025E1,4.101302E1,1.9882153E2,1.11094604E2,1.1299463E2,6.759297E2,3.7500903E2,0E0,0E0,3.158731E2,6.017029E0,7.6494736E1,0E0,1.01680786E2,0E0,0E0,0E0,0E0,0E0,0E0,0E0,0E0,0E0,0E0,0E0,0E0,0E0,0E0,0E0,0E0,0E0],"parents":[2147483647,0,0,1,1,2,2,3,3,5,5,6,6,7,7,8,8,9,9,10,10,11,11,12,12,13,13,14,14,15,15,16,16,19,19,20,20,21,21,23,23],"right_children":[2,4,6,8,-1,10,12,14,16,18,20,22,24,26,28,30,32,-1,-1,34,36,38,-1,40,-1,-1,-1,-1,-1,-1,-1,-1,-1,-1,-1,-1,-1,-1,-1,-1,-1],"split_conditions":[-4.95E1,9.6805274E-1,2.8991597E-2,8.5E0,-3.058773E-2,2.611111E-1,7.5E0,2.65E1,8.7083334E-1,2.8E1,7.8867626E-1,3.5E-1,6.5E0,6.5E0,3.1E1,7.5E0,2.45E1,-0E0,1.2434273E0,-3.0267434E0,6.5E0,4.8214287E-1,-4.5471303E-2,2.1212122E-1,-0E0,2.119782E-1,4.833478E-1,5.445138E-1,-0E0,1.1533879E0,1.1639322E-1,5.98792E-1,-1.16114095E-1,6.0504454E-1,-0E0,-2.7816584E-2,-0E0,5.8023804E-1,-0E0,4.488432E-1,-0E0],"split_indices":[72,4,8,51,0,4,95,92,4,53,4,4,70,51,61,62,51,0,0,107,72,9,0,8,0,0,0,0,0,0,0,0,0,0,0,0,0,0,0,0,0],"split_type":[0,0,0,0,0,0,0,0,0,0,0,0,0,0,0,0,0,0,0,0,0,0,0,0,0,0,0,0,0,0,0,0,0,0,0,0,0,0,0,0,0],"sum_hessian":[5.199E3,8.4E2,4.359E3,6.42E2,1.98E2,4.144E3,2.15E2,4.27E2,2.15E2,8E0,4.136E3,1.27E2,8.8E1,1.6E2,2.67E2,1.88E2,2.7E1,6E0,2E0,2.35E2,3.901E3,5E0,1.22E2,8E1,8E0,1.33E2,2.7E1,2.65E2,2E0,1.79E2,9E0,1E1,1.7E1,8E0,2.27E2,3.876E3,2.5E1,2E0,3E0,7.7E1,3E0],"tree_param":{"num_deleted":"0","num_feature":"110","num_nodes":"41","size_leaf_vector":"0"}},{"base_weights":[5.723666E-1,4.2492404E0,-1.347029E-1,-1.6279954E-1,5.705794E0,-1.921424E-1,1.1156204E0,-2.7683374E-1,1.2782719E0,4.787081E0,1.2356109E1,2.3380985E0,-2.1773589E-1,3.4565747E0,-2.6440924E-1,3.8231063E0,6.778177E0,7.2815533E0,1.3887192E1,1.4028122E1,6.4957875E-1,-2.3509009E-1,1.2790924E0,2.2592988E0,4.9260216E0,8.040567E0,2.260898E0,-0E0,9.834951E0,-2.5770497E-1,3.1064284E-1,-1.4439264E-1,9.642362E0],"categories":[],"categories_nodes":[],"categories_segments":[],"categories_sizes":[],"default_left":[true,true,true,true,true,true,true,false,false,true,true,true,true,false,false,true,true,false,false,false,true,true,true,false,false,false,false,false,false,false,false,false,false],"id":7,"left_children":[1,3,5,7,9,11,13,-1,-1,15,17,19,21,-1,-1,23,25,-1,-1,-1,27,29,31,-1,-1,-1,-1,-1,-1,-1,-1,-1,-1],"loss_changes":[1.3560705E4,5.4609385E3,3.0410577E2,2.4520428E1,3.6429902E3,2.4979826E2,6.272634E2,0E0,0E0,9.4291797E2,2.6991016E2,5.9418634E2,9.740239E1,0E0,0E0,5.775957E2,8.938633E2,0E0,0E0,0E0,2.7541046E2,5.015161E1,5.8447656E2,0E0,0E0,0E0,0E0,0E0,0E0,0E0,0E0,0E0,0E0],"parents":[2147483647,0,0,1,1,2,2,3,3,4,4,5,5,6,6,9,9,10,10,11,11,12,12,15,15,16,16,20,20,21,21,22,22],"right_children":[2,4,6,8,10,12,14,-1,-1,16,18,20,22,-1,-1,24,26,-1,-1,-1,28,30,32,-1,-1,-1,-1,-1,-1,-1,-1,-1,-1],"split_conditions":[-4.95E1,4.8358974E-1,3.908583E1,1.0869565E-2,1.0264706E1,4.355263E-1,5.5E0,-2.7683375E-2,1.278272E-1,9.5E0,1.95E1,-9.632106E-4,7.0197046E-2,3.4565747E-1,-2.6440924E-2,2.95E1,2.35E1,7.281553E-1,1.3887192E0,1.4028122E0,4.7008548E-2,5.17029E0,7.5E0,2.2592989E-1,4.9260217E-1,8.0405676E-1,2.2608982E-1,-0E0,9.834952E-1,-2.5770498E-2,3.1064285E-2,-1.4439264E-2,9.642362E-1],"split_indices":[72,3,109,7,3,4,51,0,0,63,63,100,7,0,0,19,51,0,0,0,7,3,26,0,0,0,0,0,0,0,0,0,0],"split_type":[0,0,0,0,0,0,0,0,0,0,0,0,0,0,0,0,0,0,0,0,0,0,0,0,0,0,0,0,0,0,0,0,0],"sum_hessian":[5.199E3,8.4E2,4.359E3,2.07E2,6.33E2,4.176E3,1.83E2,1.99E2,8E0,5.59E2,7.4E1,3.7E1,4.139E3,7E1,1.13E2,3.82E2,1.77E2,2E1,5.4E1,3E0,3.4E1,4.099E3,4E1,1.63E2,2.19E2,1.36E2,4.1E1,3.2E1,2E0,3.954E3,1.45E2,3.4E1,6E0],"tree_param":{"num_deleted":"0","num_feature":"110","num_nodes":"33","size_leaf_vector":"0"}},{"base_weights":[5.178125E-1,1.962721E-1,3.981725E0,-8.1806935E-2,3.050339E0,3.3714154E0,1.3977853E1,-1.693595E-1,1.5430703E0,4.1638923E0,1.1667291E0,4.05062E0,4.2515863E-2,-1.8351899E-1,3.5510118E0,1.968211E0,-6.5049535E-1,4.2161355E0,-0E0,9.194701E-1,6.796219E0,2.368247E0,5.964971E0,8.835678E0,-6.1988797E-2,-1.93406E-1,4.7679004E-1,-0E0,4.6604667E0,1.2982011E0,8.339054E0,-6.7541456E-1,-0E0,4.5991373E0,3.0716362E0,2.887501E0,5.931037E-1,9.314701E0,-0E0,1.0574603E0,3.6295445E0,8.284864E0,2.0142395E0,-4.0393314E-1,1.7911911E0],"categories":[],"categories_nodes":[],"categories_segments":[],"categories_sizes":[],"default_left":[true,true,true,true,true,true,false,true,true,true,true,true,true,true,true,true,true,true,false,true,true,true,true,false,true,false,false,false,false,false,false,false,false,false,false,false,false,false,false,false,false,false,false,false,false],"id":8,"left_children":[1,3,5,7,9,11,-1,13,15,17,19,21,23,25,27,29,31,33,-1,35,37,39,41,-1,43,-1,-1,-1,-1,-1,-1,-1,-1,-1,-1,-1,-1,-1,-1,-1,-1,-1,-1,-1,-1],"loss_changes":[5.7491353E3,3.8093254E3,2.4576035E3,6.035153E2,8.3537085E2,8.9947363E2,0E0,1.8411761E2,2.1589343E2,6.2251465E1,1.434807E2,1.0072251E3,1.5628517E2,2.4090439E1,5.3273575E1,6.8247943E2,1.4493084E-1,2.3573242E1,0E0,6.560693E1,2.9348007E1,2.584574E2,1.3192695E3,0E0,3.31099E1,0E0,0E0,0E0,0E0,0E0,0E0,0E0,0E0,0E0,0E0,0E0,0E0,0E0,0E0,0E0,0E0,0E0,0E0,0E0,0E0],"parents":[2147483647,0,0,1,1,2,2,3,3,4,4,5,5,7,7,8,8,9,9,10,10,11,11,12,12,13,13,14,14,15,15,16,16,17,17,19,19,20,20,21,21,22,22,24,24],"right_children":[2,4,6,8,10,12,-1,14,16,18,20,22,24,26,28,30,32,34,-1,36,38,40,42,-1,44,-1,-1,-1,-1,-1,-1,-1,-1,-1,-1,-1,-1,-1,-1,-1,-1,-1,-1,-1,-1],"split_conditions":[5.0128202E0,2.3268398E-2,2.1296429E1,2.5749998E0,8.6053133E-1,3.45E1,1.3977853E0,7.0197046E-2,2.45E1,2.5E0,6.5126054E-2,1.85E1,1.5E0,5.7189543E-2,-7.52494E-5,2.6E1,3.125E-2,4.9358976E-1,-0E0,-1.6822608E0,4.918033E-2,-1.6285862E-12,1.75E1,8.835678E-1,1.0714286E-1,-1.93406E-2,4.7679003E-2,-0E0,4.6604666E-1,1.2982011E-1,8.339054E-1,-6.754146E-2,-0E0,4.5991373E-1,3.0716363E-1,2.887501E-1,5.9310373E-2,9.314701E-1,-0E0,1.0574603E-1,3.6295447E-1,8.2848644E-1,2.0142396E-1,-4.0393315E-2,1.7911911E-1],"split_indices":[3,8,3,3,3,35,0,7,69,36,7,69,30,9,100,41,9,3,0,107,6,105,33,0,8,0,0,0,0,0,0,0,0,0,0,0,0,0,0,0,0,0,0,0,0],"split_type":[0,0,0,0,0,0,0,0,0,0,0,0,0,0,0,0,0,0,0,0,0,0,0,0,0,0,0,0,0,0,0,0,0,0,0,0,0,0,0,0,0,0,0,0,0],"sum_hessian":[5.199E3,4.761E3,4.38E2,4.336E3,4.25E2,4.15E2,2.3E1,4.121E3,2.15E2,2.63E2,1.62E2,3.42E2,7.3E1,4.109E3,1.2E1,1.84E2,3.1E1,2.6E2,3E0,1.58E2,4E0,1.86E2,1.56E2,1E0,7.2E1,4.064E3,4.5E1,3E0,9E0,1.69E2,1.5E1,2.9E1,2E0,1.86E2,7.4E1,1.7E1,1.41E2,2E0,2E0,9.6E1,9E1,9.6E1,6E1,6.6E1,6E0],"tree_param":{"num_deleted":"0","num_feature":"110","num_nodes":"45","size_leaf_vector":"0"}},{"base_weights":[4.698285E-1,2.1203845E0,1.4859933E-1,1.6545104E0,5.314236E0,6.439259E-2,2.966773E0,9.6439916E-1,3.459538E0,6.9411836E0,-0E0,4.0150627E-2,5.1886525E0,1.2631959E0,4.055827E0,1.3612477E-1,1.3049271E0,-0E0,4.0078993E0,4.573078E0,1.1568092E1,3.1097546E0,-3.68069E-1,4.455298E-1,-6.379524E-2,1.4113157E1,-0E0,-8.127725E-2,1.9521816E0,4.553144E0,-0E0,-1.8929254E-1,8.0353796E-1,5.9045386E-1,1.9482449E0,4.193123E0,-0E0,6.132023E0,-0E0,1.2074245E1,-0E0,-5.639841E-1,-0E0,7.2263247E-1,-1.2520173E-1,-1.2558472E-1,1.2780044E0,-3.9243108E-1,-0E0,2.9661E0,-8.143049E-2,6.075703E0,1.7095686E0],"categories":[],"categories_nodes":[],"categories_segments":[],"categories_sizes":[],"default_left":[true,true,true,true,true,true,true,true,true,true,true,true,true,true,true,true,true,false,true,true,true,false,true,true,true,false,false,true,true,true,false,false,false,false,false,false,false,false,false,false,false,false,false,false,false,false,false,false,false,false,false,false,false],"id":9,"left_children":[1,3,5,7,9,11,13,15,17,19,21,23,25,27,29,31,33,-1,35,37,39,-1,41,43,45,-1,-1,47,49,51,-1,-1,-1,-1,-1,-1,-1,-1,-1,-1,-1,-1,-1,-1,-1,-1,-1,-1,-1,-1,-1,-1,-1],"loss_changes":[2.7340698E3,1.1743594E3,1.00392834E3,8.729741E2,9.1732764E2,4.738327E2,1.6988684E2,1.3771912E2,3.852627E2,6.622473E2,2.259254E1,1.8166597E2,9.096705E2,6.796281E1,1.588606E2,4.2564922E1,1.4536554E2,0E0,1.3971558E2,3.705393E2,1.5337866E2,0E0,2.4746394E-1,1.45396E2,2.6555276E2,0E0,0E0,1.7555419E0,1.11564896E2,1.8884912E2,0E0,0E0,0E0,0E0,0E0,0E0,0E0,0E0,0E0,0E0,0E0,0E0,0E0,0E0,0E0,0E0,0E0,0E0,0E0,0E0,0E0,0E0,0E0],"parents":[2147483647,0,0,1,1,2,2,3,3,4,4,5,5,6,6,7,7,8,8,9,9,10,10,11,11,12,12,13,13,14,14,15,15,16,16,18,18,19,19,20,20,22,22,23,23,24,24,27,27,28,28,29,29],"right_children":[2,4,6,8,10,12,14,16,18,20,22,24,26,28,30,32,34,-1,36,38,40,-1,42,44,46,-1,-1,48,50,52,-1,-1,-1,-1,-1,-1,-1,-1,-1,-1,-1,-1,-1,-1,-1,-1,-1,-1,-1,-1,-1,-1,-1],"split_conditions":[4.5E0,1.95E1,6.0661763E-2,4.95E1,7.5E0,4.55E1,1.95E1,1.35E1,2.75E1,2.35E1,1.3E1,1.45E1,3.5E0,-9.243314E-2,3.3E1,6.5E0,4.495831E-2,-0E0,1.5E0,-1.0655776E-3,6.95E1,3.1097546E-1,3.25E1,7.5E0,3.8895966E1,1.4113158E0,-0E0,9E0,1.85E1,8.5E0,-0E0,-1.8929254E-2,8.03538E-2,5.9045386E-2,1.948245E-1,4.193123E-1,-0E0,6.132023E-1,-0E0,1.2074245E0,-0E0,-5.639841E-2,-0E0,7.226325E-2,-1.2520174E-2,-1.2558472E-2,1.2780045E-1,-3.924311E-2,-0E0,2.9661E-1,-8.143049E-3,6.0757035E-1,1.7095686E-1],"split_indices":[15,63,14,0,99,57,57,0,57,55,0,0,0,106,57,48,104,0,58,100,0,0,65,70,109,0,0,30,57,42,0,0,0,0,0,0,0,0,0,0,0,0,0,0,0,0,0,0,0,0,0,0,0],"split_type":[0,0,0,0,0,0,0,0,0,0,0,0,0,0,0,0,0,0,0,0,0,0,0,0,0,0,0,0,0,0,0,0,0,0,0,0,0,0,0,0,0,0,0,0,0,0,0,0,0,0,0,0,0],"sum_hessian":[5.199E3,8.41E2,4.358E3,7.38E2,1.03E2,4.236E3,1.22E2,5.39E2,1.99E2,7.9E1,2.4E1,4.219E3,1.7E1,5.2E1,7E1,1.66E2,3.73E2,2.7E1,1.72E2,5.5E1,2.4E1,1E0,2.3E1,8.8E2,3.339E3,6E0,1.1E1,1.3E1,3.9E1,6.3E1,7E0,1.02E2,6.4E1,1.85E2,1.88E2,1.65E2,7E0,4E1,1.5E1,2.3E1,1E0,1E1,1.3E1,6.04E2,2.76E2,3.2E3,1.39E2,1.1E1,2E0,2.9E1,1E1,3.8E1,2.5E1],"tree_param":{"num_deleted":"0","num_feature":"110","num_nodes":"53","size_leaf_vector":"0"}}]},"name":"gbtree"},"learner_model_param":{"base_score":"5E-1","num_class":"0","num_feature":"110"},"objective":{"name":"reg:squarederror","reg_loss_param":{"scale_pos_weight":"1"}}},"version":[1,4,2]}
