{"learner":{"attributes":{},"feature_names":[" day"," trace 40 quant","competitiveness","empirical_distr_p","empirical_distr_q_0","empirical_distr_q_1","empirical_distr_q_10","empirical_distr_q_2","empirical_distr_q_3","empirical_distr_q_4","empirical_distr_q_5","empirical_distr_q_6","empirical_distr_q_7","empirical_distr_q_8","empirical_distr_q_9","my_layer_size","n_level","n_opp_level","opp_layer_size","trace 0 price","trace 0 quant","trace 1 price","trace 1 quant","trace 10 price","trace 10 quant","trace 11 price","trace 11 quant","trace 12 price","trace 12 quant","trace 13 price","trace 13 quant","trace 14 price","trace 14 quant","trace 15 price","trace 15 quant","trace 16 price","trace 16 quant","trace 17 price","trace 17 quant","trace 18 price","trace 18 quant","trace 19 price","trace 19 quant","trace 2 price","trace 2 quant","trace 20 price","trace 20 quant","trace 21 price","trace 21 quant","trace 22 price","trace 22 quant","trace 23 price","trace 23 quant","trace 24 price","trace 24 quant","trace 25 price","trace 25 quant","trace 26 price","trace 26 quant","trace 27 price","trace 27 quant","trace 28 price","trace 28 quant","trace 29 price","trace 29 quant","trace 3 price","trace 3 quant","trace 30 price","trace 30 quant","trace 31 price","trace 31 quant","trace 32 price","trace 32 quant","trace 33 price","trace 33 quant","trace 34 price","trace 34 quant","trace 35 price","trace 35 quant","trace 36 price","trace 36 quant","trace 37 price","trace 37 quant","trace 38 price","trace 38 quant","trace 39 price","trace 39 quant","trace 4 price","trace 4 quant","trace 40 price","trace 5 price","trace 5 quant","trace 6 price","trace 6 quant","trace 7 price","trace 7 quant","trace 8 price","trace 8 quant","trace 9 price","trace 9 quant","ufun_param_0","ufun_param_1","ufun_param_2","ufun_param_3","ufun_param_4","ufun_param_5","ufun_param_6","ufun_param_7","ufun_param_8","ufun_param_9"],"feature_types":["int","int","float","float","float","float","float","float","float","float","float","float","float","float","float","int","int","int","int","int","int","int","int","int","int","int","int","int","int","int","int","int","int","int","int","int","int","int","int","int","int","int","int","int","int","int","int","int","int","int","int","int","int","int","int","int","int","int","int","int","int","int","int","int","int","int","int","int","int","int","int","int","int","int","int","int","int","int","int","int","int","int","int","int","int","int","int","int","int","int","int","int","int","int","int","int","int","int","int","int","float","float","float","float","float","float","float","float","float","float"],"gradient_booster":{"model":{"gbtree_model_param":{"num_trees":"10","size_leaf_vector":"0"},"tree_info":[0,0,0,0,0,0,0,0,0,0],"trees":[{"base_weights":[4.035919E0,1.8298128E0,1.4292879E1,1.3554446E0,1.1130409E1,5.609412E0,1.6731272E1,1.0494924E0,1.3729983E1,6.1228E0,1.5789395E1,3.9160795E0,8.352297E0,5.7065706E0,1.8288773E1,9.8639685E-1,1.325E1,4.7462406E0,1.619708E1,3.8715312E0,1.3944244E1,2.4648829E0,1.959174E1,2.1760204E0,6.822165E0,7.221169E0,1.04923315E1,2.0890126E0,1.2284987E1,1.522206E1,1.9632936E1,8.720086E-1,4.656355E0,8.286458E0,1.610063E1,3.194872E0,8.743055E0,1.3695783E1,1.883658E1,2.5836575E0,8.694581E0,4.5116277E0,1.556144E1,1.6881721E0,1.2190476E1,1.4760925E1,2.2424196E1,1.1526718E0,4.194785E0,5.735113E0,1.2161458E1,-0E0,7.233386E0,9.291457E0,1.2199219E1,1.3423077E0,8.85E0,1.0298343E1,1.3868545E1,1.1339478E1,1.6653605E1,1.8633217E1,2.3301464E1],"categories":[],"categories_nodes":[],"categories_segments":[],"categories_sizes":[],"default_left":[true,true,true,true,true,true,true,true,true,true,true,true,true,true,true,true,true,true,true,true,true,true,true,true,true,true,true,true,true,true,true,false,false,false,false,false,false,false,false,false,false,false,false,false,false,false,false,false,false,false,false,false,false,false,false,false,false,false,false,false,false,false,false],"id":0,"left_children":[1,3,5,7,9,11,13,15,17,19,21,23,25,27,29,31,33,35,37,39,41,43,45,47,49,51,53,55,57,59,61,-1,-1,-1,-1,-1,-1,-1,-1,-1,-1,-1,-1,-1,-1,-1,-1,-1,-1,-1,-1,-1,-1,-1,-1,-1,-1,-1,-1,-1,-1,-1,-1],"loss_changes":[1.4666919E6,2.3524852E5,2.4262975E5,1.9203878E5,6.006322E4,1.153975E4,1.5345625E5,3.7982645E4,2.684214E4,2.177807E4,6.757075E4,7.7887754E3,2.066086E3,2.6269957E4,3.169925E4,2.0632598E4,3.2166133E3,1.5020298E3,5.7481875E3,5.9085234E3,3.9697812E3,2.0992725E3,1.354125E4,1.9662725E3,3.1292676E3,5.9460938E1,3.3996484E2,3.516042E3,8.518711E2,1.28595E4,1.913425E4,0E0,0E0,0E0,0E0,0E0,0E0,0E0,0E0,0E0,0E0,0E0,0E0,0E0,0E0,0E0,0E0,0E0,0E0,0E0,0E0,0E0,0E0,0E0,0E0,0E0,0E0,0E0,0E0,0E0,0E0,0E0,0E0],"parents":[2147483647,0,0,1,1,2,2,3,3,4,4,5,5,6,6,7,7,8,8,9,9,10,10,11,11,12,12,13,13,14,14,15,15,16,16,17,17,18,18,19,19,20,20,21,21,22,22,23,23,24,24,25,25,26,26,27,27,28,28,29,29,30,30],"right_children":[2,4,6,8,10,12,14,16,18,20,22,24,26,28,30,32,34,36,38,40,42,44,46,48,50,52,54,56,58,60,62,-1,-1,-1,-1,-1,-1,-1,-1,-1,-1,-1,-1,-1,-1,-1,-1,-1,-1,-1,-1,-1,-1,-1,-1,-1,-1,-1,-1,-1,-1,-1,-1],"split_conditions":[4.5115333E-2,4.9691357E-2,7.5E0,1.2793235E-1,1.25E1,2.9520696E-1,1.35E1,4.0833333E-1,7.5E0,7.453704E-2,1.35E1,5.6079663E-2,1.85E1,1.7232238E-1,2.15E1,5.3812742E-2,8.5E0,1.1814556E-1,3.35E1,1.9756097E-1,6.5E0,2.2649573E-1,1.95E1,9.5491394E-2,6.5E0,2.5E0,2.75E1,5.4804806E-2,4.0422535E-1,1.4642859E-1,3.65E1,8.7200865E-2,4.656355E-1,8.286458E-1,1.610063E0,3.1948718E-1,8.7430555E-1,1.3695782E0,1.883658E0,2.5836575E-1,8.6945814E-1,4.511628E-1,1.5561441E0,1.688172E-1,1.2190477E0,1.4760926E0,2.2424197E0,1.1526718E-1,4.194785E-1,5.735113E-1,1.2161459E0,-0E0,7.233386E-1,9.2914575E-1,1.219922E0,1.3423078E-1,8.8500005E-1,1.0298343E0,1.3868545E0,1.1339477E0,1.6653605E0,1.8633217E0,2.3301466E0],"split_indices":[14,12,94,8,94,6,27,6,94,8,23,12,96,14,0,7,94,7,0,12,94,12,0,14,15,28,19,12,14,14,94,0,0,0,0,0,0,0,0,0,0,0,0,0,0,0,0,0,0,0,0,0,0,0,0,0,0,0,0,0,0,0,0],"split_type":[0,0,0,0,0,0,0,0,0,0,0,0,0,0,0,0,0,0,0,0,0,0,0,0,0,0,0,0,0,0,0,0,0,0,0,0,0,0,0,0,0,0,0,0,0,0,0,0,0,0,0,0,0,0,0,0,0,0,0,0,0,0,0],"sum_hessian":[6.4825E4,5.3352E4,1.1473E4,5.0765E4,2.587E3,2.517E3,8.956E3,4.9542E4,1.223E3,1.249E3,1.338E3,1.56E3,9.57E2,1.11E3,7.846E3,4.9289E4,2.53E2,2.65E2,9.58E2,9.72E2,2.77E2,2.98E2,1.04E3,9.79E2,5.81E2,6.32E2,3.25E2,7.18E2,3.92E2,2.397E3,5.449E3,4.7803E4,1.486E3,9.5E1,1.58E2,1.94E2,7.1E1,4.97E2,4.61E2,7.7E2,2.02E2,4.2E1,2.35E2,2.78E2,2E1,3.88E2,6.52E2,6.54E2,3.25E2,4.86E2,9.5E1,1E0,6.31E2,1.98E2,1.27E2,6.49E2,6.9E1,1.8E2,2.12E2,6.5E2,1.747E3,4.289E3,1.16E3],"tree_param":{"num_deleted":"0","num_feature":"110","num_nodes":"63","size_leaf_vector":"0"}},{"base_weights":[3.6332722E0,2.8879457E0,1.4939757E1,2.1203818E0,1.0017223E1,3.387023E0,1.684341E1,1.5669003E0,6.020156E0,4.2988977E0,1.2516122E1,4.0561943E0,-4.5964423E-1,4.075834E0,1.7643938E1,1.2221931E0,5.9229307E0,3.2620695E0,1.44075365E1,9.954553E0,2.1562855E0,8.975904E-1,1.35877E1,3.9248765E0,1.393024E1,1.9312333E0,1.1435941E1,1.3252567E1,1.9778429E1,3.1229845E-1,2.1789553E0,5.0637264E0,1.7411148E1,2.1370084E0,6.7242613E0,1.235794E1,1.7872084E1,5.4431543E0,1.1753657E1,1.8537035E0,1.31455765E1,7.2605677E0,-5.216766E-1,8.503634E0,1.513543E1,2.8741639E0,4.5738893E0,-0E0,1.58096E1,-1.51925E-1,4.9295516E0,1.3341227E1,1.2213283E0,6.0389695E0,1.4374498E1,1.6882544E1,2.1532969E1],"categories":[],"categories_nodes":[],"categories_segments":[],"categories_sizes":[],"default_left":[true,true,true,true,true,true,true,true,true,true,true,true,false,true,true,true,true,true,true,true,true,true,true,true,true,true,true,true,true,false,false,false,false,false,false,false,false,false,false,false,false,false,false,false,false,false,false,false,false,false,false,false,false,false,false,false,false],"id":1,"left_children":[1,3,5,7,9,11,13,15,17,19,21,23,-1,25,27,29,31,33,35,37,39,41,43,45,47,49,51,53,55,-1,-1,-1,-1,-1,-1,-1,-1,-1,-1,-1,-1,-1,-1,-1,-1,-1,-1,-1,-1,-1,-1,-1,-1,-1,-1,-1,-1],"loss_changes":[5.4606894E5,3.326696E5,8.7886125E4,1.1843536E5,8.422906E4,1.5024805E3,3.48705E4,7.2129586E4,1.5759047E5,2.1669602E4,5.1025625E4,3.9823682E2,0E0,3.0800627E3,2.9739688E4,3.877146E4,3.4471508E4,1.9902652E4,1.1456094E4,3.7654805E3,4.1749517E3,3.222913E3,2.9245062E4,2.4174365E2,2.951593E1,1.0541267E3,7.138594E2,8.312094E3,1.02983125E4,0E0,0E0,0E0,0E0,0E0,0E0,0E0,0E0,0E0,0E0,0E0,0E0,0E0,0E0,0E0,0E0,0E0,0E0,0E0,0E0,0E0,0E0,0E0,0E0,0E0,0E0,0E0,0E0],"parents":[2147483647,0,0,1,1,2,2,3,3,4,4,5,5,6,6,7,7,8,8,9,9,10,10,11,11,13,13,14,14,15,15,16,16,17,17,18,18,19,19,20,20,21,21,22,22,23,23,24,24,25,25,26,26,27,27,28,28],"right_children":[2,4,6,8,10,12,14,16,18,20,22,24,-1,26,28,30,32,34,36,38,40,42,44,46,48,50,52,54,56,-1,-1,-1,-1,-1,-1,-1,-1,-1,-1,-1,-1,-1,-1,-1,-1,-1,-1,-1,-1,-1,-1,-1,-1,-1,-1,-1,-1],"split_conditions":[9.245014E-2,8.5E0,8.5E0,8.2424426E-1,1.05E1,1.25E1,1.05E1,3.287696E-2,1.35E1,2.55E1,1.3953388E1,8.333334E-1,-4.5964424E-2,7.5E0,1.45E1,8.5E0,1.6333333E-1,7.5E0,1.65E1,1.25E1,7.142857E-3,2.05E1,1.45E1,5.5E0,6.5E0,3.5E0,4.15E1,1.8858527E-1,1.55E1,3.1229844E-2,2.1789554E-1,5.0637263E-1,1.7411149E0,2.1370085E-1,6.7242616E-1,1.235794E0,1.7872084E0,5.4431546E-1,1.1753658E0,1.8537036E-1,1.3145577E0,7.2605675E-1,-5.216766E-2,8.5036343E-1,1.513543E0,2.874164E-1,4.5738894E-1,-0E0,1.58096E0,-1.51925E-2,4.9295518E-1,1.3341227E0,1.2213283E-1,6.03897E-1,1.4374498E0,1.6882544E0,2.153297E0],"split_indices":[10,32,29,104,87,33,87,10,33,33,108,10,0,66,98,29,8,29,29,27,10,33,23,33,33,97,21,104,92,0,0,0,0,0,0,0,0,0,0,0,0,0,0,0,0,0,0,0,0,0,0,0,0,0,0,0,0],"split_type":[0,0,0,0,0,0,0,0,0,0,0,0,0,0,0,0,0,0,0,0,0,0,0,0,0,0,0,0,0,0,0,0,0,0,0,0,0,0,0,0,0,0,0,0,0,0,0,0,0,0,0,0,0,0,0,0,0],"sum_hessian":[6.4825E4,6.0818E4,4.007E3,5.4909E4,5.909E3,5.68E2,3.439E3,4.8088E4,6.821E3,1.799E3,4.11E3,4.86E2,8.2E1,2.04E2,3.235E3,4.4565E4,3.523E3,5.135E3,1.686E3,4.92E2,1.307E3,3.48E2,3.762E3,4.82E2,4E0,1.6E2,4.4E1,1.062E3,2.173E3,2.2848E4,2.1717E4,3.28E3,2.43E2,3.879E3,1.256E3,1.064E3,6.22E2,1.43E2,3.49E2,1.274E3,3.3E1,6.4E1,2.84E2,8.81E2,2.881E3,1.92E2,2.9E2,1E0,3E0,9.3E1,6.7E1,3.6E1,8E0,1.45E2,9.17E2,8.26E2,1.347E3],"tree_param":{"num_deleted":"0","num_feature":"110","num_nodes":"57","size_leaf_vector":"0"}},{"base_weights":[3.27063E0,6.120227E-1,1.4394513E1,3.2784972E0,-2.1590885E-2,1.1896755E1,1.9453672E1,3.1019564E0,2.4842154E1,-7.3369867E-1,6.5445125E-1,9.278486E0,1.3500634E1,1.8431608E1,2.3335344E1,1.7946851E0,3.8268988E0,1.0069582E0,2.8044197E1,-6.917452E-1,-1.2738607E0,4.7363117E-1,7.55643E0,8.921227E0,1.909997E1,1.3733979E1,-3.8885063E-1,1.8075901E1,2.1674704E1,3.1766136E0,1.123812E0,5.977517E0,3.2641046E0,-2.8227174E-1,1.1949629E1,-5.886851E-1,-8.0371296E-1,-7.23391E-1,-1.4163982E0,1.6154518E1,3.9482182E-1,2.9679968E1,3.777488E0,8.136804E0,1.4024571E1,1.0542259E0,2.4553959E1,1.3959405E1,4.487377E0,1.0413746E1,-1.0252546E0,1.7396128E1,1.9303343E1,6.2681866E0,2.2125021E1],"categories":[],"categories_nodes":[],"categories_segments":[],"categories_sizes":[],"default_left":[true,true,true,true,true,true,true,true,true,true,true,true,true,true,false,true,true,true,false,true,true,true,true,true,true,true,true,true,true,false,false,false,false,false,false,false,false,false,false,false,false,false,false,false,false,false,false,false,false,false,false,false,false,false,false],"id":2,"left_children":[1,3,5,7,9,11,13,15,17,19,21,23,25,27,-1,29,31,33,-1,35,37,39,41,43,45,47,49,51,53,-1,-1,-1,-1,-1,-1,-1,-1,-1,-1,-1,-1,-1,-1,-1,-1,-1,-1,-1,-1,-1,-1,-1,-1,-1,-1],"loss_changes":[1.9170078E6,8.84331E4,1.574625E5,3.789867E4,2.0353084E4,3.481675E4,1.553725E4,9.3845E3,5.8632734E3,4.4620312E2,2.6973105E4,1.0731969E4,1.6956625E4,2.989875E3,0E0,3.2566797E3,7.642828E3,2.752304E2,0E0,2.0636328E2,9.260376E1,2.5939361E4,4.5702473E4,1.1986078E4,1.0544375E4,1.039175E4,5.0802594E2,1.767875E3,1.7697344E3,0E0,0E0,0E0,0E0,0E0,0E0,0E0,0E0,0E0,0E0,0E0,0E0,0E0,0E0,0E0,0E0,0E0,0E0,0E0,0E0,0E0,0E0,0E0,0E0,0E0,0E0],"parents":[2147483647,0,0,1,1,2,2,3,3,4,4,5,5,6,6,7,7,8,8,9,9,10,10,11,11,12,12,13,13,15,15,16,16,17,17,19,19,20,20,21,21,22,22,23,23,24,24,25,25,26,26,27,27,28,28],"right_children":[2,4,6,8,10,12,14,16,18,20,22,24,26,28,-1,30,32,34,-1,36,38,40,42,44,46,48,50,52,54,-1,-1,-1,-1,-1,-1,-1,-1,-1,-1,-1,-1,-1,-1,-1,-1,-1,-1,-1,-1,-1,-1,-1,-1,-1,-1],"split_conditions":[7.207615E0,8.150161E-1,1.8010204E1,4.75E1,3.2742947E-1,1.3023796E1,2.355584E1,2.767594E0,1.5625E-2,8.5E0,4.1020687E1,4.05E1,4.45E1,2.0942983E-1,2.3335345E0,1.5E0,1.5E0,6.4888887E0,2.8044198E0,8.5E0,1.3992293E1,-3.8956994E-1,4.1098904E1,3.4231466E-1,2.1276595E-2,3.95E1,1.85E1,2.1449139E1,-4.292556E0,3.1766137E-1,1.123812E-1,5.9775174E-1,3.2641047E-1,-2.8227175E-2,1.1949629E0,-5.886851E-2,-8.03713E-2,-7.23391E-2,-1.4163981E-1,1.6154518E0,3.9482184E-2,2.9679968E0,3.7774882E-1,8.1368035E-1,1.4024571E0,1.0542259E-1,2.455396E0,1.3959405E0,4.487377E-1,1.0413746E0,-1.02525465E-1,1.7396128E0,1.9303343E0,6.2681866E-1,2.2125022E0],"split_indices":[3,4,3,33,3,3,3,3,13,32,108,19,19,4,0,32,32,3,0,33,108,106,108,5,14,33,33,3,108,0,0,0,0,0,0,0,0,0,0,0,0,0,0,0,0,0,0,0,0,0,0,0,0,0,0],"split_type":[0,0,0,0,0,0,0,0,0,0,0,0,0,0,0,0,0,0,0,0,0,0,0,0,0,0,0,0,0,0,0,0,0,0,0,0,0,0,0,0,0,0,0,0,0,0,0,0,0,0,0,0,0,0,0],"sum_hessian":[6.4825E4,5.2322E4,1.2503E4,1.0048E4,4.2274E4,8.374E3,4.129E3,9.968E3,8E1,2.0595E4,2.1679E4,3.186E3,5.188E3,3.275E3,8.54E2,3.562E3,6.406E3,1E1,7E1,1.913E4,1.465E3,2.1128E4,5.51E2,3.077E3,1.09E2,5.103E3,8.5E1,2.96E3,3.15E2,1.158E3,2.404E3,1.323E3,5.083E3,9E0,1E0,1.0011E4,9.119E3,3.17E2,1.148E3,1.04E2,2.1024E4,7.9E1,4.72E2,2.671E3,4.06E2,2.6E1,8.3E1,4.98E3,1.23E2,3E0,8.2E1,1.92E3,1.04E3,1E1,3.05E2],"tree_param":{"num_deleted":"0","num_feature":"110","num_nodes":"55","size_leaf_vector":"0"}},{"base_weights":[2.9442053E0,6.0439473E-1,1.3193202E1,6.3495845E-2,3.2499676E0,1.0938193E1,1.7511415E1,-6.604916E-1,7.0584726E-1,2.9279194E0,1.7882792E1,9.019214E0,1.2432161E1,1.6580547E1,2.0963902E1,-6.226302E-1,-1.1473027E0,5.6325054E-1,8.224077E0,5.3593507E0,2.3919296E0,6.99686E-1,2.418866E1,8.730451E0,1.8103235E1,1.2688777E1,-7.683732E-1,1.6153103E1,1.853519E1,1.9592571E1,2.1815538E1,4.971476E0,-6.248754E-1,-9.3931663E-1,-1.4950223E0,4.153813E0,4.9523187E-1,2.675568E1,4.025152E0,4.044786E0,1.1737521E1,1.2061619E0,3.4470537E0,-1.1292852E0,4.8743124E0,1.4913704E1,8.277912E0,3.2516904E0,2.2578695E1,1.2962362E1,1.6973931E0,-9.442592E-1,2.003028E0,1.5660944E1,1.7190153E1,1.6552275E1,1.964877E1,1.966766E1,-0E0],"categories":[],"categories_nodes":[],"categories_segments":[],"categories_sizes":[],"default_left":[true,true,true,true,true,true,true,true,true,true,true,true,true,true,true,true,true,true,true,true,true,true,false,true,true,true,true,true,true,true,false,false,false,false,false,false,false,false,false,false,false,false,false,false,false,false,false,false,false,false,false,false,false,false,false,false,false,false,false],"id":3,"left_children":[1,3,5,7,9,11,13,15,17,19,21,23,25,27,29,31,33,35,37,39,41,43,-1,45,47,49,51,53,55,57,-1,-1,-1,-1,-1,-1,-1,-1,-1,-1,-1,-1,-1,-1,-1,-1,-1,-1,-1,-1,-1,-1,-1,-1,-1,-1,-1,-1,-1],"loss_changes":[1.5544275E6,7.549275E4,1.1684275E5,2.0381463E4,4.1944453E4,2.237625E4,1.255E4,3.6119824E2,2.4810727E4,1.1332406E4,2.0538238E4,8.683719E3,1.5193E4,2.0774375E3,1.756875E2,1.999253E2,8.0274536E1,5.5195444E3,3.3121816E4,1.3033859E4,8.941195E3,4.476241E2,0E0,9.071641E3,6.647367E3,1.2951375E4,3.2737003E1,7.7375E2,5.8021875E2,6.390781E2,0E0,0E0,0E0,0E0,0E0,0E0,0E0,0E0,0E0,0E0,0E0,0E0,0E0,0E0,0E0,0E0,0E0,0E0,0E0,0E0,0E0,0E0,0E0,0E0,0E0,0E0,0E0,0E0,0E0],"parents":[2147483647,0,0,1,1,2,2,3,3,4,4,5,5,6,6,7,7,8,8,9,9,10,10,11,11,12,12,13,13,14,14,15,15,16,16,17,17,18,18,19,19,20,20,21,21,23,23,24,24,25,25,26,26,27,27,28,28,29,29],"right_children":[2,4,6,8,10,12,14,16,18,20,22,24,26,28,30,32,34,36,38,40,42,44,-1,46,48,50,52,54,56,58,-1,-1,-1,-1,-1,-1,-1,-1,-1,-1,-1,-1,-1,-1,-1,-1,-1,-1,-1,-1,-1,-1,-1,-1,-1,-1,-1,-1,-1],"split_conditions":[7.7602625E0,2.8657656E0,1.8010204E1,3.2742947E-1,4.85E1,1.4252273E1,2.3442223E1,8.5E0,4.1033005E1,1.5E0,2.85E1,3.95E1,4.45E1,4.7253204E1,2.4296703E1,-4.75E1,9.5E0,-4.75E1,4.113675E1,6.5E0,4.007042E0,9.5E0,2.418866E0,1.5E0,1.85E1,4.15E1,9.5E0,2.1656862E1,2.0375E1,2.4267857E1,2.1815538E0,4.9714762E-1,-6.2487543E-2,-9.393167E-2,-1.4950223E-1,4.1538128E-1,4.9523186E-2,2.675568E0,4.0251523E-1,4.044786E-1,1.1737522E0,1.2061619E-1,3.4470537E-1,-1.12928525E-1,4.8743126E-1,1.4913704E0,8.277912E-1,3.2516906E-1,2.2578695E0,1.2962363E0,1.697393E-1,-9.4425924E-2,2.003028E-1,1.5660944E0,1.7190154E0,1.6552275E0,1.964877E0,1.966766E0,-0E0],"split_indices":[3,3,3,3,25,3,3,32,108,32,0,43,19,108,3,33,43,33,108,97,3,26,0,97,0,25,26,3,3,3,0,0,0,0,0,0,0,0,0,0,0,0,0,0,0,0,0,0,0,0,0,0,0,0,0,0,0,0,0],"split_type":[0,0,0,0,0,0,0,0,0,0,0,0,0,0,0,0,0,0,0,0,0,0,0,0,0,0,0,0,0,0,0,0,0,0,0,0,0,0,0,0,0,0,0,0,0,0,0,0,0,0,0,0,0,0,0,0,0,0,0],"sum_hessian":[6.4825E4,5.2778E4,1.2047E4,4.3823E4,8.955E3,7.918E3,4.129E3,2.0595E4,2.3228E4,8.764E3,1.91E2,3.472E3,4.446E3,3.259E3,8.7E2,1.913E4,1.465E3,2.2798E4,4.3E2,1.578E3,7.186E3,5.2E1,1.39E2,3.368E3,1.04E2,4.362E3,8.4E1,2.686E3,5.73E2,3.47E2,5.23E2,5E0,1.9125E4,9.37E2,5.28E2,4.2E2,2.2378E4,7.8E1,3.52E2,1.311E3,2.67E2,3.389E3,3.797E3,3.5E1,1.7E1,2.26E2,3.142E3,2.5E1,7.9E1,4.255E3,1.07E2,8.3E1,1E0,1.839E3,8.47E2,2.15E2,3.58E2,3.46E2,1E0],"tree_param":{"num_deleted":"0","num_feature":"110","num_nodes":"59","size_leaf_vector":"0"}},{"base_weights":[2.650455E0,4.899226E-1,1.1652698E1,2.6905558E0,-3.076872E-2,9.545332E0,1.5606233E1,2.545995E0,2.1666992E1,-5.9448165E-1,5.0429875E-1,7.480657E0,1.0885511E1,1.4792775E1,1.8910988E1,5.059373E0,2.2031593E0,-0E0,2.2921682E1,-4.7196257E-1,-7.190552E-1,1.2784582E1,4.434777E-1,7.1882873E0,1.5850662E1,1.1276776E1,-1.3643866E-2,1.3216648E1,1.5280853E1,1.8488426E1,2.1332884E1,3.296479E0,7.8106256E0,1.1988419E0,2.8067162E0,4.5571866E0,-4.757721E-1,-6.6507775E-1,-1.0332619E0,-1.2905905E0,2.0184538E1,4.027614E-1,1.776378E1,1.1448212E1,6.5991607E0,1.9662123E1,-2.1828048E-1,1.09506855E1,1.7737915E1,1.160867E1,-1.0997996E0,1.3316195E1,5.6708746E0,1.489781E1,1.8641848E1,1.5618225E0,1.8518673E1],"categories":[],"categories_nodes":[],"categories_segments":[],"categories_sizes":[],"default_left":[true,true,true,true,true,true,true,true,true,true,true,true,true,true,true,true,true,false,false,true,true,true,true,true,true,true,true,true,true,true,false,false,false,false,false,false,false,false,false,false,false,false,false,false,false,false,false,false,false,false,false,false,false,false,false,false,false],"id":4,"left_children":[1,3,5,7,9,11,13,15,17,19,21,23,25,27,29,31,33,-1,-1,35,37,39,41,43,45,47,49,51,53,55,-1,-1,-1,-1,-1,-1,-1,-1,-1,-1,-1,-1,-1,-1,-1,-1,-1,-1,-1,-1,-1,-1,-1,-1,-1,-1,-1],"loss_changes":[1.2607151E6,5.99329E4,1.04127E5,2.7154414E4,1.2752376E4,2.2391438E4,1.1101375E4,8.475242E3,2.0942578E3,3.020996E2,1.605484E4,7.5574688E3,2.1264562E4,2.209375E3,8.2375E1,5.6251797E3,5.258078E3,0E0,0E0,1.6112183E2,1.5481348E2,1.1255488E4,1.5026264E4,7.5815625E3,6.7520684E3,9.608875E3,2.078945E3,3.6632812E2,2.817875E3,1.4860938E2,0E0,0E0,0E0,0E0,0E0,0E0,0E0,0E0,0E0,0E0,0E0,0E0,0E0,0E0,0E0,0E0,0E0,0E0,0E0,0E0,0E0,0E0,0E0,0E0,0E0,0E0,0E0],"parents":[2147483647,0,0,1,1,2,2,3,3,4,4,5,5,6,6,7,7,8,8,9,9,10,10,11,11,12,12,13,13,14,14,15,15,16,16,19,19,20,20,21,21,22,22,23,23,24,24,25,25,26,26,27,27,28,28,29,29],"right_children":[2,4,6,8,10,12,14,16,18,20,22,24,26,28,30,32,34,-1,-1,36,38,40,42,44,46,48,50,52,54,56,-1,-1,-1,-1,-1,-1,-1,-1,-1,-1,-1,-1,-1,-1,-1,-1,-1,-1,-1,-1,-1,-1,-1,-1,-1,-1,-1],"split_conditions":[7.1603427E0,8.150161E-1,1.780625E1,4.95E1,3.2742947E-1,1.3023796E1,2.355584E1,1.5E0,4.9029303E0,8.5E0,-3.8956994E-1,3.95E1,1.7770979E1,1.8960403E1,2.7216383E1,6.5E0,2.8973684E0,-0E0,2.2921684E0,-4.75E1,8.5E0,-3.9058977E-1,9.8346996E-1,7.5E0,1.15E1,3.65E1,2.590909E-1,3.45E1,2.0714286E-1,-7.7599907E-1,2.1332884E0,3.296479E-1,7.8106254E-1,1.1988419E-1,2.8067163E-1,4.5571867E-1,-4.7577213E-2,-6.650778E-2,-1.03326194E-1,-1.2905906E-1,2.0184538E0,4.027614E-2,1.776378E0,1.1448212E0,6.599161E-1,1.9662123E0,-2.1828048E-2,1.0950686E0,1.7737916E0,1.1608671E0,-1.09979965E-1,1.3316195E0,5.670875E-1,1.489781E0,1.8641847E0,1.5618226E-1,1.8518673E0],"split_indices":[3,4,3,94,3,3,3,34,3,25,106,43,3,3,3,94,3,0,0,33,32,106,4,43,33,25,4,31,4,106,0,0,0,0,0,0,0,0,0,0,0,0,0,0,0,0,0,0,0,0,0,0,0,0,0,0,0],"split_type":[0,0,0,0,0,0,0,0,0,0,0,0,0,0,0,0,0,0,0,0,0,0,0,0,0,0,0,0,0,0,0,0,0,0,0,0,0,0,0,0,0,0,0,0,0,0,0,0,0,0,0,0,0,0,0,0,0],"sum_hessian":[6.4825E4,5.228E4,1.2545E4,1.0006E4,4.2274E4,8.187E3,4.358E3,9.932E3,7.4E1,2.0595E4,2.1679E4,3.228E3,4.959E3,3.504E3,8.54E2,1.187E3,8.745E3,4E0,7E1,1.0426E4,1.0169E4,1.05E2,2.1574E4,3.122E3,1.06E2,4.788E3,1.71E2,8.4E2,2.664E3,7.38E2,1.16E2,7.27E2,4.6E2,3.29E3,5.455E3,5E0,1.0421E4,8.708E3,1.461E3,3.6E1,6.9E1,2.1525E4,4.9E1,3.75E2,2.747E3,8.6E1,2E1,4.562E3,2.26E2,1.3E1,1.58E2,8.27E2,1.3E1,2.399E3,2.65E2,2E0,7.36E2],"tree_param":{"num_deleted":"0","num_feature":"110","num_nodes":"57","size_leaf_vector":"0"}},{"base_weights":[2.3860197E0,4.884407E-1,1.0697768E1,2.5659344E0,-2.75749E-2,8.871839E0,1.4193854E1,2.4427733E0,1.9527634E1,5.3648156E-1,-4.8204902E-1,7.5648246E0,1.0380268E1,1.343776E1,1.6996002E1,3.13181E0,1.469651E0,-0E0,2.0661797E1,4.5209494E-1,4.0119443E0,-5.147963E-1,1.960765E0,7.3657727E0,1.6471315E1,1.0880365E1,8.829629E-2,1.3154269E1,1.6005621E1,1.5812083E1,1.7730751E1,2.3722723E0,4.930859E0,2.5457563E0,6.916373E-1,5.821622E-1,-7.2769564E-1,-3.0034342E-1,2.3761606E1,-4.3206446E-2,-5.657906E-1,-7.2626597E-1,1.9589777E1,4.9158025E0,7.9950647E0,1.8621313E1,-0E0,1.05722275E1,2.2194244E1,-1.073295E0,1.51472435E1,1.2618085E1,1.4110362E1,1.6275784E1,-0E0,1.5876726E1,-0E0],"categories":[],"categories_nodes":[],"categories_segments":[],"categories_sizes":[],"default_left":[true,true,true,true,true,true,true,true,true,true,true,true,true,true,true,true,true,false,false,true,true,true,true,true,true,true,true,true,true,true,false,false,false,false,false,false,false,false,false,false,false,false,false,false,false,false,false,false,false,false,false,false,false,false,false,false,false],"id":5,"left_children":[1,3,5,7,9,11,13,15,17,19,21,23,25,27,29,31,33,-1,-1,35,37,39,41,43,45,47,49,51,53,55,-1,-1,-1,-1,-1,-1,-1,-1,-1,-1,-1,-1,-1,-1,-1,-1,-1,-1,-1,-1,-1,-1,-1,-1,-1,-1,-1],"loss_changes":[1.0223316E6,5.660556E4,7.6553125E4,2.1677766E4,1.083687E4,1.53546875E4,8.2175E3,6.943543E3,1.7109629E3,5.483094E3,1.8602056E3,7.174922E3,1.8778781E4,1.8710625E3,1.41875E2,8.25059E3,3.5927236E3,0E0,0E0,2.8241763E3,3.805555E4,5.49813E2,1.4697991E4,6.2452656E3,3.398334E3,1.1636031E4,3.1656797E3,1.0644062E3,1.4313984E3,4.6078906E2,0E0,0E0,0E0,0E0,0E0,0E0,0E0,0E0,0E0,0E0,0E0,0E0,0E0,0E0,0E0,0E0,0E0,0E0,0E0,0E0,0E0,0E0,0E0,0E0,0E0,0E0,0E0],"parents":[2147483647,0,0,1,1,2,2,3,3,4,4,5,5,6,6,7,7,8,8,9,9,10,10,11,11,12,12,13,13,14,14,15,15,16,16,19,19,20,20,21,21,22,22,23,23,24,24,25,25,26,26,27,27,28,28,29,29],"right_children":[2,4,6,8,10,12,14,16,18,20,22,24,26,28,30,32,34,-1,-1,36,38,40,42,44,46,48,50,52,54,56,-1,-1,-1,-1,-1,-1,-1,-1,-1,-1,-1,-1,-1,-1,-1,-1,-1,-1,-1,-1,-1,-1,-1,-1,-1,-1,-1],"split_conditions":[7.7602625E0,8.150161E-1,1.8010204E1,4.95E1,9.5480084E-1,1.5411011E1,2.3442223E1,7.394282E-1,4.9029303E0,9.542842E-1,8.196721E-3,3.95E1,3.4313726E-1,2.0942983E-1,2.4296703E1,6.5E0,5.5E0,-0E0,2.0661798E0,2.1980677E-2,4.35E1,9.679135E-1,9.796082E-1,9.021739E0,8E0,4.6410257E-1,3.693182E-1,2.136492E1,5.833334E-1,2.4267857E1,1.7730751E0,2.3722723E-1,4.9308592E-1,2.5457564E-1,6.916373E-2,5.821622E-2,-7.276957E-2,-3.0034343E-2,2.3761606E0,-4.320645E-3,-5.657906E-2,-7.26266E-2,1.9589777E0,4.9158025E-1,7.995065E-1,1.8621314E0,-0E0,1.0572227E0,2.2194245E0,-1.073295E-1,1.5147244E0,1.2618085E0,1.4110363E0,1.6275784E0,-0E0,1.5876726E0,-0E0],"split_indices":[3,4,3,94,4,3,3,4,3,4,10,27,9,4,3,94,26,0,0,10,65,4,4,3,65,4,9,3,10,3,0,0,0,0,0,0,0,0,0,0,0,0,0,0,0,0,0,0,0,0,0,0,0,0,0,0,0],"split_type":[0,0,0,0,0,0,0,0,0,0,0,0,0,0,0,0,0,0,0,0,0,0,0,0,0,0,0,0,0,0,0,0,0,0,0,0,0,0,0,0,0,0,0,0,0,0,0,0,0,0,0,0,0,0,0,0,0],"sum_hessian":[6.4825E4,5.2778E4,1.2047E4,1.0504E4,4.2274E4,7.918E3,4.129E3,1.043E4,7.4E1,1.8853E4,2.3421E4,4.249E3,3.669E3,3.259E3,8.7E2,6.099E3,4.331E3,4E0,7E1,1.841E4,4.43E2,2.3116E4,3.05E2,4.159E3,9E1,3.498E3,1.71E2,2.944E3,3.15E2,3.47E2,5.23E2,4.294E3,1.805E3,1.811E3,2.52E3,1.659E4,1.82E3,3.64E2,7.9E1,2.275E3,2.0841E4,2.65E2,4E1,8.55E2,3.304E3,8E1,1E1,3.408E3,9E1,1.59E2,1.2E1,1.902E3,1.042E3,3.1E2,5E0,3.46E2,1E0],"tree_param":{"num_deleted":"0","num_feature":"110","num_nodes":"57","size_leaf_vector":"0"}},{"base_weights":[2.1479197E0,9.155922E0,4.863563E-1,6.9972477E0,1.0977084E1,2.6285307E0,-2.2841314E-2,4.0747876E0,9.016705E0,8.972761E0,1.2322199E1,2.5162659E0,1.703271E1,4.854958E-1,-4.3380886E-1,4.736171E0,2.3063302E0,1.1369518E1,8.212062E0,9.2921505E0,-1.1314156E0,1.1296218E1,1.5053997E1,7.901417E0,2.259244E0,1.8624718E1,-1.1949345E-1,4.217594E-1,1.26178465E1,-1.5800741E-1,-5.18344E-1,4.026865E0,6.296405E0,2.4766772E0,-3.4273154E-1,1.4383648E1,1.0253811E1,2.068104E0,8.555926E0,-4.1643467E0,9.452927E0,6.2843633E0,-1.5155628E0,1.1651312E1,3.476021E0,1.4480203E1,2.2013657E1,9.5440445E0,-1.2335541E0,3.686892E0,1.5629709E0,-0E0,-1.0822165E0,3.3894062E-1,7.6419005E0,1.8137531E1,-7.95804E-1,-3.0266008E-1,8.006435E0,-4.8506466E-1,-8.460649E-1],"categories":[],"categories_nodes":[],"categories_segments":[],"categories_sizes":[],"default_left":[true,true,true,true,true,true,true,true,true,true,true,true,true,true,true,true,true,true,true,true,true,true,true,true,true,false,true,true,true,true,true,false,false,false,false,false,false,false,false,false,false,false,false,false,false,false,false,false,false,false,false,false,false,false,false,false,false,false,false,false,false],"id":6,"left_children":[1,3,5,7,9,11,13,15,17,19,21,23,25,27,29,31,33,35,37,39,41,43,45,47,49,-1,51,53,55,57,59,-1,-1,-1,-1,-1,-1,-1,-1,-1,-1,-1,-1,-1,-1,-1,-1,-1,-1,-1,-1,-1,-1,-1,-1,-1,-1,-1,-1,-1,-1],"loss_changes":[7.547487E5,4.8581938E4,5.718788E4,3.34135E4,1.7831688E4,1.60424375E4,8.84432E3,2.6427148E3,6.0756562E3,8.840969E3,1.08448125E4,1.3710492E4,2.289875E3,1.4491509E4,5.392363E2,1.7417031E3,3.109944E2,2.467961E3,5.183125E3,5.780078E3,1.9828262E2,7.950125E3,3.6810938E3,6.8923066E3,9.4248125E3,0E0,6.927204E0,1.1170671E4,7.4436855E3,6.449276E3,1.8149072E2,0E0,0E0,0E0,0E0,0E0,0E0,0E0,0E0,0E0,0E0,0E0,0E0,0E0,0E0,0E0,0E0,0E0,0E0,0E0,0E0,0E0,0E0,0E0,0E0,0E0,0E0,0E0,0E0,0E0,0E0],"parents":[2147483647,0,0,1,1,2,2,3,3,4,4,5,5,6,6,7,7,8,8,9,9,10,10,11,11,12,12,13,13,14,14,15,15,16,16,17,17,18,18,19,19,20,20,21,21,22,22,23,23,24,24,26,26,27,27,28,28,29,29,30,30],"right_children":[2,4,6,8,10,12,14,16,18,20,22,24,26,28,30,32,34,36,38,40,42,44,46,48,50,-1,52,54,56,58,60,-1,-1,-1,-1,-1,-1,-1,-1,-1,-1,-1,-1,-1,-1,-1,-1,-1,-1,-1,-1,-1,-1,-1,-1,-1,-1,-1,-1,-1,-1],"split_conditions":[4.7655678E-1,7.5E0,8.1284344E-1,2.15E1,1.45E1,5.05E1,9.5480084E-1,3.3105022E-1,3.5E0,4.45E1,3.75E1,5.5E0,-3.570017E-2,5.31075E0,9.8857105E-1,1.75E1,4.7413024E-1,3.5E0,-2.094404E0,5.5E0,1.02678575E-1,1.6652481E-3,4.7493735E-1,3.181818E-2,6.5069807E-1,1.8624718E0,-8.965416E-3,3.0639094E-1,5.316649E0,7.5E0,8.5E0,4.026865E-1,6.296405E-1,2.4766771E-1,-3.4273155E-2,1.4383649E0,1.0253811E0,2.068104E-1,8.5559267E-1,-4.1643468E-1,9.4529265E-1,6.284363E-1,-1.5155628E-1,1.1651312E0,3.476021E-1,1.4480203E0,2.2013657E0,9.544045E-1,-1.2335541E-1,3.686892E-1,1.5629709E-1,-0E0,-1.0822165E-1,3.3894062E-2,7.641901E-1,1.8137531E0,-7.9580404E-2,-3.0266007E-2,8.0064356E-1,-4.8506465E-2,-8.460649E-2],"split_indices":[4,21,4,96,96,21,4,4,24,21,21,92,106,107,4,92,4,99,107,92,9,100,4,12,4,0,106,106,107,24,24,0,0,0,0,0,0,0,0,0,0,0,0,0,0,0,0,0,0,0,0,0,0,0,0,0,0,0,0,0,0],"split_type":[0,0,0,0,0,0,0,0,0,0,0,0,0,0,0,0,0,0,0,0,0,0,0,0,0,0,0,0,0,0,0,0,0,0,0,0,0,0,0,0,0,0,0,0,0,0,0,0,0,0,0,0,0,0,0,0,0,0,0,0,0],"sum_hessian":[6.4825E4,1.2422E4,5.2403E4,5.689E3,6.733E3,1.0067E4,4.2336E4,2.328E3,3.361E3,2.71E3,4.023E3,9.991E3,7.6E1,1.8915E4,2.3421E4,1.689E3,6.39E2,8.5E2,2.511E3,2.628E3,8.2E1,2.931E3,1.092E3,4.52E2,9.539E3,7E1,6E0,1.8818E4,9.7E1,5.523E3,1.7898E4,1.168E3,5.21E2,6.04E2,3.5E1,2.24E2,6.26E2,1.35E2,2.376E3,3E1,2.598E3,2E0,8E1,2.802E3,1.29E2,1.013E3,7.9E1,3.84E2,6.8E1,3.121E3,6.418E3,1E0,5E0,1.8607E4,2.11E2,6.9E1,2.8E1,5.429E3,9.4E1,1.6278E4,1.62E3],"tree_param":{"num_deleted":"0","num_feature":"110","num_nodes":"61","size_leaf_vector":"0"}},{"base_weights":[1.9335717E0,3.4880745E-1,8.536563E0,-2.0292865E-1,1.4150772E0,6.9519324E0,1.15089E1,2.567232E-1,-3.9215645E-1,1.3244507E0,2.1138132E1,5.4951725E0,7.896877E0,1.0852659E1,1.399392E1,-1.8568178E-1,5.986508E-1,-4.2403552E-1,2.4447968E0,7.4409394E0,1.2043859E0,2.1694666E1,-0E0,1.4883296E1,5.3035254E0,8.18719E0,-1.7408235E-1,1.2293734E1,1.0471939E1,1.3733993E1,1.7087019E1,6.369444E-1,-4.671089E-1,4.123323E-1,8.715506E0,4.741222E0,-4.259296E-1,1.0948988E1,-1.1932363E-1,7.990605E-1,1.6087767E1,2.0507882E0,3.921254E-1,1.5857674E1,-9.531857E-1,5.049299E0,1.2167199E1,8.363985E0,5.7087547E-1,8.696106E0,-1.0169034E0,1.0962519E1,1.3417509E1,9.697175E0,1.1043155E1],"categories":[],"categories_nodes":[],"categories_segments":[],"categories_sizes":[],"default_left":[true,true,true,true,true,true,true,true,true,true,true,true,true,true,true,true,true,true,true,true,true,false,false,true,true,true,true,true,true,false,false,false,false,false,false,false,false,false,false,false,false,false,false,false,false,false,false,false,false,false,false,false,false,false,false],"id":7,"left_children":[1,3,5,7,9,11,13,15,17,19,21,23,25,27,29,31,33,35,37,39,41,-1,-1,43,45,47,49,51,53,-1,-1,-1,-1,-1,-1,-1,-1,-1,-1,-1,-1,-1,-1,-1,-1,-1,-1,-1,-1,-1,-1,-1,-1,-1,-1],"loss_changes":[6.782594E5,3.0769299E4,5.8827812E4,2.9977046E3,3.1624418E4,1.10939375E4,6.7081875E3,1.521635E3,2.1891785E3,1.2942695E4,9.895508E2,5.528836E3,1.1703344E4,1.5397188E3,1.8392188E2,1.00821124E3,8.481494E3,1.9514697E2,5.95355E3,1.9344877E4,1.19475625E4,0E0,0E0,1.1362949E3,5.2925938E3,6.3544062E3,1.2179199E3,6.7275E2,9.0078125E2,0E0,0E0,0E0,0E0,0E0,0E0,0E0,0E0,0E0,0E0,0E0,0E0,0E0,0E0,0E0,0E0,0E0,0E0,0E0,0E0,0E0,0E0,0E0,0E0,0E0,0E0],"parents":[2147483647,0,0,1,1,2,2,3,3,4,4,5,5,6,6,7,7,8,8,9,9,10,10,11,11,12,12,13,13,14,14,15,15,16,16,17,17,18,18,19,19,20,20,23,23,24,24,25,25,26,26,27,27,28,28],"right_children":[2,4,6,8,10,12,14,16,18,20,22,24,26,28,30,32,34,36,38,40,42,-1,-1,44,46,48,50,52,54,-1,-1,-1,-1,-1,-1,-1,-1,-1,-1,-1,-1,-1,-1,-1,-1,-1,-1,-1,-1,-1,-1,-1,-1,-1,-1],"split_conditions":[7.1603427E0,1.4040507E0,1.780625E1,9.510196E-1,9.534632E-1,1.3023796E1,2.3317785E1,8.5E0,4.4329243E1,-3.1101018E-1,1.4318182E0,5.5E0,1.7770979E1,-9.312836E0,2.7324074E1,8.7411976E-1,3.45E1,-4.9E1,4.444384E1,5.05E1,8.0461293E-1,2.1694667E0,-0E0,3.2E1,4.05E1,1.1030437E-1,2.590909E-1,2.0689865E1,2.85E1,1.3733993E0,1.708702E0,6.369444E-2,-4.671089E-2,4.123323E-2,8.7155056E-1,4.741222E-1,-4.259296E-2,1.0948988E0,-1.1932364E-2,7.9906054E-2,1.6087767E0,2.0507883E-1,3.921254E-2,1.5857674E0,-9.531857E-2,5.049299E-1,1.21672E0,8.3639854E-1,5.7087548E-2,8.696106E-1,-1.01690345E-1,1.0962518E0,1.341751E0,9.697175E-1,1.1043155E0],"split_indices":[3,3,3,4,4,3,3,20,109,106,3,31,3,109,3,4,21,34,109,21,4,0,0,21,19,102,4,3,21,0,0,0,0,0,0,0,0,0,0,0,0,0,0,0,0,0,0,0,0,0,0,0,0,0,0],"split_type":[0,0,0,0,0,0,0,0,0,0,0,0,0,0,0,0,0,0,0,0,0,0,0,0,0,0,0,0,0,0,0,0,0,0,0,0,0,0,0,0,0,0,0,0,0,0,0,0,0,0,0,0,0,0,0],"sum_hessian":[6.4825E4,5.228E4,1.2545E4,3.4447E4,1.7833E4,8.187E3,4.358E3,1.003E4,2.4417E4,1.7753E4,8E1,3.228E3,4.959E3,3.455E3,9.03E2,4.36E3,5.67E3,2.415E4,2.67E2,3.39E2,1.7414E4,7.8E1,2E0,6.2E1,3.166E3,4.788E3,1.71E2,7.1E2,2.745E3,8.41E2,6.2E1,1.102E3,3.258E3,5.545E3,1.25E2,6E0,2.4144E4,6.2E1,2.05E2,1.93E2,1.46E2,8.521E3,8.893E3,5.9E1,3E0,3.056E3,1.1E2,4.678E3,1.1E2,1.3E1,1.58E2,3.34E2,3.76E2,1.18E3,1.565E3],"tree_param":{"num_deleted":"0","num_feature":"110","num_nodes":"55","size_leaf_vector":"0"}},{"base_weights":[1.7407521E0,3.494469E-1,7.8359485E0,-1.8247773E-1,1.3494136E0,6.530307E0,1.0633527E1,-2.4989158E-1,2.1514816E0,1.1561136E1,1.2036142E0,5.4873314E0,7.6473126E0,1.0038825E1,1.267868E1,-4.2415065E-1,-4.9308512E-2,1.0446655E1,5.958571E-1,-2.8791457E-1,2.0357315E1,6.9857025E-1,2.5173748E0,1.0883525E1,5.186751E0,8.002845E0,-7.91363E-2,1.1128927E1,9.632968E0,1.2433454E1,1.540544E1,-3.9344797E-1,-7.5466716E-1,-8.5902266E-2,2.0960648E0,-0E0,1.2463634E1,5.9706964E0,-0E0,1.8837827E0,-8.4198344E-1,2.050305E1,-0E0,6.2555593E-1,1.1106736E1,1.2880132E1,2.3489842E0,1.1545628E1,-0E0,4.4548974E0,6.845173E0,1.39824505E1,7.614933E0,-1.1285282E0,1.2234757E1,-1.5756011E-1,1.1184574E1,9.687447E0,4.5007744E-1],"categories":[],"categories_nodes":[],"categories_segments":[],"categories_sizes":[],"default_left":[true,true,true,true,true,true,true,true,true,true,true,true,true,true,true,true,true,true,true,true,true,true,true,true,true,true,true,true,true,false,false,false,false,false,false,false,false,false,false,false,false,false,false,false,false,false,false,false,false,false,false,false,false,false,false,false,false,false,false],"id":8,"left_children":[1,3,5,7,9,11,13,15,17,19,21,23,25,27,29,31,33,35,37,39,41,43,45,47,49,51,53,55,57,-1,-1,-1,-1,-1,-1,-1,-1,-1,-1,-1,-1,-1,-1,-1,-1,-1,-1,-1,-1,-1,-1,-1,-1,-1,-1,-1,-1,-1,-1],"loss_changes":[5.4965794E5,2.8086496E4,4.3758562E4,5.401611E3,2.7155258E4,9.40075E3,4.3025938E3,1.1656946E3,1.2310071E4,2.6992734E4,1.1960959E4,6.6892734E3,1.0960734E4,1.001375E3,1.0178125E2,1.697854E2,1.2043993E3,3.0940898E3,2.5989346E3,1.2352781E2,4.609297E2,9.804408E3,8.56683E3,1.6971719E3,4.756297E3,8.464031E3,2.1511904E3,6.1071875E2,9.858594E2,0E0,0E0,0E0,0E0,0E0,0E0,0E0,0E0,0E0,0E0,0E0,0E0,0E0,0E0,0E0,0E0,0E0,0E0,0E0,0E0,0E0,0E0,0E0,0E0,0E0,0E0,0E0,0E0,0E0,0E0],"parents":[2147483647,0,0,1,1,2,2,3,3,4,4,5,5,6,6,7,7,8,8,9,9,10,10,11,11,12,12,13,13,14,14,15,15,16,16,17,17,18,18,19,19,20,20,21,21,22,22,23,23,24,24,25,25,26,26,27,27,28,28],"right_children":[2,4,6,8,10,12,14,16,18,20,22,24,26,28,30,32,34,36,38,40,42,44,46,48,50,52,54,56,58,-1,-1,-1,-1,-1,-1,-1,-1,-1,-1,-1,-1,-1,-1,-1,-1,-1,-1,-1,-1,-1,-1,-1,-1,-1,-1,-1,-1,-1,-1],"split_conditions":[7.765568E0,1.4040507E0,1.8465477E1,2.4845678E-2,1.4127789E0,1.54188595E1,2.355584E1,6.8337485E-2,2.5807526E-2,2.9789722E1,3.8966346E0,1.5E0,3.4313726E-1,-5.9074754E-1,2.7324074E1,8.5E0,7.5E0,2.4651453E-1,-1.5514255E1,-4.5520607E-2,7E0,5.307023E0,3.9140394E0,6.64488E-2,8.856209E-2,1.5547728E1,3.693182E-1,-2.4897199E0,3.541667E-1,1.2433454E0,1.540544E0,-3.93448E-2,-7.5466715E-2,-8.590227E-3,2.0960648E-1,-0E0,1.2463634E0,5.970697E-1,-0E0,1.8837827E-1,-8.419835E-2,2.0503051E0,-0E0,6.2555596E-2,1.1106737E0,1.2880132E0,2.3489843E-1,1.1545628E0,-0E0,4.4548973E-1,6.845173E-1,1.3982451E0,7.614933E-1,-1.1285283E-1,1.2234758E0,-1.5756011E-2,1.1184574E0,9.687447E-1,4.5007747E-2],"split_indices":[3,3,3,8,3,3,3,3,8,108,3,88,9,107,3,28,28,107,108,107,28,107,3,7,12,3,9,108,9,0,0,0,0,0,0,0,0,0,0,0,0,0,0,0,0,0,0,0,0,0,0,0,0,0,0,0,0,0,0],"split_type":[0,0,0,0,0,0,0,0,0,0,0,0,0,0,0,0,0,0,0,0,0,0,0,0,0,0,0,0,0,0,0,0,0,0,0,0,0,0,0,0,0,0,0,0,0,0,0,0,0,0,0,0,0,0,0,0,0,0,0],"sum_hessian":[6.4825E4,5.278E4,1.2045E4,3.4447E4,1.8333E4,8.217E3,3.828E3,3.3485E4,9.62E2,2.56E2,1.8077E4,4.257E3,3.96E3,2.974E3,8.54E2,1.7891E4,1.5594E4,1.5E2,8.12E2,1.09E2,1.47E2,1.3064E4,5.013E3,2.21E2,4.036E3,3.787E3,1.73E2,7.93E2,2.181E3,7.92E2,6.2E1,1.64E4,1.491E3,1.5338E4,2.56E2,2.5E1,1.25E2,8E1,7.32E2,1.8E1,9.1E1,1.46E2,1E0,1.2975E4,8.9E1,7.8E1,4.935E3,2.09E2,1.2E1,2.807E3,1.229E3,2.27E2,3.56E3,1.61E2,1.2E1,3E0,7.9E2,2.167E3,1.4E1],"tree_param":{"num_deleted":"0","num_feature":"110","num_nodes":"59","size_leaf_vector":"0"}},{"base_weights":[1.5671407E0,6.758192E-1,5.7102532E0,1.8317802E-1,1.1646203E0,2.1635106E0,6.629669E0,6.680358E-1,4.7979925E-2,2.57962E0,8.552914E-1,1.1718786E-1,2.714759E0,9.2983675E0,6.0803885E0,1.7901465E0,3.548494E-1,-1.6645789E-1,2.6097074E-1,1.4209603E0,4.3077435E0,7.227189E-1,4.2710786E0,-0E0,5.5483727E0,8.891383E-1,3.2027168E0,7.6023498E0,1.1348727E1,6.997225E0,4.4186735E0,1.0815822E0,1.5705883E1,4.337317E-2,1.1956444E0,9.796549E-1,-2.5321475E-1,1.9724794E-1,1.6399003E0,8.559766E-1,5.0051727E0,3.3680828E0,1.5810582E1,5.421159E0,6.447842E-1,1.888551E1,2.907523E0,7.119847E-1,-7.555869E-1,-1.7036071E-1,1.2962166E1,-4.0547487E-1,1.4260983E0,2.7335484E0,4.3112063E0,8.817142E0,6.1018476E0,9.806995E0,1.2900193E1,1.0947684E1,6.4859705E0,1.4412165E0,6.681769E0],"categories":[],"categories_nodes":[],"categories_segments":[],"categories_sizes":[],"default_left":[true,true,true,true,true,true,true,true,true,true,true,true,true,true,true,true,true,true,true,true,true,true,true,true,true,true,true,true,true,true,true,false,false,false,false,false,false,false,false,false,false,false,false,false,false,false,false,false,false,false,false,false,false,false,false,false,false,false,false,false,false,false,false],"id":9,"left_children":[1,3,5,7,9,11,13,15,17,19,21,23,25,27,29,31,33,35,37,39,41,43,45,47,49,51,53,55,57,59,61,-1,-1,-1,-1,-1,-1,-1,-1,-1,-1,-1,-1,-1,-1,-1,-1,-1,-1,-1,-1,-1,-1,-1,-1,-1,-1,-1,-1,-1,-1,-1,-1],"loss_changes":[2.3932464E5,1.2833662E4,3.7316938E4,1.7353726E3,1.168068E4,2.6402861E3,1.31436875E4,2.0091792E3,9.511756E2,9.539656E3,9.898125E3,3.6245065E2,1.6131709E3,5.11425E3,1.137425E4,1.217982E4,1.1731233E3,1.0215201E3,9.005051E2,5.7610664E3,2.0518598E4,7.683296E3,1.602793E4,2.676817E2,6.388964E2,2.874564E2,6.7862695E2,1.3536797E3,1.3136016E3,9.584484E3,1.8068777E4,0E0,0E0,0E0,0E0,0E0,0E0,0E0,0E0,0E0,0E0,0E0,0E0,0E0,0E0,0E0,0E0,0E0,0E0,0E0,0E0,0E0,0E0,0E0,0E0,0E0,0E0,0E0,0E0,0E0,0E0,0E0,0E0],"parents":[2147483647,0,0,1,1,2,2,3,3,4,4,5,5,6,6,7,7,8,8,9,9,10,10,11,11,12,12,13,13,14,14,15,15,16,16,17,17,18,18,19,19,20,20,21,21,22,22,23,23,24,24,25,25,26,26,27,27,28,28,29,29,30,30],"right_children":[2,4,6,8,10,12,14,16,18,20,22,24,26,28,30,32,34,36,38,40,42,44,46,48,50,52,54,56,58,60,62,-1,-1,-1,-1,-1,-1,-1,-1,-1,-1,-1,-1,-1,-1,-1,-1,-1,-1,-1,-1,-1,-1,-1,-1,-1,-1,-1,-1,-1,-1,-1,-1],"split_conditions":[4.4610284E-2,7.5E0,7.5E0,4.5E0,-2.3765434E-12,5.6108665E-1,-3.1354272E-1,-7.3763037E0,9.5E0,1.3624539E-2,3.0657008E-1,4.2E1,5.5E0,3.75E1,6.499646E0,-7.485663E0,2.154984E1,2.5E0,4.4381622E1,5.5012417E-1,1.7878033E1,-4.3058777E-1,3.0680802E-1,3.45E1,-1.24025285E-1,9.4788864E-2,6.5E0,-4.2263758E-1,8.5E0,5.0641026E-2,1.6774893E-1,1.0815822E-1,1.5705884E0,4.3373173E-3,1.1956444E-1,9.7965494E-2,-2.5321474E-2,1.9724794E-2,1.6399004E-1,8.559766E-2,5.005173E-1,3.368083E-1,1.5810583E0,5.4211587E-1,6.447842E-2,1.888551E0,2.907523E-1,7.119847E-2,-7.555869E-2,-1.7036071E-2,1.2962166E0,-4.0547486E-2,1.4260983E-1,2.7335486E-1,4.3112063E-1,8.8171417E-1,6.101848E-1,9.8069954E-1,1.2900194E0,1.0947684E0,6.4859706E-1,1.4412165E-1,6.681769E-1],"split_indices":[14,98,98,15,102,104,106,109,20,106,106,19,90,65,109,109,109,93,109,104,109,106,106,19,104,14,98,106,91,14,14,0,0,0,0,0,0,0,0,0,0,0,0,0,0,0,0,0,0,0,0,0,0,0,0,0,0,0,0,0,0,0,0],"split_type":[0,0,0,0,0,0,0,0,0,0,0,0,0,0,0,0,0,0,0,0,0,0,0,0,0,0,0,0,0,0,0,0,0,0,0,0,0,0,0,0,0,0,0,0,0,0,0,0,0,0,0,0,0,0,0,0,0,0,0,0,0,0,0],"sum_hessian":[6.4825E4,5.3351E4,1.1474E4,2.6582E4,2.6769E4,2.365E3,9.109E3,5.779E3,2.0803E4,4.795E3,2.1974E4,5.06E2,1.859E3,1.549E3,7.56E3,1.253E3,4.526E3,1.0343E4,1.046E4,2.875E3,1.92E3,2.1157E4,8.17E2,4.95E2,1.1E1,3.97E2,1.462E3,8.53E2,6.96E2,4.866E3,2.694E3,1.194E3,5.9E1,3.312E3,1.214E3,7.19E2,9.624E3,1.0006E4,4.54E2,2.487E3,3.88E2,1.777E3,1.43E2,3.42E2,2.0815E4,6.8E1,7.49E2,2.5E2,2.45E2,6E0,5E0,1.11E2,2.86E2,1.036E3,4.26E2,4.65E2,3.88E2,3.56E2,3.4E2,5.53E2,4.313E3,1.166E3,1.528E3],"tree_param":{"num_deleted":"0","num_feature":"110","num_nodes":"63","size_leaf_vector":"0"}}]},"name":"gbtree"},"learner_model_param":{"base_score":"5E-1","num_class":"0","num_feature":"110"},"objective":{"name":"reg:squarederror","reg_loss_param":{"scale_pos_weight":"1"}}},"version":[1,4,2]}
