{"learner":{"attributes":{},"feature_names":[" day"," trace 40 quant","competitiveness","empirical_distr_p","empirical_distr_q_0","empirical_distr_q_1","empirical_distr_q_10","empirical_distr_q_2","empirical_distr_q_3","empirical_distr_q_4","empirical_distr_q_5","empirical_distr_q_6","empirical_distr_q_7","empirical_distr_q_8","empirical_distr_q_9","my_layer_size","n_level","n_opp_level","opp_layer_size","trace 0 price","trace 0 quant","trace 1 price","trace 1 quant","trace 10 price","trace 10 quant","trace 11 price","trace 11 quant","trace 12 price","trace 12 quant","trace 13 price","trace 13 quant","trace 14 price","trace 14 quant","trace 15 price","trace 15 quant","trace 16 price","trace 16 quant","trace 17 price","trace 17 quant","trace 18 price","trace 18 quant","trace 19 price","trace 19 quant","trace 2 price","trace 2 quant","trace 20 price","trace 20 quant","trace 21 price","trace 21 quant","trace 22 price","trace 22 quant","trace 23 price","trace 23 quant","trace 24 price","trace 24 quant","trace 25 price","trace 25 quant","trace 26 price","trace 26 quant","trace 27 price","trace 27 quant","trace 28 price","trace 28 quant","trace 29 price","trace 29 quant","trace 3 price","trace 3 quant","trace 30 price","trace 30 quant","trace 31 price","trace 31 quant","trace 32 price","trace 32 quant","trace 33 price","trace 33 quant","trace 34 price","trace 34 quant","trace 35 price","trace 35 quant","trace 36 price","trace 36 quant","trace 37 price","trace 37 quant","trace 38 price","trace 38 quant","trace 39 price","trace 39 quant","trace 4 price","trace 4 quant","trace 40 price","trace 5 price","trace 5 quant","trace 6 price","trace 6 quant","trace 7 price","trace 7 quant","trace 8 price","trace 8 quant","trace 9 price","trace 9 quant","ufun_param_0","ufun_param_1","ufun_param_2","ufun_param_3","ufun_param_4","ufun_param_5","ufun_param_6","ufun_param_7","ufun_param_8","ufun_param_9"],"feature_types":["int","int","float","float","float","float","float","float","float","float","float","float","float","float","float","int","int","int","int","int","int","int","int","int","int","int","int","int","int","int","int","int","int","int","int","int","int","int","int","int","int","int","int","int","int","int","int","int","int","int","int","int","int","int","int","int","int","int","int","int","int","int","int","int","int","int","int","int","int","int","int","int","int","int","int","int","int","int","int","int","int","int","int","int","int","int","int","int","int","int","int","int","int","int","int","int","int","int","int","int","float","float","float","float","float","float","float","float","float","float"],"gradient_booster":{"model":{"gbtree_model_param":{"num_trees":"10","size_leaf_vector":"0"},"tree_info":[0,0,0,0,0,0,0,0,0,0],"trees":[{"base_weights":[5.454857E0,1.6279304E0,1.3562207E1,5.780422E-1,9.956615E0,6.91435E0,1.602653E1,4.1804627E-1,1.2168E1,6.796832E0,1.5136674E1,6.72658E0,1.9E1,1.2470947E1,1.8279936E1,2.7139515E-1,9.239865E0,8.439561E0,2.122857E1,4.1103516E0,1.3116279E1,1.2995455E1,2.1331818E1,4.520482E0,7.7263627E0,1.0702746E1,1.3852448E1,-0E0,1.8426992E1,7.235602E0,1.1879554E-1,3.225352E0,1.4467949E1,3.5E-1,9.20122E0,2.8869295E0,2.267742E1,-0E0,1.3780488E1,5.788235E0,1.5392277E1,2.1957546E1,1.8E0,3.6452096E0,7.9085364E0,6.947327E0,9.535985E0,1.1330464E1,8.2051283E-1,1.4083773E1,3.368421E0,-0E0,1.8496994E1],"categories":[],"categories_nodes":[],"categories_segments":[],"categories_sizes":[],"default_left":[true,true,true,true,true,true,true,true,true,true,true,true,false,true,true,true,true,true,false,true,true,true,true,true,true,true,true,false,true,false,false,false,false,false,false,false,false,false,false,false,false,false,false,false,false,false,false,false,false,false,false,false,false],"id":0,"left_children":[1,3,5,7,9,11,13,15,17,19,21,23,-1,25,27,29,31,33,-1,35,37,39,41,43,45,47,49,-1,51,-1,-1,-1,-1,-1,-1,-1,-1,-1,-1,-1,-1,-1,-1,-1,-1,-1,-1,-1,-1,-1,-1,-1,-1],"loss_changes":[4.7508584E5,9.089841E4,8.0114E4,1.701248E4,1.8729984E4,2.6353906E3,2.8156125E4,1.1702487E4,3.7468828E3,1.2099172E4,5.202922E3,2.738586E3,0E0,3.0114219E3,6.038375E3,9.462583E3,4.43017E3,4.619629E2,0E0,1.1309154E4,1.9419727E3,5.39966E3,1.0672773E3,1.0863047E3,1.0362891E3,3.7090156E3,1.66E3,0E0,2.8744375E3,0E0,0E0,0E0,0E0,0E0,0E0,0E0,0E0,0E0,0E0,0E0,0E0,0E0,0E0,0E0,0E0,0E0,0E0,0E0,0E0,0E0,0E0,0E0,0E0],"parents":[2147483647,0,0,1,1,2,2,3,3,4,4,5,5,6,6,7,7,8,8,9,9,10,10,11,11,13,13,14,14,15,15,16,16,17,17,19,19,20,20,21,21,22,22,23,23,24,24,25,25,26,26,28,28],"right_children":[2,4,6,8,10,12,14,16,18,20,22,24,-1,26,28,30,32,34,-1,36,38,40,42,44,46,48,50,-1,52,-1,-1,-1,-1,-1,-1,-1,-1,-1,-1,-1,-1,-1,-1,-1,-1,-1,-1,-1,-1,-1,-1,-1,-1],"split_conditions":[3.8838614E-2,4.8809525E-2,2.65E1,3.5632184E-1,1.6666668E-2,5.681818E-1,8.5E0,1.225E-1,9.5E0,1.02631584E-1,1.45E1,2.8801844E-1,1.9E0,6.5E0,1.5E0,5E-1,2.85E1,1.45E1,2.122857E0,3.85E1,1.15E1,9.166667E-2,7.5E0,2.1405229E-1,1.75E1,3.45E1,1.9107931E-3,-0E0,4.356061E-2,7.235602E-1,1.1879554E-2,3.2253522E-1,1.4467949E0,3.5E-2,9.2012197E-1,2.8869295E-1,2.267742E0,-0E0,1.3780488E0,5.788235E-1,1.5392277E0,2.1957548E0,1.7999999E-1,3.6452097E-1,7.908537E-1,6.947327E-1,9.535985E-1,1.1330465E0,8.2051285E-2,1.4083773E0,3.3684212E-1,-0E0,1.8496994E0],"split_indices":[14,8,19,6,12,14,94,12,94,7,94,6,0,94,28,0,19,27,0,19,27,8,22,14,23,19,100,0,14,0,0,0,0,0,0,0,0,0,0,0,0,0,0,0,0,0,0,0,0,0,0,0,0],"split_type":[0,0,0,0,0,0,0,0,0,0,0,0,0,0,0,0,0,0,0,0,0,0,0,0,0,0,0,0,0,0,0,0,0,0,0,0,0,0,0,0,0,0,0,0,0,0,0,0,0,0,0,0,0],"sum_hessian":[1.5317E4,1.0407E4,4.91E3,9.244E3,1.163E3,1.33E3,3.58E3,9.12E3,1.24E2,7.25E2,4.38E2,1.312E3,1.8E1,1.393E3,2.187E3,8.973E3,1.47E2,9E1,3.4E1,5.11E2,2.14E2,3.29E2,1.09E2,4.14E2,8.98E2,6.18E2,7.75E2,1.7E1,2.17E3,1.9E2,8.783E3,7E1,7.7E1,9E0,8.1E1,4.81E2,3E1,1E1,2.04E2,8.4E1,2.45E2,1.05E2,4E0,3.33E2,8.1E1,6.35E2,2.63E2,5.8E2,3.8E1,7.57E2,1.8E1,8E0,2.162E3],"tree_param":{"num_deleted":"0","num_feature":"110","num_nodes":"53","size_leaf_vector":"0"}},{"base_weights":[4.9122944E0,1.23119135E1,-1.3999002E-1,6.4291863E0,1.4939222E1,-3.145614E-1,1.8946877E1,7.226631E0,5.1094953E-2,1.1739668E1,1.765361E1,-3.5790822E-1,6.2185206E0,5.941552E0,1.2461578E1,-2.6719064E-1,1.1020935E1,9.574626E0,1.3339921E1,1.7137457E1,2.284641E1,-4.6865958E-1,-1.2945919E-1,1.9952903E0,1.2123641E1,4.138495E0,6.872415E0,1.0439823E1,1.4203194E1,1.0301794E0,-4.6180946E-1,-0E0,1.563406E1,7.568589E-1,1.0150394E1,6.8951125E0,1.3411406E1,1.5900378E1,1.784907E1,-0E0,2.296369E1,-4.7423813E-1,1.5249295E0,-3.0580354E-1,2.3605108E0,4.910351E0,-8.227538E-2,-0E0,1.9260416E1],"categories":[],"categories_nodes":[],"categories_segments":[],"categories_sizes":[],"default_left":[true,true,true,true,true,true,false,true,true,true,true,true,true,true,true,true,true,true,true,true,true,true,true,true,true,false,false,false,false,false,false,false,false,false,false,false,false,false,false,false,false,false,false,false,false,false,false,false,false],"id":1,"left_children":[1,3,5,7,9,11,-1,13,15,17,19,21,23,25,27,29,31,33,35,37,39,41,43,45,47,-1,-1,-1,-1,-1,-1,-1,-1,-1,-1,-1,-1,-1,-1,-1,-1,-1,-1,-1,-1,-1,-1,-1,-1],"loss_changes":[5.727865E5,9.576319E4,3.0151021E4,9.702484E3,3.6800188E4,2.4985442E3,0E0,1.1225461E4,8.6465515E2,6.4892188E3,5.426875E3,2.207821E2,1.281064E3,2.1675703E3,7.8134375E2,4.78155E1,3.7189227E2,4.178383E3,2.2551562E2,1.2414375E3,5.740547E2,5.703296E1,1.2790092E3,2.66709E2,1.8128894E3,0E0,0E0,0E0,0E0,0E0,0E0,0E0,0E0,0E0,0E0,0E0,0E0,0E0,0E0,0E0,0E0,0E0,0E0,0E0,0E0,0E0,0E0,0E0,0E0],"parents":[2147483647,0,0,1,1,2,2,3,3,4,4,5,5,7,7,8,8,9,9,10,10,11,11,12,12,13,13,14,14,15,15,16,16,17,17,18,18,19,19,20,20,21,21,22,22,23,23,24,24],"right_children":[2,4,6,8,10,12,-1,14,16,18,20,22,24,26,28,30,32,34,36,38,40,42,44,46,48,-1,-1,-1,-1,-1,-1,-1,-1,-1,-1,-1,-1,-1,-1,-1,-1,-1,-1,-1,-1,-1,-1,-1,-1],"split_conditions":[-4.95E1,2.35E1,3.4166667E-1,2.05E1,1.75E1,3.798221E1,1.8946877E0,1.05E1,2.8448336E1,1.35E1,2.25E1,7.5E0,4.411765E-2,6.5E0,1.35E1,3.5E0,1.45E1,2.5E0,3.5E0,1.95E1,2.5E0,4.2E1,6.4102565E-3,3.25E1,7.5E0,4.138495E-1,6.872415E-1,1.0439824E0,1.4203194E0,1.0301794E-1,-4.6180945E-2,-0E0,1.563406E0,7.568589E-2,1.0150394E0,6.8951124E-1,1.3411406E0,1.5900378E0,1.784907E0,-0E0,2.296369E0,-4.7423813E-2,1.5249296E-1,-3.0580355E-2,2.3605108E-1,4.9103507E-1,-8.227538E-3,-0E0,1.9260416E0],"split_indices":[50,92,10,47,47,108,0,47,108,47,47,66,10,47,47,34,23,36,66,47,97,27,8,47,66,0,0,0,0,0,0,0,0,0,0,0,0,0,0,0,0,0,0,0,0,0,0,0,0],"split_type":[0,0,0,0,0,0,0,0,0,0,0,0,0,0,0,0,0,0,0,0,0,0,0,0,0,0,0,0,0,0,0,0,0,0,0,0,0,0,0,0,0,0,0,0,0,0,0,0,0],"sum_hessian":[1.5317E4,6.215E3,9.102E3,1.921E3,4.294E3,9.021E3,8.1E1,1.706E3,2.15E2,1.975E3,2.319E3,8.964E3,5.7E1,1.373E3,3.33E2,2.09E2,6E0,8.45E2,1.13E3,2.115E3,2.04E2,6.007E3,2.957E3,3.5E1,2.2E1,4.73E2,9E2,1.6E2,1.73E2,2E1,1.89E2,2E0,4E0,5.3E1,7.92E2,1.5E1,1.115E3,7.86E2,1.329E3,1E0,2.03E2,5.996E3,1.1E1,2.766E3,1.91E2,1.6E1,1.9E1,9E0,1.3E1],"tree_param":{"num_deleted":"0","num_feature":"110","num_nodes":"49","size_leaf_vector":"0"}},{"base_weights":[4.4231734E0,5.7670826E-1,1.31106615E1,5.392496E0,-3.7495753E-1,1.0149629E1,1.5429532E1,6.517898E0,7.8166544E-1,-4.2742023E-1,1.9208366E0,1.0380385E1,2.2085169E-1,1.5708248E1,4.5422225E0,5.2247047E0,1.0679664E1,6.5650754E0,-2.4923864E-1,4.216278E0,-4.3603274E-1,7.9174223E0,-2.0324251E-1,8.903784E0,1.1866131E1,-7.5888705E-1,9.03546E0,1.5243312E1,1.9045654E1,-5.541721E-1,1.318079E1,4.351415E0,6.2433634E0,1.1613378E1,1.2798592E0,2.7175128E0,1.41910925E1,-4.184727E-1,4.0452256E0,-0E0,5.6836686E0,2.5625965E-1,-4.433569E-1,-0E0,8.252698E0,-4.401413E-1,5.6390257E0,6.945511E0,9.429785E0,1.3983328E1,1.5924401E1,1.9480402E1,4.666925E0,-1.2348232E0,5.5994515E0,3.1883748E0,1.9629337E1],"categories":[],"categories_nodes":[],"categories_segments":[],"categories_sizes":[],"default_left":[true,true,true,true,true,true,true,true,true,true,true,true,true,true,true,true,true,true,true,true,true,true,true,true,false,false,false,true,true,true,true,false,false,false,false,false,false,false,false,false,false,false,false,false,false,false,false,false,false,false,false,false,false,false,false,false,false],"id":2,"left_children":[1,3,5,7,9,11,13,15,17,19,21,23,25,27,29,31,33,35,37,39,41,43,45,47,-1,-1,-1,49,51,53,55,-1,-1,-1,-1,-1,-1,-1,-1,-1,-1,-1,-1,-1,-1,-1,-1,-1,-1,-1,-1,-1,-1,-1,-1,-1,-1],"loss_changes":[5.1172372E5,4.8719297E4,3.1859E4,9.023477E3,1.0537395E3,4.632047E3,7.712875E3,7.3629688E3,2.1336575E3,3.109032E2,2.5497722E3,4.120422E3,5.127873E2,3.3468125E3,3.127308E3,8.2585547E2,2.7613008E3,1.3767947E3,1.7909557E2,1.064669E2,4.5894653E1,1.4570068E2,1.4840887E2,8.224453E2,0E0,0E0,0E0,1.416875E3,1.5867109E3,1.4337231E2,1.3845874E3,0E0,0E0,0E0,0E0,0E0,0E0,0E0,0E0,0E0,0E0,0E0,0E0,0E0,0E0,0E0,0E0,0E0,0E0,0E0,0E0,0E0,0E0,0E0,0E0,0E0,0E0],"parents":[2147483647,0,0,1,1,2,2,3,3,4,4,5,5,6,6,7,7,8,8,9,9,10,10,11,11,12,12,13,13,14,14,15,15,16,16,17,17,18,18,19,19,20,20,21,21,22,22,23,23,27,27,28,28,29,29,30,30],"right_children":[2,4,6,8,10,12,14,16,18,20,22,24,26,28,30,32,34,36,38,40,42,44,46,48,-1,-1,-1,50,52,54,56,-1,-1,-1,-1,-1,-1,-1,-1,-1,-1,-1,-1,-1,-1,-1,-1,-1,-1,-1,-1,-1,-1,-1,-1,-1,-1],"split_conditions":[8.01E0,-4.95E1,1.65E1,8.9528507E-1,1.68239E-1,2.35E1,2.25E1,9.5E0,2.5E0,3.9117646E-1,1.7914438E-1,1.35E1,9.378882E-2,2.25E1,6.5E0,7.5E0,2.1E1,1.0565476E0,5.0574712E-2,1.05E1,5.9275186E-1,7.5378156E-1,2.2664914E-1,7.5E0,1.1866131E0,-7.588871E-2,9.0354604E-1,1.85E1,3.25E1,2.1904762E-1,1.3348476E1,4.3514153E-1,6.2433636E-1,1.1613377E0,1.2798592E-1,2.7175128E-1,1.4191092E0,-4.184727E-2,4.0452257E-1,-0E0,5.683669E-1,2.5625965E-2,-4.433569E-2,-0E0,8.252698E-1,-4.401413E-2,5.6390256E-1,6.945511E-1,9.429785E-1,1.3983328E0,1.5924401E0,1.9480402E0,4.666925E-1,-1.23482324E-1,5.5994517E-1,3.188375E-1,1.9629338E0],"split_indices":[3,49,47,4,5,49,49,47,95,4,5,47,12,47,91,47,33,3,12,49,4,4,106,33,0,0,0,47,47,11,108,0,0,0,0,0,0,0,0,0,0,0,0,0,0,0,0,0,0,0,0,0,0,0,0,0,0],"split_type":[0,0,0,0,0,0,0,0,0,0,0,0,0,0,0,0,0,0,0,0,0,0,0,0,0,0,0,0,0,0,0,0,0,0,0,0,0,0,0,0,0,0,0,0,0,0,0,0,0,0,0,0,0,0,0,0,0],"sum_hessian":[1.5317E4,1.0618E4,4.699E3,1.753E3,8.865E3,2.068E3,2.631E3,1.407E3,3.46E2,8.672E3,1.93E2,2.02E3,4.8E1,2.564E3,6.7E1,1.077E3,3.3E2,5.3E1,2.93E2,1.3E1,8.659E3,5.1E1,1.42E2,1.02E3,1E3,4.3E1,5E0,2.258E3,3.06E2,4.2E1,2.5E1,5.88E2,4.89E2,2.99E2,3.1E1,3.7E1,1.6E1,2.85E2,8E0,3E0,1E1,7.6E1,8.583E3,2E0,4.9E1,1.39E2,3E0,2.23E2,7.97E2,8.05E2,1.453E3,2.96E2,1E1,4E1,2E0,1.1E1,1.4E1],"tree_param":{"num_deleted":"0","num_feature":"110","num_nodes":"57","size_leaf_vector":"0"}},{"base_weights":[3.9830518E0,5.20248E-1,1.18038025E1,-1.2092368E-1,2.9409187E0,9.368126E0,1.3972604E1,-3.6455587E-1,5.8159447E-1,4.814206E0,6.52551E-1,8.13221E0,1.0657108E1,9.063841E0,1.4291381E1,-4.508587E-1,-1.5187146E-1,4.8493814E0,3.4871617E-1,4.659742E0,1.2573157E1,-3.3236563E-1,2.918149E0,5.93157E0,8.652397E0,1.0668111E1,-0E0,2.795929E0,1.0905159E1,1.3825142E1,1.7315643E1,-1.0857618E0,-4.308064E-1,6.033802E-1,-2.8991097E-1,1.4195943E0,7.777966E0,1.5570155E0,-1.2799314E-1,4.7894063E0,-2.277904E-1,8.255386E0,-4.2054164E-1,7.9972944E0,7.052478E-1,6.2122326E0,-0E0,8.78255E0,4.3266616E0,-1.4337353E0,1.5782362E1,1.1966139E1,2.0846226E0,1.3883046E1,-0E0,-0E0,1.738278E1],"categories":[],"categories_nodes":[],"categories_segments":[],"categories_sizes":[],"default_left":[true,true,true,true,true,true,true,true,true,true,true,true,true,true,true,true,true,true,true,true,false,true,true,true,true,false,false,true,true,true,true,false,false,false,false,false,false,false,false,false,false,false,false,false,false,false,false,false,false,false,false,false,false,false,false,false,false],"id":3,"left_children":[1,3,5,7,9,11,13,15,17,19,21,23,25,27,29,31,33,35,37,39,-1,41,43,45,47,-1,-1,49,51,53,55,-1,-1,-1,-1,-1,-1,-1,-1,-1,-1,-1,-1,-1,-1,-1,-1,-1,-1,-1,-1,-1,-1,-1,-1,-1,-1],"loss_changes":[4.147085E5,1.650994E4,2.4463438E4,1.4345541E3,9.488826E3,3.2604844E3,3.52075E3,1.08496216E2,2.084153E3,1.233623E3,2.2716414E3,1.109E3,1.3935938E2,1.6329287E3,2.7303438E3,4.0473267E1,1.8855588E2,9.918247E2,1.1912731E3,8.078262E2,0E0,4.5442963E2,3.369146E3,4.1954297E2,3.471875E2,0E0,0E0,2.2533877E3,9.4819824E2,1.7054375E3,4.0601562E2,0E0,0E0,0E0,0E0,0E0,0E0,0E0,0E0,0E0,0E0,0E0,0E0,0E0,0E0,0E0,0E0,0E0,0E0,0E0,0E0,0E0,0E0,0E0,0E0,0E0,0E0],"parents":[2147483647,0,0,1,1,2,2,3,3,4,4,5,5,6,6,7,7,8,8,9,9,10,10,11,11,12,12,13,13,14,14,15,15,16,16,17,17,18,18,19,19,21,21,22,22,23,23,24,24,27,27,28,28,29,29,30,30],"right_children":[2,4,6,8,10,12,14,16,18,20,22,24,26,28,30,32,34,36,38,40,-1,42,44,46,48,-1,-1,50,52,54,56,-1,-1,-1,-1,-1,-1,-1,-1,-1,-1,-1,-1,-1,-1,-1,-1,-1,-1,-1,-1,-1,-1,-1,-1,-1,-1],"split_conditions":[8.01E0,3.8369565E0,1.55E1,1.4083333E0,1.15E1,1.2249226E1,1.3299999E1,2.8436658E-1,1.5E0,1.35E1,1.35E1,7.5E0,2.037143E1,2.5E0,1.9838234E1,5E-1,2.5E0,1.25E1,7.5E0,1.25E1,1.2573158E0,2.75E1,-1.7931277E-1,2.7E1,3.35E1,1.0668111E0,-0E0,1.1625E1,6.5E0,4.3E1,2.5E0,-1.0857618E-1,-4.308064E-2,6.033802E-2,-2.8991098E-2,1.4195943E-1,7.777966E-1,1.5570156E-1,-1.2799314E-2,4.7894064E-1,-2.277904E-2,8.2553864E-1,-4.2054165E-2,7.9972947E-1,7.052478E-2,6.212233E-1,-0E0,8.78255E-1,4.3266615E-1,-1.4337353E-1,1.5782362E0,1.1966139E0,2.0846227E-1,1.3883046E0,-0E0,-0E0,1.738278E0],"split_indices":[3,3,37,3,33,3,3,3,26,37,33,33,3,40,3,0,95,33,37,37,0,19,105,39,43,0,0,3,97,25,97,0,0,0,0,0,0,0,0,0,0,0,0,0,0,0,0,0,0,0,0,0,0,0,0,0,0],"split_type":[0,0,0,0,0,0,0,0,0,0,0,0,0,0,0,0,0,0,0,0,0,0,0,0,0,0,0,0,0,0,0,0,0,0,0,0,0,0,0,0,0,0,0,0,0,0,0,0,0,0,0,0,0,0,0,0,0],"sum_hessian":[1.5317E4,1.0618E4,4.699E3,8.392E3,2.226E3,2.218E3,2.481E3,6.242E3,2.15E3,1.221E3,1.005E3,1.14E3,1.078E3,1.55E2,2.326E3,4.406E3,1.836E3,1.08E2,2.042E3,1.2E3,2.1E1,6.98E2,3.07E2,2.24E2,9.16E2,1.077E3,1E0,3.7E1,1.18E2,2.023E3,3.03E2,1.18E2,4.288E3,2.72E2,1.564E3,5.2E1,5.6E1,5.83E2,1.459E3,1.171E3,2.9E1,5E0,6.93E2,9.1E1,2.16E2,2.15E2,9E0,8.86E2,3E1,2.8E1,9E0,1.04E2,1.4E1,2.015E3,8E0,1E0,3.02E2],"tree_param":{"num_deleted":"0","num_feature":"110","num_nodes":"57","size_leaf_vector":"0"}},{"base_weights":[3.5861511E0,4.6881735E-1,1.0626445E1,4.17444E0,-1.1328676E-1,8.433636E0,1.2578588E1,1.0686094E0,4.5857086E0,7.775268E-1,-2.7047354E-1,7.2042785E0,9.501516E0,8.29624E0,1.2871699E1,7.605797E0,2.4336585E-1,3.266192E0,5.516407E0,2.4932632E0,-4.0736338E-1,7.9896104E-1,-3.28443E-1,5.3715587E0,7.711481E0,9.659296E0,-6.651075E-1,-1.9337909E-1,9.546141E0,1.2450632E1,1.55888E1,-0E0,5.6698833E0,3.5652263E0,-0E0,5.10906E0,9.141846E0,4.465314E0,9.566958E-1,-4.6285242E-1,1.126615E1,-3.6894223E-1,4.8461127E0,-3.4223402E-1,1.3121231E0,5.619697E0,-0E0,7.722606E0,-0E0,9.743283E0,-0E0,-9.2855823E-1,2.2551022E0,1.0840221E1,2.5527096E0,1.2503291E1,-0E0,1.4840124E1,2.06332E1],"categories":[],"categories_nodes":[],"categories_segments":[],"categories_sizes":[],"default_left":[true,true,true,true,true,true,true,true,true,true,true,true,true,true,true,false,true,true,true,true,true,true,true,true,true,true,false,true,true,true,true,false,false,false,false,false,false,false,false,false,false,false,false,false,false,false,false,false,false,false,false,false,false,false,false,false,false,false,false],"id":4,"left_children":[1,3,5,7,9,11,13,15,17,19,21,23,25,27,29,-1,31,33,35,37,39,41,43,45,47,49,-1,51,53,55,57,-1,-1,-1,-1,-1,-1,-1,-1,-1,-1,-1,-1,-1,-1,-1,-1,-1,-1,-1,-1,-1,-1,-1,-1,-1,-1,-1,-1],"loss_changes":[3.3606738E5,2.2946883E4,1.9803E4,1.7830234E3,1.2800011E3,2.6776094E3,2.7969688E3,8.5295276E2,1.4562637E3,2.8009302E3,4.797345E2,7.944883E2,1.9891875E3,1.8356084E3,2.178625E3,0E0,1.8364606E2,5.295508E2,9.03625E2,1.6444744E3,4.1926962E2,1.9041453E3,1.5858295E2,3.5124414E2,7.910547E1,1.0408125E3,0E0,2.6630077E1,1.1416074E3,1.3984688E3,4.8716406E2,0E0,0E0,0E0,0E0,0E0,0E0,0E0,0E0,0E0,0E0,0E0,0E0,0E0,0E0,0E0,0E0,0E0,0E0,0E0,0E0,0E0,0E0,0E0,0E0,0E0,0E0,0E0,0E0],"parents":[2147483647,0,0,1,1,2,2,3,3,4,4,5,5,6,6,7,7,8,8,9,9,10,10,11,11,12,12,13,13,14,14,16,16,17,17,18,18,19,19,20,20,21,21,22,22,23,23,24,24,25,25,27,27,28,28,29,29,30,30],"right_children":[2,4,6,8,10,12,14,16,18,20,22,24,26,28,30,-1,32,34,36,38,40,42,44,46,48,50,-1,52,54,56,58,-1,-1,-1,-1,-1,-1,-1,-1,-1,-1,-1,-1,-1,-1,-1,-1,-1,-1,-1,-1,-1,-1,-1,-1,-1,-1,-1,-1],"split_conditions":[8.01E0,6.7054266E-1,1.55E1,2.5E0,8.1530213E-1,1.05E1,1.3366667E1,1.5E0,6.5E0,2.75E1,1.5E0,7.5E0,5.277778E-1,2.5E0,1.9838234E1,7.605797E-1,2.2698414E-1,5.1666665E-1,1.45E1,5.5E0,3.95E1,1.2111529E0,4.15E1,3.25E-1,5.1428574E-1,1.5E1,-6.651075E-2,1.1988636E1,1.85E1,4.3E1,2.45E1,-0E0,5.6698835E-1,3.5652265E-1,-0E0,5.10906E-1,9.141846E-1,4.465314E-1,9.566958E-2,-4.628524E-2,1.126615E0,-3.6894225E-2,4.8461127E-1,-3.4223404E-2,1.3121231E-1,5.619697E-1,-0E0,7.722606E-1,-0E0,9.7432834E-1,-0E0,-9.2855826E-2,2.2551022E-1,1.0840222E0,2.5527096E-1,1.2503291E0,-0E0,1.4840125E0,2.06332E0],"split_indices":[3,4,37,32,4,33,3,22,37,31,30,33,4,36,3,0,106,4,33,91,43,3,31,4,4,94,0,3,33,25,3,0,0,0,0,0,0,0,0,0,0,0,0,0,0,0,0,0,0,0,0,0,0,0,0,0,0,0,0],"split_type":[0,0,0,0,0,0,0,0,0,0,0,0,0,0,0,0,0,0,0,0,0,0,0,0,0,0,0,0,0,0,0,0,0,0,0,0,0,0,0,0,0,0,0,0,0,0,0,0,0,0,0,0,0,0,0,0,0,0,0],"sum_hessian":[1.5317E4,1.0618E4,4.699E3,1.443E3,9.175E3,2.218E3,2.481E3,1.72E2,1.271E3,1.366E3,7.809E3,1.039E3,1.179E3,1.63E2,2.318E3,1.7E1,1.55E2,5.32E2,7.39E2,5.61E2,8.05E2,3.92E2,7.417E3,2.32E2,8.07E2,1.162E3,1.7E1,2E1,1.43E2,2.015E3,3.03E2,1.5E2,5E0,4.88E2,4.4E1,6.69E2,7E1,2.42E2,3.19E2,8.03E2,2E0,3.03E2,8.9E1,7.362E3,5.5E1,2.23E2,9E0,8.06E2,1E0,1.153E3,9E0,1.9E1,1E0,1.19E2,2.4E1,2.007E3,8E0,2.69E2,3.4E1],"tree_param":{"num_deleted":"0","num_feature":"110","num_nodes":"59","size_leaf_vector":"0"}},{"base_weights":[3.2291334E0,4.23011E-1,9.566364E0,4.178526E0,-3.1887895E-1,6.7337723E0,1.0723105E1,4.8569274E0,-1.0028158E-1,2.128793E0,-3.2495186E-1,7.1238084E0,6.363988E-2,9.339088E0,1.188825E1,3.8964047E0,8.253673E0,-2.928306E-1,3.7418408E0,-0E0,4.3232503E0,-7.240207E-2,-3.7695247E-1,6.541229E0,9.265559E0,-1.3963833E0,6.4335036E0,9.463459E0,-1.712977E0,1.166334E1,1.6918482E1,4.1048408E0,-2.042673E-1,5.9239864E0,1.1518077E1,-5.814036E-1,6.629828E-1,4.0676236E0,-2.9913884E-1,-3.811402E-1,1.2321362E0,5.122901E0,6.971365E0,-0E0,9.395534E0,-0E0,-1.5370717E0,-3.3477268E-1,1.0449518E1,8.768193E0,1.0075333E1,-3.0639162E0,4.951025E0,1.1713399E1,-0E0],"categories":[],"categories_nodes":[],"categories_segments":[],"categories_sizes":[],"default_left":[true,true,true,true,true,true,true,true,true,true,true,true,true,true,true,true,true,true,false,false,false,true,true,true,true,true,true,true,true,true,false,false,false,false,false,false,false,false,false,false,false,false,false,false,false,false,false,false,false,false,false,false,false,false,false],"id":5,"left_children":[1,3,5,7,9,11,13,15,17,19,21,23,25,27,29,31,33,35,-1,-1,-1,37,39,41,43,45,47,49,51,53,-1,-1,-1,-1,-1,-1,-1,-1,-1,-1,-1,-1,-1,-1,-1,-1,-1,-1,-1,-1,-1,-1,-1,-1,-1],"loss_changes":[2.7229675E5,2.9626361E4,1.5153125E4,5.1394727E3,1.1444202E2,3.4866523E3,5.0514062E3,4.7925195E3,1.4341707E2,1.2402373E2,1.11690796E2,1.3921523E3,7.847665E2,2.1995469E3,1.5555469E3,1.0535508E3,2.2746152E3,6.3284554E1,0E0,0E0,0E0,1.4138174E3,4.1184082E1,4.6683984E2,3.9004883E2,7.099571E0,5.395496E2,3.6815625E2,1.4934369E2,1.0640625E3,0E0,0E0,0E0,0E0,0E0,0E0,0E0,0E0,0E0,0E0,0E0,0E0,0E0,0E0,0E0,0E0,0E0,0E0,0E0,0E0,0E0,0E0,0E0,0E0,0E0],"parents":[2147483647,0,0,1,1,2,2,3,3,4,4,5,5,6,6,7,7,8,8,9,9,10,10,11,11,12,12,13,13,14,14,15,15,16,16,17,17,21,21,22,22,23,23,24,24,25,25,26,26,27,27,28,28,29,29],"right_children":[2,4,6,8,10,12,14,16,18,20,22,24,26,28,30,32,34,36,-1,-1,-1,38,40,42,44,46,48,50,52,54,-1,-1,-1,-1,-1,-1,-1,-1,-1,-1,-1,-1,-1,-1,-1,-1,-1,-1,-1,-1,-1,-1,-1,-1,-1],"split_conditions":[8.01E0,-4.95E1,1.2811546E1,9.2980295E-1,3.8562092E-1,2.25E1,1.05E1,1.85E1,5.0574712E-2,2.5E0,5.5E0,2.0714286E-1,6.5E0,2.5E1,2.3225594E1,3.35E1,7.5E0,8.5E0,3.741841E-1,-0E0,4.3232504E-1,8.0007255E-1,4.25E1,1.050532E1,1.15E1,4.5E0,2.5E0,8.5E0,1.6618132E1,4.25E1,1.6918482E0,4.1048408E-1,-2.042673E-2,5.9239864E-1,1.1518077E0,-5.8140364E-2,6.629828E-2,4.0676236E-1,-2.9913886E-2,-3.8114022E-2,1.2321363E-1,5.122901E-1,6.971365E-1,-0E0,9.395534E-1,-0E0,-1.5370718E-1,-3.347727E-2,1.0449518E0,8.768193E-1,1.0075333E0,-3.0639163E-1,4.951025E-1,1.1713399E0,-0E0],"split_indices":[3,49,3,4,4,49,94,27,12,36,94,4,26,49,3,94,94,22,0,0,0,4,39,3,27,97,36,94,3,65,0,0,0,0,0,0,0,0,0,0,0,0,0,0,0,0,0,0,0,0,0,0,0,0,0],"split_type":[0,0,0,0,0,0,0,0,0,0,0,0,0,0,0,0,0,0,0,0,0,0,0,0,0,0,0,0,0,0,0,0,0,0,0,0,0,0,0,0,0,0,0,0,0,0,0,0,0,0,0,0,0,0,0],"sum_hessian":[1.5317E4,1.0618E4,4.699E3,1.753E3,8.865E3,1.367E3,3.332E3,1.515E3,2.38E2,1.7E1,8.848E3,1.29E3,7.7E1,1.531E3,1.801E3,1.185E3,3.3E2,2.3E2,8E0,7E0,1E1,1.544E3,7.304E3,1.021E3,2.69E2,6.2E1,1.5E1,1.515E3,1.6E1,1.729E3,7.2E1,1.13E3,5.5E1,1.96E2,1.34E2,1.85E2,4.5E1,7.7E1,1.467E3,7.292E3,1.2E1,2.46E2,7.75E2,3E0,2.66E2,8E0,5.4E1,5E0,1E1,7.24E2,7.91E2,1.5E1,1E0,1.722E3,7E0],"tree_param":{"num_deleted":"0","num_feature":"110","num_nodes":"55","size_leaf_vector":"0"}},{"base_weights":[2.9073908E0,7.7328453E0,2.0134807E-2,4.745235E0,9.457026E0,3.6711464E0,-2.885988E-1,3.446887E0,6.0307884E0,8.332402E0,1.0822482E1,6.6319304E0,9.3925893E-1,-1.6100189E-1,-3.6862227E-1,2.759466E0,4.070181E0,-0E0,6.0706916E0,8.559872E0,-0E0,1.0974018E1,3.5175922E0,2.6309717E0,8.112486E0,5.2867045E0,1.5624975E-1,1.3314362E0,-2.9052722E-1,-3.7705362E-1,5.8928746E-1,2.9948049E0,-4.371045E-1,4.0809617E0,-0E0,6.1062756E0,2.0069091E0,7.62853E0,9.171222E0,-1.6665857E0,5.286995E0,1.3005023E1,1.052697E1,-3.4527758E-1,1.6255676E1,1.402276E-1,3.7604425E0,5.5148287E0,9.926094E0,7.0258183E0,-0E0,-1.2763716E-1,7.409051E0,2.3168084E-1,6.082747E0,-8.3064675E-2,-3.2457066E-1,-8.158382E-1,-3.5984784E-1,-0E0,1.2248259E1],"categories":[],"categories_nodes":[],"categories_segments":[],"categories_sizes":[],"default_left":[true,true,true,true,true,true,true,true,true,true,true,true,true,true,true,true,true,false,true,true,true,true,true,true,true,true,true,true,true,true,true,false,false,false,false,false,false,false,false,false,false,false,false,false,false,false,false,false,false,false,false,false,false,false,false,false,false,false,false,false,false],"id":6,"left_children":[1,3,5,7,9,11,13,15,17,19,21,23,25,27,29,31,33,-1,35,37,39,41,43,45,47,49,51,53,55,57,59,-1,-1,-1,-1,-1,-1,-1,-1,-1,-1,-1,-1,-1,-1,-1,-1,-1,-1,-1,-1,-1,-1,-1,-1,-1,-1,-1,-1,-1,-1],"loss_changes":[2.1333761E5,2.9344844E4,1.0840128E4,3.392871E3,5.2956562E3,5.984455E3,8.487677E1,3.712168E2,2.8639844E2,3.8015781E3,1.624125E3,1.9918857E3,1.2825518E3,6.5805206E2,4.1567505E1,4.113003E2,3.097461E1,0E0,5.7726562E1,8.706094E2,4.800354E2,1.0787031E3,1.936117E3,2.4178821E2,1.0110332E3,6.002395E2,7.655755E2,1.3462717E3,1.840564E1,2.8309937E1,2.8719107E2,0E0,0E0,0E0,0E0,0E0,0E0,0E0,0E0,0E0,0E0,0E0,0E0,0E0,0E0,0E0,0E0,0E0,0E0,0E0,0E0,0E0,0E0,0E0,0E0,0E0,0E0,0E0,0E0,0E0,0E0],"parents":[2147483647,0,0,1,1,2,2,3,3,4,4,5,5,6,6,7,7,8,8,9,9,10,10,11,11,12,12,13,13,14,14,15,15,16,16,18,18,19,19,20,20,21,21,22,22,23,23,24,24,25,25,26,26,27,27,28,28,29,29,30,30],"right_children":[2,4,6,8,10,12,14,16,18,20,22,24,26,28,30,32,34,-1,36,38,40,42,44,46,48,50,52,54,56,58,60,-1,-1,-1,-1,-1,-1,-1,-1,-1,-1,-1,-1,-1,-1,-1,-1,-1,-1,-1,-1,-1,-1,-1,-1,-1,-1,-1,-1,-1,-1],"split_conditions":[5.3137255E-1,1.15E1,-4.95E1,7.5E0,1.75E1,8.386046E-1,5.5E0,6.5E0,1.1E1,1.85E1,2.25E1,1.55E1,2.5E0,7.9277813E-1,3.65E1,-4.95E1,1.3951613E-1,-0E0,2.3E1,1.35E1,5.5E0,5.5E0,7.5E0,-3.0346916E-3,9.5E0,9.6056545E-1,1.4409941E-1,7.920598E-1,9.3813777E-1,6.784091E-1,1.6666668E-2,2.994805E-1,-4.371045E-2,4.0809616E-1,-0E0,6.106276E-1,2.0069091E-1,7.62853E-1,9.171222E-1,-1.6665857E-1,5.286995E-1,1.3005023E0,1.0526971E0,-3.452776E-2,1.6255677E0,1.402276E-2,3.7604424E-1,5.5148286E-1,9.9260944E-1,7.025818E-1,-0E0,-1.2763716E-2,7.409051E-1,2.3168085E-2,6.082747E-1,-8.306468E-3,-3.2457065E-2,-8.158382E-2,-3.5984784E-2,-0E0,1.2248259E0],"split_indices":[4,37,49,37,37,4,18,37,96,49,49,96,95,4,96,49,8,0,49,37,26,99,99,106,37,4,106,4,4,4,8,0,0,0,0,0,0,0,0,0,0,0,0,0,0,0,0,0,0,0,0,0,0,0,0,0,0,0,0,0,0],"split_type":[0,0,0,0,0,0,0,0,0,0,0,0,0,0,0,0,0,0,0,0,0,0,0,0,0,0,0,0,0,0,0,0,0,0,0,0,0,0,0,0,0,0,0,0,0,0,0,0,0,0,0,0,0,0,0,0,0,0,0,0,0],"sum_hessian":[1.5317E4,5.732E3,9.585E3,2.101E3,3.631E3,7.49E2,8.836E3,1.051E3,1.05E3,1.999E3,1.632E3,3.57E2,3.92E2,3.455E3,5.381E3,5.1E2,5.41E2,6E0,1.044E3,1.946E3,5.3E1,1.597E3,3.5E1,9.9E1,2.58E2,5.7E1,3.35E2,2.69E2,3.186E3,5.345E3,3.6E1,4.78E2,3.2E1,5.4E2,1E0,1.032E3,1.2E1,7.83E2,1.163E3,4.1E1,1.2E1,2.79E2,1.318E3,2.7E1,8E0,3.4E1,6.5E1,1.1E2,1.48E2,4.4E1,1.3E1,3.22E2,1.3E1,2.21E2,4.8E1,4.91E2,2.695E3,1.78E2,5.167E3,3.5E1,1E0],"tree_param":{"num_deleted":"0","num_feature":"110","num_nodes":"61","size_leaf_vector":"0"}},{"base_weights":[2.617995E0,3.431713E-1,7.7549596E0,3.0325222E0,-7.899147E-2,5.730489E0,8.831789E0,2.0975149E0,3.7638323E0,-1.234144E-1,2.779857E0,5.8551497E0,-0E0,7.697524E0,9.798774E0,2.6392379E0,-8.416561E-2,3.579829E0,7.645731E0,4.2024308E-1,-2.1747333E-1,5.3271165E0,1.2280684E-1,5.208503E0,6.806886E0,-9.668404E-1,8.160324E0,7.7594175E0,-0E0,9.562279E0,1.3492825E1,2.5090334E0,7.087107E0,1.7123784E0,-3.2452142E-1,3.7388315E0,-7.35387E-1,9.410224E0,-0E0,2.2774515E0,-1.9978519E-1,1.5844761E-1,-2.6911268E-1,3.0908713E0,9.407862E0,2.6781259E0,-1.3417673E-1,5.329019E0,-2.6443453E0,5.559411E0,7.5481567E0,1.14413595E1,-0E0,6.944647E0,8.192166E0,3.0100453E0,-1.6126115E0,9.620985E0,3.9323005E-1],"categories":[],"categories_nodes":[],"categories_segments":[],"categories_sizes":[],"default_left":[true,true,true,true,true,true,true,true,true,true,true,true,true,true,true,true,true,true,true,true,true,true,true,true,true,false,true,true,true,true,false,false,false,false,false,false,false,false,false,false,false,false,false,false,false,false,false,false,false,false,false,false,false,false,false,false,false,false,false],"id":7,"left_children":[1,3,5,7,9,11,13,15,17,19,21,23,25,27,29,31,33,35,37,39,41,43,45,47,49,-1,51,53,55,57,-1,-1,-1,-1,-1,-1,-1,-1,-1,-1,-1,-1,-1,-1,-1,-1,-1,-1,-1,-1,-1,-1,-1,-1,-1,-1,-1,-1,-1],"loss_changes":[1.7891775E5,1.208599E4,1.00498125E4,9.208711E2,1.1391161E3,1.1658281E3,3.1091719E3,7.8453125E2,4.3394238E2,4.6033173E2,8.7208936E2,8.309375E2,2.972113E2,6.952422E2,1.0775312E3,1.8624756E2,4.0653355E1,5.6179004E2,4.618246E2,1.5389373E3,1.5107062E2,4.664713E2,7.176608E1,9.5421094E2,4.1785352E2,0E0,1.26350586E2,2.881875E2,5.9646133E1,7.315E2,0E0,0E0,0E0,0E0,0E0,0E0,0E0,0E0,0E0,0E0,0E0,0E0,0E0,0E0,0E0,0E0,0E0,0E0,0E0,0E0,0E0,0E0,0E0,0E0,0E0,0E0,0E0,0E0,0E0],"parents":[2147483647,0,0,1,1,2,2,3,3,4,4,5,5,6,6,7,7,8,8,9,9,10,10,11,11,12,12,13,13,14,14,15,15,16,16,17,17,18,18,19,19,20,20,21,21,22,22,23,23,24,24,26,26,27,27,28,28,29,29],"right_children":[2,4,6,8,10,12,14,16,18,20,22,24,26,28,30,32,34,36,38,40,42,44,46,48,50,-1,52,54,56,58,-1,-1,-1,-1,-1,-1,-1,-1,-1,-1,-1,-1,-1,-1,-1,-1,-1,-1,-1,-1,-1,-1,-1,-1,-1,-1,-1,-1,-1],"split_conditions":[8.01E0,6.7054266E-1,1.4235714E1,1.55E1,5.409357E-2,5.1666665E-1,1.45E1,5.3137255E-1,7.5E0,8.1530213E-1,3.5E0,2.35E1,4.5E0,3.7787862E-3,2.2930555E1,9E0,1.5E0,1.45E1,7.5E0,8.5E0,1.5E0,9.3531474E-2,8.078947E-1,3.15E1,1.1533909E1,-9.668404E-2,1.0033333E1,1.05E1,1.5403847E1,7.0300644E1,1.3492825E0,2.5090334E-1,7.0871073E-1,1.7123784E-1,-3.2452144E-2,3.7388316E-1,-7.3538706E-2,9.410224E-1,-0E0,2.2774516E-1,-1.997852E-2,1.584476E-2,-2.6911268E-2,3.0908713E-1,9.407862E-1,2.6781258E-1,-1.3417673E-2,5.3290194E-1,-2.6443455E-1,5.559411E-1,7.548157E-1,1.144136E0,-0E0,6.944647E-1,8.1921667E-1,3.0100453E-1,-1.6126116E-1,9.6209854E-1,3.9323006E-2],"split_indices":[3,4,3,31,7,4,29,4,21,4,36,45,36,100,3,29,42,29,26,29,34,7,4,19,3,0,3,29,3,108,0,0,0,0,0,0,0,0,0,0,0,0,0,0,0,0,0,0,0,0,0,0,0,0,0,0,0,0,0],"split_type":[0,0,0,0,0,0,0,0,0,0,0,0,0,0,0,0,0,0,0,0,0,0,0,0,0,0,0,0,0,0,0,0,0,0,0,0,0,0,0,0,0,0,0,0,0,0,0,0,0,0,0,0,0,0,0,0,0,0,0],"sum_hessian":[1.5317E4,1.0618E4,4.699E3,1.443E3,9.175E3,1.637E3,3.062E3,6.41E2,8.02E2,9.039E3,1.36E2,1.602E3,3.5E1,1.418E3,1.644E3,5.17E2,1.24E2,7.7E2,3.2E1,1.317E3,7.722E3,6.7E1,6.9E1,9.64E2,6.38E2,3.2E1,3E0,1.407E3,1.1E1,1.551E3,9.3E1,5.06E2,1.1E1,9E0,1.15E2,7.45E2,2.5E1,2.6E1,6E0,3.33E2,9.84E2,9.09E2,6.813E3,4.6E1,2.1E1,9E0,6E1,9.51E2,1.3E1,2.46E2,3.92E2,2E0,1E0,5.02E2,9.05E2,3E0,8E0,1.54E3,1.1E1],"tree_param":{"num_deleted":"0","num_feature":"110","num_nodes":"59","size_leaf_vector":"0"}},{"base_weights":[2.3575878E0,1.5291248E-1,6.657934E0,-4.439955E-2,1.4947714E0,4.6066923E0,7.862845E0,-1.0396145E-1,2.610448E0,7.2941527E0,1.206282E0,3.352553E0,5.210341E0,6.7528687E0,8.862412E0,-2.4050425E-1,1.9438758E-1,1.2836757E0,7.620598E0,-0E0,1.0068949E1,2.7207723E-1,2.5841956E0,3.3996577E0,-0E0,3.0659952E0,5.45938E0,6.7977057E0,-0E0,8.680673E0,1.26819515E1,-2.5325963E-1,3.8793793E0,-9.845366E-2,1.4441935E0,3.1165292E0,-3.027599E-1,-0E0,8.621128E0,1.2191119E1,-0E0,1.9961499E-2,2.3389564E0,2.702221E0,-5.225822E-1,3.4088063E0,-0E0,5.5079107E0,-9.037493E-1,5.5436487E0,1.2088337E0,6.120547E0,7.252014E0,2.784292E0,-1.6157557E0,8.729583E0,-3.0756328E-2],"categories":[],"categories_nodes":[],"categories_segments":[],"categories_sizes":[],"default_left":[true,true,true,true,true,true,true,true,true,true,true,true,true,true,true,true,true,true,true,false,true,true,true,true,false,true,true,true,true,true,false,false,false,false,false,false,false,false,false,false,false,false,false,false,false,false,false,false,false,false,false,false,false,false,false,false,false],"id":8,"left_children":[1,3,5,7,9,11,13,15,17,19,21,23,25,27,29,31,33,35,37,-1,39,41,43,45,-1,47,49,51,53,55,-1,-1,-1,-1,-1,-1,-1,-1,-1,-1,-1,-1,-1,-1,-1,-1,-1,-1,-1,-1,-1,-1,-1,-1,-1,-1,-1],"loss_changes":[1.451588E5,2.6963738E3,1.26665E4,1.3706842E3,2.089539E3,1.3550039E3,3.4065E3,3.5231622E2,1.1641671E3,1.2686045E3,1.5746521E3,1.0918994E2,5.885E2,4.8328125E2,8.632969E2,2.7729257E2,9.9775934E2,4.7395996E2,3.2021753E2,0E0,8.895576E2,3.661415E2,2.0618115E2,2.737207E1,0E0,1.4178423E3,3.3876562E2,2.975E2,5.189446E1,7.8515625E2,0E0,0E0,0E0,0E0,0E0,0E0,0E0,0E0,0E0,0E0,0E0,0E0,0E0,0E0,0E0,0E0,0E0,0E0,0E0,0E0,0E0,0E0,0E0,0E0,0E0,0E0,0E0],"parents":[2147483647,0,0,1,1,2,2,3,3,4,4,5,5,6,6,7,7,8,8,9,9,10,10,11,11,12,12,13,13,14,14,15,15,16,16,17,17,18,18,20,20,21,21,22,22,23,23,25,25,26,26,27,27,28,28,29,29],"right_children":[2,4,6,8,10,12,14,16,18,20,22,24,26,28,30,32,34,36,38,-1,40,42,44,46,-1,48,50,52,54,56,-1,-1,-1,-1,-1,-1,-1,-1,-1,-1,-1,-1,-1,-1,-1,-1,-1,-1,-1,-1,-1,-1,-1,-1,-1,-1,-1],"split_conditions":[7.1188235E0,2.2991544E-2,1.3323809E1,5.4804806E-2,1.5E0,7.5E0,1.55E1,1.4083333E0,1.15E1,1.45E1,4.6806726E0,1.05E1,2.5E0,3.7787862E-3,2.3225594E1,4.356061E-2,5.5E0,2.05E1,-5.177101E0,-0E0,8E0,1.0818714E-1,2.55E1,1.3951613E-1,-0E0,1E1,2.05E1,1.45E1,1.5403847E1,4.3E1,1.2681952E0,-2.5325963E-2,3.8793793E-1,-9.845367E-3,1.4441936E-1,3.1165293E-1,-3.027599E-2,-0E0,8.621128E-1,1.2191119E0,-0E0,1.99615E-3,2.3389564E-1,2.702221E-1,-5.225822E-2,3.4088063E-1,-0E0,5.507911E-1,-9.037493E-2,5.5436486E-1,1.2088337E-1,6.120547E-1,7.252014E-1,2.784292E-1,-1.6157557E-1,8.729583E-1,-3.075633E-3],"split_indices":[3,6,3,7,38,33,33,3,25,41,3,25,36,100,3,8,93,45,107,0,95,13,25,8,0,25,33,41,3,25,0,0,0,0,0,0,0,0,0,0,0,0,0,0,0,0,0,0,0,0,0,0,0,0,0,0,0],"split_type":[0,0,0,0,0,0,0,0,0,0,0,0,0,0,0,0,0,0,0,0,0,0,0,0,0,0,0,0,0,0,0,0,0,0,0,0,0,0,0,0,0,0,0,0,0,0,0,0,0,0,0,0,0,0,0,0,0],"sum_hessian":[1.5317E4,1.0128E4,5.189E3,8.824E3,1.304E3,1.925E3,3.264E3,8.635E3,1.89E2,5.9E1,1.245E3,6.33E2,1.292E3,1.555E3,1.709E3,5.947E3,2.688E3,1.52E2,3.7E1,1.6E1,4.3E1,7.47E2,4.98E2,6.25E2,8E0,1.4E2,1.152E3,1.545E3,1E1,1.637E3,7.2E1,5.932E3,1.5E1,2.172E3,5.16E2,7.3E1,7.9E1,4E0,3.3E1,3.5E1,8E0,6.71E2,7.6E1,4.83E2,1.5E1,6.24E2,1E0,8.8E1,5.2E1,1.127E3,2.5E1,6.35E2,9.1E2,3E0,7E0,1.629E3,8E0],"tree_param":{"num_deleted":"0","num_feature":"110","num_nodes":"57","size_leaf_vector":"0"}},{"base_weights":[2.1229E0,6.559108E-1,5.212755E0,3.5228118E-1,1.8997021E0,3.1351073E0,6.480737E0,1.1809307E0,6.083671E-2,5.585029E-1,4.5744176E0,2.385762E0,4.140034E0,2.2270346E0,6.6624537E0,2.2249697E-1,2.4875681E0,-3.8377337E-2,2.500526E0,6.609568E0,2.197395E-2,3.215502E0,8.770173E0,1.11091584E-1,2.6645927E0,2.5054471E0,4.339336E0,6.2178564E-1,8.17776E0,5.8307586E0,7.576937E0,-2.1195163E-1,8.262632E-1,1.046991E0,4.353487E0,-5.6745205E-2,3.9163427E0,4.3808975E0,-0E0,1.1026554E0,7.5768404E0,4.27049E0,-6.720807E-2,4.7817826E0,9.685266E-1,1.0797999E1,4.1690607E0,-2.460493E-1,2.333683E0,2.037259E0,3.113127E0,-0E0,3.2160466E0,-0E0,4.34734E0,4.7821617E0,2.193537E-2,9.002113E0,-0E0,5.967667E0,4.0887094E0,7.440233E0,9.93344E0],"categories":[],"categories_nodes":[],"categories_segments":[],"categories_sizes":[],"default_left":[true,true,true,true,true,true,true,true,true,true,true,true,true,true,true,true,true,true,true,true,true,true,true,true,true,true,true,true,true,true,true,false,false,false,false,false,false,false,false,false,false,false,false,false,false,false,false,false,false,false,false,false,false,false,false,false,false,false,false,false,false,false,false],"id":9,"left_children":[1,3,5,7,9,11,13,15,17,19,21,23,25,27,29,31,33,35,37,39,41,43,45,47,49,51,53,55,57,59,61,-1,-1,-1,-1,-1,-1,-1,-1,-1,-1,-1,-1,-1,-1,-1,-1,-1,-1,-1,-1,-1,-1,-1,-1,-1,-1,-1,-1,-1,-1,-1,-1],"loss_changes":[6.937108E4,3.9006138E3,1.2868578E4,2.0062534E3,7.2355625E3,1.3353047E3,2.2592266E3,2.6848828E3,1.523984E3,4.339137E3,3.7062764E3,6.5756934E2,1.7902051E2,1.139179E3,2.0494531E3,3.3551154E2,2.3928936E3,3.937603E2,1.1487699E3,4.8545898E2,5.15555E2,1.746834E3,1.3261436E3,1.19085266E2,2.1199805E2,1.9600171E2,2.977246E1,2.113968E2,1.2510535E2,2.4328125E2,1.9885156E2,0E0,0E0,0E0,0E0,0E0,0E0,0E0,0E0,0E0,0E0,0E0,0E0,0E0,0E0,0E0,0E0,0E0,0E0,0E0,0E0,0E0,0E0,0E0,0E0,0E0,0E0,0E0,0E0,0E0,0E0,0E0,0E0],"parents":[2147483647,0,0,1,1,2,2,3,3,4,4,5,5,6,6,7,7,8,8,9,9,10,10,11,11,12,12,13,13,14,14,15,15,16,16,17,17,18,18,19,19,20,20,21,21,22,22,23,23,24,24,25,25,26,26,27,27,28,28,29,29,30,30],"right_children":[2,4,6,8,10,12,14,16,18,20,22,24,26,28,30,32,34,36,38,40,42,44,46,48,50,52,54,56,58,60,62,-1,-1,-1,-1,-1,-1,-1,-1,-1,-1,-1,-1,-1,-1,-1,-1,-1,-1,-1,-1,-1,-1,-1,-1,-1,-1,-1,-1,-1,-1,-1,-1],"split_conditions":[3.6375664E-2,1.05E1,7.5E0,5.5E0,2.55E1,6.5E0,-1.5601599E-1,6.5E0,1.4562497E-1,-2.4427723E1,1.05E1,6.997186E-1,8.5784316E-2,2.1111111E-1,1.35E1,-1.7589337E-1,2.7722165E-1,9.5E0,6.5E0,-3.1321001E1,9.5E0,3.45E1,6.877121E-2,6.5E0,1.75E1,2.2E1,4.5E0,-5.7178435E0,5.5E0,6.5E0,1.35E1,-2.1195164E-2,8.262632E-2,1.046991E-1,4.3534872E-1,-5.6745205E-3,3.916343E-1,4.3808976E-1,-0E0,1.10265546E-1,7.5768405E-1,4.27049E-1,-6.720807E-3,4.7817826E-1,9.685266E-2,1.0798E0,4.169061E-1,-2.460493E-2,2.333683E-1,2.0372592E-1,3.113127E-1,-0E0,3.2160467E-1,-0E0,4.3473402E-1,4.7821617E-1,2.193537E-3,9.0021133E-1,-0E0,5.967667E-1,4.0887094E-1,7.440233E-1,9.93344E-1],"split_indices":[14,98,98,15,19,98,104,98,106,109,65,104,14,14,98,104,104,90,48,109,90,19,102,93,19,0,20,109,19,93,90,0,0,0,0,0,0,0,0,0,0,0,0,0,0,0,0,0,0,0,0,0,0,0,0,0,0,0,0,0,0,0,0],"split_type":[0,0,0,0,0,0,0,0,0,0,0,0,0,0,0,0,0,0,0,0,0,0,0,0,0,0,0,0,0,0,0,0,0,0,0,0,0,0,0,0,0,0,0,0,0,0,0,0,0,0,0,0,0,0,0,0,0,0,0,0,0,0,0],"sum_hessian":[1.5317E4,1.0389E4,4.928E3,8.358E3,2.031E3,1.872E3,3.056E3,2.165E3,6.193E3,1.356E3,6.75E2,1.08E3,7.92E2,1.28E2,2.928E3,1.254E3,9.11E2,5.948E3,2.45E2,1.08E2,1.248E3,5.13E2,1.62E2,1.22E2,9.58E2,9.3E1,6.99E2,1.03E2,2.5E1,1.543E3,1.385E3,7.2E2,5.34E2,5.18E2,3.93E2,5.924E3,2.4E1,1.39E2,1.06E2,1.8E1,9E1,2.7E1,1.221E3,2.99E2,2.14E2,1.1E2,5.2E1,1.02E2,2E1,4.11E2,5.47E2,1.8E1,7.5E1,1E0,6.98E2,1E1,9.3E1,2.2E1,3E0,1.423E3,1.2E2,1.317E3,6.8E1],"tree_param":{"num_deleted":"0","num_feature":"110","num_nodes":"63","size_leaf_vector":"0"}}]},"name":"gbtree"},"learner_model_param":{"base_score":"5E-1","num_class":"0","num_feature":"110"},"objective":{"name":"reg:squarederror","reg_loss_param":{"scale_pos_weight":"1"}}},"version":[1,4,2]}
