{"learner":{"attributes":{},"feature_names":[" day"," trace 40 quant","competitiveness","empirical_distr_p","empirical_distr_q_0","empirical_distr_q_1","empirical_distr_q_10","empirical_distr_q_2","empirical_distr_q_3","empirical_distr_q_4","empirical_distr_q_5","empirical_distr_q_6","empirical_distr_q_7","empirical_distr_q_8","empirical_distr_q_9","my_layer_size","n_level","n_opp_level","opp_layer_size","trace 0 price","trace 0 quant","trace 1 price","trace 1 quant","trace 10 price","trace 10 quant","trace 11 price","trace 11 quant","trace 12 price","trace 12 quant","trace 13 price","trace 13 quant","trace 14 price","trace 14 quant","trace 15 price","trace 15 quant","trace 16 price","trace 16 quant","trace 17 price","trace 17 quant","trace 18 price","trace 18 quant","trace 19 price","trace 19 quant","trace 2 price","trace 2 quant","trace 20 price","trace 20 quant","trace 21 price","trace 21 quant","trace 22 price","trace 22 quant","trace 23 price","trace 23 quant","trace 24 price","trace 24 quant","trace 25 price","trace 25 quant","trace 26 price","trace 26 quant","trace 27 price","trace 27 quant","trace 28 price","trace 28 quant","trace 29 price","trace 29 quant","trace 3 price","trace 3 quant","trace 30 price","trace 30 quant","trace 31 price","trace 31 quant","trace 32 price","trace 32 quant","trace 33 price","trace 33 quant","trace 34 price","trace 34 quant","trace 35 price","trace 35 quant","trace 36 price","trace 36 quant","trace 37 price","trace 37 quant","trace 38 price","trace 38 quant","trace 39 price","trace 39 quant","trace 4 price","trace 4 quant","trace 40 price","trace 5 price","trace 5 quant","trace 6 price","trace 6 quant","trace 7 price","trace 7 quant","trace 8 price","trace 8 quant","trace 9 price","trace 9 quant","ufun_param_0","ufun_param_1","ufun_param_2","ufun_param_3","ufun_param_4","ufun_param_5","ufun_param_6","ufun_param_7","ufun_param_8","ufun_param_9"],"feature_types":["int","int","float","float","float","float","float","float","float","float","float","float","float","float","float","int","int","int","int","int","int","int","int","int","int","int","int","int","int","int","int","int","int","int","int","int","int","int","int","int","int","int","int","int","int","int","int","int","int","int","int","int","int","int","int","int","int","int","int","int","int","int","int","int","int","int","int","int","int","int","int","int","int","int","int","int","int","int","int","int","int","int","int","int","int","int","int","int","int","int","int","int","int","int","int","int","int","int","int","int","float","float","float","float","float","float","float","float","float","float"],"gradient_booster":{"model":{"gbtree_model_param":{"num_trees":"10","size_leaf_vector":"0"},"tree_info":[0,0,0,0,0,0,0,0,0,0],"trees":[{"base_weights":[3.450789E0,1.021159E0,1.4156428E1,6.677277E-1,9.897602E0,1.0680744E1,1.5978887E1,4.7497037E-1,1.3193477E1,6.575193E0,1.5319702E1,7.903738E0,1.7590492E1,1.8502838E1,1.4791493E1,3.511954E-1,1.3892634E1,1.5026389E1,5.775926E0,1.4694304E0,1.2606647E1,2.2401146E1,1.2815446E1,4.2737145E0,1.348549E1,2.3473684E1,1.5020401E1,1.4797115E1,1.8991632E1,1.3028514E1,1.9223368E1,2.7876195E-1,3.6799242E0,9.482422E0,1.5916667E1,1.22719145E1,1.7928162E1,-0E0,7.181193E0,1.29462E0,9.520833E0,5.986532E0,1.5336376E1,1.862069E0,2.4155764E1,1.3439958E1,2.1052632E0,1.428859E1,3.7686892E0,1.2245704E1,1.7641468E1,1.9171206E1,2.6363882E1,2.0211374E1,1.2529052E1,1.2621754E1,1.782629E1,1.8683004E1,2.3497942E1,1.201217E1,1.4892675E1,1.8438658E1,2.2508875E1],"categories":[],"categories_nodes":[],"categories_segments":[],"categories_sizes":[],"default_left":[true,true,true,true,true,true,true,true,true,true,true,true,true,true,true,true,true,true,true,true,true,true,true,true,true,true,true,true,true,true,true,false,false,false,false,false,false,false,false,false,false,false,false,false,false,false,false,false,false,false,false,false,false,false,false,false,false,false,false,false,false,false,false],"id":0,"left_children":[1,3,5,7,9,11,13,15,17,19,21,23,25,27,29,31,33,35,37,39,41,43,45,47,49,51,53,55,57,59,61,-1,-1,-1,-1,-1,-1,-1,-1,-1,-1,-1,-1,-1,-1,-1,-1,-1,-1,-1,-1,-1,-1,-1,-1,-1,-1,-1,-1,-1,-1,-1,-1],"loss_changes":[2.9552525E6,2.9041878E5,1.32684E5,2.1489584E5,6.35415E4,1.3841494E5,4.069975E4,1.4552884E5,1.8045812E4,6.762088E4,2.3212656E4,1.0437691E5,3.0591812E4,7.356375E3,7.2723625E4,2.091582E4,6.7451406E3,8.1102656E3,2.2346006E3,1.5600386E3,1.791064E4,1.2272172E4,6.4848125E3,1.5601441E4,9.9601875E3,6.8359688E3,1.8119781E4,2.8970938E3,4.541E3,1.2276375E4,6.0489375E3,0E0,0E0,0E0,0E0,0E0,0E0,0E0,0E0,0E0,0E0,0E0,0E0,0E0,0E0,0E0,0E0,0E0,0E0,0E0,0E0,0E0,0E0,0E0,0E0,0E0,0E0,0E0,0E0,0E0,0E0,0E0,0E0],"parents":[2147483647,0,0,1,1,2,2,3,3,4,4,5,5,6,6,7,7,8,8,9,9,10,10,11,11,12,12,13,13,14,14,15,15,16,16,17,17,18,18,19,19,20,20,21,21,22,22,23,23,24,24,25,25,26,26,27,27,28,28,29,29,30,30],"right_children":[2,4,6,8,10,12,14,16,18,20,22,24,26,28,30,32,34,36,38,40,42,44,46,48,50,52,54,56,58,60,62,-1,-1,-1,-1,-1,-1,-1,-1,-1,-1,-1,-1,-1,-1,-1,-1,-1,-1,-1,-1,-1,-1,-1,-1,-1,-1,-1,-1,-1,-1,-1,-1],"split_conditions":[4.5115333E-2,4.9691357E-2,1.4595038E-1,1.2793235E-1,4.1241497E-2,9.032634E-2,5.5E0,4.2261904E-1,8.727246E-4,1.4550266E-1,5.0641026E-2,4.2481202E-1,5.1956818E-2,8.5E0,3.05E1,5.390875E-2,6.602564E-1,3.15E1,8.937644E-4,3.0384618E-1,-1.857222E-4,-1.9909532E-4,7.5E0,2.5E0,2.45E1,5E-1,5.5E0,2.1111111E-1,8.4699E-1,2.25E1,3.95E1,2.7876196E-2,3.6799243E-1,9.482422E-1,1.5916667E0,1.2271914E0,1.7928162E0,-0E0,7.181193E-1,1.29462E-1,9.520833E-1,5.9865326E-1,1.5336376E0,1.862069E-1,2.4155765E0,1.3439958E0,2.1052633E-1,1.4288591E0,3.7686893E-1,1.2245704E0,1.7641468E0,1.9171206E0,2.6363883E0,2.0211375E0,1.2529052E0,1.2621754E0,1.782629E0,1.8683004E0,2.3497941E0,1.201217E0,1.4892676E0,1.8438658E0,2.2508876E0],"split_indices":[14,12,14,8,8,12,19,6,100,12,8,6,14,0,19,7,6,0,100,6,100,100,2,22,19,2,19,6,14,19,19,0,0,0,0,0,0,0,0,0,0,0,0,0,0,0,0,0,0,0,0,0,0,0,0,0,0,0,0,0,0,0,0],"split_type":[0,0,0,0,0,0,0,0,0,0,0,0,0,0,0,0,0,0,0,0,0,0,0,0,0,0,0,0,0,0,0,0,0,0,0,0,0,0,0,0,0,0,0,0,0,0,0,0,0,0,0,0,0,0,0,0,0,0,0,0,0,0,0],"sum_hessian":[1.13622E5,9.2607E4,2.1015E4,8.9063E4,3.544E3,7.233E3,1.3782E4,8.7715E4,1.348E3,2.2E3,1.344E3,5.162E3,2.071E3,4.402E3,9.38E3,8.6915E4,8E2,1.079E3,2.69E2,1.193E3,1.007E3,3.48E2,9.96E2,3.13E3,2.032E3,6.26E2,1.445E3,5.19E2,3.883E3,6.715E3,2.665E3,8.5068E4,1.847E3,2.55E2,5.45E2,5.58E2,5.21E2,5.2E1,2.17E2,1.17E3,2.3E1,2.96E2,7.11E2,2.8E1,3.2E2,9.4E2,5.6E1,1.48E2,2.982E3,1.57E3,4.62E2,2.56E2,3.7E2,4.65E2,9.8E2,3.07E2,2.12E2,3.641E3,2.42E2,4.354E3,2.361E3,2.159E3,5.06E2],"tree_param":{"num_deleted":"0","num_feature":"110","num_nodes":"63","size_leaf_vector":"0"}},{"base_weights":[3.106327E0,2.408514E0,1.2221018E1,1.6371089E0,8.360457E0,8.58269E0,1.4492059E1,6.588223E-1,4.381775E0,6.9046617E0,1.4462546E1,4.819497E0,1.2333932E1,1.2942073E1,1.9157312E1,5.3620064E-1,4.2825356E0,3.608492E0,6.710273E0,3.0192924E0,8.007735E0,1.3255616E1,1.7626919E1,6.6420093E0,2.360582E-1,7.084255E0,1.5499714E1,1.141998E1,1.6094172E1,3.0303337E1,1.8340748E1,4.2028517E-1,3.0210793E0,2.9840755E0,1.481801E1,3.1177604E0,9.547312E0,8.4116955E0,3.9927416E0,2.8368952E0,1.2895713E1,6.282222E0,9.44791E0,8.179503E0,1.3552736E1,8.70037E0,1.8288948E1,1.9386396E0,7.986789E0,6.3912406E0,-4.133549E-1,3.0075176E0,9.012843E0,1.2272743E1,1.8602201E1,1.2196345E1,2.1836245E0,1.8782305E1,1.4964883E1,1.2654873E1,1.930582E1],"categories":[],"categories_nodes":[],"categories_segments":[],"categories_sizes":[],"default_left":[true,true,true,true,true,true,true,true,true,true,true,true,true,true,true,true,true,true,true,true,true,true,true,true,true,true,true,true,true,false,true,false,false,false,false,false,false,false,false,false,false,false,false,false,false,false,false,false,false,false,false,false,false,false,false,false,false,false,false,false,false],"id":1,"left_children":[1,3,5,7,9,11,13,15,17,19,21,23,25,27,29,31,33,35,37,39,41,43,45,47,49,51,53,55,57,-1,59,-1,-1,-1,-1,-1,-1,-1,-1,-1,-1,-1,-1,-1,-1,-1,-1,-1,-1,-1,-1,-1,-1,-1,-1,-1,-1,-1,-1,-1,-1],"loss_changes":[7.225065E5,4.8448138E5,6.6399875E4,2.5083431E5,1.07246625E5,4.365767E4,3.537675E4,3.0560043E4,4.407703E4,4.1776875E4,8.3561875E3,1.2919145E4,2.5507422E4,1.7465625E4,1.0207156E4,1.9158455E4,3.0584883E4,5.3569938E4,2.812075E4,3.7079863E3,1.8704469E4,2.22525E3,3.3413438E3,6.912336E3,1.8411996E3,4.475748E3,9.154219E3,1.7935781E4,3.0606875E3,0E0,5.7739062E3,0E0,0E0,0E0,0E0,0E0,0E0,0E0,0E0,0E0,0E0,0E0,0E0,0E0,0E0,0E0,0E0,0E0,0E0,0E0,0E0,0E0,0E0,0E0,0E0,0E0,0E0,0E0,0E0,0E0,0E0],"parents":[2147483647,0,0,1,1,2,2,3,3,4,4,5,5,6,6,7,7,8,8,9,9,10,10,11,11,12,12,13,13,14,14,15,15,16,16,17,17,18,18,19,19,20,20,21,21,22,22,23,23,24,24,25,25,26,26,27,27,28,28,30,30],"right_children":[2,4,6,8,10,12,14,16,18,20,22,24,26,28,30,32,34,36,38,40,42,44,46,48,50,52,54,56,58,-1,60,-1,-1,-1,-1,-1,-1,-1,-1,-1,-1,-1,-1,-1,-1,-1,-1,-1,-1,-1,-1,-1,-1,-1,-1,-1,-1,-1,-1,-1,-1],"split_conditions":[4.7905907E-2,9.07882E-1,9.245014E-2,1.645583E1,8.5E0,6.5E0,3.7006866E1,8.150819E-1,3.642102E1,6.5E0,1.15E1,9.039837E-2,7.5E0,1.8350169E-1,3.714856E1,5E-3,8.5E0,1.36060715E-2,8.5E0,1.8333334E-1,-7.043868E0,5.5E0,2.5E0,-8.402831E0,9.5E0,6.1649805E-1,9.259259E-3,1.8079674E-1,3.5E0,3.0303338E0,4.5E0,4.2028517E-2,3.0210793E-1,2.9840755E-1,1.481801E0,3.1177604E-1,9.5473117E-1,8.4116954E-1,3.9927417E-1,2.8368953E-1,1.2895713E0,6.2822217E-1,9.44791E-1,8.1795037E-1,1.3552736E0,8.70037E-1,1.8288949E0,1.9386397E-1,7.9867893E-1,6.391241E-1,-4.133549E-2,3.0075178E-1,9.0128434E-1,1.2272743E0,1.8602202E0,1.2196345E0,2.1836245E-1,1.8782305E0,1.4964883E0,1.2654873E0,1.930582E0],"split_indices":[10,104,10,108,21,66,108,104,108,66,21,10,21,10,108,10,21,10,66,8,108,66,66,108,21,104,8,10,66,0,66,0,0,0,0,0,0,0,0,0,0,0,0,0,0,0,0,0,0,0,0,0,0,0,0,0,0,0,0,0,0],"split_type":[0,0,0,0,0,0,0,0,0,0,0,0,0,0,0,0,0,0,0,0,0,0,0,0,0,0,0,0,0,0,0,0,0,0,0,0,0,0,0,0,0,0,0,0,0,0,0,0,0,0,0,0,0,0,0,0,0,0,0,0,0],"sum_hessian":[1.13622E5,1.05544E5,8.078E3,9.3437E4,1.2107E4,3.108E3,4.97E3,6.8888E4,2.4549E4,9.778E3,2.329E3,1.554E3,1.554E3,3.735E3,1.235E3,6.6637E4,2.251E3,1.8434E4,6.115E3,2.165E3,7.613E3,1.692E3,6.37E2,1.11E3,4.44E2,5.87E2,9.67E2,2.524E3,1.211E3,8.1E1,1.154E3,6.3672E4,2.965E3,2.006E3,2.45E2,1.703E4,1.404E3,3.757E3,2.358E3,2.128E3,3.7E1,3.469E3,4.144E3,9.7E1,1.595E3,4.6E1,5.91E2,2.49E2,8.61E2,4.3E1,4.01E2,1.91E2,3.96E2,4.78E2,4.89E2,2.327E3,1.97E2,3.51E2,8.6E2,1.71E2,9.83E2],"tree_param":{"num_deleted":"0","num_feature":"110","num_nodes":"61","size_leaf_vector":"0"}},{"base_weights":[2.7962012E0,1.4095037E-1,1.3984268E1,-2.4619551E-1,2.747763E0,1.1488302E1,1.8757431E1,3.9323893E-1,-6.227095E-1,1.6804403E1,2.4469466E0,8.847934E0,1.3272836E1,1.7702232E1,2.1949097E1,2.7039948E-1,1.1789383E1,-6.3846695E-1,1.3457236E0,1.8953309E0,2.9399471E1,4.030208E0,1.2002107E0,8.650636E0,1.903339E1,1.3526533E1,4.9475434E-1,1.6274149E1,1.8329138E1,2.0806805E1,2.4180134E1,-3.775051E-1,5.321987E-1,-4.825744E-1,2.4364536E1,-6.67273E-1,-0E0,-9.443374E-1,2.1385382E1,6.0104454E-1,6.6115613E0,2.9512022E1,2.2150478E0,9.689094E0,3.8235903E0,6.283249E-1,2.6925228E0,8.361932E0,1.3983035E1,-0E0,2.3853132E1,1.1943036E1,1.4514339E1,1.325159E1,-4.1974744E-1,1.6306168E1,-0E0,1.8020271E1,2.2376778E1,2.082583E1,-0E0],"categories":[],"categories_nodes":[],"categories_segments":[],"categories_sizes":[],"default_left":[true,true,true,true,true,true,true,true,true,true,true,true,true,true,true,true,true,true,true,true,true,true,true,true,true,true,true,true,true,true,false,false,false,false,false,false,false,false,false,false,false,false,false,false,false,false,false,false,false,false,false,false,false,false,false,false,false,false,false,false,false],"id":2,"left_children":[1,3,5,7,9,11,13,15,17,19,21,23,25,27,29,31,33,35,37,39,41,43,45,47,49,51,53,55,57,59,-1,-1,-1,-1,-1,-1,-1,-1,-1,-1,-1,-1,-1,-1,-1,-1,-1,-1,-1,-1,-1,-1,-1,-1,-1,-1,-1,-1,-1,-1,-1],"loss_changes":[3.3752692E6,9.270308E4,2.591165E5,1.9251947E4,4.9992094E4,6.7106375E4,2.44065E4,4.1343938E4,1.5549844E3,4.620096E4,2.290139E4,1.11698125E4,2.7528E4,4.39525E3,3.766875E3,4.972998E3,4.886192E4,9.250781E2,1.835196E4,6.258777E2,2.7351562E1,5.814258E3,5.5226504E3,8.3900625E3,9.806426E3,1.26545E4,2.093794E3,1.00809375E3,4.06725E3,5.445E2,0E0,0E0,0E0,0E0,0E0,0E0,0E0,0E0,0E0,0E0,0E0,0E0,0E0,0E0,0E0,0E0,0E0,0E0,0E0,0E0,0E0,0E0,0E0,0E0,0E0,0E0,0E0,0E0,0E0,0E0,0E0],"parents":[2147483647,0,0,1,1,2,2,3,3,4,4,5,5,6,6,7,7,8,8,9,9,10,10,11,11,12,12,13,13,14,14,15,15,16,16,17,17,18,18,19,19,20,20,21,21,22,22,23,23,24,24,25,25,26,26,27,27,28,28,29,29],"right_children":[2,4,6,8,10,12,14,16,18,20,22,24,26,28,30,32,34,36,38,40,42,44,46,48,50,52,54,56,58,60,-1,-1,-1,-1,-1,-1,-1,-1,-1,-1,-1,-1,-1,-1,-1,-1,-1,-1,-1,-1,-1,-1,-1,-1,-1,-1,-1,-1,-1,-1,-1],"split_conditions":[7.767949E0,2.8657656E0,1.7786041E1,9.5480084E-1,-3.6817685E-1,1.3024405E1,2.2496155E1,4.601734E1,1.5659407E-2,-3.695347E-1,7.1767E-1,4.05E1,1.7770979E1,1.894936E1,2.428869E1,2.4845678E-2,2.7863778E-2,3.2086477E-2,9.8138666E-1,4.726891E-2,6.359375E0,2.893797E0,1.719212E-1,3.7011668E-1,8.571429E-2,1.5411011E1,2.4242425E-1,5.833334E-1,2.0714286E-1,2.4267857E1,2.4180133E0,-3.775051E-2,5.3219873E-2,-4.825744E-2,2.4364536E0,-6.67273E-2,-0E0,-9.443375E-2,2.1385381E0,6.0104456E-2,6.611561E-1,2.9512022E0,2.215048E-1,9.689094E-1,3.8235903E-1,6.28325E-2,2.6925227E-1,8.361932E-1,1.3983035E0,-0E0,2.3853133E0,1.1943036E0,1.451434E0,1.325159E0,-4.1974746E-2,1.6306168E0,-0E0,1.8020271E0,2.2376778E0,2.0825832E0,-0E0],"split_indices":[3,3,3,4,106,3,3,108,10,106,4,19,3,3,3,5,11,5,4,13,3,3,5,5,11,3,4,10,4,3,0,0,0,0,0,0,0,0,0,0,0,0,0,0,0,0,0,0,0,0,0,0,0,0,0,0,0,0,0,0,0],"split_type":[0,0,0,0,0,0,0,0,0,0,0,0,0,0,0,0,0,0,0,0,0,0,0,0,0,0,0,0,0,0,0,0,0,0,0,0,0,0,0,0,0,0,0,0,0,0,0,0,0,0,0,0,0,0,0,0,0,0,0,0,0],"sum_hessian":[1.13622E5,9.183E4,2.1792E4,7.9953E4,1.1877E4,1.4313E4,7.479E3,2.9621E4,5.0332E4,2.47E2,1.163E4,5.777E3,8.536E3,5.628E3,1.851E3,2.9307E4,3.14E2,4.9938E4,3.94E2,1.14E2,1.33E2,5.119E3,6.511E3,5.67E3,1.07E2,8.369E3,1.67E2,1.73E3,3.898E3,1.234E3,6.17E2,8.423E3,2.0884E4,1.59E2,1.55E2,4.7797E4,2.141E3,3.54E2,4E1,9.2E1,2.2E1,1.32E2,1E0,1.77E2,4.942E3,4.713E3,1.798E3,5.383E3,2.87E2,2.2E1,8.5E1,3.224E3,5.145E3,1.1E1,1.56E2,1.727E3,3E0,3.629E3,2.69E2,1.233E3,1E0],"tree_param":{"num_deleted":"0","num_feature":"110","num_nodes":"61","size_leaf_vector":"0"}},{"base_weights":[2.5169785E0,1.270399E-1,1.25870905E1,-2.1994445E-1,2.486529E0,1.0348417E1,1.6899607E1,-4.945756E-1,5.092656E-1,1.7890823E0,3.8177843E0,8.160499E0,1.2100537E1,1.594863E1,1.9757011E1,-6.1178935E-1,-1.1070828E-1,3.622402E-1,1.0173608E1,2.7479508E0,1.1607695E0,3.0955365E0,5.7698255E0,8.002802E0,1.7514399E1,1.2343252E1,2.7583103E0,1.4670719E1,1.6497517E1,1.8727594E1,2.1766033E1,-5.357579E-1,-8.3654666E-1,-2.3556043E-1,7.0788395E-1,1.5242633E-1,9.0287405E-1,2.6723684E1,4.8417625E0,1.3972346E0,5.1794415E0,4.7540083E0,9.1747564E-1,2.6197958E0,4.7194123E0,3.3588445E0,1.3124302E1,5.604291E0,8.605414E0,1.4957626E-1,2.2049477E1,1.0926642E1,1.306779E1,-2.7864482E-3,1.3025998E1,-0E0,1.4681766E1,1.8936277E1,1.617893E1,1.8744934E1,-0E0],"categories":[],"categories_nodes":[],"categories_segments":[],"categories_sizes":[],"default_left":[true,true,true,true,true,true,true,true,true,true,true,true,true,true,true,true,true,true,true,true,true,true,true,true,true,true,true,true,true,true,false,false,false,false,false,false,false,false,false,false,false,false,false,false,false,false,false,false,false,false,false,false,false,false,false,false,false,false,false,false,false],"id":3,"left_children":[1,3,5,7,9,11,13,15,17,19,21,23,25,27,29,31,33,35,37,39,41,43,45,47,49,51,53,55,57,59,-1,-1,-1,-1,-1,-1,-1,-1,-1,-1,-1,-1,-1,-1,-1,-1,-1,-1,-1,-1,-1,-1,-1,-1,-1,-1,-1,-1,-1,-1,-1],"loss_changes":[2.7344302E6,7.520579E4,2.09949E5,1.6032223E4,1.0871805E4,5.4709375E4,1.955575E4,2.6097686E3,3.099738E4,4.617824E3,5.593535E3,9.026E3,1.7873375E4,3.369375E3,3.0175625E3,7.469219E2,1.3881637E3,2.435594E3,2.8410234E4,9.960395E3,4.0311133E3,2.1986562E3,1.9065227E4,8.892406E3,7.964801E3,7.583E3,5.913685E3,3.34E2,2.37175E3,4.511875E2,0E0,0E0,0E0,0E0,0E0,0E0,0E0,0E0,0E0,0E0,0E0,0E0,0E0,0E0,0E0,0E0,0E0,0E0,0E0,0E0,0E0,0E0,0E0,0E0,0E0,0E0,0E0,0E0,0E0,0E0,0E0],"parents":[2147483647,0,0,1,1,2,2,3,3,4,4,5,5,6,6,7,7,8,8,9,9,10,10,11,11,12,12,13,13,14,14,15,15,16,16,17,17,18,18,19,19,20,20,21,21,22,22,23,23,24,24,25,25,26,26,27,27,28,28,29,29],"right_children":[2,4,6,8,10,12,14,16,18,20,22,24,26,28,30,32,34,36,38,40,42,44,46,48,50,52,54,56,58,60,-1,-1,-1,-1,-1,-1,-1,-1,-1,-1,-1,-1,-1,-1,-1,-1,-1,-1,-1,-1,-1,-1,-1,-1,-1,-1,-1,-1,-1,-1,-1],"split_conditions":[7.767949E0,2.8900967E0,1.7836666E1,8.164966E-1,4.977261E0,1.3541677E1,2.2496155E1,3.2742947E-1,4.601734E1,5.5E0,1.0808481E1,3.95E1,1.7770979E1,1.894936E1,2.428869E1,1.6456724E1,3.35E1,2.0277991E0,4.604721E1,5.01443E0,2.893797E0,2.408625E-1,3.05E1,9.183932E0,1.85E1,1.5424765E1,1.7775253E1,5.5E0,9.5E0,2.4267857E1,2.1766033E0,-5.357579E-2,-8.3654664E-2,-2.3556044E-2,7.07884E-2,1.5242633E-2,9.028741E-2,2.6723685E0,4.8417625E-1,1.3972346E-1,5.1794416E-1,4.7540084E-1,9.174757E-2,2.6197958E-1,4.7194123E-1,3.3588445E-1,1.3124303E0,5.604291E-1,8.6054146E-1,1.4957626E-2,2.2049477E0,1.0926642E0,1.306779E0,-2.7864482E-4,1.3025998E0,-0E0,1.4681766E0,1.8936278E0,1.6178931E0,1.8744935E0,-0E0],"split_indices":[3,3,3,3,3,3,3,3,108,15,108,43,3,3,3,108,43,3,108,108,3,105,0,3,0,3,3,43,43,3,0,0,0,0,0,0,0,0,0,0,0,0,0,0,0,0,0,0,0,0,0,0,0,0,0,0,0,0,0,0,0],"split_type":[0,0,0,0,0,0,0,0,0,0,0,0,0,0,0,0,0,0,0,0,0,0,0,0,0,0,0,0,0,0,0,0,0,0,0,0,0,0,0,0,0,0,0,0,0,0,0,0,0,0,0,0,0,0,0,0,0,0,0,0,0],"sum_hessian":[1.13622E5,9.183E4,2.1792E4,8.0054E4,1.1776E4,1.4349E4,7.443E3,5.8163E4,2.1891E4,7.734E3,4.042E3,6.386E3,7.963E3,5.592E3,1.851E3,4.4537E4,1.3626E4,2.1565E4,3.26E2,3.054E3,4.68E3,2.956E3,1.086E3,6.283E3,1.03E2,7.76E3,2.03E2,1.694E3,3.898E3,1.234E3,6.17E2,3.3315E4,1.1222E4,1.1834E4,1.792E3,1.555E4,6.015E3,7.8E1,2.48E2,1.967E3,1.087E3,2.93E2,4.387E3,2.293E3,6.63E2,8.2E2,2.66E2,1.267E3,5.016E3,2.2E1,8.1E1,2.636E3,5.124E3,1.6E2,4.3E1,1E0,1.693E3,4.4E2,3.458E3,1.233E3,1E0],"tree_param":{"num_deleted":"0","num_feature":"110","num_nodes":"61","size_leaf_vector":"0"}},{"base_weights":[2.2656546E0,1.1194866E-1,1.131926E1,2.0945637E0,-2.3658332E-1,9.302257E0,1.5207009E1,1.293267E1,1.9731432E0,-3.8759357E-1,6.584721E-1,7.1449156E0,1.0766198E1,1.4350906E1,1.7783894E1,1.4373441E0,2.6795532E1,1.8091768E0,5.5436244E0,-5.5063593E-1,-6.1013013E-2,4.9230167E-1,2.3182384E1,6.9845514E0,1.579392E1,1.0967592E1,1.9245712E0,1.3880283E1,1.5719478E1,1.6856136E1,1.959295E1,5.761338E-1,8.296824E0,9.037953E-1,2.2442472E0,1.1208757E1,4.392966E0,-5.339084E-1,-8.351695E-1,-9.680367E-2,8.45806E0,6.9135146E0,3.8508645E-1,2.4085144E1,-0E0,4.9387507E0,7.5197134E0,-2.8171915E-1,1.9743855E1,9.680315E0,1.1745375E1,1.2491801E1,-2.7049387E-1,1.3297104E1,1.5001422E1,1.2314768E1,1.6239607E1,1.687196E1,-0E0],"categories":[],"categories_nodes":[],"categories_segments":[],"categories_sizes":[],"default_left":[true,true,true,true,true,true,true,true,true,true,true,true,true,true,true,true,false,true,true,true,true,true,true,true,true,true,true,true,true,true,false,false,false,false,false,false,false,false,false,false,false,false,false,false,false,false,false,false,false,false,false,false,false,false,false,false,false,false,false],"id":4,"left_children":[1,3,5,7,9,11,13,15,17,19,21,23,25,27,29,31,-1,33,35,37,39,41,43,45,47,49,51,53,55,57,-1,-1,-1,-1,-1,-1,-1,-1,-1,-1,-1,-1,-1,-1,-1,-1,-1,-1,-1,-1,-1,-1,-1,-1,-1,-1,-1,-1,-1],"loss_changes":[2.2153968E6,6.3446402E4,1.70827E5,1.7891047E4,1.0548738E4,4.515925E4,1.586975E4,2.3742232E4,7.8655312E3,3.5509268E3,4.189586E4,7.7328125E3,1.5095875E4,3.09525E3,2.4135625E3,4.0271655E2,0E0,5.0817383E3,3.660293E3,1.9784375E2,6.706488E3,7.6205537E3,1.7587578E3,6.0963438E3,6.8039453E3,8.05225E3,4.602373E3,2.253125E3,2.0309062E3,3.7453125E2,0E0,0E0,0E0,0E0,0E0,0E0,0E0,0E0,0E0,0E0,0E0,0E0,0E0,0E0,0E0,0E0,0E0,0E0,0E0,0E0,0E0,0E0,0E0,0E0,0E0,0E0,0E0,0E0,0E0],"parents":[2147483647,0,0,1,1,2,2,3,3,4,4,5,5,6,6,7,7,8,8,9,9,10,10,11,11,12,12,13,13,14,14,15,15,17,17,18,18,19,19,20,20,21,21,22,22,23,23,24,24,25,25,26,26,27,27,28,28,29,29],"right_children":[2,4,6,8,10,12,14,16,18,20,22,24,26,28,30,32,-1,34,36,38,40,42,44,46,48,50,52,54,56,58,-1,-1,-1,-1,-1,-1,-1,-1,-1,-1,-1,-1,-1,-1,-1,-1,-1,-1,-1,-1,-1,-1,-1,-1,-1,-1,-1,-1,-1],"split_conditions":[7.708995E0,8.1284344E-1,1.7808609E1,-3.67868E-1,1.4021276E0,1.3024405E1,2.2496155E1,-3.695347E-1,7.150758E0,3.2742947E-1,9.534632E-1,3.95E1,1.7770979E1,7.229965E-2,2.428869E1,7.417583E-2,2.6795533E0,2.6783662E0,5.5E0,1.4252576E-1,9.8346996E-1,1.4127789E0,1.4219368E0,8.988636E0,8.571429E-2,1.5355501E1,2.590909E-1,2.0815342E1,1.803125E1,2.4267857E1,1.9592952E0,5.761338E-2,8.2968247E-1,9.037953E-2,2.2442472E-1,1.1208757E0,4.3929657E-1,-5.3390842E-2,-8.351695E-2,-9.680367E-3,8.4580606E-1,6.913515E-1,3.8508646E-2,2.4085145E0,-0E0,4.938751E-1,7.5197136E-1,-2.8171916E-2,1.9743855E0,9.680315E-1,1.1745375E0,1.2491802E0,-2.7049387E-2,1.3297104E0,1.5001422E0,1.2314768E0,1.6239607E0,1.687196E0,-0E0],"split_indices":[3,4,3,106,3,3,3,106,3,3,4,43,3,4,3,11,0,3,43,106,4,3,3,3,11,3,4,3,3,3,0,0,0,0,0,0,0,0,0,0,0,0,0,0,0,0,0,0,0,0,0,0,0,0,0,0,0,0,0],"split_type":[0,0,0,0,0,0,0,0,0,0,0,0,0,0,0,0,0,0,0,0,0,0,0,0,0,0,0,0,0,0,0,0,0,0,0,0,0,0,0,0,0,0,0,0,0,0,0,0,0,0,0,0,0,0,0,0,0,0,0],"sum_hessian":[1.13622E5,9.1789E4,2.1833E4,1.3727E4,7.8062E4,1.4379E4,7.454E3,1.5E2,1.3577E4,6.6803E4,1.1259E4,5.818E3,8.561E3,5.603E3,1.851E3,8.3E1,6.7E1,1.2985E4,5.92E2,4.4537E4,2.2266E4,1.1178E4,8.1E1,5.715E3,1.03E2,8.369E3,1.92E2,4.183E3,1.42E3,1.234E3,6.17E2,7.6E1,7E0,4.223E3,8.762E3,9.7E1,4.95E2,4.21E4,2.437E3,2.2175E4,9.1E1,1.81E2,1.0997E4,7.8E1,3E0,1.191E3,4.524E3,2E1,8.3E1,3.162E3,5.207E3,3.3E1,1.59E2,2.766E3,1.417E3,1.94E2,1.226E3,1.233E3,1E0],"tree_param":{"num_deleted":"0","num_feature":"110","num_nodes":"59","size_leaf_vector":"0"}},{"base_weights":[2.0394564E0,1.00929216E-1,1.0188461E1,1.8859409E0,-2.1285248E-1,8.366578E0,1.3677199E1,1.7754453E0,2.0827436E1,2.3363036E-1,-4.5903695E-1,6.431144E0,9.68474E0,1.2763492E1,1.5651321E1,2.4883308E0,1.0575855E0,-0E0,2.3978167E1,1.3872145E-1,2.6620903E0,-4.723524E-1,1.2002509E0,6.5459E0,2.678424E-1,9.871208E0,-7.3357127E-3,1.24921665E1,1.5712383E1,1.4933034E1,1.7636826E1,2.28704E0,8.379646E0,9.042913E-1,3.7818105E0,-0E0,-5.1320523E-1,-0E0,2.4360107E1,-4.1645862E-2,5.485176E-1,1.0849868E0,2.1429054E1,-1.7979796E-1,-5.003956E-1,-7.725917E-1,1.8496809E1,6.273022E0,8.682603E0,-1.1930288E0,2.9637513E0,9.46924E0,1.2299197E1,8.781612E0,-3.5088608E-1,1.177442E1,1.2949127E1,1.602004E1,6.221658E0,1.4400372E1,1.628881E1],"categories":[],"categories_nodes":[],"categories_segments":[],"categories_sizes":[],"default_left":[true,true,true,true,true,true,true,true,true,true,true,true,true,true,true,true,true,true,true,true,true,true,true,true,true,true,true,true,true,true,false,false,false,false,false,false,false,false,false,false,false,false,false,false,false,false,false,false,false,false,false,false,false,false,false,false,false,false,false,false,false],"id":5,"left_children":[1,3,5,7,9,11,13,15,17,19,21,23,25,27,29,31,33,35,37,39,41,43,45,47,49,51,53,55,57,59,-1,-1,-1,-1,-1,-1,-1,-1,-1,-1,-1,-1,-1,-1,-1,-1,-1,-1,-1,-1,-1,-1,-1,-1,-1,-1,-1,-1,-1,-1,-1],"loss_changes":[1.7948062E6,5.142908E4,1.384435E5,2.8469027E4,8.582823E3,3.6381438E4,1.3020875E4,6.947324E3,5.4029297E3,6.363132E3,1.1053525E3,4.0457188E3,1.5514625E4,3.6238125E3,2.7780625E3,7.9866914E3,2.7936294E3,2.6337962E0,6.804883E2,1.9780734E3,3.0503355E4,4.028164E2,1.3670269E4,3.1258281E3,4.5052603E2,7.8348125E3,4.0490497E2,1.1428125E3,9.188594E2,7.1803125E2,0E0,0E0,0E0,0E0,0E0,0E0,0E0,0E0,0E0,0E0,0E0,0E0,0E0,0E0,0E0,0E0,0E0,0E0,0E0,0E0,0E0,0E0,0E0,0E0,0E0,0E0,0E0,0E0,0E0,0E0,0E0],"parents":[2147483647,0,0,1,1,2,2,3,3,4,4,5,5,6,6,7,7,8,8,9,9,10,10,11,11,12,12,13,13,14,14,15,15,16,16,17,17,18,18,19,19,20,20,21,21,22,22,23,23,24,24,25,25,26,26,27,27,28,28,29,29],"right_children":[2,4,6,8,10,12,14,16,18,20,22,24,26,28,30,32,34,36,38,40,42,44,46,48,50,52,54,56,58,60,-1,-1,-1,-1,-1,-1,-1,-1,-1,-1,-1,-1,-1,-1,-1,-1,-1,-1,-1,-1,-1,-1,-1,-1,-1,-1,-1,-1,-1,-1,-1],"split_conditions":[7.708995E0,8.1284344E-1,1.7775253E1,4.95E1,9.5480084E-1,1.3024405E1,2.180909E1,7.168239E-1,8.047619E-1,4.35E1,1.5659407E-2,3.95E1,1.7770979E1,3.85E1,2.428869E1,3.75E1,3.95E1,7.7350426E-1,4.470238E0,2.15E1,9.534632E-1,9.679135E-1,9.8138666E-1,5.6556374E-1,4.15E1,7.5046904E-2,2.0454545E-1,1.9131884E1,3.4313726E-1,1.21951215E-2,1.7636826E0,2.28704E-1,8.3796465E-1,9.042913E-2,3.7818107E-1,-0E0,-5.1320523E-2,-0E0,2.4360108E0,-4.1645863E-3,5.485176E-2,1.08498685E-1,2.1429055E0,-1.7979797E-2,-5.003956E-2,-7.7259175E-2,1.8496809E0,6.273022E-1,8.682603E-1,-1.19302884E-1,2.9637513E-1,9.4692403E-1,1.2299198E0,8.7816125E-1,-3.508861E-2,1.177442E0,1.2949127E0,1.602004E0,6.2216586E-1,1.4400371E0,1.6288811E0],"split_indices":[3,4,3,65,4,3,3,4,4,65,10,65,3,65,3,65,65,4,3,65,4,4,4,4,65,9,4,3,9,9,0,0,0,0,0,0,0,0,0,0,0,0,0,0,0,0,0,0,0,0,0,0,0,0,0,0,0,0,0,0,0],"split_type":[0,0,0,0,0,0,0,0,0,0,0,0,0,0,0,0,0,0,0,0,0,0,0,0,0,0,0,0,0,0,0,0,0,0,0,0,0,0,0,0,0,0,0,0,0,0,0,0,0,0,0,0,0,0,0,0,0,0,0,0,0],"sum_hessian":[1.13622E5,9.1789E4,2.1833E4,1.3727E4,7.8062E4,1.4347E4,7.486E3,1.3649E4,7.8E1,2.773E4,5.0332E4,5.818E3,8.529E3,5.126E3,2.36E3,6.84E3,6.809E3,1E1,6.8E1,2.6692E4,1.038E3,4.9938E4,3.94E2,5.71E3,1.08E2,8.369E3,1.6E2,4.702E3,4.24E2,1.743E3,6.17E2,6.617E3,2.23E2,6.451E3,3.58E2,1E0,9E0,1E0,6.7E1,1.8518E4,8.174E3,9.59E2,7.9E1,4.4E3,4.5538E4,3.54E2,4E1,5.071E3,6.39E2,6.8E1,4E1,7.188E3,1.181E3,4E0,1.56E2,1.848E3,2.854E3,4.09E2,1.5E1,1.265E3,4.78E2],"tree_param":{"num_deleted":"0","num_feature":"110","num_nodes":"61","size_leaf_vector":"0"}},{"base_weights":[1.8358324E0,8.84005E0,1.2432432E-1,7.746494E0,1.1887922E1,1.9856414E0,-1.9150311E-1,8.103055E0,3.7866573E0,1.1740497E1,2.2059454E1,1.8835917E0,1.9520132E1,2.103864E-1,-4.1311926E-1,4.2067056E0,8.332139E0,4.6672873E0,1.7787051E0,1.2130056E1,7.616398E0,-0E0,2.2381113E1,3.753263E0,1.23425E0,-0E0,2.1612764E1,1.5826456E-1,7.2633743E0,-2.3174362E-1,-4.6601933E-1,5.0828643E0,-6.916029E0,7.4867024E0,9.113477E0,-1.5100774E-1,5.169442E0,1.4598404E0,6.562479E0,1.1636322E1,1.4832933E1,3.8539815E0,1.0853718E1,2.469392E0,7.1487246E0,1.0028183E0,2.4738073E0,-0E0,-7.7305078E-3,2.195992E1,-0E0,1.1403773E-1,5.0626063E0,2.3684826E1,-8.064833E-1,-2.930541E-1,5.735862E-1,-6.7832273E-1,-4.439411E-1],"categories":[],"categories_nodes":[],"categories_segments":[],"categories_sizes":[],"default_left":[true,true,true,true,true,true,true,true,true,true,true,true,true,true,true,true,true,true,true,true,true,false,false,true,true,true,true,true,true,true,true,false,false,false,false,false,false,false,false,false,false,false,false,false,false,false,false,false,false,false,false,false,false,false,false,false,false,false,false],"id":6,"left_children":[1,3,5,7,9,11,13,15,17,19,21,23,25,27,29,31,33,35,37,39,41,-1,-1,43,45,47,49,51,53,55,57,-1,-1,-1,-1,-1,-1,-1,-1,-1,-1,-1,-1,-1,-1,-1,-1,-1,-1,-1,-1,-1,-1,-1,-1,-1,-1,-1,-1],"loss_changes":[1.3619962E6,7.40745E4,5.369712E4,2.304125E4,8.230875E3,2.3460398E4,6.9548105E3,1.32864375E4,2.3338438E3,9.0379375E3,6.712539E2,1.5941891E4,3.2719941E3,1.0118955E4,4.758496E2,8.212605E3,9.1624375E3,2.330164E3,5.5085474E2,6.6369375E3,5.974246E3,0E0,0E0,1.4673027E4,2.7698027E3,2.9880376E-4,5.614922E2,5.9190103E3,2.7016678E4,5.607334E2,1.7092383E2,0E0,0E0,0E0,0E0,0E0,0E0,0E0,0E0,0E0,0E0,0E0,0E0,0E0,0E0,0E0,0E0,0E0,0E0,0E0,0E0,0E0,0E0,0E0,0E0,0E0,0E0,0E0,0E0],"parents":[2147483647,0,0,1,1,2,2,3,3,4,4,5,5,6,6,7,7,8,8,9,9,10,10,11,11,12,12,13,13,14,14,15,15,16,16,17,17,18,18,19,19,20,20,23,23,24,24,25,25,26,26,27,27,28,28,29,29,30,30],"right_children":[2,4,6,8,10,12,14,16,18,20,22,24,26,28,30,32,34,36,38,40,42,-1,-1,44,46,48,50,52,54,56,58,-1,-1,-1,-1,-1,-1,-1,-1,-1,-1,-1,-1,-1,-1,-1,-1,-1,-1,-1,-1,-1,-1,-1,-1,-1,-1,-1,-1],"split_conditions":[4.7655678E-1,2.65E1,8.1284344E-1,3.1414473E-1,4.7493735E-1,5.05E1,9.5480084E-1,-1.336792E-3,4.3449658E-1,3.176275E-1,2.3809524E-2,6.343808E-1,8.047619E-1,4.8879027E0,9.894177E-1,-1.3398112E-3,5.5E0,3.186654E-1,1.8966726E0,4.15E1,-1.6920584E-1,-0E0,2.2381113E0,2.25E1,5.425112E-2,-3.520504E-2,5.15E1,2.737216E-1,4.9148607E0,9.8346996E-1,-2.3143368E0,5.082864E-1,-6.916029E-1,7.486703E-1,9.113477E-1,-1.5100774E-2,5.169442E-1,1.4598404E-1,6.562479E-1,1.1636323E0,1.4832934E0,3.8539815E-1,1.0853719E0,2.4693921E-1,7.148725E-1,1.00281835E-1,2.4738073E-1,-0E0,-7.7305076E-4,2.1959922E0,-0E0,1.1403773E-2,5.0626063E-1,2.3684826E0,-8.064833E-2,-2.9305412E-2,5.7358623E-2,-6.7832276E-2,-4.439411E-2],"split_indices":[4,21,4,4,4,21,4,100,4,4,9,4,4,107,4,100,18,4,107,21,106,0,0,21,106,106,21,106,107,4,107,0,0,0,0,0,0,0,0,0,0,0,0,0,0,0,0,0,0,0,0,0,0,0,0,0,0,0,0],"split_type":[0,0,0,0,0,0,0,0,0,0,0,0,0,0,0,0,0,0,0,0,0,0,0,0,0,0,0,0,0,0,0,0,0,0,0,0,0,0,0,0,0,0,0,0,0,0,0,0,0,0,0,0,0,0,0,0,0,0,0],"sum_hessian":[1.13622E5,2.231E4,9.1312E4,1.6424E4,5.886E3,1.325E4,7.8062E4,1.5064E4,1.36E3,5.805E3,8.1E1,1.3175E4,7.5E1,2.773E4,5.0332E4,8.4E2,1.4224E4,9.41E2,4.19E2,5.3E3,5.05E2,1E0,8E1,3.391E3,9.784E3,7E0,6.8E1,2.7529E4,2.01E2,1.1409E4,3.8923E4,7.8E2,6E1,6.843E3,7.381E3,8.7E1,8.54E2,3.96E2,2.3E1,4.489E3,8.11E2,2.36E2,2.69E2,2.464E3,9.27E2,8.253E3,1.531E3,3E0,4E0,6.7E1,1E0,2.7286E4,2.43E2,6.6E1,1.35E2,1.0614E4,7.95E2,3.621E3,3.5302E4],"tree_param":{"num_deleted":"0","num_feature":"110","num_nodes":"59","size_leaf_vector":"0"}},{"base_weights":[1.6524867E0,1.2899849E-1,8.5503845E0,-1.23228006E-1,2.08275E0,7.043368E0,1.1391427E1,-2.7459782E-1,5.907406E-1,1.8426383E0,1.6898191E1,5.724154E0,8.269491E0,1.0860097E1,1.3911363E1,5.3336937E-2,-3.751959E-1,4.855348E-1,1.8841816E1,1.6690071E1,1.7631629E0,2.0189953E1,1.8619051E0,4.909935E0,6.1861157E0,8.384021E0,-4.5117465E-1,1.0496871E1,1.2172647E1,1.3691926E1,1.7218687E1,-2.4888785E-1,3.1402427E-1,-3.0247787E-1,-5.91134E-1,4.0575638E-1,9.323077E0,1.9580076E1,-0E0,-0E0,1.8446465E1,3.174875E0,8.867187E-1,2.0674763E1,-0E0,-1.392526E-1,6.0421057E0,8.64895E0,4.5997996E0,5.951338E0,8.217535E0,8.500121E0,-5.439139E-1,-9.6616644E-1,8.36269E0,9.788543E0,1.1409363E1,1.1628033E1,1.3765103E1],"categories":[],"categories_nodes":[],"categories_segments":[],"categories_sizes":[],"default_left":[true,true,true,true,true,true,true,true,true,true,true,true,true,true,true,true,true,true,true,true,true,true,true,true,true,true,true,true,true,false,false,false,false,false,false,false,false,false,false,false,false,false,false,false,false,false,false,false,false,false,false,false,false,false,false,false,false,false,false],"id":7,"left_children":[1,3,5,7,9,11,13,15,17,19,21,23,25,27,29,31,33,35,37,39,41,43,45,47,49,51,53,55,57,-1,-1,-1,-1,-1,-1,-1,-1,-1,-1,-1,-1,-1,-1,-1,-1,-1,-1,-1,-1,-1,-1,-1,-1,-1,-1,-1,-1,-1,-1],"loss_changes":[1.193961E6,4.5883625E4,8.7737375E4,8.904941E3,3.7653152E4,2.1544062E4,9.1343125E3,2.2471587E3,2.7460746E4,1.2150141E4,8.1066875E3,2.2956719E3,7.0315938E3,2.4526875E3,3.4998438E2,1.256975E3,8.0859814E2,9.999403E3,1.1758203E3,1.6928838E3,1.2854047E4,1.451668E3,3.2755762E2,2.5620703E3,1.7753125E3,7.2030938E3,3.4263058E2,2.6656875E3,6.8225E2,0E0,0E0,0E0,0E0,0E0,0E0,0E0,0E0,0E0,0E0,0E0,0E0,0E0,0E0,0E0,0E0,0E0,0E0,0E0,0E0,0E0,0E0,0E0,0E0,0E0,0E0,0E0,0E0,0E0,0E0],"parents":[2147483647,0,0,1,1,2,2,3,3,4,4,5,5,6,6,7,7,8,8,9,9,10,10,11,11,12,12,13,13,14,14,15,15,16,16,17,17,18,18,19,19,20,20,21,21,22,22,23,23,24,24,25,25,26,26,27,27,28,28],"right_children":[2,4,6,8,10,12,14,16,18,20,22,24,26,28,30,32,34,36,38,40,42,44,46,48,50,52,54,56,58,-1,-1,-1,-1,-1,-1,-1,-1,-1,-1,-1,-1,-1,-1,-1,-1,-1,-1,-1,-1,-1,-1,-1,-1,-1,-1,-1,-1,-1,-1],"split_conditions":[8.988636E0,3.2921748E0,1.8027363E1,1.4040507E0,5.05E1,1.4284648E1,2.3317785E1,9.510196E-1,9.534632E-1,3.2945998E0,2.1035437E1,1.1427249E1,4.45E1,7.0197046E-2,2.7324074E1,8.5E0,1.6456724E1,5.583608E1,1.4219368E0,9.803922E-3,6.343808E-1,5.15E1,-2.1816993E-12,9.186773E0,3.15E1,4.45E1,7.5E0,2.0815342E1,3.95E1,1.3691926E0,1.7218688E0,-2.4888786E-2,3.1402428E-2,-3.0247787E-2,-5.9113402E-2,4.057564E-2,9.323077E-1,1.9580077E0,-0E0,-0E0,1.8446465E0,3.174875E-1,8.867187E-2,2.0674763E0,-0E0,-1.3925261E-2,6.0421056E-1,8.64895E-1,4.5997998E-1,5.951338E-1,8.217535E-1,8.500121E-1,-5.439139E-2,-9.661665E-2,8.36269E-1,9.788543E-1,1.1409363E0,1.1628033E0,1.3765104E0],"split_indices":[3,3,3,3,21,3,3,4,4,3,108,3,21,4,3,20,108,108,3,7,4,21,100,3,19,19,20,3,21,0,0,0,0,0,0,0,0,0,0,0,0,0,0,0,0,0,0,0,0,0,0,0,0,0,0,0,0,0,0],"split_type":[0,0,0,0,0,0,0,0,0,0,0,0,0,0,0,0,0,0,0,0,0,0,0,0,0,0,0,0,0,0,0,0,0,0,0,0,0,0,0,0,0,0,0,0,0,0,0,0,0,0,0,0,0,0,0,0,0,0,0],"sum_hessian":[1.13622E5,9.3069E4,2.0553E4,8.2424E4,1.0645E4,1.3434E4,7.119E3,6.8018E4,1.4406E4,1.0477E4,1.68E2,6.478E3,6.956E3,5.887E3,1.232E3,1.5944E4,5.2074E4,1.4325E4,8.1E1,5.4E1,1.0423E4,1.37E2,3.1E1,2.357E3,4.121E3,6.867E3,8.9E1,4.624E3,1.263E3,1.163E3,6.9E1,7.366E3,8.578E3,3.8992E4,1.3082E4,1.4199E4,1.26E2,7.8E1,3E0,5E0,4.9E1,3.987E3,6.436E3,1.34E2,3E0,2E1,1.1E1,1.76E2,2.181E3,3.702E3,4.19E2,6.78E3,8.7E1,8.6E1,3E0,2.616E3,2.008E3,9.52E2,3.11E2],"tree_param":{"num_deleted":"0","num_feature":"110","num_nodes":"59","size_leaf_vector":"0"}},{"base_weights":[1.4875257E0,1.2059647E-1,7.719778E0,-1.1084857E-1,1.8939623E0,6.363575E0,1.0254075E1,-2.4715395E-1,5.3199637E-1,1.7008936E0,9.966083E0,5.1810417E0,7.4426193E0,9.634107E0,1.2006969E1,-2.8209302E-1,1.4354697E0,3.7372008E-1,9.004566E0,1.1986862E0,3.8897026E0,1.6828856E1,7.3835425E-2,1.59428625E1,5.076188E0,7.6195245E0,4.8609707E-1,9.132239E0,1.0131937E1,1.135471E1,1.3211723E1,-2.1688828E-1,-5.3125787E-1,-8.660632E-2,4.7582383E0,6.650973E-1,-2.2249088E-1,1.744791E1,-1.4338473E0,1.5046659E1,1.1077963E0,3.3822496E0,1.0189266E1,1.844289E1,-4.575688E-1,-7.968418E-1,6.442249E0,1.6506231E1,-0E0,4.1400304E0,5.5680904E0,2.169056E0,7.7502036E0,-4.839745E-1,1.1532458E1,9.174733E0,2.598315E0,1.1383624E1,9.651523E0,1.2626202E1,1.0856463E1],"categories":[],"categories_nodes":[],"categories_segments":[],"categories_sizes":[],"default_left":[true,true,true,true,true,true,true,true,true,true,true,true,true,true,true,true,true,true,true,true,true,true,true,true,true,true,true,true,true,true,false,false,false,false,false,false,false,false,false,false,false,false,false,false,false,false,false,false,false,false,false,false,false,false,false,false,false,false,false,false,false],"id":8,"left_children":[1,3,5,7,9,11,13,15,17,19,21,23,25,27,29,31,33,35,37,39,41,43,45,47,49,51,53,55,57,59,-1,-1,-1,-1,-1,-1,-1,-1,-1,-1,-1,-1,-1,-1,-1,-1,-1,-1,-1,-1,-1,-1,-1,-1,-1,-1,-1,-1,-1,-1,-1],"loss_changes":[9.6788044E5,3.8265406E4,7.0011E4,7.2196265E3,1.664023E4,1.6829062E4,7.4055E3,3.9876592E3,1.9222736E4,1.150182E4,1.6801793E4,6.887828E3,8.476844E3,1.0312812E3,1.0596562E3,1.0751172E3,7.0163735E3,2.461876E3,2.3364691E4,1.0591983E4,6.0890215E3,4.2897227E3,6.382501E2,5.5193555E2,2.7823906E3,4.7152812E3,1.9913243E3,5.925469E2,1.258875E3,3.971875E2,0E0,0E0,0E0,0E0,0E0,0E0,0E0,0E0,0E0,0E0,0E0,0E0,0E0,0E0,0E0,0E0,0E0,0E0,0E0,0E0,0E0,0E0,0E0,0E0,0E0,0E0,0E0,0E0,0E0,0E0,0E0],"parents":[2147483647,0,0,1,1,2,2,3,3,4,4,5,5,6,6,7,7,8,8,9,9,10,10,11,11,12,12,13,13,14,14,15,15,16,16,17,17,18,18,19,19,20,20,21,21,22,22,23,23,24,24,25,25,26,26,27,27,28,28,29,29],"right_children":[2,4,6,8,10,12,14,16,18,20,22,24,26,28,30,32,34,36,38,40,42,44,46,48,50,52,54,56,58,60,-1,-1,-1,-1,-1,-1,-1,-1,-1,-1,-1,-1,-1,-1,-1,-1,-1,-1,-1,-1,-1,-1,-1,-1,-1,-1,-1,-1,-1,-1,-1],"split_conditions":[9.183932E0,3.2921748E0,1.8027363E1,1.4040507E0,4.90808E0,1.4284648E1,2.2496155E1,2.4845678E-2,4.601734E1,7.150758E0,5.031457E0,9.186773E0,3.4313726E-1,-1.981526E-12,2.4018518E1,1.6282158E1,2.1955061E-1,4.4645566E-1,1.4183824E0,3.2945998E0,1.8783069E-1,6E0,1.7692308E-1,-2.5806952E-1,1.1427249E1,-1.336792E-3,3.693182E-1,3.4313726E-1,5.154639E-3,2.5320513E-2,1.3211724E0,-2.1688828E-2,-5.3125788E-2,-8.660632E-3,4.7582385E-1,6.650973E-2,-2.2249088E-2,1.744791E0,-1.4338474E-1,1.504666E0,1.10779636E-1,3.3822498E-1,1.0189266E0,1.8442891E0,-4.575688E-2,-7.968418E-2,6.442249E-1,1.6506232E0,-0E0,4.1400304E-1,5.5680907E-1,2.169056E-1,7.7502036E-1,-4.8397448E-2,1.1532458E0,9.174733E-1,2.5983152E-1,1.1383624E0,9.6515226E-1,1.2626202E0,1.0856464E0],"split_indices":[3,3,3,3,107,3,3,8,108,3,107,3,9,105,3,108,107,107,3,3,12,15,13,107,3,100,9,9,6,6,0,0,0,0,0,0,0,0,0,0,0,0,0,0,0,0,0,0,0,0,0,0,0,0,0,0,0,0,0,0,0],"split_type":[0,0,0,0,0,0,0,0,0,0,0,0,0,0,0,0,0,0,0,0,0,0,0,0,0,0,0,0,0,0,0,0,0,0,0,0,0,0,0,0,0,0,0,0,0,0,0,0,0,0,0,0,0,0,0,0,0,0,0,0,0],"sum_hessian":[1.13622E5,9.3186E4,2.0436E4,8.2424E4,1.0762E4,1.3317E4,7.119E3,6.8018E4,1.4406E4,1.0513E4,2.49E2,6.361E3,6.956E3,5.268E3,1.851E3,6.6641E4,1.377E3,1.4144E4,2.62E2,8.556E3,1.957E3,1.46E2,1.03E2,5.9E1,6.302E3,6.782E3,1.74E2,2.643E3,2.625E3,1.213E3,6.38E2,5.2852E4,1.3789E4,9.43E2,4.34E2,9.512E3,4.632E3,1.45E2,1.17E2,5.4E1,8.502E3,1.814E3,1.43E2,1.34E2,1.2E1,9E1,1.3E1,5.7E1,2E0,2.181E3,4.121E3,1.61E2,6.621E3,1.6E2,1.4E1,2.624E3,1.9E1,7.16E2,1.909E3,3.29E2,8.84E2],"tree_param":{"num_deleted":"0","num_feature":"110","num_nodes":"61","size_leaf_vector":"0"}},{"base_weights":[1.3390543E0,3.43252E-1,5.7263093E0,2.9726288E-1,3.1410506E0,2.768979E0,6.659871E0,1.1228052E-1,4.7329062E-1,2.5858026E0,1.3059584E1,2.5395203E0,1.2953506E1,6.215064E0,8.760967E0,5.268167E0,1.00428924E-1,2.9416043E-1,2.9501393E0,1.774508E0,7.2712708E0,1.5395974E1,-2.402293E-1,4.841317E0,2.1558254E0,1.53908415E1,4.908782E0,5.8180223E0,9.763881E0,8.862294E0,-8.258616E-1,5.781829E-1,-7.269422E-4,3.4139268E0,2.520739E-1,5.6351703E-1,4.0122232E0,3.0815508E-3,3.1201537E0,1.8079847E0,9.633804E0,8.723916E0,4.3038745E0,1.1563475E0,3.1982183E0,-0E0,1.5499395E1,-1.33895E-1,6.744689E0,3.5132585E0,6.4373937E0,1.2202678E1,7.181455E0,1.354269E1,8.6827E0,-2.0877838E0,5.0830994E0],"categories":[],"categories_nodes":[],"categories_segments":[],"categories_sizes":[],"default_left":[true,true,true,true,true,true,true,true,true,true,true,true,true,true,true,false,true,true,true,true,true,false,false,true,true,true,true,true,true,true,true,false,false,false,false,false,false,false,false,false,false,false,false,false,false,false,false,false,false,false,false,false,false,false,false,false,false],"id":9,"left_children":[1,3,5,7,9,11,13,15,17,19,21,23,25,27,29,-1,31,33,35,37,39,-1,-1,41,43,45,47,49,51,53,55,-1,-1,-1,-1,-1,-1,-1,-1,-1,-1,-1,-1,-1,-1,-1,-1,-1,-1,-1,-1,-1,-1,-1,-1,-1,-1],"loss_changes":[4.9633788E5,1.1880273E4,5.7912062E4,2.9609478E3,8.0376035E3,1.1606648E4,1.4722E4,2.6622886E3,2.0668277E4,5.283074E3,2.5789932E3,4.2807734E3,1.8782988E3,1.8369625E4,2.7920781E3,0E0,2.149443E3,5.676267E3,7.918836E3,2.8554336E3,2.539954E3,0E0,0E0,1.2949336E3,4.3681133E3,3.8089844E1,3.262318E2,1.6816656E4,8.050797E3,1.9767812E3,1.969021E2,0E0,0E0,0E0,0E0,0E0,0E0,0E0,0E0,0E0,0E0,0E0,0E0,0E0,0E0,0E0,0E0,0E0,0E0,0E0,0E0,0E0,0E0,0E0,0E0,0E0,0E0],"parents":[2147483647,0,0,1,1,2,2,3,3,4,4,5,5,6,6,7,7,8,8,9,9,10,10,11,11,12,12,13,13,14,14,16,16,17,17,18,18,19,19,20,20,23,23,24,24,25,25,26,26,27,27,28,28,29,29,30,30],"right_children":[2,4,6,8,10,12,14,16,18,20,22,24,26,28,30,-1,32,34,36,38,40,-1,-1,42,44,46,48,50,52,54,56,-1,-1,-1,-1,-1,-1,-1,-1,-1,-1,-1,-1,-1,-1,-1,-1,-1,-1,-1,-1,-1,-1,-1,-1,-1,-1],"split_conditions":[4.4610284E-2,2.6879156E-1,7.5E0,7.5E0,9.5E0,4.05E1,3.15E1,-4.75E1,2.4974889E-1,1.3443983E1,2.85E1,-1.830453E-1,6.5E0,3.85E1,6.36118E-2,5.268167E-1,4.5E0,-2.5657146E1,-5.6180655E-4,3.668791E-1,1.25E1,1.5395974E0,-2.402293E-2,4.5983087E-2,1.4101078E-1,1.6E1,-6.403357E-4,1.2667142E-1,-3.681717E-1,-8.36859E-4,3.7683407E1,5.781829E-2,-7.269422E-5,3.413927E-1,2.5207391E-2,5.6351703E-2,4.0122232E-1,3.0815508E-4,3.1201538E-1,1.8079847E-1,9.6338046E-1,8.7239164E-1,4.3038747E-1,1.15634754E-1,3.1982183E-1,-0E0,1.5499395E0,-1.33895E-2,6.7446893E-1,3.5132584E-1,6.437394E-1,1.2202678E0,7.1814555E-1,1.354269E0,8.6827004E-1,-2.0877838E-1,5.0830996E-1],"split_indices":[14,106,65,65,44,19,19,65,104,109,65,106,44,65,102,0,15,109,100,106,0,0,0,14,14,0,100,14,106,100,109,0,0,0,0,0,0,0,0,0,0,0,0,0,0,0,0,0,0,0,0,0,0,0,0,0,0],"split_type":[0,0,0,0,0,0,0,0,0,0,0,0,0,0,0,0,0,0,0,0,0,0,0,0,0,0,0,0,0,0,0,0,0,0,0,0,0,0,0,0,0,0,0,0,0,0,0,0,0,0,0,0,0,0,0,0,0],"sum_hessian":[1.13622E5,9.2606E4,2.1016E4,9.1113E4,1.493E3,5.046E3,1.597E4,4.4455E4,4.6658E4,1.416E3,7.7E1,4.937E3,1.09E2,1.3187E4,2.783E3,9.9E1,4.4356E4,4.3516E4,3.142E3,1.21E3,2.06E2,6.6E1,1.1E1,7E2,4.237E3,8.2E1,2.7E1,1.1865E4,1.322E3,2.755E3,2.8E1,7.767E3,3.6589E4,5.75E2,4.2941E4,9.71E2,2.171E3,5.26E2,6.84E2,6.4E1,1.42E2,8.1E1,6.19E2,2.169E3,2.068E3,1E0,8.1E1,6E0,2.1E1,2.518E3,9.347E3,6.76E2,6.46E2,9.7E1,2.658E3,2.5E1,3E0],"tree_param":{"num_deleted":"0","num_feature":"110","num_nodes":"57","size_leaf_vector":"0"}}]},"name":"gbtree"},"learner_model_param":{"base_score":"5E-1","num_class":"0","num_feature":"110"},"objective":{"name":"reg:squarederror","reg_loss_param":{"scale_pos_weight":"1"}}},"version":[1,4,2]}
