{"learner":{"attributes":{},"feature_names":[" day"," trace 40 quant","competitiveness","empirical_distr_p","empirical_distr_q_0","empirical_distr_q_1","empirical_distr_q_10","empirical_distr_q_2","empirical_distr_q_3","empirical_distr_q_4","empirical_distr_q_5","empirical_distr_q_6","empirical_distr_q_7","empirical_distr_q_8","empirical_distr_q_9","my_layer_size","n_level","n_opp_level","opp_layer_size","trace 0 price","trace 0 quant","trace 1 price","trace 1 quant","trace 10 price","trace 10 quant","trace 11 price","trace 11 quant","trace 12 price","trace 12 quant","trace 13 price","trace 13 quant","trace 14 price","trace 14 quant","trace 15 price","trace 15 quant","trace 16 price","trace 16 quant","trace 17 price","trace 17 quant","trace 18 price","trace 18 quant","trace 19 price","trace 19 quant","trace 2 price","trace 2 quant","trace 20 price","trace 20 quant","trace 21 price","trace 21 quant","trace 22 price","trace 22 quant","trace 23 price","trace 23 quant","trace 24 price","trace 24 quant","trace 25 price","trace 25 quant","trace 26 price","trace 26 quant","trace 27 price","trace 27 quant","trace 28 price","trace 28 quant","trace 29 price","trace 29 quant","trace 3 price","trace 3 quant","trace 30 price","trace 30 quant","trace 31 price","trace 31 quant","trace 32 price","trace 32 quant","trace 33 price","trace 33 quant","trace 34 price","trace 34 quant","trace 35 price","trace 35 quant","trace 36 price","trace 36 quant","trace 37 price","trace 37 quant","trace 38 price","trace 38 quant","trace 39 price","trace 39 quant","trace 4 price","trace 4 quant","trace 40 price","trace 5 price","trace 5 quant","trace 6 price","trace 6 quant","trace 7 price","trace 7 quant","trace 8 price","trace 8 quant","trace 9 price","trace 9 quant","ufun_param_0","ufun_param_1","ufun_param_2","ufun_param_3","ufun_param_4","ufun_param_5","ufun_param_6","ufun_param_7","ufun_param_8","ufun_param_9"],"feature_types":["int","int","float","float","float","float","float","float","float","float","float","float","float","float","float","int","int","int","int","int","int","int","int","int","int","int","int","int","int","int","int","int","int","int","int","int","int","int","int","int","int","int","int","int","int","int","int","int","int","int","int","int","int","int","int","int","int","int","int","int","int","int","int","int","int","int","int","int","int","int","int","int","int","int","int","int","int","int","int","int","int","int","int","int","int","int","int","int","int","int","int","int","int","int","int","int","int","int","int","int","float","float","float","float","float","float","float","float","float","float"],"gradient_booster":{"model":{"gbtree_model_param":{"num_trees":"10","size_leaf_vector":"0"},"tree_info":[0,0,0,0,0,0,0,0,0,0],"trees":[{"base_weights":[3.492359E-1,-2.4385026E-1,1.3189911E1,-3.744383E-1,2.4248705E1,2.8818898E0,1.4014753E1,-3.9534914E-1,1.6625E1,9.265306E0,2.9075863E1,5.0632913E-2,7.1836734E0,1.3029347E1,2.0710659E1,-4.1114336E-1,8.113636E0,5.736111E0,1.6964285E1,3.0376865E1,1.1291667E1,5.4E0,-1.7333333E-1,7.510638E0,-0E0,1.1815263E1,1.5759662E1,2.2051828E1,1.3338235E1,-4.2769393E-1,2.721925E0,-0E0,1.087E1,3.4482758E0,1.20625E1,1.8307692E1,-0E0,3.2962963E1,2.575E1,-0E0,1.365E1,1E0,-3.561644E-1,1.0247117E1,1.4518895E1,1.0494118E1,1.7037878E1],"categories":[],"categories_nodes":[],"categories_segments":[],"categories_sizes":[],"default_left":[true,true,true,true,true,true,true,true,false,true,true,true,true,true,true,true,true,true,true,true,true,false,true,false,false,true,true,false,false,false,false,false,false,false,false,false,false,false,false,false,false,false,false,false,false,false,false],"id":0,"left_children":[1,3,5,7,9,11,13,15,-1,17,19,21,23,25,27,29,31,33,35,37,39,-1,41,-1,-1,43,45,-1,-1,-1,-1,-1,-1,-1,-1,-1,-1,-1,-1,-1,-1,-1,-1,-1,-1,-1,-1],"loss_changes":[2.9066122E5,1.16401234E5,1.4117344E4,1.273835E4,1.3306344E4,1.4740841E3,9.6793125E3,4.795359E3,0E0,1.0070757E3,2.5952188E3,1.478508E2,1.22602295E2,4.0561719E3,1.2998359E3,1.853523E3,1.5629932E3,3.2435193E2,3.2821313E2,1.6745312E2,3.332041E2,0E0,1.0006941E1,0E0,0E0,3.6312656E3,2.3323125E3,0E0,0E0,0E0,0E0,0E0,0E0,0E0,0E0,0E0,0E0,0E0,0E0,0E0,0E0,0E0,0E0,0E0,0E0,0E0,0E0],"parents":[2147483647,0,0,1,1,2,2,3,3,4,4,5,5,6,6,7,7,9,9,10,10,11,11,12,12,13,13,14,14,15,15,16,16,17,17,18,18,19,19,20,20,22,22,25,25,26,26],"right_children":[2,4,6,8,10,12,14,16,-1,18,20,22,24,26,28,30,32,34,36,38,40,-1,42,-1,-1,44,46,-1,-1,-1,-1,-1,-1,-1,-1,-1,-1,-1,-1,-1,-1,-1,-1,-1,-1,-1,-1],"split_conditions":[7.643622E-2,9.3522266E-2,-2.8131478E-3,7.8174603E-1,3.181818E-2,1.1E1,5.400641E-1,1.6228071E-1,1.6625E0,2.916667E-1,4.8809525E-2,-4.95E1,2.5E1,2.25E1,5.5E0,3.1384617E-1,-2.180811E-12,2.75E1,3.35E1,-5E-1,5.409357E-2,5.4E-1,6.666667E-3,7.510638E-1,-0E0,5E-1,1.3794926E-1,2.2051828E0,1.3338236E0,-4.2769395E-2,2.721925E-1,-0E0,1.087E0,3.448276E-1,1.2062501E0,1.8307692E0,-0E0,3.2962964E0,2.575E0,-0E0,1.365E0,1E-1,-3.561644E-2,1.0247117E0,1.4518895E0,1.0494118E0,1.7037878E0],"split_indices":[14,12,100,6,8,19,14,8,0,12,8,88,19,19,19,6,100,0,19,2,8,0,12,0,0,16,14,0,0,0,0,0,0,0,0,0,0,0,0,0,0,0,0,0,0,0,0],"split_type":[0,0,0,0,0,0,0,0,0,0,0,0,0,0,0,0,0,0,0,0,0,0,0,0,0,0,0,0,0,0,0,0,0,0,0,0,0,0,0,0,0,0,0,0,0,0,0],"sum_hessian":[3.8148E4,3.6464E4,1.684E3,3.6272E4,1.92E2,1.26E2,1.558E3,3.6229E4,4.3E1,4.8E1,1.44E2,7.8E1,4.8E1,1.362E3,1.96E2,3.6164E4,6.5E1,3.5E1,1.3E1,1.33E2,1.1E1,4E0,7.4E1,4.6E1,2E0,9.49E2,4.13E2,1.63E2,3.3E1,3.5978E4,1.86E2,1.6E1,4.9E1,2.8E1,7E0,1.2E1,1E0,8E1,5.3E1,2E0,9E0,2E0,7.2E1,6.06E2,3.43E2,8.4E1,3.29E2],"tree_param":{"num_deleted":"0","num_feature":"110","num_nodes":"47","size_leaf_vector":"0"}},{"base_weights":[3.1529978E-1,1.4159574E-1,1.5493091E1,-1.3199893E-1,3.7957003E0,9.800219E0,2.5812243E1,-2.5298935E-1,3.8316846E0,-4.0348154E-1,5.863101E0,4.1810656E0,1.2136074E1,4.82747E0,2.6573072E1,-3.252946E-1,8.1280684E-1,1.9861383E1,2.4422839E0,-4.4519076E-1,8.423833E0,3.8561456E0,9.034432E0,-0E0,8.906408E0,9.395389E0,1.4788919E1,-0E0,8.81238E0,1.1741163E1,2.7388739E1,-3.5003713E-1,2.189497E0,5.5108E-2,1.001085E1,4.042668E-2,1.087519E1,9.641331E0,5.110229E-1,3.7085075E0,9.680816E0,-2.3443054E-1,2.7138472E-1,9.444532E0,-0E0,2.7514124E0,1.068262E1,1.5672352E1,1.8621198E0,1.2318589E1,-0E0,-0E0,1.4790762E1,2.9675991E1,2.337189E1],"categories":[],"categories_nodes":[],"categories_segments":[],"categories_sizes":[],"default_left":[true,true,true,true,true,true,true,true,true,true,true,true,true,true,true,true,true,false,true,false,false,true,true,true,true,true,true,false,true,true,true,false,false,false,false,false,false,false,false,false,false,false,false,false,false,false,false,false,false,false,false,false,false,false,false],"id":1,"left_children":[1,3,5,7,9,11,13,15,17,19,21,23,25,27,29,31,33,-1,35,-1,-1,37,39,41,43,45,47,-1,49,51,53,-1,-1,-1,-1,-1,-1,-1,-1,-1,-1,-1,-1,-1,-1,-1,-1,-1,-1,-1,-1,-1,-1,-1,-1],"loss_changes":[1.0041916E5,3.774646E4,2.4710273E4,1.6793213E4,2.288902E4,3.4612363E3,1.9845234E3,2.6196814E3,2.2824182E4,2.431761E2,1.1063625E4,1.7663774E3,1.04425E3,1.475009E2,1.0534141E3,1.9672642E3,1.491773E4,0E0,1.9253836E4,0E0,0E0,2.087129E4,2.1746055E3,2.565437E0,2.2647949E2,7.0005273E2,8.917871E2,0E0,1.4461081E2,3.7158398E2,3.4632812E1,0E0,0E0,0E0,0E0,0E0,0E0,0E0,0E0,0E0,0E0,0E0,0E0,0E0,0E0,0E0,0E0,0E0,0E0,0E0,0E0,0E0,0E0,0E0,0E0],"parents":[2147483647,0,0,1,1,2,2,3,3,4,4,5,5,6,6,7,7,8,8,9,9,10,10,11,11,12,12,13,13,14,14,15,15,16,16,18,18,21,21,22,22,23,23,24,24,25,25,26,26,28,28,29,29,30,30],"right_children":[2,4,6,8,10,12,14,16,18,20,22,24,26,28,30,32,34,-1,36,-1,-1,38,40,42,44,46,48,-1,50,52,54,-1,-1,-1,-1,-1,-1,-1,-1,-1,-1,-1,-1,-1,-1,-1,-1,-1,-1,-1,-1,-1,-1,-1,-1],"split_conditions":[4.5983087E-2,9.093027E-1,3.75E1,3.2846626E1,5.5E0,4.5E0,1.15E1,2.0384893E1,3.2878567E1,3.3986174E-2,1.45E1,-1.2437913E0,8.5E0,1.3333334E-1,1.3157895E-2,3.65E1,1.25E1,1.9861383E0,1.25E1,-4.4519078E-2,8.423833E-1,-4.95E1,7.5E0,2.2301587E-1,2.347876E-1,6.272541E-1,3.65E1,-0E0,2.2727273E-1,3.95E1,3.85E1,-3.5003714E-2,2.189497E-1,5.5108E-3,1.001085E0,4.042668E-3,1.087519E0,9.641331E-1,5.110229E-2,3.7085077E-1,9.680816E-1,-2.3443054E-2,2.7138472E-2,9.4445324E-1,-0E0,2.7514124E-1,1.068262E0,1.5672352E0,1.8621199E-1,1.231859E0,-0E0,-0E0,1.4790763E0,2.9675992E0,2.337189E0],"split_indices":[10,104,21,108,66,66,87,108,108,10,87,108,21,10,8,87,87,0,87,0,0,87,66,10,8,104,21,0,10,21,21,0,0,0,0,0,0,0,0,0,0,0,0,0,0,0,0,0,0,0,0,0,0,0,0],"split_type":[0,0,0,0,0,0,0,0,0,0,0,0,0,0,0,0,0,0,0,0,0,0,0,0,0,0,0,0,0,0,0,0,0,0,0,0,0,0,0,0,0,0,0,0,0,0,0,0,0,0,0,0,0,0,0],"sum_hessian":[3.8148E4,3.7718E4,4.3E2,3.5089E4,2.629E3,2.79E2,1.51E2,3.4053E4,1.036E3,8.66E2,1.763E3,8.4E1,1.95E2,6E0,1.45E2,3.1899E4,2.154E3,8.1E1,9.55E2,8.64E2,2E0,1.083E3,6.8E2,4.4E1,4E1,1E2,9.5E1,3E0,3E0,9E0,1.36E2,3.1593E4,3.06E2,1.992E3,1.62E2,7.45E2,2.1E2,3.95E2,6.88E2,7.6E1,6.04E2,4.3E1,1E0,3.8E1,2E0,1.8E1,8.2E1,8.8E1,7E0,2E0,1E0,2E0,7E0,8.1E1,5.5E1],"tree_param":{"num_deleted":"0","num_feature":"110","num_nodes":"55","size_leaf_vector":"0"}},{"base_weights":[2.8470707E-1,-3.3262077E-1,1.3963964E1,4.3215165E0,-3.7469777E-1,9.692457E0,1.7669447E1,5.976584E-1,5.702579E0,-3.9483938E-1,1.6250432E0,8.86658E0,1.1569356E1,1.6703915E1,2.6740076E1,3.281093E0,1.0240607E-1,9.5554876E-1,6.16591E0,5.0329715E-1,-4.0651056E-1,-4.3164188E-1,6.258552E0,9.189028E0,2.5008914E0,1.1635E1,-0E0,1.4487102E1,1.9564852E1,-0E0,8.776247E0,-4.399233E-2,4.33646E0,-1.1462259E-1,4.999482E0,-0E0,6.2457647E0,1.10849276E-1,3.3676777E0,-4.115807E-1,-0E0,-5.949979E-1,9.665193E0,1.0985347E1,-0E0,9.297645E0,-0E0,7.888731E0,-2.236942E-1,1.168933E1,-0E0,1.50167885E1,1.689089E0],"categories":[],"categories_nodes":[],"categories_segments":[],"categories_sizes":[],"default_left":[true,true,true,true,true,true,true,true,true,true,true,true,true,true,false,true,true,true,true,true,true,true,true,true,true,true,false,true,false,false,false,false,false,false,false,false,false,false,false,false,false,false,false,false,false,false,false,false,false,false,false,false,false],"id":2,"left_children":[1,3,5,7,9,11,13,15,17,19,21,23,25,27,-1,29,31,33,35,37,39,41,43,45,47,49,-1,51,-1,-1,-1,-1,-1,-1,-1,-1,-1,-1,-1,-1,-1,-1,-1,-1,-1,-1,-1,-1,-1,-1,-1,-1,-1],"loss_changes":[3.222935E5,7.110417E3,2.5639656E4,1.6050259E3,1.4455171E3,8.850703E2,6.8259375E3,8.676593E1,4.397627E2,3.7474512E2,3.4535327E3,9.726328E2,2.1192383E2,4.4434375E3,0E0,2.666913E2,9.3324005E1,1.532865E2,1.3210205E2,4.6957135E2,7.185547E1,3.207959E2,3.2548926E3,5.998594E2,5.0412433E2,1.5101367E2,0E0,2.8987734E3,0E0,0E0,0E0,0E0,0E0,0E0,0E0,0E0,0E0,0E0,0E0,0E0,0E0,0E0,0E0,0E0,0E0,0E0,0E0,0E0,0E0,0E0,0E0,0E0,0E0],"parents":[2147483647,0,0,1,1,2,2,3,3,4,4,5,5,6,6,7,7,8,8,9,9,10,10,11,11,12,12,13,13,15,15,16,16,17,17,18,18,19,19,20,20,21,21,22,22,23,23,24,24,25,25,27,27],"right_children":[2,4,6,8,10,12,14,16,18,20,22,24,26,28,-1,30,32,34,36,38,40,42,44,46,48,50,-1,52,-1,-1,-1,-1,-1,-1,-1,-1,-1,-1,-1,-1,-1,-1,-1,-1,-1,-1,-1,-1,-1,-1,-1,-1,-1],"split_conditions":[9.503846E0,5.2086955E-1,1.5266798E1,3.923077E-2,3.75E1,1.28281E1,4.6060607E-1,-1.868581E-1,7.5E0,6.690476E-1,3.5185188E-2,1.2747449E1,4.6428573E-1,1.9196968E1,2.6740077E0,8.3333336E-2,7.015246E-2,8.571429E-2,-2.9007792E-1,7.372652E0,2.1169355E-2,2.7777778E-2,6.507937E-1,3.4989113E1,-2.2392526E-12,2.916667E-1,-0E0,3.030303E-1,1.9564852E0,-0E0,8.776247E-1,-4.399233E-3,4.3364602E-1,-1.1462259E-2,4.9994823E-1,-0E0,6.245765E-1,1.1084928E-2,3.3676776E-1,-4.1158073E-2,-0E0,-5.949979E-2,9.665193E-1,1.0985347E0,-0E0,9.2976445E-1,-0E0,7.8887314E-1,-2.236942E-2,1.168933E0,-0E0,1.5016788E0,1.689089E-1],"split_indices":[3,4,3,14,19,3,4,106,20,4,5,3,12,3,0,13,106,13,106,108,13,10,3,108,106,10,0,4,0,0,0,0,0,0,0,0,0,0,0,0,0,0,0,0,0,0,0,0,0,0,0,0,0],"split_type":[0,0,0,0,0,0,0,0,0,0,0,0,0,0,0,0,0,0,0,0,0,0,0,0,0,0,0,0,0,0,0,0,0,0,0,0,0,0,0,0,0,0,0,0,0,0,0,0,0,0,0,0,0],"sum_hessian":[3.8148E4,3.6501E4,1.647E3,3.24E2,3.6177E4,7.68E2,8.79E2,9E1,2.34E2,3.5822E4,3.55E2,5.41E2,2.27E2,7.98E2,8.1E1,1E1,8E1,2.3E1,2.11E2,4.48E2,3.5374E4,2.45E2,1.1E2,5.13E2,2.8E1,2.26E2,1E0,4.55E2,3.43E2,6E0,4E0,7.6E1,4E0,1.7E1,6E0,2E0,2.09E2,3.98E2,5E1,3.4932E4,4.42E2,2.43E2,2E0,6.2E1,4.8E1,5.08E2,5E0,1E1,1.8E1,2.25E2,1E0,4.36E2,1.9E1],"tree_param":{"num_deleted":"0","num_feature":"110","num_nodes":"53","size_leaf_vector":"0"}},{"base_weights":[2.567698E-1,-2.9262573E-1,1.2731711E1,-3.2433447E-1,3.6376023E0,8.91798E0,1.595383E1,-3.428359E-1,1.952436E0,-3.4582296E-1,4.51059E0,8.185024E0,1.0626584E1,2.3298084E1,1.5105739E1,-3.5954267E-1,7.55932E-1,-5.601146E-1,4.918801E0,-6.78394E-1,1.8681124E0,-0E0,4.984663E0,8.648258E0,3.1738288E0,4.6130786E0,1.0848642E1,-0E0,2.3596323E1,1.1506987E1,1.6560984E1,-3.7491295E-1,-2.0585372E-1,7.8867273E0,5.5620944E-1,9.904248E0,3.493291E-1,-9.987803E-1,2.3500743E0,3.5723438E0,-0E0,5.4036593E0,4.5466E-2,8.7172E0,-0E0,1.8822322E0,1.4410834E1,-0E0,6.05257E0,1.4100231E1,1.00133915E1,2.4067177E1,9.155052E0,1.2216656E1,-1.6292019E0,1.4767968E1,1.7676565E1],"categories":[],"categories_nodes":[],"categories_segments":[],"categories_sizes":[],"default_left":[true,true,true,true,true,true,true,true,true,true,true,true,true,true,true,true,true,false,true,true,true,false,true,true,true,true,true,false,true,true,true,false,false,false,false,false,false,false,false,false,false,false,false,false,false,false,false,false,false,false,false,false,false,false,false,false,false],"id":3,"left_children":[1,3,5,7,9,11,13,15,17,19,21,23,25,27,29,31,33,-1,35,37,39,-1,41,43,45,47,49,-1,51,53,55,-1,-1,-1,-1,-1,-1,-1,-1,-1,-1,-1,-1,-1,-1,-1,-1,-1,-1,-1,-1,-1,-1,-1,-1,-1,-1],"loss_changes":[2.6158906E5,4.521756E3,1.9393172E4,1.5115933E3,1.0516772E3,6.528828E2,4.6829062E3,6.5649365E2,2.192847E3,2.6920967E1,5.58562E2,1.0776875E3,8.243945E1,6.5997656E2,3.6346094E3,7.782129E1,6.6599963E2,0E0,2.94664E3,3.6377975E1,1.5053749E1,0E0,3.9848486E2,3.466875E2,5.066014E2,9.561694E1,1.7442969E2,0E0,3.221875E1,2.2792422E3,5.226406E2,0E0,0E0,0E0,0E0,0E0,0E0,0E0,0E0,0E0,0E0,0E0,0E0,0E0,0E0,0E0,0E0,0E0,0E0,0E0,0E0,0E0,0E0,0E0,0E0,0E0,0E0],"parents":[2147483647,0,0,1,1,2,2,3,3,4,4,5,5,6,6,7,7,8,8,9,9,10,10,11,11,12,12,13,13,14,14,15,15,16,16,18,18,19,19,20,20,22,22,23,23,24,24,25,25,26,26,28,28,29,29,30,30],"right_children":[2,4,6,8,10,12,14,16,18,20,22,24,26,28,30,32,34,-1,36,38,40,-1,42,44,46,48,50,-1,52,54,56,-1,-1,-1,-1,-1,-1,-1,-1,-1,-1,-1,-1,-1,-1,-1,-1,-1,-1,-1,-1,-1,-1,-1,-1,-1,-1],"split_conditions":[9.717143E0,7.901786E0,1.5345238E1,3.65E1,2.5E0,1.3152395E1,1.5436508E1,5.155472E0,-4.3603832E-1,4.1021904E1,6.5E0,7.5E0,2.5E0,8E0,1.723611E1,3.1695404E0,5.1961536E0,-5.6011464E-2,-4.0515053E-1,8.470582E-1,7.5E0,-0E0,3.35E1,3.570262E1,2.75E1,5.5E0,1.15E1,-0E0,5.5E0,3.55E1,1.9694445E1,-3.7491295E-2,-2.0585371E-2,7.8867275E-1,5.5620946E-2,9.904248E-1,3.493291E-2,-9.9878035E-2,2.3500744E-1,3.572344E-1,-0E0,5.4036593E-1,4.5466E-3,8.7172E-1,-0E0,1.8822323E-1,1.4410834E0,-0E0,6.05257E-1,1.4100231E0,1.0013392E0,2.4067178E0,9.1550523E-1,1.2216656E0,-1.6292019E-1,1.4767969E0,1.7676566E0],"split_indices":[3,3,3,43,0,3,3,3,105,108,43,15,0,43,3,3,3,0,105,105,15,0,43,108,19,19,0,0,19,43,3,0,0,0,0,0,0,0,0,0,0,0,0,0,0,0,0,0,0,0,0,0,0,0,0,0,0],"split_type":[0,0,0,0,0,0,0,0,0,0,0,0,0,0,0,0,0,0,0,0,0,0,0,0,0,0,0,0,0,0,0,0,0,0,0,0,0,0,0,0,0,0,0,0,0,0,0,0,0,0,0,0,0,0,0,0,0],"sum_hessian":[3.8148E4,3.6539E4,1.609E3,3.625E4,2.89E2,7.4E2,8.69E2,3.5963E4,2.87E2,5E1,2.39E2,5.26E2,2.14E2,8.6E1,7.83E2,3.5434E4,5.29E2,1.54E2,1.33E2,4.8E1,2E0,2.1E1,2.18E2,4.79E2,4.7E1,1E1,2.04E2,1E0,8.5E1,2.3E2,5.53E2,3.2152E4,3.282E3,1.2E1,5.17E2,6.2E1,7.1E1,4.7E1,1E0,1E0,1E0,1.99E2,1.9E1,4.76E2,3E0,4.4E1,3E0,2E0,8E0,3.6E1,1.68E2,8.1E1,4E0,2.19E2,1.1E1,2.21E2,3.32E2],"tree_param":{"num_deleted":"0","num_feature":"110","num_nodes":"57","size_leaf_vector":"0"}},{"base_weights":[2.317893E-1,-2.63179E-1,1.1471485E1,4.586752E0,-2.9753026E-1,7.9956617E0,1.433439E1,-5.8363295E-1,5.0718217E0,-3.143899E-1,1.6661494E0,-0E0,8.069306E0,1.836326E1,1.2882018E1,-0E0,5.1354594E0,7.1029353E-1,-3.307151E-1,4.840075E0,-1.5843265E-1,8.129749E0,-2.604414E-1,1.6285368E1,2.1767706E1,1.3223349E1,9.348048E-1,5.236017E0,-0E0,4.3187323E0,4.7682324E-1,-2.715954E-1,-3.5279688E-1,-1.1044857E-1,8.929545E0,-3.072526E-1,9.133088E0,7.6634717E0,9.955001E0,-0E0,1.642772E1,1.1017504E1,1.4347486E1,1.2191752E1,-4.3773115E-1],"categories":[],"categories_nodes":[],"categories_segments":[],"categories_sizes":[],"default_left":[true,true,true,true,true,true,true,false,true,true,true,false,true,true,true,false,true,true,true,true,true,true,false,true,false,true,true,false,false,false,false,false,false,false,false,false,false,false,false,false,false,false,false,false,false],"id":4,"left_children":[1,3,5,7,9,11,13,-1,15,17,19,-1,21,23,25,-1,27,29,31,33,35,37,-1,39,-1,41,43,-1,-1,-1,-1,-1,-1,-1,-1,-1,-1,-1,-1,-1,-1,-1,-1,-1,-1],"loss_changes":[2.1234917E5,6.046079E3,1.5683125E4,6.8738135E2,1.1883257E3,4.7416016E2,4.6002344E3,0E0,9.990283E1,5.9836816E2,1.8080739E3,0E0,4.4583203E2,8.849453E2,2.504875E3,0E0,7.85083E1,4.1755222E2,3.991162E1,2.3768643E3,1.8003842E2,3.6114844E2,0E0,4.1932812E2,0E0,1.1579062E3,4.318882E2,0E0,0E0,0E0,0E0,0E0,0E0,0E0,0E0,0E0,0E0,0E0,0E0,0E0,0E0,0E0,0E0,0E0,0E0],"parents":[2147483647,0,0,1,1,2,2,3,3,4,4,5,5,6,6,8,8,9,9,10,10,12,12,13,13,14,14,16,16,17,17,18,18,19,19,20,20,21,21,23,23,25,25,26,26],"right_children":[2,4,6,8,10,12,14,-1,16,18,20,-1,22,24,26,-1,28,30,32,34,36,38,-1,40,-1,42,44,-1,-1,-1,-1,-1,-1,-1,-1,-1,-1,-1,-1,-1,-1,-1,-1,-1,-1],"split_conditions":[9.717143E0,4.3095237E-1,1.5266798E1,3.5E0,3.65E1,-9.961974E-3,-4.5691618E-1,-5.8363296E-2,3.5E0,6.690476E-1,-2.0187205E-2,-0E0,5.1666665E-1,3.333333E-1,3.030303E-1,-0E0,5E-1,-1.920842E-1,9.3813777E-1,-2.1050997E-2,2.7777778E-2,1.3723612E1,-2.604414E-2,3.5E0,2.1767707E0,1.7197561E1,1.6174242E1,5.236017E-1,-0E0,4.3187323E-1,4.7682326E-2,-2.715954E-2,-3.5279687E-2,-1.1044857E-2,8.929545E-1,-3.072526E-2,9.133088E-1,7.6634717E-1,9.955001E-1,-0E0,1.642772E0,1.1017504E0,1.4347485E0,1.2191752E0,-4.3773115E-2],"split_indices":[3,4,3,22,43,100,106,0,44,4,106,0,4,4,4,0,16,106,4,106,11,3,0,22,0,3,3,0,0,0,0,0,0,0,0,0,0,0,0,0,0,0,0,0,0],"split_type":[0,0,0,0,0,0,0,0,0,0,0,0,0,0,0,0,0,0,0,0,0,0,0,0,0,0,0,0,0,0,0,0,0,0,0,0,0,0,0,0,0,0,0,0,0],"sum_hessian":[3.8148E4,3.6539E4,1.609E3,2.54E2,3.6285E4,7.3E2,8.79E2,2E1,2.34E2,3.5982E4,3.03E2,6E0,7.24E2,2.28E2,6.51E2,2E0,2.32E2,5.54E2,3.5428E4,1.12E2,1.91E2,7.2E2,4E0,1.47E2,8.1E1,6.32E2,1.9E1,2.26E2,6E0,3E1,5.24E2,9.761E3,2.5667E4,5E1,6.2E1,1.9E2,1E0,5.82E2,1.38E2,1E0,1.46E2,2.2E2,4.12E2,2E0,1.7E1],"tree_param":{"num_deleted":"0","num_feature":"110","num_nodes":"45","size_leaf_vector":"0"}},{"base_weights":[2.0900983E-1,-2.3675226E-1,1.0331952E1,3.4357986E0,-2.736664E-1,7.1977286E0,1.2912391E1,-2.4203937E-1,3.812329E0,-2.7553907E-1,6.172049E0,6.5530686E0,8.487934E0,1.1891704E1,1.7977207E1,-0E0,-5.258173E-1,4.5862975E0,1.5863435E0,2.3027618E-1,-2.8359273E-1,1.1495538E1,-0E0,6.8587284E0,-0E0,8.590198E0,-0E0,1.2190881E1,6.344927E-1,-0E0,4.6134944E0,2.999478E-1,7.3316593E0,-3.197183E-1,6.923489E-1,-2.1111433E-1,-3.2258415E-1,1.4901192E1,-0E0,6.940578E0,-2.396061E-1,-1.0949037E0,4.672773E0,8.6457E0,-0E0,9.980386E0,1.3240687E1,-1.7758338E0,6.0232525E0],"categories":[],"categories_nodes":[],"categories_segments":[],"categories_sizes":[],"default_left":[true,true,true,true,true,true,true,true,true,true,true,true,true,true,false,false,false,true,true,true,true,true,false,true,true,true,false,true,true,false,false,false,false,false,false,false,false,false,false,false,false,false,false,false,false,false,false,false,false],"id":5,"left_children":[1,3,5,7,9,11,13,15,17,19,21,23,25,27,-1,-1,-1,29,31,33,35,37,-1,39,41,43,-1,45,47,-1,-1,-1,-1,-1,-1,-1,-1,-1,-1,-1,-1,-1,-1,-1,-1,-1,-1,-1,-1],"loss_changes":[1.7224786E5,4.9230137E3,1.2727109E4,5.365449E2,3.7945044E2,4.0197266E2,4.0367656E3,6.6963406E0,4.9953613E2,1.4795093E2,3.178893E2,1.049541E3,2.628379E2,2.3461562E3,0E0,0E0,0E0,3.9015625E1,5.8665234E2,1.4321497E2,9.527222E1,2.2744513E2,0E0,3.4522656E2,8.94807E1,1.4814844E2,0E0,1.2995E3,3.259326E2,0E0,0E0,0E0,0E0,0E0,0E0,0E0,0E0,0E0,0E0,0E0,0E0,0E0,0E0,0E0,0E0,0E0,0E0,0E0,0E0],"parents":[2147483647,0,0,1,1,2,2,3,3,4,4,5,5,6,6,7,7,8,8,9,9,10,10,11,11,12,12,13,13,17,17,18,18,19,19,20,20,21,21,23,23,24,24,25,25,27,27,28,28],"right_children":[2,4,6,8,10,12,14,16,18,20,22,24,26,28,-1,-1,-1,30,32,34,36,38,-1,40,42,44,-1,46,48,-1,-1,-1,-1,-1,-1,-1,-1,-1,-1,-1,-1,-1,-1,-1,-1,-1,-1,-1,-1],"split_conditions":[9.717143E0,5.2086955E-1,1.5266798E1,3.5E0,1.3392857E-1,1.2757978E1,6.363636E-2,5.1585712E0,4.6256685E-1,6.9398E-1,-2.1798119E-12,1.2747449E1,2.1969697E-1,2.649123E-1,1.7977208E0,-0E0,-5.2581728E-2,-4.074074E-2,5.1564026E-1,-1.890355E-3,9.6318877E-1,2.5E-1,-0E0,5.1666665E-1,-2.1389127E-12,4.6428573E-1,-0E0,1.74739E1,3.45E1,-0E0,4.6134946E-1,2.999478E-2,7.331659E-1,-3.197183E-2,6.923489E-2,-2.1111434E-2,-3.2258417E-2,1.4901192E0,-0E0,6.940578E-1,-2.396061E-2,-1.0949037E-1,4.672773E-1,8.645701E-1,-0E0,9.980386E-1,1.3240688E0,-1.7758338E-1,6.0232526E-1],"split_indices":[3,4,3,22,9,3,9,3,4,4,100,3,9,4,0,0,0,100,4,100,4,9,0,4,100,12,0,3,65,0,0,0,0,0,0,0,0,0,0,0,0,0,0,0,0,0,0,0,0],"split_type":[0,0,0,0,0,0,0,0,0,0,0,0,0,0,0,0,0,0,0,0,0,0,0,0,0,0,0,0,0,0,0,0,0,0,0,0,0,0,0,0,0,0,0,0,0,0,0,0,0],"sum_hessian":[3.8148E4,3.6539E4,1.609E3,3.6E2,3.6179E4,7.3E2,8.79E2,3.1E1,3.29E2,3.6171E4,8E0,4.96E2,2.34E2,7.36E2,1.43E2,1E0,3E1,2.4E2,8.9E1,5.47E2,3.5624E4,4E0,4E0,4.75E2,2.1E1,2.32E2,2E0,7.16E2,2E1,1E0,2.39E2,7.5E1,1.4E1,2.4E2,3.07E2,1.2553E4,2.3071E4,3E0,1E0,4.71E2,4E0,1.9E1,2E0,2.31E2,1E0,2.37E2,4.79E2,1.3E1,7E0],"tree_param":{"num_deleted":"0","num_feature":"110","num_nodes":"49","size_leaf_vector":"0"}},{"base_weights":[1.8842928E-1,8.484163E0,-2.3744948E-1,6.782946E0,1.2931652E1,2.8647344E0,-2.4654984E-1,7.3221107E0,2.906298E0,1.1950419E1,1.7821415E1,2.2372139E0,9.722554E0,-2.4829273E-1,5.675342E0,6.6592903E0,9.432287E0,1.8855083E0,8.869331E0,1.21313925E1,2.1002254E0,1.2927612E0,6.6473713E0,1.2098038E1,-0E0,1.0721608E-1,-2.5692677E-1,-0E0,1.0841026E1,8.333077E0,6.2629137E0,9.486891E0,-0E0,2.9684825E0,-0E0,1.2211017E1,-0E0,7.3545823E0,-9.617764E-1,2.7752662E-1,6.4431057E0,1.5210584E1,-0E0,-1.3291817E-2,2.8855333E0,-1.9331217E-1,-2.9032713E-1,1.3783602E1,-0E0],"categories":[],"categories_nodes":[],"categories_segments":[],"categories_sizes":[],"default_left":[true,true,true,true,true,true,true,true,true,true,false,true,true,true,true,true,true,true,false,true,true,true,false,true,false,true,true,false,true,false,false,false,false,false,false,false,false,false,false,false,false,false,false,false,false,false,false,false,false],"id":6,"left_children":[1,3,5,7,9,11,13,15,17,19,-1,21,23,25,27,29,31,33,-1,35,37,39,-1,41,-1,43,45,-1,47,-1,-1,-1,-1,-1,-1,-1,-1,-1,-1,-1,-1,-1,-1,-1,-1,-1,-1,-1,-1],"loss_changes":[1.3486403E5,1.3818422E4,9.989142E2,2.7023164E3,1.9506797E3,3.0190332E2,3.2059937E2,1.432293E3,9.04432E2,6.022969E2,0E0,3.1602814E2,2.1647858E2,1.1256616E2,2.9775363E2,4.0426562E2,1.961543E2,2.88088E2,0E0,3.7255078E2,2.3189001E2,3.6499658E2,0E0,2.7863416E2,0E0,3.0698718E2,7.020874E1,0E0,1.7231152E2,0E0,0E0,0E0,0E0,0E0,0E0,0E0,0E0,0E0,0E0,0E0,0E0,0E0,0E0,0E0,0E0,0E0,0E0,0E0,0E0],"parents":[2147483647,0,0,1,1,2,2,3,3,4,4,5,5,6,6,7,7,8,8,9,9,11,11,12,12,13,13,14,14,15,15,16,16,17,17,19,19,20,20,21,21,23,23,25,25,26,26,28,28],"right_children":[2,4,6,8,10,12,14,16,18,20,-1,22,24,26,28,30,32,34,-1,36,38,40,-1,42,-1,44,46,-1,48,-1,-1,-1,-1,-1,-1,-1,-1,-1,-1,-1,-1,-1,-1,-1,-1,-1,-1,-1,-1],"split_conditions":[4.8809522E-1,2.65E1,5.2086955E-1,2.0447761E-1,4.6060607E-1,3.6E1,1.3392857E-1,1.05E1,1.0727612E-1,2.6425564E-1,1.7821416E0,5.1564026E-1,5E-2,7.3861283E-1,1.3579298E-2,5.5E0,8.378649E0,9.5E0,8.8693315E-1,4.4949496E-1,3.030303E-1,-2.1779245E-12,6.6473716E-1,-2.1330416E-12,-0E0,2.6794624E0,9.6318877E-1,-0E0,-2.1798119E-12,8.3330774E-1,6.262914E-1,9.486891E-1,-0E0,2.9684827E-1,-0E0,1.2211016E0,-0E0,7.3545825E-1,-9.617764E-2,2.7752662E-2,6.443106E-1,1.5210584E0,-0E0,-1.3291817E-3,2.8855333E-1,-1.9331217E-2,-2.9032713E-2,1.3783602E0,-0E0],"split_indices":[4,21,4,4,4,21,9,21,12,106,0,4,12,4,106,21,107,21,0,4,4,100,0,100,0,107,4,0,100,0,0,0,0,0,0,0,0,0,0,0,0,0,0,0,0,0,0,0,0],"split_type":[0,0,0,0,0,0,0,0,0,0,0,0,0,0,0,0,0,0,0,0,0,0,0,0,0,0,0,0,0,0,0,0,0,0,0,0,0,0,0,0,0,0,0,0,0,0,0,0,0],"sum_hessian":[3.8148E4,1.863E3,3.6285E4,1.351E3,5.12E2,1.02E2,3.6183E4,1.183E3,1.68E2,4.31E2,8.1E1,9.6E1,6E0,3.6175E4,8E0,9.07E2,2.76E2,1.46E2,2.2E1,4.22E2,9E0,8.2E1,1.4E1,5E0,1E0,8.3E2,3.5345E4,4E0,4E0,1.65E2,7.42E2,2.75E2,1E0,9.1E1,5.5E1,4.19E2,3E0,4E0,5E0,7.1E1,1.1E1,4E0,1E0,7.93E2,3.7E1,1.2274E4,2.3071E4,3E0,1E0],"tree_param":{"num_deleted":"0","num_feature":"110","num_nodes":"49","size_leaf_vector":"0"}},{"base_weights":[1.7010126E-1,-1.9284208E-1,8.413443E0,2.659268E0,-2.2157118E-1,5.6700306E0,1.0464391E1,3.0132368E0,3.5670894E-1,-2.3633501E-1,1.2366745E0,5.719475E0,-2.7735075E-1,9.564822E0,1.4307406E1,3.300022E0,-2.6157188E-1,-5.566643E-1,4.357123E0,3.5645226E-1,-2.4416852E-1,-4.2424002E-1,3.1573663E0,-0E0,5.77669E0,9.776999E0,-1.5585791E0,-0E0,1.44159975E1,2.6515678E-1,3.464938E0,1.9245344E0,-9.7883755E-1,-0E0,6.7564664E0,5.203959E0,1.3154079E-1,-2.4469623E-1,1.0285017E0,8.090565E0,1.0124468E-1,5.626935E0,9.093165E0,8.649104E0,1.1476567E1,-0E0,1.4524511E1],"categories":[],"categories_nodes":[],"categories_segments":[],"categories_sizes":[],"default_left":[true,true,true,true,true,true,true,true,true,true,true,true,false,true,true,true,false,true,true,true,true,false,true,false,true,true,false,false,true,false,false,false,false,false,false,false,false,false,false,false,false,false,false,false,false,false,false],"id":7,"left_children":[1,3,5,7,9,11,13,15,17,19,21,23,-1,25,27,29,-1,31,33,35,37,-1,39,-1,41,43,-1,-1,45,-1,-1,-1,-1,-1,-1,-1,-1,-1,-1,-1,-1,-1,-1,-1,-1,-1,-1],"loss_changes":[1.14220516E5,2.970247E3,8.838141E3,2.5945312E2,7.692184E2,2.5979297E2,2.7980078E3,3.214502E2,2.3408519E2,1.6532166E2,1.164348E3,2.5297461E2,0E0,1.8651641E3,3.2242578E2,1.0542334E2,0E0,3.642166E1,1.8303429E2,4.376676E2,1.6171387E1,0E0,2.450107E3,0E0,1.4085156E2,1.1103516E3,0E0,0E0,3.1977344E2,0E0,0E0,0E0,0E0,0E0,0E0,0E0,0E0,0E0,0E0,0E0,0E0,0E0,0E0,0E0,0E0,0E0,0E0],"parents":[2147483647,0,0,1,1,2,2,3,3,4,4,5,5,6,6,7,7,8,8,9,9,10,10,11,11,13,13,14,14,15,15,17,17,18,18,19,19,20,20,22,22,24,24,25,25,28,28],"right_children":[2,4,6,8,10,12,14,16,18,20,22,24,-1,26,28,30,-1,32,34,36,38,-1,40,-1,42,44,-1,-1,46,-1,-1,-1,-1,-1,-1,-1,-1,-1,-1,-1,-1,-1,-1,-1,-1,-1,-1],"split_conditions":[9.717143E0,5.2086955E-1,1.4309524E1,9.5E0,3.75E1,5.1666665E-1,3.75E1,3.0886245E-1,3.2811162E0,6.690476E-1,4.388889E-1,-9.961974E-3,-2.7735075E-2,3.541667E-1,2.5E0,1.05E1,-2.615719E-2,5.5E0,-4.404408E-1,-2.1638605E-1,5.15E1,-4.2424005E-2,5.138889E-1,-0E0,2.75E1,1.8973684E1,-1.558579E-1,-0E0,-2.6094682E-12,2.6515678E-2,3.464938E-1,1.9245344E-1,-9.788375E-2,-0E0,6.7564666E-1,5.2039593E-1,1.3154079E-2,-2.4469623E-2,1.0285018E-1,8.0905646E-1,1.0124468E-2,5.6269354E-1,9.0931654E-1,8.649104E-1,1.1476568E0,-0E0,1.4524511E0],"split_indices":[3,4,3,21,19,4,21,7,109,4,3,100,0,4,20,19,0,20,106,106,21,0,3,0,19,3,0,0,102,0,0,0,0,0,0,0,0,0,0,0,0,0,0,0,0,0,0],"split_type":[0,0,0,0,0,0,0,0,0,0,0,0,0,0,0,0,0,0,0,0,0,0,0,0,0,0,0,0,0,0,0,0,0,0,0,0,0,0,0,0,0,0,0,0,0,0,0],"sum_hessian":[3.8148E4,3.6539E4,1.609E3,3.6E2,3.6179E4,6.92E2,9.17E2,3.08E2,5.2E1,3.5824E4,3.55E2,6.88E2,4E0,7.48E2,1.69E2,2.86E2,2.2E1,4.1E1,1.1E1,4.5E2,3.5374E4,1.88E2,1.67E2,6E0,6.82E2,7.35E2,1.3E1,1E0,1.68E2,1.8E1,2.68E2,2E0,3.9E1,3E0,8E0,1.7E1,4.33E2,3.5368E4,6E0,6.2E1,1.05E2,6.58E2,2.4E1,4.49E2,2.86E2,1E0,1.67E2],"tree_param":{"num_deleted":"0","num_feature":"110","num_nodes":"47","size_leaf_vector":"0"}},{"base_weights":[1.5340948E-1,-1.7737019E-1,7.4859133E0,-1.9573136E-1,1.9142207E0,5.1675014E0,9.541726E0,-1.9938867E-1,1.209321E0,5.1179487E-1,3.3305283E0,4.6304827E0,6.278268E0,8.777883E0,1.3262368E1,-2.0635219E-1,2.4191748E-1,-2.933186E-1,2.367492E0,1.0575633E-1,2.8893807E0,4.526674E0,2.773631E0,5.0149074E0,1.1085818E-1,6.362486E0,-0E0,6.715804E0,9.69853E0,-2.2510453E-1,-9.897852E-2,7.5176325E0,9.931228E-2,-0E0,-1.0977018E0,5.8038297E0,5.9515256E-1,1.1974779E0,-5.154717E-1,5.999546E0,1.1118678E0,-0E0,2.8488142E0,-0E0,5.070287E0,-9.308262E-1,3.515837E0,7.099334E0,4.895363E0,-0E0,7.1564364E0,9.079891E0,1.1701563E1],"categories":[],"categories_nodes":[],"categories_segments":[],"categories_sizes":[],"default_left":[true,true,true,true,true,true,true,true,true,true,true,true,true,true,false,true,true,true,true,true,true,false,true,true,true,true,false,true,true,false,false,false,false,false,false,false,false,false,false,false,false,false,false,false,false,false,false,false,false,false,false,false,false],"id":8,"left_children":[1,3,5,7,9,11,13,15,17,19,21,23,25,27,-1,29,31,33,35,37,39,-1,41,43,45,47,-1,49,51,-1,-1,-1,-1,-1,-1,-1,-1,-1,-1,-1,-1,-1,-1,-1,-1,-1,-1,-1,-1,-1,-1,-1,-1],"loss_changes":[9.260264E4,1.3850144E3,7.658336E3,1.7611218E2,5.815736E2,3.2651758E2,2.135711E3,1.1064343E2,1.7284346E2,1.26136475E2,1.5693359E1,8.777246E2,1.7985938E2,1.1508945E3,0E0,6.834924E1,4.8232596E2,9.03824E0,2.5534491E2,1.0442109E2,3.2782333E1,0E0,1.488092E1,1.7140039E2,1.8873384E2,1.0799414E2,0E0,7.462119E2,3.0179688E2,0E0,0E0,0E0,0E0,0E0,0E0,0E0,0E0,0E0,0E0,0E0,0E0,0E0,0E0,0E0,0E0,0E0,0E0,0E0,0E0,0E0,0E0,0E0,0E0],"parents":[2147483647,0,0,1,1,2,2,3,3,4,4,5,5,6,6,7,7,8,8,9,9,10,10,11,11,12,12,13,13,15,15,16,16,17,17,18,18,19,19,20,20,22,22,23,23,24,24,25,25,27,27,28,28],"right_children":[2,4,6,8,10,12,14,16,18,20,22,24,26,28,-1,30,32,34,36,38,40,-1,42,44,46,48,-1,50,52,-1,-1,-1,-1,-1,-1,-1,-1,-1,-1,-1,-1,-1,-1,-1,-1,-1,-1,-1,-1,-1,-1,-1,-1],"split_conditions":[9.503846E0,3.1009614E-1,1.5345238E1,7.901786E0,1.0869565E-2,1.2757978E1,6.363636E-2,2.1169355E-2,4E0,1.6901644E-4,-8.3801854E-1,7.5E0,2.1969697E-1,1.7197561E1,1.3262368E0,6.5E0,2.1622254E-2,9.363796E0,9.484061E-1,7.5E0,-1.31073E1,4.526674E-1,3.0330881E-2,-1.7845846E0,2.2516249E1,7.0170593E-1,-0E0,-2.5641075E1,2.197619E1,-2.2510452E-2,-9.897852E-3,7.517633E-1,9.931228E-3,-0E0,-1.0977018E-1,5.80383E-1,5.9515256E-2,1.19747795E-1,-5.154717E-2,5.999546E-1,1.1118678E-1,-0E0,2.8488144E-1,-0E0,5.0702876E-1,-9.308262E-2,3.515837E-1,7.099334E-1,4.895363E-1,-0E0,7.1564364E-1,9.0798914E-1,1.1701564E0],"split_indices":[3,6,3,3,12,3,9,13,88,100,105,15,9,3,0,88,13,3,108,15,108,0,12,105,108,6,0,108,3,0,0,0,0,0,0,0,0,0,0,0,0,0,0,0,0,0,0,0,0,0,0,0,0],"split_type":[0,0,0,0,0,0,0,0,0,0,0,0,0,0,0,0,0,0,0,0,0,0,0,0,0,0,0,0,0,0,0,0,0,0,0,0,0,0,0,0,0,0,0,0,0,0,0,0,0,0,0,0,0],"sum_hessian":[3.8148E4,3.6501E4,1.647E3,3.6189E4,3.12E2,7.78E2,8.69E2,3.6103E4,8.6E1,1.61E2,1.51E2,5.34E2,2.44E2,7.26E2,1.43E2,3.5565E4,5.38E2,3.4E1,5.2E1,1.42E2,1.9E1,4E1,1.11E2,4.9E2,4.4E1,2.42E2,2E0,2.3E2,4.96E2,3.0197E4,5.368E3,8E0,5.3E2,2.5E1,9E0,1.5E1,3.7E1,5.7E1,8.5E1,4E0,1.5E1,4E0,1.07E2,4E0,4.86E2,3.2E1,1.2E1,1.54E2,8.8E1,1.3E1,2.17E2,3.87E2,1.09E2],"tree_param":{"num_deleted":"0","num_feature":"110","num_nodes":"53","size_leaf_vector":"0"}},{"base_weights":[1.3853703E-1,-1.0449507E-1,5.403835E0,8.823202E0,-1.5350741E-1,4.0068636E0,7.16461E0,3.9091522E-1,1.1993726E1,-1.663359E-1,1.1274992E0,1.4739856E0,4.633264E0,5.571098E0,8.1837015E0,-0E0,3.7057965E0,-0E0,1.2079686E1,1.6574281E-1,-1.8072176E-1,2.569431E0,-3.5530245E-1,-0E0,2.4856935E0,3.9725196E0,5.7143493E0,5.915045E0,-1.6021358E0,7.2645626E0,9.082485E0,1.1257324E0,-4.1080952E-1,5.465149E0,-0E0,9.921144E0,1.3292813E1,4.9967474E-1,-7.2657496E-2,-1.8176344E-1,8.509142E0,7.3040915E0,-0E0,-2.6708832E-1,2.7746534E0,2.6333096E0,-0E0,-0E0,4.216457E0,5.9706287E0,5.196076E-1,5.34819E0,8.735136E0,5.8641567E0,8.971527E0,-0E0,9.189876E0],"categories":[],"categories_nodes":[],"categories_segments":[],"categories_sizes":[],"default_left":[true,true,true,true,true,true,true,true,true,true,true,true,true,true,true,true,true,false,true,true,true,true,false,true,true,true,true,true,false,true,true,false,false,false,false,false,false,false,false,false,false,false,false,false,false,false,false,false,false,false,false,false,false,false,false,false,false],"id":9,"left_children":[1,3,5,7,9,11,13,15,17,19,21,23,25,27,29,31,33,-1,35,37,39,41,-1,43,45,47,49,51,-1,53,55,-1,-1,-1,-1,-1,-1,-1,-1,-1,-1,-1,-1,-1,-1,-1,-1,-1,-1,-1,-1,-1,-1,-1,-1,-1,-1],"loss_changes":[4.8870406E4,1.5870552E4,4.0042578E3,5.164949E3,5.865817E2,1.4314307E3,1.0201953E3,8.757287E1,1.5E2,1.7176373E2,7.7566504E2,2.9340167E2,4.1902832E2,7.829004E2,1.3899219E2,2.0690586E1,5.320877E1,0E0,7.8203125E0,1.2077515E2,2.301604E2,2.1594746E3,0E0,5.139975E1,5.916217E1,4.7283447E2,3.020996E2,2.6644824E2,0E0,3.512246E2,2.5494336E2,0E0,0E0,0E0,0E0,0E0,0E0,0E0,0E0,0E0,0E0,0E0,0E0,0E0,0E0,0E0,0E0,0E0,0E0,0E0,0E0,0E0,0E0,0E0,0E0,0E0,0E0],"parents":[2147483647,0,0,1,1,2,2,3,3,4,4,5,5,6,6,7,7,8,8,9,9,10,10,11,11,12,12,13,13,14,14,15,15,16,16,18,18,19,19,20,20,21,21,23,23,24,24,25,25,26,26,27,27,29,29,30,30],"right_children":[2,4,6,8,10,12,14,16,18,20,22,24,26,28,30,32,34,-1,36,38,40,42,-1,44,46,48,50,52,-1,54,56,-1,-1,-1,-1,-1,-1,-1,-1,-1,-1,-1,-1,-1,-1,-1,-1,-1,-1,-1,-1,-1,-1,-1,-1,-1,-1],"split_conditions":[7.643622E-2,-4.4537103E-1,1.25E1,6.5E0,3.75E1,1.15E1,1.8274583E-1,-4.639033E-1,6.5E0,1.05E1,4.5392387E-2,1.2799703E-1,2.25E1,2.6671581E1,2.75E1,-5.930139E-1,1.9735752E1,-0E0,6.5E0,-2.2045699E-12,5.5218446E-1,-8.185901E-4,-3.5530247E-2,8.5E0,3.7105453E1,3.5E0,6.157195E-2,1.95E1,-1.6021357E-1,1.9E1,-1.3241253E-11,1.1257324E-1,-4.108095E-2,5.465149E-1,-0E0,9.9211437E-1,1.3292813E0,4.9967475E-2,-7.26575E-3,-1.8176345E-2,8.509142E-1,7.3040915E-1,-0E0,-2.6708832E-2,2.7746534E-1,2.6333097E-1,-0E0,-0E0,4.216457E-1,5.970629E-1,5.1960763E-2,5.34819E-1,8.7351364E-1,5.864157E-1,8.971527E-1,-0E0,9.189876E-1],"split_indices":[14,106,65,0,19,19,14,106,44,0,102,14,19,109,65,106,109,0,15,102,106,100,0,65,109,0,102,19,0,19,102,0,0,0,0,0,0,0,0,0,0,0,0,0,0,0,0,0,0,0,0,0,0,0,0,0,0],"split_type":[0,0,0,0,0,0,0,0,0,0,0,0,0,0,0,0,0,0,0,0,0,0,0,0,0,0,0,0,0,0,0,0,0,0,0,0,0,0,0,0,0,0,0,0,0,0,0,0,0,0,0,0,0,0,0,0,0],"sum_hessian":[3.8148E4,3.6464E4,1.684E3,1.97E2,3.6267E4,9.44E2,7.4E2,5.5E1,1.42E2,3.5916E4,3.51E2,1.91E2,7.53E2,2.95E2,4.45E2,4.9E1,6E0,1E0,1.41E2,1.462E3,3.4454E4,1.81E2,1.7E2,7.7E1,1.14E2,4.76E2,2.77E2,2.83E2,1.2E1,2.3E2,2.15E2,1E1,3.9E1,4E0,2E0,5.7E1,8.4E1,6.26E2,8.36E2,3.4452E4,2E0,6.2E1,1.19E2,7.2E1,5E0,1.1E2,4E0,2.7E1,4.49E2,2.62E2,1.5E1,2.41E2,4.2E1,1.32E2,9.8E1,2E0,2.13E2],"tree_param":{"num_deleted":"0","num_feature":"110","num_nodes":"57","size_leaf_vector":"0"}}]},"name":"gbtree"},"learner_model_param":{"base_score":"5E-1","num_class":"0","num_feature":"110"},"objective":{"name":"reg:squarederror","reg_loss_param":{"scale_pos_weight":"1"}}},"version":[1,4,2]}
