{"learner":{"attributes":{},"feature_names":[" day"," trace 40 quant","competitiveness","empirical_distr_p","empirical_distr_q_0","empirical_distr_q_1","empirical_distr_q_10","empirical_distr_q_2","empirical_distr_q_3","empirical_distr_q_4","empirical_distr_q_5","empirical_distr_q_6","empirical_distr_q_7","empirical_distr_q_8","empirical_distr_q_9","my_layer_size","n_level","n_opp_level","opp_layer_size","trace 0 price","trace 0 quant","trace 1 price","trace 1 quant","trace 10 price","trace 10 quant","trace 11 price","trace 11 quant","trace 12 price","trace 12 quant","trace 13 price","trace 13 quant","trace 14 price","trace 14 quant","trace 15 price","trace 15 quant","trace 16 price","trace 16 quant","trace 17 price","trace 17 quant","trace 18 price","trace 18 quant","trace 19 price","trace 19 quant","trace 2 price","trace 2 quant","trace 20 price","trace 20 quant","trace 21 price","trace 21 quant","trace 22 price","trace 22 quant","trace 23 price","trace 23 quant","trace 24 price","trace 24 quant","trace 25 price","trace 25 quant","trace 26 price","trace 26 quant","trace 27 price","trace 27 quant","trace 28 price","trace 28 quant","trace 29 price","trace 29 quant","trace 3 price","trace 3 quant","trace 30 price","trace 30 quant","trace 31 price","trace 31 quant","trace 32 price","trace 32 quant","trace 33 price","trace 33 quant","trace 34 price","trace 34 quant","trace 35 price","trace 35 quant","trace 36 price","trace 36 quant","trace 37 price","trace 37 quant","trace 38 price","trace 38 quant","trace 39 price","trace 39 quant","trace 4 price","trace 4 quant","trace 40 price","trace 5 price","trace 5 quant","trace 6 price","trace 6 quant","trace 7 price","trace 7 quant","trace 8 price","trace 8 quant","trace 9 price","trace 9 quant","ufun_param_0","ufun_param_1","ufun_param_2","ufun_param_3","ufun_param_4","ufun_param_5","ufun_param_6","ufun_param_7","ufun_param_8","ufun_param_9"],"feature_types":["int","int","float","float","float","float","float","float","float","float","float","float","float","float","float","int","int","int","int","int","int","int","int","int","int","int","int","int","int","int","int","int","int","int","int","int","int","int","int","int","int","int","int","int","int","int","int","int","int","int","int","int","int","int","int","int","int","int","int","int","int","int","int","int","int","int","int","int","int","int","int","int","int","int","int","int","int","int","int","int","int","int","int","int","int","int","int","int","int","int","int","int","int","int","int","int","int","int","int","int","float","float","float","float","float","float","float","float","float","float"],"gradient_booster":{"model":{"gbtree_model_param":{"num_trees":"10","size_leaf_vector":"0"},"tree_info":[0,0,0,0,0,0,0,0,0,0],"trees":[{"base_weights":[7.250574E0,1.537957E0,1.5603427E1,5.776662E-1,1.0846996E1,1.09439535E1,2.0069984E1,1.8297447E-1,1.0932649E1,3.7745664E0,1.5958683E1,6.005761E0,1.2811212E1,1.7261105E1,2.366766E1,-5.0979696E-2,1.121875E1,5.7639484E0,1.6677185E1,1.9923581E0,1.6717741E1,5.171296E0,1.7835255E1,1.9506173E0,7.0020556E0,9.563239E0,1.3967331E1,3.6206896E0,1.740492E1,2.162546E1,2.6030777E1,-1.0550418E-1,1.7691177E1,9.273632E0,2.04625E1,-2.3076923E-1,6.9846153E0,1.0797101E1,4.0384614E-1,2.0431372E1,-0E0,7.358491E-1,9.098214E0,1.3205078E1,2.1123579E1,1.2578947E1,1E0,5.182773E0,7.5672555E0,4.910569E0,1.3114017E1,1.2999433E1,1.6782244E1,-0E0,9.458333E0,1.5395749E1,1.7871614E1],"categories":[],"categories_nodes":[],"categories_segments":[],"categories_sizes":[],"default_left":[true,true,true,true,true,true,true,true,true,true,true,true,true,true,true,true,true,true,false,true,true,true,true,true,true,true,true,true,true,false,false,false,false,false,false,false,false,false,false,false,false,false,false,false,false,false,false,false,false,false,false,false,false,false,false,false,false],"id":0,"left_children":[1,3,5,7,9,11,13,15,17,19,21,23,25,27,29,31,33,35,-1,37,39,41,43,45,47,49,51,53,55,-1,-1,-1,-1,-1,-1,-1,-1,-1,-1,-1,-1,-1,-1,-1,-1,-1,-1,-1,-1,-1,-1,-1,-1,-1,-1,-1,-1],"loss_changes":[1.059162E6,1.177542E5,1.871095E5,4.8747242E4,4.428175E4,4.0454312E4,4.5677375E4,2.9850178E4,1.2684465E4,1.1751592E4,1.4131422E4,4.8055586E3,1.165475E4,4.8055625E3,8.675125E3,1.0737109E4,3.828121E3,1.7741401E3,0E0,6.28942E3,3.9615508E3,1.7760693E3,8.619672E3,2.306776E3,8.3377344E2,1.3731781E4,5.9058125E3,6.9334845E2,1.7935625E3,0E0,0E0,0E0,0E0,0E0,0E0,0E0,0E0,0E0,0E0,0E0,0E0,0E0,0E0,0E0,0E0,0E0,0E0,0E0,0E0,0E0,0E0,0E0,0E0,0E0,0E0,0E0,0E0],"parents":[2147483647,0,0,1,1,2,2,3,3,4,4,5,5,6,6,7,7,8,8,9,9,10,10,11,11,12,12,13,13,14,14,15,15,16,16,17,17,19,19,20,20,21,21,22,22,23,23,24,24,25,25,26,26,27,27,28,28],"right_children":[2,4,6,8,10,12,14,16,18,20,22,24,26,28,30,32,34,36,-1,38,40,42,44,46,48,50,52,54,56,-1,-1,-1,-1,-1,-1,-1,-1,-1,-1,-1,-1,-1,-1,-1,-1,-1,-1,-1,-1,-1,-1,-1,-1,-1,-1,-1,-1],"split_conditions":[4.8199765E-2,4.706534E-2,2.95E1,2.361111E-1,-1.572768E-4,7.5E0,1.55E1,1.2773892E-1,2.85E1,1.45E1,1.45E1,1.9145115E-1,1.8330606E-2,7.5E0,1.85E1,4.051282E-1,2.85E1,3.5E0,1.6677185E0,6.5E0,1.6E1,3.2228712E-12,1.35E1,6.5E0,3.5270426E-1,2.361111E-1,1.05E1,4.5E0,1.15E1,2.162546E0,2.6030777E0,-1.0550418E-2,1.7691177E0,9.273632E-1,2.04625E0,-2.3076924E-2,6.9846153E-1,1.0797101E0,4.0384617E-2,2.0431373E0,-0E0,7.358491E-2,9.0982145E-1,1.3205079E0,2.1123579E0,1.2578948E0,1E-1,5.1827735E-1,7.5672555E-1,4.9105692E-1,1.3114017E0,1.2999433E0,1.6782244E0,-0E0,9.458333E-1,1.539575E0,1.7871615E0],"split_indices":[14,12,19,6,100,94,94,8,19,94,27,6,12,94,94,7,27,28,0,0,2,100,94,20,6,6,94,28,94,0,0,0,0,0,0,0,0,0,0,0,0,0,0,0,0,0,0,0,0,0,0,0,0,0,0,0,0],"split_type":[0,0,0,0,0,0,0,0,0,0,0,0,0,0,0,0,0,0,0,0,0,0,0,0,0,0,0,0,0,0,0,0,0,0,0,0,0,0,0,0,0,0,0,0,0,0,0,0,0,0,0,0,0,0,0,0,0],"sum_hessian":[2.22E4,1.3185E4,9.015E3,1.1954E4,1.231E3,4.415E3,4.6E3,1.1517E4,4.37E2,5.18E2,7.13E2,1.214E3,3.201E3,2.588E3,2.012E3,1.1278E4,2.39E2,2.32E2,2.05E2,4.57E2,6.1E1,1.07E2,6.06E2,2.42E2,9.72E2,8.45E2,2.356E3,2.8E1,2.56E3,1.087E3,9.25E2,1.1245E4,3.3E1,2E2,3.9E1,3.8E1,1.94E2,6.8E1,3.89E2,5E1,1.1E1,5.2E1,5.5E1,2.55E2,3.51E2,1.8E1,2.24E2,2.37E2,7.35E2,3.68E2,4.77E2,1.76E3,5.96E2,1.7E1,1.1E1,4.93E2,2.067E3],"tree_param":{"num_deleted":"0","num_feature":"110","num_nodes":"57","size_leaf_vector":"0"}},{"base_weights":[6.527846E0,1.3799094E1,-1.15126155E-1,6.0432553E0,1.6198414E1,-2.5328466E-1,1.9175598E1,7.783085E0,-4.7361168E-1,1.3782197E1,2.0971405E1,-2.923794E-1,9.288117E0,5.331209E0,1.0284518E1,-3.98237E-1,1.4091271E1,1.9092422E1,2.3209293E1,-3.4149206E-1,1.8567549E0,2.6344442E0,2.0974102E1,4.026264E0,6.1406827E0,8.961123E0,1.1545293E1,1.1942267E1,1.5533366E1,-3.4717217E-1,1.3179478E1,-0E0,4.6003585E0,1.576124E-1,8.485635E0,2.2405005E1,-0E0],"categories":[],"categories_nodes":[],"categories_segments":[],"categories_sizes":[],"default_left":[true,true,true,true,true,true,false,true,false,true,true,true,true,true,true,false,true,false,false,true,true,true,true,false,false,false,false,false,false,false,false,false,false,false,false,false,false],"id":1,"left_children":[1,3,5,7,9,11,-1,13,-1,15,17,19,21,23,25,-1,27,-1,-1,29,31,33,35,-1,-1,-1,-1,-1,-1,-1,-1,-1,-1,-1,-1,-1,-1],"loss_changes":[1.0725068E6,1.9693238E5,3.0737023E4,2.850175E4,9.2708E4,4.2103057E3,0E0,1.193275E4,0E0,2.3713312E4,1.0558625E4,1.1967694E3,3.2853767E3,9.3414844E2,1.3216016E3,0E0,1.585325E4,0E0,0E0,7.383418E2,1.3110398E3,3.6149496E2,4.9115674E2,0E0,0E0,0E0,0E0,0E0,0E0,0E0,0E0,0E0,0E0,0E0,0E0,0E0,0E0],"parents":[2147483647,0,0,1,1,2,2,3,3,4,4,5,5,7,7,9,9,10,10,11,11,12,12,13,13,14,14,16,16,19,19,20,20,21,21,22,22],"right_children":[2,4,6,8,10,12,-1,14,-1,16,18,20,22,24,26,-1,28,-1,-1,30,32,34,36,-1,-1,-1,-1,-1,-1,-1,-1,-1,-1,-1,-1,-1,-1],"split_conditions":[-4.95E1,1.95E1,3.0564785E-1,1.85E1,1.95E1,6.2453384E1,1.9175599E0,9.5E0,-4.736117E-2,9.5E0,2.35E1,6.5E0,5E-2,6.5E0,1.15E1,-3.98237E-2,1.55E1,1.9092423E0,2.3209293E0,3.611111E-1,1.35E1,1.55E1,1.0065202E2,4.0262643E-1,6.1406827E-1,8.961124E-1,1.1545293E0,1.1942267E0,1.5533366E0,-3.4717217E-2,1.3179477E0,-0E0,4.6003586E-1,1.576124E-2,8.485635E-1,2.2405005E0,-0E0],"split_indices":[36,87,10,33,33,108,0,33,0,33,33,32,10,33,33,0,33,0,0,8,96,92,108,0,0,0,0,0,0,0,0,0,0,0,0,0,0],"split_type":[0,0,0,0,0,0,0,0,0,0,0,0,0,0,0,0,0,0,0,0,0,0,0,0,0,0,0,0,0,0,0,0,0,0,0,0,0],"sum_hessian":[2.22E4,1.0599E4,1.1601E4,2.506E3,8.093E3,1.152E4,8.1E1,1.979E3,5.27E2,5.377E3,2.716E3,1.1475E4,4.5E1,1.003E3,9.76E2,1.14E2,5.263E3,1.484E3,1.232E3,1.1224E4,2.51E2,3E1,1.5E1,3.91E2,6.12E2,4.84E2,4.92E2,2.12E3,3.143E3,1.1221E4,3E0,1.49E2,1.02E2,2.3E1,7E0,1.4E1,1E0],"tree_param":{"num_deleted":"0","num_feature":"110","num_nodes":"37","size_leaf_vector":"0"}},{"base_weights":[5.876236E0,1.3492179E1,1.8939123E-1,9.538759E0,1.6741682E1,4.756206E-2,1.1183492E1,6.4079547E0,1.1174617E1,1.4646484E1,1.9365889E1,-1.00819916E-1,6.610977E0,5.133743E0,1.603006E1,5.0332203E0,7.8840704E0,-0E0,1.1216378E1,1.3882295E1,1.5548733E1,1.7827723E1,2.0827879E1,-3.1365174E-1,1.2420037E0,4.457702E0,1.4566427E1,1.0744893E1,-4.9753895E-1,-0E0,1.6433064E1,5.1588697E0,-2.4754399E-1,1.0581999E1,1.2185938E1,2.7281898E-1,2.0889425E1,1.8645921E0,-3.5028577E-1,4.5122948E-1,7.1137366E0,2.4820635E0,1.0837156E1,1.10475855E1,-0E0,-0E0,1.6632153E1],"categories":[],"categories_nodes":[],"categories_segments":[],"categories_sizes":[],"default_left":[true,true,true,true,true,true,true,true,true,true,true,true,true,true,true,true,false,false,true,false,false,false,true,true,true,true,false,true,false,false,true,false,false,false,false,false,false,false,false,false,false,false,false,false,false,false,false],"id":2,"left_children":[1,3,5,7,9,11,13,15,17,19,21,23,25,27,29,31,-1,-1,33,-1,-1,-1,35,37,39,41,-1,43,-1,-1,45,-1,-1,-1,-1,-1,-1,-1,-1,-1,-1,-1,-1,-1,-1,-1,-1],"loss_changes":[9.614011E5,1.21492125E5,1.9708777E4,2.1698406E4,2.8000125E4,1.2290066E4,4.42667E3,2.8243125E3,1.3704062E3,1.49E3,4.4278125E3,3.4989612E3,4.524173E3,2.4460688E3,6.1119336E2,5.6130273E2,0E0,0E0,1.3661875E3,0E0,0E0,0E0,1.266625E3,8.315265E2,7.6892393E3,2.6378853E3,0E0,1.2861523E2,0E0,0E0,2.895E2,0E0,0E0,0E0,0E0,0E0,0E0,0E0,0E0,0E0,0E0,0E0,0E0,0E0,0E0,0E0,0E0],"parents":[2147483647,0,0,1,1,2,2,3,3,4,4,5,5,6,6,7,7,8,8,9,9,10,10,11,11,12,12,13,13,14,14,15,15,18,18,22,22,23,23,24,24,25,25,27,27,30,30],"right_children":[2,4,6,8,10,12,14,16,18,20,22,24,26,28,30,32,-1,-1,34,-1,-1,-1,36,38,40,42,-1,44,-1,-1,46,-1,-1,-1,-1,-1,-1,-1,-1,-1,-1,-1,-1,-1,-1,-1,-1],"split_conditions":[3.1464648E-1,1.65E1,1.2916666E-1,1.15E1,2.15E1,1.6025642E-1,1.85E1,8.633972E0,5.5E0,1.85E1,2.45E1,3.7878788E0,1.0479166E1,4.5E0,2.5E0,2.792208E-1,7.88407E-1,-0E0,1.45E1,1.3882295E0,1.5548733E0,1.7827723E0,2.5E0,7.211111E-1,9.5E0,2.5E-2,1.4566427E0,2.3E1,-4.9753897E-2,-0E0,5.642857E0,5.1588696E-1,-2.47544E-2,1.0581999E0,1.2185938E0,2.7281899E-2,2.0889425E0,1.8645921E-1,-3.5028577E-2,4.5122948E-2,7.113737E-1,2.4820636E-1,1.0837157E0,1.1047586E0,-0E0,-0E0,1.6632153E0],"split_indices":[4,33,11,33,33,14,33,3,20,33,33,3,3,28,20,4,0,0,33,0,0,0,30,4,95,12,0,2,0,0,3,0,0,0,0,0,0,0,0,0,0,0,0,0,0,0,0],"split_type":[0,0,0,0,0,0,0,0,0,0,0,0,0,0,0,0,0,0,0,0,0,0,0,0,0,0,0,0,0,0,0,0,0,0,0,0,0,0,0,0,0,0,0,0,0,0,0],"sum_hessian":[2.22E4,9.489E3,1.2711E4,4.284E3,5.205E3,1.2551E4,1.6E2,1.474E3,2.81E3,2.9E3,2.305E3,1.2273E4,2.78E2,7.3E1,8.7E1,7.69E2,7.05E2,1E1,2.8E3,1.585E3,1.315E3,1.133E3,1.172E3,1.0601E4,1.672E3,2.21E2,5.7E1,3.7E1,3.6E1,2E0,8.5E1,7.53E2,1.6E1,1.706E3,1.094E3,4E0,1.168E3,1.7E2,1.0431E4,1.476E3,1.96E2,1.71E2,5E1,3.6E1,1E0,1E0,8.4E1],"tree_param":{"num_deleted":"0","num_feature":"110","num_nodes":"47","size_leaf_vector":"0"}},{"base_weights":[5.289916E0,1.1210072E1,-1.1854328E-1,7.1614337E0,1.4442222E1,-2.9557085E-1,1.6323692E1,1.0545387E0,8.546411E0,1.2439773E1,1.7275908E1,-3.8846233E-1,2.6996934E-1,1.648351E1,-0E0,3.0680594E0,-4.2669445E-1,6.1909533E0,1.0404732E1,1.1204798E1,1.3303236E1,1.5901907E1,1.9060604E1,-3.9847565E-1,-7.7034794E-2,4.9789233E0,2.6110997E-2,1.1395026E0,1.1114323E1,4.5923524E0,7.4446077E0,1.0607156E1,-2.427564E-1,1.0232768E1,1.159148E1,-2.3639424E-1,-4.1403583E-1,2.3467462E0,-2.5896186E-1,2.9274623E0,1.0984964E1,2.0766177E0,-4.4947386E-1],"categories":[],"categories_nodes":[],"categories_segments":[],"categories_sizes":[],"default_left":[true,true,true,true,true,true,true,true,true,true,true,true,true,false,false,true,false,true,true,true,false,false,false,true,true,true,true,false,false,false,false,false,false,false,false,false,false,false,false,false,false,false,false],"id":3,"left_children":[1,3,5,7,9,11,13,15,17,19,21,23,25,-1,-1,27,-1,29,31,33,-1,-1,-1,35,37,39,41,-1,-1,-1,-1,-1,-1,-1,-1,-1,-1,-1,-1,-1,-1,-1,-1],"loss_changes":[7.1096425E5,1.3839012E5,3.3614816E4,3.9723266E4,3.2921E4,6.043787E2,3.7320312E2,2.6314397E3,1.6564938E4,3.2933125E3,5.3183125E3,2.6011719E1,1.7928698E3,0E0,0E0,5.6528906E3,0E0,3.2463906E3,4.7207188E3,2.02125E2,0E0,0E0,0E0,1.7450317E1,1.2965334E2,7.774468E2,1.5082701E3,0E0,0E0,0E0,0E0,0E0,0E0,0E0,0E0,0E0,0E0,0E0,0E0,0E0,0E0,0E0,0E0],"parents":[2147483647,0,0,1,1,2,2,3,3,4,4,5,5,6,6,7,7,8,8,9,9,10,10,11,11,12,12,15,15,17,17,18,18,19,19,23,23,24,24,25,25,26,26],"right_children":[2,4,6,8,10,12,14,16,18,20,22,24,26,-1,-1,28,-1,30,32,34,-1,-1,-1,36,38,40,42,-1,-1,-1,-1,-1,-1,-1,-1,-1,-1,-1,-1,-1,-1,-1,-1],"split_conditions":[-4.95E1,1.4240385E1,1.7786364E1,3.776515E0,2.05E1,4.1961536E0,3.45E1,1.65E1,1.25E1,1.75E1,2.45E1,3.55E1,1.05E1,1.648351E0,-0E0,1.25E1,-4.2669445E-2,8.5E0,2.15E1,1.55E1,1.3303236E0,1.5901908E0,1.9060605E0,2.5E0,2.9E1,1.3416666E1,1.25E1,1.1395027E-1,1.1114323E0,4.5923525E-1,7.4446076E-1,1.0607156E0,-2.427564E-2,1.0232768E0,1.1591481E0,-2.3639424E-2,-4.1403584E-2,2.3467462E-1,-2.5896186E-2,2.9274625E-1,1.0984964E0,2.0766178E-1,-4.4947386E-2],"split_indices":[35,3,3,3,33,3,19,33,33,33,33,19,43,0,0,33,0,33,25,33,0,0,0,26,35,3,33,0,0,0,0,0,0,0,0,0,0,0,0,0,0,0,0],"split_type":[0,0,0,0,0,0,0,0,0,0,0,0,0,0,0,0,0,0,0,0,0,0,0,0,0,0,0,0,0,0,0,0,0,0,0,0,0,0,0,0,0,0,0],"sum_hessian":[2.22E4,1.0599E4,1.1601E4,4.708E3,5.891E3,1.1479E4,1.22E2,8.72E2,3.836E3,3.457E3,2.434E3,9.875E3,1.604E3,1.21E2,1E0,3.72E2,5E2,1.696E3,2.14E3,1.433E3,2.024E3,1.384E3,1.05E3,9.536E3,3.39E2,7.6E1,1.528E3,3.02E2,7E1,7.51E2,9.45E2,2.101E3,3.9E1,4.23E2,1.01E3,8.93E2,8.643E3,1.9E1,3.2E2,5.9E1,1.7E1,2.91E2,1.237E3],"tree_param":{"num_deleted":"0","num_feature":"110","num_nodes":"43","size_leaf_vector":"0"}},{"base_weights":[4.761891E0,1.0928372E1,1.5721211E-1,7.7112927E0,1.3572295E1,4.28724E0,-3.378879E-1,5.1976676E0,9.0239525E0,1.2365179E1,1.6599041E1,9.504396E-1,1.0190987E1,-3.4404653E-1,1.1704833E1,4.0416727E0,6.3487E0,7.6662183E0,9.335341E0,1.1630389E1,1.3785557E1,-0E0,1.6639776E1,5.283614E0,3.0301562E-2,4.7359667E0,1.2073924E1,-3.5210595E-1,3.5428686E0,-0E0,1.5579006E1,4.1709485E0,-5.7763827E-1,5.4187236E0,6.5814705E0,7.673568E0,-0E0,-0E0,9.378646E0,1.1238841E1,1.2309171E1,-6.4862907E-1,4.4528217E0,1.565102E1,1.744422E1,2.8295972E0,1.0130147E1,5.439624E0,-2.217959E-1,7.4190083E0,-3.8852313E-1,1.0186445E1,1.4291189E1,-3.5414195E-1,2.3286057E0,-0E0,9.021597E0],"categories":[],"categories_nodes":[],"categories_segments":[],"categories_sizes":[],"default_left":[true,true,true,true,true,true,true,true,true,true,true,true,true,true,true,true,true,true,true,true,false,true,true,true,true,true,true,true,true,false,false,false,false,false,false,false,false,false,false,false,false,false,false,false,false,false,false,false,false,false,false,false,false,false,false,false,false],"id":4,"left_children":[1,3,5,7,9,11,13,15,17,19,21,23,25,27,29,31,33,35,37,39,-1,41,43,45,47,49,51,53,55,-1,-1,-1,-1,-1,-1,-1,-1,-1,-1,-1,-1,-1,-1,-1,-1,-1,-1,-1,-1,-1,-1,-1,-1,-1,-1,-1,-1],"loss_changes":[6.302774E5,8.040175E4,2.6034145E4,1.3949391E4,1.8525938E4,2.6729486E4,7.322096E2,1.8330547E3,9.468594E2,3.4763125E3,8.9503125E2,3.4274556E3,4.8180117E3,3.2476855E2,2.858061E2,4.820381E2,3.0078125E0,1.5449219E0,9.6490625E2,2.82125E2,0E0,4.1338123E1,5.6921875E2,1.6376523E3,1.0393229E3,1.8468364E3,1.1288164E3,4.289624E1,4.6891257E2,0E0,0E0,0E0,0E0,0E0,0E0,0E0,0E0,0E0,0E0,0E0,0E0,0E0,0E0,0E0,0E0,0E0,0E0,0E0,0E0,0E0,0E0,0E0,0E0,0E0,0E0,0E0,0E0],"parents":[2147483647,0,0,1,1,2,2,3,3,4,4,5,5,6,6,7,7,8,8,9,9,10,10,11,11,12,12,13,13,14,14,15,15,16,16,17,17,18,18,19,19,21,21,22,22,23,23,24,24,25,25,26,26,27,27,28,28],"right_children":[2,4,6,8,10,12,14,16,18,20,22,24,26,28,30,32,34,36,38,40,-1,42,44,46,48,50,52,54,56,-1,-1,-1,-1,-1,-1,-1,-1,-1,-1,-1,-1,-1,-1,-1,-1,-1,-1,-1,-1,-1,-1,-1,-1,-1,-1,-1,-1],"split_conditions":[3.1464648E-1,1.65E1,-4.95E1,1.15E1,2.25E1,3.776515E0,1.7847902E1,8.606452E0,1.35E1,1.95E1,2.5E0,8.208556E-1,2.15E1,4.0908232E-1,7.5E0,8.55042E0,9.5E0,1.6557693E1,4.5E0,1.85E1,1.3785557E0,1.9497437E1,2.3517683E1,8.5E0,1.5E0,1.45E1,1.75E1,6.125E-1,3.8863637E0,-0E0,1.5579007E0,4.1709486E-1,-5.7763826E-2,5.418724E-1,6.5814704E-1,7.673568E-1,-0E0,-0E0,9.378646E-1,1.1238841E0,1.2309171E0,-6.486291E-2,4.452822E-1,1.565102E0,1.744422E0,2.8295973E-1,1.0130147E0,5.439624E-1,-2.217959E-2,7.4190086E-1,-3.8852315E-2,1.0186446E0,1.429119E0,-3.5414197E-2,2.3286057E-1,-0E0,9.021597E-1],"split_indices":[4,33,36,33,33,3,3,3,33,33,30,4,19,106,22,3,33,3,44,33,0,3,3,33,34,33,33,6,3,0,0,0,0,0,0,0,0,0,0,0,0,0,0,0,0,0,0,0,0,0,0,0,0,0,0,0,0],"split_type":[0,0,0,0,0,0,0,0,0,0,0,0,0,0,0,0,0,0,0,0,0,0,0,0,0,0,0,0,0,0,0,0,0,0,0,0,0,0,0,0,0,0,0,0,0,0,0,0,0,0,0,0,0,0,0,0,0],"sum_hessian":[2.22E4,9.489E3,1.2711E4,4.284E3,5.205E3,1.362E3,1.1349E4,1.474E3,2.81E3,3.727E3,1.478E3,8.72E2,4.9E2,1.1345E4,4E0,7.42E2,7.32E2,5.35E2,2.275E3,2.467E3,1.26E3,4E0,1.474E3,1.5E2,7.22E2,1.28E2,3.62E2,1.1325E4,2E1,1E0,3E0,7.24E2,1.8E1,1.6E2,5.72E2,5.34E2,1E0,1E1,2.265E3,1.585E3,8.82E2,3E0,1E0,6.76E2,7.98E2,1.02E2,4.8E1,3.3E1,6.89E2,8.5E1,4.3E1,2.01E2,1.61E2,1.1321E4,4E0,1.2E1,8E0],"tree_param":{"num_deleted":"0","num_feature":"110","num_nodes":"57","size_leaf_vector":"0"}},{"base_weights":[4.287105E0,9.837494E0,1.4240086E-1,6.8718047E0,1.1968292E1,3.8643622E0,-3.0369392E-1,5.0382195E0,8.265556E0,1.0388415E1,1.395356E1,8.5862327E-1,9.180342E0,-3.0942857E-1,1.0770093E1,3.6744883E0,6.1254406E0,7.9083686E0,8.77549E0,1.0964411E1,9.988852E0,1.3093349E1,1.5621754E1,4.7704577E0,2.660998E-2,4.3811045E0,1.0904904E1,-3.1563452E-1,7.136608E-1,-0E0,1.4410581E1,3.7771099E0,-5.0499046E-1,5.587356E0,6.4363627E0,5.9208903E0,8.937539E0,1.097672E1,-0E0,9.431632E0,1.0513193E1,1.26482525E1,1.3944001E1,3.3585447E-1,6.497436E0,-7.5901695E-2,8.343283E0,7.531485E0,1.7110573E0,9.910004E0,1.3316665E1,-3.175819E-1,2.1423173E0,-4.642814E-2,1.367649E1],"categories":[],"categories_nodes":[],"categories_segments":[],"categories_sizes":[],"default_left":[true,true,true,true,true,true,true,true,true,true,true,true,true,true,true,true,true,false,true,true,true,true,false,true,true,true,true,true,true,false,false,false,false,false,false,false,false,false,false,false,false,false,false,false,false,false,false,false,false,false,false,false,false,false,false],"id":5,"left_children":[1,3,5,7,9,11,13,15,17,19,21,23,25,27,29,31,33,-1,35,37,39,41,-1,43,45,47,49,51,53,-1,-1,-1,-1,-1,-1,-1,-1,-1,-1,-1,-1,-1,-1,-1,-1,-1,-1,-1,-1,-1,-1,-1,-1,-1,-1],"loss_changes":[5.1062656E5,5.9699375E4,2.114312E4,9.976016E3,1.6921875E4,2.1670352E4,6.1949854E2,2.4311797E3,1.739375E2,3.8978125E2,3.0097188E3,2.7932542E3,3.863168E3,6.828369E1,2.5068488E2,3.6488477E2,3.0742188E0,0E0,2.180625E2,2.1465625E2,2.3898438E2,1.710625E2,0E0,1.0859128E3,6.997051E2,1.0134392E3,4.9717188E2,3.64635E1,7.182569E2,0E0,0E0,0E0,0E0,0E0,0E0,0E0,0E0,0E0,0E0,0E0,0E0,0E0,0E0,0E0,0E0,0E0,0E0,0E0,0E0,0E0,0E0,0E0,0E0,0E0,0E0],"parents":[2147483647,0,0,1,1,2,2,3,3,4,4,5,5,6,6,7,7,8,8,9,9,10,10,11,11,12,12,13,13,14,14,15,15,16,16,18,18,19,19,20,20,21,21,23,23,24,24,25,25,26,26,27,27,28,28],"right_children":[2,4,6,8,10,12,14,16,18,20,22,24,26,28,30,32,34,-1,36,38,40,42,-1,44,46,48,50,52,54,-1,-1,-1,-1,-1,-1,-1,-1,-1,-1,-1,-1,-1,-1,-1,-1,-1,-1,-1,-1,-1,-1,-1,-1,-1,-1],"split_conditions":[3.1464648E-1,1.57279415E1,-4.95E1,8.5E0,1.55E1,3.776515E0,1.7847902E1,8.633972E0,7.5E0,7.5E0,2.3536272E1,8.208556E-1,1.95E1,9.5454544E-2,6.1111115E-2,2.792208E-1,7.5E0,7.908369E-1,1.35E1,-4.9E1,1.35E1,1.75E1,1.5621754E0,2.02E0,4.75E-2,5.5E0,1.35E1,6.125E-1,1.3520834E1,-0E0,1.441058E0,3.77711E-1,-5.0499048E-2,5.587356E-1,6.436363E-1,5.9208906E-1,8.9375395E-1,1.097672E0,-0E0,9.431632E-1,1.0513194E0,1.2648252E0,1.3944001E0,3.3585448E-2,6.497436E-1,-7.5901696E-3,8.343283E-1,7.531485E-1,1.7110573E-1,9.9100035E-1,1.3316665E0,-3.175819E-2,2.1423173E-1,-4.642814E-3,1.367649E0],"split_indices":[4,3,36,94,94,3,3,3,65,22,3,4,27,10,12,4,94,0,27,36,94,94,0,3,12,26,94,6,3,0,0,0,0,0,0,0,0,0,0,0,0,0,0,0,0,0,0,0,0,0,0,0,0,0,0],"split_type":[0,0,0,0,0,0,0,0,0,0,0,0,0,0,0,0,0,0,0,0,0,0,0,0,0,0,0,0,0,0,0,0,0,0,0,0,0,0,0,0,0,0,0,0,0,0,0,0,0,0,0,0,0,0,0],"sum_hessian":[2.22E4,9.489E3,1.2711E4,3.971E3,5.518E3,1.362E3,1.1349E4,1.72E3,2.251E3,3.079E3,2.439E3,8.72E2,4.9E2,1.1345E4,4E0,7.69E2,9.51E2,1.345E3,9.06E2,1.24E3,1.839E3,1.619E3,8.2E2,1.5E2,7.22E2,1.32E2,3.58E2,1.1287E4,5.8E1,1E0,3E0,7.53E2,1.6E1,3.67E2,5.84E2,5.4E1,8.52E2,1.239E3,1E0,9.1E2,9.29E2,1.081E3,5.38E2,4.4E1,1.06E2,7.13E2,9E0,5.8E1,7.4E1,2.6E2,9.8E1,1.1283E4,4E0,5.5E1,3E0],"tree_param":{"num_deleted":"0","num_feature":"110","num_nodes":"55","size_leaf_vector":"0"}},{"base_weights":[3.8599734E0,8.855925E0,1.292121E-1,6.9166555E0,1.1008965E1,1.9254603E0,-1.6577494E-1,4.0744767E0,7.548439E0,1.0359736E1,1.4116706E1,4.2532355E-1,4.9183345E0,3.398273E-1,-2.7287087E-1,5.774104E0,3.503144E0,7.261603E0,1.09499855E1,9.823516E0,1.15085335E1,2.846771E0,-2.1983066E-1,3.1587121E0,7.488277E0,2.2208242E-1,1.2030483E1,-2.8944567E-1,7.167455E-1,1.5306509E0,5.9809012E0,3.3855183E0,1.0174904E1,6.128051E0,7.9457827E0,1.341803E1,9.634893E0,4.933627E0,1.3442886E0,-3.0872014E-1,1.03195915E1,-3.747638E-1,4.5821843E0,-4.624486E-1,8.338636E0,4.0259175E0,5.1380977E-2,-0E0,1.6452381E1,5.9666775E-2,-3.1359696E-1,7.5923867E0,1.05413504E-1],"categories":[],"categories_nodes":[],"categories_segments":[],"categories_sizes":[],"default_left":[true,true,true,true,true,true,true,true,true,true,false,true,true,true,true,true,true,true,false,true,false,true,true,true,true,true,true,true,true,false,false,false,false,false,false,false,false,false,false,false,false,false,false,false,false,false,false,false,false,false,false,false,false],"id":6,"left_children":[1,3,5,7,9,11,13,15,17,19,-1,21,23,25,27,29,31,33,-1,35,-1,37,39,41,43,45,47,49,51,-1,-1,-1,-1,-1,-1,-1,-1,-1,-1,-1,-1,-1,-1,-1,-1,-1,-1,-1,-1,-1,-1,-1,-1],"loss_changes":[4.137068E5,3.9368438E4,6.7536226E3,8.827625E3,8.67425E3,8.016989E3,5.904479E2,7.7454297E2,3.7240469E3,1.9670312E3,0E0,1.9031057E3,2.5741094E3,2.4791685E3,1.4395251E2,1.1229736E2,3.722246E2,2.7367344E3,0E0,1.3697969E3,0E0,7.332676E2,7.893315E2,1.8494915E3,1.7052529E3,1.1764954E3,9.136653E2,7.748041E1,5.064803E2,0E0,0E0,0E0,0E0,0E0,0E0,0E0,0E0,0E0,0E0,0E0,0E0,0E0,0E0,0E0,0E0,0E0,0E0,0E0,0E0,0E0,0E0,0E0,0E0],"parents":[2147483647,0,0,1,1,2,2,3,3,4,4,5,5,6,6,7,7,8,8,9,9,11,11,12,12,13,13,14,14,15,15,16,16,17,17,19,19,21,21,22,22,23,23,24,24,25,25,26,26,27,27,28,28],"right_children":[2,4,6,8,10,12,14,16,18,20,-1,22,24,26,28,30,32,34,-1,36,-1,38,40,42,44,46,48,50,52,-1,-1,-1,-1,-1,-1,-1,-1,-1,-1,-1,-1,-1,-1,-1,-1,-1,-1,-1,-1,-1,-1,-1,-1],"split_conditions":[3.1464648E-1,2.85E1,6.8585527E-1,1.45E1,1.15E1,2.05E1,8.4699E-1,5.5E0,9.5E0,3.45E1,1.4116706E0,4.5E0,6.5E0,3.8E1,2.5991563E-2,1.05E1,2.75E1,2.25E1,1.0949986E0,4.5E0,1.1508534E0,4.5E0,4.673913E-2,4.5E0,2.5E0,1.5E0,8.397436E-1,1.5E0,2.6846848E-2,1.5306509E-1,5.980901E-1,3.3855185E-1,1.0174904E0,6.1280507E-1,7.9457825E-1,1.341803E0,9.6348935E-1,4.9336272E-1,1.3442886E-1,-3.0872015E-2,1.0319592E0,-3.747638E-2,4.5821843E-1,-4.624486E-2,8.338637E-1,4.0259176E-1,5.138098E-3,-0E0,1.6452382E0,5.966678E-3,-3.13597E-2,7.5923866E-1,1.0541351E-2],"split_indices":[4,92,4,96,21,96,4,99,21,96,0,24,18,92,8,92,21,92,0,26,0,18,12,24,26,95,4,24,8,0,0,0,0,0,0,0,0,0,0,0,0,0,0,0,0,0,0,0,0,0,0,0,0],"split_type":[0,0,0,0,0,0,0,0,0,0,0,0,0,0,0,0,0,0,0,0,0,0,0,0,0,0,0,0,0,0,0,0,0,0,0,0,0,0,0,0,0,0,0,0,0,0,0,0,0,0,0,0,0],"sum_hessian":[2.22E4,9.489E3,1.2711E4,4.997E3,4.492E3,1.797E3,1.0914E4,9.13E2,4.084E3,3.722E3,7.7E2,1.2E3,5.97E2,1.891E3,9.023E3,2.23E2,6.9E2,3.772E3,3.12E2,2.55E3,1.172E3,2.55E2,9.45E2,3.58E2,2.39E2,1.874E3,1.7E1,8.885E3,1.38E2,1.3E1,2.1E2,6.81E2,9E0,1.429E3,2.343E3,1.21E2,2.429E3,1.03E2,1.52E2,9.39E2,6E0,1.01E2,2.57E2,2.2E1,2.17E2,7.7E1,1.797E3,5E0,1.2E1,5.48E2,8.337E3,9E0,1.29E2],"tree_param":{"num_deleted":"0","num_feature":"110","num_nodes":"53","size_leaf_vector":"0"}},{"base_weights":[3.4754345E0,7.9723845E0,1.1722713E-1,5.1233306E0,9.479674E0,3.2743514E0,-2.610352E-1,3.766563E0,6.260834E0,8.106389E0,1.1237285E1,7.481862E-1,7.7388477E0,-2.6616818E-1,9.438903E0,2.8433506E0,4.623085E0,5.398203E0,6.428428E0,7.689431E0,8.604183E0,1.0186511E1,1.2164629E1,4.123379E0,2.8404187E-2,3.6279836E0,9.1508665E0,-2.7307582E-1,2.9958484E0,-0E0,1.2780201E1,2.9563944E0,-1.2556906E0,4.5087957E0,6.8197722E0,4.5441594E0,7.738447E0,-0E0,8.613014E0,9.279117E0,1.2430668E1,2.037141E0,8.220506E0,4.9286056E0,-1.9860342E-1,5.7637296E0,-5.449906E-1,8.21091E0,1.2460819E1,-2.4977586E-1,-4.8398235E-1,7.862013E-2,1.0315255E1],"categories":[],"categories_nodes":[],"categories_segments":[],"categories_sizes":[],"default_left":[true,true,true,true,true,true,true,true,true,true,true,true,true,true,true,true,true,false,false,true,true,false,true,true,true,true,true,true,true,false,false,false,false,false,false,false,false,false,false,false,false,false,false,false,false,false,false,false,false,false,false,false,false],"id":7,"left_children":[1,3,5,7,9,11,13,15,17,19,21,23,25,27,29,31,33,-1,-1,35,37,-1,39,41,43,45,47,49,51,-1,-1,-1,-1,-1,-1,-1,-1,-1,-1,-1,-1,-1,-1,-1,-1,-1,-1,-1,-1,-1,-1,-1,-1],"loss_changes":[3.351908E5,4.055875E4,1.5211928E4,4.9506016E3,1.4687625E4,1.5281328E4,4.7589557E2,1.1030625E3,1.0480469E2,4.9507812E2,2.2981875E3,2.079234E3,2.6890781E3,2.2924878E2,2.0786966E2,3.603706E2,5.0285156E1,0E0,0E0,1.3785156E2,1.646875E2,0E0,7.6684375E2,1.171362E3,8.5253174E2,1.20503E3,8.203379E2,4.819873E1,3.4365024E2,0E0,0E0,0E0,0E0,0E0,0E0,0E0,0E0,0E0,0E0,0E0,0E0,0E0,0E0,0E0,0E0,0E0,0E0,0E0,0E0,0E0,0E0,0E0,0E0],"parents":[2147483647,0,0,1,1,2,2,3,3,4,4,5,5,6,6,7,7,8,8,9,9,10,10,11,11,12,12,13,13,14,14,15,15,16,16,19,19,20,20,22,22,23,23,24,24,25,25,26,26,27,27,28,28],"right_children":[2,4,6,8,10,12,14,16,18,20,22,24,26,28,30,32,34,-1,-1,36,38,-1,40,42,44,46,48,50,52,-1,-1,-1,-1,-1,-1,-1,-1,-1,-1,-1,-1,-1,-1,-1,-1,-1,-1,-1,-1,-1,-1,-1,-1],"split_conditions":[3.1464648E-1,1.35E1,-4.95E1,1.05E1,1.85E1,3.776515E0,1.7847902E1,8.606452E0,1.15E1,3.45E1,2.15E1,8.208556E-1,2.15E1,4.0908232E-1,3E0,2.05E1,-4.9E1,5.398203E-1,6.428428E-1,1.55E1,5.5E0,1.0186511E0,1.95E1,8E0,1.5E0,1.8E1,1.95E1,6.0277777E0,1.3108334E1,-0E0,1.2780201E0,2.9563946E-1,-1.2556906E-1,4.5087957E-1,6.819772E-1,4.5441595E-1,7.738447E-1,-0E0,8.613014E-1,9.279117E-1,1.2430668E0,2.0371412E-1,8.220506E-1,4.9286056E-1,-1.9860342E-2,5.76373E-1,-5.449906E-2,8.21091E-1,1.246082E0,-2.4977585E-2,-4.8398238E-2,7.862013E-3,1.0315255E0],"split_indices":[4,29,36,29,29,3,3,3,29,19,29,4,19,106,20,31,36,0,0,31,20,0,31,29,34,29,29,3,3,0,0,0,0,0,0,0,0,0,0,0,0,0,0,0,0,0,0,0,0,0,0,0,0],"split_type":[0,0,0,0,0,0,0,0,0,0,0,0,0,0,0,0,0,0,0,0,0,0,0,0,0,0,0,0,0,0,0,0,0,0,0,0,0,0,0,0,0,0,0,0,0,0,0,0,0,0,0,0,0],"sum_hessian":[2.22E4,9.489E3,1.2711E4,3.287E3,6.202E3,1.362E3,1.1349E4,1.505E3,1.782E3,3.488E3,2.714E3,8.72E2,4.9E2,1.1345E4,4E0,7.32E2,7.73E2,3.05E2,1.477E3,1.918E3,1.57E3,1.283E3,1.431E3,1.5E2,7.22E2,1.28E2,3.62E2,1.1325E4,2E1,1E0,3E0,7.15E2,1.7E1,7.42E2,3.1E1,3.4E1,1.884E3,1E0,1.569E3,1.27E2,1.304E3,1.02E2,4.8E1,3.3E1,6.89E2,8.6E1,4.2E1,2.87E2,7.5E1,1.0243E4,1.082E3,1.6E1,4E0],"tree_param":{"num_deleted":"0","num_feature":"110","num_nodes":"53","size_leaf_vector":"0"}},{"base_weights":[3.129115E0,6.6431875E0,-8.0873996E-2,4.231943E0,8.567475E0,-1.874872E-1,9.789048E0,6.7622983E-1,5.0372353E0,7.3435235E0,1.0298014E1,-2.0857349E-1,4.258334E0,1.0026782E1,-0E0,5.216722E0,2.9213488E-1,3.5792654E0,6.185828E0,6.5379286E0,7.905439E0,9.329838E0,1.1244807E1,4.254943E0,-2.1451351E-1,-0E0,4.38106E0,8.795363E0,1.3135574E1,-8.322252E-1,7.7107487E0,-1.11010276E-1,3.840193E0,2.4083056E0,4.1857224E0,6.313088E0,-4.0632948E-1,5.4151917E0,6.6918845E0,-0E0,1.315984E1,-2.3125896E-1,1.1225773E0],"categories":[],"categories_nodes":[],"categories_segments":[],"categories_sizes":[],"default_left":[true,true,true,true,true,true,true,true,true,true,true,true,true,true,false,true,true,true,true,true,false,false,false,true,true,false,false,false,false,false,false,false,false,false,false,false,false,false,false,false,false,false,false],"id":8,"left_children":[1,3,5,7,9,11,13,15,17,19,21,23,25,27,-1,29,31,33,35,37,-1,-1,-1,39,41,-1,-1,-1,-1,-1,-1,-1,-1,-1,-1,-1,-1,-1,-1,-1,-1,-1,-1],"loss_changes":[2.504964E5,4.9019E4,1.2114188E4,1.3423148E4,1.2227781E4,1.0365935E3,3.783662E2,1.465882E3,6.305703E3,1.36925E3,1.9214219E3,2.6352954E2,3.5940735E1,1.2837402E2,0E0,1.0708939E3,1.193467E3,1.129082E3,1.8577578E3,9.055859E1,0E0,0E0,0E0,4.5736646E2,2.4697516E2,0E0,0E0,0E0,0E0,0E0,0E0,0E0,0E0,0E0,0E0,0E0,0E0,0E0,0E0,0E0,0E0,0E0,0E0],"parents":[2147483647,0,0,1,1,2,2,3,3,4,4,5,5,6,6,7,7,8,8,9,9,10,10,11,11,12,12,13,13,15,15,16,16,17,17,18,18,19,19,23,23,24,24],"right_children":[2,4,6,8,10,12,14,16,18,20,22,24,26,28,-1,30,32,34,36,38,-1,-1,-1,40,42,-1,-1,-1,-1,-1,-1,-1,-1,-1,-1,-1,-1,-1,-1,-1,-1,-1,-1],"split_conditions":[-4.95E1,1.4240385E1,1.7786364E1,3.776515E0,2.05E1,6.030303E-1,-2.1745938E-12,1.5E0,1.25E1,1.75E1,2.35E1,-1.0353004E1,3.5E0,4.5E0,-0E0,4.4383729E-1,5.952381E-3,7.5E0,2.15E1,1.45E1,7.905439E-1,9.329838E-1,1.1244807E0,1.8333334E-1,1.13247864E-1,-0E0,4.3810603E-1,8.7953633E-1,1.3135575E0,-8.322252E-2,7.710749E-1,-1.1101028E-2,3.8401932E-1,2.4083057E-1,4.1857225E-1,6.313088E-1,-4.063295E-2,5.4151917E-1,6.6918844E-1,-0E0,1.315984E0,-2.3125896E-2,1.12257734E-1],"split_indices":[35,3,3,3,33,6,100,30,33,33,33,107,24,30,0,3,8,33,25,33,0,0,0,9,13,0,0,0,0,0,0,0,0,0,0,0,0,0,0,0,0,0,0],"split_type":[0,0,0,0,0,0,0,0,0,0,0,0,0,0,0,0,0,0,0,0,0,0,0,0,0,0,0,0,0,0,0,0,0,0,0,0,0,0,0,0,0,0,0],"sum_hessian":[2.22E4,1.0599E4,1.1601E4,4.708E3,5.891E3,1.1479E4,1.22E2,8.72E2,3.836E3,3.457E3,2.434E3,1.1428E4,5.1E1,1.2E2,2E0,6.5E1,8.07E2,1.696E3,2.14E3,1.433E3,2.024E3,1.214E3,1.22E3,1.2E1,1.1416E4,1E0,5E1,9.1E1,2.9E1,1.8E1,4.7E1,7.23E2,8.4E1,5.86E2,1.11E3,2.101E3,3.9E1,1.85E2,1.248E3,9E0,3E0,1.1283E4,1.33E2],"tree_param":{"num_deleted":"0","num_feature":"110","num_nodes":"43","size_leaf_vector":"0"}},{"base_weights":[2.8170846E0,6.046441E-1,6.0513816E0,2.431639E-1,2.5375366E0,3.9832885E0,7.7253942E0,2.036158E0,4.659777E-2,9.7699547E-1,5.411693E0,2.3084893E0,4.802221E0,6.6525893E0,8.922343E0,6.073639E-1,6.3308496E0,-1.52782565E-2,1.8112053E0,2.202641E0,6.2168363E-2,6.826491E0,2.1175516E0,-3.070031E-1,2.5664697E0,2.0183659E0,5.036367E0,-0E0,6.7114367E0,8.158411E0,1.01905155E1,1.876364E-1,1.8150542E0,3.344085E0,7.718091E0,1.0171548E0,-6.6700906E-2,8.463309E-2,8.217727E0,4.208019E-1,3.444854E0,6.0039434E0,-0E0,5.759692E0,9.584805E0,5.7480893E0,8.2756555E-1,-4.824025E-1,6.7804165E-2,2.7917415E-1,2.830806E0,2.985979E0,-0E0,5.069266E0,1.3351572E0,1.3086033E0,-6.534844E-1,1.1858263E0,6.7497716E0,1.9462097E0,8.350158E0,-0E0,1.0206704E1],"categories":[],"categories_nodes":[],"categories_segments":[],"categories_sizes":[],"default_left":[true,true,true,true,true,true,true,true,true,true,true,true,true,true,true,true,true,true,true,true,true,true,true,true,true,true,true,true,true,true,true,false,false,false,false,false,false,false,false,false,false,false,false,false,false,false,false,false,false,false,false,false,false,false,false,false,false,false,false,false,false,false,false],"id":9,"left_children":[1,3,5,7,9,11,13,15,17,19,21,23,25,27,29,31,33,35,37,39,41,43,45,47,49,51,53,55,57,59,61,-1,-1,-1,-1,-1,-1,-1,-1,-1,-1,-1,-1,-1,-1,-1,-1,-1,-1,-1,-1,-1,-1,-1,-1,-1,-1,-1,-1,-1,-1,-1,-1],"loss_changes":[1.5879323E5,9.184666E3,3.1065688E4,3.8961167E3,9.228726E3,5.4561133E3,6.178375E3,6.633672E3,1.112258E3,1.4875437E3,3.2843203E3,9.2214404E2,1.6837891E3,1.0354766E3,2.0061719E3,3.9681183E2,9.864199E2,5.043726E2,3.732437E3,1.223759E3,2.8537567E2,1.2802891E3,9.6918866E2,1.1870385E1,7.033218E2,3.991311E2,2.3275E2,2.0959251E1,4.6571094E2,1.6365703E3,1.8410156E2,0E0,0E0,0E0,0E0,0E0,0E0,0E0,0E0,0E0,0E0,0E0,0E0,0E0,0E0,0E0,0E0,0E0,0E0,0E0,0E0,0E0,0E0,0E0,0E0,0E0,0E0,0E0,0E0,0E0,0E0,0E0,0E0],"parents":[2147483647,0,0,1,1,2,2,3,3,4,4,5,5,6,6,7,7,8,8,9,9,10,10,11,11,12,12,13,13,14,14,15,15,16,16,17,17,18,18,19,19,20,20,21,21,22,22,23,23,24,24,25,25,26,26,27,27,28,28,29,29,30,30],"right_children":[2,4,6,8,10,12,14,16,18,20,22,24,26,28,30,32,34,36,38,40,42,44,46,48,50,52,54,56,58,60,62,-1,-1,-1,-1,-1,-1,-1,-1,-1,-1,-1,-1,-1,-1,-1,-1,-1,-1,-1,-1,-1,-1,-1,-1,-1,-1,-1,-1,-1,-1,-1,-1],"split_conditions":[4.8199765E-2,6.4352E-1,1.25E1,-2.2868942E1,1.15E1,8.5E0,1.65E1,1.05E1,3.55E1,9.148357E-4,7.176904E-3,4.4810885E-1,6.774655E-1,-1.36706E-2,1.0633778E-1,7.5E0,-3.6674965E1,1.5E0,1.65E1,6.5E0,-3.8255602E-1,1.75E1,5.5E0,3.7055744E-3,5.5E0,1.15E1,1.15E1,-1.7000595E-2,-9.181216E-1,4.5E0,3E0,1.876364E-2,1.8150543E-1,3.344085E-1,7.718091E-1,1.0171548E-1,-6.670091E-3,8.463309E-3,8.217727E-1,4.208019E-2,3.444854E-1,6.0039437E-1,-0E0,5.759692E-1,9.584805E-1,5.7480896E-1,8.275656E-2,-4.824025E-2,6.7804167E-3,2.7917415E-2,2.830806E-1,2.985979E-1,-0E0,5.069266E-1,1.3351572E-1,1.3086033E-1,-6.534844E-2,1.1858263E-1,6.749772E-1,1.9462097E-1,8.350158E-1,-0E0,1.0206704E0],"split_indices":[14,104,98,109,98,98,98,90,19,102,102,104,104,100,106,98,109,30,98,90,106,98,15,106,65,98,90,100,104,30,20,0,0,0,0,0,0,0,0,0,0,0,0,0,0,0,0,0,0,0,0,0,0,0,0,0,0,0,0,0,0,0,0],"split_type":[0,0,0,0,0,0,0,0,0,0,0,0,0,0,0,0,0,0,0,0,0,0,0,0,0,0,0,0,0,0,0,0,0,0,0,0,0,0,0,0,0,0,0,0,0,0,0,0,0,0,0,0,0,0,0,0,0,0,0,0,0,0,0],"sum_hessian":[2.22E4,1.3185E4,9.015E3,1.1113E4,2.072E3,4.037E3,4.978E3,1.092E3,1.0021E4,1.346E3,7.26E2,1.331E3,2.706E3,2.633E3,2.345E3,8.22E2,2.7E2,9.677E3,3.44E2,5.7E2,7.76E2,5.05E2,2.21E2,1.16E2,1.215E3,2.14E2,2.492E3,2.3E1,2.61E3,1.473E3,8.72E2,6.17E2,2.05E2,8.9E1,1.81E2,4.49E2,9.228E3,2.73E2,7.1E1,2.38E2,3.32E2,7E0,7.69E2,3.69E2,1.36E2,5.5E1,1.66E2,9.7E1,1.9E1,1.3E2,1.085E3,1.42E2,7.2E1,2.467E3,2.5E1,7E0,1.6E1,2E1,2.59E3,4.6E1,1.427E3,1E0,8.71E2],"tree_param":{"num_deleted":"0","num_feature":"110","num_nodes":"63","size_leaf_vector":"0"}}]},"name":"gbtree"},"learner_model_param":{"base_score":"5E-1","num_class":"0","num_feature":"110"},"objective":{"name":"reg:squarederror","reg_loss_param":{"scale_pos_weight":"1"}}},"version":[1,4,2]}
