{"learner":{"attributes":{},"feature_names":[" day"," trace 40 quant","competitiveness","empirical_distr_p","empirical_distr_q_0","empirical_distr_q_1","empirical_distr_q_10","empirical_distr_q_2","empirical_distr_q_3","empirical_distr_q_4","empirical_distr_q_5","empirical_distr_q_6","empirical_distr_q_7","empirical_distr_q_8","empirical_distr_q_9","my_layer_size","n_level","n_opp_level","opp_layer_size","trace 0 price","trace 0 quant","trace 1 price","trace 1 quant","trace 10 price","trace 10 quant","trace 11 price","trace 11 quant","trace 12 price","trace 12 quant","trace 13 price","trace 13 quant","trace 14 price","trace 14 quant","trace 15 price","trace 15 quant","trace 16 price","trace 16 quant","trace 17 price","trace 17 quant","trace 18 price","trace 18 quant","trace 19 price","trace 19 quant","trace 2 price","trace 2 quant","trace 20 price","trace 20 quant","trace 21 price","trace 21 quant","trace 22 price","trace 22 quant","trace 23 price","trace 23 quant","trace 24 price","trace 24 quant","trace 25 price","trace 25 quant","trace 26 price","trace 26 quant","trace 27 price","trace 27 quant","trace 28 price","trace 28 quant","trace 29 price","trace 29 quant","trace 3 price","trace 3 quant","trace 30 price","trace 30 quant","trace 31 price","trace 31 quant","trace 32 price","trace 32 quant","trace 33 price","trace 33 quant","trace 34 price","trace 34 quant","trace 35 price","trace 35 quant","trace 36 price","trace 36 quant","trace 37 price","trace 37 quant","trace 38 price","trace 38 quant","trace 39 price","trace 39 quant","trace 4 price","trace 4 quant","trace 40 price","trace 5 price","trace 5 quant","trace 6 price","trace 6 quant","trace 7 price","trace 7 quant","trace 8 price","trace 8 quant","trace 9 price","trace 9 quant","ufun_param_0","ufun_param_1","ufun_param_2","ufun_param_3","ufun_param_4","ufun_param_5","ufun_param_6","ufun_param_7","ufun_param_8","ufun_param_9"],"feature_types":["int","int","float","float","float","float","float","float","float","float","float","float","float","float","float","int","int","int","int","int","int","int","int","int","int","int","int","int","int","int","int","int","int","int","int","int","int","int","int","int","int","int","int","int","int","int","int","int","int","int","int","int","int","int","int","int","int","int","int","int","int","int","int","int","int","int","int","int","int","int","int","int","int","int","int","int","int","int","int","int","int","int","int","int","int","int","int","int","int","int","int","int","int","int","int","int","int","int","int","int","float","float","float","float","float","float","float","float","float","float"],"gradient_booster":{"model":{"gbtree_model_param":{"num_trees":"10","size_leaf_vector":"0"},"tree_info":[0,0,0,0,0,0,0,0,0,0],"trees":[{"base_weights":[3.9689097E0,1.397343E0,1.4343179E1,8.634497E-1,8.483144E0,5.4886937E0,1.6044561E1,6.670989E-1,1.3544286E1,6.270561E0,1.5168347E1,3.6112733E0,8.04353E0,5.782594E0,1.7139736E1,5.3766865E-1,1.4310832E1,6.917226E0,1.840977E1,2.4933162E0,1.1786751E1,5.553241E0,1.7078678E1,1.9430212E0,6.83821E0,7.179891E0,1.0375376E1,1.3357329E0,1.0446897E1,1.34871025E1,1.8527525E1,4.7958425E-1,3.6484947E0,9.353125E0,1.59194565E1,8.160404E0,2.5343137E0,1.4856944E1,2.3514286E1,1.879352E0,7.482143E0,7.7393675E0,1.7301943E1,8.055085E0,2.4141414E0,3.022472E1,1.5864604E1,9.954068E-1,3.857143E0,5.7417693E0,1.2213542E1,-0E0,7.188248E0,9.143204E0,1.2199219E1,8.317039E-1,8.469388E0,7.5361843E0,1.1182055E1,1.1887495E1,1.6359283E1,1.5658181E1,2.0237247E1],"categories":[],"categories_nodes":[],"categories_segments":[],"categories_sizes":[],"default_left":[true,true,true,true,true,true,true,true,true,true,true,true,true,true,true,true,true,true,true,true,true,true,true,true,true,true,true,true,true,true,true,false,false,false,false,false,false,false,false,false,false,false,false,false,false,false,false,false,false,false,false,false,false,false,false,false,false,false,false,false,false,false,false],"id":0,"left_children":[1,3,5,7,9,11,13,15,17,19,21,23,25,27,29,31,33,35,37,39,41,43,45,47,49,51,53,55,57,59,61,-1,-1,-1,-1,-1,-1,-1,-1,-1,-1,-1,-1,-1,-1,-1,-1,-1,-1,-1,-1,-1,-1,-1,-1,-1,-1,-1,-1,-1,-1,-1,-1],"loss_changes":[2.466829E6,2.8024675E5,2.7640775E5,1.7144228E5,7.647353E4,1.4066445E4,1.728145E5,1.1969095E5,3.347542E4,8.115072E4,2.335525E4,9.1151875E3,2.2713203E3,3.0731582E4,6.998675E4,1.2104963E4,4.6785E3,2.307961E3,1.0220734E4,6.995328E3,3.499622E4,1.5722256E3,1.6200906E4,2.0009121E3,3.1745762E3,5.879297E1,4.233828E2,2.6469602E3,1.2799219E3,1.715625E4,4.878425E4,0E0,0E0,0E0,0E0,0E0,0E0,0E0,0E0,0E0,0E0,0E0,0E0,0E0,0E0,0E0,0E0,0E0,0E0,0E0,0E0,0E0,0E0,0E0,0E0,0E0,0E0,0E0,0E0,0E0,0E0,0E0,0E0],"parents":[2147483647,0,0,1,1,2,2,3,3,4,4,5,5,6,6,7,7,8,8,9,9,10,10,11,11,12,12,13,13,14,14,15,15,16,16,17,17,18,18,19,19,20,20,21,21,22,22,23,23,24,24,25,25,26,26,27,27,28,28,29,29,30,30],"right_children":[2,4,6,8,10,12,14,16,18,20,22,24,26,28,30,32,34,36,38,40,42,44,46,48,50,52,54,56,58,60,62,-1,-1,-1,-1,-1,-1,-1,-1,-1,-1,-1,-1,-1,-1,-1,-1,-1,-1,-1,-1,-1,-1,-1,-1,-1,-1,-1,-1,-1,-1,-1,-1],"split_conditions":[4.5115333E-2,4.7338936E-2,7.5E0,1.4550266E-1,3.2086477E-2,2.8801844E-1,1.15E1,4.5804197E-1,1.35E1,1.2793235E-1,6.5E0,5.6079663E-2,1.85E1,1.4359352E-1,1.35E1,5.2982457E-2,5.8571434E-1,4.85E1,1.95E1,1.2390351E-1,1.15E1,4.5E0,4.8809525E-2,9.847016E-2,6.5E0,3.5E0,2.75E1,5.674044E-2,2.5320512E-1,2.95E1,1.55E1,4.7958426E-2,3.6484948E-1,9.3531245E-1,1.5919456E0,8.1604046E-1,2.5343138E-1,1.4856944E0,2.3514287E0,1.879352E-1,7.482143E-1,7.7393675E-1,1.7301943E0,8.0550855E-1,2.4141414E-1,3.0224721E0,1.5864605E0,9.954068E-2,3.857143E-1,5.7417697E-1,1.2213542E0,-0E0,7.188248E-1,9.143204E-1,1.219922E0,8.317039E-2,8.469388E-1,7.536184E-1,1.1182055E0,1.1887496E0,1.6359284E0,1.5658182E0,2.0237248E0],"split_indices":[14,8,94,12,12,6,96,6,94,8,94,12,96,14,94,7,6,0,0,7,94,15,8,14,15,88,19,12,14,19,96,0,0,0,0,0,0,0,0,0,0,0,0,0,0,0,0,0,0,0,0,0,0,0,0,0,0,0,0,0,0,0,0],"split_type":[0,0,0,0,0,0,0,0,0,0,0,0,0,0,0,0,0,0,0,0,0,0,0,0,0,0,0,0,0,0,0,0,0,0,0,0,0,0,0,0,0,0,0,0,0,0,0,0,0,0,0,0,0,0,0,0,0,0,0,0,0,0,0],"sum_hessian":[9.2472E4,7.4105E4,1.8367E4,6.8915E4,5.19E3,2.962E3,1.5405E4,6.7866E4,1.049E3,3.902E3,1.288E3,1.711E3,1.251E3,1.487E3,1.3918E4,6.723E4,6.36E2,4.46E2,6.03E2,2.318E3,1.584E3,2.15E2,1.073E3,1.131E3,5.8E2,9.19E2,3.32E2,7.63E2,7.24E2,3.837E3,1.0081E4,6.6002E4,1.228E3,1.59E2,4.77E2,3.45E2,1.01E2,3.59E2,2.44E2,2.067E3,2.51E2,9.16E2,6.68E2,1.17E2,9.8E1,8.8E1,9.85E2,7.61E2,3.7E2,4.85E2,9.5E1,1E0,9.18E2,2.05E2,1.27E2,7.15E2,4.8E1,1.51E2,5.73E2,2.47E3,1.367E3,3.77E3,6.311E3],"tree_param":{"num_deleted":"0","num_feature":"110","num_nodes":"63","size_leaf_vector":"0"}},{"base_weights":[3.572681E0,2.7879207E0,1.2386592E1,1.1862642E0,5.7907495E0,4.7398963E0,1.4628095E1,7.003534E-1,6.7141075E0,2.4695888E0,8.05808E0,4.2614703E0,1.3030136E1,6.4159503E0,1.6334362E1,5.491572E-1,6.630406E0,1.9094499E0,1.1844382E1,5.792269E0,1.5614696E0,3.636994E0,1.10683975E1,3.7175875E0,1.0259634E1,3.7308319E0,1.32968E1,2.1546752E0,1.4288417E1,1.2235531E1,1.8284344E1,5.0325286E-1,4.162067E0,1.9405825E1,6.090981E0,8.7075996E-1,3.7896616E0,8.381983E0,1.4467824E1,1.5042617E0,6.7842016E0,4.7312543E-1,2.639996E0,1.5681381E1,1.7397339E0,7.546532E0,1.2356376E1,2.7026906E0,5.9549384E0,3.4446826E0,1.265029E1,5.185155E0,-0E0,5.422144E0,-1.0468205E-1,3.794597E0,1.4910633E1,1.2966154E1,6.9603467E-1,1.8738846E1,4.643335E-1],"categories":[],"categories_nodes":[],"categories_segments":[],"categories_sizes":[],"default_left":[true,true,true,true,true,true,true,true,true,true,true,true,true,true,true,true,true,true,true,true,true,true,true,true,true,true,false,true,true,true,true,false,false,false,false,false,false,false,false,false,false,false,false,false,false,false,false,false,false,false,false,false,false,false,false,false,false,false,false,false,false],"id":1,"left_children":[1,3,5,7,9,11,13,15,17,19,21,23,25,27,29,31,33,35,37,39,41,43,45,47,49,51,-1,53,55,57,59,-1,-1,-1,-1,-1,-1,-1,-1,-1,-1,-1,-1,-1,-1,-1,-1,-1,-1,-1,-1,-1,-1,-1,-1,-1,-1,-1,-1,-1,-1],"loss_changes":[6.394316E5,4.0832212E5,1.29299E5,1.4867666E5,2.2227831E5,6.577664E3,8.15545E4,4.5569645E4,1.1009581E5,3.608385E4,2.333835E5,5.123324E3,8.255859E0,3.3619906E4,3.81315E4,8.184958E3,8.337535E3,4.465333E3,1.9288562E4,1.083818E4,1.1021367E4,1.6231719E5,4.7059875E4,3.287457E3,1.9623369E3,3.79478E1,0E0,4.896583E3,2.06125E3,1.3040484E4,2.631625E4,0E0,0E0,0E0,0E0,0E0,0E0,0E0,0E0,0E0,0E0,0E0,0E0,0E0,0E0,0E0,0E0,0E0,0E0,0E0,0E0,0E0,0E0,0E0,0E0,0E0,0E0,0E0,0E0,0E0,0E0],"parents":[2147483647,0,0,1,1,2,2,3,3,4,4,5,5,6,6,7,7,8,8,9,9,10,10,11,11,12,12,13,13,14,14,15,15,16,16,17,17,18,18,19,19,20,20,21,21,22,22,23,23,24,24,25,25,27,27,28,28,29,29,30,30],"right_children":[2,4,6,8,10,12,14,16,18,20,22,24,26,28,30,32,34,36,38,40,42,44,46,48,50,52,-1,54,56,58,60,-1,-1,-1,-1,-1,-1,-1,-1,-1,-1,-1,-1,-1,-1,-1,-1,-1,-1,-1,-1,-1,-1,-1,-1,-1,-1,-1,-1,-1,-1],"split_conditions":[5.0933935E-2,5.5E0,8.5E0,9.8290193E-1,1.35E1,7.5E0,1.25E1,7.7524036E-2,7.5E0,2.25E1,1.05E1,2.025641E-1,3.5E0,7.936508E-3,1.45E1,5.7145782E1,7.868937E-2,4.5E0,1.25E1,8.5E0,8.5E0,-4.75E1,1.35E1,2.2360273E-2,6.5E0,1.25E1,1.32968E0,4.15E1,4.5E0,3.75E1,4.45E1,5.0325286E-2,4.162067E-1,1.9405825E0,6.0909814E-1,8.7076E-2,3.7896618E-1,8.381983E-1,1.4467825E0,1.5042618E-1,6.784202E-1,4.7312543E-2,2.639996E-1,1.5681381E0,1.739734E-1,7.546532E-1,1.2356375E0,2.7026907E-1,5.9549385E-1,3.4446827E-1,1.265029E0,5.185155E-1,-0E0,5.422144E-1,-1.0468205E-2,3.794597E-1,1.4910634E0,1.2966155E0,6.9603465E-2,1.8738846E0,4.6433352E-2],"split_indices":[10,97,98,104,96,21,92,8,98,98,98,10,97,8,98,108,8,97,98,87,87,98,92,108,98,92,0,21,66,96,87,0,0,0,0,0,0,0,0,0,0,0,0,0,0,0,0,0,0,0,0,0,0,0,0,0,0,0,0,0,0],"split_type":[0,0,0,0,0,0,0,0,0,0,0,0,0,0,0,0,0,0,0,0,0,0,0,0,0,0,0,0,0,0,0,0,0,0,0,0,0,0,0,0,0,0,0,0,0,0,0,0,0,0,0,0,0,0,0,0,0,0,0,0,0],"sum_hessian":[9.2472E4,8.4914E4,7.558E3,5.538E4,2.9534E4,1.715E3,5.843E3,5.0908E4,4.472E3,1.1985E4,1.7549E4,1.624E3,9.1E1,1.007E3,4.836E3,4.9645E4,1.263E3,2.311E3,2.161E3,2.569E3,9.416E3,7.111E3,1.0438E4,1.492E3,1.32E2,4E0,8.7E1,6.55E2,3.52E2,1.563E3,3.273E3,4.9026E4,6.19E2,4.9E1,1.214E3,1.493E3,8.18E2,9.35E2,1.226E3,4.85E2,2.084E3,4.692E3,4.724E3,9.66E2,6.145E3,2.799E3,7.639E3,1.031E3,4.61E2,3.6E1,9.6E1,3E0,1E0,2.69E2,3.86E2,2.1E1,3.31E2,1.469E3,9.4E1,3.191E3,8.2E1],"tree_param":{"num_deleted":"0","num_feature":"110","num_nodes":"61","size_leaf_vector":"0"}},{"base_weights":[3.2159262E0,3.9275917E-1,1.4070655E1,3.157275E0,-1.789983E-1,1.1633802E1,1.8359516E1,1.601909E1,3.0125272E0,-7.001754E-1,4.329776E-1,9.099657E0,1.3205399E1,1.7324856E1,2.1603682E1,2.3025496E0,2.8982784E1,2.6520445E0,7.097844E0,-1.2669336E0,-6.7836815E-1,2.9578733E-1,7.2011013E0,8.844547E0,1.9793108E1,1.3517283E1,1.1955658E0,1.6690521E1,1.9045944E1,2.0421274E1,2.403075E1,1.0479741E0,1.1836222E1,1.1231251E0,3.1713119E0,6.3204966E0,1.1950579E1,-9.7556674E-1,-1.4371946E0,-6.435349E-1,-9.7232103E-1,2.333571E-1,8.371118E0,2.9178955E1,3.409103E0,8.479618E0,1.4315076E1,6.658117E-2,2.4780367E1,1.2012869E1,1.4345946E1,1.4554912E1,-1.4050219E0,1.6060371E1,1.7873013E1,1.5308136E1,1.9618135E1,2.0441525E1,-0E0],"categories":[],"categories_nodes":[],"categories_segments":[],"categories_sizes":[],"default_left":[true,true,true,true,true,true,true,true,true,true,true,true,true,true,true,true,false,true,true,true,true,true,true,true,true,true,true,true,true,true,false,false,false,false,false,false,false,false,false,false,false,false,false,false,false,false,false,false,false,false,false,false,false,false,false,false,false,false,false],"id":2,"left_children":[1,3,5,7,9,11,13,15,17,19,21,23,25,27,29,31,-1,33,35,37,39,41,43,45,47,49,51,53,55,57,-1,-1,-1,-1,-1,-1,-1,-1,-1,-1,-1,-1,-1,-1,-1,-1,-1,-1,-1,-1,-1,-1,-1,-1,-1,-1,-1,-1,-1],"loss_changes":[2.8336582E6,1.1602981E5,1.9896025E5,2.3181828E4,1.9397873E4,4.8145625E4,2.24375E4,2.433698E4,1.8206844E4,3.8569434E2,2.5884338E4,1.2267406E4,2.7966875E4,5.05425E3,3.843E3,6.840431E2,0E0,9.033531E3,3.5366484E3,3.3950806E1,3.0731055E2,1.3729096E4,4.5744992E4,8.7540625E3,1.027668E4,8.68825E3,6.822442E3,2.24025E3,2.3489375E3,5.1640625E2,0E0,0E0,0E0,0E0,0E0,0E0,0E0,0E0,0E0,0E0,0E0,0E0,0E0,0E0,0E0,0E0,0E0,0E0,0E0,0E0,0E0,0E0,0E0,0E0,0E0,0E0,0E0,0E0,0E0],"parents":[2147483647,0,0,1,1,2,2,3,3,4,4,5,5,6,6,7,7,8,8,9,9,10,10,11,11,12,12,13,13,14,14,15,15,17,17,18,18,19,19,20,20,21,21,22,22,23,23,24,24,25,25,26,26,27,27,28,28,29,29],"right_children":[2,4,6,8,10,12,14,16,18,20,22,24,26,28,30,32,-1,34,36,38,40,42,44,46,48,50,52,54,56,58,-1,-1,-1,-1,-1,-1,-1,-1,-1,-1,-1,-1,-1,-1,-1,-1,-1,-1,-1,-1,-1,-1,-1,-1,-1,-1,-1,-1,-1],"split_conditions":[7.7602625E0,8.1284344E-1,1.7811012E1,-3.7436646E-1,3.2742947E-1,1.3023138E1,2.2496155E1,-3.769465E-1,7.150758E0,-2.9654944E-1,4.4139458E1,4.05E1,1.7770979E1,7.229965E-2,2.4296703E1,7.417583E-2,2.8982785E0,2.3435922E0,3.3809525E-1,1.2814863E1,2.9833927E1,1.225E-1,4.4310112E1,3.7011668E-1,8.571429E-2,1.5412779E1,2.590909E-1,2.0815342E1,1.803125E1,2.4267857E1,2.403075E0,1.04797415E-1,1.1836222E0,1.1231251E-1,3.171312E-1,6.320497E-1,1.1950579E0,-9.755667E-2,-1.4371946E-1,-6.435349E-2,-9.72321E-2,2.333571E-2,8.371118E-1,2.9178956E0,3.409103E-1,8.4796184E-1,1.4315076E0,6.658117E-3,2.4780366E0,1.2012869E0,1.4345946E0,1.4554912E0,-1.405022E-1,1.6060371E0,1.7873013E0,1.5308136E0,1.9618136E0,2.0441525E0,-0E0],"split_indices":[3,4,3,106,3,3,3,106,3,106,108,19,3,4,3,11,0,3,5,108,108,14,108,5,11,3,4,3,3,3,0,0,0,0,0,0,0,0,0,0,0,0,0,0,0,0,0,0,0,0,0,0,0,0,0,0,0,0,0],"split_type":[0,0,0,0,0,0,0,0,0,0,0,0,0,0,0,0,0,0,0,0,0,0,0,0,0,0,0,0,0,0,0,0,0,0,0,0,0,0,0,0,0,0,0,0,0,0,0,0,0,0,0,0,0,0,0,0,0,0,0],"sum_hessian":[9.2472E4,7.3387E4,1.9085E4,1.2579E4,6.0808E4,1.2174E4,6.911E3,1.38E2,1.2441E4,3.2849E4,2.7959E4,4.665E3,7.509E3,5.247E3,1.664E3,6.8E1,7E1,1.1436E4,1.005E3,1.198E3,3.1651E4,2.7406E4,5.53E2,4.559E3,1.06E2,7.318E3,1.91E2,3.846E3,1.401E3,1.128E3,5.36E2,6.2E1,6E0,2.905E3,8.531E3,8.7E2,1.35E2,4.66E2,7.32E2,2.8331E4,3.32E3,2.7198E4,2.08E2,8E1,4.73E2,4.278E3,2.81E2,2.2E1,8.4E1,2.609E3,4.709E3,3.1E1,1.6E2,2.524E3,1.322E3,1.92E2,1.209E3,1.127E3,1E0],"tree_param":{"num_deleted":"0","num_feature":"110","num_nodes":"59","size_leaf_vector":"0"}},{"base_weights":[2.8948522E0,3.5370344E-1,1.2665204E1,-1.1426237E-1,3.0278935E0,1.0471549E1,1.6525892E1,-6.302615E-1,4.5792273E-1,2.1336331E0,4.5135536E0,8.191356E0,1.1885518E1,1.5848413E1,2.0610058E1,-9.374718E-1,-5.4344696E-1,3.4329432E-1,7.9809017E0,1.7624958E0,6.1664696E0,2.9683785E0,5.3177605E0,7.960706E0,1.8234962E1,1.2166052E1,1.0776498E0,1.4279838E1,1.6394922E1,1.929903E1,2.163215E1,-7.4428374E-1,-1.1585286E0,-5.741065E-1,-3.6000142E-1,1.4822663E-1,9.5651025E-1,2.6297085E1,3.8442855E0,8.2898617E-1,2.3216934E0,1.6204278E0,2.0829773E1,2.2254667E0,3.932259E0,4.4399242E0,1.4148902E1,1.3949743E1,7.627137E0,4.932396E-1,2.2924156E1,1.0812043E1,1.2911656E1,-1.0597521E0,1.2535116E1,-0E0,1.4291198E1,1.917895E1,1.606163E1,1.9348286E1,-0E0],"categories":[],"categories_nodes":[],"categories_segments":[],"categories_sizes":[],"default_left":[true,true,true,true,true,true,true,true,true,true,true,true,true,true,true,true,true,true,true,true,true,true,true,true,true,true,true,true,true,true,false,false,false,false,false,false,false,false,false,false,false,false,false,false,false,false,false,false,false,false,false,false,false,false,false,false,false,false,false,false,false],"id":3,"left_children":[1,3,5,7,9,11,13,15,17,19,21,23,25,27,29,31,33,35,37,39,41,43,45,47,49,51,53,55,57,59,-1,-1,-1,-1,-1,-1,-1,-1,-1,-1,-1,-1,-1,-1,-1,-1,-1,-1,-1,-1,-1,-1,-1,-1,-1,-1,-1,-1,-1,-1,-1],"loss_changes":[2.295777E6,9.18694E4,1.6119675E5,1.8441959E4,1.4449125E4,3.89555E4,1.8433875E4,8.6080176E2,2.5445531E4,1.0134051E4,4.9999062E3,1.04019375E4,2.26245E4,4.547E3,4.8371875E2,2.8805908E2,1.3466064E2,3.4774878E3,3.3162277E4,3.2338691E3,3.7937914E4,9.400586E2,2.0628219E4,8.795594E3,8.323539E3,7.012125E3,4.8299663E3,2.9753125E2,3.413E3,4.67E2,0E0,0E0,0E0,0E0,0E0,0E0,0E0,0E0,0E0,0E0,0E0,0E0,0E0,0E0,0E0,0E0,0E0,0E0,0E0,0E0,0E0,0E0,0E0,0E0,0E0,0E0,0E0,0E0,0E0,0E0,0E0],"parents":[2147483647,0,0,1,1,2,2,3,3,4,4,5,5,6,6,7,7,8,8,9,9,10,10,11,11,12,12,13,13,14,14,15,15,16,16,17,17,18,18,19,19,20,20,21,21,22,22,23,23,24,24,25,25,26,26,27,27,28,28,29,29],"right_children":[2,4,6,8,10,12,14,16,18,20,22,24,26,28,30,32,34,36,38,40,42,44,46,48,50,52,54,56,58,60,-1,-1,-1,-1,-1,-1,-1,-1,-1,-1,-1,-1,-1,-1,-1,-1,-1,-1,-1,-1,-1,-1,-1,-1,-1,-1,-1,-1,-1,-1,-1],"split_conditions":[7.7602625E0,2.8900967E0,1.7811012E1,3.2742947E-1,4.977261E0,1.3023138E1,2.3524029E1,7.5E0,4.4139458E1,8.5E0,1.55E1,3.95E1,1.7770979E1,1.894936E1,2.4296703E1,6.5E0,6.8337485E-2,1.7889676E0,4.4348034E1,5.5E0,2.85E1,6.292857E0,1.6262482E1,1.5E0,1.85E1,1.5412779E1,1.7775253E1,5.5E0,9.5E0,2.4267857E1,2.1632152E0,-7.442837E-2,-1.15852855E-1,-5.7410654E-2,-3.6000144E-2,1.4822664E-2,9.565102E-2,2.6297085E0,3.8442856E-1,8.289862E-2,2.3216935E-1,1.6204278E-1,2.0829773E0,2.2254668E-1,3.932259E-1,4.4399244E-1,1.4148902E0,1.3949744E0,7.6271373E-1,4.932396E-2,2.2924156E0,1.0812043E0,1.2911657E0,-1.0597521E-1,1.2535117E0,-0E0,1.4291198E0,1.917895E0,1.606163E0,1.9348286E0,-0E0],"split_indices":[3,3,3,3,3,3,3,0,108,97,0,43,3,3,3,97,3,3,108,19,0,3,108,97,0,3,3,43,43,3,0,0,0,0,0,0,0,0,0,0,0,0,0,0,0,0,0,0,0,0,0,0,0,0,0,0,0,0,0,0,0],"split_type":[0,0,0,0,0,0,0,0,0,0,0,0,0,0,0,0,0,0,0,0,0,0,0,0,0,0,0,0,0,0,0,0,0,0,0,0,0,0,0,0,0,0,0,0,0,0,0,0,0,0,0,0,0,0,0,0,0,0,0,0,0],"sum_hessian":[9.2472E4,7.3387E4,1.9085E4,6.2455E4,1.0932E4,1.2174E4,6.911E3,3.2849E4,2.9606E4,6.83E3,4.102E3,4.665E3,7.509E3,5.934E3,9.77E2,7.21E3,2.5639E4,2.9164E4,4.42E2,6.258E3,5.72E2,1.41E3,2.692E3,4.563E3,1.02E2,7.318E3,1.91E2,1.545E3,4.389E3,4.41E2,5.36E2,3.874E3,3.336E3,2.1919E4,3.72E3,2.2139E4,7.025E3,8E1,3.62E2,2.352E3,3.906E3,4.38E2,1.34E2,8.04E2,6.06E2,2.451E3,2.41E2,2.37E2,4.326E3,2.2E1,8E1,2.609E3,4.709E3,1.61E2,3E1,1E0,1.544E3,4.6E2,3.929E3,4.4E2,1E0],"tree_param":{"num_deleted":"0","num_feature":"110","num_nodes":"61","size_leaf_vector":"0"}},{"base_weights":[2.6058252E0,2.4061319E-1,1.1122691E1,2.3126142E0,-1.5339343E-1,9.148979E0,1.4866141E1,2.1744452E0,2.2773998E1,4.2886645E-1,-5.1667297E-1,7.109609E0,1.0693042E1,1.4006966E1,1.7571157E1,2.942195E0,1.4095111E0,2.4879871E1,2.508679E-1,3.6563724E-1,7.448854E0,-2.3094873E-1,-5.9813654E-1,6.9294133E0,1.6246294E1,1.0949907E1,-4.353211E-1,1.342132E1,1.5887918E1,1.6642157E1,1.9472963E1,1.1606882E0,3.6450436E0,1.9694595E-1,1.955636E0,6.223753E0,-6.2937535E-2,2.56823E-1,2.9140968E0,4.9234116E-1,2.1828249E1,6.3471466E-1,-4.5767003E-1,-5.494351E-1,-7.829047E-1,5.512814E0,7.8165174E0,8.145361E-1,2.0068203E1,1.0719734E1,1.58394785E1,1.0616525E1,-1.3352377E0,1.2521362E1,1.3951643E1,1.5122415E1,1.8239025E1,1.8140507E1,1.597454E1],"categories":[],"categories_nodes":[],"categories_segments":[],"categories_sizes":[],"default_left":[true,true,true,true,true,true,true,true,true,true,true,true,true,true,true,true,true,false,true,true,true,true,true,true,true,true,true,true,true,true,false,false,false,false,false,false,false,false,false,false,false,false,false,false,false,false,false,false,false,false,false,false,false,false,false,false,false,false,false],"id":4,"left_children":[1,3,5,7,9,11,13,15,17,19,21,23,25,27,29,31,33,-1,35,37,39,41,43,45,47,49,51,53,55,57,-1,-1,-1,-1,-1,-1,-1,-1,-1,-1,-1,-1,-1,-1,-1,-1,-1,-1,-1,-1,-1,-1,-1,-1,-1,-1,-1,-1,-1],"loss_changes":[1.8626778E6,5.910842E4,1.4811775E5,3.2405246E4,1.2863607E4,4.119825E4,1.555575E4,6.701332E3,3.394625E3,1.0284785E4,8.634248E2,9.003875E3,2.1511438E4,5.3E3,2.2564375E3,7.119914E3,3.7957412E3,0E0,7.6994446E1,6.386407E3,2.0472348E4,1.6351683E3,2.4827246E2,6.8245312E3,6.144535E3,7.80175E3,1.6021927E3,1.484E3,1.6259062E3,4.984375E2,0E0,0E0,0E0,0E0,0E0,0E0,0E0,0E0,0E0,0E0,0E0,0E0,0E0,0E0,0E0,0E0,0E0,0E0,0E0,0E0,0E0,0E0,0E0,0E0,0E0,0E0,0E0,0E0,0E0],"parents":[2147483647,0,0,1,1,2,2,3,3,4,4,5,5,6,6,7,7,8,8,9,9,10,10,11,11,12,12,13,13,14,14,15,15,16,16,18,18,19,19,20,20,21,21,22,22,23,23,24,24,25,25,26,26,27,27,28,28,29,29],"right_children":[2,4,6,8,10,12,14,16,18,20,22,24,26,28,30,32,34,-1,36,38,40,42,44,46,48,50,52,54,56,58,-1,-1,-1,-1,-1,-1,-1,-1,-1,-1,-1,-1,-1,-1,-1,-1,-1,-1,-1,-1,-1,-1,-1,-1,-1,-1,-1,-1,-1],"split_conditions":[7.150758E0,8.1284344E-1,1.7786041E1,4.95E1,9.5480084E-1,1.3023138E1,2.2496155E1,7.168239E-1,9.5E0,2.9250723E-1,9.894177E-1,3.95E1,1.7770979E1,3.35E1,2.4296703E1,2.8804762E0,-3.3610567E-2,2.4879873E0,-2.1835866E-12,4.35E1,9E0,5.5E0,8.5E0,9.183932E0,3.1914894E-2,3.65E1,2.4242425E-1,1.9131884E1,2.0673077E-1,2.5320513E-2,1.9472964E0,1.1606882E-1,3.6450437E-1,1.9694595E-2,1.955636E-1,6.223753E-1,-6.2937536E-3,2.56823E-2,2.914097E-1,4.923412E-2,2.1828249E0,6.347147E-2,-4.5767006E-2,-5.494351E-2,-7.829047E-2,5.512814E-1,7.8165174E-1,8.1453614E-2,2.0068204E0,1.0719734E0,1.5839479E0,1.0616525E0,-1.3352378E-1,1.2521362E0,1.3951644E0,1.5122415E0,1.8239025E0,1.8140507E0,1.597454E0],"split_indices":[3,4,3,94,4,3,3,4,22,106,4,43,3,94,3,3,106,0,100,94,44,22,44,3,11,94,4,3,4,6,0,0,0,0,0,0,0,0,0,0,0,0,0,0,0,0,0,0,0,0,0,0,0,0,0,0,0,0,0],"split_type":[0,0,0,0,0,0,0,0,0,0,0,0,0,0,0,0,0,0,0,0,0,0,0,0,0,0,0,0,0,0,0,0,0,0,0,0,0,0,0,0,0,0,0,0,0,0,0,0,0,0,0,0,0,0,0,0,0,0,0],"sum_hessian":[9.2472E4,7.2375E4,2.0097E4,1.1567E4,6.0808E4,1.3163E4,6.934E3,1.1491E4,7.6E1,2.3352E4,3.7456E4,5.677E3,7.486E3,5.27E3,1.664E3,5.727E3,5.764E3,6.9E1,7E0,2.3146E4,2.06E2,8.338E3,2.9118E4,5.57E3,1.07E2,7.318E3,1.68E2,4.029E3,1.241E3,1.128E3,5.36E2,1.625E3,4.102E3,1.796E3,3.968E3,1E0,6E0,2.2203E4,9.43E2,1.4E2,6.6E1,1.721E3,6.617E3,2.309E4,6.028E3,2.152E3,3.418E3,2.2E1,8.5E1,6.994E3,3.24E2,1.1E1,1.57E2,1.51E3,2.519E3,9.45E2,2.96E2,3.35E2,7.93E2],"tree_param":{"num_deleted":"0","num_feature":"110","num_nodes":"59","size_leaf_vector":"0"}},{"base_weights":[2.3457139E0,2.167209E-1,1.0011932E1,2.0820272E0,-1.3796474E-1,8.234993E0,1.3382028E1,1.9573222E0,2.0536911E1,3.860018E-1,-4.6517372E-1,6.5370326E0,9.742E0,1.2452122E1,1.5420457E1,2.648234E0,1.2687708E0,2.2427425E1,1.777913E-1,5.312577E-2,1.0085496E0,-4.8796728E-1,2.2434013E0,1.0870803E1,6.3276224E0,9.993572E0,-3.8038E-1,1.2118034E1,1.5860447E1,1.4709674E1,1.7529293E1,1.0446906E0,3.280628E0,2.4933538E0,8.925809E-1,5.912565E0,-5.7542868E-2,-8.286949E-2,4.4679388E-1,7.87474E-1,1.2940923E1,-3.914056E-1,-6.972232E-1,-4.8840156E-1,2.0355877E1,8.842305E0,1.6218227E1,5.0952415E0,7.2480793E0,2.2071247E0,1.0138723E1,9.643343E0,-1.2025591E0,1.175057E1,1.3207129E1,-3.100496E0,1.598251E1,1.4142445E1,1.5990233E1],"categories":[],"categories_nodes":[],"categories_segments":[],"categories_sizes":[],"default_left":[true,true,true,true,true,true,true,true,true,true,true,true,true,true,true,true,true,false,true,true,true,true,true,true,true,true,true,true,true,true,false,false,false,false,false,false,false,false,false,false,false,false,false,false,false,false,false,false,false,false,false,false,false,false,false,false,false,false,false],"id":5,"left_children":[1,3,5,7,9,11,13,15,17,19,21,23,25,27,29,31,33,-1,35,37,39,41,43,45,47,49,51,53,55,57,-1,-1,-1,-1,-1,-1,-1,-1,-1,-1,-1,-1,-1,-1,-1,-1,-1,-1,-1,-1,-1,-1,-1,-1,-1,-1,-1,-1,-1],"loss_changes":[1.5091775E6,4.7903492E4,1.20029625E5,2.635761E4,1.0426465E4,3.3458062E4,1.2674875E4,5.424539E3,2.7336328E3,4.831287E3,2.2953218E3,5.3823125E3,1.7846562E4,4.960625E3,2.6649375E3,5.761922E3,2.619712E3,0E0,6.968716E1,8.193659E2,2.129911E4,7.3923535E2,1.5497848E4,2.6649102E3,6.549328E3,7.54075E3,1.3199678E3,1.3369375E3,1.1504297E3,6.5578125E2,0E0,0E0,0E0,0E0,0E0,0E0,0E0,0E0,0E0,0E0,0E0,0E0,0E0,0E0,0E0,0E0,0E0,0E0,0E0,0E0,0E0,0E0,0E0,0E0,0E0,0E0,0E0,0E0,0E0],"parents":[2147483647,0,0,1,1,2,2,3,3,4,4,5,5,6,6,7,7,8,8,9,9,10,10,11,11,12,12,13,13,14,14,15,15,16,16,18,18,19,19,20,20,21,21,22,22,23,23,24,24,25,25,26,26,27,27,28,28,29,29],"right_children":[2,4,6,8,10,12,14,16,18,20,22,24,26,28,30,32,34,-1,36,38,40,42,44,46,48,50,52,54,56,58,-1,-1,-1,-1,-1,-1,-1,-1,-1,-1,-1,-1,-1,-1,-1,-1,-1,-1,-1,-1,-1,-1,-1,-1,-1,-1,-1,-1,-1],"split_conditions":[7.150758E0,8.1284344E-1,1.7786041E1,4.95E1,9.5538974E-1,1.3541677E1,2.1825758E1,7.168239E-1,9.5E0,2.15E1,1.5549662E-2,1.5E0,1.7770979E1,3.85E1,2.4296703E1,2.8804762E0,5.5E0,2.2427425E0,-2.1835866E-12,5.5E0,9.541958E-1,5.5E0,9.796082E-1,3.5E0,9.947222E0,-2.2301013E-3,2.4242425E-1,7.229965E-2,1.5E0,1.21951215E-2,1.7529293E0,1.0446906E-1,3.280628E-1,2.493354E-1,8.92581E-2,5.9125656E-1,-5.754287E-3,-8.286949E-3,4.467939E-2,7.87474E-2,1.2940923E0,-3.9140563E-2,-6.972232E-2,-4.8840158E-2,2.0355878E0,8.8423055E-1,1.6218227E0,5.0952417E-1,7.248079E-1,2.2071247E-1,1.0138724E0,9.643343E-1,-1.2025591E-1,1.175057E0,1.3207129E0,-3.1004962E-1,1.598251E0,1.4142445E0,1.5990233E0],"split_indices":[3,4,3,94,4,3,3,4,22,65,10,97,3,65,3,3,22,0,100,93,4,97,4,93,3,100,4,4,93,9,0,0,0,0,0,0,0,0,0,0,0,0,0,0,0,0,0,0,0,0,0,0,0,0,0,0,0,0,0],"split_type":[0,0,0,0,0,0,0,0,0,0,0,0,0,0,0,0,0,0,0,0,0,0,0,0,0,0,0,0,0,0,0,0,0,0,0,0,0,0,0,0,0,0,0,0,0,0,0,0,0,0,0,0,0,0,0,0,0,0,0],"sum_hessian":[9.2472E4,7.2375E4,2.0097E4,1.1567E4,6.0808E4,1.3163E4,6.934E3,1.1491E4,7.6E1,2.3364E4,3.7444E4,6.195E3,6.968E3,4.77E3,2.164E3,5.727E3,5.764E3,6.9E1,7E0,1.5235E4,8.129E3,3.7136E4,3.08E2,2.81E2,5.914E3,6.8E3,1.68E2,4.351E3,4.19E2,1.628E3,5.36E2,1.625E3,4.102E3,1.347E3,4.417E3,1E0,6E0,1.1305E4,3.93E3,7.983E3,1.46E2,2.5445E4,1.1691E4,2.68E2,4E1,2.07E2,7.4E1,2.536E3,3.378E3,1.26E2,6.674E3,1.1E1,1.57E2,3.269E3,1.082E3,2E0,4.17E2,1.142E3,4.86E2],"tree_param":{"num_deleted":"0","num_feature":"110","num_nodes":"59","size_leaf_vector":"0"}},{"base_weights":[2.1115346E0,8.827468E0,2.5992304E-1,7.702685E0,1.1504303E1,2.2597227E0,-1.2409777E-1,6.1664376E0,9.92071E0,1.0501844E1,1.3420748E1,2.1520624E0,1.7918367E1,3.478636E-1,-4.186112E-1,5.088062E0,7.8362694E0,1.0089075E1,-0E0,1.09917E1,4.2371016E0,1.30132885E1,2.2779978E1,3.9403808E0,1.4363909E0,-9.4572E-1,1.9904398E1,3.2302508E0,2.2061208E-1,8.052346E0,-4.2203432E-1,4.108797E0,6.8478045E0,6.4001594E0,8.352993E0,1.0407453E1,5.829298E0,-5.8819675E0,8.914028E0,1.0147116E1,1.1783765E1,8.461845E0,-1.8933335E-1,1.210609E1,1.4827165E1,3.5792701E0,1.5896136E1,1.6741906E0,-1.5425144E-1,-0E0,-1.3658625E0,2.0231047E1,-0E0,2.169987E1,1.4711978E0,-5.7752892E-2,7.97462E-1,-1.8343443E-1,-4.8636225E-1],"categories":[],"categories_nodes":[],"categories_segments":[],"categories_sizes":[],"default_left":[true,true,true,true,true,true,true,true,true,true,true,true,true,true,true,true,true,true,true,true,true,true,false,true,true,true,true,true,true,false,true,false,false,false,false,false,false,false,false,false,false,false,false,false,false,false,false,false,false,false,false,false,false,false,false,false,false,false,false],"id":6,"left_children":[1,3,5,7,9,11,13,15,17,19,21,23,25,27,29,31,33,35,37,39,41,43,-1,45,47,49,51,53,55,-1,57,-1,-1,-1,-1,-1,-1,-1,-1,-1,-1,-1,-1,-1,-1,-1,-1,-1,-1,-1,-1,-1,-1,-1,-1,-1,-1,-1,-1],"loss_changes":[1.1498362E6,5.988825E4,5.56914E4,4.7744375E4,1.097E4,1.9454457E4,8.453241E3,1.4816375E4,9.5181875E3,1.1729625E4,7.0565312E3,1.4791934E4,3.1681191E3,8.530385E3,1.01323535E3,8.587125E3,2.2181719E3,7.4518125E3,5.2196514E3,2.0714062E3,5.4139854E3,2.7451562E3,0E0,1.4047414E4,3.1523203E3,2.172811E0,5.346367E2,3.170558E4,3.5995015E3,0E0,5.6792725E2,0E0,0E0,0E0,0E0,0E0,0E0,0E0,0E0,0E0,0E0,0E0,0E0,0E0,0E0,0E0,0E0,0E0,0E0,0E0,0E0,0E0,0E0,0E0,0E0,0E0,0E0,0E0,0E0],"parents":[2147483647,0,0,1,1,2,2,3,3,4,4,5,5,6,6,7,7,8,8,9,9,10,10,11,11,12,12,13,13,14,14,15,15,16,16,17,17,18,18,19,19,20,20,21,21,23,23,24,24,25,25,26,26,27,27,28,28,30,30],"right_children":[2,4,6,8,10,12,14,16,18,20,22,24,26,28,30,32,34,36,38,40,42,44,-1,46,48,50,52,54,56,-1,58,-1,-1,-1,-1,-1,-1,-1,-1,-1,-1,-1,-1,-1,-1,-1,-1,-1,-1,-1,-1,-1,-1,-1,-1,-1,-1,-1,-1],"split_conditions":[4.7655678E-1,2.65E1,8.1284344E-1,2.45E1,6.5E0,5.05E1,9.5480084E-1,7.5E0,1.1148489E-1,3.114224E-1,4.7493735E-1,6.421833E-1,8.047619E-1,-3.3764727E0,-4.9E1,1.75E1,1.25E1,3.1414473E-1,1.1154771E-1,3.35E1,2.667141E-2,3.95E1,2.2779977E0,3.85E1,2.0620748E-2,1.45E1,5.15E1,5.748169E-2,8.5E0,8.052346E-1,9.847319E-1,4.108797E-1,6.847805E-1,6.4001596E-1,8.352993E-1,1.0407453E0,5.829298E-1,-5.8819675E-1,8.9140284E-1,1.0147116E0,1.1783766E0,8.4618455E-1,-1.8933335E-2,1.210609E0,1.4827164E0,3.5792702E-1,1.5896137E0,1.6741906E-1,-1.5425145E-2,-0E0,-1.3658625E-1,2.0231047E0,-0E0,2.169987E0,1.4711979E-1,-5.775289E-3,7.97462E-2,-1.8343443E-2,-4.8636224E-2],"split_indices":[4,21,4,92,99,21,4,21,102,4,4,4,4,107,99,92,96,4,102,21,8,21,0,92,12,92,21,106,95,0,4,0,0,0,0,0,0,0,0,0,0,0,0,0,0,0,0,0,0,0,0,0,0,0,0,0,0,0,0],"split_type":[0,0,0,0,0,0,0,0,0,0,0,0,0,0,0,0,0,0,0,0,0,0,0,0,0,0,0,0,0,0,0,0,0,0,0,0,0,0,0,0,0,0,0,0,0,0,0,0,0,0,0,0,0,0,0,0,0,0,0],"sum_hessian":[9.2472E4,1.9983E4,7.2489E4,1.4076E4,5.907E3,1.1681E4,6.0808E4,8.321E3,5.755E3,3.886E3,2.021E3,1.1603E4,7.8E1,2.3352E4,3.7456E4,5.062E3,3.259E3,5.658E3,9.7E1,3.602E3,2.84E2,1.94E3,8.1E1,3.311E3,8.292E3,7E0,7.1E1,9.83E2,2.2369E4,1.3E1,3.7443E4,3.258E3,1.804E3,8.71E2,2.388E3,5.261E3,3.97E2,5.8E1,3.9E1,1.756E3,1.846E3,1.46E2,1.38E2,1.302E3,6.38E2,3.216E3,9.5E1,7.219E3,1.073E3,3E0,4E0,7E1,1E0,8.4E1,8.99E2,1.5077E4,7.292E3,7.985E3,2.9458E4],"tree_param":{"num_deleted":"0","num_feature":"110","num_nodes":"59","size_leaf_vector":"0"}},{"base_weights":[1.9007294E0,1.6835715E-1,8.138677E0,-2.4178827E-1,1.1881899E0,6.7062364E0,1.1053847E1,1.7355682E-1,-3.79774E-1,1.1151583E0,1.9253223E1,5.478691E0,8.0922E0,1.0370628E1,1.3074034E1,7.192176E-2,1.1864905E0,-4.394142E-1,-1.9828919E-1,1.0193352E0,6.2613215E0,2.0014366E1,-0E0,5.3568544E0,1.2804722E1,8.235243E0,-1.6891965E0,9.861696E0,1.192896E1,1.2387377E1,1.4474706E1,3.6189485E-1,-1.6236651E-1,9.618307E0,-2.2689465E-1,-9.2437017E-1,-4.2194676E-1,-2.8201437E-1,1.3271885E0,1.742119E0,3.2148656E-1,1.941513E1,-1.8520255E0,4.0101833E0,5.945843E0,1.4288914E0,1.5999583E1,8.36755E0,-9.896171E-1,-2.176903E0,6.9626484E0,9.402229E0,1.0688171E1,1.1240315E1,1.3929122E1,1.359394E1,1.1835306E1],"categories":[],"categories_nodes":[],"categories_segments":[],"categories_sizes":[],"default_left":[true,true,true,true,true,true,true,true,true,true,true,true,true,true,true,true,true,true,true,true,true,false,false,true,true,true,true,true,true,true,false,false,false,false,false,false,false,false,false,false,false,false,false,false,false,false,false,false,false,false,false,false,false,false,false,false,false],"id":7,"left_children":[1,3,5,7,9,11,13,15,17,19,21,23,25,27,29,31,33,35,37,39,41,-1,-1,43,45,47,49,51,53,55,-1,-1,-1,-1,-1,-1,-1,-1,-1,-1,-1,-1,-1,-1,-1,-1,-1,-1,-1,-1,-1,-1,-1,-1,-1,-1,-1],"loss_changes":[9.992201E5,3.0283164E4,8.3673625E4,2.9600417E3,2.7171816E4,2.2755625E4,8.76425E3,1.3105415E3,4.1305518E2,1.0120535E4,1.278998E3,6.137078E3,8.9304375E3,3.5934375E3,1.1534688E3,7.963089E2,1.3956039E4,2.3290527E2,1.2198745E3,1.0222535E4,4.0338844E4,0E0,0E0,5.462125E3,3.9824375E3,7.6931562E3,3.5127972E2,1.1207188E3,1.2583906E3,3.3685938E2,0E0,0E0,0E0,0E0,0E0,0E0,0E0,0E0,0E0,0E0,0E0,0E0,0E0,0E0,0E0,0E0,0E0,0E0,0E0,0E0,0E0,0E0,0E0,0E0,0E0,0E0,0E0],"parents":[2147483647,0,0,1,1,2,2,3,3,4,4,5,5,6,6,7,7,8,8,9,9,10,10,11,11,12,12,13,13,14,14,15,15,16,16,17,17,18,18,19,19,20,20,23,23,24,24,25,25,26,26,27,27,28,28,29,29],"right_children":[2,4,6,8,10,12,14,16,18,20,22,24,26,28,30,32,34,36,38,40,42,-1,-1,44,46,48,50,52,54,56,-1,-1,-1,-1,-1,-1,-1,-1,-1,-1,-1,-1,-1,-1,-1,-1,-1,-1,-1,-1,-1,-1,-1,-1,-1,-1,-1],"split_conditions":[7.150758E0,1.4040507E0,1.8016376E1,9.510196E-1,9.534632E-1,1.4252273E1,2.2496155E1,9.4858575E-1,6.8337485E-2,5.05E1,1.4219368E0,4.05E1,4.45E1,7.229965E-2,2.4296703E1,8.9672947E-1,-6.8060175E-2,-3.2282797E-1,9.8346996E-1,8.0447274E-1,-2.2410962E-12,2.0014367E0,-0E0,9.183932E0,1.2981195E-2,4.45E1,7.5E0,2.0815342E1,3.95E1,-2.0635186E-1,1.4474705E0,3.6189485E-2,-1.6236652E-2,9.6183074E-1,-2.2689465E-2,-9.243702E-2,-4.2194676E-2,-2.8201437E-2,1.3271885E-1,1.742119E-1,3.2148656E-2,1.9415131E0,-1.8520255E-1,4.0101835E-1,5.9458435E-1,1.4288914E-1,1.5999583E0,8.36755E-1,-9.896171E-2,-2.176903E-1,6.9626486E-1,9.402229E-1,1.0688171E0,1.1240315E0,1.3929123E0,1.359394E0,1.1835307E0],"split_indices":[3,3,3,4,4,3,3,4,3,21,3,19,21,4,3,4,106,106,4,4,102,0,0,3,106,19,20,3,21,109,0,0,0,0,0,0,0,0,0,0,0,0,0,0,0,0,0,0,0,0,0,0,0,0,0,0,0],"split_type":[0,0,0,0,0,0,0,0,0,0,0,0,0,0,0,0,0,0,0,0,0,0,0,0,0,0,0,0,0,0,0,0,0,0,0,0,0,0,0,0,0,0,0,0,0,0,0,0,0,0,0,0,0,0,0,0,0],"sum_hessian":[9.2472E4,7.2375E4,2.0097E4,5.161E4,2.0765E4,1.348E4,6.617E3,1.2852E4,3.8758E4,2.0683E4,8.2E1,7.155E3,6.325E3,4.953E3,1.664E3,1.169E4,1.162E3,2.9129E4,9.629E3,2.0308E4,3.75E2,7.9E1,3E0,7.041E3,1.14E2,6.235E3,9E1,3.744E3,1.209E3,1.128E3,5.36E2,5.243E3,6.447E3,1.67E2,9.95E2,9.91E2,2.8138E4,9.135E3,4.94E2,9.968E3,1.034E4,1.43E2,2.32E2,2.15E3,4.891E3,2.6E1,8.8E1,6.148E3,8.7E1,8.7E1,3E0,2.422E3,1.322E3,9.08E2,3.01E2,3.41E2,7.87E2],"tree_param":{"num_deleted":"0","num_feature":"110","num_nodes":"57","size_leaf_vector":"0"}},{"base_weights":[1.7109598E0,1.515847E-1,7.3259277E0,-8.0951005E-2,1.6164671E0,6.0376897E0,9.953986E0,-3.8092527E-1,2.5154588E-1,1.3324137E0,9.216577E0,4.9332213E0,7.286454E0,9.505818E0,1.2513525E1,-3.186297E-1,-5.561577E-1,2.0867194E-1,1.0970721E1,1.7760235E0,3.944172E-1,3.713908E0,1.6682148E1,8.72426E0,4.698631E0,7.4977813E0,-8.376069E-2,9.984533E0,8.646362E0,1.2273418E1,1.5493881E1,-3.2466054E-1,1.2292793E0,-3.9797512E-1,-6.598049E-1,1.6955192E-1,3.6665514E0,1.9628962E1,-8.238996E-1,2.1378694E0,6.495201E-3,6.0389068E-2,2.2096426E0,9.599836E0,2.2114697E-1,-2.4164905E-1,1.7964146E1,2.561035E0,1.0231773E1,3.400591E0,5.4325223E0,1.585734E-1,7.6334505E0,-1.2385825E0,1.1727233E1,1.0607275E1,9.433753E0,7.9290247E0,9.056514E0],"categories":[],"categories_nodes":[],"categories_segments":[],"categories_sizes":[],"default_left":[true,true,true,true,true,true,true,true,true,true,true,true,true,true,true,true,true,true,true,true,true,true,true,true,true,true,true,true,true,false,false,false,false,false,false,false,false,false,false,false,false,false,false,false,false,false,false,false,false,false,false,false,false,false,false,false,false,false,false],"id":8,"left_children":[1,3,5,7,9,11,13,15,17,19,21,23,25,27,29,31,33,35,37,39,41,43,45,47,49,51,53,55,57,-1,-1,-1,-1,-1,-1,-1,-1,-1,-1,-1,-1,-1,-1,-1,-1,-1,-1,-1,-1,-1,-1,-1,-1,-1,-1,-1,-1,-1,-1],"loss_changes":[8.0960294E5,2.4669463E4,6.7823125E4,6.230782E3,2.1300053E4,1.8450312E4,7.23975E3,3.4967236E2,1.34925E4,3.9580508E3,1.4358768E4,6.198703E3,9.9276875E3,2.0437188E3,2.3203125E2,2.1800098E2,1.2969897E2,3.9503328E3,1.2152343E4,4.1321445E3,1.8446824E3,4.155202E3,3.436004E3,3.6924043E3,6.3271875E3,6.0454688E3,2.3102068E3,9.35E2,3.553125E2,0E0,0E0,0E0,0E0,0E0,0E0,0E0,0E0,0E0,0E0,0E0,0E0,0E0,0E0,0E0,0E0,0E0,0E0,0E0,0E0,0E0,0E0,0E0,0E0,0E0,0E0,0E0,0E0,0E0,0E0],"parents":[2147483647,0,0,1,1,2,2,3,3,4,4,5,5,6,6,7,7,8,8,9,9,10,10,11,11,12,12,13,13,14,14,15,15,16,16,17,17,18,18,19,19,20,20,21,21,22,22,23,23,24,24,25,25,26,26,27,27,28,28],"right_children":[2,4,6,8,10,12,14,16,18,20,22,24,26,28,30,32,34,36,38,40,42,44,46,48,50,52,54,56,58,-1,-1,-1,-1,-1,-1,-1,-1,-1,-1,-1,-1,-1,-1,-1,-1,-1,-1,-1,-1,-1,-1,-1,-1,-1,-1,-1,-1,-1,-1],"split_conditions":[7.150758E0,2.8900967E0,1.8029858E1,3.2742947E-1,4.22033E0,1.4267948E1,2.3524029E1,6.5E0,5.701853E1,5.2954435E-1,8.5E0,2.5E0,3.4313726E-1,5.3137255E-1,2.7324074E1,1.3793759E-2,7.5E0,4.4139458E1,5.7201546E1,2.6372723E1,7.814408E-2,4.2586794E0,-2.180034E-12,5.5E0,9.991803E0,-2.0756572E-3,3.693182E-1,9.569597E-2,1.9491379E1,1.2273419E0,1.5493882E0,-3.2466054E-2,1.2292793E-1,-3.979751E-2,-6.598049E-2,1.6955193E-2,3.6665514E-1,1.9628962E0,-8.2389966E-2,2.1378694E-1,6.4952014E-4,6.038907E-3,2.2096427E-1,9.5998365E-1,2.2114698E-2,-2.4164906E-2,1.7964146E0,2.561035E-1,1.0231774E0,3.400591E-1,5.432522E-1,1.585734E-2,7.6334506E-1,-1.2385825E-1,1.1727233E0,1.0607275E0,9.433753E-1,7.9290247E-1,9.056514E-1],"split_indices":[3,3,3,3,107,3,3,93,108,107,88,88,9,6,3,8,88,108,108,108,13,107,100,95,3,100,9,13,3,0,0,0,0,0,0,0,0,0,0,0,0,0,0,0,0,0,0,0,0,0,0,0,0,0,0,0,0,0,0],"split_type":[0,0,0,0,0,0,0,0,0,0,0,0,0,0,0,0,0,0,0,0,0,0,0,0,0,0,0,0,0,0,0,0,0,0,0,0,0,0,0,0,0,0,0,0,0,0,0,0,0,0,0,0,0,0,0,0,0,0,0],"sum_hessian":[9.2472E4,7.2375E4,2.0097E4,6.2455E4,9.92E3,1.3491E4,6.606E3,3.2849E4,2.9606E4,9.565E3,3.55E2,7.166E3,6.325E3,5.629E3,9.77E2,2.4278E4,8.571E3,2.949E4,1.16E2,6.486E3,3.079E3,2.06E2,1.49E2,4.13E2,6.753E3,6.15E3,1.75E2,3.601E3,2.028E3,9.12E2,6.5E1,2.4191E4,8.7E1,3.433E3,5.138E3,2.9164E4,3.26E2,6.7E1,4.9E1,5.38E3,1.106E3,2.606E3,4.73E2,7.5E1,1.31E2,1E1,1.39E2,8.3E1,3.3E2,2.446E3,4.307E3,1.13E2,6.037E3,1.61E2,1.4E1,1.673E3,1.928E3,7.54E2,1.274E3],"tree_param":{"num_deleted":"0","num_feature":"110","num_nodes":"59","size_leaf_vector":"0"}},{"base_weights":[1.5402198E0,5.0994956E-1,5.6959515E0,4.6329637E0,4.700356E-1,3.7758873E0,6.8296666E0,6.725651E0,3.9864404E0,4.1789892E-1,3.5614834E0,1.9447212E0,4.765088E0,5.2895494E0,7.4266076E0,2.7751646E0,7.1920915E0,7.216668E0,3.875561E0,3.5654967E0,3.8550803E-1,1.2920697E1,2.2505882E0,3.1773716E-1,2.5614357E0,4.571817E0,1.3424862E1,7.73686E0,3.5008063E0,6.9567704E0,9.158808E0,1.610962E0,1.8505112E1,8.3101876E-2,6.3674176E-1,8.907525E0,1.749024E1,2.5161514E0,-1.162143E0,1.96191E-1,6.0821924E0,2.0557494E0,4.2190237E0,4.2664533E0,6.943086E0,1.4665215E1,4.486736E0,1.189077E1,6.1422715E0,1.0143454E1,2.2404213E0,6.409611E0,8.431375E0,6.1272154E0,9.514059E0],"categories":[],"categories_nodes":[],"categories_segments":[],"categories_sizes":[],"default_left":[true,true,true,true,true,true,true,true,true,true,true,true,true,true,true,false,false,false,false,true,true,true,true,true,true,true,true,true,true,true,true,false,false,false,false,false,false,false,false,false,false,false,false,false,false,false,false,false,false,false,false,false,false,false,false],"id":9,"left_children":[1,3,5,7,9,11,13,15,17,19,21,23,25,27,29,-1,-1,-1,-1,31,33,35,37,39,41,43,45,47,49,51,53,-1,-1,-1,-1,-1,-1,-1,-1,-1,-1,-1,-1,-1,-1,-1,-1,-1,-1,-1,-1,-1,-1,-1,-1],"loss_changes":[3.9586062E5,1.2141941E4,3.9853938E4,8.239717E2,1.178885E4,1.2286383E4,1.04475E4,1.7888037E2,5.702539E1,7.318632E3,1.4713711E4,2.3775146E3,7.168047E3,1.4013352E4,6.5406875E3,0E0,0E0,0E0,0E0,2.1143426E4,5.4214395E3,2.2943047E3,9.834824E2,4.0195346E2,1.3828896E3,2.9958125E3,7.9589453E2,8.768219E3,1.5526369E4,5.08075E3,1.6872344E3,0E0,0E0,0E0,0E0,0E0,0E0,0E0,0E0,0E0,0E0,0E0,0E0,0E0,0E0,0E0,0E0,0E0,0E0,0E0,0E0,0E0,0E0,0E0,0E0],"parents":[2147483647,0,0,1,1,2,2,3,3,4,4,5,5,6,6,7,7,8,8,9,9,10,10,11,11,12,12,13,13,14,14,19,19,20,20,21,21,22,22,23,23,24,24,25,25,26,26,27,27,28,28,29,29,30,30],"right_children":[2,4,6,8,10,12,14,16,18,20,22,24,26,28,30,-1,-1,-1,-1,32,34,36,38,40,42,44,46,48,50,52,54,-1,-1,-1,-1,-1,-1,-1,-1,-1,-1,-1,-1,-1,-1,-1,-1,-1,-1,-1,-1,-1,-1,-1,-1],"split_conditions":[4.4610284E-2,-4.75E1,1.25E1,3.3E1,2.923501E-1,6.5E0,1.4595038E-1,-1.5357143E0,5.5E0,-4.3617594E-1,2.9707867E-1,7.853618E-2,4.05E1,1.63652E0,3.45E1,2.7751645E-1,7.1920913E-1,7.216668E-1,3.875561E-1,-4.3774158E-1,7.5E0,8.5E0,4.25E1,4.2E1,6.5E0,2.45E1,-1.0654106E-4,4.939024E-2,-3.634845E-1,3.15E1,8.5E0,1.610962E-1,1.8505112E0,8.310188E-3,6.3674174E-2,8.907525E-1,1.749024E0,2.5161514E-1,-1.162143E-1,1.96191E-2,6.0821927E-1,2.0557494E-1,4.219024E-1,4.2664534E-1,6.9430864E-1,1.4665215E0,4.4867358E-1,1.189077E0,6.142272E-1,1.0143454E0,2.2404213E-1,6.409611E-1,8.4313744E-1,6.1272156E-1,9.5140594E-1],"split_indices":[14,98,98,0,106,90,14,104,65,106,106,14,19,109,65,0,0,0,0,106,98,44,90,19,98,65,100,14,106,19,0,0,0,0,0,0,0,0,0,0,0,0,0,0,0,0,0,0,0,0,0,0,0,0,0],"split_type":[0,0,0,0,0,0,0,0,0,0,0,0,0,0,0,0,0,0,0,0,0,0,0,0,0,0,0,0,0,0,0,0,0,0,0,0,0,0,0,0,0,0,0,0,0,0,0,0,0,0,0,0,0,0,0],"sum_hessian":[9.2472E4,7.4104E4,1.8368E4,7.07E2,7.3397E4,6.824E3,1.1544E4,1.61E2,5.46E2,7.2184E4,1.213E3,2.398E3,4.426E3,3.232E3,8.312E3,2E1,1.41E2,1.3E1,5.33E2,7.31E2,7.1453E4,1.47E2,1.066E3,6.64E2,1.734E3,4.332E3,9.4E1,1.361E3,1.871E3,6.547E3,1.765E3,6.48E2,8.3E1,3.2443E4,3.901E4,8.1E1,6.6E1,9.92E2,7.4E1,6.53E2,1.1E1,1.335E3,3.99E2,3.844E3,4.88E2,8.1E1,1.3E1,3.74E2,9.87E2,2.96E2,1.575E3,4.784E3,1.763E3,1.9E2,1.575E3],"tree_param":{"num_deleted":"0","num_feature":"110","num_nodes":"55","size_leaf_vector":"0"}}]},"name":"gbtree"},"learner_model_param":{"base_score":"5E-1","num_class":"0","num_feature":"110"},"objective":{"name":"reg:squarederror","reg_loss_param":{"scale_pos_weight":"1"}}},"version":[1,4,2]}
