{"learner":{"attributes":{},"feature_names":[" day"," trace 40 quant","competitiveness","empirical_distr_p","empirical_distr_q_0","empirical_distr_q_1","empirical_distr_q_10","empirical_distr_q_2","empirical_distr_q_3","empirical_distr_q_4","empirical_distr_q_5","empirical_distr_q_6","empirical_distr_q_7","empirical_distr_q_8","empirical_distr_q_9","my_layer_size","n_level","n_opp_level","opp_layer_size","trace 0 price","trace 0 quant","trace 1 price","trace 1 quant","trace 10 price","trace 10 quant","trace 11 price","trace 11 quant","trace 12 price","trace 12 quant","trace 13 price","trace 13 quant","trace 14 price","trace 14 quant","trace 15 price","trace 15 quant","trace 16 price","trace 16 quant","trace 17 price","trace 17 quant","trace 18 price","trace 18 quant","trace 19 price","trace 19 quant","trace 2 price","trace 2 quant","trace 20 price","trace 20 quant","trace 21 price","trace 21 quant","trace 22 price","trace 22 quant","trace 23 price","trace 23 quant","trace 24 price","trace 24 quant","trace 25 price","trace 25 quant","trace 26 price","trace 26 quant","trace 27 price","trace 27 quant","trace 28 price","trace 28 quant","trace 29 price","trace 29 quant","trace 3 price","trace 3 quant","trace 30 price","trace 30 quant","trace 31 price","trace 31 quant","trace 32 price","trace 32 quant","trace 33 price","trace 33 quant","trace 34 price","trace 34 quant","trace 35 price","trace 35 quant","trace 36 price","trace 36 quant","trace 37 price","trace 37 quant","trace 38 price","trace 38 quant","trace 39 price","trace 39 quant","trace 4 price","trace 4 quant","trace 40 price","trace 5 price","trace 5 quant","trace 6 price","trace 6 quant","trace 7 price","trace 7 quant","trace 8 price","trace 8 quant","trace 9 price","trace 9 quant","ufun_param_0","ufun_param_1","ufun_param_2","ufun_param_3","ufun_param_4","ufun_param_5","ufun_param_6","ufun_param_7","ufun_param_8","ufun_param_9"],"feature_types":["int","int","float","float","float","float","float","float","float","float","float","float","float","float","float","int","int","int","int","int","int","int","int","int","int","int","int","int","int","int","int","int","int","int","int","int","int","int","int","int","int","int","int","int","int","int","int","int","int","int","int","int","int","int","int","int","int","int","int","int","int","int","int","int","int","int","int","int","int","int","int","int","int","int","int","int","int","int","int","int","int","int","int","int","int","int","int","int","int","int","int","int","int","int","int","int","int","int","int","int","float","float","float","float","float","float","float","float","float","float"],"gradient_booster":{"model":{"gbtree_model_param":{"num_trees":"10","size_leaf_vector":"0"},"tree_info":[0,0,0,0,0,0,0,0,0,0],"trees":[{"base_weights":[3.5955067E0,1.0902575E0,1.4289429E1,6.4953095E-1,8.383193E0,1.0799001E1,1.6127394E1,4.835058E-1,1.3277933E1,5.8368144E0,1.48369875E1,8.048204E0,1.751382E1,1.8503746E1,1.4970397E1,3.5108313E-1,1.4059569E1,5.694737E0,1.5984178E1,2.3834164E0,1.2829258E1,2.2825367E1,1.2914261E1,4.3756623E0,1.3524481E1,2.346982E1,1.4976896E1,1.7594915E1,2.126941E1,1.31970005E1,1.9212547E1,3.0448368E-1,3.2441406E0,9.484716E0,1.5884135E1,8.241072E0,1.9364407E0,1.2266164E1,2.1180428E1,1.7974299E0,7.033708E0,1.8313416E1,9.906049E0,1.2954545E0,2.4581673E1,1.3965218E1,2.7247705E0,1.4429054E1,3.8527672E0,1.2278667E1,1.7682901E1,1.9171314E1,2.6349863E1,2.0224026E1,1.2500505E1,1.4381024E1,1.7942198E1,1.4816265E1,2.240349E1,1.3420639E1,4.9122806E0,1.843055E1,2.2516865E1],"categories":[],"categories_nodes":[],"categories_segments":[],"categories_sizes":[],"default_left":[true,true,true,true,true,true,true,true,true,true,true,true,true,true,true,true,true,true,true,true,true,true,true,true,true,true,true,true,true,true,true,false,false,false,false,false,false,false,false,false,false,false,false,false,false,false,false,false,false,false,false,false,false,false,false,false,false,false,false,false,false,false,false],"id":0,"left_children":[1,3,5,7,9,11,13,15,17,19,21,23,25,27,29,31,33,35,37,39,41,43,45,47,49,51,53,55,57,59,61,-1,-1,-1,-1,-1,-1,-1,-1,-1,-1,-1,-1,-1,-1,-1,-1,-1,-1,-1,-1,-1,-1,-1,-1,-1,-1,-1,-1,-1,-1,-1,-1],"loss_changes":[2.904129E6,2.8221306E5,1.31551E5,1.7351795E5,8.194141E4,1.3078519E5,3.6434E4,1.4683012E5,2.1732797E4,8.653166E4,2.1066125E4,1.0114569E5,3.042075E4,1.030925E4,6.7656E4,1.087922E4,6.1815312E3,2.6096826E3,1.46683125E4,6.455415E3,1.8549562E4,9.994547E3,1.2035094E4,1.5637336E4,9.958469E3,6.6285E3,1.8261156E4,3.12875E3,7.2143438E3,1.16105E4,6.0746875E3,0E0,0E0,0E0,0E0,0E0,0E0,0E0,0E0,0E0,0E0,0E0,0E0,0E0,0E0,0E0,0E0,0E0,0E0,0E0,0E0,0E0,0E0,0E0,0E0,0E0,0E0,0E0,0E0,0E0,0E0,0E0,0E0],"parents":[2147483647,0,0,1,1,2,2,3,3,4,4,5,5,6,6,7,7,8,8,9,9,10,10,11,11,12,12,13,13,14,14,15,15,16,16,17,17,18,18,19,19,20,20,21,21,22,22,23,23,24,24,25,25,26,26,27,27,28,28,29,29,30,30],"right_children":[2,4,6,8,10,12,14,16,18,20,22,24,26,28,30,32,34,36,38,40,42,44,46,48,50,52,54,56,58,60,62,-1,-1,-1,-1,-1,-1,-1,-1,-1,-1,-1,-1,-1,-1,-1,-1,-1,-1,-1,-1,-1,-1,-1,-1,-1,-1,-1,-1,-1,-1,-1,-1],"split_conditions":[4.5115333E-2,4.7338936E-2,1.4595038E-1,1.4550266E-1,3.2086477E-2,9.032634E-2,5.5E0,4.2261904E-1,-3.3092475E-4,1.2793235E-1,5.0641026E-2,4.2481202E-1,5.1956818E-2,8.5E0,3.05E1,5.2982457E-2,6.228448E-1,7.5E0,1.25E1,1.2390351E-1,3.5E0,-2.180145E-12,7.5E0,2.5E0,2.45E1,5E-1,5.5E0,8.5E0,6.5E0,1.1002886E-2,3.95E1,3.0448368E-2,3.2441407E-1,9.4847167E-1,1.5884136E0,8.2410717E-1,1.9364408E-1,1.2266164E0,2.1180427E0,1.7974299E-1,7.033708E-1,1.8313416E0,9.906049E-1,1.2954545E-1,2.4581673E0,1.3965218E0,2.7247706E-1,1.4429054E0,3.8527673E-1,1.2278668E0,1.7682902E0,1.9171314E0,2.6349864E0,2.0224025E0,1.2500505E0,1.4381025E0,1.7942199E0,1.4816265E0,2.240349E0,1.3420639E0,4.9122807E-1,1.843055E0,2.2516866E0],"split_indices":[14,8,14,12,12,12,19,6,100,8,8,6,14,91,19,7,6,91,0,7,20,100,2,91,19,2,19,0,0,7,19,0,0,0,0,0,0,0,0,0,0,0,0,0,0,0,0,0,0,0,0,0,0,0,0,0,0,0,0,0,0,0,0],"split_type":[0,0,0,0,0,0,0,0,0,0,0,0,0,0,0,0,0,0,0,0,0,0,0,0,0,0,0,0,0,0,0,0,0,0,0,0,0,0,0,0,0,0,0,0,0,0,0,0,0,0,0,0,0,0,0,0,0,0,0,0,0,0,0],"sum_hessian":[1.08405E5,8.7831E4,2.0574E4,8.2828E4,5.003E3,7.101E3,1.3473E4,8.1755E4,1.073E3,3.59E3,1.413E3,5.04E3,2.061E3,4.404E3,9.069E3,8.0967E4,7.88E2,2.84E2,7.89E2,2.405E3,1.185E3,2.71E2,1.142E3,3.019E3,2.021E3,6.12E2,1.449E3,3.323E3,1.081E3,6.4E3,2.669E3,7.9688E4,1.279E3,2.28E2,5.6E2,1.67E2,1.17E2,4.63E2,3.26E2,2.139E3,2.66E2,4.09E2,7.76E2,2.1E1,2.5E2,1.034E3,1.08E2,1.47E2,2.872E3,1.56E3,4.61E2,2.5E2,3.62E2,4.61E2,9.88E2,3.31E2,2.992E3,1.65E2,9.16E2,6.23E3,1.7E2,2.166E3,5.03E2],"tree_param":{"num_deleted":"0","num_feature":"110","num_nodes":"63","size_leaf_vector":"0"}},{"base_weights":[3.2366178E0,2.523707E0,1.2225063E1,1.7341162E0,8.344347E0,8.565657E0,1.4534634E1,6.761025E-1,4.492846E0,6.8285894E0,1.4909642E1,4.7160726E0,1.2341458E1,4.8443813E0,1.5424862E1,5.4373413E-1,4.4914994E0,1.1797668E0,9.01091E0,2.7483828E0,7.9369507E0,1.2603486E1,1.6919233E1,6.501375E0,1.9449629E-1,7.2291317E0,1.548881E1,3.4659941E0,8.565149E0,1.3040915E1,1.897196E1,4.6632266E-1,4.257443E0,3.3315375E0,1.8302124E1,2.2564196E1,1.0741619E0,7.52969E0,1.3147676E1,2.2345507E0,6.7055182E0,4.3511524E0,8.912296E0,5.593918E0,1.2843408E1,1.5688679E1,1.9474165E1,8.097829E0,3.1011444E-1,6.3592334E0,-4.707529E-1,3.4723115E0,9.407225E0,2.4885459E-1,1.6898851E1,5.1258473E0,-0E0,1.0298801E1,2.2500732E0,7.8452587E0,1.48256235E1,1.201928E1,1.9871037E1],"categories":[],"categories_nodes":[],"categories_segments":[],"categories_sizes":[],"default_left":[true,true,true,true,true,true,true,true,true,true,true,true,true,true,true,true,true,true,true,true,true,true,true,true,true,true,true,true,true,true,true,false,false,false,false,false,false,false,false,false,false,false,false,false,false,false,false,false,false,false,false,false,false,false,false,false,false,false,false,false,false,false,false],"id":1,"left_children":[1,3,5,7,9,11,13,15,17,19,21,23,25,27,29,31,33,35,37,39,41,43,45,47,49,51,53,55,57,59,61,-1,-1,-1,-1,-1,-1,-1,-1,-1,-1,-1,-1,-1,-1,-1,-1,-1,-1,-1,-1,-1,-1,-1,-1,-1,-1,-1,-1,-1,-1,-1,-1],"loss_changes":[6.94483E5,4.6150844E5,6.6961875E4,2.5810206E5,1.1905781E5,4.4627047E4,4.182E4,3.2235799E4,3.6684522E5,4.3959625E4,9.909719E3,1.229059E4,2.4697344E4,1.9681377E3,3.7214375E4,1.7715254E4,3.4021074E4,3.1685287E4,6.3236E4,4.137088E3,2.6632625E4,1.5146719E3,3.1030625E3,1.074634E4,1.849952E3,4.7154316E3,2.0475234E4,1.8010566E3,1.0446865E3,2.4480094E4,1.06440625E4,0E0,0E0,0E0,0E0,0E0,0E0,0E0,0E0,0E0,0E0,0E0,0E0,0E0,0E0,0E0,0E0,0E0,0E0,0E0,0E0,0E0,0E0,0E0,0E0,0E0,0E0,0E0,0E0,0E0,0E0,0E0,0E0],"parents":[2147483647,0,0,1,1,2,2,3,3,4,4,5,5,6,6,7,7,8,8,9,9,10,10,11,11,12,12,13,13,14,14,15,15,16,16,17,17,18,18,19,19,20,20,21,21,22,22,23,23,24,24,25,25,26,26,27,27,28,28,29,29,30,30],"right_children":[2,4,6,8,10,12,14,16,18,20,22,24,26,28,30,32,34,36,38,40,42,44,46,48,50,52,54,56,58,60,62,-1,-1,-1,-1,-1,-1,-1,-1,-1,-1,-1,-1,-1,-1,-1,-1,-1,-1,-1,-1,-1,-1,-1,-1,-1,-1,-1,-1,-1,-1,-1,-1],"split_conditions":[4.7905907E-2,9.028553E-1,9.245014E-2,1.5482796E1,8.5E0,6.5E0,1.05E1,8.0823624E-1,1.05E1,6.5E0,1.05E1,9.039837E-2,7.5E0,2.7659155E1,1.05E1,2.6846848E-2,3.95E1,1.5487733E1,1.35E1,3.25E1,1.45E1,5.5E0,3.15E1,3.35E1,9.5E0,7.276211E-1,8.5E0,1.968671E1,4.15E1,2.35E1,4.5E0,4.6632268E-2,4.257443E-1,3.3315375E-1,1.8302125E0,2.2564197E0,1.0741619E-1,7.5296897E-1,1.3147677E0,2.2345507E-1,6.7055184E-1,4.3511525E-1,8.912296E-1,5.593918E-1,1.2843407E0,1.5688679E0,1.9474165E0,8.097829E-1,3.1011445E-2,6.359233E-1,-4.707529E-2,3.4723115E-1,9.4072247E-1,2.4885459E-2,1.6898851E0,5.1258475E-1,-0E0,1.0298802E0,2.2500733E-1,7.845259E-1,1.4825624E0,1.201928E0,1.9871037E0],"split_indices":[10,104,10,108,21,66,87,104,87,66,21,10,21,108,21,10,87,108,87,87,87,66,87,87,21,104,87,108,21,87,66,0,0,0,0,0,0,0,0,0,0,0,0,0,0,0,0,0,0,0,0,0,0,0,0,0,0,0,0,0,0,0,0],"split_type":[0,0,0,0,0,0,0,0,0,0,0,0,0,0,0,0,0,0,0,0,0,0,0,0,0,0,0,0,0,0,0,0,0,0,0,0,0,0,0,0,0,0,0,0,0,0,0,0,0,0,0,0,0,0,0,0,0,0,0,0,0,0,0],"sum_hessian":[1.08405E5,1.00441E5,7.964E3,8.8446E4,1.1995E4,3.085E3,4.879E3,6.3932E4,2.4514E4,9.748E3,2.247E3,1.53E3,1.555E3,4.12E2,4.467E3,6.1792E4,2.14E3,1.4145E4,1.0369E4,2.085E3,7.663E3,1.052E3,1.195E3,1.095E3,4.35E2,5.95E2,9.6E2,3.04E2,1.08E2,2.676E3,1.791E3,6.0534E4,1.258E3,1.976E3,1.64E2,6.8E1,1.4077E4,7.639E3,2.73E3,1.849E3,2.36E2,1.642E3,6.021E3,3.7E1,1.015E3,8.14E2,3.81E2,8.69E2,2.26E2,4.3E1,3.92E2,2.21E2,3.74E2,8.2E1,8.78E2,2.07E2,9.7E1,8.3E1,2.5E1,6.87E2,1.989E3,2.08E2,1.583E3],"tree_param":{"num_deleted":"0","num_feature":"110","num_nodes":"63","size_leaf_vector":"0"}},{"base_weights":[2.9134486E0,1.9489685E-1,1.3969653E1,-2.1397433E-1,2.917334E0,1.1543908E1,1.8481829E1,4.5972976E-1,-6.181587E-1,1.7080812E1,2.6028438E0,8.868039E0,1.324423E1,1.7478508E1,2.1536247E1,3.7668872E-1,1.91327E1,-6.373708E-1,2.015192E0,2.5473437E0,2.8178177E1,4.1909485E0,1.3357118E0,8.6576E0,1.9032087E1,1.3496252E1,3.617743E-1,1.612574E1,1.8075964E1,2.0412241E1,2.373473E1,3.263184E-1,5.7149796E0,4.9661484E-1,2.9851221E1,-6.687825E-1,5.175327E-2,-6.399173E-1,2.1572815E1,6.803918E-2,8.954138E0,-0E0,2.8846996E1,9.81351E0,3.9811232E0,7.1920794E-1,3.0696957E0,8.34181E0,1.4177159E1,-0E0,2.3843958E1,1.1901062E1,1.4481709E1,1.304091E1,-5.6362444E-1,1.6157341E1,-0E0,1.7744598E1,2.2475882E1,2.043166E1,-0E0],"categories":[],"categories_nodes":[],"categories_segments":[],"categories_sizes":[],"default_left":[true,true,true,true,true,true,true,true,true,true,true,true,true,true,true,true,true,true,true,true,true,true,true,true,true,true,true,true,true,true,false,false,false,false,false,false,false,false,false,false,false,false,false,false,false,false,false,false,false,false,false,false,false,false,false,false,false,false,false,false,false],"id":2,"left_children":[1,3,5,7,9,11,13,15,17,19,21,23,25,27,29,31,33,35,37,39,41,43,45,47,49,51,53,55,57,59,-1,-1,-1,-1,-1,-1,-1,-1,-1,-1,-1,-1,-1,-1,-1,-1,-1,-1,-1,-1,-1,-1,-1,-1,-1,-1,-1,-1,-1,-1,-1],"loss_changes":[3.2582E6,9.68841E4,2.3365225E5,2.060114E4,5.038157E4,6.2986125E4,2.214725E4,4.3770266E4,2.380121E3,3.9296625E4,2.2316336E4,1.11361875E4,2.7472625E4,3.921625E3,3.625875E3,7.5296035E3,2.465061E4,1.02259375E3,1.7826602E4,1.6246837E3,2.804961E3,5.640367E3,6.5770605E3,8.905031E3,9.77416E3,1.2677375E4,2.0681104E3,9.9290625E2,4.87925E3,5.57375E2,0E0,0E0,0E0,0E0,0E0,0E0,0E0,0E0,0E0,0E0,0E0,0E0,0E0,0E0,0E0,0E0,0E0,0E0,0E0,0E0,0E0,0E0,0E0,0E0,0E0,0E0,0E0,0E0,0E0,0E0,0E0],"parents":[2147483647,0,0,1,1,2,2,3,3,4,4,5,5,6,6,7,7,8,8,9,9,10,10,11,11,12,12,13,13,14,14,15,15,16,16,17,17,18,18,19,19,20,20,21,21,22,22,23,23,24,24,25,25,26,26,27,27,28,28,29,29],"right_children":[2,4,6,8,10,12,14,16,18,20,22,24,26,28,30,32,34,36,38,40,42,44,46,48,50,52,54,56,58,60,-1,-1,-1,-1,-1,-1,-1,-1,-1,-1,-1,-1,-1,-1,-1,-1,-1,-1,-1,-1,-1,-1,-1,-1,-1,-1,-1,-1,-1,-1,-1],"split_conditions":[7.767949E0,2.8657656E0,1.7786041E1,9.5480084E-1,-3.6905152E-1,1.3024405E1,2.2496155E1,5.689467E1,1.5659407E-2,8.5E0,7.1767E-1,4.05E1,1.7770979E1,1.894936E1,2.428869E1,2.3860857E-1,9.522727E-1,3.2086477E-2,9.801754E-1,2.9411765E-2,7.8125E-1,2.893797E0,1.719212E-1,3.7011668E-1,8.571429E-2,1.5412779E1,2.4242425E-1,5.833334E-1,2.0714286E-1,2.4267857E1,2.373473E0,3.263184E-2,5.71498E-1,4.9661484E-2,2.9851222E0,-6.687825E-2,5.1753274E-3,-6.399173E-2,2.1572816E0,6.803918E-3,8.954138E-1,-0E0,2.8846996E0,9.81351E-1,3.9811233E-1,7.19208E-2,3.0696958E-1,8.34181E-1,1.4177159E0,-0E0,2.3843958E0,1.1901063E0,1.4481709E0,1.304091E0,-5.6362446E-2,1.6157341E0,-0E0,1.7744598E0,2.2475882E0,2.043166E0,-0E0],"split_indices":[3,3,3,4,106,3,3,108,10,20,4,19,3,3,3,106,4,5,4,13,4,3,5,5,11,3,4,10,4,3,0,0,0,0,0,0,0,0,0,0,0,0,0,0,0,0,0,0,0,0,0,0,0,0,0,0,0,0,0,0,0],"split_type":[0,0,0,0,0,0,0,0,0,0,0,0,0,0,0,0,0,0,0,0,0,0,0,0,0,0,0,0,0,0,0,0,0,0,0,0,0,0,0,0,0,0,0,0,0,0,0,0,0,0,0,0,0,0,0,0,0,0,0,0,0],"sum_hessian":[1.08405E5,8.7012E4,2.1393E4,7.5648E4,1.1364E4,1.3917E4,7.476E3,2.8357E4,4.7291E4,2.45E2,1.1119E4,5.412E3,8.505E3,5.635E3,1.841E3,2.8233E4,1.24E2,4.6953E4,3.38E2,1.07E2,1.38E2,4.93E3,6.189E3,5.305E3,1.07E2,8.341E3,1.64E2,1.74E3,3.895E3,1.228E3,6.13E2,2.7972E4,2.61E2,4.6E1,7.8E1,4.492E4,2.033E3,2.98E2,4E1,7.9E1,2.8E1,3E0,1.35E2,1.74E2,4.756E3,4.571E3,1.618E3,5.022E3,2.83E2,2.2E1,8.5E1,3.194E3,5.147E3,1.1E1,1.53E2,1.737E3,3E0,3.629E3,2.66E2,1.227E3,1E0],"tree_param":{"num_deleted":"0","num_feature":"110","num_nodes":"61","size_leaf_vector":"0"}},{"base_weights":[2.6225524E0,1.7564361E-1,1.2573953E1,-1.9075464E-1,2.639777E0,1.0398237E1,1.6651007E1,-4.864449E-1,5.8158946E-1,1.93202E0,3.964273E0,8.187104E0,1.2070727E1,1.5746835E1,1.9385376E1,-6.177564E-1,-5.4144528E-2,4.815481E-1,1.6289017E1,2.9594162E0,1.2648996E0,7.3635364E0,3.5303438E0,8.019785E0,1.7523678E1,1.2312004E1,2.6699514E0,1.4537065E1,1.6269657E1,1.8372398E1,2.1365122E1,-1.0500731E0,-5.49382E-1,-1.20063335E-1,4.1947565E0,4.2670274E-1,3.5029452E0,2.6903887E1,2.7302092E-1,2.4887767E0,6.931838E0,4.7412915E0,1.0198361E0,3.5045774E0,2.5099928E1,2.9374728E0,6.227458E0,5.5740366E0,8.644549E0,1.9963689E-1,2.2047205E1,1.0872475E1,1.3035269E1,-1.2667611E-1,1.2878979E1,-0E0,1.4547917E1,1.886711E1,1.5933156E1,1.8390158E1,-0E0],"categories":[],"categories_nodes":[],"categories_segments":[],"categories_sizes":[],"default_left":[true,true,true,true,true,true,true,true,true,true,true,true,true,true,true,true,true,true,true,true,true,true,true,true,true,true,true,true,true,true,false,false,false,false,false,false,false,false,false,false,false,false,false,false,false,false,false,false,false,false,false,false,false,false,false,false,false,false,false,false,false],"id":3,"left_children":[1,3,5,7,9,11,13,15,17,19,21,23,25,27,29,31,33,35,37,39,41,43,45,47,49,51,53,55,57,59,-1,-1,-1,-1,-1,-1,-1,-1,-1,-1,-1,-1,-1,-1,-1,-1,-1,-1,-1,-1,-1,-1,-1,-1,-1,-1,-1,-1,-1,-1,-1],"loss_changes":[2.639575E6,7.858505E4,1.89332E5,1.7298025E4,1.04953125E4,5.1301875E4,1.774E4,3.1032305E3,3.2763984E4,4.9916797E3,5.6442695E3,9.000594E3,1.782675E4,2.9975E3,2.904125E3,1.225042E3,3.540051E3,3.4111074E3,2.2161906E4,5.2860156E3,3.7405986E3,2.974135E4,5.453121E3,8.843281E3,7.923172E3,7.67775E3,5.867874E3,3.265625E2,2.7566875E3,4.6415625E2,0E0,0E0,0E0,0E0,0E0,0E0,0E0,0E0,0E0,0E0,0E0,0E0,0E0,0E0,0E0,0E0,0E0,0E0,0E0,0E0,0E0,0E0,0E0,0E0,0E0,0E0,0E0,0E0,0E0,0E0,0E0],"parents":[2147483647,0,0,1,1,2,2,3,3,4,4,5,5,6,6,7,7,8,8,9,9,10,10,11,11,12,12,13,13,14,14,15,15,16,16,17,17,18,18,19,19,20,20,21,21,22,22,23,23,24,24,25,25,26,26,27,27,28,28,29,29],"right_children":[2,4,6,8,10,12,14,16,18,20,22,24,26,28,30,32,34,36,38,40,42,44,46,48,50,52,54,56,58,60,-1,-1,-1,-1,-1,-1,-1,-1,-1,-1,-1,-1,-1,-1,-1,-1,-1,-1,-1,-1,-1,-1,-1,-1,-1,-1,-1,-1,-1,-1,-1],"split_conditions":[7.767949E0,2.8900967E0,1.7836666E1,8.1872946E-1,4.977261E0,1.3541677E1,2.2496155E1,3.2742947E-1,5.689467E1,5.5E0,5.22318E0,3.95E1,1.7770979E1,1.894936E1,2.428869E1,4.5E0,3.3114197E1,4.5606117E1,5.7132027E1,2.0832375E1,2.893797E0,5.216518E0,7.150758E0,9.183932E0,1.85E1,1.54188595E1,1.7775253E1,5.5E0,9.5E0,2.4267857E1,2.1365123E0,-1.0500731E-1,-5.4938197E-2,-1.2006334E-2,4.1947564E-1,4.2670276E-2,3.5029453E-1,2.6903887E0,2.7302092E-2,2.4887767E-1,6.9318384E-1,4.7412917E-1,1.0198361E-1,3.5045776E-1,2.5099928E0,2.9374728E-1,6.227458E-1,5.574037E-1,8.644549E-1,1.996369E-2,2.2047205E0,1.0872475E0,1.3035269E0,-1.2667611E-2,1.287898E0,-0E0,1.4547918E0,1.886711E0,1.5933156E0,1.8390158E0,-0E0],"split_indices":[3,3,3,3,3,3,3,3,108,15,3,43,3,3,3,0,108,108,108,108,3,3,3,3,0,3,3,43,43,3,0,0,0,0,0,0,0,0,0,0,0,0,0,0,0,0,0,0,0,0,0,0,0,0,0,0,0,0,0,0,0],"split_type":[0,0,0,0,0,0,0,0,0,0,0,0,0,0,0,0,0,0,0,0,0,0,0,0,0,0,0,0,0,0,0,0,0,0,0,0,0,0,0,0,0,0,0,0,0,0,0,0,0,0,0,0,0,0,0,0,0,0,0,0,0],"sum_hessian":[1.08405E5,8.7012E4,2.1393E4,7.5746E4,1.1266E4,1.3953E4,7.44E3,5.4785E4,2.0961E4,7.349E3,3.917E3,6.014E3,7.939E3,5.599E3,1.841E3,4.2003E4,1.2782E4,2.083E4,1.31E2,2.886E3,4.463E3,4.39E2,3.478E3,5.911E3,1.03E2,7.739E3,2E2,1.704E3,3.895E3,1.228E3,6.13E2,5.714E3,3.6289E4,1.259E4,1.92E2,2.0463E4,3.67E2,7.8E1,5.3E1,2.584E3,3.02E2,2.9E2,4.173E3,3.62E2,7.7E1,2.856E3,6.22E2,1.208E3,4.703E3,2.2E1,8.1E1,2.598E3,5.141E3,1.57E2,4.3E1,1E0,1.703E3,4.37E2,3.458E3,1.227E3,1E0],"tree_param":{"num_deleted":"0","num_feature":"110","num_nodes":"61","size_leaf_vector":"0"}},{"base_weights":[2.3607044E0,1.2187801E-1,1.1172423E1,2.102653E0,-2.1370023E-1,9.207485E0,1.4971084E1,1.543528E1,1.9759998E0,-5.560084E-1,2.3651208E-1,7.030415E0,1.0737294E1,1.4157697E1,1.7449354E1,1.3226916E0,2.5438135E1,8.4108704E-1,2.365916E0,-5.265884E-1,-8.384315E-1,1.1855876E1,1.8646581E-1,1.145371E1,6.703588E0,1.0942735E1,-1.1408869E-1,1.3668317E1,1.5589653E1,1.6536375E1,1.923209E1,-0E0,3.9746044E0,-6.6339187E-3,1.075915E0,2.9515088E0,1.6548929E0,-8.307526E-1,-5.0470805E-1,-6.390332E-1,-1.1844084E0,2.7361986E-1,2.3287048E1,1.6220964E-1,8.52154E0,7.3243566E0,1.3787348E1,6.524697E0,1.5604455E1,2.360505E0,1.10633135E1,9.64211E0,-4.9504262E-1,1.3116548E1,1.4741934E1,1.2247515E1,1.611084E1,1.8083881E1,1.5937087E1],"categories":[],"categories_nodes":[],"categories_segments":[],"categories_sizes":[],"default_left":[true,true,true,true,true,true,true,true,true,true,true,true,true,true,true,true,false,true,true,true,true,true,true,true,true,true,true,true,true,true,false,false,false,false,false,false,false,false,false,false,false,false,false,false,false,false,false,false,false,false,false,false,false,false,false,false,false,false,false],"id":4,"left_children":[1,3,5,7,9,11,13,15,17,19,21,23,25,27,29,31,-1,33,35,37,39,41,43,45,47,49,51,53,55,57,-1,-1,-1,-1,-1,-1,-1,-1,-1,-1,-1,-1,-1,-1,-1,-1,-1,-1,-1,-1,-1,-1,-1,-1,-1,-1,-1,-1,-1],"loss_changes":[2.1385095E6,5.7479766E4,1.635475E5,2.0950426E4,1.1394929E4,4.796925E4,1.452325E4,1.62151875E4,5.4585117E3,3.3491504E2,1.843612E4,8.388094E3,1.9056438E4,3.44875E3,2.3223125E3,1.6528406E2,0E0,6.44136E2,3.7925664E3,2.3962988E2,2.5205933E2,1.7764252E4,6.336966E3,3.6195586E3,8.552281E3,8.47225E3,5.0053525E2,2.027375E3,2.0012812E3,5.1134375E2,0E0,0E0,0E0,0E0,0E0,0E0,0E0,0E0,0E0,0E0,0E0,0E0,0E0,0E0,0E0,0E0,0E0,0E0,0E0,0E0,0E0,0E0,0E0,0E0,0E0,0E0,0E0,0E0,0E0],"parents":[2147483647,0,0,1,1,2,2,3,3,4,4,5,5,6,6,7,7,8,8,9,9,10,10,11,11,12,12,13,13,14,14,15,15,17,17,18,18,19,19,20,20,21,21,22,22,23,23,24,24,25,25,26,26,27,27,28,28,29,29],"right_children":[2,4,6,8,10,12,14,16,18,20,22,24,26,28,30,32,-1,34,36,38,40,42,44,46,48,50,52,54,56,58,-1,-1,-1,-1,-1,-1,-1,-1,-1,-1,-1,-1,-1,-1,-1,-1,-1,-1,-1,-1,-1,-1,-1,-1,-1,-1,-1,-1,-1],"split_conditions":[7.212406E0,8.1284344E-1,1.7775253E1,-4.0098998E-1,3.2742947E-1,1.3024405E1,2.2496155E1,8.0625E-1,2.3523965E0,9.5E0,-3.684538E-1,7.5E0,1.7770979E1,7.229965E-2,2.428869E1,6.125E0,2.5438135E0,-3.148421E-2,7.1767E-1,-2.1760523E-1,9.5E0,-3.69588E-1,9.8346996E-1,5.5E0,3.95E1,-2.3274468E-3,2.0454545E-1,2.0815342E1,1.803125E1,2.5320513E-2,1.9232091E0,-0E0,3.9746043E-1,-6.633919E-4,1.075915E-1,2.9515088E-1,1.654893E-1,-8.307526E-2,-5.0470807E-2,-6.3903324E-2,-1.18440844E-1,2.7361987E-2,2.3287048E0,1.6220964E-2,8.5215396E-1,7.3243564E-1,1.3787348E0,6.524697E-1,1.5604455E0,2.3605052E-1,1.1063313E0,9.64211E-1,-4.950426E-2,1.3116548E0,1.4741935E0,1.2247515E0,1.611084E0,1.8083881E0,1.5937088E0],"split_indices":[3,4,3,106,3,3,3,4,3,44,106,43,3,4,3,3,0,106,4,106,43,106,4,15,43,100,4,3,3,6,0,0,0,0,0,0,0,0,0,0,0,0,0,0,0,0,0,0,0,0,0,0,0,0,0,0,0,0,0],"split_type":[0,0,0,0,0,0,0,0,0,0,0,0,0,0,0,0,0,0,0,0,0,0,0,0,0,0,0,0,0,0,0,0,0,0,0,0,0,0,0,0,0,0,0,0,0,0,0,0,0,0,0,0,0,0,0,0,0,0,0],"sum_hessian":[1.08405E5,8.6444E4,2.1961E4,1.2527E4,7.3917E4,1.4478E4,7.483E3,1.16E2,1.2411E4,4.2003E4,3.1914E4,5.98E3,8.498E3,5.642E3,1.841E3,4.9E1,6.7E1,3.181E3,9.23E3,3.8075E4,3.928E3,1.35E2,3.1779E4,4.07E2,5.573E3,8.341E3,1.57E2,4.218E3,1.424E3,1.228E3,6.13E2,3.4E1,1.5E1,6.81E2,2.5E3,5.052E3,4.178E3,2.522E3,3.5553E4,2.512E3,1.416E3,6.8E1,6.7E1,3.1689E4,9E1,1.5E2,2.57E2,5.466E3,1.07E2,1.17E2,8.224E3,4E0,1.53E2,2.801E3,1.417E3,1.98E2,1.226E3,3.3E2,8.98E2],"tree_param":{"num_deleted":"0","num_feature":"110","num_nodes":"59","size_leaf_vector":"0"}},{"base_weights":[2.1250048E0,2.0813051E-1,1.0489188E1,2.2816048E0,-1.9227734E-1,8.794666E0,1.3601461E1,2.1836364E0,1.9303469E1,-3.4611195E-1,6.9680095E-1,7.2575846E0,1.014868E1,1.3039528E1,1.6445772E1,1.7656859E0,5.0469675E0,-6.651368E-1,2.2593752E1,-5.013863E-1,-3.8799357E-2,5.242427E-1,2.332089E1,6.335299E0,7.783389E0,1.0383278E1,7.79923E-1,1.2634321E1,1.4520641E1,1.5588516E1,1.7475723E1,7.541993E-1,2.1141627E0,4.451666E0,1.2023581E1,-1.0843962E0,-0E0,-0E0,2.2958427E1,-5.231551E-1,-3.463167E-1,-7.352357E-2,7.644169E0,8.010915E0,3.9581126E-1,2.4231537E1,-0E0,9.944934E0,6.0217905E0,7.9794536E0,4.678865E0,1.0221503E1,1.9123114E1,-4.3622103E-1,1.4204645E1,1.1863371E1,1.3606384E1,1.379452E1,1.6676197E1],"categories":[],"categories_nodes":[],"categories_segments":[],"categories_sizes":[],"default_left":[true,true,true,true,true,true,true,true,true,true,true,true,true,true,true,true,true,true,true,true,true,true,true,true,true,true,true,true,true,false,false,false,false,false,false,false,false,false,false,false,false,false,false,false,false,false,false,false,false,false,false,false,false,false,false,false,false,false,false],"id":5,"left_children":[1,3,5,7,9,11,13,15,17,19,21,23,25,27,29,31,33,35,37,39,41,43,45,47,49,51,53,55,57,-1,-1,-1,-1,-1,-1,-1,-1,-1,-1,-1,-1,-1,-1,-1,-1,-1,-1,-1,-1,-1,-1,-1,-1,-1,-1,-1,-1,-1,-1],"loss_changes":[1.7379738E6,7.324477E4,1.0624575E5,2.3554695E4,1.0106574E4,2.6997625E4,1.087225E4,1.6915344E4,5.556207E3,3.0019902E3,4.2279203E4,2.7860625E3,1.5164375E4,3.118375E3,4.281875E2,4.338703E3,7.2782305E3,6.4502687E0,6.3573047E2,1.3238965E2,5.57483E3,1.0309724E4,1.7893789E3,2.3164688E3,2.2087344E3,9.1015E3,2.952021E3,3.097125E3,1.448375E3,0E0,0E0,0E0,0E0,0E0,0E0,0E0,0E0,0E0,0E0,0E0,0E0,0E0,0E0,0E0,0E0,0E0,0E0,0E0,0E0,0E0,0E0,0E0,0E0,0E0,0E0,0E0,0E0,0E0,0E0],"parents":[2147483647,0,0,1,1,2,2,3,3,4,4,5,5,6,6,7,7,8,8,9,9,10,10,11,11,12,12,13,13,14,14,15,15,16,16,17,17,18,18,19,19,20,20,21,21,22,22,23,23,24,24,25,25,26,26,27,27,28,28],"right_children":[2,4,6,8,10,12,14,16,18,20,22,24,26,28,30,32,34,36,38,40,42,44,46,48,50,52,54,56,58,-1,-1,-1,-1,-1,-1,-1,-1,-1,-1,-1,-1,-1,-1,-1,-1,-1,-1,-1,-1,-1,-1,-1,-1,-1,-1,-1,-1,-1,-1],"split_conditions":[8.988636E0,8.1284344E-1,1.8027363E1,4.95E1,1.4021276E0,1.4284648E1,2.3442223E1,7.150758E0,8.047619E-1,3.223073E-1,9.534632E-1,1.1427249E1,3.4313726E-1,7.0197046E-2,2.506202E1,2.3523965E0,1.863426E-1,5.05E1,4.470238E0,2.5E-2,9.8346996E-1,1.4127789E0,1.4219368E0,9.186773E0,4.3050194E-1,4.7213623E-1,3.693182E-1,2.0815342E1,3.85E1,1.5588516E0,1.7475723E0,7.541993E-2,2.1141627E-1,4.451666E-1,1.2023581E0,-1.08439624E-1,-0E0,-0E0,2.295843E0,-5.231551E-2,-3.463167E-2,-7.3523573E-3,7.644169E-1,8.010915E-1,3.9581127E-2,2.4231536E0,-0E0,9.944934E-1,6.0217905E-1,7.979454E-1,4.678865E-1,1.0221504E0,1.9123114E0,-4.3622103E-2,1.4204645E0,1.1863371E0,1.3606385E0,1.3794521E0,1.6676197E0],"split_indices":[3,4,3,65,3,3,3,3,4,3,4,3,9,4,3,3,12,65,3,3,4,3,3,3,4,4,9,3,65,0,0,0,0,0,0,0,0,0,0,0,0,0,0,0,0,0,0,0,0,0,0,0,0,0,0,0,0,0,0],"split_type":[0,0,0,0,0,0,0,0,0,0,0,0,0,0,0,0,0,0,0,0,0,0,0,0,0,0,0,0,0,0,0,0,0,0,0,0,0,0,0,0,0,0,0,0,0,0,0,0,0,0,0,0,0,0,0,0,0,0,0],"sum_hessian":[1.08405E5,8.8195E4,2.021E4,1.4278E4,7.3917E4,1.309E4,7.12E3,1.4198E4,8E1,6.3024E4,1.0893E4,6.137E3,6.953E3,5.953E3,1.167E3,1.2394E4,1.804E3,1.1E1,6.9E1,4.1847E4,2.1177E4,1.0812E4,8.1E1,2.24E3,3.897E3,6.782E3,1.71E2,4.687E3,1.266E3,6.51E2,5.16E2,3.184E3,9.21E3,1.665E3,1.39E2,9E0,2E0,1E0,6.8E1,3.6637E4,5.21E3,2.1084E4,9.3E1,1.8E2,1.0632E4,7.8E1,3E0,1.74E2,2.066E3,3.661E3,2.36E2,6.662E3,1.2E2,1.57E2,1.4E1,2.627E3,2.06E3,9.56E2,3.1E2],"tree_param":{"num_deleted":"0","num_feature":"110","num_nodes":"59","size_leaf_vector":"0"}},{"base_weights":[1.9128729E0,8.851492E0,1.5767083E-1,7.8097954E0,1.1680606E1,2.0974011E0,-1.7297201E-1,8.169824E0,3.808326E0,1.152479E1,2.2444963E1,1.9965173E0,1.8355522E1,2.590179E-1,-4.1640478E-1,3.6106083E0,8.348374E0,3.4696422E0,9.197096E0,1.1901139E1,7.5409904E0,-0E0,2.2770027E1,3.7816825E0,1.3619488E0,-2.5877655E-1,2.0363504E1,2.0598623E-1,1.1603293E1,-2.1763949E-1,-4.6906644E-1,4.6998053E0,-4.276053E0,8.098346E0,1.0840385E1,4.8556204E0,1.7575204E0,-0E0,9.759955E0,1.1306644E1,1.4105324E1,-2.4997756E-1,9.006415E0,2.478717E0,7.106894E0,1.5387229E0,-2.3738192E-2,-0E0,-4.279755E-1,2.0695858E1,-0E0,4.205958E0,9.868121E-2,2.095359E1,-0E0,-2.9238284E-1,1.3295848E1,-4.556732E-1,-8.192433E-1],"categories":[],"categories_nodes":[],"categories_segments":[],"categories_sizes":[],"default_left":[true,true,true,true,true,true,true,true,true,true,true,true,true,true,true,true,true,true,true,true,true,false,false,true,true,true,true,true,true,true,true,false,false,false,false,false,false,false,false,false,false,false,false,false,false,false,false,false,false,false,false,false,false,false,false,false,false,false,false],"id":6,"left_children":[1,3,5,7,9,11,13,15,17,19,21,23,25,27,29,31,33,35,37,39,41,-1,-1,43,45,47,49,51,53,55,57,-1,-1,-1,-1,-1,-1,-1,-1,-1,-1,-1,-1,-1,-1,-1,-1,-1,-1,-1,-1,-1,-1,-1,-1,-1,-1,-1,-1],"loss_changes":[1.3201504E6,6.4210625E4,5.551117E4,2.2900812E4,9.272375E3,2.0434309E4,7.7749365E3,1.1798125E4,2.259666E3,8.41775E3,6.867383E2,1.4136387E4,3.0843613E3,1.5898481E4,4.8805078E2,4.809035E3,8.5211875E3,2.891539E3,3.3464795E2,6.5300625E3,5.8668574E3,0E0,0E0,1.4101906E4,2.2807598E3,3.800928E-1,5.2691406E2,1.1332936E4,1.3295322E4,9.920753E3,1.6203027E2,0E0,0E0,0E0,0E0,0E0,0E0,0E0,0E0,0E0,0E0,0E0,0E0,0E0,0E0,0E0,0E0,0E0,0E0,0E0,0E0,0E0,0E0,0E0,0E0,0E0,0E0,0E0,0E0],"parents":[2147483647,0,0,1,1,2,2,3,3,4,4,5,5,6,6,7,7,8,8,9,9,10,10,11,11,12,12,13,13,14,14,15,15,16,16,17,17,18,18,19,19,20,20,23,23,24,24,25,25,26,26,27,27,28,28,29,29,30,30],"right_children":[2,4,6,8,10,12,14,16,18,20,22,24,26,28,30,32,34,36,38,40,42,-1,-1,44,46,48,50,52,54,56,58,-1,-1,-1,-1,-1,-1,-1,-1,-1,-1,-1,-1,-1,-1,-1,-1,-1,-1,-1,-1,-1,-1,-1,-1,-1,-1,-1,-1],"split_conditions":[4.7655678E-1,2.65E1,8.1284344E-1,3.1414473E-1,4.7493735E-1,5.05E1,9.5480084E-1,-2.2006254E-3,2.4264705E-1,3.176275E-1,2.3809524E-2,6.343808E-1,8.047619E-1,5.0254602E0,9.837388E-1,1.0378592E-1,1.4670014E-1,5.952381E-3,4.5E0,3.95E1,3.198052E-1,-0E0,2.2770028E0,2.25E1,2.667141E-2,-8.965416E-3,5.15E1,-4.7091503E0,5.048878E0,9.8346996E-1,3.8213687E0,4.6998054E-1,-4.276053E-1,8.098346E-1,1.0840386E0,4.8556206E-1,1.7575204E-1,-0E0,9.7599554E-1,1.1306645E0,1.4105324E0,-2.4997756E-2,9.0064156E-1,2.4787171E-1,7.106894E-1,1.538723E-1,-2.3738192E-3,-0E0,-4.279755E-2,2.0695858E0,-0E0,4.205958E-1,9.868122E-3,2.095359E0,-0E0,-2.9238284E-2,1.3295848E0,-4.556732E-2,-8.1924334E-2],"split_indices":[4,21,4,4,4,21,4,100,8,4,9,4,4,107,4,106,9,8,18,21,4,0,0,21,12,106,21,107,107,4,107,0,0,0,0,0,0,0,0,0,0,0,0,0,0,0,0,0,0,0,0,0,0,0,0,0,0,0,0],"split_type":[0,0,0,0,0,0,0,0,0,0,0,0,0,0,0,0,0,0,0,0,0,0,0,0,0,0,0,0,0,0,0,0,0,0,0,0,0,0,0,0,0,0,0,0,0,0,0,0,0,0,0,0,0,0,0,0,0,0,0],"sum_hessian":[1.08405E5,2.1884E4,8.6521E4,1.6E4,5.884E3,1.2604E4,7.3917E4,1.4676E4,1.324E3,5.803E3,8.1E1,1.2528E4,7.6E1,2.6626E4,4.7291E4,5.56E2,1.412E4,1.249E3,7.5E1,5.298E3,5.05E2,1E0,8E1,3.28E3,9.248E3,7E0,6.9E1,2.6504E4,1.22E2,9.946E3,3.7345E4,4.9E2,6.6E1,1.284E4,1.28E3,6.86E2,5.63E2,5E0,7E1,4.181E3,1.117E3,7.9E1,4.26E2,2.36E3,9.2E2,8.208E3,1.04E3,3E0,4E0,6.8E1,1E0,6.89E2,2.5815E4,6.7E1,5.5E1,9.893E3,5.3E1,3.5999E4,1.346E3],"tree_param":{"num_deleted":"0","num_feature":"110","num_nodes":"59","size_leaf_vector":"0"}},{"base_weights":[1.7218282E0,1.6534822E-1,8.560711E0,-1.0232664E-1,2.2061925E0,7.103319E0,1.1213991E1,-2.7025548E-1,6.729349E-1,1.9812374E0,1.5387429E1,5.8595257E0,8.305279E0,1.0706504E1,1.3651678E1,7.245769E-2,-3.7717578E-1,5.5372846E-1,2.0615976E1,1.6695438E1,1.8992751E0,1.8399975E1,1.414189E0,1.6079416E1,5.758455E0,8.4236555E0,-7.3961717E-1,1.0368298E1,1.1932608E1,1.2861291E1,1.4394532E1,-2.4364635E-1,3.352803E-1,-3.4606877E-1,-7.5373405E-1,6.41352E0,4.6639955E-1,2.1423784E1,-0E0,-0E0,1.8462078E1,3.2893255E0,1.0064378E0,-0E0,1.8851185E1,6.473576E0,-1.8618954E0,-0E0,1.6598242E1,4.6895385E0,6.2735267E0,8.55096E0,-2.487578E-1,-5.012916E0,-2.2502589E-1,9.95283E0,1.16562395E1,1.135583E1,1.3644226E1,1.2895252E1,-0E0],"categories":[],"categories_nodes":[],"categories_segments":[],"categories_sizes":[],"default_left":[true,true,true,true,true,true,true,true,true,true,true,true,true,true,true,true,true,true,true,true,true,true,true,true,true,true,true,true,true,true,false,false,false,false,false,false,false,false,false,false,false,false,false,false,false,false,false,false,false,false,false,false,false,false,false,false,false,false,false,false,false],"id":7,"left_children":[1,3,5,7,9,11,13,15,17,19,21,23,25,27,29,31,33,35,37,39,41,43,45,47,49,51,53,55,57,59,-1,-1,-1,-1,-1,-1,-1,-1,-1,-1,-1,-1,-1,-1,-1,-1,-1,-1,-1,-1,-1,-1,-1,-1,-1,-1,-1,-1,-1,-1,-1],"loss_changes":[1.153848E6,4.826349E4,7.7449625E4,1.0159603E4,3.0171203E4,1.9210188E4,8.4195625E3,2.3547852E3,3.2795742E4,1.1931684E4,6.974082E3,6.2843125E3,7.1421875E3,2.1006875E3,2.58625E2,1.2671263E3,5.620049E2,6.994167E3,1.4077852E3,1.7118438E3,1.2389445E4,1.2870391E3,5.885692E2,4.8318848E2,3.3432969E3,7.2713125E3,1.3340775E2,2.15075E3,8.4190625E2,3.6466406E2,0E0,0E0,0E0,0E0,0E0,0E0,0E0,0E0,0E0,0E0,0E0,0E0,0E0,0E0,0E0,0E0,0E0,0E0,0E0,0E0,0E0,0E0,0E0,0E0,0E0,0E0,0E0,0E0,0E0,0E0,0E0],"parents":[2147483647,0,0,1,1,2,2,3,3,4,4,5,5,6,6,7,7,8,8,9,9,10,10,11,11,12,12,13,13,14,14,15,15,16,16,17,17,18,18,19,19,20,20,21,21,22,22,23,23,24,24,25,25,26,26,27,27,28,28,29,29],"right_children":[2,4,6,8,10,12,14,16,18,20,22,24,26,28,30,32,34,36,38,40,42,44,46,48,50,52,54,56,58,60,-1,-1,-1,-1,-1,-1,-1,-1,-1,-1,-1,-1,-1,-1,-1,-1,-1,-1,-1,-1,-1,-1,-1,-1,-1,-1,-1,-1,-1,-1,-1],"split_conditions":[9.183932E0,3.2921748E0,1.8027363E1,1.4040507E0,5.05E1,1.45811405E1,2.3317785E1,9.510196E-1,9.534632E-1,3.2945998E0,-3.386699E-1,9.186773E0,4.45E1,7.0197046E-2,2.428869E1,8.5E0,3.32103E1,1.4127789E0,1.4219368E0,9.803922E-3,6.343808E-1,-5.099081E-1,-1.670475E-2,4.7674417E-1,1.1427249E1,1.16251126E-1,7.5E0,2.1744564E1,3.95E1,2.4267857E1,1.4394532E0,-2.4364635E-2,3.352803E-2,-3.4606878E-2,-7.5373404E-2,6.41352E-1,4.6639957E-2,2.1423786E0,-0E0,-0E0,1.8462079E0,3.2893255E-1,1.0064378E-1,-0E0,1.8851185E0,6.4735764E-1,-1.8618955E-1,-0E0,1.6598243E0,4.6895385E-1,6.2735265E-1,8.55096E-1,-2.487578E-2,-5.0129163E-1,-2.250259E-2,9.9528307E-1,1.165624E0,1.135583E0,1.3644227E0,1.2895253E0,-0E0],"split_indices":[3,3,3,3,21,3,3,4,4,3,106,3,19,4,3,20,108,3,3,7,4,106,106,4,3,102,21,3,21,3,0,0,0,0,0,0,0,0,0,0,0,0,0,0,0,0,0,0,0,0,0,0,0,0,0,0,0,0,0,0,0],"split_type":[0,0,0,0,0,0,0,0,0,0,0,0,0,0,0,0,0,0,0,0,0,0,0,0,0,0,0,0,0,0,0,0,0,0,0,0,0,0,0,0,0,0,0,0,0,0,0,0,0,0,0,0,0,0,0,0,0,0,0,0,0],"sum_hessian":[1.08405E5,8.8309E4,2.0096E4,7.8066E4,1.0243E4,1.2976E4,7.12E3,6.4178E4,1.3888E4,1.0073E4,1.7E2,6.384E3,6.592E3,5.901E3,1.219E3,1.5239E4,4.8939E4,1.3807E4,8.1E1,5.4E1,1.0019E4,1.39E2,3.1E1,6E1,6.324E3,6.508E3,8.4E1,4.639E3,1.262E3,6.06E2,6.13E2,6.901E3,8.338E3,4.5231E4,3.708E3,2E2,1.3607E4,7.8E1,3E0,5E0,4.9E1,3.913E3,6.106E3,3E0,1.36E2,1.3E1,1.8E1,2E0,5.8E1,2.066E3,4.258E3,6.415E3,9.3E1,6E0,7.8E1,3.52E3,1.119E3,9.54E2,3.08E2,6.05E2,1E0],"tree_param":{"num_deleted":"0","num_feature":"110","num_nodes":"61","size_leaf_vector":"0"}},{"base_weights":[1.549893E0,1.4401574E-1,7.6842356E0,-9.203591E-2,1.9641244E0,6.3719444E0,1.0094224E1,-2.4322619E-1,6.067352E-1,1.7687086E0,1.0214177E1,5.251082E0,7.474343E0,9.498578E0,1.1790703E1,-2.8057548E-1,1.5604758E0,1.0182204E1,4.195259E-1,1.5050634E1,1.6933048E0,1.0078605E0,1.603648E1,1.1346382E1,5.169866E0,7.669868E0,7.2377175E-2,1.0423603E1,9.228827E0,1.1174456E1,1.2931479E1,-3.7014726E-1,-1.005558E-1,-2.1405646E-1,5.0280805E0,1.988333E1,-1.6223482E0,6.1050713E-1,-3.1089318E-1,-0E0,1.6652794E1,1.2304131E0,3.7826173E0,-8.26016E-1,6.079471E0,1.6925808E1,-2.104238E0,1.4801134E1,1.2556744E0,3.5845091E0,5.4764366E0,7.207262E0,9.766748E0,-9.1815567E-1,1.1167831E1,9.116412E0,1.139933E1,8.632544E0,9.554408E0,1.2555686E1,1.0636794E1],"categories":[],"categories_nodes":[],"categories_segments":[],"categories_sizes":[],"default_left":[true,true,true,true,true,true,true,true,true,true,true,true,true,true,true,true,true,true,true,true,true,true,true,true,true,true,true,true,true,true,false,false,false,false,false,false,false,false,false,false,false,false,false,false,false,false,false,false,false,false,false,false,false,false,false,false,false,false,false,false,false],"id":8,"left_children":[1,3,5,7,9,11,13,15,17,19,21,23,25,27,29,31,33,35,37,39,41,43,45,47,49,51,53,55,57,59,-1,-1,-1,-1,-1,-1,-1,-1,-1,-1,-1,-1,-1,-1,-1,-1,-1,-1,-1,-1,-1,-1,-1,-1,-1,-1,-1,-1,-1,-1,-1],"loss_changes":[9.348284E5,3.7911402E4,6.3690375E4,8.244088E3,1.6193605E4,1.600925E4,6.870875E3,4.3121284E3,2.4762273E4,9.719994E3,1.230265E4,2.9934062E3,9.463875E3,1.0247812E3,9.093594E2,1.0094497E3,8.030146E3,3.0561982E4,1.9018708E3,1.4070879E3,9.465598E3,9.1322144E2,2.4747266E3,2.7143008E3,3.0085625E3,5.9894062E3,2.0031013E3,1.1908672E3,5.325625E2,5.32375E2,0E0,0E0,0E0,0E0,0E0,0E0,0E0,0E0,0E0,0E0,0E0,0E0,0E0,0E0,0E0,0E0,0E0,0E0,0E0,0E0,0E0,0E0,0E0,0E0,0E0,0E0,0E0,0E0,0E0,0E0,0E0],"parents":[2147483647,0,0,1,1,2,2,3,3,4,4,5,5,6,6,7,7,8,8,9,9,10,10,11,11,12,12,13,13,14,14,15,15,16,16,17,17,18,18,19,19,20,20,21,21,22,22,23,23,24,24,25,25,26,26,27,27,28,28,29,29],"right_children":[2,4,6,8,10,12,14,16,18,20,22,24,26,28,30,32,34,36,38,40,42,44,46,48,50,52,54,56,58,60,-1,-1,-1,-1,-1,-1,-1,-1,-1,-1,-1,-1,-1,-1,-1,-1,-1,-1,-1,-1,-1,-1,-1,-1,-1,-1,-1,-1,-1,-1,-1],"split_conditions":[8.988636E0,3.2921748E0,1.8027363E1,1.407192E0,5.0262833E0,1.45811405E1,2.2496155E1,2.4845678E-2,1.4127789E0,3.2945998E0,8.5E0,1.5E0,3.4313726E-1,5E-3,2.4018518E1,3.2742947E-1,-6.566033E-2,-3.8355832E0,1.801948E-2,9.803922E-3,7.150758E0,2.631579E-2,6E0,9.679487E0,1.0248457E1,7.408537E-2,3.693182E-1,-2.055911E-12,1.9387959E1,2.5320513E-2,1.2931479E0,-3.7014727E-2,-1.005558E-2,-2.1405647E-2,5.0280803E-1,1.988333E0,-1.6223483E-1,6.1050713E-2,-3.1089319E-2,-0E0,1.6652794E0,1.2304131E-1,3.7826174E-1,-8.26016E-2,6.079471E-1,1.6925808E0,-2.1042381E-1,1.4801134E0,1.2556744E-1,3.5845092E-1,5.4764366E-1,7.207262E-1,9.7667485E-1,-9.181557E-2,1.1167831E0,9.1164124E-1,1.139933E0,8.6325437E-1,9.554408E-1,1.2555686E0,1.0636795E0],"split_indices":[3,3,3,3,107,3,3,8,3,3,88,88,9,6,3,3,107,107,6,7,3,13,15,3,3,9,9,105,3,6,0,0,0,0,0,0,0,0,0,0,0,0,0,0,0,0,0,0,0,0,0,0,0,0,0,0,0,0,0,0,0],"split_type":[0,0,0,0,0,0,0,0,0,0,0,0,0,0,0,0,0,0,0,0,0,0,0,0,0,0,0,0,0,0,0,0,0,0,0,0,0,0,0,0,0,0,0,0,0,0,0,0,0,0,0,0,0,0,0,0,0,0,0,0,0],"sum_hessian":[1.08405E5,8.8195E4,2.021E4,7.8066E4,1.0129E4,1.309E4,7.12E3,6.4192E4,1.3874E4,9.897E3,2.32E2,6.498E3,6.592E3,5.279E3,1.841E3,6.2896E4,1.296E3,2.64E2,1.361E4,5.4E1,9.843E3,9.1E1,1.41E2,8.2E1,6.416E3,6.421E3,1.71E2,1.175E3,4.104E3,1.208E3,6.33E2,4.1961E4,2.0935E4,8.56E2,4.4E2,1.45E2,1.19E2,1.08E4,2.81E3,5E0,4.9E1,8.063E3,1.78E3,6.6E1,2.5E1,1.35E2,6E0,6E1,2.2E1,1.047E3,5.369E3,5.268E3,1.153E3,1.57E2,1.4E1,5.11E2,6.64E2,1.47E3,2.634E3,3.27E2,8.81E2],"tree_param":{"num_deleted":"0","num_feature":"110","num_nodes":"61","size_leaf_vector":"0"}},{"base_weights":[1.3951961E0,3.8010955E-1,5.727655E0,6.0269403E0,3.5240433E-1,2.7136297E0,6.661412E0,1.3984025E0,1.5334482E1,2.8216004E-1,1.8485845E0,2.4691725E0,1.3585048E1,6.215336E0,8.686122E0,2.4351838E0,4.2225254E-1,1.0330537E1,1.8790113E1,-7.59255E-2,3.842073E-1,1.0228604E1,1.6929003E0,1.6635302E0,3.6057053E0,1.6064121E1,4.028876E0,8.982919E0,5.7038465E0,1.3057057E1,8.420668E0,1.7111663E0,5.4201736E0,1.4611575E-1,3.743777E0,-0E0,1.0418766E1,-6.750879E-1,2.955655E-2,2.5851527E-1,1.2553964E0,1.0885371E1,-0E0,5.3978186E0,1.3783363E0,-4.1942745E-1,2.20512E0,2.583605E0,4.941645E0,-0E0,1.6196838E1,1.2696264E1,1.7099028E0,7.5490437E0,1.1664226E1,3.5670385E0,6.3397484E0,8.532368E0,6.074618E-1],"categories":[],"categories_nodes":[],"categories_segments":[],"categories_sizes":[],"default_left":[true,true,true,true,true,true,true,true,true,true,true,true,true,true,true,true,true,true,false,true,true,true,true,true,true,true,true,true,true,false,true,false,false,false,false,false,false,false,false,false,false,false,false,false,false,false,false,false,false,false,false,false,false,false,false,false,false,false,false],"id":9,"left_children":[1,3,5,7,9,11,13,15,17,19,21,23,25,27,29,31,33,35,-1,37,39,41,43,45,47,49,51,53,55,-1,57,-1,-1,-1,-1,-1,-1,-1,-1,-1,-1,-1,-1,-1,-1,-1,-1,-1,-1,-1,-1,-1,-1,-1,-1,-1,-1,-1,-1],"loss_changes":[4.7668688E5,1.3674964E4,5.7796562E4,1.8206523E4,9.1642705E3,1.2751074E4,1.39823125E4,2.6085687E2,1.9528242E3,3.0540845E3,4.9685117E3,4.305244E3,2.245539E3,1.8031875E4,2.9577188E3,2.0901056E2,1.018021E2,3.1210938E0,0E0,1.1754387E3,7.101917E3,4.967212E2,4.4047275E3,3.172974E3,2.6033125E3,9.303711E1,3.1661548E2,7.4245E3,1.4655281E4,0E0,2.2353906E3,0E0,0E0,0E0,0E0,0E0,0E0,0E0,0E0,0E0,0E0,0E0,0E0,0E0,0E0,0E0,0E0,0E0,0E0,0E0,0E0,0E0,0E0,0E0,0E0,0E0,0E0,0E0,0E0],"parents":[2147483647,0,0,1,1,2,2,3,3,4,4,5,5,6,6,7,7,8,8,9,9,10,10,11,11,12,12,13,13,14,14,15,15,16,16,17,17,19,19,20,20,21,21,22,22,23,23,24,24,25,25,26,26,27,27,28,28,30,30],"right_children":[2,4,6,8,10,12,14,16,18,20,22,24,26,28,30,32,34,36,-1,38,40,42,44,46,48,50,52,54,56,-1,58,-1,-1,-1,-1,-1,-1,-1,-1,-1,-1,-1,-1,-1,-1,-1,-1,-1,-1,-1,-1,-1,-1,-1,-1,-1,-1,-1,-1],"split_conditions":[4.4610284E-2,-5.3072715E-1,8.5E0,1.9E1,1.7293838E-1,4.05E1,3.15E1,7.5E0,8.5E0,5.5E0,1.733777E-1,6.5E0,6.5E0,-3.680794E-1,4.5E0,5.5E0,2.907137E1,1.4E1,1.8790114E0,-1.02235325E-1,5.136444E-1,-2.1778135E-12,-2.5210944E-12,7.0925556E-2,2.15E1,1.6E1,7.0678145E-2,3.75E1,1.2667142E-1,1.3057058E0,5.742871E-2,1.7111664E-1,5.420174E-1,1.4611575E-2,3.743777E-1,-0E0,1.0418767E0,-6.7508794E-2,2.955655E-3,2.5851527E-2,1.2553965E-1,1.0885371E0,-0E0,5.3978187E-1,1.3783364E-1,-4.1942745E-2,2.2051202E-1,2.583605E-1,4.9416453E-1,-0E0,1.6196839E0,1.2696265E0,1.7099027E-1,7.549044E-1,1.1664226E0,3.5670385E-1,6.3397485E-1,8.532368E-1,6.074618E-2],"split_indices":[14,106,90,0,106,19,19,91,91,65,106,90,44,106,91,0,109,65,0,106,104,100,102,14,19,0,104,65,14,0,102,0,0,0,0,0,0,0,0,0,0,0,0,0,0,0,0,0,0,0,0,0,0,0,0,0,0,0,0],"split_type":[0,0,0,0,0,0,0,0,0,0,0,0,0,0,0,0,0,0,0,0,0,0,0,0,0,0,0,0,0,0,0,0,0,0,0,0,0,0,0,0,0,0,0,0,0,0,0,0,0,0,0,0,0,0,0,0,0,0,0],"sum_hessian":[1.08405E5,8.783E4,2.0575E4,4.26E2,8.7404E4,4.87E3,1.5705E4,2.86E2,1.4E2,8.3492E4,3.912E3,4.765E3,1.05E2,1.2877E4,2.828E3,1.33E2,1.53E2,6E1,8E1,1.8495E4,6.4997E4,6.9E1,3.843E3,2.795E3,1.97E3,8.2E1,2.3E1,2.003E3,1.0874E4,1.57E2,2.671E3,1.11E2,2.2E1,1.45E2,8E0,1E0,5.9E1,2.782E3,1.5713E4,5.6813E4,8.184E3,6.5E1,4E0,2.97E2,3.546E3,5.73E2,2.222E3,1.122E3,8.48E2,1E0,8.1E1,3E0,2E1,1.31E3,6.93E2,2.499E3,8.375E3,2.632E3,3.9E1],"tree_param":{"num_deleted":"0","num_feature":"110","num_nodes":"59","size_leaf_vector":"0"}}]},"name":"gbtree"},"learner_model_param":{"base_score":"5E-1","num_class":"0","num_feature":"110"},"objective":{"name":"reg:squarederror","reg_loss_param":{"scale_pos_weight":"1"}}},"version":[1,4,2]}
