{"learner":{"attributes":{},"feature_names":[" day"," trace 40 quant","competitiveness","empirical_distr_p","empirical_distr_q_0","empirical_distr_q_1","empirical_distr_q_10","empirical_distr_q_2","empirical_distr_q_3","empirical_distr_q_4","empirical_distr_q_5","empirical_distr_q_6","empirical_distr_q_7","empirical_distr_q_8","empirical_distr_q_9","my_layer_size","n_level","n_opp_level","opp_layer_size","trace 0 price","trace 0 quant","trace 1 price","trace 1 quant","trace 10 price","trace 10 quant","trace 11 price","trace 11 quant","trace 12 price","trace 12 quant","trace 13 price","trace 13 quant","trace 14 price","trace 14 quant","trace 15 price","trace 15 quant","trace 16 price","trace 16 quant","trace 17 price","trace 17 quant","trace 18 price","trace 18 quant","trace 19 price","trace 19 quant","trace 2 price","trace 2 quant","trace 20 price","trace 20 quant","trace 21 price","trace 21 quant","trace 22 price","trace 22 quant","trace 23 price","trace 23 quant","trace 24 price","trace 24 quant","trace 25 price","trace 25 quant","trace 26 price","trace 26 quant","trace 27 price","trace 27 quant","trace 28 price","trace 28 quant","trace 29 price","trace 29 quant","trace 3 price","trace 3 quant","trace 30 price","trace 30 quant","trace 31 price","trace 31 quant","trace 32 price","trace 32 quant","trace 33 price","trace 33 quant","trace 34 price","trace 34 quant","trace 35 price","trace 35 quant","trace 36 price","trace 36 quant","trace 37 price","trace 37 quant","trace 38 price","trace 38 quant","trace 39 price","trace 39 quant","trace 4 price","trace 4 quant","trace 40 price","trace 5 price","trace 5 quant","trace 6 price","trace 6 quant","trace 7 price","trace 7 quant","trace 8 price","trace 8 quant","trace 9 price","trace 9 quant","ufun_param_0","ufun_param_1","ufun_param_2","ufun_param_3","ufun_param_4","ufun_param_5","ufun_param_6","ufun_param_7","ufun_param_8","ufun_param_9"],"feature_types":["int","int","float","float","float","float","float","float","float","float","float","float","float","float","float","int","int","int","int","int","int","int","int","int","int","int","int","int","int","int","int","int","int","int","int","int","int","int","int","int","int","int","int","int","int","int","int","int","int","int","int","int","int","int","int","int","int","int","int","int","int","int","int","int","int","int","int","int","int","int","int","int","int","int","int","int","int","int","int","int","int","int","int","int","int","int","int","int","int","int","int","int","int","int","int","int","int","int","int","int","float","float","float","float","float","float","float","float","float","float"],"gradient_booster":{"model":{"gbtree_model_param":{"num_trees":"10","size_leaf_vector":"0"},"tree_info":[0,0,0,0,0,0,0,0,0,0],"trees":[{"base_weights":[3.949697E0,1.8763363E0,1.2040617E1,1.0189296E0,9.407076E0,5.838054E0,1.4754059E1,4.6212983E-1,9.968807E0,7.8514853E0,1.8582237E1,1.6147059E0,6.9300156E0,1.3228253E1,2.1967188E1,2.4635993E-1,9.859694E0,7.711353E0,1.6897728E1,6.7334313E0,1.1060606E1,-0E0,1.9097973E1,5.85443E-1,1.3230769E1,6.1669507E0,1.4491228E1,3.3922415E0,1.4018742E1,1.6864584E1,2.2747253E1,1.092412E-1,6.6657305E0,-0E0,1.0595629E1,3.0471203E0,1.1609375E1,1.4705882E0,1.8926723E1,1.5238095E1,6.437026E0,4.5096154E0,1.2836111E1,1.23125E1,-0E0,1.4375E1,-0E0,5.642384E0,7.8074074E0,5.0595236E-1,1.0333333E1,1.4322743E1,-1.5E-1,2.1E1,9.525E0],"categories":[],"categories_nodes":[],"categories_segments":[],"categories_sizes":[],"default_left":[true,true,true,true,true,true,true,true,true,true,true,true,true,true,true,true,true,true,true,true,true,false,false,true,true,true,false,true,true,true,false,false,false,false,false,false,false,false,false,false,false,false,false,false,false,false,false,false,false,false,false,false,false,false,false],"id":0,"left_children":[1,3,5,7,9,11,13,15,17,19,21,23,25,27,29,31,33,35,37,39,41,-1,-1,43,45,47,-1,49,51,53,-1,-1,-1,-1,-1,-1,-1,-1,-1,-1,-1,-1,-1,-1,-1,-1,-1,-1,-1,-1,-1,-1,-1,-1,-1],"loss_changes":[2.1860616E5,6.692822E4,4.4459688E4,4.6355285E4,1.4718922E4,3.6480898E3,1.9696219E4,1.7699818E4,8.1483438E3,3.009043E3,1.4948945E3,1.8866091E3,3.4139688E3,1.16666875E4,4.9396875E2,7.488176E3,1.4910645E3,7.3451094E3,3.9000078E3,1.3968066E3,2.4554902E3,0E0,0E0,1.1586278E3,2.0399512E2,3.2658008E2,0E0,2.2103228E3,6.2344688E3,9.516328E2,0E0,0E0,0E0,0E0,0E0,0E0,0E0,0E0,0E0,0E0,0E0,0E0,0E0,0E0,0E0,0E0,0E0,0E0,0E0,0E0,0E0,0E0,0E0,0E0,0E0],"parents":[2147483647,0,0,1,1,2,2,3,3,4,4,5,5,6,6,7,7,8,8,9,9,10,10,11,11,12,12,13,13,14,14,15,15,16,16,17,17,18,18,19,19,20,20,23,23,24,24,25,25,27,27,28,28,29,29],"right_children":[2,4,6,8,10,12,14,16,18,20,22,24,26,28,30,32,34,36,38,40,42,-1,-1,44,46,48,-1,50,52,54,-1,-1,-1,-1,-1,-1,-1,-1,-1,-1,-1,-1,-1,-1,-1,-1,-1,-1,-1,-1,-1,-1,-1,-1,-1],"split_conditions":[2.667141E-2,6.7424245E-2,2.05E1,6.0661763E-2,3.55E1,7.575758E-3,1.45E1,3.1666666E-1,1.55E1,2.75E1,7E0,9.2982456E-2,7.5E0,6.5E0,3.15E1,4.0618554E-2,6.5E0,9.126984E-2,1.3809524E-1,4.5E0,8.5E0,-0E0,1.9097973E0,1.5E0,1.75E1,1.85E1,1.4491228E0,1.1145511E-1,3.95E1,3E1,2.2747254E0,1.092412E-2,6.6657305E-1,-0E0,1.0595629E0,3.0471203E-1,1.1609375E0,1.4705883E-1,1.8926724E0,1.5238096E0,6.437026E-1,4.5096156E-1,1.2836112E0,1.23125E0,-0E0,1.4375E0,-0E0,5.642384E-1,7.8074074E-1,5.0595235E-2,1.0333333E0,1.4322743E0,-1.5000001E-2,2.1000001E0,9.525E-1],"split_indices":[12,14,92,8,19,6,94,6,94,19,94,14,94,94,92,7,20,7,8,91,22,0,0,22,0,19,0,12,92,92,0,0,0,0,0,0,0,0,0,0,0,0,0,0,0,0,0,0,0,0,0,0,0,0,0],"split_type":[0,0,0,0,0,0,0,0,0,0,0,0,0,0,0,0,0,0,0,0,0,0,0,0,0,0,0,0,0,0,0,0,0,0,0,0,0,0,0,0,0,0,0,0,0,0,0,0,0,0,0,0,0,0,0],"sum_hessian":[1.304E4,1.0382E4,2.658E3,9.323E3,1.059E3,8.11E2,1.847E3,8.779E3,5.44E2,9.08E2,1.51E2,1.69E2,6.42E2,1.528E3,3.19E2,8.584E3,1.95E2,4.13E2,1.31E2,6.78E2,2.3E2,4E0,1.47E2,1.57E2,1.2E1,5.86E2,5.6E1,1.15E2,1.413E3,4.7E1,2.72E2,8.407E3,1.77E2,1.3E1,1.82E2,1.9E2,2.23E2,1.6E1,1.15E2,2E1,6.58E2,5.1E1,1.79E2,7E0,1.5E2,1.1E1,1E0,4.52E2,1.34E2,8.3E1,3.2E1,1.384E3,2.9E1,2.8E1,1.9E1],"tree_param":{"num_deleted":"0","num_feature":"110","num_nodes":"55","size_leaf_vector":"0"}},{"base_weights":[3.5580895E0,1.0408663E1,-1.4024907E-1,5.600174E0,1.4268269E1,-3.3649436E-1,1.0187949E1,7.27711E0,-4.8777673E-1,1.0362396E1,1.7670847E1,-3.83005E-1,1.4834604E0,5.747197E-1,1.6689798E1,6.0049767E0,1.1333231E1,2.9967182E0,1.1810449E1,1.6071104E1,2.0431883E1,-4.2959318E-1,2.7988223E-2,7.2553515E-1,1.654502E1,1.0124811E-1,6.9927177E0,-0E0,1.6878242E1,5.212426E0,7.115189E0,9.127179E0,1.277435E1,1.2152438E0,8.148615E0,3.4216733E0,1.2041141E1,-0E0,2.0520626E1,1.6353463E0,-4.4113013E-1,-6.0235643E-1,5.967866E-1,6.455701E-2,6.6292906E0,1.8677013E1,-0E0,-2.6221668E-2,5.9927177E0,1.0744538E1,-0E0,-0E0,1.7070827E1],"categories":[],"categories_nodes":[],"categories_segments":[],"categories_sizes":[],"default_left":[true,true,true,true,true,true,true,true,false,true,true,true,true,true,true,true,true,true,true,false,true,true,true,true,true,true,true,false,true,false,false,false,false,false,false,false,false,false,false,false,false,false,false,false,false,false,false,false,false,false,false,false,false],"id":1,"left_children":[1,3,5,7,9,11,13,15,-1,17,19,21,23,25,27,29,31,33,35,-1,37,39,41,43,45,47,49,-1,51,-1,-1,-1,-1,-1,-1,-1,-1,-1,-1,-1,-1,-1,-1,-1,-1,-1,-1,-1,-1,-1,-1,-1,-1],"loss_changes":[3.3050756E5,8.459116E4,1.707039E4,2.0887812E4,3.3226844E4,6.932363E2,9.630854E3,8.0144453E3,0E0,1.2444953E4,5.2783125E3,1.5935205E2,2.1212285E3,1.2587044E2,3.0341406E2,9.14875E2,8.693008E2,1.7045195E3,1.7161719E3,0E0,9.386094E2,1.6287842E2,2.889277E2,6.896707E2,3.2700732E2,1.0713411E2,8.419592E1,0E0,3.1009375E2,0E0,0E0,0E0,0E0,0E0,0E0,0E0,0E0,0E0,0E0,0E0,0E0,0E0,0E0,0E0,0E0,0E0,0E0,0E0,0E0,0E0,0E0,0E0,0E0],"parents":[2147483647,0,0,1,1,2,2,3,3,4,4,5,5,6,6,7,7,9,9,10,10,11,11,12,12,13,13,14,14,15,15,16,16,17,17,18,18,20,20,21,21,22,22,23,23,24,24,25,25,26,26,28,28],"right_children":[2,4,6,8,10,12,14,16,-1,18,20,22,24,26,28,30,32,34,36,-1,38,40,42,44,46,48,50,-1,52,-1,-1,-1,-1,-1,-1,-1,-1,-1,-1,-1,-1,-1,-1,-1,-1,-1,-1,-1,-1,-1,-1,-1,-1],"split_conditions":[-4.95E1,2.05E1,3.708433E1,2.5E1,1.35E1,6.5E0,1.4705882E-2,8.5E0,-4.8777673E-2,8.5E0,1.75E1,7.3297954E-1,4.4871796E-2,9.5E0,1.15E1,6.5E0,1.05E1,3.5E0,-6.1358213E-1,1.6071104E0,1.5E0,5.5E0,6.5E0,1.45E1,4E-1,8.762498E1,4.3E1,-0E0,3.3E1,5.212426E-1,7.1151894E-1,9.1271794E-1,1.2774351E0,1.21524386E-1,8.148615E-1,3.4216735E-1,1.2041141E0,-0E0,2.0520627E0,1.6353463E-1,-4.4113014E-2,-6.0235646E-2,5.9678663E-2,6.455701E-3,6.6292906E-1,1.8677014E0,-0E0,-2.6221669E-3,5.992718E-1,1.0744538E0,-0E0,-0E0,1.7070827E0],"split_indices":[45,92,108,33,33,32,8,33,0,33,29,104,10,42,23,33,33,36,104,0,36,96,34,96,10,108,21,0,29,0,0,0,0,0,0,0,0,0,0,0,0,0,0,0,0,0,0,0,0,0,0,0,0],"split_type":[0,0,0,0,0,0,0,0,0,0,0,0,0,0,0,0,0,0,0,0,0,0,0,0,0,0,0,0,0,0,0,0,0,0,0,0,0,0,0,0,0,0,0,0,0,0,0,0,0,0,0,0,0],"sum_hessian":[1.304E4,4.572E3,8.468E3,2.038E3,2.534E3,8.312E3,1.56E2,1.599E3,4.39E2,1.183E3,1.351E3,8.111E3,2.01E2,6.4E1,9.2E1,1.221E3,3.78E2,1.96E2,9.87E2,8.62E2,4.89E2,7.307E3,8.04E2,1.93E2,8E0,6.2E1,2E0,1E0,9.1E1,7.21E2,5E2,1.55E2,2.23E2,1.48E2,4.8E1,2.8E1,9.59E2,2E0,4.87E2,3.5E1,7.272E3,3.73E2,4.31E2,1.76E2,1.7E1,7E0,1E0,6E1,2E0,1E0,1E0,1E0,9E1],"tree_param":{"num_deleted":"0","num_feature":"110","num_nodes":"53","size_leaf_vector":"0"}},{"base_weights":[3.2044332E0,7.890038E-1,1.3430042E1,5.234757E0,-1.9564436E-1,1.1499027E1,1.6072723E1,5.526674E0,4.8678374E-1,2.1425161E0,-3.6111844E-1,9.349708E0,1.2551385E1,1.5069742E1,1.921975E1,5.330436E0,1.3197639E1,9.026193E0,-3.2494974E-1,8.678831E0,1.0461068E0,-3.8602537E-1,3.0941522E0,8.377421E0,1.0285322E1,1.2565011E1,-0E0,1.527871E1,1.5170984E0,5.883875E0,3.6791177E0,6.513673E0,1.4253584E1,1.0163668E1,-0E0,-4.932673E-1,1.5063059E0,1.2369178E1,-3.0693961E-2,9.86227E0,6.465986E-1,-4.0233898E-1,5.1062393E0,1.0949588E1,-4.451108E-1,2.7438775E-1,1.5477903E1,-5.0629514E-1,9.202156E0],"categories":[],"categories_nodes":[],"categories_segments":[],"categories_sizes":[],"default_left":[true,true,true,true,true,true,true,true,true,true,true,true,true,true,false,true,true,true,true,true,true,true,true,false,false,false,false,true,true,false,false,false,false,false,false,false,false,false,false,false,false,false,false,false,false,false,false,false,false],"id":2,"left_children":[1,3,5,7,9,11,13,15,17,19,21,23,25,27,-1,29,31,33,35,37,39,41,43,-1,-1,-1,-1,45,47,-1,-1,-1,-1,-1,-1,-1,-1,-1,-1,-1,-1,-1,-1,-1,-1,-1,-1,-1,-1],"loss_changes":[3.2195E5,4.6238445E4,1.22511875E4,2.5913906E3,3.324658E3,2.9320156E3,2.67225E3,2.4569766E3,8.8016205E2,3.9570635E3,6.687046E2,1.6567969E2,1.7204688E2,2.0773438E3,0E0,1.4911914E3,2.974121E0,1.368078E2,2.2668804E1,2.6950576E3,1.6073341E3,6.7332886E2,1.6390536E3,0E0,0E0,0E0,0E0,2.193375E3,3.0931616E2,0E0,0E0,0E0,0E0,0E0,0E0,0E0,0E0,0E0,0E0,0E0,0E0,0E0,0E0,0E0,0E0,0E0,0E0,0E0,0E0],"parents":[2147483647,0,0,1,1,2,2,3,3,4,4,5,5,6,6,7,7,8,8,9,9,10,10,11,11,12,12,13,13,15,15,16,16,17,17,18,18,19,19,20,20,21,21,22,22,27,27,28,28],"right_children":[2,4,6,8,10,12,14,16,18,20,22,24,26,28,-1,30,32,34,36,38,40,42,44,-1,-1,-1,-1,46,48,-1,-1,-1,-1,-1,-1,-1,-1,-1,-1,-1,-1,-1,-1,-1,-1,-1,-1,-1,-1],"split_conditions":[9.816667E0,6.9398E-1,1.55E1,1.65E1,8.0590796E-1,1.15E1,2.1738636E1,2.1455939E-1,4E0,1.5E0,1.7287356E-1,2.55E1,5.8571434E-1,1.625E-1,1.921975E0,5.3256303E-1,7.5E0,8.045454E0,3.4855768E-2,6.9444445E-3,3.5E0,6.904762E-2,2E0,8.3774215E-1,1.0285323E0,1.2565011E0,-0E0,1.5E0,3.5E0,5.883875E-1,3.679118E-1,6.513673E-1,1.4253584E0,1.0163668E0,-0E0,-4.932673E-2,1.506306E-1,1.2369179E0,-3.0693961E-3,9.8622704E-1,6.4659856E-2,-4.02339E-2,5.1062393E-1,1.0949588E0,-4.451108E-2,2.7438775E-2,1.5477904E0,-5.0629515E-2,9.202156E-1],"split_indices":[3,4,33,33,4,33,3,13,20,42,5,19,4,5,0,4,30,3,14,14,91,10,30,0,0,0,0,40,2,0,0,0,0,0,0,0,0,0,0,0,0,0,0,0,0,0,0,0,0],"split_type":[0,0,0,0,0,0,0,0,0,0,0,0,0,0,0,0,0,0,0,0,0,0,0,0,0,0,0,0,0,0,0,0,0,0,0,0,0,0,0,0,0,0,0,0,0,0,0,0,0],"sum_hessian":[1.304E4,1.055E4,2.49E3,1.914E3,8.636E3,1.444E3,1.046E3,1.801E3,1.13E2,5.66E2,8.07E3,4.81E2,9.63E2,8E2,2.46E2,1.759E3,4.2E1,1E1,1.03E2,7.9E1,4.87E2,8.016E3,5.4E1,2.46E2,2.35E2,9.62E2,1E0,7.87E2,1.3E1,1.311E3,4.48E2,8E0,3.4E1,9E0,1E0,1E2,3E0,5.6E1,2.3E1,1.9E1,4.68E2,7.995E3,2.1E1,1.7E1,3.7E1,1.1E1,7.76E2,1E1,3E0],"tree_param":{"num_deleted":"0","num_feature":"110","num_nodes":"49","size_leaf_vector":"0"}},{"base_weights":[2.8860722E0,7.114039E-1,1.209203E1,4.6440883E0,-3.7386015E-1,9.923763E0,1.4040999E1,5.8850546E0,-3.90448E-1,-3.8425332E-1,1.4571275E-1,7.8114805E0,1.0668082E1,1.482674E1,8.983458E0,4.5648003E0,1.0551819E1,4.5994237E-1,-4.3142867E-1,-3.911058E-1,7.42217E-2,5.7622347E0,-6.777541E-2,1.3386025E1,1.6860518E1,1.29272785E1,-5.220627E-1,-8.994131E-2,5.005661E0,-8.247144E-1,1.1632326E1,-0E0,3.987362E0,-4.7202904E-2,-4.0348026E-1,7.2489004E0,-7.913506E-1,-0E0,1.4013984E1,-4.973747E-1,1.4173206E0,-0E0,1.690143E1,1.2132485E0,1.4042408E1,-2.094192E0,1.2989216E1],"categories":[],"categories_nodes":[],"categories_segments":[],"categories_sizes":[],"default_left":[true,true,true,true,true,true,true,true,true,true,true,false,false,true,true,true,true,true,false,true,true,true,true,false,true,true,true,false,false,false,false,false,false,false,false,false,false,false,false,false,false,false,false,false,false,false,false],"id":3,"left_children":[1,3,5,7,9,11,13,15,17,19,21,-1,-1,23,25,27,29,31,-1,33,35,37,39,-1,41,43,45,-1,-1,-1,-1,-1,-1,-1,-1,-1,-1,-1,-1,-1,-1,-1,-1,-1,-1,-1,-1],"loss_changes":[2.609429E5,4.5076117E4,1.01476875E4,1.4326969E4,4.7088745E1,1.5949453E3,4.822625E3,1.1100516E4,1.5630455E1,2.8724121E1,2.2999992E2,0E0,0E0,2.7769844E3,6.8786533E3,2.9902598E3,5.0592266E3,2.968264E1,0E0,2.9634033E1,6.851221E2,3.5675177E2,7.954896E1,0E0,3.511328E2,1.5024277E3,1.04405E3,0E0,0E0,0E0,0E0,0E0,0E0,0E0,0E0,0E0,0E0,0E0,0E0,0E0,0E0,0E0,0E0,0E0,0E0,0E0,0E0],"parents":[2147483647,0,0,1,1,2,2,3,3,4,4,5,5,6,6,7,7,8,8,9,9,10,10,13,13,14,14,15,15,16,16,17,17,19,19,20,20,21,21,22,22,24,24,25,25,26,26],"right_children":[2,4,6,8,10,12,14,16,18,20,22,-1,-1,24,26,28,30,32,-1,34,36,38,40,-1,42,44,46,-1,-1,-1,-1,-1,-1,-1,-1,-1,-1,-1,-1,-1,-1,-1,-1,-1,-1,-1,-1],"split_conditions":[9.816667E0,-4.95E1,1.55E1,2.15E1,2.8376366E1,1.15E1,-4.9E1,1.05E1,2.5E0,8.194445E0,2.8643768E1,7.811481E-1,1.0668082E0,1.95E1,1.6E1,8.876051E-1,9.115479E-1,3.5E0,-4.3142866E-2,1.5E0,1.05E1,1.7E1,3.95E1,1.3386025E0,3E0,3.5E0,1.55E1,-8.994131E-3,5.005661E-1,-8.2471445E-2,1.1632327E0,-0E0,3.987362E-1,-4.7202907E-3,-4.0348027E-2,7.2489005E-1,-7.913506E-2,-0E0,1.4013984E0,-4.9737472E-2,1.4173207E-1,-0E0,1.690143E0,1.2132485E-1,1.4042408E0,-2.094192E-1,1.2989216E0],"split_indices":[3,46,37,37,108,37,46,37,26,3,108,0,0,37,19,3,3,3,0,97,25,35,37,0,97,26,0,0,0,0,0,0,0,0,0,0,0,0,0,0,0,0,0,0,0,0,0],"split_type":[0,0,0,0,0,0,0,0,0,0,0,0,0,0,0,0,0,0,0,0,0,0,0,0,0,0,0,0,0,0,0,0,0,0,0,0,0,0,0,0,0,0,0,0,0,0,0],"sum_hessian":[1.304E4,1.055E4,2.49E3,2.283E3,8.267E3,1.184E3,1.306E3,1.833E3,4.5E2,8.124E3,1.43E2,3.15E2,8.69E2,1.127E3,1.79E2,1.432E3,4.01E2,9E0,4.41E2,8.026E3,9.8E1,6E0,1.37E2,6.67E2,4.6E2,1.27E2,5.2E1,1.22E2,1.31E3,3.4E1,3.67E2,8E0,1E0,3.07E2,7.719E3,1.1E1,8.7E1,4E0,2E0,1.12E2,2.5E1,1E0,4.59E2,1.2E1,1.15E2,4.8E1,4E0],"tree_param":{"num_deleted":"0","num_feature":"110","num_nodes":"47","size_leaf_vector":"0"}},{"base_weights":[2.5986006E0,6.4040697E-1,1.0887762E1,4.2465234E0,-1.5805931E-1,8.93379E0,1.2643363E1,4.481067E0,4.1412008E-1,1.7719246E0,-2.9486302E-1,6.4787536E0,9.470211E0,1.180876E1,1.5268364E1,4.2356043E0,7.990766E0,7.2002115E0,-3.6635976E-3,7.936356E0,9.3801147E-1,8.7746106E-2,-3.8749948E-1,8.805093E0,1.0150705E1,1.1922946E1,-0E0,1.3512145E1,1.6996437E1,4.396661E0,-0E0,9.585988E0,1.8382449E0,-1.6486852E-1,2.3063965E0,-0E0,1.1976046E1,9.43315E0,5.451983E-1,1.2952214E0,-2.0518403E-1,-0E0,-3.8831255E-1,8.825853E0,-0E0,9.725638E0,1.2396776E1],"categories":[],"categories_nodes":[],"categories_segments":[],"categories_sizes":[],"default_left":[true,true,true,true,true,true,true,true,true,true,true,false,true,true,true,true,true,false,true,true,true,true,true,true,false,true,false,false,false,false,false,false,false,false,false,false,false,false,false,false,false,false,false,false,false,false,false],"id":4,"left_children":[1,3,5,7,9,11,13,15,17,19,21,-1,23,25,27,29,31,-1,33,35,37,39,41,43,-1,45,-1,-1,-1,-1,-1,-1,-1,-1,-1,-1,-1,-1,-1,-1,-1,-1,-1,-1,-1,-1,-1],"loss_changes":[2.1155644E5,3.042171E4,8.216406E3,1.6705195E3,2.2661704E3,1.3397266E3,2.4123438E3,1.3963164E3,3.9519534E2,2.818532E3,2.890965E2,0E0,1.5873438E2,1.4277031E3,4.0303125E2,1.1496934E3,9.870049E2,0E0,1.881103E1,2.15367E3,1.5702487E3,5.604714E2,1.2471313E0,1.0658203E2,0E0,6.889531E2,0E0,0E0,0E0,0E0,0E0,0E0,0E0,0E0,0E0,0E0,0E0,0E0,0E0,0E0,0E0,0E0,0E0,0E0,0E0,0E0,0E0],"parents":[2147483647,0,0,1,1,2,2,3,3,4,4,5,5,6,6,7,7,8,8,9,9,10,10,12,12,13,13,14,14,15,15,16,16,18,18,19,19,20,20,21,21,22,22,23,23,25,25],"right_children":[2,4,6,8,10,12,14,16,18,20,22,-1,24,26,28,30,32,-1,34,36,38,40,42,44,-1,46,-1,-1,-1,-1,-1,-1,-1,-1,-1,-1,-1,-1,-1,-1,-1,-1,-1,-1,-1,-1,-1],"split_conditions":[9.816667E0,6.9398E-1,1.55E1,1.65E1,8.0590796E-1,1.05E1,2.0933334E1,1.45E1,1.5E0,1.5E0,9.338798E-1,6.4787537E-1,1.35E1,2.0842424E1,2.15E1,1.45E1,2.631579E-2,7.200212E-1,9.5E0,1.1E1,3.5E0,2.5E0,-1.0298611E-1,4.818182E-1,1.0150706E0,1.353125E1,-0E0,1.3512145E0,1.6996437E0,4.396661E-1,-0E0,9.585988E-1,1.838245E-1,-1.6486851E-2,2.3063965E-1,-0E0,1.1976045E0,9.43315E-1,5.4519832E-2,1.2952214E-1,-2.0518404E-2,-0E0,-3.8831256E-2,8.8258535E-1,-0E0,9.7256386E-1,1.2396777E0],"split_indices":[3,4,37,33,4,37,3,33,30,34,4,0,37,3,33,37,11,0,44,37,91,28,100,4,0,3,0,0,0,0,0,0,0,0,0,0,0,0,0,0,0,0,0,0,0,0,0],"split_type":[0,0,0,0,0,0,0,0,0,0,0,0,0,0,0,0,0,0,0,0,0,0,0,0,0,0,0,0,0,0,0,0,0,0,0,0,0,0,0,0,0,0,0,0,0,0,0],"sum_hessian":[1.304E4,1.055E4,2.49E3,1.914E3,8.636E3,1.184E3,1.306E3,1.801E3,1.13E2,5.66E2,8.07E3,2.18E2,9.66E2,9.98E2,3.08E2,1.688E3,1.13E2,7E0,1.06E2,6.5E1,5.01E2,1.552E3,6.518E3,5.03E2,4.63E2,9.89E2,9E0,1.6E2,1.48E2,1.626E3,6.2E1,8.8E1,2.5E1,1.04E2,2E0,2.2E1,4.3E1,2E1,4.81E2,3.09E2,1.243E3,1.9E1,6.499E3,5.02E2,1E0,1.83E2,8.06E2],"tree_param":{"num_deleted":"0","num_feature":"110","num_nodes":"47","size_leaf_vector":"0"}},{"base_weights":[2.340526E0,5.772493E-1,9.804193E0,3.8247812E0,-1.417042E-1,8.847895E0,1.2747713E1,7.27923E0,3.6409698E0,1.6015766E0,-2.6539376E-1,6.9725366E0,9.380165E0,-0E0,1.2969914E1,4.8503537E0,1.087993E1,4.2200375E0,2.170496E0,7.326216E0,7.8674346E-1,-2.7893433E-1,4.2467403E0,5.829081E0,8.005653E0,9.458946E0,-2.0047832E0,3.9900417E0,-0E0,1.2226994E1,1.548134E1,6.0083385E0,-1.139376E0,1.2106957E1,2.813678E0,4.6862626E0,2.8945873E0,9.680725E-1,4.356518E0,-8.2902604E-1,9.598988E0,5.283237E-1,8.98712E0,-2.995851E-1,1.365717E0,-0E0,5.773544E0,-0E0,8.050505E0,8.550668E0,1.0151132E1,1.5631634E1,-0E0],"categories":[],"categories_nodes":[],"categories_segments":[],"categories_sizes":[],"default_left":[true,true,true,true,true,true,true,true,true,true,true,true,true,true,true,true,true,true,true,true,true,true,true,false,true,true,false,false,false,false,true,false,false,false,false,false,false,false,false,false,false,false,false,false,false,false,false,false,false,false,false,false,false],"id":5,"left_children":[1,3,5,7,9,11,13,15,17,19,21,23,25,27,29,31,33,35,37,39,41,43,45,-1,47,49,-1,-1,-1,-1,51,-1,-1,-1,-1,-1,-1,-1,-1,-1,-1,-1,-1,-1,-1,-1,-1,-1,-1,-1,-1,-1,-1],"loss_changes":[1.7151672E5,2.4672105E4,6.6831406E3,1.0802578E3,1.8494219E3,1.6536719E3,1.6125703E3,6.03271E2,1.4792266E3,2.5579495E3,4.5461914E2,3.1705078E2,1.4048047E3,3.1840866E1,6.437656E2,4.6476025E2,1.631416E2,7.1520703E2,1.3146262E3,1.3745725E3,9.57548E2,2.631527E2,1.6990906E2,0E0,9.0740234E1,6.396797E2,0E0,0E0,0E0,0E0,3.5886523E2,0E0,0E0,0E0,0E0,0E0,0E0,0E0,0E0,0E0,0E0,0E0,0E0,0E0,0E0,0E0,0E0,0E0,0E0,0E0,0E0,0E0,0E0],"parents":[2147483647,0,0,1,1,2,2,3,3,4,4,5,5,6,6,7,7,8,8,9,9,10,10,11,11,12,12,13,13,14,14,15,15,16,16,17,17,18,18,19,19,20,20,21,21,22,22,24,24,25,25,30,30],"right_children":[2,4,6,8,10,12,14,16,18,20,22,24,26,28,30,32,34,36,38,40,42,44,46,-1,48,50,-1,-1,-1,-1,52,-1,-1,-1,-1,-1,-1,-1,-1,-1,-1,-1,-1,-1,-1,-1,-1,-1,-1,-1,-1,-1,-1],"split_conditions":[9.816667E0,6.9398E-1,1.7285E1,1.5E0,8.0590796E-1,7.5E0,1.5E0,1.55E1,5.3256303E-1,1.5E0,6.904762E-2,2.35E1,1.7225E1,1.9618183E1,1.65E1,3.5E0,1.85E1,6.4935065E-3,6.575188E-1,7.5431037E-1,3.55E1,3.2795697E-2,4E0,5.829081E-1,1.0533333E1,1.427619E1,-2.0047832E-1,3.990042E-1,-0E0,1.2226994E0,3.2575756E-1,6.0083383E-1,-1.1393761E-1,1.2106957E0,2.813678E-1,4.6862626E-1,2.8945872E-1,9.680725E-2,4.3565178E-1,-8.29026E-2,9.5989877E-1,5.2832372E-2,8.98712E-1,-2.995851E-2,1.365717E-1,-0E0,5.773544E-1,-0E0,8.050505E-1,8.550668E-1,1.0151132E0,1.5631634E0,-0E0],"split_indices":[3,4,3,38,4,94,36,27,4,38,10,27,3,3,94,36,39,9,4,4,27,9,97,0,3,3,0,0,0,0,4,0,0,0,0,0,0,0,0,0,0,0,0,0,0,0,0,0,0,0,0,0,0],"split_type":[0,0,0,0,0,0,0,0,0,0,0,0,0,0,0,0,0,0,0,0,0,0,0,0,0,0,0,0,0,0,0,0,0,0,0,0,0,0,0,0,0,0,0,0,0,0,0,0,0,0,0,0,0],"sum_hessian":[1.304E4,1.055E4,2.49E3,1.914E3,8.636E3,1.885E3,6.05E2,9.2E1,1.822E3,5.66E2,8.07E3,4.24E2,1.461E3,1.1E1,5.94E2,5.8E1,3.4E1,1.301E3,5.21E2,6.8E1,4.98E2,8.049E3,2.1E1,2.09E2,2.15E2,1.452E3,9E0,1E0,1E1,4.66E2,1.28E2,5E1,8E0,2.8E1,6E0,9.55E2,3.46E2,3.4E2,1.81E2,1.4E1,5.4E1,4.85E2,1.3E1,7.956E3,9.3E1,5E0,1.6E1,1E0,2.14E2,6.4E2,8.12E2,1.27E2,1E0],"tree_param":{"num_deleted":"0","num_feature":"110","num_nodes":"53","size_leaf_vector":"0"}},{"base_weights":[2.108315E0,7.0413957E0,2.8607287E-2,3.942697E0,9.04531E0,1.9874163E0,-2.3858035E-1,2.608818E0,4.7236557E0,8.051327E0,1.1228304E1,4.771137E0,1.3376561E0,9.222556E-2,-3.1888452E-1,2.7176201E0,-0E0,4.343559E0,5.89833E0,8.144957E0,7.6936907E-1,1.1417824E1,-2.5210426E0,2.469308E0,7.1330204E0,1.1812905E0,9.828236E0,7.3651654E-1,-2.0401517E-1,-0E0,-3.2079634E-1,-0E0,2.7352667E0,-1.0896121E0,1.5474172E0,4.417846E0,-1.6724007E0,4.573429E0,6.695267E0,6.939192E0,8.492499E0,7.9643598E0,-2.251212E0,6.0459954E-1,1.1601913E1,6.2316785E0,7.437862E-1,9.970074E0,4.692208E0,3.9623305E-2,2.177404E0,1.3030022E1,-0E0,4.8361933E-1,5.122219E0,-4.0687257E-1,1.3771032E-1,1.7374563E0,-0E0,-3.2256138E-1,-0E0],"categories":[],"categories_nodes":[],"categories_segments":[],"categories_sizes":[],"default_left":[true,true,true,true,true,true,true,true,true,true,true,true,true,true,true,true,true,true,true,true,true,true,false,true,true,true,true,true,true,true,true,false,false,false,false,false,false,false,false,false,false,false,false,false,false,false,false,false,false,false,false,false,false,false,false,false,false,false,false,false,false],"id":6,"left_children":[1,3,5,7,9,11,13,15,17,19,21,23,25,27,29,31,33,35,37,39,41,43,-1,45,47,49,51,53,55,57,59,-1,-1,-1,-1,-1,-1,-1,-1,-1,-1,-1,-1,-1,-1,-1,-1,-1,-1,-1,-1,-1,-1,-1,-1,-1,-1,-1,-1,-1,-1],"loss_changes":[1.337215E5,2.38405E4,4.820402E3,1.4998262E3,4.805125E3,1.9330088E3,2.1670294E2,1.5250049E2,2.979121E2,1.0077656E3,2.0147578E3,1.0063135E3,1.0744939E3,3.0188898E2,6.2228394E0,3.747876E1,4.535556E1,3.6153418E2,9.3206055E1,4.555625E2,5.7492114E2,1.3021641E3,0E0,6.2675195E2,4.921421E2,9.8646643E2,5.8846436E2,4.960304E2,7.581256E1,6.037509E0,2.0770874E0,0E0,0E0,0E0,0E0,0E0,0E0,0E0,0E0,0E0,0E0,0E0,0E0,0E0,0E0,0E0,0E0,0E0,0E0,0E0,0E0,0E0,0E0,0E0,0E0,0E0,0E0,0E0,0E0,0E0,0E0],"parents":[2147483647,0,0,1,1,2,2,3,3,4,4,5,5,6,6,7,7,8,8,9,9,10,10,11,11,12,12,13,13,14,14,15,15,16,16,17,17,18,18,19,19,20,20,21,21,23,23,24,24,25,25,26,26,27,27,28,28,29,29,30,30],"right_children":[2,4,6,8,10,12,14,16,18,20,22,24,26,28,30,32,34,36,38,40,42,44,-1,46,48,50,52,54,56,58,60,-1,-1,-1,-1,-1,-1,-1,-1,-1,-1,-1,-1,-1,-1,-1,-1,-1,-1,-1,-1,-1,-1,-1,-1,-1,-1,-1,-1,-1,-1],"split_conditions":[5.603198E-1,1.15E1,8.0590796E-1,6.5E0,1.85E1,3.5E0,9.338798E-1,5.04902E-1,2.25E1,4.6428573E-1,4.5E-1,1.38871595E-2,1.3809524E-1,5.5E0,5.5E0,1.5E0,2.4089636E-2,3.423077E-1,1.05E1,2.35E1,2.5E-1,2.5E0,-2.5210425E-1,-2.8256604E-3,-2.180034E-12,-2.2537527E-12,6E0,1.4599863E-1,8.9827585E-1,2.9E1,2.8102022E-1,-0E0,2.7352667E-1,-1.0896122E-1,1.5474172E-1,4.4178462E-1,-1.6724007E-1,4.5734292E-1,6.6952676E-1,6.939192E-1,8.4924996E-1,7.96436E-1,-2.2512119E-1,6.0459953E-2,1.1601914E0,6.231679E-1,7.4378625E-2,9.9700737E-1,4.692208E-1,3.9623305E-3,2.177404E-1,1.3030022E0,-0E0,4.8361935E-2,5.1222193E-1,-4.068726E-2,1.3771032E-2,1.7374563E-1,-0E0,-3.2256138E-2,-0E0],"split_indices":[4,37,4,37,37,95,4,4,96,8,8,106,9,99,96,24,12,12,37,96,4,24,0,100,100,106,95,106,4,21,106,0,0,0,0,0,0,0,0,0,0,0,0,0,0,0,0,0,0,0,0,0,0,0,0,0,0,0,0,0,0],"split_type":[0,0,0,0,0,0,0,0,0,0,0,0,0,0,0,0,0,0,0,0,0,0,0,0,0,0,0,0,0,0,0,0,0,0,0,0,0,0,0,0,0,0,0,0,0,0,0,0,0,0,0,0,0,0,0,0,0,0,0,0,0],"sum_hessian":[1.304E4,3.865E3,9.175E3,1.521E3,2.344E3,1.105E3,8.07E3,5.68E2,9.53E2,1.617E3,7.27E2,2.05E2,9E2,1.552E3,6.518E3,5.44E2,2.4E1,7.3E2,2.23E2,1.595E3,2.2E1,7.18E2,9E0,1.07E2,9.8E1,8.86E2,1.4E1,4.99E2,1.053E3,1.7E1,6.501E3,2E0,5.42E2,1.3E1,1.1E1,7.23E2,7E0,9.1E1,1.32E2,3.68E2,1.227E3,7E0,1.5E1,1.3E1,7.05E2,3.1E1,7.6E1,4.2E1,5.6E1,4.18E2,4.68E2,1.1E1,3E0,4.75E2,2.4E1,6.79E2,3.74E2,1E0,1.6E1,6.45E3,5.1E1],"tree_param":{"num_deleted":"0","num_feature":"110","num_nodes":"61","size_leaf_vector":"0"}},{"base_weights":[1.8990719E0,4.6544743E-1,7.9666247E0,3.3021498E0,-3.170264E-1,6.971064E0,1.0203308E1,4.6198854E0,3.1785354E-1,-9.8680615E-1,-2.5138858E-1,7.143591E0,7.0246524E-1,1.0508321E1,1.1406348E0,3.2718892E0,7.790564E0,3.5764344E0,-1.19939044E-1,3.9421453E0,-1.1178871E0,-2.5654992E-1,4.6099305E0,5.9687114E0,8.074166E0,7.2213855E0,-1.8257139E0,1.0950232E1,7.417614E0,-1.9264469E0,1.1607503E1,2.5767617E0,4.1219854E0,6.470664E0,9.576656E0,5.637912E0,-0E0,6.070619E-1,-3.8622892E-1,-0E0,4.371857E0,-1.2869301E0,-1.4806688E-1,1.1110461E-1,-2.6650482E-1,1.03601055E1,-0E0,4.9555707E0,6.5052104E0,7.8594694E0,-0E0,-3.1454618E0,6.688697E0,-0E0,1.0975689E1,8.499085E0,-4.561326E0,-2.762155E0,-0E0,-0E0,1.4616779E1],"categories":[],"categories_nodes":[],"categories_segments":[],"categories_sizes":[],"default_left":[true,true,true,true,true,true,true,true,true,true,true,true,true,true,true,true,true,true,true,true,true,true,true,true,false,true,true,true,true,true,true,false,false,false,false,false,false,false,false,false,false,false,false,false,false,false,false,false,false,false,false,false,false,false,false,false,false,false,false,false,false],"id":7,"left_children":[1,3,5,7,9,11,13,15,17,19,21,23,25,27,29,31,33,35,37,39,41,43,45,47,-1,49,51,53,55,57,59,-1,-1,-1,-1,-1,-1,-1,-1,-1,-1,-1,-1,-1,-1,-1,-1,-1,-1,-1,-1,-1,-1,-1,-1,-1,-1,-1,-1,-1,-1],"loss_changes":[1.1335031E5,2.3450377E4,5.3039688E3,8.931014E3,3.5085522E2,1.7875234E3,1.9778594E3,6.625457E3,1.0378815E3,4.4393494E2,1.4696002E2,1.6503359E3,8.7470984E2,7.403281E2,9.859458E2,5.8068066E2,8.8321094E2,6.482169E2,1.176666E2,4.162143E1,1.0152985E2,2.9179749E1,1.944866E2,2.619043E2,0E0,8.257153E1,3.7889734E2,2.3621875E2,1.3477231E3,1.3618858E1,3.3876257E2,0E0,0E0,0E0,0E0,0E0,0E0,0E0,0E0,0E0,0E0,0E0,0E0,0E0,0E0,0E0,0E0,0E0,0E0,0E0,0E0,0E0,0E0,0E0,0E0,0E0,0E0,0E0,0E0,0E0,0E0],"parents":[2147483647,0,0,1,1,2,2,3,3,4,4,5,5,6,6,7,7,8,8,9,9,10,10,11,11,12,12,13,13,14,14,15,15,16,16,17,17,18,18,19,19,20,20,21,21,22,22,23,23,25,25,26,26,27,27,28,28,29,29,30,30],"right_children":[2,4,6,8,10,12,14,16,18,20,22,24,26,28,30,32,34,36,38,40,42,44,46,48,-1,50,52,54,56,58,60,-1,-1,-1,-1,-1,-1,-1,-1,-1,-1,-1,-1,-1,-1,-1,-1,-1,-1,-1,-1,-1,-1,-1,-1,-1,-1,-1,-1,-1,-1],"split_conditions":[9.816667E0,-4.95E1,1.65E1,8.0590796E-1,7.527778E-1,2.15E1,2.35E1,7.5E0,2.5E0,3.2916665E-1,4.855239E0,1.15E1,1.25E1,2.755239E-1,6E0,1.65E1,1.15E1,9.042793E-1,9.1022545E-1,5.5503435E0,1.05E1,8.067227E-1,7.683363E-1,9.5E0,8.074166E-1,5.8571434E-1,3.65E1,9.966667E0,5.5555556E-2,1.9433334E1,1.33125E1,2.5767618E-1,4.1219854E-1,6.470664E-1,9.576656E-1,5.637912E-1,-0E0,6.0706194E-2,-3.8622893E-2,-0E0,4.3718573E-1,-1.2869301E-1,-1.4806688E-2,1.1110461E-2,-2.6650483E-2,1.0360106E0,-0E0,4.9555707E-1,6.5052104E-1,7.8594697E-1,-0E0,-3.145462E-1,6.688697E-1,-0E0,1.0975689E0,8.4990853E-1,-4.5613262E-1,-2.7621552E-1,-0E0,-0E0,1.4616779E0],"split_indices":[3,45,29,4,4,45,45,29,34,4,3,29,29,106,26,19,29,4,4,3,21,4,4,29,0,4,19,3,7,3,3,0,0,0,0,0,0,0,0,0,0,0,0,0,0,0,0,0,0,0,0,0,0,0,0,0,0,0,0,0,0],"split_type":[0,0,0,0,0,0,0,0,0,0,0,0,0,0,0,0,0,0,0,0,0,0,0,0,0,0,0,0,0,0,0,0,0,0,0,0,0,0,0,0,0,0,0,0,0,0,0,0,0,0,0,0,0,0,0,0,0,0,0,0,0],"sum_hessian":[1.304E4,1.055E4,2.49E3,2.283E3,8.267E3,1.729E3,7.61E2,1.581E3,7.02E2,7.23E2,7.544E3,1.681E3,4.8E1,7.35E2,2.6E1,1.113E3,4.68E2,8.5E1,6.17E2,1.6E1,7.07E2,7.539E3,5E0,7.51E2,9.3E2,1.4E1,3.4E1,6.38E2,9.7E1,2E1,6E0,6.21E2,4.92E2,2.75E2,1.93E2,5.4E1,3.1E1,1.55E2,4.62E2,1E0,1.5E1,5.93E2,1.14E2,1.72E2,7.367E3,2E0,3E0,2.7E2,4.81E2,1.3E1,1E0,3.1E1,3E0,1E0,6.37E2,9E1,7E0,1.1E1,9E0,1E0,5E0],"tree_param":{"num_deleted":"0","num_feature":"110","num_nodes":"61","size_leaf_vector":"0"}},{"base_weights":[1.7103903E0,4.1959342E-1,7.173051E0,2.9748285E0,-2.8512073E-1,6.267542E0,9.640066E0,3.7823906E0,-2.7556562E-1,-2.932209E-1,3.0753376E0,6.4833856E0,1.5960181E-1,9.999517E0,7.611059E-1,3.0760386E0,9.324629E0,5.000697E0,-3.3222467E-1,-2.3480645E-1,-8.6053765E-1,3.8249881E0,-0E0,5.238607E0,7.61135E0,5.7647686E0,-3.4685802E0,7.5285378E0,1.0358512E1,-1.7817626E0,8.590998E0,2.300705E0,4.851608E0,-0E0,9.69878E0,-2.8819475E-1,-1.0856357E0,-2.4228658E-1,1.714257E-1,-1.0753701E0,9.301909E-2,3.9773464E0,5.560879E0,6.9718676E0,8.308431E0,7.103234E0,-1.207216E0,1.5615745E0,-3.9052048E0,-5.518277E-1,7.839149E0,-0E0,1.0387019E1,-2.5089574E0,-0E0,-5.547703E-1,1.3398715E1],"categories":[],"categories_nodes":[],"categories_segments":[],"categories_sizes":[],"default_left":[true,true,true,true,true,true,true,true,true,true,true,true,true,true,true,true,true,false,true,true,true,false,false,true,true,true,true,true,true,true,true,false,false,false,false,false,false,false,false,false,false,false,false,false,false,false,false,false,false,false,false,false,false,false,false,false,false],"id":8,"left_children":[1,3,5,7,9,11,13,15,17,19,21,23,25,27,29,31,33,-1,35,37,39,-1,-1,41,43,45,47,49,51,53,55,-1,-1,-1,-1,-1,-1,-1,-1,-1,-1,-1,-1,-1,-1,-1,-1,-1,-1,-1,-1,-1,-1,-1,-1,-1,-1],"loss_changes":[9.187558E4,1.902704E4,5.3451562E3,6.031369E3,1.9813812E2,2.3425E3,2.0039766E3,7.019172E3,9.040004E1,2.623117E2,5.8677094E1,2.3084062E3,1.3648341E3,3.0820703E2,6.408902E2,2.1585146E3,8.0064844E2,0E0,9.0966797E-1,2.353714E1,1.643841E2,0E0,0E0,2.263711E2,1.989336E2,3.1949286E2,1.1518979E2,2.980664E2,2.173789E2,8.870178E0,4.876349E2,0E0,0E0,0E0,0E0,0E0,0E0,0E0,0E0,0E0,0E0,0E0,0E0,0E0,0E0,0E0,0E0,0E0,0E0,0E0,0E0,0E0,0E0,0E0,0E0,0E0,0E0],"parents":[2147483647,0,0,1,1,2,2,3,3,4,4,5,5,6,6,7,7,8,8,9,9,10,10,11,11,12,12,13,13,14,14,15,15,16,16,18,18,19,19,20,20,23,23,24,24,25,25,26,26,27,27,28,28,29,29,30,30],"right_children":[2,4,6,8,10,12,14,16,18,20,22,24,26,28,30,32,34,-1,36,38,40,-1,-1,42,44,46,48,50,52,54,56,-1,-1,-1,-1,-1,-1,-1,-1,-1,-1,-1,-1,-1,-1,-1,-1,-1,-1,-1,-1,-1,-1,-1,-1,-1,-1],"split_conditions":[9.816667E0,-4.95E1,2.05E1,1.95E1,3.798077E-1,1.6E1,2.35E1,1.45E1,2.15E1,3.4316769E0,1.499846E-3,1.55E1,6.944445E-2,4.5E0,5.5E0,8.5E0,1.2640693E0,5.0006974E-1,4.4769573E0,2.8570736E1,2.55E1,3.8249883E-1,-0E0,1.15E1,1.75E1,7.5E0,1.05E1,2.75E1,1.0216667E1,1.9433334E1,1.33125E1,2.300705E-1,4.851608E-1,-0E0,9.69878E-1,-2.8819475E-2,-1.08563565E-1,-2.4228659E-2,1.714257E-2,-1.0753701E-1,9.301909E-3,3.9773464E-1,5.560879E-1,6.9718677E-1,8.308431E-1,7.103234E-1,-1.207216E-1,1.5615745E-1,-3.9052048E-1,-5.5182774E-2,7.839149E-1,-0E0,1.0387019E0,-2.5089574E-1,-0E0,-5.547703E-2,1.3398715E0],"split_indices":[3,45,41,33,6,45,45,41,41,3,100,41,8,88,30,41,3,0,3,108,41,0,0,41,41,15,25,33,3,3,3,0,0,0,0,0,0,0,0,0,0,0,0,0,0,0,0,0,0,0,0,0,0,0,0,0,0],"split_type":[0,0,0,0,0,0,0,0,0,0,0,0,0,0,0,0,0,0,0,0,0,0,0,0,0,0,0,0,0,0,0,0,0,0,0,0,0,0,0,0,0,0,0,0,0,0,0,0,0,0,0,0,0,0,0,0,0],"sum_hessian":[1.304E4,1.055E4,2.49E3,2.283E3,8.267E3,1.827E3,6.63E2,1.831E3,4.52E2,8.251E3,1.6E1,1.763E3,6.4E1,6.36E2,2.7E1,1.627E3,2.04E2,2E0,4.5E2,7.498E3,7.53E2,1.4E1,2E0,8.45E2,9.18E2,2.6E1,3.8E1,8.7E1,5.49E2,2E1,7E0,1.138E3,4.89E2,7E0,1.97E2,4.39E2,1.1E1,7.387E3,1.11E2,6.23E2,1.3E2,1.81E2,6.64E2,4.92E2,4.26E2,2.3E1,3E0,1E0,3.7E1,2E0,8.5E1,1E0,5.48E2,1.1E1,9E0,2E0,5E0],"tree_param":{"num_deleted":"0","num_feature":"110","num_nodes":"57","size_leaf_vector":"0"}},{"base_weights":[1.5402188E0,7.236673E-1,4.634669E0,2.8833887E-1,2.0596435E0,2.7762218E0,6.3170924E0,2.030199E-1,3.4924788E0,3.7702155E-1,3.655061E0,2.3004532E0,3.8631694E0,5.539055E0,8.819495E0,9.0637445E-1,4.8515685E-2,5.523046E0,-3.5351098E-1,1.5787496E-1,1.2672678E0,3.0389972E0,7.238889E0,2.3867004E0,-1.3479176E0,-5.936208E-1,4.2268553E0,1.6428348E0,5.7463446E0,8.101441E0,1.1128983E1,3.8536482E0,6.8340564E-1,7.965865E-1,-7.8979366E-2,-1.3785855E-1,6.4480305E0,-6.9235784E-1,3.8856237E0,9.099087E-2,4.1571956E0,1.734489E-1,2.7450528E0,4.723586E0,2.1836705E0,9.3259054E-1,7.8458757E0,1.9307898E0,2.8208737E0,-1.8126539E0,1.4305437E0,4.5058594E0,-0E0,-1.1680177E0,4.195871E0,2.6628017E0,6.012718E0],"categories":[],"categories_nodes":[],"categories_segments":[],"categories_sizes":[],"default_left":[true,true,true,true,true,true,true,true,true,true,true,true,true,true,true,true,true,true,true,true,true,true,true,true,false,true,true,true,true,false,false,false,false,false,false,false,false,false,false,false,false,false,false,false,false,false,false,false,false,false,false,false,false,false,false,false,false],"id":9,"left_children":[1,3,5,7,9,11,13,15,17,19,21,23,25,27,29,31,33,35,37,39,41,43,45,47,-1,49,51,53,55,-1,-1,-1,-1,-1,-1,-1,-1,-1,-1,-1,-1,-1,-1,-1,-1,-1,-1,-1,-1,-1,-1,-1,-1,-1,-1,-1,-1],"loss_changes":[3.2894773E4,5.9790815E3,8.396141E3,2.0924653E3,6.7527324E3,6.002012E2,2.580039E3,8.1565656E2,1.6077461E3,2.2668521E2,2.7366172E3,3.0026123E2,6.6611914E2,7.986211E2,2.6976172E2,8.4309155E2,6.0228564E2,7.55176E2,6.843397E1,2.2516577E2,3.501998E2,1.5199824E3,6.207041E2,1.2380127E2,0E0,7.550484E1,3.8986035E2,4.5857562E2,7.4653125E2,0E0,0E0,0E0,0E0,0E0,0E0,0E0,0E0,0E0,0E0,0E0,0E0,0E0,0E0,0E0,0E0,0E0,0E0,0E0,0E0,0E0,0E0,0E0,0E0,0E0,0E0,0E0,0E0],"parents":[2147483647,0,0,1,1,2,2,3,3,4,4,5,5,6,6,7,7,8,8,9,9,10,10,11,11,12,12,13,13,14,14,15,15,16,16,17,17,18,18,19,19,20,20,21,21,22,22,23,23,25,25,26,26,27,27,28,28],"right_children":[2,4,6,8,10,12,14,16,18,20,22,24,26,28,30,32,34,36,38,40,42,44,46,48,-1,50,52,54,56,-1,-1,-1,-1,-1,-1,-1,-1,-1,-1,-1,-1,-1,-1,-1,-1,-1,-1,-1,-1,-1,-1,-1,-1,-1,-1,-1,-1],"split_conditions":[5.7983194E-2,2.5788063E-1,2.65E1,2.9771963E-1,7.5E0,6.5E0,1.45E1,1.35E1,5.5E0,7.5E0,1.25E1,2.55E1,3.5E0,6.5E0,1.85E1,1.5E0,-1.6958096E1,2.5E0,5.518198E-1,2.3401725E-1,9.5E0,4.5E0,-2.1080414E-3,1.55E1,-1.3479176E-1,6.5E0,9.5E0,9.5E0,5.09034E-1,8.101441E-1,1.1128982E0,3.8536483E-1,6.834056E-2,7.965865E-2,-7.897937E-3,-1.3785856E-2,6.4480305E-1,-6.923579E-2,3.8856238E-1,9.099088E-3,4.1571957E-1,1.734489E-2,2.745053E-1,4.723586E-1,2.1836706E-1,9.325906E-2,7.8458756E-1,1.9307898E-1,2.820874E-1,-1.812654E-1,1.4305437E-1,4.5058593E-1,-0E0,-1.16801776E-1,4.195871E-1,2.6628017E-1,6.012718E-1],"split_indices":[14,104,19,106,98,90,98,0,42,15,90,19,0,98,98,38,109,38,106,106,42,15,100,19,0,15,44,20,104,0,0,0,0,0,0,0,0,0,0,0,0,0,0,0,0,0,0,0,0,0,0,0,0,0,0,0,0],"split_type":[0,0,0,0,0,0,0,0,0,0,0,0,0,0,0,0,0,0,0,0,0,0,0,0,0,0,0,0,0,0,0,0,0,0,0,0,0,0,0,0,0,0,0,0,0,0,0,0,0,0,0,0,0,0,0,0,0],"sum_hessian":[1.304E4,1.0321E4,2.719E3,7.791E3,2.53E3,1.296E3,1.423E3,7.593E3,1.98E2,1.235E3,1.295E3,9.1E2,3.86E2,1.091E3,3.32E2,1.355E3,6.238E3,1.31E2,6.7E1,1.001E3,2.34E2,1.109E3,1.86E2,8.92E2,1.8E1,2.7E1,3.59E2,5.8E1,1.033E3,2.6E2,7.2E1,9.1E1,1.264E3,9.19E2,5.319E3,1.7E1,1.14E2,6.5E1,2E0,9.88E2,1.3E1,1.39E2,9.5E1,3.68E2,7.41E2,1.8E1,1.68E2,4.49E2,4.43E2,2E1,7E0,3.35E2,2.4E1,2.6E1,3.2E1,8.6E1,9.47E2],"tree_param":{"num_deleted":"0","num_feature":"110","num_nodes":"57","size_leaf_vector":"0"}}]},"name":"gbtree"},"learner_model_param":{"base_score":"5E-1","num_class":"0","num_feature":"110"},"objective":{"name":"reg:squarederror","reg_loss_param":{"scale_pos_weight":"1"}}},"version":[1,4,2]}
