{"learner":{"attributes":{},"feature_names":[" day"," trace 40 quant","competitiveness","empirical_distr_p","empirical_distr_q_0","empirical_distr_q_1","empirical_distr_q_10","empirical_distr_q_2","empirical_distr_q_3","empirical_distr_q_4","empirical_distr_q_5","empirical_distr_q_6","empirical_distr_q_7","empirical_distr_q_8","empirical_distr_q_9","my_layer_size","n_level","n_opp_level","opp_layer_size","trace 0 price","trace 0 quant","trace 1 price","trace 1 quant","trace 10 price","trace 10 quant","trace 11 price","trace 11 quant","trace 12 price","trace 12 quant","trace 13 price","trace 13 quant","trace 14 price","trace 14 quant","trace 15 price","trace 15 quant","trace 16 price","trace 16 quant","trace 17 price","trace 17 quant","trace 18 price","trace 18 quant","trace 19 price","trace 19 quant","trace 2 price","trace 2 quant","trace 20 price","trace 20 quant","trace 21 price","trace 21 quant","trace 22 price","trace 22 quant","trace 23 price","trace 23 quant","trace 24 price","trace 24 quant","trace 25 price","trace 25 quant","trace 26 price","trace 26 quant","trace 27 price","trace 27 quant","trace 28 price","trace 28 quant","trace 29 price","trace 29 quant","trace 3 price","trace 3 quant","trace 30 price","trace 30 quant","trace 31 price","trace 31 quant","trace 32 price","trace 32 quant","trace 33 price","trace 33 quant","trace 34 price","trace 34 quant","trace 35 price","trace 35 quant","trace 36 price","trace 36 quant","trace 37 price","trace 37 quant","trace 38 price","trace 38 quant","trace 39 price","trace 39 quant","trace 4 price","trace 4 quant","trace 40 price","trace 5 price","trace 5 quant","trace 6 price","trace 6 quant","trace 7 price","trace 7 quant","trace 8 price","trace 8 quant","trace 9 price","trace 9 quant","ufun_param_0","ufun_param_1","ufun_param_2","ufun_param_3","ufun_param_4","ufun_param_5","ufun_param_6","ufun_param_7","ufun_param_8","ufun_param_9"],"feature_types":["int","int","float","float","float","float","float","float","float","float","float","float","float","float","float","int","int","int","int","int","int","int","int","int","int","int","int","int","int","int","int","int","int","int","int","int","int","int","int","int","int","int","int","int","int","int","int","int","int","int","int","int","int","int","int","int","int","int","int","int","int","int","int","int","int","int","int","int","int","int","int","int","int","int","int","int","int","int","int","int","int","int","int","int","int","int","int","int","int","int","int","int","int","int","int","int","int","int","int","int","float","float","float","float","float","float","float","float","float","float"],"gradient_booster":{"model":{"gbtree_model_param":{"num_trees":"10","size_leaf_vector":"0"},"tree_info":[0,0,0,0,0,0,0,0,0,0],"trees":[{"base_weights":[7.549819E0,1.9362899E0,1.5147896E1,8.12617E-1,1.5782791E1,1.1131736E1,1.7948696E1,2.8588602E-1,1.2059048E1,9.309267E0,2.1860205E1,7.586857E0,1.2514966E1,1.6268227E1,1.9661415E1,-7.525037E-2,9.020134E0,5.8514853E0,1.3482353E1,4.254438E0,1.2130068E1,9.391304E0,2.2404915E1,6.779661E-2,8.000485E0,8.389394E0,1.3062807E1,1.1801136E1,1.6403542E1,4.7272727E-1,2.0044859E1,3.7607224E0,-2.4052408E-1,7.798928E0,1.484E1,-0E0,6.7897725E0,1.4885886E1,8.204301E0,1.4285714E1,2.7449665E0,1.0283483E1,1.749315E1,2.0181818E1,-0E0,2.2453962E1,-0E0,-3.0555555E-1,5.0833335E0,7.092877E0,1.000635E1,4.14759E0,1.2545455E1,1.3244356E1,4.4339623E0,1.5188406E1,-0E0,1.6073284E1,1.8048864E1,-0E0,5.75E0,2.0098763E1,-0E0],"categories":[],"categories_nodes":[],"categories_segments":[],"categories_sizes":[],"default_left":[true,true,true,true,true,true,true,true,true,true,true,true,true,true,true,true,true,true,true,true,true,true,true,true,true,true,true,true,true,true,true,false,false,false,false,false,false,false,false,false,false,false,false,false,false,false,false,false,false,false,false,false,false,false,false,false,false,false,false,false,false,false,false],"id":0,"left_children":[1,3,5,7,9,11,13,15,17,19,21,23,25,27,29,31,33,35,37,39,41,43,45,47,49,51,53,55,57,59,61,-1,-1,-1,-1,-1,-1,-1,-1,-1,-1,-1,-1,-1,-1,-1,-1,-1,-1,-1,-1,-1,-1,-1,-1,-1,-1,-1,-1,-1,-1,-1,-1],"loss_changes":[9.419829E5,1.9751311E5,1.0507625E5,6.950195E4,3.6978E4,1.8631094E4,1.522575E4,3.551241E4,4.3662812E3,6.4005703E3,2.7996719E3,3.3025664E3,5.9433125E3,1.2156875E3,1.986475E4,6.802601E3,2.8348203E3,5.986614E2,2.795336E3,2.3494648E3,2.47375E3,2.451842E3,5.255E2,1.5981216E2,1.6331875E3,5.59867E3,3.593125E3,3.6619688E3,8.4175E2,1.8608409E2,2.960625E3,0E0,0E0,0E0,0E0,0E0,0E0,0E0,0E0,0E0,0E0,0E0,0E0,0E0,0E0,0E0,0E0,0E0,0E0,0E0,0E0,0E0,0E0,0E0,0E0,0E0,0E0,0E0,0E0,0E0,0E0,0E0,0E0],"parents":[2147483647,0,0,1,1,2,2,3,3,4,4,5,5,6,6,7,7,8,8,9,9,10,10,11,11,12,12,13,13,14,14,15,15,16,16,17,17,18,18,19,19,20,20,21,21,22,22,23,23,24,24,25,25,26,26,27,27,28,28,29,29,30,30],"right_children":[2,4,6,8,10,12,14,16,18,20,22,24,26,28,30,32,34,36,38,40,42,44,46,48,50,52,54,56,58,60,62,-1,-1,-1,-1,-1,-1,-1,-1,-1,-1,-1,-1,-1,-1,-1,-1,-1,-1,-1,-1,-1,-1,-1,-1,-1,-1,-1,-1,-1,-1,-1,-1],"split_conditions":[8.163643E-2,1.5192309E-1,1.25E1,3.229167E-1,1.35E1,8.5E0,1.55E1,8.377193E-2,2.25E1,2.744361E-2,2.25E1,1.5E-2,-8.657506E-4,3.5E0,1.35E1,1.5E0,2.916667E-1,2.5E0,7.5E0,-1.5E0,1.05E1,7.5E0,3.05E1,1.05E1,7.5E0,2.0833334E-2,4.727221E-3,3.65E1,1.45E1,3.125E-2,4.7E1,3.7607226E-1,-2.405241E-2,7.798928E-1,1.4840001E0,-0E0,6.7897725E-1,1.4885887E0,8.204301E-1,1.4285715E0,2.7449664E-1,1.0283483E0,1.7493151E0,2.0181818E0,-0E0,2.2453964E0,-0E0,-3.0555556E-2,5.083334E-1,7.092877E-1,1.000635E0,4.14759E-1,1.2545456E0,1.3244356E0,4.4339624E-1,1.5188407E0,-0E0,1.6073284E0,1.8048865E0,-0E0,5.75E-1,2.0098763E0,-0E0],"split_indices":[14,12,94,6,94,94,94,8,19,6,23,6,100,0,23,0,8,0,15,2,94,20,2,2,94,12,100,2,94,12,2,0,0,0,0,0,0,0,0,0,0,0,0,0,0,0,0,0,0,0,0,0,0,0,0,0,0,0,0,0,0,0,0],"split_type":[0,0,0,0,0,0,0,0,0,0,0,0,0,0,0,0,0,0,0,0,0,0,0,0,0,0,0,0,0,0,0,0,0,0,0,0,0,0,0,0,0,0,0,0,0,0,0,0,0,0,0,0,0,0,0,0,0,0,0,0,0,0,0],"sum_hessian":[2.2089E4,1.2705E4,9.384E3,1.1753E4,9.52E2,3.859E3,5.525E3,1.1229E4,5.24E2,4.63E2,4.89E2,1.087E3,2.772E3,2.797E3,2.728E3,1.0783E4,4.46E2,1E2,4.24E2,1.68E2,2.95E2,2.2E1,4.67E2,5.8E1,1.029E3,3.29E2,2.443E3,8.7E1,2.71E3,5.4E1,2.674E3,4.42E2,1.0341E4,3.72E2,7.4E1,1.3E1,8.7E1,3.32E2,9.2E1,2E1,1.48E2,2.23E2,7.2E1,1E1,1.2E1,4.66E2,1E0,5.3E1,5E0,7.15E2,3.14E2,1.65E2,1.64E2,2.391E3,5.2E1,6.8E1,1.9E1,2.271E3,4.39E2,4.9E1,5E0,2.667E3,7E0],"tree_param":{"num_deleted":"0","num_feature":"110","num_nodes":"63","size_leaf_vector":"0"}},{"base_weights":[6.796876E0,1.3344358E1,-4.716788E-3,7.1499605E0,1.5528205E1,-1.9337587E-1,5.843166E0,8.731503E0,-4.6398467E-1,1.3135437E1,1.8218435E1,-2.506998E-1,6.7980433E0,8.2571137E-1,1.5434898E1,5.7977004E0,1.0401543E1,6.400017E-2,1.3523917E1,1.718329E1,2.0696218E1,-3.0740017E-1,8.033044E-1,1.0407409E1,6.015276E-1,-2.7807334E-1,3.385099E0,1.8298592E1,2.0429819E0,2.8440392E0,6.5737295E0,9.521817E0,1.2029131E1,5.428522E0,-3.9734104E-1,1.1177106E1,1.4022032E1,1.6306612E1,1.7810583E1,1.9746983E1,2.2282063E1,-3.9066347E-1,3.1856814E-1,7.5557547E0,-1.4967597E-1,4.4517303E0,1.6753544E1,-0E0,7.7409096E0,-4.8871788E-1,5.243276E0,1.2070948E1,2.5242755E0,-0E0,1.907932E1,6.499213E0,1.3608545E-1],"categories":[],"categories_nodes":[],"categories_segments":[],"categories_sizes":[],"default_left":[true,true,true,true,true,true,true,true,false,true,true,true,true,true,true,true,true,true,true,true,true,true,true,true,true,true,true,true,true,false,false,false,false,false,false,false,false,false,false,false,false,false,false,false,false,false,false,false,false,false,false,false,false,false,false,false,false],"id":1,"left_children":[1,3,5,7,9,11,13,15,-1,17,19,21,23,25,27,29,31,33,35,37,39,41,43,45,47,49,51,53,55,-1,-1,-1,-1,-1,-1,-1,-1,-1,-1,-1,-1,-1,-1,-1,-1,-1,-1,-1,-1,-1,-1,-1,-1,-1,-1,-1,-1],"loss_changes":[9.838742E5,1.51929E5,1.1898413E4,3.545342E4,5.3003875E4,4.1439727E3,1.6043139E4,1.1698359E4,0E0,2.2252062E4,9.29925E3,6.177734E2,1.7623511E3,6.619895E2,4.16949E3,1.9202422E3,1.885E3,3.7172766E2,4.5956875E3,8.90625E2,8.6334375E2,5.165226E2,3.4406719E3,1.6787334E3,1.07902794E2,1.3412537E2,3.4696606E2,1.2870254E3,1.1970914E2,0E0,0E0,0E0,0E0,0E0,0E0,0E0,0E0,0E0,0E0,0E0,0E0,0E0,0E0,0E0,0E0,0E0,0E0,0E0,0E0,0E0,0E0,0E0,0E0,0E0,0E0,0E0,0E0],"parents":[2147483647,0,0,1,1,2,2,3,3,4,4,5,5,6,6,7,7,9,9,10,10,11,11,12,12,13,13,14,14,15,15,16,16,17,17,18,18,19,19,20,20,21,21,22,22,23,23,24,24,25,25,26,26,27,27,28,28],"right_children":[2,4,6,8,10,12,14,16,-1,18,20,22,24,26,28,30,32,34,36,38,40,42,44,46,48,50,52,54,56,-1,-1,-1,-1,-1,-1,-1,-1,-1,-1,-1,-1,-1,-1,-1,-1,-1,-1,-1,-1,-1,-1,-1,-1,-1,-1,-1,-1],"split_conditions":[-4.95E1,1.95E1,6.5E0,1.75E1,1.75E1,4.2167957E1,1.55E1,9.5E0,-4.639847E-2,1.05E1,2.15E1,5.6179776E-3,7.5E0,1.05E1,9.5E0,6.5E0,1.25E1,1.9E1,1.45E1,1.95E1,2.35E1,9.0855277E-1,2.1507863E-2,1.55E1,1.6776316E-1,1.3513514E-2,5.5E0,1.2820679E1,1.7E1,2.8440392E-1,6.5737295E-1,9.5218176E-1,1.2029132E0,5.428522E-1,-3.9734107E-2,1.1177106E0,1.4022032E0,1.6306612E0,1.7810583E0,1.9746983E0,2.2282064E0,-3.906635E-2,3.1856816E-2,7.555755E-1,-1.4967597E-2,4.4517303E-1,1.6753544E0,-0E0,7.7409095E-1,-4.887179E-2,5.2432764E-1,1.2070948E0,2.5242755E-1,-0E0,1.9079322E0,6.4992136E-1,1.3608545E-2],"split_indices":[32,87,32,29,29,108,23,29,0,29,29,8,30,87,30,29,29,92,29,29,29,104,8,96,10,10,66,108,27,0,0,0,0,0,0,0,0,0,0,0,0,0,0,0,0,0,0,0,0,0,0,0,0,0,0,0,0],"split_type":[0,0,0,0,0,0,0,0,0,0,0,0,0,0,0,0,0,0,0,0,0,0,0,0,0,0,0,0,0,0,0,0,0,0,0,0,0,0,0,0,0,0,0,0,0,0,0,0,0,0,0,0,0,0,0,0,0],"sum_hessian":[2.2089E4,1.1255E4,1.0834E4,2.936E3,8.319E3,1.0498E4,3.36E2,2.432E3,5.04E2,4.408E3,3.911E3,1.0415E4,8.3E1,2.22E2,1.14E2,8.86E2,1.546E3,1.28E2,4.28E3,2.767E3,1.144E3,9.893E3,5.22E2,5.1E1,3.2E1,1.53E2,6.9E1,9.3E1,2.1E1,1.88E2,6.98E2,1.012E3,5.34E2,1.1E1,1.17E2,7.57E2,3.523E3,1.172E3,1.595E3,7.28E2,4.16E2,8.746E3,1.147E3,6.5E1,4.57E2,2.8E1,2.3E1,3.1E1,1E0,1.5E2,3E0,4E0,6.5E1,4E0,8.9E1,4E0,1.7E1],"tree_param":{"num_deleted":"0","num_feature":"110","num_nodes":"57","size_leaf_vector":"0"}},{"base_weights":[6.1189337E0,2.0214975E-1,1.3264773E1,5.4268208E0,-2.4875684E-1,1.142758E1,1.649512E1,6.304566E0,1.8450048E0,-3.1263903E-1,8.236166E0,8.843327E0,1.2537597E1,1.59161215E1,1.9064745E1,5.48136E0,1.0428458E1,5.883466E0,-3.1898558E-1,5.1201916E-1,-4.4274914E-1,1.1039511E1,1.302172E-1,9.483237E0,1.994183E0,1.1286734E1,1.2832648E1,1.4759057E1,1.6286901E1,-0E0,5.5019927E0,6.480409E0,-0E0,4.6308837E0,-5.6062895E-1,2.6425197E0,-3.3568162E-1,-4.4603938E-1,2.9351057E-2,1.1268375E1,-0E0,2.6681488E0,-1.8197283E-2,8.83386E0,1.377999E1,7.019515E0,1.1427328E-1,1.136632E1,8.031701E-2,1.270291E1,1.5529068E1,1.4779808E1,-0E0,-0E0,1.6294777E1],"categories":[],"categories_nodes":[],"categories_segments":[],"categories_sizes":[],"default_left":[true,true,true,true,true,true,true,true,true,true,true,true,true,true,false,true,false,true,true,true,true,true,true,true,true,true,true,true,true,false,false,false,false,false,false,false,false,false,false,false,false,false,false,false,false,false,false,false,false,false,false,false,false,false,false],"id":2,"left_children":[1,3,5,7,9,11,13,15,17,19,21,23,25,27,-1,29,-1,31,33,35,37,39,41,43,45,47,49,51,53,-1,-1,-1,-1,-1,-1,-1,-1,-1,-1,-1,-1,-1,-1,-1,-1,-1,-1,-1,-1,-1,-1,-1,-1,-1,-1],"loss_changes":[9.338365E5,2.8525797E4,5.8909625E4,2.9313242E3,5.953485E3,1.7985375E4,4.737125E3,2.397748E3,1.7441853E3,1.1845149E3,1.7502144E3,8.298906E3,1.2600625E3,7.215625E2,0E0,8.584766E1,0E0,2.9927856E2,1.1140654E2,2.7239658E3,1.9014282E1,1.7935254E2,3.521138E1,4.557328E3,1.5055374E3,6.569922E2,7.780625E2,2.333125E2,3.06625E2,0E0,0E0,0E0,0E0,0E0,0E0,0E0,0E0,0E0,0E0,0E0,0E0,0E0,0E0,0E0,0E0,0E0,0E0,0E0,0E0,0E0,0E0,0E0,0E0,0E0,0E0],"parents":[2147483647,0,0,1,1,2,2,3,3,4,4,5,5,6,6,7,7,8,8,9,9,10,10,11,11,12,12,13,13,15,15,17,17,18,18,19,19,20,20,21,21,22,22,23,23,24,24,25,25,26,26,27,27,28,28],"right_children":[2,4,6,8,10,12,14,16,18,20,22,24,26,28,-1,30,-1,32,34,36,38,40,42,44,46,48,50,52,54,-1,-1,-1,-1,-1,-1,-1,-1,-1,-1,-1,-1,-1,-1,-1,-1,-1,-1,-1,-1,-1,-1,-1,-1,-1,-1],"split_conditions":[9.651516E0,5.086207E-1,1.7364212E1,-4.9E1,1.9090909E-1,1.2717803E1,2.1755953E1,1.85E1,4.2396313E-1,8.053613E-1,-4.9E1,-4.9E1,2.65E1,1.8141666E1,1.9064745E0,3.9545455E0,1.0428458E0,9.587413E0,3.5E0,1.5E0,5.9821427E-2,7.333333E0,6.125E-1,2.4780703E-1,2.5833333E-1,2.8481966E-1,2.0344828E-1,8E0,1.5E0,-0E0,5.501993E-1,6.4804095E-1,-0E0,4.6308836E-1,-5.6062896E-2,2.6425198E-1,-3.3568162E-2,-4.460394E-2,2.9351057E-3,1.1268376E0,-0E0,2.668149E-1,-1.8197283E-3,8.833861E-1,1.3779991E0,7.019515E-1,1.1427328E-2,1.136632E0,8.031702E-3,1.2702911E0,1.5529069E0,1.4779809E0,-0E0,-0E0,1.6294777E0],"split_indices":[3,4,3,32,14,3,3,19,4,4,32,32,19,3,0,3,0,3,30,32,13,3,4,4,4,106,4,28,20,0,0,0,0,0,0,0,0,0,0,0,0,0,0,0,0,0,0,0,0,0,0,0,0,0,0],"split_type":[0,0,0,0,0,0,0,0,0,0,0,0,0,0,0,0,0,0,0,0,0,0,0,0,0,0,0,0,0,0,0,0,0,0,0,0,0,0,0,0,0,0,0,0,0,0,0,0,0,0,0,0,0,0,0],"sum_hessian":[2.2089E4,1.2085E4,1.0004E4,9.61E2,1.1124E4,6.382E3,3.622E3,7.69E2,1.92E2,1.1043E4,8.1E1,1.923E3,4.459E3,2.965E3,6.57E2,6.45E2,1.24E2,6.8E1,1.24E2,1.494E3,9.549E3,5.9E1,2.2E1,1.757E3,1.66E2,8.65E2,3.594E3,7.36E2,2.229E3,2E0,6.43E2,6.3E1,5E0,3E0,1.21E2,4.28E2,1.066E3,9.504E3,4.5E1,5.8E1,1E0,4E0,1.8E1,1.531E3,2.26E2,4.3E1,1.23E2,8.58E2,7E0,3.438E3,1.56E2,7.35E2,1E0,1E0,2.228E3],"tree_param":{"num_deleted":"0","num_feature":"110","num_nodes":"55","size_leaf_vector":"0"}},{"base_weights":[5.508337E0,1.824206E-1,1.1940473E1,3.3438518E0,-3.0698934E-1,1.0324527E1,1.4919637E1,-4.2446026E-1,5.4549975E0,-3.9752927E-1,6.399019E-2,7.962099E0,1.1314894E1,1.3824864E1,1.6671629E1,-4.5383692E-1,-0E0,4.2436256E0,9.765776E0,-8.0711955E-1,-3.8082996E-1,7.1469955E0,-1.05934836E-1,8.536769E0,1.8050244E0,1.0351208E1,1.21036E1,1.2265271E1,1.3991885E1,1.5850589E1,1.7604345E1,-3.2843506E-1,1.4675941E0,5.0822234E0,-4.4799444E-1,-0E0,9.91422E0,-3.9057353E-1,-1.962428E-1,7.429886E-1,-3.5838053E-1,7.7798576E0,1.1882576E1,6.8232484E-2,9.722578E0,1.0378084E1,-0E0,1.1810273E1,1.3315136E1,-0E0,1.7635128E1],"categories":[],"categories_nodes":[],"categories_segments":[],"categories_sizes":[],"default_left":[true,true,true,true,true,true,true,true,true,true,true,true,true,true,true,false,true,true,true,false,true,false,true,true,true,true,true,false,false,false,true,false,false,false,false,false,false,false,false,false,false,false,false,false,false,false,false,false,false,false,false],"id":3,"left_children":[1,3,5,7,9,11,13,15,17,19,21,23,25,27,29,-1,31,33,35,-1,37,-1,39,41,43,45,47,-1,-1,-1,49,-1,-1,-1,-1,-1,-1,-1,-1,-1,-1,-1,-1,-1,-1,-1,-1,-1,-1,-1,-1],"loss_changes":[7.5661425E5,1.8731287E4,4.775925E4,1.2964326E4,3.548305E2,1.490625E4,6.2045E3,9.455299E0,5.259742E3,4.5493896E1,2.5168423E3,6.688828E3,3.1229375E3,1.315625E2,4.14875E2,0E0,1.9495922E1,3.2630088E3,3.6535352E2,0E0,8.673706E0,0E0,4.2160538E2,4.1630312E3,2.1978696E3,6.141875E2,4.803125E2,0E0,0E0,0E0,3.5503125E2,0E0,0E0,0E0,0E0,0E0,0E0,0E0,0E0,0E0,0E0,0E0,0E0,0E0,0E0,0E0,0E0,0E0,0E0,0E0,0E0],"parents":[2147483647,0,0,1,1,2,2,3,3,4,4,5,5,6,6,7,7,8,8,9,9,10,10,11,11,12,12,13,13,14,14,16,16,17,17,18,18,20,20,22,22,23,23,24,24,25,25,26,26,30,30],"right_children":[2,4,6,8,10,12,14,16,18,20,22,24,26,28,30,-1,32,34,36,-1,38,-1,40,42,44,46,48,-1,-1,-1,50,-1,-1,-1,-1,-1,-1,-1,-1,-1,-1,-1,-1,-1,-1,-1,-1,-1,-1,-1,-1],"split_conditions":[9.651516E0,-4.95E1,1.751923E1,2.2169232E0,2.3490567E0,1.2717803E1,1.95E1,1.80625E0,1.85E1,1.5E0,2.3610635E0,-4.9E1,1.45E1,1.65E1,2.15E1,-4.538369E-2,4.5E0,1.9E1,7.5E0,-8.071195E-2,3.65E1,7.1469957E-1,1.95E1,1.25E1,2E1,2.7123516E1,1.65E1,1.2265271E0,1.3991885E0,1.5850589E0,1.5E0,-3.2843508E-2,1.4675942E-1,5.0822234E-1,-4.4799443E-2,-0E0,9.91422E-1,-3.9057355E-2,-1.962428E-2,7.429886E-2,-3.5838053E-2,7.7798575E-1,1.1882576E0,6.8232487E-3,9.722578E-1,1.0378084E0,-0E0,1.1810273E0,1.3315136E0,-0E0,1.7635128E0],"split_indices":[3,32,3,3,3,3,25,3,19,0,3,32,25,25,25,0,95,25,25,0,19,0,43,25,0,108,25,0,0,0,97,0,0,0,0,0,0,0,0,0,0,0,0,0,0,0,0,0,0,0,0],"split_type":[0,0,0,0,0,0,0,0,0,0,0,0,0,0,0,0,0,0,0,0,0,0,0,0,0,0,0,0,0,0,0,0,0,0,0,0,0,0,0,0,0,0,0,0,0,0,0,0,0,0,0],"sum_hessian":[2.2089E4,1.2085E4,1.0004E4,1.622E3,1.0463E4,6.491E3,3.513E3,5.81E2,1.041E3,8.432E3,2.031E3,1.923E3,4.568E3,2.171E3,1.342E3,5.54E2,2.7E1,8.16E2,2.25E2,3.05E2,8.127E3,4.8E1,1.983E3,1.757E3,1.66E2,2.068E3,2.5E3,2.23E2,1.948E3,7.29E2,6.13E2,2E1,7E0,6.94E2,1.22E2,3E0,2.22E2,7.667E3,4.6E2,4.45E2,1.538E3,1.438E3,3.19E2,1.38E2,2.8E1,2.063E3,5E0,2.028E3,4.72E2,1E0,6.12E2],"tree_param":{"num_deleted":"0","num_feature":"110","num_nodes":"51","size_leaf_vector":"0"}},{"base_weights":[4.958487E0,1.6407564E-1,1.0748622E1,4.4132576E0,-2.0247513E-1,8.763168E0,1.2726759E1,5.090699E0,1.5439465E0,7.460864E-1,-3.6003852E-1,7.0990458E0,9.699876E0,1.1209174E1,1.3763046E1,4.1725264E0,7.6080513E0,5.2680836E0,-3.400282E-1,4.053951E0,-0E0,-3.698386E-1,-2.1627817E-1,7.4150867E0,1.9121276E0,9.720223E0,-0E0,1.1561234E1,9.881289E-1,1.3000845E1,1.5496329E1,2.1114573E0,4.2881446E0,6.292082E0,8.825918E0,5.859733E0,-0E0,4.7499204E0,-5.8812547E-1,6.980661E0,-5.704692E-1,1.9458904E0,-2.602015E-1,-2.5734913E-1,5.763447E0,6.727843E0,8.966602E0,6.5836496E0,-6.110824E-1,8.283133E0,9.925888E0,-0E0,1.1594894E1,1.787942E1,-1.549709E-1,1.2719838E1,1.3970947E1,1.5516166E1,-0E0],"categories":[],"categories_nodes":[],"categories_segments":[],"categories_sizes":[],"default_left":[true,true,true,true,true,true,true,true,true,true,true,true,true,true,true,true,true,true,true,true,true,false,true,true,true,true,false,true,true,true,true,false,false,false,false,false,false,false,false,false,false,false,false,false,false,false,false,false,false,false,false,false,false,false,false,false,false,false,false],"id":4,"left_children":[1,3,5,7,9,11,13,15,17,19,21,23,25,27,29,31,33,35,37,39,41,-1,43,45,47,49,-1,51,53,55,57,-1,-1,-1,-1,-1,-1,-1,-1,-1,-1,-1,-1,-1,-1,-1,-1,-1,-1,-1,-1,-1,-1,-1,-1,-1,-1,-1,-1],"loss_changes":[6.131139E5,1.8867441E4,3.8968125E4,1.7957188E3,1.6591348E3,7.5555938E3,7.47025E3,1.6417578E3,1.3701136E3,3.8887378E3,7.5134277E0,2.8563594E3,6.9440625E2,7.2074688E3,3.4333125E3,6.349414E1,1.1862988E2,2.562627E2,1.1776308E2,3.9930425E3,6.5245905E2,0E0,1.1268871E2,1.5975234E3,1.3249825E3,6.7734375E2,0E0,8.648125E2,1.5316055E3,1.1996875E2,3.110625E2,0E0,0E0,0E0,0E0,0E0,0E0,0E0,0E0,0E0,0E0,0E0,0E0,0E0,0E0,0E0,0E0,0E0,0E0,0E0,0E0,0E0,0E0,0E0,0E0,0E0,0E0,0E0,0E0],"parents":[2147483647,0,0,1,1,2,2,3,3,4,4,5,5,6,6,7,7,8,8,9,9,10,10,11,11,12,12,13,13,14,14,15,15,16,16,17,17,18,18,19,19,20,20,22,22,23,23,24,24,25,25,27,27,28,28,29,29,30,30],"right_children":[2,4,6,8,10,12,14,16,18,20,22,24,26,28,30,32,34,36,38,40,42,-1,44,46,48,50,-1,52,54,56,58,-1,-1,-1,-1,-1,-1,-1,-1,-1,-1,-1,-1,-1,-1,-1,-1,-1,-1,-1,-1,-1,-1,-1,-1,-1,-1,-1,-1],"split_conditions":[9.651516E0,5.086207E-1,1.55E1,7.5E0,8.053613E-1,1.2854497E1,1.757551E1,7.5E0,4.2396313E-1,-4.95E1,3.35E1,1.45E1,3.137255E-1,2.15E1,2.05E1,5.5E0,8.5E0,9.587413E0,6.5E0,2E1,5.5E0,-3.698386E-2,2.3E1,9.5E0,1.25E1,1.25E1,-0E0,2.5E0,5E0,1.95E1,3.764706E-1,2.1114574E-1,4.2881447E-1,6.292082E-1,8.8259184E-1,5.859733E-1,-0E0,4.7499204E-1,-5.8812547E-2,6.980661E-1,-5.704692E-2,1.9458905E-1,-2.6020152E-2,-2.5734914E-2,5.7634467E-1,6.7278427E-1,8.9666027E-1,6.5836495E-1,-6.110824E-2,8.283133E-1,9.925888E-1,-0E0,1.1594895E0,1.7879419E0,-1.549709E-2,1.2719839E0,1.3970947E0,1.5516165E0,-0E0],"split_indices":[3,4,25,31,4,3,3,25,4,31,31,31,4,31,25,25,94,3,25,25,94,0,25,94,25,25,0,24,30,25,4,0,0,0,0,0,0,0,0,0,0,0,0,0,0,0,0,0,0,0,0,0,0,0,0,0,0,0,0],"split_type":[0,0,0,0,0,0,0,0,0,0,0,0,0,0,0,0,0,0,0,0,0,0,0,0,0,0,0,0,0,0,0,0,0,0,0,0,0,0,0,0,0,0,0,0,0,0,0,0,0,0,0,0,0,0,0,0,0,0,0],"sum_hessian":[2.2089E4,1.2085E4,1.0004E4,9.61E2,1.1124E4,4.998E3,5.006E3,7.74E2,1.87E2,1.575E3,9.549E3,1.807E3,3.191E3,2.04E3,2.966E3,5.72E2,2.02E2,6.4E1,1.23E2,2.89E2,1.286E3,8.873E3,6.76E2,1.701E3,1.06E2,3.185E3,6E0,1.971E3,6.9E1,2.07E3,8.96E2,3.6E1,5.36E2,1.04E2,9.8E1,5.9E1,5E0,3E0,1.2E2,1.78E2,1.11E2,1.51E2,1.135E3,6.74E2,2E0,1.187E3,5.14E2,3.8E1,6.8E1,4.1E2,2.775E3,5E0,1.966E3,4E0,6.5E1,1.624E3,4.46E2,8.95E2,1E0],"tree_param":{"num_deleted":"0","num_feature":"110","num_nodes":"59","size_leaf_vector":"0"}},{"base_weights":[4.4637237E0,1.4821094E-1,9.6754E0,3.9784164E0,-1.8210869E-1,8.232056E0,1.1883302E1,4.1864E0,-2.2875066E-1,6.71357E-1,-3.239809E-1,6.456212E0,9.054338E0,1.1016876E1,1.3460384E1,3.6233723E0,5.042525E0,1.9859378E0,2.8351513E-1,-3.265781E-1,1.5646685E0,6.5732994E0,1.1988685E0,9.092165E0,-2.0100448E0,1.0026118E1,1.12787695E1,1.2807706E1,1.44210415E1,3.7009985E0,-0E0,-6.1222345E-1,5.376049E0,-0E0,4.31603E0,1.4752871E-1,5.7296658E0,-3.3662727E-1,-2.3447765E-1,3.5128226E0,-0E0,6.392945E0,1.0753406E1,9.071799E0,-0E0,8.607199E0,1.0167052E1,-3.9370668E0,6.5206213E0,-0E0,1.44524975E1],"categories":[],"categories_nodes":[],"categories_segments":[],"categories_sizes":[],"default_left":[true,true,true,true,true,true,true,true,false,true,true,true,true,true,true,true,true,true,true,true,true,true,true,true,true,false,false,false,true,false,false,false,false,false,false,false,false,false,false,false,false,false,false,false,false,false,false,false,false,false,false],"id":5,"left_children":[1,3,5,7,9,11,13,15,-1,17,19,21,23,25,27,29,31,33,35,37,39,41,43,45,47,-1,-1,-1,49,-1,-1,-1,-1,-1,-1,-1,-1,-1,-1,-1,-1,-1,-1,-1,-1,-1,-1,-1,-1,-1,-1],"loss_changes":[4.967277E5,1.5329798E4,3.1584625E4,8.8230566E2,1.3437928E3,8.629656E3,5.0043125E3,3.3804883E2,0E0,7.8026526E2,3.4975037E1,1.09875E3,1.8189062E3,3.3784375E2,4.1579688E2,1.705669E2,7.2045703E2,1.6069124E3,8.468802E2,3.0422974E0,2.9774195E1,1.1771328E3,5.1140497E2,1.8724062E3,2.2997954E2,0E0,0E0,0E0,2.897422E2,0E0,0E0,0E0,0E0,0E0,0E0,0E0,0E0,0E0,0E0,0E0,0E0,0E0,0E0,0E0,0E0,0E0,0E0,0E0,0E0,0E0,0E0],"parents":[2147483647,0,0,1,1,2,2,3,3,4,4,5,5,6,6,7,7,9,9,10,10,11,11,12,12,13,13,14,14,15,15,16,16,17,17,18,18,19,19,20,20,21,21,22,22,23,23,24,24,28,28],"right_children":[2,4,6,8,10,12,14,16,-1,18,20,22,24,26,28,30,32,34,36,38,40,42,44,46,48,-1,-1,-1,50,-1,-1,-1,-1,-1,-1,-1,-1,-1,-1,-1,-1,-1,-1,-1,-1,-1,-1,-1,-1,-1,-1],"split_conditions":[9.651516E0,5.086207E-1,1.680909E1,1.15E1,8.053613E-1,1.2717803E1,1.65E1,7.434535E0,-2.2875067E-2,3.1625E0,7.1794875E-2,1.65E1,1.6795834E1,1.45E1,1.85E1,7.5E0,5.5E0,1.5E1,6.828704E-2,3.15E1,2.1363635E0,1.15E1,1.1055555E1,1.35E1,3E-1,1.0026119E0,1.127877E0,1.2807707E0,1.5E0,3.7009987E-1,-0E0,-6.1222345E-2,5.376049E-1,-0E0,4.31603E-1,1.4752871E-2,5.729666E-1,-3.366273E-2,-2.3447765E-2,3.5128227E-1,-0E0,6.392945E-1,1.0753406E0,9.0717995E-1,-0E0,8.6071986E-1,1.0167053E0,-3.9370668E-1,6.520621E-1,-0E0,1.4452498E0],"split_indices":[3,4,3,65,4,3,94,3,0,3,9,94,3,94,94,65,22,27,10,27,3,65,3,94,4,0,0,0,93,0,0,0,0,0,0,0,0,0,0,0,0,0,0,0,0,0,0,0,0,0,0],"split_type":[0,0,0,0,0,0,0,0,0,0,0,0,0,0,0,0,0,0,0,0,0,0,0,0,0,0,0,0,0,0,0,0,0,0,0,0,0,0,0,0,0,0,0,0,0,0,0,0,0,0,0],"sum_hessian":[2.2089E4,1.2085E4,1.0004E4,9.61E2,1.1124E4,6.055E3,3.949E3,9.18E2,4.3E1,1.575E3,9.549E3,1.923E3,4.132E3,2.558E3,1.391E3,5.64E2,3.54E2,3.52E2,1.223E3,9.542E3,7E0,1.879E3,4.4E1,4.119E3,1.3E1,5.51E2,2.007E3,8.43E2,5.48E2,5.53E2,1.1E1,1.8E1,3.36E2,1.92E2,1.6E2,1.196E3,2.7E1,8.503E3,1.039E3,3E0,4E0,1.806E3,7.3E1,6E0,3.8E1,2.851E3,1.268E3,1.2E1,1E0,1E0,5.47E2],"tree_param":{"num_deleted":"0","num_feature":"110","num_nodes":"51","size_leaf_vector":"0"}},{"base_weights":[4.018286E0,8.371594E0,-8.006141E-2,5.742953E0,9.449642E0,2.097019E0,-2.2369623E-1,5.3405433E0,9.819171E0,8.725417E0,1.0982547E1,1.211598E0,4.016128E0,-2.3483673E-1,7.045445E0,3.8784635E0,5.859227E0,8.24944E0,1.1636156E1,9.179005E0,7.786894E0,1.1046568E1,-9.910522E-1,7.7937484E-1,1.0700207E1,6.4056754E0,1.2620461E0,-2.7875295E-1,1.4785092E0,-0E0,8.399287E0,4.842433E0,3.3610098E0,6.0447545E0,2.3007433E0,-0E0,8.530702E0,-0E0,1.1754621E1,9.84048E0,8.795261E0,7.9385104E0,3.1098852E0,1.0799715E1,1.3168426E1,9.275827E0,3.9411315E-1,4.0685496E0,9.326129E0,7.6218176E0,2.4096917E-1,5.844592E-4,-2.9577836E-1,5.803176E0,3.529797E-1],"categories":[],"categories_nodes":[],"categories_segments":[],"categories_sizes":[],"default_left":[true,true,true,true,true,true,true,true,true,true,true,true,true,true,true,true,true,true,true,true,true,true,false,true,false,true,true,true,true,false,false,false,false,false,false,false,false,false,false,false,false,false,false,false,false,false,false,false,false,false,false,false,false,false,false],"id":6,"left_children":[1,3,5,7,9,11,13,15,17,19,21,23,25,27,29,31,33,35,37,39,41,43,-1,45,-1,47,49,51,53,-1,-1,-1,-1,-1,-1,-1,-1,-1,-1,-1,-1,-1,-1,-1,-1,-1,-1,-1,-1,-1,-1,-1,-1,-1,-1],"loss_changes":[3.941994E5,3.0152375E4,3.539688E3,4.915367E3,8.1365625E3,1.1323103E3,7.9835376E2,2.0374297E3,4.9520508E2,1.9580312E3,1.97275E3,1.861844E3,1.3433176E3,7.908887E2,1.7254987E2,2.7729297E2,1.2844219E3,4.4044727E2,2.0266016E2,6.0790625E2,1.0681797E3,8.835625E2,0E0,1.4217561E3,0E0,6.062124E2,5.9489233E2,5.2436523E1,1.2068181E3,0E0,0E0,0E0,0E0,0E0,0E0,0E0,0E0,0E0,0E0,0E0,0E0,0E0,0E0,0E0,0E0,0E0,0E0,0E0,0E0,0E0,0E0,0E0,0E0,0E0,0E0],"parents":[2147483647,0,0,1,1,2,2,3,3,4,4,5,5,6,6,7,7,8,8,9,9,10,10,11,11,12,12,13,13,14,14,15,15,16,16,17,17,18,18,19,19,20,20,21,21,23,23,25,25,26,26,27,27,28,28],"right_children":[2,4,6,8,10,12,14,16,18,20,22,24,26,28,30,32,34,36,38,40,42,44,-1,46,-1,48,50,52,54,-1,-1,-1,-1,-1,-1,-1,-1,-1,-1,-1,-1,-1,-1,-1,-1,-1,-1,-1,-1,-1,-1,-1,-1,-1,-1],"split_conditions":[4.3720323E-1,2.15E1,6.691542E-1,8.5E0,3.05E1,8.5E0,1.8333334E-1,1.35E1,2.65E1,9.5E0,1.2142858E-1,3.75E-1,9.5E0,1.7246462E-2,5.5E0,2.7863778E-2,2.654088E-1,3.5E0,1.5E0,8.5E0,3.0952382E-1,1.15E1,-9.9105224E-2,-2.7336895E-1,1.0700207E0,2.25E1,8.5E0,7.7459675E-1,5.5E0,-0E0,8.3992875E-1,4.842433E-1,3.36101E-1,6.0447544E-1,2.3007433E-1,-0E0,8.530702E-1,-0E0,1.1754621E0,9.84048E-1,8.7952614E-1,7.938511E-1,3.1098852E-1,1.0799716E0,1.3168426E0,9.2758274E-1,3.9411318E-2,4.0685496E-1,9.326129E-1,7.6218176E-1,2.4096917E-2,5.8445923E-5,-2.9577836E-2,5.803176E-1,3.529797E-2],"split_indices":[4,92,4,21,92,95,8,92,21,95,8,12,99,9,18,4,4,24,24,95,4,21,0,106,0,96,26,4,21,0,0,0,0,0,0,0,0,0,0,0,0,0,0,0,0,0,0,0,0,0,0,0,0,0,0],"split_type":[0,0,0,0,0,0,0,0,0,0,0,0,0,0,0,0,0,0,0,0,0,0,0,0,0,0,0,0,0,0,0,0,0,0,0,0,0,0,0,0,0,0,0,0,0,0,0,0,0,0,0,0,0,0,0],"sum_hessian":[2.2089E4,1.0712E4,1.1377E4,3.12E3,7.592E3,6.99E2,1.0678E4,2.844E3,2.76E2,5.165E3,2.427E3,4.83E2,2.16E2,1.0664E4,1.4E1,7.52E2,2.092E3,1.54E2,1.22E2,3.469E3,1.696E3,2.415E3,1.2E1,4.64E2,1.9E1,1.13E2,1.03E2,1.0404E4,2.6E2,2E0,1.2E1,2.53E2,4.99E2,1.985E3,1.07E2,4E0,1.5E2,1E0,1.21E2,1.255E3,2.214E3,1.64E3,5.6E1,2.173E3,2.42E2,1.8E1,4.46E2,6.6E1,4.7E1,1.2E1,9.1E1,5.64E2,9.84E3,5.1E1,2.09E2],"tree_param":{"num_deleted":"0","num_feature":"110","num_nodes":"55","size_leaf_vector":"0"}},{"base_weights":[3.6179497E0,1.1886304E-1,7.8434715E0,3.2081347E0,-1.4738397E-1,6.5565505E0,9.688331E0,3.753789E0,8.88505E-1,9.389934E-1,-2.3866308E-1,5.2195363E0,7.347419E0,9.789407E0,1.2698308E-1,3.1325204E0,6.50195E0,3.8667593E0,-5.99197E-1,-3.4995866E-1,3.6758204E0,-4.1453123E-2,-2.613156E-1,5.3116593E0,-1.518502E0,7.430079E0,2.298756E0,9.004431E0,1.0877698E1,-2.0154102E0,1.3473606E1,2.7003198E0,3.8832545E0,4.355703E0,-4.7008196E-4,3.825195E0,-8.231504E-1,-2.8269058E-1,-9.0585417E-1,6.857655E0,-4.9565578E-1,-2.9686892E-1,5.264995E0,-2.6374775E-1,-0E0,4.410616E0,5.8460345E0,-2.1728854E0,3.4021177E0,6.833974E0,7.722412E0,-1.4556313E0,1.2321148E1,9.046743E0,-0E0,5.9786572E0,1.1001849E1,6.1542606E0,-2.6555138E0],"categories":[],"categories_nodes":[],"categories_segments":[],"categories_sizes":[],"default_left":[true,true,true,true,true,true,true,true,true,true,true,true,true,true,true,true,false,true,true,true,true,true,true,true,true,true,true,true,true,true,false,false,false,false,false,false,false,false,false,false,false,false,false,false,false,false,false,false,false,false,false,false,false,false,false,false,false,false,false],"id":7,"left_children":[1,3,5,7,9,11,13,15,17,19,21,23,25,27,29,31,-1,33,35,37,39,41,43,45,47,49,51,53,55,57,-1,-1,-1,-1,-1,-1,-1,-1,-1,-1,-1,-1,-1,-1,-1,-1,-1,-1,-1,-1,-1,-1,-1,-1,-1,-1,-1,-1,-1],"loss_changes":[3.265304E5,9.971928E3,2.352775E4,1.1678613E3,1.0964153E3,6.074672E3,3.8677188E3,1.2064805E3,8.679745E2,3.0471484E3,4.284967E1,1.4122227E3,1.4297188E3,3.1733438E3,1.4284541E3,1.3036426E2,0E0,1.6646014E2,9.599466E1,9.509613E0,3.7303523E3,1.4495444E3,5.655884E0,9.179375E2,8.847927E1,4.35625E2,2.4971504E3,9.106719E2,7.9353125E2,1.8530319E2,0E0,0E0,0E0,0E0,0E0,0E0,0E0,0E0,0E0,0E0,0E0,0E0,0E0,0E0,0E0,0E0,0E0,0E0,0E0,0E0,0E0,0E0,0E0,0E0,0E0,0E0,0E0,0E0,0E0],"parents":[2147483647,0,0,1,1,2,2,3,3,4,4,5,5,6,6,7,7,8,8,9,9,10,10,11,11,12,12,13,13,14,14,15,15,17,17,18,18,19,19,20,20,21,21,22,22,23,23,24,24,25,25,26,26,27,27,28,28,29,29],"right_children":[2,4,6,8,10,12,14,16,18,20,22,24,26,28,30,32,-1,34,36,38,40,42,44,46,48,50,52,54,56,58,-1,-1,-1,-1,-1,-1,-1,-1,-1,-1,-1,-1,-1,-1,-1,-1,-1,-1,-1,-1,-1,-1,-1,-1,-1,-1,-1,-1,-1],"split_conditions":[9.651516E0,5.086207E-1,1.75E1,7.5E0,-4.95E1,1.45E1,2.65E1,9.5E0,4.2396313E-1,2.0945814E0,7.9277813E-1,2.7096438E-1,-4.2E1,2.05E1,3.55E1,7.5E0,6.50195E-1,9.587413E0,6.5E0,1.3721805E-2,2.1E1,7.920598E-1,3.286638E-2,1.15E1,3.65E1,1.55E1,1.3768116E1,2.15E1,1.2661616E1,1.0549999E1,1.3473606E0,2.70032E-1,3.8832545E-1,4.355703E-1,-4.7008198E-5,3.825195E-1,-8.231504E-2,-2.8269058E-2,-9.058542E-2,6.857655E-1,-4.956558E-2,-2.9686892E-2,5.264995E-1,-2.6374776E-2,-0E0,4.410616E-1,5.846035E-1,-2.1728854E-1,3.4021178E-1,6.833974E-1,7.7224123E-1,-1.4556313E-1,1.2321148E0,9.0467435E-1,-0E0,5.9786576E-1,1.1001849E0,6.1542606E-1,-2.655514E-1],"split_indices":[3,4,29,31,31,29,31,29,4,3,4,4,31,29,19,29,0,3,29,7,29,4,7,29,19,29,3,31,3,3,0,0,0,0,0,0,0,0,0,0,0,0,0,0,0,0,0,0,0,0,0,0,0,0,0,0,0,0,0],"split_type":[0,0,0,0,0,0,0,0,0,0,0,0,0,0,0,0,0,0,0,0,0,0,0,0,0,0,0,0,0,0,0,0,0,0,0,0,0,0,0,0,0,0,0,0,0,0,0,0,0,0,0,0,0,0,0,0,0,0,0],"sum_hessian":[2.2089E4,1.2085E4,1.0004E4,9.61E2,1.1124E4,5.899E3,4.105E3,7.74E2,1.87E2,8.53E2,1.0271E4,2.2E3,3.699E3,4.061E3,4.4E1,6.36E2,1.38E2,6.4E1,1.23E2,5.78E2,2.75E2,1.104E3,9.167E3,2.172E3,2.8E1,3.637E3,6.2E1,2.37E3,1.691E3,3.8E1,6E0,4.15E2,2.21E2,5.9E1,5E0,3E0,1.2E2,5.33E2,4.5E1,1.57E2,1.18E2,1.056E3,4.8E1,9.08E3,8.7E1,8.19E2,1.353E3,2.7E1,1E0,1.216E3,2.421E3,4.5E1,1.7E1,2.359E3,1.1E1,4.5E1,1.646E3,1E0,3.7E1],"tree_param":{"num_deleted":"0","num_feature":"110","num_nodes":"59","size_leaf_vector":"0"}},{"base_weights":[3.256964E0,1.07139505E-1,7.0606146E0,-1.4947587E-1,1.8935989E0,5.716037E0,8.399636E0,-1.5920636E-1,6.9909544E0,6.1627996E-1,2.6833105E0,4.6285267E0,6.3270965E0,7.4107604E0,9.106256E0,-2.0525382E-1,1.1827874E0,4.1059E-1,4.5044837E0,3.1386843E0,1.3305835E0,4.665986E0,-1.0060729E0,-3.6888897E-1,6.340855E0,7.4394565E0,-0E0,8.554782E0,1.0345115E1,-2.2138129E-1,7.714572E-1,2.666718E0,3.1692111E-1,-9.031866E-2,1.4127792E0,3.2435405E0,-4.23898E-1,9.821423E-1,7.681147E0,3.706218E0,4.9972863E0,5.2873187E0,6.4908957E0,5.704636E0,7.5741E0,3.202837E0,-2.9560707E0,8.360598E0,9.240556E0,-0E0,1.036123E1],"categories":[],"categories_nodes":[],"categories_segments":[],"categories_sizes":[],"default_left":[true,true,true,true,true,true,true,true,false,true,true,true,true,true,true,true,true,true,false,true,true,true,false,false,true,true,true,true,true,false,false,false,false,false,false,false,false,false,false,false,false,false,false,false,false,false,false,false,false,false,false],"id":8,"left_children":[1,3,5,7,9,11,13,15,-1,17,19,21,23,25,27,29,31,33,-1,35,37,39,-1,-1,41,43,45,47,49,-1,-1,-1,-1,-1,-1,-1,-1,-1,-1,-1,-1,-1,-1,-1,-1,-1,-1,-1,-1,-1,-1],"loss_changes":[2.6458412E5,5.5583447E3,1.7824031E4,6.667809E2,1.5016211E3,3.1831562E3,3.2660312E3,6.425327E2,0E0,4.192613E2,5.277036E2,4.2290625E2,3.561328E2,5.06625E2,1.7105938E3,1.5549667E2,4.1003424E2,2.9547913E2,0E0,2.888213E2,4.435329E2,4.6615625E2,0E0,0E0,3.516875E2,3.124297E2,8.320461E1,1.640625E1,1.8828906E2,0E0,0E0,0E0,0E0,0E0,0E0,0E0,0E0,0E0,0E0,0E0,0E0,0E0,0E0,0E0,0E0,0E0,0E0,0E0,0E0,0E0,0E0],"parents":[2147483647,0,0,1,1,2,2,3,3,4,4,5,5,6,6,7,7,9,9,10,10,11,11,12,12,13,13,14,14,15,15,16,16,17,17,19,19,20,20,21,21,24,24,25,25,26,26,27,27,28,28],"right_children":[2,4,6,8,10,12,14,16,-1,18,20,22,24,26,28,30,32,34,-1,36,38,40,-1,-1,42,44,46,48,50,-1,-1,-1,-1,-1,-1,-1,-1,-1,-1,-1,-1,-1,-1,-1,-1,-1,-1,-1,-1,-1,-1],"split_conditions":[9.651516E0,4.638587E0,1.55E1,1.8333334E-1,6.5E0,1.2854497E1,1.7759615E1,1.428863E-2,6.990954E-1,2.735043E-1,1.25E1,5.2380955E-1,-6.9609966E0,5.304679E1,2.05E1,1.6904762E-1,-2.1794788E-12,5.5E0,4.5044836E-1,3.4285715E-1,9.472222E0,9.5E0,-1.0060729E-1,-3.6888897E-2,1.25E1,1.2722222E1,3.5E0,1.95E1,1.5E0,-2.213813E-2,7.714572E-2,2.666718E-1,3.1692114E-2,-9.031866E-3,1.4127792E-1,3.2435405E-1,-4.2389803E-2,9.821423E-2,7.6811475E-1,3.706218E-1,4.9972865E-1,5.287319E-1,6.490896E-1,5.704636E-1,7.5741E-1,3.202837E-1,-2.9560706E-1,8.3605975E-1,9.240556E-1,-0E0,1.036123E0],"split_indices":[3,3,25,8,30,3,3,9,0,7,25,12,107,108,25,6,107,15,0,12,3,25,0,0,25,3,30,25,24,0,0,0,0,0,0,0,0,0,0,0,0,0,0,0,0,0,0,0,0,0,0],"split_type":[0,0,0,0,0,0,0,0,0,0,0,0,0,0,0,0,0,0,0,0,0,0,0,0,0,0,0,0,0,0,0,0,0,0,0,0,0,0,0,0,0,0,0,0,0,0,0,0,0,0,0],"sum_hessian":[2.2089E4,1.2085E4,1.0004E4,1.0563E4,1.522E3,4.998E3,5.006E3,1.0551E4,1.2E1,5.87E2,9.35E2,1.807E3,3.191E3,2.097E3,2.909E3,1.0209E4,3.42E2,5.61E2,2.6E1,6.93E2,2.42E2,1.797E3,1E1,5E0,3.186E3,2.09E3,7E0,2.024E3,8.85E2,1.0054E4,1.55E2,1.21E2,2.21E2,3.68E2,1.93E2,6.76E2,1.7E1,2.32E2,1E1,4.72E2,1.325E3,4.1E2,2.776E3,1.59E2,1.931E3,2E0,5E0,1.599E3,4.25E2,1E0,8.84E2],"tree_param":{"num_deleted":"0","num_feature":"110","num_nodes":"51","size_leaf_vector":"0"}},{"base_weights":[2.9321935E0,7.674819E-1,5.8932147E0,1.4198995E-1,1.9775419E0,3.8267872E0,6.7160378E0,6.200835E-2,2.3656993E0,1.5497978E-1,3.998954E0,2.5179222E0,4.465023E0,6.0073395E0,7.650681E0,1.8648623E-2,2.7168329E0,3.3660564E0,1.2445529E-1,2.1661866E0,-6.381698E-2,2.7913563E0,8.344698E0,-4.5371082E-1,2.679333E0,1.4071074E0,4.65538E0,2.2774544E0,6.0740104E0,5.1367564E0,7.8036423E0,-1.06158115E-1,3.9436668E-1,-0E0,3.5811112E0,-0E0,3.5038645E0,-1.3583659E-1,3.2984614E0,9.74867E-1,6.3184853E0,-8.635758E-2,4.478641E0,1.5206177E0,3.988149E0,9.157734E0,-9.761732E-2,6.3858205E-1,2.8035638E0,-0E0,5.2439437E0,4.6965475E0,-1.6687194E0,7.269532E-1,6.5715785E0,-0E0,6.0987253E0,1.277152E0,7.764304E0,7.53737E0,9.414223E0],"categories":[],"categories_nodes":[],"categories_segments":[],"categories_sizes":[],"default_left":[true,true,true,true,true,true,true,true,true,true,true,true,true,true,true,true,true,true,true,true,true,true,true,false,true,true,true,true,true,true,true,false,false,false,false,false,false,false,false,false,false,false,false,false,false,false,false,false,false,false,false,false,false,false,false,false,false,false,false,false,false],"id":9,"left_children":[1,3,5,7,9,11,13,15,17,19,21,23,25,27,29,31,33,35,37,39,41,43,45,-1,47,49,51,53,55,57,59,-1,-1,-1,-1,-1,-1,-1,-1,-1,-1,-1,-1,-1,-1,-1,-1,-1,-1,-1,-1,-1,-1,-1,-1,-1,-1,-1,-1,-1,-1],"loss_changes":[1.4152042E5,9.639377E3,1.5727594E4,1.4733E3,1.5961783E4,2.1426719E3,4.232875E3,9.0891943E2,6.1038477E2,1.027986E3,1.0660301E4,4.4556738E2,9.707031E2,8.48125E2,9.322031E2,3.7843628E2,2.80904E2,1.1189673E2,1.0890793E2,1.0537043E3,1.6738675E2,2.391915E3,3.1459297E3,0E0,1.7624121E2,6.366526E2,4.7419922E2,3.9495862E2,5.6484375E2,1.6338306E3,9.1528125E2,0E0,0E0,0E0,0E0,0E0,0E0,0E0,0E0,0E0,0E0,0E0,0E0,0E0,0E0,0E0,0E0,0E0,0E0,0E0,0E0,0E0,0E0,0E0,0E0,0E0,0E0,0E0,0E0,0E0,0E0],"parents":[2147483647,0,0,1,1,2,2,3,3,4,4,5,5,6,6,7,7,8,8,9,9,10,10,11,11,12,12,13,13,14,14,15,15,16,16,17,17,18,18,19,19,20,20,21,21,22,22,24,24,25,25,26,26,27,27,28,28,29,29,30,30],"right_children":[2,4,6,8,10,12,14,16,18,20,22,24,26,28,30,32,34,36,38,40,42,44,46,-1,48,50,52,54,56,58,60,-1,-1,-1,-1,-1,-1,-1,-1,-1,-1,-1,-1,-1,-1,-1,-1,-1,-1,-1,-1,-1,-1,-1,-1,-1,-1,-1,-1,-1,-1],"split_conditions":[8.421986E-2,1.15E1,1.25E1,6.781609E-2,-6.7848146E-1,8.5E0,1.65E1,7.5E0,1.95E1,-7.0169506E0,1.85E1,4E0,5.490196E-1,-1.5578464E-1,5E-1,7.5E0,9.444014E-1,-1.3136265E-1,9.0681934E-1,2.65E1,2.6090178E-1,-6.822373E-5,6.5E0,-4.537108E-2,5.5E0,1.8813132E-1,1.22574575E-1,6.5E0,1.02631584E-1,9.5E0,1.95E1,-1.0615812E-2,3.943667E-2,-0E0,3.581111E-1,-0E0,3.5038647E-1,-1.3583659E-2,3.2984614E-1,9.74867E-2,6.318485E-1,-8.635758E-3,4.4786412E-1,1.5206178E-1,3.988149E-1,9.157734E-1,-9.761732E-3,6.38582E-2,2.8035638E-1,-0E0,5.243944E-1,4.6965477E-1,-1.6687195E-1,7.269532E-2,6.5715784E-1,-0E0,6.098725E-1,1.277152E-1,7.764304E-1,7.5373703E-1,9.414223E-1],"split_indices":[14,98,98,14,104,98,98,93,19,109,98,99,104,104,17,98,104,104,104,19,106,100,15,0,98,14,106,0,14,0,98,0,0,0,0,0,0,0,0,0,0,0,0,0,0,0,0,0,0,0,0,0,0,0,0,0,0,0,0,0,0],"split_type":[0,0,0,0,0,0,0,0,0,0,0,0,0,0,0,0,0,0,0,0,0,0,0,0,0,0,0,0,0,0,0,0,0,0,0,0,0,0,0,0,0,0,0,0,0,0,0,0,0,0,0,0,0,0,0,0,0,0,0,0,0],"sum_hessian":[2.2089E4,1.2763E4,9.326E3,8.42E3,4.343E3,2.661E3,6.665E3,8.133E3,2.87E2,2.287E3,2.056E3,8.79E2,1.782E3,3.801E3,2.864E3,8.007E3,1.26E2,1.95E2,9.2E1,2.28E2,2.059E3,1.612E3,4.44E2,4.2E1,8.37E2,1.08E2,1.674E3,7E1,3.731E3,1.7E2,2.694E3,5.991E3,2.016E3,3.2E1,9.4E1,6E0,1.89E2,8.3E1,9E0,1.8E2,4.8E1,2.052E3,7E0,7.87E2,8.25E2,4.06E2,3.8E1,5.3E1,7.84E2,7.8E1,3E1,1.665E3,9E0,5.4E1,1.6E1,1.5E1,3.716E3,7.1E1,9.9E1,2.322E3,3.72E2],"tree_param":{"num_deleted":"0","num_feature":"110","num_nodes":"61","size_leaf_vector":"0"}}]},"name":"gbtree"},"learner_model_param":{"base_score":"5E-1","num_class":"0","num_feature":"110"},"objective":{"name":"reg:squarederror","reg_loss_param":{"scale_pos_weight":"1"}}},"version":[1,4,2]}
