{"learner":{"attributes":{},"feature_names":[" day"," trace 40 quant","competitiveness","empirical_distr_p","empirical_distr_q_0","empirical_distr_q_1","empirical_distr_q_10","empirical_distr_q_2","empirical_distr_q_3","empirical_distr_q_4","empirical_distr_q_5","empirical_distr_q_6","empirical_distr_q_7","empirical_distr_q_8","empirical_distr_q_9","my_layer_size","n_level","n_opp_level","opp_layer_size","trace 0 price","trace 0 quant","trace 1 price","trace 1 quant","trace 10 price","trace 10 quant","trace 11 price","trace 11 quant","trace 12 price","trace 12 quant","trace 13 price","trace 13 quant","trace 14 price","trace 14 quant","trace 15 price","trace 15 quant","trace 16 price","trace 16 quant","trace 17 price","trace 17 quant","trace 18 price","trace 18 quant","trace 19 price","trace 19 quant","trace 2 price","trace 2 quant","trace 20 price","trace 20 quant","trace 21 price","trace 21 quant","trace 22 price","trace 22 quant","trace 23 price","trace 23 quant","trace 24 price","trace 24 quant","trace 25 price","trace 25 quant","trace 26 price","trace 26 quant","trace 27 price","trace 27 quant","trace 28 price","trace 28 quant","trace 29 price","trace 29 quant","trace 3 price","trace 3 quant","trace 30 price","trace 30 quant","trace 31 price","trace 31 quant","trace 32 price","trace 32 quant","trace 33 price","trace 33 quant","trace 34 price","trace 34 quant","trace 35 price","trace 35 quant","trace 36 price","trace 36 quant","trace 37 price","trace 37 quant","trace 38 price","trace 38 quant","trace 39 price","trace 39 quant","trace 4 price","trace 4 quant","trace 40 price","trace 5 price","trace 5 quant","trace 6 price","trace 6 quant","trace 7 price","trace 7 quant","trace 8 price","trace 8 quant","trace 9 price","trace 9 quant","ufun_param_0","ufun_param_1","ufun_param_2","ufun_param_3","ufun_param_4","ufun_param_5","ufun_param_6","ufun_param_7","ufun_param_8","ufun_param_9"],"feature_types":["int","int","float","float","float","float","float","float","float","float","float","float","float","float","float","int","int","int","int","int","int","int","int","int","int","int","int","int","int","int","int","int","int","int","int","int","int","int","int","int","int","int","int","int","int","int","int","int","int","int","int","int","int","int","int","int","int","int","int","int","int","int","int","int","int","int","int","int","int","int","int","int","int","int","int","int","int","int","int","int","int","int","int","int","int","int","int","int","int","int","int","int","int","int","int","int","int","int","int","int","float","float","float","float","float","float","float","float","float","float"],"gradient_booster":{"model":{"gbtree_model_param":{"num_trees":"10","size_leaf_vector":"0"},"tree_info":[0,0,0,0,0,0,0,0,0,0],"trees":[{"base_weights":[1.4199197E0,5.1060433E0,2.8718576E-1,9.399528E0,1.0813187E0,1.6155203E-1,1.1816667E1,2.5108695E0,1.0186508E1,3.46247E-1,7.883721E0,3.8667142E-2,1.1316667E1,1.125E0,1.7421053E1,9.444445E0,5.394737E-1,1.1414474E1,8.198675E0,2.5706941E-2,4.92E0,4.3636365E0,1.6818182E1,-6.286443E-2,4.6190476E0,4.46875E0,1.72E1,-0E0,6E0,1.9529411E1,-0E0,1.2285714E1,-0E0,-0E0,1.65625E0,8.435374E0,-0E0,-1.966759E-1,3.137931E0,1.0583333E1,2.475E0,-0E0,4.85E0,-0E0,2.0666666E1,7.2608695E0,-1.2839824E-1,3.25E0,1.5416667E1,9.4375E0,-0E0,1.9923077E1,-0E0,9.25E0,-0E0,-0E0,2.22E1],"categories":[],"categories_nodes":[],"categories_segments":[],"categories_sizes":[],"default_left":[true,true,true,true,true,true,true,true,true,true,true,true,true,true,true,true,true,false,true,true,true,true,true,true,true,true,true,false,true,true,false,false,false,false,false,false,false,false,false,false,false,false,false,false,false,false,false,false,false,false,false,false,false,false,false,false,false],"id":0,"left_children":[1,3,5,7,9,11,13,15,17,19,21,23,25,27,29,31,33,-1,35,37,39,41,43,45,47,49,51,-1,53,55,-1,-1,-1,-1,-1,-1,-1,-1,-1,-1,-1,-1,-1,-1,-1,-1,-1,-1,-1,-1,-1,-1,-1,-1,-1,-1,-1],"loss_changes":[1.5560588E4,1.5039666E4,4.0267888E3,2.1406328E3,2.190086E3,3.772213E3,1.5925479E3,5.2383154E2,6.3298047E2,5.5590375E2,1.0671458E3,1.3507915E3,9.151074E2,9.28125E1,7.17396E2,2.5379364E2,3.2831413E1,0E0,3.099043E2,2.9925864E2,1.8939423E2,7.731134E1,7.326365E2,1.2465963E3,6.945238E2,3.9301562E2,7.2247705E2,0E0,6.3125E1,9.0883545E2,0E0,0E0,0E0,0E0,0E0,0E0,0E0,0E0,0E0,0E0,0E0,0E0,0E0,0E0,0E0,0E0,0E0,0E0,0E0,0E0,0E0,0E0,0E0,0E0,0E0,0E0,0E0],"parents":[2147483647,0,0,1,1,2,2,3,3,4,4,5,5,6,6,7,7,8,8,9,9,10,10,11,11,12,12,13,13,14,14,15,15,16,16,18,18,19,19,20,20,21,21,22,22,23,23,24,24,25,25,26,26,28,28,29,29],"right_children":[2,4,6,8,10,12,14,16,18,20,22,24,26,28,30,32,34,-1,36,38,40,42,44,46,48,50,52,-1,54,56,-1,-1,-1,-1,-1,-1,-1,-1,-1,-1,-1,-1,-1,-1,-1,-1,-1,-1,-1,-1,-1,-1,-1,-1,-1,-1,-1],"split_conditions":[1.55E1,2.5E0,1.3942307E-1,2.35E1,7.417583E-2,1.3809524E-1,4.5E0,6.5E0,2.15E1,5.6847546E-2,9.5E0,5.7189543E-2,6.5E0,2.35E1,8.3333336E-2,3.1E1,2.75E1,1.1414474E0,3.1E1,3.923077E-2,7.5E0,7.846154E-2,8.5E0,5E-1,3.125E-2,2E1,7E0,-0E0,5.5E0,1.35E1,-0E0,1.2285714E0,-0E0,-0E0,1.65625E-1,8.4353745E-1,-0E0,-1.966759E-2,3.1379312E-1,1.0583333E0,2.4749999E-1,-0E0,4.8499998E-1,-0E0,2.0666666E0,7.26087E-1,-1.2839824E-2,3.2500002E-1,1.5416667E0,9.4375E-1,-0E0,1.9923077E0,-0E0,9.25E-1,-0E0,-0E0,2.22E0],"split_indices":[71,70,8,27,8,12,0,23,53,7,55,14,22,55,12,2,0,0,19,14,20,8,20,0,12,71,2,0,15,23,0,0,0,0,0,0,0,0,0,0,0,0,0,0,0,0,0,0,0,0,0,0,0,0,0,0,0],"split_type":[0,0,0,0,0,0,0,0,0,0,0,0,0,0,0,0,0,0,0,0,0,0,0,0,0,0,0,0,0,0,0,0,0,0,0,0,0,0,0,0,0,0,0,0,0,0,0,0,0,0,0,0,0,0,0,0,0],"sum_hessian":[3.739E3,8.76E2,2.863E3,4.22E2,4.54E2,2.834E3,2.9E1,4.5E1,3.77E2,4.12E2,4.2E1,2.805E3,2.9E1,1.1E1,1.8E1,8E0,3.7E1,2.27E2,1.5E2,3.88E2,2.4E1,3.2E1,1E1,2.743E3,6.2E1,1.5E1,1.4E1,9E0,2E0,1.6E1,2E0,6E0,2E0,2.2E1,1.5E1,1.46E2,4E0,3.6E2,2.8E1,5E0,1.9E1,3E0,2.9E1,2E0,8E0,2.2E1,2.721E3,5.7E1,5E0,7E0,8E0,1.2E1,2E0,1E0,1E0,2E0,1.4E1],"tree_param":{"num_deleted":"0","num_feature":"110","num_nodes":"57","size_leaf_vector":"0"}},{"base_weights":[1.2851048E0,4.3718943E-1,4.499871E0,-8.055099E-2,4.9005632E0,9.956391E0,1.7225512E0,-2.0223127E-1,5.105255E0,6.795842E0,8.103854E-2,7.353991E-1,1.0635992E1,9.906285E-1,1.5716444E1,-2.7695012E-1,1.9428945E0,1.7965237E0,1.25858555E1,3.1787302E0,7.6205554E0,-2.2172396E-1,1.9824142E0,7.671795E0,-0E0,9.950154E0,2.3224926E1,8.553058E-1,1.9519999E1,4.0070577E0,2.04028E1,-3.284387E-1,1.772802E0,-0E0,2.4965909E0,3.289439E0,-0E0,2.7181635E0,1.8221422E1,3.5363781E0,-0E0,7.9050364E0,-0E0,-3.4385517E-1,-0E0,2.741758E0,-0E0,-0E0,1.0572924E1,5.048328E-1,4.3602586E0,9.631249E0,-0E0,2.1708422E1,-0E0],"categories":[],"categories_nodes":[],"categories_segments":[],"categories_sizes":[],"default_left":[true,true,true,true,true,true,true,true,true,true,true,true,true,true,true,true,true,true,true,true,true,true,true,false,false,true,false,true,false,true,true,false,false,false,false,false,false,false,false,false,false,false,false,false,false,false,false,false,false,false,false,false,false,false,false],"id":1,"left_children":[1,3,5,7,9,11,13,15,17,19,21,23,25,27,29,31,33,35,37,39,41,43,45,-1,-1,47,-1,49,-1,51,53,-1,-1,-1,-1,-1,-1,-1,-1,-1,-1,-1,-1,-1,-1,-1,-1,-1,-1,-1,-1,-1,-1,-1,-1],"loss_changes":[1.014334E4,6.8956997E3,1.1656261E4,1.6267039E3,2.7623271E3,1.5140449E3,5.122948E3,3.99969E2,1.293892E3,5.2704297E2,6.985633E1,1.6575307E2,1.5265762E3,1.0182284E3,1.0460049E3,2.5146321E2,9.806412E1,1.4254823E2,6.864463E2,5.805011E1,4.068252E2,4.8750677E0,3.0914658E1,0E0,0E0,1.511998E3,0E0,5.5351636E2,0E0,2.2653526E2,4.6342773E2,0E0,0E0,0E0,0E0,0E0,0E0,0E0,0E0,0E0,0E0,0E0,0E0,0E0,0E0,0E0,0E0,0E0,0E0,0E0,0E0,0E0,0E0,0E0,0E0],"parents":[2147483647,0,0,1,1,2,2,3,3,4,4,5,5,6,6,7,7,8,8,9,9,10,10,11,11,12,12,13,13,14,14,15,15,16,16,17,17,18,18,19,19,20,20,21,21,22,22,25,25,27,27,29,29,30,30],"right_children":[2,4,6,8,10,12,14,16,18,20,22,24,26,28,30,32,34,36,38,40,42,44,46,-1,-1,48,-1,50,-1,52,54,-1,-1,-1,-1,-1,-1,-1,-1,-1,-1,-1,-1,-1,-1,-1,-1,-1,-1,-1,-1,-1,-1,-1,-1],"split_conditions":[1.05E1,5.4804806E-2,5.5E0,7.846154E-2,4.5E0,-1.0699865E1,1.1805555E-1,8.77972E-1,5.5E0,8.5E0,-6.203176E0,1.5E0,2.45E1,4.75E1,3.5E0,8.784645E0,3.5E0,2.5E1,2.35E1,2.85E1,1.05E1,1.390845E-1,2.25E1,7.671795E-1,-0E0,3.85E1,2.3224926E0,8.5E0,1.9519999E0,1.6E1,3.2945737E-1,-3.284387E-2,1.772802E-1,-0E0,2.4965909E-1,3.289439E-1,-0E0,2.7181634E-1,1.8221422E0,3.536378E-1,-0E0,7.905037E-1,-0E0,-3.4385517E-2,-0E0,2.7417582E-1,-0E0,-0E0,1.0572923E0,5.0483283E-2,4.3602586E-1,9.6312493E-1,-0E0,2.1708422E0,-0E0],"split_indices":[98,8,21,10,66,108,10,104,21,73,108,50,73,23,32,108,97,27,57,45,29,10,45,0,0,87,0,50,0,29,10,0,0,0,0,0,0,0,0,0,0,0,0,0,0,0,0,0,0,0,0,0,0,0,0],"split_type":[0,0,0,0,0,0,0,0,0,0,0,0,0,0,0,0,0,0,0,0,0,0,0,0,0,0,0,0,0,0,0,0,0,0,0,0,0,0,0,0,0,0,0,0,0,0,0,0,0,0,0,0,0,0,0],"sum_hessian":[3.739E3,2.962E3,7.77E2,2.653E3,3.09E2,2.6E2,5.17E2,2.595E3,5.8E1,2.2E2,8.9E1,1.9E1,2.41E2,4.93E2,2.4E1,2.513E3,8.2E1,4.2E1,1.6E1,4.4E1,1.76E2,7.3E1,1.6E1,2E0,1.7E1,2.31E2,1E1,4.91E2,2E0,8E0,1.6E1,2.457E3,5.6E1,1.7E1,6.5E1,2.5E1,1.7E1,7E0,9E0,4E1,4E0,1.7E2,6E0,7.1E1,2E0,1.2E1,4E0,1.3E1,2.18E2,4.5E2,4.1E1,3E0,5E0,1.5E1,1E0],"tree_param":{"num_deleted":"0","num_feature":"110","num_nodes":"55","size_leaf_vector":"0"}},{"base_weights":[1.1630291E0,8.380664E0,-3.5189348E-1,7.142878E0,1.8233267E1,-4.2011553E-1,7.9671564E0,8.128172E0,1.5770757E0,1.9944775E1,9.126073E0,-4.2739478E-1,3.8259826E0,-0E0,1.5155893E1,5.7956448E0,9.994437E0,3.6436892E-1,5.8521047E0,3.8180518E0,2.0573177E1,-0E0,1.0769891E1,-4.3949872E-1,1.7272633E-1,-0E0,6.369487E0,1.8000086E1,-0E0,3.841305E0,6.599321E0,9.424032E0,1.5515628E1,2.2436147E0,-1.5321043E-1,6.227972E0,-0E0,1.179326E1,-0E0,-4.738696E-1,-1.517777E-1,1.0971731E1,-3.5215136E-1,2.0065893E1,-0E0],"categories":[],"categories_nodes":[],"categories_segments":[],"categories_sizes":[],"default_left":[true,true,true,true,true,true,true,true,true,true,true,true,true,false,true,true,true,true,true,false,false,false,true,true,true,false,false,true,false,false,false,false,false,false,false,false,false,false,false,false,false,false,false,false,false],"id":2,"left_children":[1,3,5,7,9,11,13,15,17,19,21,23,25,-1,27,29,31,33,35,-1,-1,-1,37,39,41,-1,-1,43,-1,-1,-1,-1,-1,-1,-1,-1,-1,-1,-1,-1,-1,-1,-1,-1,-1],"loss_changes":[4.0976984E4,7.5430156E3,1.6821515E3,3.0708223E3,6.339512E2,6.247632E1,1.4627006E3,1.9215527E3,4.0229504E2,2.653164E2,2.258938E2,2.5014526E1,3.7226295E1,0E0,5.779192E2,2.205E2,4.5155078E2,9.225188E1,4.294153E1,0E0,0E0,0E0,1.380039E2,2.3556763E1,3.6512656E2,0E0,0E0,4.6236743E2,0E0,0E0,0E0,0E0,0E0,0E0,0E0,0E0,0E0,0E0,0E0,0E0,0E0,0E0,0E0,0E0,0E0],"parents":[2147483647,0,0,1,1,2,2,3,3,4,4,5,5,6,6,7,7,8,8,9,9,10,10,11,11,12,12,14,14,15,15,16,16,17,17,18,18,22,22,23,23,24,24,27,27],"right_children":[2,4,6,8,10,12,14,16,18,20,22,24,26,-1,28,30,32,34,36,-1,-1,-1,38,40,42,-1,-1,44,-1,-1,-1,-1,-1,-1,-1,-1,-1,-1,-1,-1,-1,-1,-1,-1,-1],"split_conditions":[-4.95E1,6.8566666E0,1.3522728E1,8.138528E-1,5.5E0,9.5E0,2.8125E-1,6.5E0,4.5E0,9.5E0,-8.958393E-1,3.7857145E-2,7.885417E0,-0E0,4.1279072E-1,5.5E0,1.45E1,1.45E1,3.8916667E0,3.8180518E-1,2.0573177E0,-0E0,6.025641E-1,1.2414384E-1,4.173913E-2,-0E0,6.369487E-1,7.5E0,-0E0,3.841305E-1,6.599321E-1,9.4240326E-1,1.5515628E0,2.2436146E-1,-1.5321043E-2,6.227972E-1,-0E0,1.1793259E0,-0E0,-4.738696E-2,-1.51777705E-2,1.0971731E0,-3.5215136E-2,2.0065894E0,-0E0],"split_indices":[76,3,3,4,28,32,4,59,2,59,108,13,3,0,10,47,69,61,3,0,0,0,4,5,13,0,0,64,0,0,0,0,0,0,0,0,0,0,0,0,0,0,0,0,0],"split_type":[0,0,0,0,0,0,0,0,0,0,0,0,0,0,0,0,0,0,0,0,0,0,0,0,0,0,0,0,0,0,0,0,0,0,0,0,0,0,0,0,0,0,0,0,0],"sum_hessian":[3.739E3,6.49E2,3.09E3,5.79E2,7E1,3.067E3,2.3E1,4.9E2,8.9E1,5.7E1,1.3E1,3.065E3,2E0,1.1E1,1.2E1,2.22E2,2.68E2,7.2E1,1.7E1,3E0,5.4E1,2E0,1.1E1,3.021E3,4.4E1,1E0,1E0,1E1,2E0,7E1,1.52E2,2.47E2,2.1E1,1.9E1,5.3E1,1.6E1,1E0,1E1,1E0,2.667E3,3.54E2,2E0,4.2E1,9E0,1E0],"tree_param":{"num_deleted":"0","num_feature":"110","num_nodes":"45","size_leaf_vector":"0"}},{"base_weights":[1.0513546E0,7.565272E0,-3.1554848E-1,6.6709E0,1.894635E1,-3.7761176E-1,7.2146854E0,2.008464E0,7.5924907E0,-0E0,1.9266056E1,-3.846555E-1,3.6136668E0,5.77429E-1,1.5449101E1,-2.25536E-1,3.257472E0,5.4087386E0,9.030874E0,-4.100083E-1,-7.486894E-2,-0E0,6.051013E0,-0E0,7.7253094E0,1.7461002E1,-0E0,5.7444143E-1,4.065535E0,3.5280693E0,6.0760775E0,9.406189E0,-0E0,2.0370247E0,-3.1760207E-1,1.9955345E1,-0E0],"categories":[],"categories_nodes":[],"categories_segments":[],"categories_sizes":[],"default_left":[true,true,true,true,true,true,true,true,true,false,false,true,true,true,true,false,true,true,true,false,true,false,false,false,false,true,false,false,false,false,false,false,false,false,false,false,false],"id":3,"left_children":[1,3,5,7,9,11,13,15,17,-1,-1,19,21,23,25,-1,27,29,31,-1,33,-1,-1,-1,-1,35,-1,-1,-1,-1,-1,-1,-1,-1,-1,-1,-1],"loss_changes":[3.3375445E4,6.2337344E3,1.378935E3,2.4883398E3,1.9078711E2,5.535266E1,1.1425083E3,3.1845325E2,1.3867168E3,0E0,0E0,1.9200745E1,3.4053753E1,1.1435944E2,3.5723193E2,0E0,1.0086078E2,1.3980566E2,1.0957559E3,0E0,1.1827351E2,0E0,0E0,0E0,0E0,4.417473E2,0E0,0E0,0E0,0E0,0E0,0E0,0E0,0E0,0E0,0E0,0E0],"parents":[2147483647,0,0,1,1,2,2,3,3,4,4,5,5,6,6,7,7,8,8,11,11,12,12,13,13,14,14,16,16,17,17,18,18,20,20,25,25],"right_children":[2,4,6,8,10,12,14,16,18,-1,-1,20,22,24,26,-1,28,30,32,-1,34,-1,-1,-1,-1,36,-1,-1,-1,-1,-1,-1,-1,-1,-1,-1,-1],"split_conditions":[-4.95E1,1.2649351E1,1.3522728E1,2.3818183E0,1.6E1,9.5E0,9.5E0,2.3376624E-1,9.5E0,-0E0,1.9266056E0,4.8473196E0,1.15E1,9.5E0,7.5E0,-2.25536E-2,-8.914129E0,7E0,2.7E1,-4.1000832E-2,8.5E0,-0E0,6.051013E-1,-0E0,7.72531E-1,4.35E1,-0E0,5.7444144E-2,4.065535E-1,3.5280693E-1,6.076078E-1,9.4061893E-1,-0E0,2.0370248E-1,-3.176021E-2,1.9955345E0,-0E0],"split_indices":[75,3,3,3,35,32,0,3,73,0,0,3,0,26,64,0,108,73,73,0,43,0,0,0,0,25,0,0,0,0,0,0,0,0,0,0,0],"split_type":[0,0,0,0,0,0,0,0,0,0,0,0,0,0,0,0,0,0,0,0,0,0,0,0,0,0,0,0,0,0,0,0,0,0,0,0,0],"sum_hessian":[3.739E3,6.49E2,3.09E3,6.04E2,4.5E1,3.067E3,2.3E1,1.02E2,5.02E2,1E0,4.4E1,3.065E3,2E0,1.4E1,9E0,3.4E1,6.8E1,2.04E2,2.98E2,2.803E3,2.62E2,1E0,1E0,1.3E1,1E0,8E0,1E0,1.9E1,4.9E1,5.9E1,1.45E2,2.87E2,1.1E1,2.2E1,2.4E2,7E0,1E0],"tree_param":{"num_deleted":"0","num_feature":"110","num_nodes":"37","size_leaf_vector":"0"}},{"base_weights":[9.494368E-1,6.8208213E0,-2.8231654E-1,5.792087E0,1.4987652E1,-3.3932582E-1,6.600466E0,6.503608E0,7.0380133E-1,1.5528214E1,-0E0,-3.4614724E-1,3.4119658E0,-0E0,1.2632772E1,4.718264E0,7.9562683E0,4.229455E0,-0E0,1.1477769E1,1.7989372E1,-0E0,3.0951452E-1,-3.690221E-1,-6.292599E-2,-0E0,5.7484617E0,-0E0,1.6769411E1,5.3558984E0,3.1103542E0,8.179281E0,-0E0,4.753796E0,-0E0,1.9195672E0,-3.2859993E-1,1.8342785E1,-0E0,-8.366437E-2,-3.825896E-1,-4.5027494E-1,3.3965187E0,1.2873937E0,1.922899E1],"categories":[],"categories_nodes":[],"categories_segments":[],"categories_sizes":[],"default_left":[true,true,true,true,true,true,true,true,true,true,true,true,true,false,true,true,true,true,true,false,true,false,false,true,true,false,false,false,true,false,false,false,false,false,false,false,false,false,false,false,false,false,false,false,false],"id":4,"left_children":[1,3,5,7,9,11,13,15,17,19,21,23,25,-1,27,29,31,33,35,-1,37,-1,-1,39,41,-1,-1,-1,43,-1,-1,-1,-1,-1,-1,-1,-1,-1,-1,-1,-1,-1,-1,-1,-1],"loss_changes":[2.7115355E4,5.166367E3,1.1524824E3,2.0231914E3,4.4781934E2,4.903058E1,1.0290426E3,1.1506191E3,1.4222803E2,1.7672852E2,1.9159847E-1,1.5520813E1,3.1165089E1,0E0,7.3750146E2,1.3756396E2,4.5436328E2,2.4504272E1,5.720119E1,0E0,1.6431348E2,0E0,0E0,6.161377E0,3.2449014E2,0E0,0E0,0E0,1.5087354E2,0E0,0E0,0E0,0E0,0E0,0E0,0E0,0E0,0E0,0E0,0E0,0E0,0E0,0E0,0E0,0E0],"parents":[2147483647,0,0,1,1,2,2,3,3,4,4,5,5,6,6,7,7,8,8,9,9,10,10,11,11,12,12,14,14,15,15,16,16,17,17,18,18,20,20,23,23,24,24,28,28],"right_children":[2,4,6,8,10,12,14,16,18,20,22,24,26,-1,28,30,32,34,36,-1,38,-1,-1,40,42,-1,-1,-1,44,-1,-1,-1,-1,-1,-1,-1,-1,-1,-1,-1,-1,-1,-1,-1,-1],"split_conditions":[-4.95E1,6.8566666E0,1.3522728E1,8.7083334E-1,9.5E0,9.5E0,2.8125E-1,6.5E0,4.5E0,1.3286364E1,3.35E1,4.8473196E0,7.885417E0,-0E0,3.5E0,4.5E0,3.05E1,7E0,5.5E0,1.147777E0,1.904762E-1,-0E0,3.0951453E-2,-6.721817E-3,7.537879E-1,-0E0,5.748462E-1,-0E0,2.15E1,5.355899E-1,3.1103542E-1,8.1792814E-1,-0E0,4.7537962E-1,-0E0,1.9195673E-1,-3.2859992E-2,1.8342785E0,-0E0,-8.366438E-3,-3.8258962E-2,-4.5027494E-2,3.3965188E-1,1.2873937E-1,1.9228991E0],"split_indices":[75,3,3,4,24,32,4,55,15,3,37,3,3,0,36,91,55,30,25,0,6,0,0,100,4,0,0,0,71,0,0,0,0,0,0,0,0,0,0,0,0,0,0,0,0],"split_type":[0,0,0,0,0,0,0,0,0,0,0,0,0,0,0,0,0,0,0,0,0,0,0,0,0,0,0,0,0,0,0,0,0,0,0,0,0,0,0,0,0,0,0,0,0],"sum_hessian":[3.739E3,6.49E2,3.09E3,5.79E2,7E1,3.067E3,2.3E1,5.06E2,7.3E1,6.7E1,3E0,3.065E3,2E0,1.1E1,1.2E1,2.32E2,2.74E2,9E0,6.4E1,2.9E1,3.8E1,2E0,1E0,2.803E3,2.62E2,1E0,1E0,3E0,9E0,1.6E2,7.2E1,2.66E2,8E0,8E0,1E0,1.3E1,5.1E1,3.7E1,1E0,1.61E2,2.642E3,2.39E2,2.3E1,2E0,7E0],"tree_param":{"num_deleted":"0","num_feature":"110","num_nodes":"45","size_leaf_vector":"0"}},{"base_weights":[8.584258E-1,3.9758623E0,-2.2197217E-1,3.3096614E0,1.2176905E1,3.7930512E-1,-2.9656008E-1,5.638866E0,6.1427975E-1,1.3224306E1,1.0255854E0,-6.4928465E-2,3.2631938E0,-0E0,-3.359003E-1,8.968656E-1,6.0004387E0,2.4178486E0,1.4393282E-1,-0E0,1.3931956E1,3.5452638E0,-0E0,-1.8132412E-1,4.667835E0,7.657162E0,1.1344578E0,9.070948E-1,-2.0757842E-1,-3.3898434E-1,-0E0,1.5287555E0,-0E0,6.202741E0,-0E0,2.9126914E0,-0E0,-1.37296235E-2,2.7317474E0,-0E0,1.4682966E1,1.1776541E0,-2.9156217E-1,6.6074524E0,-0E0,1.0359124E1,-0E0,6.9462433E0,-0E0,1.7587943E0,-0E0,-2.668218E-1,1.2669536E-1],"categories":[],"categories_nodes":[],"categories_segments":[],"categories_sizes":[],"default_left":[true,true,true,true,true,true,true,true,true,true,true,true,true,true,true,true,true,true,true,false,true,false,false,true,true,true,true,true,true,false,false,false,false,false,false,false,false,false,false,false,false,false,false,false,false,false,false,false,false,false,false,false,false],"id":5,"left_children":[1,3,5,7,9,11,13,15,17,19,21,23,25,27,29,31,33,35,37,-1,39,-1,-1,41,43,45,47,49,51,-1,-1,-1,-1,-1,-1,-1,-1,-1,-1,-1,-1,-1,-1,-1,-1,-1,-1,-1,-1,-1,-1,-1,-1],"loss_changes":[1.2635011E4,5.0771523E3,1.2378314E2,5.5528994E3,6.732119E2,4.0628162E2,2.8432251E1,7.452129E2,3.2862485E2,6.4759863E2,2.929208E1,9.425044E1,2.962482E2,5.4945995E1,3.751709E0,2.8665724E1,5.9101953E2,1.1449271E2,1.6471408E2,0E0,6.641279E2,0E0,0E0,2.863559E1,4.382055E1,2.622174E2,1.5310437E2,5.1461746E1,6.267127E0,0E0,0E0,0E0,0E0,0E0,0E0,0E0,0E0,0E0,0E0,0E0,0E0,0E0,0E0,0E0,0E0,0E0,0E0,0E0,0E0,0E0,0E0,0E0,0E0],"parents":[2147483647,0,0,1,1,2,2,3,3,4,4,5,5,6,6,7,7,8,8,9,9,10,10,11,11,12,12,13,13,14,14,15,15,16,16,17,17,18,18,20,20,23,23,24,24,25,25,26,26,27,27,28,28],"right_children":[2,4,6,8,10,12,14,16,18,20,22,24,26,28,30,32,34,36,38,-1,40,-1,-1,42,44,46,48,50,52,-1,-1,-1,-1,-1,-1,-1,-1,-1,-1,-1,-1,-1,-1,-1,-1,-1,-1,-1,-1,-1,-1,-1,-1],"split_conditions":[7.656863E-1,1.269697E1,8.2807887E-1,3.5E0,1.625E-1,3.5E0,1.55E1,7.5E0,5.9411764E-1,3.5E0,2.55E1,8.2725465E-1,1.45E1,3.5E0,9.5E0,2E1,2.8E1,2.05E1,2.15E1,-0E0,1.5E1,3.5452637E-1,-0E0,1.25E1,1.724138E-2,2.5E0,2.5E0,1.5E0,2.273902E-2,-3.3898436E-2,-0E0,1.5287556E-1,-0E0,6.202741E-1,-0E0,2.9126915E-1,-0E0,-1.3729624E-3,2.7317473E-1,-0E0,1.4682966E0,1.1776542E-1,-2.9156217E-2,6.6074526E-1,-0E0,1.0359124E0,-0E0,6.9462436E-1,-0E0,1.7587943E-1,-0E0,-2.6682181E-2,1.2669536E-2],"split_indices":[4,3,4,56,6,36,71,73,4,97,27,4,73,56,97,71,73,73,55,0,49,0,0,71,9,54,26,54,9,0,0,0,0,0,0,0,0,0,0,0,0,0,0,0,0,0,0,0,0,0,0,0,0],"split_type":[0,0,0,0,0,0,0,0,0,0,0,0,0,0,0,0,0,0,0,0,0,0,0,0,0,0,0,0,0,0,0,0,0,0,0,0,0,0,0,0,0,0,0,0,0,0,0,0,0,0,0,0,0],"sum_hessian":[3.739E3,9.64E2,2.775E3,8.94E2,7E1,2.91E2,2.484E3,4.77E2,4.17E2,6.3E1,7E0,2.5E2,4.1E1,2.96E2,2.188E3,3.6E1,4.41E2,8.1E1,3.36E2,3E0,6E1,2E0,5E0,2.47E2,3E0,1.1E1,3E1,5.3E1,2.43E2,2.181E3,7E0,2.4E1,1.2E1,4.28E2,1.3E1,6.9E1,1.2E1,3.14E2,2.2E1,3E0,5.7E1,1.1E1,2.36E2,2E0,1E0,8E0,3E0,3E0,2.7E1,3E1,2.3E1,2.32E2,1.1E1],"tree_param":{"num_deleted":"0","num_feature":"110","num_nodes":"53","size_leaf_vector":"0"}},{"base_weights":[7.75371E-1,5.630094E0,-2.4253434E-1,4.5470057E0,9.579564E0,2.8936238E0,-2.743783E-1,5.2243147E0,2.22133E0,1.24520645E1,2.1722458E-1,-2.9144073E-1,1.0761143E1,-2.8795478E-1,1.3902715E0,4.1983776E0,5.9241333E0,2.648899E0,-0E0,1.2752729E1,-0E0,5.262122E0,-2.9749915E-1,-0E0,1.4286543E1,-3.0700707E-1,1.5261802E-2,-0E0,6.7871327E0,4.2579846E0,-0E0,1.0588793E0,2.987669E0,5.4398174E0,1.3565258E1,6.685073E0,-0E0,-3.1760383E-1,8.252268E-4,3.320395E0,-3.8483512E-1,1.1670301E1,-0E0],"categories":[],"categories_nodes":[],"categories_segments":[],"categories_sizes":[],"default_left":[true,true,true,true,true,true,true,true,true,true,true,false,true,true,true,true,false,true,false,true,false,true,false,false,false,true,true,false,true,false,false,false,false,false,false,false,false,false,false,false,false,false,false],"id":6,"left_children":[1,3,5,7,9,11,13,15,17,19,21,-1,23,25,27,29,-1,31,-1,33,-1,35,-1,-1,-1,37,39,-1,41,-1,-1,-1,-1,-1,-1,-1,-1,-1,-1,-1,-1,-1,-1],"loss_changes":[1.8537008E4,2.5956348E3,2.8329254E2,7.235918E2,3.5549873E3,8.0947266E2,5.862387E1,1.567832E2,1.3268231E2,3.0023535E2,1.3950047E2,0E0,3.8651758E2,2.0518814E1,1.9360162E2,4.8924805E1,0E0,1.2390625E1,0E0,3.3629492E2,0E0,4.0311157E1,0E0,0E0,0E0,1.26180725E1,2.2898946E2,0E0,1.7826193E2,0E0,0E0,0E0,0E0,0E0,0E0,0E0,0E0,0E0,0E0,0E0,0E0,0E0,0E0],"parents":[2147483647,0,0,1,1,2,2,3,3,4,4,5,5,6,6,7,7,8,8,9,9,10,10,12,12,13,13,14,14,15,15,17,17,19,19,21,21,25,25,26,26,28,28],"right_children":[2,4,6,8,10,12,14,16,18,20,22,-1,24,26,28,30,-1,32,-1,34,-1,36,-1,-1,-1,38,40,-1,42,-1,-1,-1,-1,-1,-1,-1,-1,-1,-1,-1,-1,-1,-1],"split_conditions":[-4.95E1,1.25E1,4.4155845E-1,2.5E0,8.182235E-1,2.95E1,1.7424244E-1,7.5E0,9.6699136E-1,9.5E0,1.65E1,-2.9144073E-2,5.9027776E-2,3.25E1,1.3E1,9.5E0,5.9241337E-1,4.5E0,-0E0,-6.8287015E-2,-0E0,9.3653846E-1,-2.9749915E-2,-0E0,1.4286543E0,3.95E1,7.7097905E-1,-0E0,2.062937E-1,4.2579848E-1,-0E0,1.0588793E-1,2.987669E-1,5.4398173E-1,1.3565258E0,6.685073E-1,-0E0,-3.1760383E-2,8.252268E-5,3.320395E-1,-3.848351E-2,1.1670302E0,-0E0],"split_indices":[75,73,4,74,4,37,9,37,4,24,73,0,12,51,37,95,0,93,0,106,0,4,0,0,0,61,4,0,9,0,0,0,0,0,0,0,0,0,0,0,0,0,0],"split_type":[0,0,0,0,0,0,0,0,0,0,0,0,0,0,0,0,0,0,0,0,0,0,0,0,0,0,0,0,0,0,0,0,0,0,0,0,0,0,0,0,0,0,0],"sum_hessian":[3.739E3,6.49E2,3.09E3,5.13E2,1.36E2,2.7E1,3.063E3,3.93E2,1.2E2,1.03E2,3.3E1,1.9E1,8E0,3.045E3,1.8E1,1.68E2,2.25E2,1.03E2,1.7E1,1E2,3E0,4E0,2.9E1,2E0,6E0,2.896E3,1.49E2,1.4E1,4E0,1.66E2,2E0,2.4E1,7.9E1,1.2E1,8.8E1,3E0,1E0,2.831E3,6.5E1,1.8E1,1.31E2,2E0,2E0],"tree_param":{"num_deleted":"0","num_feature":"110","num_nodes":"43","size_leaf_vector":"0"}},{"base_weights":[7.008941E-1,5.0806108E0,-2.1709898E-1,4.288083E0,1.1342378E1,-2.5891012E-1,4.7201385E0,4.8094444E0,5.229709E-1,1.1539441E1,-0E0,-2.7718213E-1,2.7657663E-2,-0E0,9.475576E0,3.4150474E0,5.9555025E0,-0E0,1.7399173E0,1.2374861E1,4.2894387E0,-2.8702292E-1,7.439319E-4,-1.3211578E-1,8.472304E0,-0E0,1.2952364E1,3.8844438E0,2.3512018E0,9.423311E0,5.3295183E0,3.2385534E-1,-2.7432278E-1,4.1136494E0,-0E0,1.3583714E0,1.2748845E1,5.73414E0,-0E0,-4.2177552E-1,-2.5993207E-1,3.3306987E0,-1.6287036E-1,-3.7624425E-1,8.976313E-1,-0E0,1.1409277E1,1.4901191E1,-0E0],"categories":[],"categories_nodes":[],"categories_segments":[],"categories_sizes":[],"default_left":[true,true,true,true,true,true,true,true,true,true,false,true,true,false,true,true,true,true,true,true,true,true,true,true,true,false,true,false,false,false,false,false,false,false,false,false,false,false,false,false,false,false,false,false,false,false,false,false,false],"id":7,"left_children":[1,3,5,7,9,11,13,15,17,19,-1,21,23,-1,25,27,29,31,33,35,37,39,41,43,45,-1,47,-1,-1,-1,-1,-1,-1,-1,-1,-1,-1,-1,-1,-1,-1,-1,-1,-1,-1,-1,-1,-1,-1],"loss_changes":[1.5086595E4,3.0207637E3,5.946898E2,1.0826914E3,1.8699316E2,1.856746E1,6.325121E2,6.9617285E2,5.847122E1,2.0425195E2,0E0,1.0841034E1,2.8960422E2,0E0,5.104121E2,4.586133E1,3.9487598E2,4.1182003E0,1.4127734E2,9.292969E1,7.905005E1,3.4846954E0,6.817941E1,3.2581055E1,1.0339505E2,0E0,3.207721E2,0E0,0E0,0E0,0E0,0E0,0E0,0E0,0E0,0E0,0E0,0E0,0E0,0E0,0E0,0E0,0E0,0E0,0E0,0E0,0E0,0E0,0E0],"parents":[2147483647,0,0,1,1,2,2,3,3,4,4,5,5,6,6,7,7,8,8,9,9,11,11,12,12,14,14,15,15,16,16,17,17,18,18,19,19,20,20,21,21,22,22,23,23,24,24,26,26],"right_children":[2,4,6,8,10,12,14,16,18,20,-1,22,24,-1,26,28,30,32,34,36,38,40,42,44,46,-1,48,-1,-1,-1,-1,-1,-1,-1,-1,-1,-1,-1,-1,-1,-1,-1,-1,-1,-1,-1,-1,-1,-1],"split_conditions":[-4.95E1,6.8566666E0,1.3522728E1,8.7083334E-1,4.2473904E1,3.25E1,2.8125E-1,8.5E0,-7.6741815E-2,7.5E0,-0E0,3.95E1,3.537658E1,-0E0,3.5E0,2.5E0,3.5E0,5.5E0,1.85E1,7E0,-2.1736222E-12,7.905702E-1,3.5E0,2.0756954E1,2.5769231E0,-0E0,7.5E0,3.884444E-1,2.3512018E-1,9.4233114E-1,5.3295183E-1,3.2385536E-2,-2.7432278E-2,4.1136494E-1,-0E0,1.3583714E-1,1.2748846E0,5.73414E-1,-0E0,-4.2177554E-2,-2.5993207E-2,3.330699E-1,-1.6287036E-2,-3.7624426E-2,8.976313E-2,-0E0,1.1409277E0,1.4901191E0,-0E0],"split_indices":[76,3,3,4,108,51,4,63,108,40,0,61,109,0,36,74,52,29,63,51,100,4,42,109,3,0,64,0,0,0,0,0,0,0,0,0,0,0,0,0,0,0,0,0,0,0,0,0,0],"split_type":[0,0,0,0,0,0,0,0,0,0,0,0,0,0,0,0,0,0,0,0,0,0,0,0,0,0,0,0,0,0,0,0,0,0,0,0,0,0,0,0,0,0,0,0,0,0,0,0,0],"sum_hessian":[3.739E3,6.49E2,3.09E3,5.79E2,7E1,3.067E3,2.3E1,5.06E2,7.3E1,6.9E1,1E0,2.916E3,1.51E2,1.1E1,1.2E1,2.34E2,2.72E2,4.8E1,2.5E1,6E1,9E0,2.851E3,6.5E1,1.48E2,3E0,3E0,9E0,1.54E2,8E1,3.7E1,2.35E2,1.1E1,3.7E1,1.2E1,1.3E1,3E0,5.7E1,7E0,2E0,4.13E2,2.438E3,5E0,6E1,1.28E2,2E1,1E0,2E0,8E0,1E0],"tree_param":{"num_deleted":"0","num_feature":"110","num_nodes":"49","size_leaf_vector":"0"}},{"base_weights":[6.3373184E-1,4.5881376E0,-1.9480182E-1,3.8690872E0,1.0256605E1,-2.3256025E-1,4.2234325E0,2.8230304E-1,4.2708435E0,1.0909784E1,2.4991019E0,-2.4327387E-1,8.573301E-1,8.046922E0,-1.1768401E-1,1.5640645E0,-5.0328135E-2,3.100751E0,5.1929245E0,6.0676165E0,1.2455249E1,3.828591E0,-0E0,8.6362734E-2,-2.5315508E-1,6.2742686E0,-1.9808295E-1,1.10179615E1,-0E0,-0E0,2.3931627E0,-0E0,-2.4615017E-1,2.1776636E0,3.539723E0,5.4725595E0,-2.8812322E-1,1.2786524E1,-0E0,-2.7567586E-1,7.723822E0,-2.623693E-1,1.4226085E-1,-0E0,1.0648658E1,-0E0,1.3576641E1],"categories":[],"categories_nodes":[],"categories_segments":[],"categories_sizes":[],"default_left":[true,true,true,true,true,true,true,true,true,true,true,true,true,true,false,true,true,true,true,false,true,false,false,true,true,true,false,true,false,false,false,false,false,false,false,false,false,false,false,false,false,false,false,false,false,false,false],"id":8,"left_children":[1,3,5,7,9,11,13,15,17,19,21,23,25,27,-1,29,31,33,35,-1,37,-1,-1,39,41,43,-1,45,-1,-1,-1,-1,-1,-1,-1,-1,-1,-1,-1,-1,-1,-1,-1,-1,-1,-1,-1],"loss_changes":[1.2298408E4,2.4684043E3,4.767312E2,7.890508E2,1.9840576E2,2.989206E1,4.7859644E2,4.1650017E1,4.6091992E2,2.1813574E2,3.798458E1,1.1617752E1,1.8206392E2,4.2880884E2,0E0,3.3701527E1,2.4333274E0,3.0747314E1,4.8870557E2,0E0,2.211543E2,0E0,0E0,2.4251404E2,1.2128693E1,1.4334955E2,0E0,3.2357642E2,0E0,0E0,0E0,0E0,0E0,0E0,0E0,0E0,0E0,0E0,0E0,0E0,0E0,0E0,0E0,0E0,0E0,0E0,0E0],"parents":[2147483647,0,0,1,1,2,2,3,3,4,4,5,5,6,6,7,7,8,8,9,9,10,10,11,11,12,12,13,13,15,15,16,16,17,17,18,18,20,20,23,23,24,24,25,25,27,27],"right_children":[2,4,6,8,10,12,14,16,18,20,22,24,26,28,-1,30,32,34,36,-1,38,-1,-1,40,42,44,-1,46,-1,-1,-1,-1,-1,-1,-1,-1,-1,-1,-1,-1,-1,-1,-1,-1,-1,-1,-1],"split_conditions":[-4.95E1,6.8566666E0,1.3522728E1,8.5119045E-1,8.5E0,9.5E0,-2.175038E-12,5.5E0,7.5E0,1.85E1,-2.1736222E-12,1.5E0,-2.9901614E0,4.849138E-2,-1.1768401E-2,-9.544214E0,4.5E0,2.6E1,2.65E1,6.0676163E-1,3.55E1,3.828591E-1,-0E0,1.65E1,3.7857145E-2,2.5769231E0,-1.9808296E-2,-2.5100267E0,-0E0,-0E0,2.3931627E-1,-0E0,-2.4615018E-2,2.1776636E-1,3.539723E-1,5.4725593E-1,-2.8812323E-2,1.2786524E0,-0E0,-2.7567586E-2,7.723822E-1,-2.623693E-2,1.42260855E-2,-0E0,1.0648658E0,-0E0,1.3576641E0],"split_indices":[75,3,3,3,24,88,100,25,69,69,100,88,108,8,0,108,15,35,69,0,41,0,0,45,13,3,0,105,0,0,0,0,0,0,0,0,0,0,0,0,0,0,0,0,0,0,0],"split_type":[0,0,0,0,0,0,0,0,0,0,0,0,0,0,0,0,0,0,0,0,0,0,0,0,0,0,0,0,0,0,0,0,0,0,0,0,0,0,0,0,0,0,0,0,0,0,0],"sum_hessian":[3.739E3,6.49E2,3.09E3,5.79E2,7E1,3.067E3,2.3E1,6.1E1,5.18E2,6.3E1,7E0,3.047E3,2E1,1.3E1,1E1,1.8E1,4.3E1,2.35E2,2.83E2,1.8E1,4.5E1,5E0,2E0,5.9E1,2.988E3,4E0,1.6E1,1E1,3E0,5E0,1.3E1,2E0,4.1E1,8.5E1,1.5E2,2.71E2,1.2E1,4.4E1,1E0,5.6E1,3E0,2.945E3,4.3E1,2E0,2E0,2E0,8E0],"tree_param":{"num_deleted":"0","num_feature":"110","num_nodes":"47","size_leaf_vector":"0"}},{"base_weights":[5.729193E-1,4.1408067E0,-1.7431453E-1,2.505066E0,5.391677E0,-2.0731728E-1,9.173023E-1,3.0513628E0,1.4932112E0,4.185329E0,9.184449E0,-2.1319479E-1,2.4216502E0,-0E0,3.990407E0,3.0883455E0,-0E0,1.9797647E0,6.7585096E-2,4.567444E0,-0E0,7.020315E0,1.2584686E1,-2.227853E-1,-0E0,-0E0,3.8335457E0,1.0451171E1,-4.8331308E-1,-0E0,7.10291E0,-0E0,3.1173937E0,-0E0,2.0599215E0,-0E0,7.051821E-1,4.2772346E0,8.605574E0,1.22651E0,-4.0733644E-1,7.3068643E0,-0E0,-0E0,-2.3344572E-1,7.6950407E0,-2.400137E-1,-0E0,-5.3542125E-1,9.480988E0,-0E0],"categories":[],"categories_nodes":[],"categories_segments":[],"categories_sizes":[],"default_left":[true,true,true,true,true,true,true,true,true,true,true,true,true,true,true,true,false,true,true,true,true,true,false,true,true,false,false,false,true,false,true,false,false,false,false,false,false,false,false,false,false,false,false,false,false,false,false,false,false,false,false],"id":9,"left_children":[1,3,5,7,9,11,13,15,17,19,21,23,25,27,29,31,-1,33,35,37,39,41,-1,43,45,-1,-1,-1,47,-1,49,-1,-1,-1,-1,-1,-1,-1,-1,-1,-1,-1,-1,-1,-1,-1,-1,-1,-1,-1,-1],"loss_changes":[1.0011399E4,1.2374902E3,1.0444778E2,1.086438E2,1.4933086E3,2.4941696E1,2.6539197E2,2.49292E0,5.4999847E1,4.7752393E2,3.4108008E2,5.628586E0,1.1798977E1,2.3270303E2,3.21477E2,2.3920898E0,0E0,1.6122864E1,5.8120775E0,1.3671484E2,6.6589594E0,1.2312427E2,0E0,5.665329E0,2.448043E2,0E0,0E0,0E0,8.4711075E-2,0E0,2.4302399E2,0E0,0E0,0E0,0E0,0E0,0E0,0E0,0E0,0E0,0E0,0E0,0E0,0E0,0E0,0E0,0E0,0E0,0E0,0E0,0E0],"parents":[2147483647,0,0,1,1,2,2,3,3,4,4,5,5,6,6,7,7,8,8,9,9,10,10,11,11,12,12,13,13,14,14,15,15,17,17,18,18,19,19,20,20,21,21,23,23,24,24,28,28,30,30],"right_children":[2,4,6,8,10,12,14,16,18,20,22,24,26,28,30,32,-1,34,36,38,40,42,-1,44,46,-1,-1,-1,48,-1,50,-1,-1,-1,-1,-1,-1,-1,-1,-1,-1,-1,-1,-1,-1,-1,-1,-1,-1,-1,-1],"split_conditions":[-4.95E1,9.5E0,3.923077E-2,3.5E0,-6.8086576E-1,4.35E1,2.95E1,6.5E0,5.5E0,3.15E1,1.95E1,3.15E1,3.05E1,4.083333E-2,7.5E0,7E0,-0E0,-7.573733E-1,9.5E0,2E1,3.05E1,3.8514955E-3,1.2584686E0,-6.721817E-3,2.9E1,-0E0,3.8335457E-1,1.0451171E0,5.1315792E-2,-0E0,-2.057067E-12,-0E0,3.117394E-1,-0E0,2.0599215E-1,-0E0,7.051821E-2,4.2772347E-1,8.605574E-1,1.22651E-1,-4.0733647E-2,7.306864E-1,-0E0,-0E0,-2.3344573E-2,7.695041E-1,-2.4001371E-2,-0E0,-5.3542126E-2,9.480988E-1,-0E0],"split_indices":[75,63,14,70,104,55,55,65,98,63,55,55,0,14,30,20,0,104,20,57,55,100,0,100,63,0,0,0,14,0,100,0,0,0,0,0,0,0,0,0,0,0,0,0,0,0,0,0,0,0,0],"split_type":[0,0,0,0,0,0,0,0,0,0,0,0,0,0,0,0,0,0,0,0,0,0,0,0,0,0,0,0,0,0,0,0,0,0,0,0,0,0,0,0,0,0,0,0,0,0,0,0,0,0,0],"sum_hessian":[3.739E3,6.49E2,3.09E3,2.86E2,3.63E2,3.009E3,8.1E1,1.78E2,1.08E2,2.79E2,8.4E1,3.007E3,2E0,6.1E1,2E1,1.74E2,4E0,7.5E1,3.3E1,2.57E2,2.2E1,5.5E1,2.9E1,2.867E3,1.4E2,1E0,1E0,1E0,6E1,8E0,1.2E1,3E0,1.71E2,2E0,7.3E1,2.2E1,1.1E1,2.44E2,1.3E1,1E0,2.1E1,5.3E1,2E0,1.52E2,2.715E3,3E0,1.37E2,1.1E1,4.9E1,9E0,3E0],"tree_param":{"num_deleted":"0","num_feature":"110","num_nodes":"51","size_leaf_vector":"0"}}]},"name":"gbtree"},"learner_model_param":{"base_score":"5E-1","num_class":"0","num_feature":"110"},"objective":{"name":"reg:squarederror","reg_loss_param":{"scale_pos_weight":"1"}}},"version":[1,4,2]}
