{"learner":{"attributes":{},"feature_names":[" day"," trace 40 quant","competitiveness","empirical_distr_p","empirical_distr_q_0","empirical_distr_q_1","empirical_distr_q_10","empirical_distr_q_2","empirical_distr_q_3","empirical_distr_q_4","empirical_distr_q_5","empirical_distr_q_6","empirical_distr_q_7","empirical_distr_q_8","empirical_distr_q_9","my_layer_size","n_level","n_opp_level","opp_layer_size","trace 0 price","trace 0 quant","trace 1 price","trace 1 quant","trace 10 price","trace 10 quant","trace 11 price","trace 11 quant","trace 12 price","trace 12 quant","trace 13 price","trace 13 quant","trace 14 price","trace 14 quant","trace 15 price","trace 15 quant","trace 16 price","trace 16 quant","trace 17 price","trace 17 quant","trace 18 price","trace 18 quant","trace 19 price","trace 19 quant","trace 2 price","trace 2 quant","trace 20 price","trace 20 quant","trace 21 price","trace 21 quant","trace 22 price","trace 22 quant","trace 23 price","trace 23 quant","trace 24 price","trace 24 quant","trace 25 price","trace 25 quant","trace 26 price","trace 26 quant","trace 27 price","trace 27 quant","trace 28 price","trace 28 quant","trace 29 price","trace 29 quant","trace 3 price","trace 3 quant","trace 30 price","trace 30 quant","trace 31 price","trace 31 quant","trace 32 price","trace 32 quant","trace 33 price","trace 33 quant","trace 34 price","trace 34 quant","trace 35 price","trace 35 quant","trace 36 price","trace 36 quant","trace 37 price","trace 37 quant","trace 38 price","trace 38 quant","trace 39 price","trace 39 quant","trace 4 price","trace 4 quant","trace 40 price","trace 5 price","trace 5 quant","trace 6 price","trace 6 quant","trace 7 price","trace 7 quant","trace 8 price","trace 8 quant","trace 9 price","trace 9 quant","ufun_param_0","ufun_param_1","ufun_param_2","ufun_param_3","ufun_param_4","ufun_param_5","ufun_param_6","ufun_param_7","ufun_param_8","ufun_param_9"],"feature_types":["int","int","float","float","float","float","float","float","float","float","float","float","float","float","float","int","int","int","int","int","int","int","int","int","int","int","int","int","int","int","int","int","int","int","int","int","int","int","int","int","int","int","int","int","int","int","int","int","int","int","int","int","int","int","int","int","int","int","int","int","int","int","int","int","int","int","int","int","int","int","int","int","int","int","int","int","int","int","int","int","int","int","int","int","int","int","int","int","int","int","int","int","int","int","int","int","int","int","int","int","float","float","float","float","float","float","float","float","float","float"],"gradient_booster":{"model":{"gbtree_model_param":{"num_trees":"10","size_leaf_vector":"0"},"tree_info":[0,0,0,0,0,0,0,0,0,0],"trees":[{"base_weights":[4.1048737E0,1.71113E0,1.4333061E1,1.240311E0,1.0901605E1,5.620774E0,1.6475449E1,9.463268E-1,1.3608183E1,5.9911175E0,1.5446735E1,3.8575437E0,8.276676E0,6.529516E0,1.795887E1,8.6390567E-1,1.3765396E1,4.991197E0,1.6061235E1,3.808671E0,1.3893471E1,3.683081E0,1.9817453E1,2.1707318E0,6.8146553E0,7.2568493E0,1.0477273E1,2.424447E0,1.2136594E1,1.4689451E1,1.9220297E1,7.5528884E-1,4.469394E0,8.280612E0,1.5870902E1,3.194872E0,8.716666E0,1.3529471E1,1.851509E1,2.5794504E0,8.32E0,4.5116277E0,1.541767E1,1.2267857E0,9.444445E0,1.5719902E1,2.2321865E1,1.1346998E0,4.198251E0,5.7216496E0,1.2161458E1,-0E0,7.26749E0,9.290641E0,1.2199219E1,1.5104603E0,8.984694E0,5.2708335E0,1.2386842E1,1.4272244E1,2.6586206E1,1.3809507E1,2.064697E1],"categories":[],"categories_nodes":[],"categories_segments":[],"categories_sizes":[],"default_left":[true,true,true,true,true,true,true,true,true,true,true,true,true,true,true,true,true,true,true,true,true,true,true,true,true,true,true,true,true,true,true,false,false,false,false,false,false,false,false,false,false,false,false,false,false,false,false,false,false,false,false,false,false,false,false,false,false,false,false,false,false,false,false],"id":0,"left_children":[1,3,5,7,9,11,13,15,17,19,21,23,25,27,29,31,33,35,37,39,41,43,45,47,49,51,53,55,57,59,61,-1,-1,-1,-1,-1,-1,-1,-1,-1,-1,-1,-1,-1,-1,-1,-1,-1,-1,-1,-1,-1,-1,-1,-1,-1,-1,-1,-1,-1,-1,-1,-1],"loss_changes":[1.7395502E6,2.4902956E5,2.511985E5,1.9901583E5,6.2297312E4,1.2312781E4,1.5918775E5,5.63774E4,2.6575594E4,2.3070035E4,7.450172E4,7.89625E3,2.1232656E3,3.2187484E4,3.81825E4,2.0766246E4,3.5650117E3,1.7536079E3,5.567078E3,5.7532344E3,3.8923906E3,5.4857383E3,1.0146375E4,2.0949956E3,3.1411562E3,6E1,3.460547E2,4.762205E3,7.769922E2,1.2245875E4,5.1739E4,0E0,0E0,0E0,0E0,0E0,0E0,0E0,0E0,0E0,0E0,0E0,0E0,0E0,0E0,0E0,0E0,0E0,0E0,0E0,0E0,0E0,0E0,0E0,0E0,0E0,0E0,0E0,0E0,0E0,0E0,0E0,0E0],"parents":[2147483647,0,0,1,1,2,2,3,3,4,4,5,5,6,6,7,7,8,8,9,9,10,10,11,11,12,12,13,13,14,14,15,15,16,16,17,17,18,18,19,19,20,20,21,21,22,22,23,23,24,24,25,25,26,26,27,27,28,28,29,29,30,30],"right_children":[2,4,6,8,10,12,14,16,18,20,22,24,26,28,30,32,34,36,38,40,42,44,46,48,50,52,54,56,58,60,62,-1,-1,-1,-1,-1,-1,-1,-1,-1,-1,-1,-1,-1,-1,-1,-1,-1,-1,-1,-1,-1,-1,-1,-1,-1,-1,-1,-1,-1,-1,-1,-1],"split_conditions":[4.5115333E-2,4.9691357E-2,7.5E0,1.2793235E-1,1.25E1,2.9520696E-1,1.35E1,4.0833333E-1,7.5E0,7.453704E-2,1.45E1,5.6079663E-2,1.85E1,1.7232238E-1,1.35E1,5.3812742E-2,8.5E0,1.1814556E-1,3.15E1,1.9756097E-1,6.5E0,1.35E1,1.95E1,9.5491394E-2,6.5E0,2.5E0,2.75E1,5.4804806E-2,8.5E0,4.05E1,1.55E1,7.552888E-2,4.4693944E-1,8.280612E-1,1.5870903E0,3.1948718E-1,8.716666E-1,1.3529471E0,1.8515091E0,2.5794503E-1,8.3199996E-1,4.511628E-1,1.541767E0,1.2267857E-1,9.444445E-1,1.5719903E0,2.2321866E0,1.1346998E-1,4.1982508E-1,5.7216495E-1,1.2161459E0,-0E0,7.26749E-1,9.290641E-1,1.219922E0,1.5104602E-1,8.984694E-1,5.2708334E-1,1.2386842E0,1.4272245E0,2.6586206E0,1.3809508E0,2.064697E0],"split_indices":[14,12,94,8,94,6,27,6,94,8,23,12,96,14,94,7,94,7,0,12,94,27,0,14,15,28,19,12,23,23,27,0,0,0,0,0,0,0,0,0,0,0,0,0,0,0,0,0,0,0,0,0,0,0,0,0,0,0,0,0,0,0,0],"split_type":[0,0,0,0,0,0,0,0,0,0,0,0,0,0,0,0,0,0,0,0,0,0,0,0,0,0,0,0,0,0,0,0,0,0,0,0,0,0,0,0,0,0,0,0,0,0,0,0,0,0,0,0,0,0,0,0,0,0,0,0,0,0,0],"sum_hessian":[7.1056E4,5.7582E4,1.3474E4,5.4778E4,2.804E3,2.661E3,1.0813E4,5.3508E4,1.27E3,1.35E3,1.454E3,1.603E3,1.058E3,1.405E3,9.408E3,5.3168E4,3.4E2,2.83E2,9.87E2,1.06E3,2.9E2,3.95E2,1.059E3,1.024E3,5.79E2,7.29E2,3.29E2,8.13E2,5.92E2,2.625E3,6.783E3,5.1617E4,1.551E3,9.7E1,2.43E2,1.94E2,8.9E1,4.91E2,4.96E2,8.36E2,2.24E2,4.2E1,2.48E2,2.79E2,1.16E2,4.06E2,6.53E2,6.82E2,3.42E2,4.84E2,9.5E1,1E0,7.28E2,2.02E2,1.27E2,7.16E2,9.7E1,2.3E1,5.69E2,2.539E3,8.6E1,1.419E3,5.364E3],"tree_param":{"num_deleted":"0","num_feature":"110","num_nodes":"63","size_leaf_vector":"0"}},{"base_weights":[3.6952415E0,2.9744155E0,1.486361E1,1.8756543E0,7.600655E0,3.5535352E0,1.6676397E1,1.1477088E0,7.2834415E0,4.106841E0,1.2131622E1,4.1916637E0,3.5521287E-1,3.4056544E0,1.7353054E1,9.697113E-1,1.0298739E1,2.402773E0,1.2779806E1,1.1880188E1,3.4514172E0,1.0995973E1,1.7435003E1,4.0256467E0,1.159817E1,-4.529823E-1,3.8059762E0,-2.8315738E-1,6.892073E0,1.33026905E1,1.9124256E1,7.621248E-1,2.9992938E0,5.6772366E0,1.4805037E1,8.8424575E-1,4.091762E0,9.9645405E0,1.571955E1,-0E0,1.18928795E1,2.115816E0,5.444049E0,7.3192663E0,1.3026103E1,7.111021E0,1.9504139E1,2.9534142E0,4.673765E0,-0E0,1.3214441E1,6.839326E0,-0E0,-4.7433108E-1,3.1744766E0,8.512562E0,1.6142021E0,3.125242E0,1.4317428E1,1.601383E1,2.1205599E1],"categories":[],"categories_nodes":[],"categories_segments":[],"categories_sizes":[],"default_left":[true,true,true,true,true,true,true,true,true,true,true,true,true,true,true,true,true,true,true,true,true,true,true,true,true,false,true,true,true,true,true,false,false,false,false,false,false,false,false,false,false,false,false,false,false,false,false,false,false,false,false,false,false,false,false,false,false,false,false,false,false],"id":1,"left_children":[1,3,5,7,9,11,13,15,17,19,21,23,25,27,29,31,33,35,37,39,41,43,45,47,49,-1,51,53,55,57,59,-1,-1,-1,-1,-1,-1,-1,-1,-1,-1,-1,-1,-1,-1,-1,-1,-1,-1,-1,-1,-1,-1,-1,-1,-1,-1,-1,-1,-1,-1],"loss_changes":[5.7181825E5,3.391952E5,8.804375E4,2.12258E5,2.0255881E5,1.1714844E3,3.3057125E4,7.7323125E4,1.7144978E5,3.666682E4,3.3101E4,4.057256E2,3.2250967E2,2.408696E3,2.47455E4,1.9610605E4,1.857936E4,8.643777E3,2.4481188E4,2.78125E1,1.7677469E4,3.4006625E4,2.0529656E4,2.4835742E2,1.8631372E2,0E0,2.894129E2,3.2673058E1,6.975005E2,1.0924125E4,1.5162125E4,0E0,0E0,0E0,0E0,0E0,0E0,0E0,0E0,0E0,0E0,0E0,0E0,0E0,0E0,0E0,0E0,0E0,0E0,0E0,0E0,0E0,0E0,0E0,0E0,0E0,0E0,0E0,0E0,0E0,0E0],"parents":[2147483647,0,0,1,1,2,2,3,3,4,4,5,5,6,6,7,7,8,8,9,9,10,10,11,11,12,12,13,13,14,14,15,15,16,16,17,17,18,18,19,19,20,20,21,21,22,22,23,23,24,24,26,26,27,27,28,28,29,29,30,30],"right_children":[2,4,6,8,10,12,14,16,18,20,22,24,26,28,30,32,34,36,38,40,42,44,46,48,50,-1,52,54,56,58,60,-1,-1,-1,-1,-1,-1,-1,-1,-1,-1,-1,-1,-1,-1,-1,-1,-1,-1,-1,-1,-1,-1,-1,-1,-1,-1,-1,-1,-1,-1],"split_conditions":[9.245014E-2,6.5E0,7.5E0,8.933433E-1,1.55E1,3.25E1,1.35E1,1.15831845E-1,7.5E0,-4.7E1,1.5504807E-2,3.05E1,3.15E1,9.5E0,1.45E1,1.8693222E-2,1.35E1,4.5E0,1.25E1,6E0,1.25E1,1.9251461E1,1.25E1,5.5E0,2.65E1,-4.529823E-2,3.85E1,1.25E1,3.6E1,-2.8937291E-2,1.55E1,7.621248E-2,2.9992938E-1,5.677237E-1,1.4805037E0,8.842458E-2,4.091762E-1,9.9645406E-1,1.5719551E0,-0E0,1.189288E0,2.1158162E-1,5.444049E-1,7.319266E-1,1.3026103E0,7.111021E-1,1.950414E0,2.9534143E-1,4.6737653E-1,-0E0,1.3214442E0,6.839326E-1,-0E0,-4.7433108E-2,3.1744766E-1,8.512562E-1,1.6142021E-1,3.125242E-1,1.4317428E0,1.6013831E0,2.12056E0],"split_indices":[10,97,98,104,27,92,27,8,98,29,10,92,27,23,98,8,98,97,98,21,23,108,92,98,27,0,23,27,21,104,92,0,0,0,0,0,0,0,0,0,0,0,0,0,0,0,0,0,0,0,0,0,0,0,0,0,0,0,0,0,0],"split_type":[0,0,0,0,0,0,0,0,0,0,0,0,0,0,0,0,0,0,0,0,0,0,0,0,0,0,0,0,0,0,0,0,0,0,0,0,0,0,0,0,0,0,0,0,0,0,0,0,0,0,0,0,0,0,0,0,0,0,0,0,0],"sum_hessian":[7.1056E4,6.675E4,4.306E3,5.3942E4,1.2808E4,5.96E2,3.71E3,4.7545E4,6.397E3,7.234E3,5.574E3,4.94E2,1.02E2,1.81E2,3.529E3,4.664E4,9.05E2,3.39E3,3.007E3,5.6E2,6.674E3,4.595E3,9.79E2,4.86E2,8E0,8.1E1,2.1E1,8.7E1,9.4E1,1.078E3,2.451E3,4.2318E4,4.322E3,4.49E2,4.56E2,1.789E3,1.601E3,1.54E3,1.467E3,1E0,5.59E2,4E3,2.674E3,1.638E3,2.957E3,1.65E2,8.14E2,1.91E2,2.95E2,1E0,7E0,1.2E1,9E0,8.6E1,1E0,7E1,2.4E1,9.9E1,9.79E2,9.88E2,1.463E3],"tree_param":{"num_deleted":"0","num_feature":"110","num_nodes":"61","size_leaf_vector":"0"}},{"base_weights":[3.3263428E0,5.2764916E-1,1.4173175E1,3.1716738E0,-5.592298E-2,1.1679028E1,1.9020483E1,1.5364394E1,3.0009727E0,-7.250599E-1,6.1693156E-1,9.078754E0,1.3311476E1,1.8122034E1,2.2981668E1,2.361002E0,2.8565552E1,1.53344E0,3.7212985E0,-6.552857E-1,-1.0900413E0,1.7751596E1,5.4410505E-1,8.491448E0,1.3585827E1,1.3692528E1,7.645351E-1,1.6498005E1,1.8627226E1,1.2292678E0,1.0011216E1,1.1479672E0,2.239173E0,7.0319543E0,3.4087026E0,-4.65187E-1,-6.865169E-1,-9.222901E-1,-1.250646E0,4.4419757E-1,2.4623524E1,4.0581194E-1,3.2000842E0,8.158054E0,1.7976624E1,2.1790531E1,1.2228602E1,2.4388044E1,1.3483036E1,1.4506665E1,-6.378445E-1,1.6555412E1,-0E0,1.8271711E1,2.2328207E1],"categories":[],"categories_nodes":[],"categories_segments":[],"categories_sizes":[],"default_left":[true,true,true,true,true,true,true,true,true,true,true,true,true,true,false,true,false,true,true,true,true,true,true,true,true,true,true,true,true,false,false,false,false,false,false,false,false,false,false,false,false,false,false,false,false,false,false,false,false,false,false,false,false,false,false],"id":2,"left_children":[1,3,5,7,9,11,13,15,17,19,21,23,25,27,-1,29,-1,31,33,35,37,39,41,43,45,47,49,51,53,-1,-1,-1,-1,-1,-1,-1,-1,-1,-1,-1,-1,-1,-1,-1,-1,-1,-1,-1,-1,-1,-1,-1,-1,-1,-1],"loss_changes":[2.15692E6,8.718651E4,1.7565725E5,2.1032875E4,2.0833758E4,4.051575E4,1.6782E4,2.3655668E4,1.0594156E4,5.728291E2,2.8587979E4,9.505531E3,2.8096062E4,2.656E3,0E0,4.986653E2,0E0,8.678218E2,6.8613125E3,1.0398242E2,7.680127E1,1.1275098E4,8.398871E3,1.0008625E4,4.1259844E3,1.214025E4,3.5397573E3,1.02209375E3,3.224125E3,0E0,0E0,0E0,0E0,0E0,0E0,0E0,0E0,0E0,0E0,0E0,0E0,0E0,0E0,0E0,0E0,0E0,0E0,0E0,0E0,0E0,0E0,0E0,0E0,0E0,0E0],"parents":[2147483647,0,0,1,1,2,2,3,3,4,4,5,5,6,6,7,7,8,8,9,9,10,10,11,11,12,12,13,13,15,15,17,17,18,18,19,19,20,20,21,21,22,22,23,23,24,24,25,25,26,26,27,27,28,28],"right_children":[2,4,6,8,10,12,14,16,18,20,22,24,26,28,-1,30,-1,32,34,36,38,40,42,44,46,48,50,52,54,-1,-1,-1,-1,-1,-1,-1,-1,-1,-1,-1,-1,-1,-1,-1,-1,-1,-1,-1,-1,-1,-1,-1,-1,-1,-1],"split_conditions":[7.207615E0,8.1284344E-1,1.780625E1,-3.481971E-1,3.2742947E-1,1.3023796E1,2.355584E1,8.0625E-1,2.767594E0,6.5E0,-4.1040844E-1,3.4231466E-1,1.7770979E1,1.8960403E1,2.298167E0,3.846154E-2,2.8565552E0,1.25E1,1.5E0,9.8857105E-1,1.936459E1,8.5E0,3.5122414E1,4.05E1,-4.5E0,-5.3390944E-1,2.590909E-1,5.833334E-1,2.0714286E-1,1.2292679E-1,1.0011216E0,1.1479672E-1,2.2391729E-1,7.0319545E-1,3.4087026E-1,-4.6518702E-2,-6.865169E-2,-9.222901E-2,-1.250646E-1,4.4419758E-2,2.4623525E0,4.0581193E-2,3.2000843E-1,8.1580544E-1,1.7976624E0,2.179053E0,1.2228602E0,2.4388044E0,1.3483037E0,1.4506665E0,-6.378445E-2,1.6555413E0,-0E0,1.8271712E0,2.2328207E0],"split_indices":[3,4,3,106,3,3,3,4,3,28,106,5,3,3,0,11,0,2,30,4,108,20,108,19,2,106,4,10,4,0,0,0,0,0,0,0,0,0,0,0,0,0,0,0,0,0,0,0,0,0,0,0,0,0,0],"split_type":[0,0,0,0,0,0,0,0,0,0,0,0,0,0,0,0,0,0,0,0,0,0,0,0,0,0,0,0,0,0,0,0,0,0,0,0,0,0,0,0,0,0,0,0,0,0,0,0,0,0,0,0,0,0,0],"sum_hessian":[7.1056E4,5.6484E4,1.4572E4,1.0215E4,4.6269E4,9.625E3,4.947E3,1.39E2,1.0076E4,2.3206E4,2.3063E4,3.717E3,5.908E3,4.039E3,9.08E2,7.1E1,6.8E1,3.323E3,6.753E3,1.9507E4,3.699E3,9.6E1,2.2967E4,3.293E3,4.24E2,5.733E3,1.75E2,9.71E2,3.068E3,6.4E1,7E0,2.16E3,1.163E3,5.78E2,6.175E3,2.8E3,1.6707E4,1.843E3,1.856E3,2.8E1,6.8E1,2.1835E4,1.132E3,3.184E3,1.09E2,5.7E1,3.67E2,1.07E2,5.626E3,1.6E1,1.59E2,9.68E2,3E0,2.807E3,2.61E2],"tree_param":{"num_deleted":"0","num_feature":"110","num_nodes":"55","size_leaf_vector":"0"}},{"base_weights":[2.9943063E0,5.2426755E-1,1.2964232E1,-2.942217E-3,3.1793635E0,1.0795148E1,1.727547E1,-6.5269756E-1,6.1699754E-1,2.8774018E0,1.7809168E1,9.013296E0,1.2497988E1,1.6454828E1,2.0686028E1,-5.736785E-1,-1.0218648E0,5.0039697E-1,3.7091577E0,1.7682407E0,3.721885E0,5.965503E-1,2.4218294E1,4.964577E0,9.413811E0,1.2731261E1,-4.6300915E-1,1.6152895E1,1.8571203E1,-6.002567E-1,-4.1352263E-1,-8.6838704E-1,-1.3865281E0,3.10427E-1,1.2930129E0,2.9527897E1,1.1133921E0,3.971539E0,1.2520986E0,1.4603033E1,3.5421603E0,-1.3627584E0,5.0375814E0,6.0010295E0,-8.1227416E-1,9.203806E0,1.7455692E1,1.2976106E1,1.9790603E0,-8.119771E-1,4.3065863E0,1.5602595E1,1.7643326E1,-6.1596376E-1,1.8677013E1],"categories":[],"categories_nodes":[],"categories_segments":[],"categories_sizes":[],"default_left":[true,true,true,true,true,true,true,true,true,true,true,true,true,true,false,true,true,true,true,true,true,true,false,true,true,true,true,true,true,false,false,false,false,false,false,false,false,false,false,false,false,false,false,false,false,false,false,false,false,false,false,false,false,false,false],"id":3,"left_children":[1,3,5,7,9,11,13,15,17,19,21,23,25,27,-1,29,31,33,35,37,39,41,-1,43,45,47,49,51,53,-1,-1,-1,-1,-1,-1,-1,-1,-1,-1,-1,-1,-1,-1,-1,-1,-1,-1,-1,-1,-1,-1,-1,-1,-1,-1],"loss_changes":[1.7497154E6,7.974996E4,1.3146275E5,1.913943E4,4.1435547E4,2.81635E4,1.2495875E4,6.6043555E2,8.71988E3,8.601766E3,2.0697793E4,7.260625E3,1.46291875E4,1.788E3,0E0,7.1086426E1,2.0392334E2,3.5111929E3,5.8637777E4,4.497338E3,1.0023992E4,5.0478482E2,0E0,2.5595078E3,6.6286562E3,1.2229625E4,1.10027824E2,2.137375E3,1.1361719E3,0E0,0E0,0E0,0E0,0E0,0E0,0E0,0E0,0E0,0E0,0E0,0E0,0E0,0E0,0E0,0E0,0E0,0E0,0E0,0E0,0E0,0E0,0E0,0E0,0E0,0E0],"parents":[2147483647,0,0,1,1,2,2,3,3,4,4,5,5,6,6,7,7,8,8,9,9,10,10,11,11,12,12,13,13,15,15,16,16,17,17,18,18,19,19,20,20,21,21,23,23,24,24,25,25,26,26,27,27,28,28],"right_children":[2,4,6,8,10,12,14,16,18,20,22,24,26,28,-1,30,32,34,36,38,40,42,-1,44,46,48,50,52,54,-1,-1,-1,-1,-1,-1,-1,-1,-1,-1,-1,-1,-1,-1,-1,-1,-1,-1,-1,-1,-1,-1,-1,-1,-1,-1],"split_conditions":[7.7602625E0,2.8657656E0,1.8010204E1,3.2742947E-1,4.85E1,1.4614379E1,2.355584E1,6.5E0,3.5084698E1,3.8966346E0,2.85E1,6.5E0,4.45E1,3.85E1,2.0686028E0,6.8337485E-2,9.5E0,2.0277991E0,3.514104E1,2.5E0,3.9140394E0,9.5E0,2.4218295E0,2.2445736E0,3.95E1,4.15E1,8E0,2.1760952E1,1.5E0,-6.002567E-2,-4.1352265E-2,-8.683871E-2,-1.3865282E-1,3.10427E-2,1.293013E-1,2.9527898E0,1.1133921E-1,3.971539E-1,1.2520985E-1,1.4603033E0,3.5421604E-1,-1.3627584E-1,5.0375813E-1,6.0010296E-1,-8.1227414E-2,9.203806E-1,1.7455692E0,1.2976106E0,1.9790603E-1,-8.119771E-2,4.3065864E-1,1.5602596E0,1.7643327E0,-6.1596375E-2,1.8677014E0],"split_indices":[3,3,3,3,25,3,3,97,108,3,0,25,19,25,0,3,43,3,108,26,3,26,0,105,43,25,26,3,97,0,0,0,0,0,0,0,0,0,0,0,0,0,0,0,0,0,0,0,0,0,0,0,0,0,0],"split_type":[0,0,0,0,0,0,0,0,0,0,0,0,0,0,0,0,0,0,0,0,0,0,0,0,0,0,0,0,0,0,0,0,0,0,0,0,0,0,0,0,0,0,0,0,0,0,0,0,0,0,0,0,0,0,0],"sum_hessian":[7.1056E4,5.6949E4,1.4107E4,4.7512E4,9.437E3,9.389E3,4.718E3,2.3206E4,2.4306E4,9.248E3,1.89E2,4.594E3,4.795E3,3.81E3,9.08E2,1.9139E4,4.067E3,2.3427E4,8.79E2,4.004E3,5.244E3,5.2E1,1.37E2,4.17E2,4.177E3,4.711E3,8.4E1,3.346E3,4.64E2,1.6359E4,2.78E3,2.884E3,1.183E3,1.8909E4,4.518E3,7.9E1,8E2,7.55E2,3.249E3,8.3E1,5.161E3,3.5E1,1.7E1,3.55E2,6.2E1,4.074E3,1.03E2,4.605E3,1.06E2,8.1E1,3E0,2.457E3,8.89E2,2E0,4.62E2],"tree_param":{"num_deleted":"0","num_feature":"110","num_nodes":"55","size_leaf_vector":"0"}},{"base_weights":[2.6953156E0,4.2114255E-1,1.147804E1,2.5985003E0,-5.74621E-2,9.456313E0,1.5406746E1,2.454973E0,2.2021666E1,-5.8757114E-1,4.755026E-1,7.3372846E0,1.0804231E1,1.4679052E1,1.8615538E1,1.2723283E0,3.002406E0,-0E0,2.33689E1,-5.269573E-1,-8.75992E-1,1.4283143E1,4.1673315E-1,1.1677525E1,6.844199E0,1.1120775E1,-4.0484947E-1,1.3334034E1,1.5103411E1,1.7395456E1,1.9300726E1,2.142095E0,9.367225E-1,3.77049E0,1.827263E0,-3.6967307E-2,-0E0,-2.8230995E-1,-5.438507E-1,-6.41753E-1,-1.0940549E0,2.953822E-1,1.9810127E1,3.2220843E-1,3.7195692E0,7.95355E0,1.41631365E1,6.57144E0,1.4954343E1,2.0727549E1,1.0932637E1,8.402973E0,-8.025698E-1,-0E0,1.3352183E1,1.4797675E1,1.8281998E1,1.7471348E1,-0E0],"categories":[],"categories_nodes":[],"categories_segments":[],"categories_sizes":[],"default_left":[true,true,true,true,true,true,true,true,true,true,true,true,true,true,true,true,true,true,false,true,true,true,true,true,true,true,true,true,true,true,false,false,false,false,false,false,false,false,false,false,false,false,false,false,false,false,false,false,false,false,false,false,false,false,false,false,false,false,false],"id":4,"left_children":[1,3,5,7,9,11,13,15,17,19,21,23,25,27,29,31,33,35,-1,37,39,41,43,45,47,49,51,53,55,57,-1,-1,-1,-1,-1,-1,-1,-1,-1,-1,-1,-1,-1,-1,-1,-1,-1,-1,-1,-1,-1,-1,-1,-1,-1,-1,-1,-1,-1],"loss_changes":[1.4191285E6,5.8845492E4,1.1568125E5,2.806657E4,1.3074036E4,2.7310938E4,1.0980125E4,6.4936562E3,2.3408086E3,3.912202E2,1.8562734E4,7.7795312E3,2.1028188E4,1.827E3,5.8875E1,9.024487E2,6.1642305E3,5.466327E-3,0E0,7.09707E1,1.8625513E2,7.292176E3,7.1289854E3,3.1836055E3,7.163422E3,9.8204375E3,4.9823407E2,2.9926562E2,2.3791875E3,6.023594E2,0E0,0E0,0E0,0E0,0E0,0E0,0E0,0E0,0E0,0E0,0E0,0E0,0E0,0E0,0E0,0E0,0E0,0E0,0E0,0E0,0E0,0E0,0E0,0E0,0E0,0E0,0E0,0E0,0E0],"parents":[2147483647,0,0,1,1,2,2,3,3,4,4,5,5,6,6,7,7,8,8,9,9,10,10,11,11,12,12,13,13,14,14,15,15,16,16,17,17,19,19,20,20,21,21,22,22,23,23,24,24,25,25,26,26,27,27,28,28,29,29],"right_children":[2,4,6,8,10,12,14,16,18,20,22,24,26,28,30,32,34,36,-1,38,40,42,44,46,48,50,52,54,56,58,-1,-1,-1,-1,-1,-1,-1,-1,-1,-1,-1,-1,-1,-1,-1,-1,-1,-1,-1,-1,-1,-1,-1,-1,-1,-1,-1,-1,-1],"split_conditions":[7.1603427E0,8.1284344E-1,1.7783627E1,4.95E1,3.2742947E-1,1.3023796E1,2.3524029E1,2.6723995E0,4.9029303E0,6.5E0,-4.1040844E-1,7.5E0,1.7770979E1,1.8960403E1,2.4296703E1,2.5E0,7.403704E-1,4.3076925E0,2.33689E0,9.679979E-1,8.5E0,8.5E0,9.5E0,-2.1788127E-12,3.95E1,-5.3390944E-1,2.4242425E-1,5.5E0,2.0714286E-1,2.4267857E1,1.9300727E0,2.1420951E-1,9.367225E-2,3.77049E-1,1.8272631E-1,-3.6967308E-3,-0E0,-2.8230995E-2,-5.4385073E-2,-6.41753E-2,-1.09405495E-1,2.953822E-2,1.9810127E0,3.2220844E-2,3.719569E-1,7.95355E-1,1.4163136E0,6.57144E-1,1.4954343E0,2.0727549E0,1.0932637E0,8.4029734E-1,-8.025698E-2,-0E0,1.3352183E0,1.4797676E0,1.8281997E0,1.7471348E0,-0E0],"split_indices":[3,4,3,94,3,3,3,3,3,24,106,43,3,3,3,24,4,3,0,4,43,24,44,100,43,106,4,43,4,3,0,0,0,0,0,0,0,0,0,0,0,0,0,0,0,0,0,0,0,0,0,0,0,0,0,0,0,0,0],"split_type":[0,0,0,0,0,0,0,0,0,0,0,0,0,0,0,0,0,0,0,0,0,0,0,0,0,0,0,0,0,0,0,0,0,0,0,0,0,0,0,0,0,0,0,0,0,0,0,0,0,0,0,0,0,0,0,0,0,0,0],"sum_hessian":[7.1056E4,5.6443E4,1.4613E4,1.0174E4,4.6269E4,9.652E3,4.961E3,1.0101E4,7.3E1,2.3206E4,2.3063E4,3.758E3,5.894E3,4.051E3,9.1E2,3.203E3,6.898E3,4E0,6.9E1,1.9207E4,3.999E3,9.6E1,2.2967E4,3.79E2,3.379E3,5.733E3,1.61E2,9.85E2,3.066E3,3.42E2,5.68E2,8.82E2,2.321E3,4.165E3,2.733E3,3E0,1E0,1.28E3,1.7927E4,1.952E3,2.047E3,2.8E1,6.8E1,2.2332E4,6.35E2,1.55E2,2.24E2,3.272E3,1.07E2,1.07E2,5.626E3,5E0,1.56E2,1E0,9.84E2,2.805E3,2.61E2,3.41E2,1E0],"tree_param":{"num_deleted":"0","num_feature":"110","num_nodes":"59","size_leaf_vector":"0"}},{"base_weights":[2.4262774E0,4.2331216E-1,1.0510799E1,2.4817305E0,-5.1647622E-2,8.754619E0,1.4000952E1,2.359445E0,1.9842823E1,5.035554E-1,-4.7306433E-1,7.485812E0,1.039879E1,1.3073531E1,1.5985521E1,1.172619E0,2.900222E0,-0E0,2.1065393E1,4.1255966E-1,4.3461094E0,-5.033641E-1,2.0380595E0,7.3308134E0,1.6083519E1,1.0834149E1,4.362445E-1,1.2298147E1,1.4416365E1,1.5105202E1,1.7374046E1,7.500968E-1,1.6663171E0,3.6489933E0,1.639636E0,-3.4194678E-2,-0E0,5.329579E-1,-7.432748E-1,-3.1836623E-1,2.6241049E1,-6.021288E-2,-5.4764163E-1,-6.0374105E-1,1.9629477E1,4.7438273E0,7.9265842E0,1.8642218E1,-3.5434623E0,-1.3571073E-1,1.1089244E1,-6.868401E-1,1.5080889E1,1.1963161E1,1.3577613E1,1.4479898E1,-0E0,1.5130757E1,-0E0],"categories":[],"categories_nodes":[],"categories_segments":[],"categories_sizes":[],"default_left":[true,true,true,true,true,true,true,true,true,true,true,true,true,true,true,true,true,true,false,true,true,true,true,true,true,true,true,true,true,true,false,false,false,false,false,false,false,false,false,false,false,false,false,false,false,false,false,false,false,false,false,false,false,false,false,false,false,false,false],"id":5,"left_children":[1,3,5,7,9,11,13,15,17,19,21,23,25,27,29,31,33,35,-1,37,39,41,43,45,47,49,51,53,55,57,-1,-1,-1,-1,-1,-1,-1,-1,-1,-1,-1,-1,-1,-1,-1,-1,-1,-1,-1,-1,-1,-1,-1,-1,-1,-1,-1,-1,-1],"loss_changes":[1.1505134E6,5.5702496E4,8.61225E4,2.2406992E4,1.0825811E4,1.9332125E4,8.1859375E3,6.764168E3,1.9259746E3,6.928359E3,1.9878931E3,6.72025E3,1.7596031E4,2.9134375E3,1.2401562E3,6.688013E2,6.8135977E3,4.677104E-3,0E0,2.7116438E3,4.714452E4,5.0416943E2,1.4608742E4,7.8748438E3,4.837242E3,1.10581875E4,2.9996597E3,4.63375E2,1.0996406E3,4.8735938E2,0E0,0E0,0E0,0E0,0E0,0E0,0E0,0E0,0E0,0E0,0E0,0E0,0E0,0E0,0E0,0E0,0E0,0E0,0E0,0E0,0E0,0E0,0E0,0E0,0E0,0E0,0E0,0E0,0E0],"parents":[2147483647,0,0,1,1,2,2,3,3,4,4,5,5,6,6,7,7,8,8,9,9,10,10,11,11,12,12,13,13,14,14,15,15,16,16,17,17,19,19,20,20,21,21,22,22,23,23,24,24,25,25,26,26,27,27,28,28,29,29],"right_children":[2,4,6,8,10,12,14,16,18,20,22,24,26,28,30,32,34,36,-1,38,40,42,44,46,48,50,52,54,56,58,-1,-1,-1,-1,-1,-1,-1,-1,-1,-1,-1,-1,-1,-1,-1,-1,-1,-1,-1,-1,-1,-1,-1,-1,-1,-1,-1,-1,-1],"split_conditions":[7.7602625E0,8.1284344E-1,1.8010204E1,4.95E1,9.5538974E-1,1.5412779E1,2.2494186E1,2.767594E0,4.9029303E0,9.542842E-1,1.5443098E-2,3.95E1,3.4313726E-1,7.229965E-2,2.4296703E1,5.5E0,7.403704E-1,4.3076925E0,2.1065395E0,1.8350169E-2,4.35E1,9.679135E-1,9.796082E-1,9.183932E0,8E0,-2.4850038E-3,3.693182E-1,2.1744564E1,6.333333E-1,2.4267857E1,1.7374047E0,7.500968E-2,1.6663171E-1,3.6489934E-1,1.639636E-1,-3.419468E-3,-0E0,5.329579E-2,-7.4327484E-2,-3.1836625E-2,2.624105E0,-6.021288E-3,-5.4764163E-2,-6.0374107E-2,1.9629477E0,4.7438273E-1,7.9265845E-1,1.8642218E0,-3.5434625E-1,-1.3571073E-2,1.1089244E0,-6.868401E-2,1.508089E0,1.1963161E0,1.3577613E0,1.4479898E0,-0E0,1.5130757E0,-0E0],"split_indices":[3,4,3,94,4,3,3,3,3,4,10,27,9,4,3,65,4,3,0,12,65,4,4,3,65,100,9,3,10,3,0,0,0,0,0,0,0,0,0,0,0,0,0,0,0,0,0,0,0,0,0,0,0,0,0,0,0,0,0],"split_type":[0,0,0,0,0,0,0,0,0,0,0,0,0,0,0,0,0,0,0,0,0,0,0,0,0,0,0,0,0,0,0,0,0,0,0,0,0,0,0,0,0,0,0,0,0,0,0,0,0,0,0,0,0,0,0,0,0,0,0],"sum_hessian":[7.1056E4,5.6949E4,1.4107E4,1.068E4,4.6269E4,9.389E3,4.718E3,1.0607E4,7.3E1,1.9955E4,2.6314E4,5.306E3,4.083E3,3.224E3,1.494E3,3.327E3,7.28E3,4E0,6.9E1,1.9497E4,4.58E2,2.6005E4,3.09E2,5.215E3,9.1E1,3.911E3,1.72E2,2.055E3,1.169E3,9.26E2,5.68E2,1.805E3,1.522E3,4.561E3,2.719E3,3E0,1E0,1.7666E4,1.831E3,3.78E2,8E1,2.383E3,2.3622E4,2.69E2,4E1,9.81E2,4.234E3,8.1E1,1E1,8.8E1,3.823E3,1.6E2,1.2E1,1.643E3,4.12E2,1.164E3,5E0,9.25E2,1E0],"tree_param":{"num_deleted":"0","num_feature":"110","num_nodes":"59","size_leaf_vector":"0"}},{"base_weights":[2.1840322E0,9.035469E0,4.256122E-1,7.7664213E0,1.1951449E1,2.5515122E0,-4.6409108E-2,6.257122E0,9.666111E0,9.825385E0,1.3244135E1,2.4406893E0,1.726434E1,4.5327863E-1,-4.2572594E-1,4.7158093E0,8.461672E0,9.857024E0,6.5700656E-1,1.0978859E1,4.6396875E0,1.2976179E1,2.1826296E1,4.1668763E0,1.6964555E0,1.8984632E1,-0E0,3.931864E-1,1.3750573E1,-1.6693884E-1,-5.005902E-1,3.6799462E0,6.9081697E0,6.852053E0,9.055045E0,1.0232682E1,5.5801206E0,1.0053527E1,-4.581276E0,1.01640005E1,1.24597645E1,2.9315278E-1,9.300588E0,1.2104253E1,1.4448133E1,1.0271824E1,3.401364E0,3.9365175E0,1.331603E0,-1.3999532E0,2.2874749E0,3.147122E-1,5.9263444E0,-0E0,1.7805302E1,-3.016358E-1,7.6767755E0,-4.4296965E-1,-7.339357E-1],"categories":[],"categories_nodes":[],"categories_segments":[],"categories_sizes":[],"default_left":[true,true,true,true,true,true,true,true,true,true,true,true,true,true,true,true,true,true,true,true,true,true,false,true,true,false,true,true,true,true,true,false,false,false,false,false,false,false,false,false,false,false,false,false,false,false,false,false,false,false,false,false,false,false,false,false,false,false,false],"id":6,"left_children":[1,3,5,7,9,11,13,15,17,19,21,23,25,27,29,31,33,35,37,39,41,43,-1,45,47,-1,49,51,53,55,57,-1,-1,-1,-1,-1,-1,-1,-1,-1,-1,-1,-1,-1,-1,-1,-1,-1,-1,-1,-1,-1,-1,-1,-1,-1,-1,-1,-1],"loss_changes":[8.559752E5,5.340825E4,5.67684E4,2.8784875E4,1.17208125E4,1.6519281E4,8.769932E3,1.9002672E4,7.5834375E3,9.776125E3,5.6421875E3,1.3041957E4,2.2163594E3,1.5799279E4,5.0306543E2,7.421992E3,1.9928125E3,6.8219375E3,4.776835E3,1.2918906E3,6.1207773E3,2.9594062E3,0E0,1.4171031E4,5.773455E3,0E0,3.072951E1,8.56261E3,5.0470195E3,6.2000933E3,2.619253E2,0E0,0E0,0E0,0E0,0E0,0E0,0E0,0E0,0E0,0E0,0E0,0E0,0E0,0E0,0E0,0E0,0E0,0E0,0E0,0E0,0E0,0E0,0E0,0E0,0E0,0E0,0E0,0E0],"parents":[2147483647,0,0,1,1,2,2,3,3,4,4,5,5,6,6,7,7,8,8,9,9,10,10,11,11,12,12,13,13,14,14,15,15,16,16,17,17,18,18,19,19,20,20,21,21,23,23,24,24,26,26,27,27,28,28,29,29,30,30],"right_children":[2,4,6,8,10,12,14,16,18,20,22,24,26,28,30,32,34,36,38,40,42,44,-1,46,48,-1,50,52,54,56,58,-1,-1,-1,-1,-1,-1,-1,-1,-1,-1,-1,-1,-1,-1,-1,-1,-1,-1,-1,-1,-1,-1,-1,-1,-1,-1,-1,-1],"split_conditions":[4.7655678E-1,2.85E1,8.1284344E-1,2.45E1,1.45E1,5.05E1,9.5538974E-1,7.5E0,1.2086013E-1,3.1698564E-1,4.7493735E-1,6.4793766E-1,-1.8340789E-1,5.593319E0,9.8857105E-1,1.85E1,1.25E1,3.1414473E-1,3.45E1,6.5E0,-1.8438882E-1,3.95E1,2.1826296E0,8.5E0,2.5E0,1.8984632E0,9.5E0,2.6260114E-1,8.5E0,7.5E0,6.5E0,3.6799464E-1,6.90817E-1,6.8520534E-1,9.055045E-1,1.0232682E0,5.5801207E-1,1.0053527E0,-4.581276E-1,1.0164001E0,1.2459764E0,2.9315278E-2,9.300588E-1,1.2104253E0,1.4448134E0,1.0271825E0,3.401364E-1,3.9365175E-1,1.3316031E-1,-1.3999532E-1,2.2874749E-1,3.147122E-2,5.9263444E-1,-0E0,1.7805302E0,-3.016358E-2,7.6767755E-1,-4.4296965E-2,-7.3393576E-2],"split_indices":[4,21,4,92,96,21,4,21,102,4,4,4,106,107,4,92,96,4,96,26,106,21,0,96,26,0,95,106,24,24,24,0,0,0,0,0,0,0,0,0,0,0,0,0,0,0,0,0,0,0,0,0,0,0,0,0,0,0,0],"split_type":[0,0,0,0,0,0,0,0,0,0,0,0,0,0,0,0,0,0,0,0,0,0,0,0,0,0,0,0,0,0,0,0,0,0,0,0,0,0,0,0,0,0,0,0,0,0,0,0,0,0,0,0,0,0,0,0,0,0,0],"sum_hessian":[7.1056E4,1.451E4,5.6546E4,1.0115E4,4.395E3,1.0277E4,4.6269E4,5.642E3,4.473E3,1.668E3,2.727E3,1.0202E4,7.5E1,1.9955E4,2.6314E4,3.325E3,2.317E3,4.379E3,9.4E1,1.362E3,3.06E2,2.648E3,7.9E1,3.068E3,7.134E3,6.8E1,7E0,1.9867E4,8.8E1,5.935E3,2.0379E4,2.263E3,1.062E3,6.32E2,1.685E3,4.022E3,3.57E2,3.4E1,6E1,8.88E2,4.74E2,1.6E2,1.46E2,1.673E3,9.75E2,3.39E2,2.729E3,9.94E2,6.14E3,4E0,3E0,1.9592E4,2.75E2,2E1,6.8E1,5.837E3,9.8E1,1.638E4,3.999E3],"tree_param":{"num_deleted":"0","num_feature":"110","num_nodes":"59","size_leaf_vector":"0"}},{"base_weights":[1.9661535E0,2.9842937E-1,8.406626E0,-2.1423493E-1,1.3593158E0,6.953562E0,1.1449879E1,2.2391996E-1,-3.8507462E-1,1.2603678E0,2.3055393E1,5.3888206E0,7.90907E0,1.0870859E1,1.3853831E1,-1.7048287E-1,5.263446E-1,-4.137296E-1,2.0554779E0,8.3128494E-1,2.4586992E0,2.3957817E1,-0E0,4.7298675E0,7.769714E0,8.037175E0,-5.8202726E-1,9.923817E0,1.1444042E1,1.3588935E1,1.6564306E1,5.983207E-1,-4.327957E-1,3.4320414E-1,8.293257E0,-8.0635166E-1,-3.9381507E-1,1.0942811E1,-1.3482969E-1,1.2383293E1,7.5204414E-1,2.2428749E0,1.3301616E1,3.4108822E0,6.0906305E0,4.728035E0,1.0410244E1,7.675785E0,1.1446241E1,-1.0645719E0,7.6794596E0,9.593417E0,1.1509317E1,1.0868106E1,1.2315586E1],"categories":[],"categories_nodes":[],"categories_segments":[],"categories_sizes":[],"default_left":[true,true,true,true,true,true,true,true,true,true,true,true,true,true,true,true,true,true,true,true,true,false,false,true,true,true,true,true,true,false,false,false,false,false,false,false,false,false,false,false,false,false,false,false,false,false,false,false,false,false,false,false,false,false,false],"id":7,"left_children":[1,3,5,7,9,11,13,15,17,19,21,23,25,27,29,31,33,35,37,39,41,-1,-1,43,45,47,49,51,53,-1,-1,-1,-1,-1,-1,-1,-1,-1,-1,-1,-1,-1,-1,-1,-1,-1,-1,-1,-1,-1,-1,-1,-1,-1,-1],"loss_changes":[7.6312875E5,3.0710424E4,6.4360125E4,2.849827E3,3.922002E4,1.4620125E4,6.1706875E3,1.2749042E3,1.9000652E3,9.3818125E3,1.7994102E3,5.735742E3,6.7558438E3,1.7415E3,1.26046875E2,9.2869214E2,8.512261E3,1.994082E2,6.221877E3,1.2210692E4,1.1099004E4,0E0,0E0,5.1789453E3,6.3050312E3,7.1720625E3,3.0480115E2,4.3865625E2,8.1940625E2,0E0,0E0,0E0,0E0,0E0,0E0,0E0,0E0,0E0,0E0,0E0,0E0,0E0,0E0,0E0,0E0,0E0,0E0,0E0,0E0,0E0,0E0,0E0,0E0,0E0,0E0],"parents":[2147483647,0,0,1,1,2,2,3,3,4,4,5,5,6,6,7,7,8,8,9,9,10,10,11,11,12,12,13,13,14,14,15,15,16,16,17,17,18,18,19,19,20,20,23,23,24,24,25,25,26,26,27,27,28,28],"right_children":[2,4,6,8,10,12,14,16,18,20,22,24,26,28,30,32,34,36,38,40,42,-1,-1,44,46,48,50,52,54,-1,-1,-1,-1,-1,-1,-1,-1,-1,-1,-1,-1,-1,-1,-1,-1,-1,-1,-1,-1,-1,-1,-1,-1,-1,-1],"split_conditions":[7.1603427E0,1.4040507E0,1.8010204E1,9.510196E-1,9.534632E-1,1.3023796E1,2.355584E1,8.5E0,4.2251694E1,3.902381E0,1.4219368E0,1.4923525E1,4.45E1,2.25E1,2.7324074E1,8.7411976E-1,3.35E1,-2.3606241E-1,4.227038E1,-4.1040844E-1,5.05E1,2.3957818E0,-0E0,9.948334E0,-1.6510633E-1,3.35E1,7.5E0,2.1941538E1,7.0197046E-2,1.3588935E0,1.6564306E0,5.9832074E-2,-4.327957E-2,3.4320414E-2,8.293257E-1,-8.063517E-2,-3.9381508E-2,1.0942811E0,-1.3482968E-2,1.2383293E0,7.520442E-2,2.242875E-1,1.3301616E0,3.4108824E-1,6.090631E-1,4.728035E-1,1.0410244E0,7.6757854E-1,1.1446241E0,-1.0645719E-1,7.6794595E-1,9.593417E-1,1.1509317E0,1.0868106E0,1.2315587E0],"split_indices":[3,3,3,4,4,3,3,20,109,3,3,109,21,29,3,4,21,106,109,106,21,0,0,3,106,29,20,3,4,0,0,0,0,0,0,0,0,0,0,0,0,0,0,0,0,0,0,0,0,0,0,0,0,0,0],"split_type":[0,0,0,0,0,0,0,0,0,0,0,0,0,0,0,0,0,0,0,0,0,0,0,0,0,0,0,0,0,0,0,0,0,0,0,0,0,0,0,0,0,0,0,0,0,0,0,0,0,0,0,0,0,0,0],"sum_hessian":[7.1056E4,5.6443E4,1.4613E4,3.8048E4,1.8395E4,9.895E3,4.718E3,1.0657E4,2.7391E4,1.8313E4,8.2E1,3.758E3,6.137E3,3.81E3,9.08E2,4.611E3,6.046E3,2.7078E4,3.13E2,1.3492E4,4.821E3,7.9E1,3E0,2.949E3,8.09E2,6.047E3,9E1,1.45E3,2.36E3,8.36E2,7.2E1,1.163E3,3.448E3,5.909E3,1.37E2,1.281E3,2.5797E4,6.2E1,2.51E2,9E1,1.3402E4,4.729E3,9.2E1,1.503E3,1.446E3,3.79E2,4.3E2,5.473E3,5.74E2,8.7E1,3E0,1.211E3,2.39E2,1.436E3,9.24E2],"tree_param":{"num_deleted":"0","num_feature":"110","num_nodes":"55","size_leaf_vector":"0"}},{"base_weights":[1.7700348E0,2.6877782E-1,7.5675697E0,-1.9273677E-1,1.2238714E0,6.206986E0,1.0210889E1,-2.5069162E-1,1.975855E0,1.2249072E1,1.0670521E0,5.3118753E0,7.557434E0,9.4797125E0,1.1893502E1,-3.9165688E-1,-1.4649274E-2,1.0138549E1,4.2909676E-1,-3.2273594E-1,2.1430803E1,5.1939094E-1,1.955994E0,2.6151507E0,5.614661E0,7.933569E0,-9.7179276E-1,1.0501643E1,9.121102E0,1.122856E1,1.293833E1,-3.4591073E-1,-6.2969565E-1,-1.7896837E-1,5.030832E-1,-0E0,1.1828637E1,-1.4399798E-1,5.9358234E0,1.6082077E0,-7.797607E-1,2.1585138E1,-0E0,2.2557628E0,3.0777192E-1,1.6880121E0,1.226003E1,3.239558E0,-2.8085854E0,5.8388505E0,1.6011559E0,-1.2314497E0,8.150781E0,5.2190843E0,-1.2658913E0,9.074575E0,1.1634605E1,8.897839E0,1.0756399E1,1.2327809E1,1.044815E1],"categories":[],"categories_nodes":[],"categories_segments":[],"categories_sizes":[],"default_left":[true,true,true,true,true,true,true,true,true,true,true,true,true,true,true,true,true,true,true,true,true,true,true,true,true,true,true,true,true,true,false,false,false,false,false,false,false,false,false,false,false,false,false,false,false,false,false,false,false,false,false,false,false,false,false,false,false,false,false,false,false],"id":8,"left_children":[1,3,5,7,9,11,13,15,17,19,21,23,25,27,29,31,33,35,37,39,41,43,45,47,49,51,53,55,57,59,-1,-1,-1,-1,-1,-1,-1,-1,-1,-1,-1,-1,-1,-1,-1,-1,-1,-1,-1,-1,-1,-1,-1,-1,-1,-1,-1,-1,-1,-1,-1],"loss_changes":[6.183706E5,2.4890475E4,5.2331062E4,4.765259E3,3.165978E4,1.14996875E4,5.7782188E3,1.2291902E3,1.2338928E4,2.9883754E4,8.80549E3,4.6495156E3,1.2399781E4,9.7890625E2,6.517031E2,2.4243066E2,1.1781772E3,2.7135645E3,2.6813062E3,8.916086E1,5.232656E2,4.1012285E3,1.8914854E4,2.0182871E3,4.6149375E3,7.405203E3,2.6203278E2,1.1214375E3,6.504375E2,4.386797E2,0E0,0E0,0E0,0E0,0E0,0E0,0E0,0E0,0E0,0E0,0E0,0E0,0E0,0E0,0E0,0E0,0E0,0E0,0E0,0E0,0E0,0E0,0E0,0E0,0E0,0E0,0E0,0E0,0E0,0E0,0E0],"parents":[2147483647,0,0,1,1,2,2,3,3,4,4,5,5,6,6,7,7,8,8,9,9,10,10,11,11,12,12,13,13,14,14,15,15,16,16,17,17,18,18,19,19,20,20,21,21,22,22,23,23,24,24,25,25,26,26,27,27,28,28,29,29],"right_children":[2,4,6,8,10,12,14,16,18,20,22,24,26,28,30,32,34,36,38,40,42,44,46,48,50,52,54,56,58,60,-1,-1,-1,-1,-1,-1,-1,-1,-1,-1,-1,-1,-1,-1,-1,-1,-1,-1,-1,-1,-1,-1,-1,-1,-1,-1,-1,-1,-1,-1,-1],"split_conditions":[7.1603427E0,1.4040507E0,1.7783627E1,2.4845678E-2,1.4127789E0,1.5412779E1,2.2494186E1,3.2742947E-1,2.5807526E-2,2.8897053E1,3.2921748E0,6.5E0,1.7770979E1,-4.1852993E-1,2.4296703E1,6.5E0,5.5E0,-7.028933E-2,2.1782856E0,-1.4459687E-1,7E0,1.5E0,4.85E1,4.3016085E-3,3.65E1,-2.4850038E-3,4.5454547E-2,6.5E0,3.85E1,-4.2759134E-13,1.293833E0,-3.4591075E-2,-6.2969565E-2,-1.7896837E-2,5.0308324E-2,-0E0,1.1828637E0,-1.4399799E-2,5.9358233E-1,1.6082077E-1,-7.797607E-2,2.1585138E0,-0E0,2.2557628E-1,3.0777192E-2,1.6880122E-1,1.226003E0,3.239558E-1,-2.8085855E-1,5.838851E-1,1.6011558E-1,-1.2314498E-1,8.150781E-1,5.2190846E-1,-1.2658913E-1,9.0745753E-1,1.1634606E0,8.8978386E-1,1.07564E0,1.2327809E0,1.044815E0],"split_indices":[3,3,3,8,3,3,3,3,8,108,3,25,3,107,3,28,93,107,107,107,28,30,25,100,25,100,8,95,25,107,0,0,0,0,0,0,0,0,0,0,0,0,0,0,0,0,0,0,0,0,0,0,0,0,0,0,0,0,0,0,0],"split_type":[0,0,0,0,0,0,0,0,0,0,0,0,0,0,0,0,0,0,0,0,0,0,0,0,0,0,0,0,0,0,0,0,0,0,0,0,0,0,0,0,0,0,0,0,0,0,0,0,0,0,0,0,0,0,0,0,0,0,0,0,0],"sum_hessian":[7.1056E4,5.6443E4,1.4613E4,3.8048E4,1.8395E4,9.652E3,4.961E3,3.7063E4,9.85E2,2.56E2,1.8139E4,5.812E3,3.84E3,3.467E3,1.494E3,2.3178E4,1.3885E4,1.55E2,8.3E2,1.08E2,1.48E2,1.1232E4,6.907E3,5.91E2,5.221E3,3.679E3,1.61E2,8.86E2,2.581E3,9.26E2,5.68E2,1.9479E4,3.699E3,1.0555E4,3.33E3,2.2E1,1.33E2,7.51E2,7.9E1,1.6E1,9.2E1,1.47E2,1E0,1.214E3,1.0018E4,6.734E3,1.73E2,5.32E2,5.9E1,4.942E3,2.79E2,8.4E1,3.595E3,5E0,1.56E2,4E2,4.86E2,2.282E3,2.99E2,3.73E2,5.53E2],"tree_param":{"num_deleted":"0","num_feature":"110","num_nodes":"61","size_leaf_vector":"0"}},{"base_weights":[1.5934055E0,6.334387E-1,5.6944156E0,8.713514E0,5.9561306E-1,2.1153958E0,6.500912E0,1.8179762E0,1.479167E1,5.1214486E-1,3.3825922E0,-0E0,2.6520674E0,9.0410795E0,6.1722455E0,8.226477E0,9.90772E-1,1.0369321E1,1.781601E1,1.264903E-1,8.854619E-1,2.7224138E0,1.6458542E1,-3.0540082E-1,2.4924054E0,9.042041E-1,3.1573937E0,-5.81237E0,9.380815E0,5.6725144E0,8.638719E0,2.5088348E0,-2.7593288E-1,5.936515E-1,4.884981E-3,6.4654064E-1,2.732773E0,1.8971701E0,8.039891E0,1.9069075E1,-5.037572E-1,-5.28528E-1,1.7974368E0,1.3709383E1,1.0147336E0,-0E0,1.5445173E0,2.7055469E0,4.018951E0,8.004084E0,1.0739345E1,3.7823112E0,6.46265E0,1.112541E1,7.6272473E0],"categories":[],"categories_nodes":[],"categories_segments":[],"categories_sizes":[],"default_left":[true,true,true,true,true,true,true,true,true,true,true,true,true,true,true,false,true,false,false,true,true,true,true,true,true,true,true,false,true,true,true,false,false,false,false,false,false,false,false,false,false,false,false,false,false,false,false,false,false,false,false,false,false,false,false],"id":9,"left_children":[1,3,5,7,9,11,13,15,17,19,21,23,25,27,29,-1,31,-1,-1,33,35,37,39,41,43,45,47,-1,49,51,53,-1,-1,-1,-1,-1,-1,-1,-1,-1,-1,-1,-1,-1,-1,-1,-1,-1,-1,-1,-1,-1,-1,-1,-1],"loss_changes":[2.7967266E5,1.7500732E4,3.8798125E4,1.0997557E4,1.3292412E4,2.791421E3,8.9714375E3,5.729215E2,1.4192383E3,8.0023545E3,1.4119162E4,4.0839105E2,1.7018135E3,6.418203E3,1.1815625E4,0E0,2.4415912E2,0E0,0E0,1.549961E3,1.2439977E4,6.840698E3,3.6934297E3,1.989318E2,8.167731E2,2.5314304E2,5.167207E2,0E0,2.0215078E3,1.1981047E4,3.8425156E3,0E0,0E0,0E0,0E0,0E0,0E0,0E0,0E0,0E0,0E0,0E0,0E0,0E0,0E0,0E0,0E0,0E0,0E0,0E0,0E0,0E0,0E0,0E0,0E0],"parents":[2147483647,0,0,1,1,2,2,3,3,4,4,5,5,6,6,7,7,8,8,9,9,10,10,11,11,12,12,13,13,14,14,16,16,19,19,20,20,21,21,22,22,23,23,24,24,25,25,26,26,28,28,29,29,30,30],"right_children":[2,4,6,8,10,12,14,16,18,20,22,24,26,28,30,-1,32,-1,-1,34,36,38,40,42,44,46,48,-1,50,52,54,-1,-1,-1,-1,-1,-1,-1,-1,-1,-1,-1,-1,-1,-1,-1,-1,-1,-1,-1,-1,-1,-1,-1,-1],"split_conditions":[4.4610284E-2,-5.333339E-1,7.5E0,1.35E1,2.5347704E-1,5.35475E-1,-3.948117E-1,-4.9E1,7E0,7.5E0,9.5E0,6.5E0,4.5E0,4.5E0,3.45E1,8.226477E-1,3.25E1,1.0369321E0,1.781601E0,4.5E0,2.7869248E-1,1.3445866E1,2.7E1,5.294983E-2,4.5E0,1.3245615E-1,6.5E0,-5.81237E-1,3.75E1,1.4501643E-1,5.1315792E-2,2.508835E-1,-2.7593289E-2,5.936515E-2,4.8849813E-4,6.465407E-2,2.732773E-1,1.8971701E-1,8.039891E-1,1.9069074E0,-5.037572E-2,-5.28528E-2,1.7974369E-1,1.3709383E0,1.01473354E-1,-0E0,1.5445173E-1,2.705547E-1,4.018951E-1,8.0040836E-1,1.0739344E0,3.7823114E-1,6.46265E-1,1.1125411E0,7.6272476E-1],"split_indices":[14,106,98,0,106,104,106,30,30,98,44,98,15,93,19,0,98,0,0,15,104,109,98,106,15,14,98,0,65,14,14,0,0,0,0,0,0,0,0,0,0,0,0,0,0,0,0,0,0,0,0,0,0,0,0],"split_type":[0,0,0,0,0,0,0,0,0,0,0,0,0,0,0,0,0,0,0,0,0,0,0,0,0,0,0,0,0,0,0,0,0,0,0,0,0,0,0,0,0,0,0,0,0,0,0,0,0,0,0,0,0,0,0],"sum_hessian":[7.1056E4,5.7581E4,1.3475E4,2.66E2,5.7315E4,2.481E3,1.0994E4,1.26E2,1.4E2,5.5653E4,1.662E3,5.06E2,1.975E3,1.253E3,9.741E3,1.2E1,1.14E2,6E1,8E1,2.7388E4,2.8265E4,1.584E3,7.8E1,4.48E2,5.8E1,4.48E2,1.527E3,2.7E1,1.226E3,8.106E3,1.635E3,5.5E1,5.9E1,5.639E3,2.1749E4,2.5034E4,3.231E3,1.374E3,2.1E2,6.8E1,1E1,4.1E2,3.8E1,5E0,5.3E1,1.89E2,2.59E2,1.012E3,5.15E2,6.16E2,6.1E2,2.395E3,5.711E3,4.67E2,1.168E3],"tree_param":{"num_deleted":"0","num_feature":"110","num_nodes":"55","size_leaf_vector":"0"}}]},"name":"gbtree"},"learner_model_param":{"base_score":"5E-1","num_class":"0","num_feature":"110"},"objective":{"name":"reg:squarederror","reg_loss_param":{"scale_pos_weight":"1"}}},"version":[1,4,2]}
