{"learner":{"attributes":{},"feature_names":[" day"," trace 40 quant","competitiveness","empirical_distr_p","empirical_distr_q_0","empirical_distr_q_1","empirical_distr_q_10","empirical_distr_q_2","empirical_distr_q_3","empirical_distr_q_4","empirical_distr_q_5","empirical_distr_q_6","empirical_distr_q_7","empirical_distr_q_8","empirical_distr_q_9","my_layer_size","n_level","n_opp_level","opp_layer_size","trace 0 price","trace 0 quant","trace 1 price","trace 1 quant","trace 10 price","trace 10 quant","trace 11 price","trace 11 quant","trace 12 price","trace 12 quant","trace 13 price","trace 13 quant","trace 14 price","trace 14 quant","trace 15 price","trace 15 quant","trace 16 price","trace 16 quant","trace 17 price","trace 17 quant","trace 18 price","trace 18 quant","trace 19 price","trace 19 quant","trace 2 price","trace 2 quant","trace 20 price","trace 20 quant","trace 21 price","trace 21 quant","trace 22 price","trace 22 quant","trace 23 price","trace 23 quant","trace 24 price","trace 24 quant","trace 25 price","trace 25 quant","trace 26 price","trace 26 quant","trace 27 price","trace 27 quant","trace 28 price","trace 28 quant","trace 29 price","trace 29 quant","trace 3 price","trace 3 quant","trace 30 price","trace 30 quant","trace 31 price","trace 31 quant","trace 32 price","trace 32 quant","trace 33 price","trace 33 quant","trace 34 price","trace 34 quant","trace 35 price","trace 35 quant","trace 36 price","trace 36 quant","trace 37 price","trace 37 quant","trace 38 price","trace 38 quant","trace 39 price","trace 39 quant","trace 4 price","trace 4 quant","trace 40 price","trace 5 price","trace 5 quant","trace 6 price","trace 6 quant","trace 7 price","trace 7 quant","trace 8 price","trace 8 quant","trace 9 price","trace 9 quant","ufun_param_0","ufun_param_1","ufun_param_2","ufun_param_3","ufun_param_4","ufun_param_5","ufun_param_6","ufun_param_7","ufun_param_8","ufun_param_9"],"feature_types":["int","int","float","float","float","float","float","float","float","float","float","float","float","float","float","int","int","int","int","int","int","int","int","int","int","int","int","int","int","int","int","int","int","int","int","int","int","int","int","int","int","int","int","int","int","int","int","int","int","int","int","int","int","int","int","int","int","int","int","int","int","int","int","int","int","int","int","int","int","int","int","int","int","int","int","int","int","int","int","int","int","int","int","int","int","int","int","int","int","int","int","int","int","int","int","int","int","int","int","int","float","float","float","float","float","float","float","float","float","float"],"gradient_booster":{"model":{"gbtree_model_param":{"num_trees":"110","size_leaf_vector":"0"},"tree_info":[0,1,2,3,4,5,6,7,8,9,10,0,1,2,3,4,5,6,7,8,9,10,0,1,2,3,4,5,6,7,8,9,10,0,1,2,3,4,5,6,7,8,9,10,0,1,2,3,4,5,6,7,8,9,10,0,1,2,3,4,5,6,7,8,9,10,0,1,2,3,4,5,6,7,8,9,10,0,1,2,3,4,5,6,7,8,9,10,0,1,2,3,4,5,6,7,8,9,10,0,1,2,3,4,5,6,7,8,9,10],"trees":[{"base_weights":[5.183737E0,5.415645E0,1.2496668E-1,5.4517627E0,6.214689E-1,3.9068196E0,-1.0850498E-2,5.4592357E0,-0E0,2.5797842E0,-0E0,1.6704699E0,-2.6699218E-1,5.461549E0,4.079885E-1,2.8500924E0,-0E0,-1.6072804E-1,-0E0,2.7488732E0,-0E0,4.4937828E-1,-4.2663902E-1,1.0451305E0,-0E0,3.2112775E0,-0E0,-0E0,-2.1058232E-1,3.6268332E0,-0E0,1.2337589E0,-0E0,-0E0,-4.3935773E-1],"categories":[],"categories_nodes":[],"categories_segments":[],"categories_sizes":[],"default_left":[true,true,true,true,true,false,true,true,false,true,true,true,true,false,true,true,false,true,false,true,false,true,true,false,false,false,false,false,false,false,false,false,false,false,false],"id":0,"left_children":[1,3,5,7,9,-1,11,13,-1,15,17,19,21,-1,23,25,-1,27,-1,29,-1,31,33,-1,-1,-1,-1,-1,-1,-1,-1,-1,-1,-1,-1],"loss_changes":[7.3424688E3,9.7965625E2,1.824861E2,2.6601562E2,7.8215096E1,0E0,1.0187336E2,8.859375E0,0E0,1.1962547E1,8.3286357E-1,6.754728E1,2.7261957E1,0E0,2.8361378E0,1.0579422E1,0E0,5.454935E-1,0E0,4.7697723E1,0E0,1.6079037E1,1.6431084E0,0E0,0E0,0E0,0E0,0E0,0E0,0E0,0E0,0E0,0E0,0E0,0E0],"parents":[2147483647,0,0,1,1,2,2,3,3,4,4,6,6,7,7,9,9,10,10,11,11,12,12,14,14,15,15,17,17,19,19,21,21,22,22],"right_children":[2,4,6,8,10,-1,12,14,-1,16,18,20,22,-1,24,26,-1,28,-1,30,-1,32,34,-1,-1,-1,-1,-1,-1,-1,-1,-1,-1,-1,-1],"split_conditions":[7.643622E-2,7.0197046E-2,-4.147096E-2,7.5543475E-1,2.25E1,3.9068195E-1,5.5727877E-2,1.6228071E-1,-0E0,1.3392857E-1,1.35E1,5.7258062E-2,1.15E1,5.461549E-1,-2.180811E-12,2.916667E-1,-0E0,3.75E-2,-0E0,2.6785713E-1,-0E0,1.9090909E-1,8.452381E-2,1.0451305E-1,-0E0,3.2112774E-1,-0E0,-0E0,-2.1058232E-2,3.6268333E-1,-0E0,1.2337589E-1,-0E0,-0E0,-4.3935772E-2],"split_indices":[14,12,100,6,0,0,6,8,0,6,19,12,0,0,100,12,0,8,0,14,0,14,14,0,0,0,0,0,0,0,0,0,0,0,0],"split_type":[0,0,0,0,0,0,0,0,0,0,0,0,0,0,0,0,0,0,0,0,0,0,0,0,0,0,0,0,0,0,0,0,0,0,0],"sum_hessian":[6.3054546E3,6.0271074E3,2.783471E2,5.9798345E3,4.7272728E1,1.1239669E1,2.6710742E2,5.9723965E3,7.4380164E0,1.3553719E1,3.371901E1,2.9421488E1,2.3768594E2,5.967603E3,4.7933884E0,1.2396694E1,1.1570247E0,3.1239668E1,2.479339E0,1.9173553E1,1.0247933E1,3.1570248E1,2.0611569E2,2.479339E0,2.3140495E0,1.0578512E1,1.8181818E0,1.1570247E0,3.0082644E1,1.4214876E1,4.958678E0,1.3884297E1,1.768595E1,3.3057852E0,2.028099E2],"tree_param":{"num_deleted":"0","num_feature":"110","num_nodes":"35","size_leaf_vector":"0"}},{"base_weights":[-5.29299E-1,-5.3919333E-1,3.944031E-1,-5.3935105E-1,-0E0,2.447902E0,-2.6249745E-1,-0E0,3.4718533E0,4.121969E0,-0E0],"categories":[],"categories_nodes":[],"categories_segments":[],"categories_sizes":[],"default_left":[true,true,true,false,false,true,false,false,true,false,false],"id":1,"left_children":[1,3,5,-1,-1,7,-1,-1,9,-1,-1],"loss_changes":[5.929773E1,6.7871094E-1,9.898511E1,0E0,0E0,5.245864E1,0E0,0E0,3.3613586E1,0E0,0E0],"parents":[2147483647,0,0,1,1,2,2,5,5,8,8],"right_children":[2,4,6,-1,-1,8,-1,-1,10,-1,-1],"split_conditions":[3.65E1,5.15E1,3E0,-5.3935107E-2,-0E0,2.563795E-2,-2.6249746E-2,-0E0,6.311387E-2,4.1219693E-1,-0E0],"split_indices":[87,21,66,0,0,104,0,0,104,0,0],"split_type":[0,0,0,0,0,0,0,0,0,0,0],"sum_hessian":[6.3054546E3,6.249752E3,5.5702477E1,6.2484297E3,1.322314E0,1.6528925E1,3.9173553E1,4.46281E0,1.2066115E1,1.0247933E1,1.8181818E0],"tree_param":{"num_deleted":"0","num_feature":"110","num_nodes":"11","size_leaf_vector":"0"}},{"base_weights":[-5.462658E-1,-5.464227E-1,-0E0],"categories":[],"categories_nodes":[],"categories_segments":[],"categories_sizes":[],"default_left":[true,false,false],"id":2,"left_children":[1,-1,-1],"loss_changes":[2.4267578E-1,0E0,0E0],"parents":[2147483647,0,0],"right_children":[2,-1,-1],"split_conditions":[3.9249462E-1,-5.464227E-2,-0E0],"split_indices":[106,0,0],"split_type":[0,0,0],"sum_hessian":[6.3054546E3,6.3026445E3,2.8099172E0],"tree_param":{"num_deleted":"0","num_feature":"110","num_nodes":"3","size_leaf_vector":"0"}},{"base_weights":[-5.4563147E-1,-5.457892E-1,-0E0,-5.4594684E-1,-0E0],"categories":[],"categories_nodes":[],"categories_segments":[],"categories_sizes":[],"default_left":[true,true,false,false,false],"id":3,"left_children":[1,3,-1,-1,-1],"loss_changes":[6.915283E-1,6.4172363E-1,0E0,0E0,0E0],"parents":[2147483647,0,0,1,1],"right_children":[2,4,-1,-1,-1],"split_conditions":[8.472539E1,2.4932203E1,-0E0,-5.4594684E-2,-0E0],"split_indices":[108,3,0,0,0],"split_type":[0,0,0,0,0],"sum_hessian":[6.3054546E3,6.3041323E3,1.322314E0,6.3026445E3,1.4876033E0],"tree_param":{"num_deleted":"0","num_feature":"110","num_nodes":"5","size_leaf_vector":"0"}},{"base_weights":[-5.4325294E-1,-5.434103E-1,-0E0,-5.435662E-1,-0E0],"categories":[],"categories_nodes":[],"categories_segments":[],"categories_sizes":[],"default_left":[true,true,false,false,false],"id":4,"left_children":[1,3,-1,-1,-1],"loss_changes":[7.368164E-1,2.869873E-1,0E0,0E0,0E0],"parents":[2147483647,0,0,1,1],"right_children":[2,4,-1,-1,-1],"split_conditions":[4.7660083E-1,2.7525508E-1,-0E0,-5.4356623E-2,-0E0],"split_indices":[106,11,0,0,0],"split_type":[0,0,0,0,0],"sum_hessian":[6.3054546E3,6.3042974E3,1.1570247E0,6.301653E3,2.644628E0],"tree_param":{"num_deleted":"0","num_feature":"110","num_nodes":"5","size_leaf_vector":"0"}},{"base_weights":[-5.4293585E-1,-5.4656875E-1,-0E0,-5.467274E-1,-0E0,7.252746E-1,-0E0,-0E0,1.310789E0],"categories":[],"categories_nodes":[],"categories_segments":[],"categories_sizes":[],"default_left":[true,true,true,false,false,true,false,false,false],"id":5,"left_children":[1,3,5,-1,-1,7,-1,-1,-1],"loss_changes":[1.7209229E1,7.4328613E-1,4.3516474E0,0E0,0E0,4.466387E0,0E0,0E0,0E0],"parents":[2147483647,0,0,1,1,2,2,5,5],"right_children":[2,4,6,-1,-1,8,-1,-1,-1],"split_conditions":[1.3260074E-1,2.25E-1,1.4039409E-1,-5.4672744E-2,-0E0,2.125E-1,-0E0,-0E0,1.310789E-1],"split_indices":[10,9,4,0,0,10,0,0,0],"split_type":[0,0,0,0,0,0,0,0,0],"sum_hessian":[6.3054546E3,6.279504E3,2.5950413E1,6.278347E3,1.1570247E0,7.272727E0,1.8677685E1,3.1404958E0,4.132231E0],"tree_param":{"num_deleted":"0","num_feature":"110","num_nodes":"9","size_leaf_vector":"0"}},{"base_weights":[-5.3405607E-1,-5.4349613E-1,1.4498349E-1,-5.45573E-1,-0E0,4.0241677E-1,-0E0,9.523809E-1,-0E0,-0E0,-4.0131357E-2,1.2973512E0,-0E0,-0E0,-5.9208013E-2,-0E0,1.4579033E0],"categories":[],"categories_nodes":[],"categories_segments":[],"categories_sizes":[],"default_left":[true,true,true,false,false,true,true,true,false,false,true,true,false,false,false,false,false],"id":6,"left_children":[1,3,5,-1,-1,7,9,11,-1,-1,13,15,-1,-1,-1,-1,-1],"loss_changes":[4.4489502E1,1.0658203E1,6.5560017E0,0E0,0E0,1.0962699E1,3.6483068E-2,8.786463E0,0E0,0E0,3.8872603E-2,4.5048637E0,0E0,0E0,0E0,0E0,0E0],"parents":[2147483647,0,0,1,1,2,2,5,5,6,6,7,7,10,10,11,11],"right_children":[2,4,6,-1,-1,8,10,12,-1,-1,14,16,-1,-1,-1,-1,-1],"split_conditions":[1.3245615E-1,1.75248E-1,3.4021761E0,-5.45573E-2,-0E0,-1.1670096E-1,-2.2677847E-4,2.838828E-1,-0E0,-0E0,-2.483902E-12,5.5E0,-0E0,-0E0,-5.9208013E-3,-0E0,1.4579032E-1],"split_indices":[12,9,107,0,0,106,100,12,0,0,102,21,0,0,0,0,0],"split_type":[0,0,0,0,0,0,0,0,0,0,0,0,0,0,0,0,0],"sum_hessian":[6.3054546E3,6.2337188E3,7.1735535E1,6.2221484E3,1.1570248E1,4.8925617E1,2.2809917E1,2E1,2.892562E1,1.1570247E0,2.1652893E1,1.55371895E1,4.46281E0,1.1570247E0,2.0495867E1,1.322314E0,1.4214876E1],"tree_param":{"num_deleted":"0","num_feature":"110","num_nodes":"17","size_leaf_vector":"0"}},{"base_weights":[-5.1772356E-1,-5.262233E-1,1.967772E0,-8.5809305E-2,-5.4773223E-1,3.8648648E0,-0E0,6.837465E-2,-2.9024774E-1,-5.4789925E-1,-0E0,4.7993764E-1,-1.1180297E-1,-3.4926867E-1,-0E0,-0E0,7.26357E-1,-0E0,-1.9386168E-1,-3.7691063E-1,-0E0],"categories":[],"categories_nodes":[],"categories_segments":[],"categories_sizes":[],"default_left":[true,true,true,true,true,false,false,true,true,false,false,true,true,true,false,false,false,false,false,false,false],"id":7,"left_children":[1,3,5,7,9,-1,-1,11,13,-1,-1,15,17,19,-1,-1,-1,-1,-1,-1,-1],"loss_changes":[1.1985022E2,5.3199585E1,8.2215485E1,1.2190135E1,7.4560547E-1,0E0,0E0,1.5073279E1,5.981347E0,0E0,0E0,8.715575E0,1.4625033E0,1.1886272E0,0E0,0E0,0E0,0E0,0E0,0E0,0E0],"parents":[2147483647,0,0,1,1,2,2,3,3,4,4,7,7,8,8,11,11,12,12,13,13],"right_children":[2,4,6,8,10,-1,-1,12,14,-1,-1,16,18,20,-1,-1,-1,-1,-1,-1,-1],"split_conditions":[4.35E1,5.2086955E-1,-4.40504E-1,-4.36856E-2,9.45E0,3.864865E-1,-0E0,9.633093E0,5.192592E-1,-5.4789927E-2,-0E0,1.1959785E1,-1.5483242E1,6.0074836E-2,-0E0,-0E0,7.26357E-2,-0E0,-1.9386169E-2,-3.7691064E-2,-0E0],"split_indices":[21,4,106,106,3,0,0,109,4,0,0,3,108,106,0,0,0,0,0,0,0],"split_type":[0,0,0,0,0,0,0,0,0,0,0,0,0,0,0,0,0,0,0,0,0],"sum_hessian":[6.3054546E3,6.2887603E3,1.6694214E1,3.1471072E2,5.9740493E3,9.090909E0,7.603306E0,1.5190082E2,1.6280992E2,5.9728926E3,1.1570247E0,6.2644627E1,8.9256195E1,1.6115703E2,1.6528926E0,1.9338842E1,4.3305786E1,2.1322313E1,6.793388E1,1.4661157E2,1.4545454E1],"tree_param":{"num_deleted":"0","num_feature":"110","num_nodes":"21","size_leaf_vector":"0"}},{"base_weights":[-5.0012255E-1,-5.152503E-1,4.208087E0,-5.38319E-1,1.1709197E0,-0E0,4.5312953E0,-5.440549E-1,-0E0,1.4696466E0,-0E0,-5.445382E-1,-0E0,-1.8768387E-3,8.7955974E-2,-0E0,1.6753378E0,-5.446987E-1,-0E0,-0E0,-9.164282E-2,2.2790976E-1,-0E0,-0E0,1.8403599E0],"categories":[],"categories_nodes":[],"categories_segments":[],"categories_sizes":[],"default_left":[true,true,true,true,true,false,false,true,true,true,false,true,false,true,true,false,true,false,false,false,false,false,false,false,false],"id":8,"left_children":[1,3,5,7,9,-1,-1,11,13,15,-1,17,-1,19,21,-1,23,-1,-1,-1,-1,-1,-1,-1,-1],"loss_changes":[4.144154E2,2.3894202E2,2.7623688E1,1.99198E1,3.6171516E1,0E0,0E0,1.6660156E0,1.281065E-1,1.4653412E1,0E0,2.8930664E-1,0E0,2.6642674E-1,5.765123E-1,0E0,8.360657E0,0E0,0E0,0E0,0E0,0E0,0E0,0E0,0E0],"parents":[2147483647,0,0,1,1,2,2,3,3,4,4,7,7,8,8,9,9,11,11,13,13,14,14,16,16],"right_children":[2,4,6,8,10,-1,-1,12,14,16,-1,18,-1,20,22,-1,24,-1,-1,-1,-1,-1,-1,-1,-1],"split_conditions":[7.4332457E0,1.5894736E-1,1.3521303E1,9.5491394E-2,2.2959494E1,-0E0,4.5312953E-1,2.174941E-1,1.6351109E0,1.1505555E1,-0E0,2.2850792E1,-0E0,4.4353372E-1,8.5E0,-0E0,-5.21302E-1,-5.4469872E-2,-0E0,-0E0,-9.164282E-3,2.2790976E-2,-0E0,-0E0,1.84036E-1],"split_indices":[107,13,3,13,108,0,0,12,107,3,0,3,0,6,88,0,105,0,0,0,0,0,0,0,0],"split_type":[0,0,0,0,0,0,0,0,0,0,0,0,0,0,0,0,0,0,0,0,0,0,0,0,0],"sum_hessian":[6.3054546E3,6.288264E3,1.7190083E1,6.209917E3,7.834711E1,1.1570247E0,1.6033058E1,6.146942E3,6.2975204E1,6.61157E1,1.2231404E1,6.141653E3,5.289256E0,4.7438015E1,1.55371895E1,1.0247933E1,5.5867767E1,6.1390083E3,2.644628E0,1.6694214E1,3.0743801E1,1.2561983E1,2.9752066E0,7.272727E0,4.859504E1],"tree_param":{"num_deleted":"0","num_feature":"110","num_nodes":"25","size_leaf_vector":"0"}},{"base_weights":[-4.7919163E-1,-5.3918165E-1,1.8272095E0,-5.477497E-1,-6.580193E-2,1.434498E0,4.19624E0,-0E0,-2.0064269E-1,1.6293855E0,-0E0,-0E0,4.462518E0,-0E0,5.0679527E-2,-0E0,-2.9590157E-1,1.1325798E0,3.1569016E0,-0E0,1.3293047E-1,-0E0,-3.3486423E-1,-0E0,1.4377311E0,-0E0,3.5915608E0],"categories":[],"categories_nodes":[],"categories_segments":[],"categories_sizes":[],"default_left":[true,true,true,false,true,true,true,true,true,true,false,false,false,false,true,false,true,true,true,false,false,false,false,false,false,false,false],"id":9,"left_children":[1,3,5,-1,7,9,11,13,15,17,-1,-1,-1,-1,19,-1,21,23,25,-1,-1,-1,-1,-1,-1,-1,-1],"loss_changes":[8.6067285E2,1.8778809E1,8.269177E1,0E0,2.9520779E0,4.385434E1,1.8517578E1,9.214452E-2,2.1824627E0,4.7737335E1,0E0,0E0,0E0,0E0,4.395772E-1,0E0,1.3597608E0,2.3903168E1,1.1403656E1,0E0,0E0,0E0,0E0,0E0,0E0,0E0,0E0],"parents":[2147483647,0,0,1,1,2,2,4,4,5,5,6,6,7,7,8,8,9,9,14,14,16,16,17,17,18,18],"right_children":[2,4,6,-1,8,10,12,14,16,18,-1,-1,-1,-1,20,-1,22,24,26,-1,-1,-1,-1,-1,-1,-1,-1],"split_conditions":[1.7607313E-1,7.0598006E-2,5.801282E-1,-5.477497E-2,3.05E1,5.645604E-1,8.5E0,6.5E0,7.5E0,3.960299E-1,-0E0,-0E0,4.4625184E-1,-0E0,6.5E0,-0E0,-2.5299767E-1,8.5E0,8.5E0,-0E0,1.3293047E-2,-0E0,-3.3486422E-2,-0E0,1.4377312E-1,-0E0,3.591561E-1],"split_indices":[14,14,14,0,0,14,20,44,65,14,0,0,0,0,65,0,106,65,20,0,0,0,0,0,0,0,0],"split_type":[0,0,0,0,0,0,0,0,0,0,0,0,0,0,0,0,0,0,0,0,0,0,0,0,0,0,0],"sum_hessian":[6.3054546E3,6.1505786E3,1.5487604E2,6.0203306E3,1.3024792E2,1.3785124E2,1.7024794E1,4.380165E1,8.644628E1,1.23140495E2,1.4710744E1,1.1570247E0,1.5867768E1,8.92562E0,3.4876034E1,2.2314049E1,6.413223E1,9.917355E1,2.3966942E1,5.785124E0,2.9090908E1,2.1487603E0,6.198347E1,2.6446281E1,7.272727E1,4.7933884E0,1.9173553E1],"tree_param":{"num_deleted":"0","num_feature":"110","num_nodes":"27","size_leaf_vector":"0"}},{"base_weights":[-4.3098703E-1,-5.3431517E-1,1.764504E0,-5.364103E-1,-0E0,1.6149989E-1,4.009592E0,-1.5487523E-2,-0E0,-4.1430387E-1,3.0256615E0,4.4418178E0,-0E0,-5.9208013E-2,-0E0,-4.2639345E-1,-0E0,4.0360966E0,-0E0,4.5820413E0,-0E0,4.153297E0,-0E0,-0E0,3.8562603E-2,4.648175E0,-0E0],"categories":[],"categories_nodes":[],"categories_segments":[],"categories_sizes":[],"default_left":[true,true,true,false,true,true,true,true,false,true,true,true,false,false,false,false,false,true,true,true,false,false,false,false,false,false,false],"id":10,"left_children":[1,3,5,-1,7,9,11,13,-1,15,17,19,-1,-1,-1,-1,-1,21,23,25,-1,-1,-1,-1,-1,-1,-1],"loss_changes":[1.4192979E3,5.675293E0,9.6297986E2,0E0,5.6318333E-3,3.021557E2,2.1324683E2,6.972384E-2,0E0,8.785248E-1,5.6362152E1,5.1122314E1,0E0,0E0,0E0,0E0,0E0,3.8604736E-2,1.4022742E-2,2.5134033E1,0E0,0E0,0E0,0E0,0E0,0E0,0E0],"parents":[2147483647,0,0,1,1,2,2,4,4,5,5,6,6,7,7,9,9,10,10,11,11,17,17,18,18,19,19],"right_children":[2,4,6,-1,8,10,12,14,-1,16,18,20,-1,-1,-1,-1,-1,22,24,26,-1,-1,-1,-1,-1,-1,-1],"split_conditions":[7.643622E-2,5.7189543E-2,9.5E0,-5.364103E-2,7.5E0,9.5E0,5.801282E-1,9.5E0,-0E0,2.3682732E-3,1.4763157E0,1.1503913E0,-0E0,-5.9208013E-3,-0E0,-4.2639345E-2,-0E0,3.4313726E-1,-2.1816993E-12,3.232869E1,-0E0,4.153297E-1,-0E0,-0E0,3.8562603E-3,4.648175E-1,-0E0],"split_indices":[14,14,66,0,44,44,14,66,0,100,109,105,0,0,0,0,0,14,100,109,0,0,0,0,0,0,0],"split_type":[0,0,0,0,0,0,0,0,0,0,0,0,0,0,0,0,0,0,0,0,0,0,0,0,0,0,0],"sum_hessian":[6.3054546E3,6.0271074E3,2.783471E2,5.9998345E3,2.7272726E1,1.6561983E2,1.1272727E2,2.2479338E1,4.7933884E0,1.3570248E2,2.9917355E1,1.0247934E2,1.0247933E1,2.0495867E1,1.983471E0,1.3289256E2,2.8099172E0,1.9834711E1,1.0082644E1,9.867768E1,3.801653E0,1.8677685E1,1.1570247E0,1.6528926E0,8.429752E0,9.702479E1,1.6528926E0],"tree_param":{"num_deleted":"0","num_feature":"110","num_nodes":"27","size_leaf_vector":"0"}},{"base_weights":[3.11423E0,-1.8045567E-1,3.223376E0,-4.7549605E-1,8.383391E-1,-5.0048804E-1,-0E0,1.8330123E0,-7.2598204E-2,-0E0,-5.0448847E-1,1.9286432E0,-0E0,-1.2839183E-1,-0E0,2.0955129E0,-0E0],"categories":[],"categories_nodes":[],"categories_segments":[],"categories_sizes":[],"default_left":[true,true,false,true,true,true,false,true,true,false,false,true,false,false,false,false,false],"id":11,"left_children":[1,3,-1,5,7,9,-1,11,13,-1,-1,15,-1,-1,-1,-1,-1],"loss_changes":[3.5415469E3,9.026525E1,0E0,2.767048E0,7.44579E1,6.256256E-1,0E0,2.1942139E-1,2.635909E-1,0E0,0E0,1.0377426E0,0E0,0E0,0E0,0E0,0E0],"parents":[2147483647,0,0,1,1,3,3,4,4,5,5,7,7,8,8,11,11],"right_children":[2,4,-1,6,8,10,-1,12,14,-1,-1,16,-1,-1,-1,-1,-1],"split_conditions":[4.8809522E-1,2.0447761E-1,3.223376E-1,1.6472869E-1,9.239517E-2,-6.834352E-1,-0E0,3.45E1,-1.5273231E-1,-0E0,-5.0448846E-2,7.275133E-2,-0E0,-1.2839183E-2,-0E0,2.0955129E-1,-0E0],"split_indices":[4,4,0,4,12,106,0,65,106,0,0,13,0,0,0,0,0],"split_type":[0,0,0,0,0,0,0,0,0,0,0,0,0,0,0,0,0],"sum_hessian":[9.761282E3,3.1004303E2,9.451239E3,2.4844328E2,6.1599747E1,2.3519984E2,1.3243438E1,3.421026E1,2.7389488E1,1.2729259E0,2.3392691E2,3.0864048E1,3.3462124E0,2.40671E1,3.3223886E0,2.6227642E1,4.636406E0],"tree_param":{"num_deleted":"0","num_feature":"110","num_nodes":"17","size_leaf_vector":"0"}},{"base_weights":[-5.243015E-1,-5.2478683E-1,-0E0,-5.2494395E-1,-0E0],"categories":[],"categories_nodes":[],"categories_segments":[],"categories_sizes":[],"default_left":[true,true,false,false,false],"id":12,"left_children":[1,3,-1,-1,-1],"loss_changes":[1.3929443E0,7.470703E-2,0E0,0E0,0E0],"parents":[2147483647,0,0,1,1],"right_children":[2,4,-1,-1,-1],"split_conditions":[3.6038962E-1,3.7623227E-1,-0E0,-5.2494396E-2,-0E0],"split_indices":[5,106,0,0,0],"split_type":[0,0,0,0,0],"sum_hessian":[5.920419E3,5.9145303E3,5.888622E0,5.9112607E3,3.2697375E0],"tree_param":{"num_deleted":"0","num_feature":"110","num_nodes":"5","size_leaf_vector":"0"}},{"base_weights":[-5.4225016E-1,-5.430935E-1,-0E0],"categories":[],"categories_nodes":[],"categories_segments":[],"categories_sizes":[],"default_left":[true,false,false],"id":13,"left_children":[1,-1,-1],"loss_changes":[4.562134E0,0E0,0E0],"parents":[2147483647,0,0],"right_children":[2,-1,-1],"split_conditions":[1.9660226E-1,-5.430935E-2,-0E0],"split_indices":[9,0,0],"split_type":[0,0,0],"sum_hessian":[5.9107773E3,5.907899E3,2.8784518E0],"tree_param":{"num_deleted":"0","num_feature":"110","num_nodes":"3","size_leaf_vector":"0"}},{"base_weights":[-5.415761E-1,-5.4426885E-1,-0E0],"categories":[],"categories_nodes":[],"categories_segments":[],"categories_sizes":[],"default_left":[true,false,false],"id":14,"left_children":[1,-1,-1],"loss_changes":[1.0412231E1,0E0,0E0],"parents":[2147483647,0,0],"right_children":[2,-1,-1],"split_conditions":[6.872933E-2,-5.4426886E-2,-0E0],"split_indices":[8,0,0],"split_type":[0,0,0],"sum_hessian":[5.911032E3,5.8878267E3,2.3205584E1],"tree_param":{"num_deleted":"0","num_feature":"110","num_nodes":"3","size_leaf_vector":"0"}},{"base_weights":[-5.39053E-1,-5.392207E-1,-0E0],"categories":[],"categories_nodes":[],"categories_segments":[],"categories_sizes":[],"default_left":[true,false,false],"id":15,"left_children":[1,-1,-1],"loss_changes":[7.512207E-1,0E0,0E0],"parents":[2147483647,0,0],"right_children":[2,-1,-1],"split_conditions":[8.585933E1,-5.392207E-2,-0E0],"split_indices":[108,0,0],"split_type":[0,0,0],"sum_hessian":[5.912355E3,5.911261E3,1.0940467E0],"tree_param":{"num_deleted":"0","num_feature":"110","num_nodes":"3","size_leaf_vector":"0"}},{"base_weights":[-5.387168E-1,-5.388836E-1,-0E0],"categories":[],"categories_nodes":[],"categories_segments":[],"categories_sizes":[],"default_left":[true,false,false],"id":16,"left_children":[1,-1,-1],"loss_changes":[6.442871E-1,0E0,0E0],"parents":[2147483647,0,0],"right_children":[2,-1,-1],"split_conditions":[2.55E1,-5.3888362E-2,-0E0],"split_indices":[3,0,0],"split_type":[0,0,0],"sum_hessian":[5.912294E3,5.9108525E3,1.4414728E0],"tree_param":{"num_deleted":"0","num_feature":"110","num_nodes":"3","size_leaf_vector":"0"}},{"base_weights":[-5.293123E-1],"categories":[],"categories_nodes":[],"categories_segments":[],"categories_sizes":[],"default_left":[false],"id":17,"left_children":[-1],"loss_changes":[0E0],"parents":[2147483647],"right_children":[-1],"split_conditions":[-5.293123E-2],"split_indices":[0],"split_type":[0],"sum_hessian":[5.9169863E3],"tree_param":{"num_deleted":"0","num_feature":"110","num_nodes":"1","size_leaf_vector":"0"}},{"base_weights":[-5.120788E-1,-5.208554E-1,1.2362057E0,-5.401939E-1,-2.894893E-1,-0E0,2.662533E0,-5.4092526E-1,-0E0,1.0427154E0,-3.539088E-1,-0E0,2.4368196E0,-0E0,-4.62513E-1,-0E0,2.895174E0,-4.1563073E-1,1.5678332E0,-4.7030616E-1,-0E0],"categories":[],"categories_nodes":[],"categories_segments":[],"categories_sizes":[],"default_left":[true,true,true,true,true,false,false,false,false,true,true,false,true,true,true,false,false,false,false,false,false],"id":18,"left_children":[1,3,5,7,9,-1,-1,-1,-1,11,13,-1,15,17,19,-1,-1,-1,-1,-1,-1],"loss_changes":[8.443933E1,1.7963501E1,5.618958E1,2.9510498E0,3.6173508E1,0E0,0E0,0E0,0E0,3.331983E1,1.6026382E1,0E0,8.917179E0,7.651777E1,1.9912872E0,0E0,0E0,0E0,0E0,0E0,0E0],"parents":[2147483647,0,0,1,1,2,2,3,3,4,4,9,9,10,10,12,12,13,13,14,14],"right_children":[2,4,6,8,10,-1,-1,-1,-1,12,14,-1,16,18,20,-1,-1,-1,-1,-1,-1],"split_conditions":[4.25E1,5.8481533E-2,3.399123E-2,2.3117408E-1,6.417295E-2,-0E0,2.6625332E-1,-5.4092526E-2,-0E0,1.15E1,7.5E0,-0E0,5E-1,6.5E0,6.966754E0,-0E0,2.895174E-1,-4.1563075E-2,1.5678333E-1,-4.7030617E-2,-0E0],"split_indices":[65,6,8,8,6,0,0,0,0,65,22,0,17,22,107,0,0,0,0,0,0],"split_type":[0,0,0,0,0,0,0,0,0,0,0,0,0,0,0,0,0,0,0,0,0],"sum_hessian":[5.9263438E3,5.9031313E3,2.321241E1,5.406665E3,4.964662E2,1.1066689E1,1.21457205E1,5.402138E3,4.5267754E0,1.5038991E1,4.8142722E2,7.491071E0,7.54792E0,1.2504263E2,3.5638458E2,1.4284662E0,6.119454E0,1.0216391E2,2.2878723E1,3.536414E2,2.743186E0],"tree_param":{"num_deleted":"0","num_feature":"110","num_nodes":"21","size_leaf_vector":"0"}},{"base_weights":[-4.9358743E-1,-5.1959527E-1,1.0190432E0,-5.395706E-1,-0E0,-2.2585924E-1,1.9230915E0,1.0249053E0,-4.3399322E-1,-0E0,-2.4414602E-1,-0E0,2.8028512E0,-0E0,2.3534675E0,-0E0,-4.3910867E-1,3.1804683E0,-0E0,-9.4196476E-2,1.842337E-1,-0E0,3.633253E0,-4.4943994E-1,-0E0,3.2832344E0,-0E0],"categories":[],"categories_nodes":[],"categories_segments":[],"categories_sizes":[],"default_left":[true,true,true,false,true,true,true,true,true,false,false,false,true,true,true,false,true,true,false,false,false,false,false,false,false,false,false],"id":19,"left_children":[1,3,5,-1,7,9,11,13,15,-1,-1,-1,17,19,21,-1,23,25,-1,-1,-1,-1,-1,-1,-1,-1,-1],"loss_changes":[2.2909094E2,6.3107056E1,1.23412315E2,0E0,9.605411E1,2.4092126E-1,1.0342366E2,9.029561E1,1.8204498E-1,0E0,0E0,0E0,4.8056396E1,6.345866E-1,8.202368E1,0E0,2.2433472E-1,1.096933E1,0E0,0E0,0E0,0E0,0E0,0E0,0E0,0E0,0E0],"parents":[2147483647,0,0,1,1,2,2,4,4,5,5,6,6,7,7,8,8,12,12,13,13,14,14,16,16,17,17],"right_children":[2,4,6,-1,8,10,12,14,16,-1,-1,-1,18,20,22,-1,24,26,-1,-1,-1,-1,-1,-1,-1,-1,-1],"split_conditions":[3.6700338E-2,1.0990338E-1,7.5E0,-5.3957064E-2,8.5E0,-1.3230688E1,7.5E0,7.5E0,1.1315264E-1,-0E0,-2.4414603E-2,-0E0,9.5E0,1.2233001E1,3.389243E-1,-0E0,2.5685703E1,1.8445898E1,-0E0,-9.419648E-3,1.842337E-2,-0E0,3.6332533E-1,-4.4943996E-2,-0E0,3.2832345E-1,-0E0],"split_indices":[10,14,20,0,66,108,66,66,14,0,0,0,66,109,104,0,109,108,0,0,0,0,0,0,0,0,0],"split_type":[0,0,0,0,0,0,0,0,0,0,0,0,0,0,0,0,0,0,0,0,0,0,0,0,0,0,0],"sum_hessian":[5.93582E3,5.8426304E3,9.318941E1,5.6347275E3,2.0790271E2,3.4866276E1,5.832313E1,6.4561035E1,1.4334167E2,1.129815E0,3.373646E1,1.8231186E1,4.0091946E1,3.682509E1,2.7735949E1,2.3993146E0,1.4094237E2,3.566434E1,4.427604E0,2.6253365E1,1.0571726E1,1.0464965E1,1.7270985E1,1.3560228E2,5.340082E0,3.4422653E1,1.2416883E0],"tree_param":{"num_deleted":"0","num_feature":"110","num_nodes":"27","size_leaf_vector":"0"}},{"base_weights":[-4.716343E-1,-5.3659314E-1,7.446408E-1,-5.404073E-1,-0E0,1.9463472E-1,1.5435183E0,-5.412798E-1,-0E0,-0E0,-5.001659E-2,-2.2729138E-1,4.474885E-1,2.652832E0,4.490271E-2,-7.545418E-2,-0E0,-0E0,-2.6684654E-1,6.8276495E-1,-0E0,3.2629178E0,2.0563442E-1,-2.6970183E-2,5.4992443E-1,-1.05213076E-1,-0E0,-3.0623946E-1,-0E0,7.176692E-2,1.1273905E0,-5.066863E-2,-0E0,-0E0,3.4116533E0,3.918162E-1,-0E0,-0E0,-1.13024525E-1,9.5680535E-1,-0E0],"categories":[],"categories_nodes":[],"categories_segments":[],"categories_sizes":[],"default_left":[true,true,true,true,true,true,true,false,false,false,true,true,true,true,true,true,false,false,true,true,true,true,true,true,true,false,false,false,false,false,false,false,false,false,false,false,false,false,false,false,false],"id":20,"left_children":[1,3,5,7,9,11,13,-1,-1,-1,15,17,19,21,23,25,-1,-1,27,29,31,33,35,37,39,-1,-1,-1,-1,-1,-1,-1,-1,-1,-1,-1,-1,-1,-1,-1,-1],"loss_changes":[4.6822363E2,7.430298E0,1.11566925E2,8.093262E-1,1.03248775E-1,2.1802877E1,1.5973526E2,0E0,0E0,0E0,1.08219475E-1,8.541188E-1,1.839875E1,5.5311462E1,7.155638E0,1.27529E-1,0E0,0E0,7.9088306E-1,1.3754784E1,7.4594766E-2,2.2217041E1,1.172114E0,3.1645966E-1,8.76064E0,0E0,0E0,0E0,0E0,0E0,0E0,0E0,0E0,0E0,0E0,0E0,0E0,0E0,0E0,0E0,0E0],"parents":[2147483647,0,0,1,1,2,2,3,3,4,4,5,5,6,6,10,10,11,11,12,12,13,13,14,14,15,15,18,18,19,19,20,20,21,21,22,22,23,23,24,24],"right_children":[2,4,6,8,10,12,14,-1,-1,-1,16,18,20,22,24,26,-1,-1,28,30,32,34,36,38,40,-1,-1,-1,-1,-1,-1,-1,-1,-1,-1,-1,-1,-1,-1,-1,-1],"split_conditions":[9.490741E0,2.8801844E-1,8.5E0,7.751852E0,-4.95E1,7.856412E-1,9.5E0,-5.412798E-2,-0E0,-0E0,-2.1787017E-12,8.5E0,1.684499E1,1.35E1,-5E-1,6.4171124E-1,-0E0,-0E0,2.15E1,7.5E0,3.15E1,-1.256887E-4,1.0374365E0,-2.1770363E-12,5.7738096E-1,-1.0521308E-2,-0E0,-3.0623946E-2,-0E0,7.176692E-3,1.1273905E-1,-5.0668633E-3,-0E0,-0E0,3.4116533E-1,3.918162E-2,-0E0,-0E0,-1.1302453E-2,9.5680535E-2,-0E0],"split_indices":[3,6,44,3,87,104,44,0,0,0,103,43,3,43,2,6,0,0,43,44,43,103,104,103,6,0,0,0,0,0,0,0,0,0,0,0,0,0,0,0,0],"split_type":[0,0,0,0,0,0,0,0,0,0,0,0,0,0,0,0,0,0,0,0,0,0,0,0,0,0,0,0,0,0,0,0,0,0,0,0,0,0,0,0,0],"sum_hessian":[5.946571E3,5.653414E3,2.9315692E2,5.599322E3,5.4092274E1,1.8177252E2,1.113844E2,5.5840435E3,1.5278066E1,1.3820156E1,4.0272118E1,5.3332104E1,1.2844043E2,5.9728683E1,5.1655716E1,3.6143135E1,4.1289825E0,2.9188175E0,5.041329E1,9.407017E1,3.437025E1,4.4272038E1,1.5456643E1,2.8714622E1,2.2941093E1,2.9623632E1,6.5195017E0,4.6470135E1,3.94315E0,4.958433E1,4.4485836E1,2.8055613E1,6.3146396E0,1.9525629E0,4.2319477E1,1.11677475E1,4.288896E0,3.2499745E0,2.546465E1,1.6478148E1,6.4629474E0],"tree_param":{"num_deleted":"0","num_feature":"110","num_nodes":"41","size_leaf_vector":"0"}},{"base_weights":[-4.2186362E-1,-5.351582E-1,2.2173903E0,-5.4095685E-1,-0E0,8.2014185E-1,2.9220858E0,-5.4199564E-1,-0E0,-2.5180376E-1,2.2488391E-1,-1.7205298E-1,2.6797152E0,3.3318307E0,2.5893398E-2,-2.6063877E-1,-0E0,-0E0,7.094308E-1,-2.6723683E-1,-0E0,2.8809793E0,-0E0,3.3524349E0,-0E0,1.7374326E-1,-0E0,-0E0,-2.6840022E-1,-0E0,2.9787412E0,2.860419E-1,-0E0],"categories":[],"categories_nodes":[],"categories_segments":[],"categories_sizes":[],"default_left":[true,true,true,true,true,true,true,false,false,true,true,true,true,true,true,true,false,false,false,false,false,true,false,false,false,true,false,false,false,false,false,false,false],"id":21,"left_children":[1,3,5,7,9,11,13,-1,-1,15,17,19,21,23,25,27,-1,-1,-1,-1,-1,29,-1,-1,-1,31,-1,-1,-1,-1,-1,-1,-1],"loss_changes":[1.773039E3,1.3696167E1,1.9922778E2,1.7103271E0,4.5989184E0,1.870556E2,1.5174194E2,0E0,0E0,1.1082244E-1,2.8901715E0,1.0609236E0,1.9090042E1,4.842041E0,5.03616E-1,5.109358E-2,0E0,0E0,0E0,0E0,0E0,5.3803406E0,0E0,0E0,0E0,6.983117E-1,0E0,0E0,0E0,0E0,0E0,0E0,0E0],"parents":[2147483647,0,0,1,1,2,2,3,3,4,4,5,5,6,6,9,9,10,10,11,11,12,12,13,13,14,14,15,15,21,21,25,25],"right_children":[2,4,6,8,10,12,14,-1,-1,16,18,20,22,24,26,28,-1,-1,-1,-1,-1,30,-1,-1,-1,32,-1,-1,-1,-1,-1,-1,-1],"split_conditions":[3.24081E-1,1.8898809E-1,9.5E0,5.094451E1,-4.67624E-4,2.3545237E1,2.4264705E-1,-5.4199565E-2,-0E0,3.1009614E-1,9.5E0,4.286589E-2,7.4631686E0,1.4731183E-2,6.515151E-1,1.9615385E-1,-0E0,-0E0,7.094308E-2,-2.6723683E-2,-0E0,3.7042683E-1,-0E0,3.352435E-1,-0E0,7.083334E-1,-0E0,-0E0,-2.6840022E-2,-0E0,2.9787412E-1,2.8604189E-2,-0E0],"split_indices":[6,6,66,108,100,108,4,0,0,6,66,4,109,8,4,6,0,0,0,0,0,6,0,0,0,6,0,0,0,0,0,0,0],"split_type":[0,0,0,0,0,0,0,0,0,0,0,0,0,0,0,0,0,0,0,0,0,0,0,0,0,0,0,0,0,0,0,0,0],"sum_hessian":[5.9809243E3,5.7391475E3,2.4177682E2,5.6635503E3,7.5597145E1,8.654079E1,1.5523604E2,5.647679E3,1.587115E1,5.157146E1,2.402568E1,5.3516434E1,3.3024353E1,1.3283911E2,2.2396927E1,4.969914E1,1.8723235E0,1.6768469E1,7.2572126E0,3.645308E1,1.7063353E1,3.073654E1,2.2878149E0,1.3162985E2,1.2092599E0,1.6203022E1,6.1939034E0,2.180532E0,4.7518604E1,1.4426122E0,2.9293926E1,1.3881631E1,2.321392E0],"tree_param":{"num_deleted":"0","num_feature":"110","num_nodes":"33","size_leaf_vector":"0"}},{"base_weights":[2.3039722E0,-1.7510897E-1,2.3677683E0,-4.7023264E-1,7.2594535E-1,2.3679838E0,-0E0,-4.959072E-1,-0E0,1.6730521E0,-0E0,-0E0,-5.0001645E-1,-0E0,-1.4221482E-1,-0E0,-1.8251768E-1],"categories":[],"categories_nodes":[],"categories_segments":[],"categories_sizes":[],"default_left":[true,true,true,true,true,false,false,true,false,false,true,false,false,false,true,false,false],"id":22,"left_children":[1,3,5,7,9,-1,-1,11,-1,-1,13,-1,-1,-1,15,-1,-1],"loss_changes":[1.9711523E3,7.919289E1,1.78125E0,2.6422577E0,5.6715168E1,0E0,0E0,5.883064E-1,0E0,0E0,6.6803646E-1,0E0,0E0,0E0,3.737012E-1,0E0,0E0],"parents":[2147483647,0,0,1,1,2,2,3,3,4,4,7,7,10,10,14,14],"right_children":[2,4,6,8,10,-1,-1,12,-1,-1,14,-1,-1,-1,16,-1,-1],"split_conditions":[4.8809522E-1,2.0447761E-1,1.6025642E-1,1.6472869E-1,2.736411E-2,2.3679839E-1,-0E0,4.5E0,-0E0,1.6730522E-1,2.158385E-1,-0E0,-5.0001647E-2,-0E0,-2.729583E1,-0E0,-1.8251767E-2],"split_indices":[4,4,9,4,12,0,0,66,0,0,4,0,0,0,109,0,0],"split_type":[0,0,0,0,0,0,0,0,0,0,0,0,0,0,0,0,0],"sum_hessian":[1.2321063E4,3.0513678E2,1.2015927E4,2.3857289E2,6.656389E1,1.201406E4,1.8678716E0,2.251525E2,1.3420401E1,3.1982391E1,3.4581497E1,1.3488233E0,2.2380367E2,2.5513558E0,3.203014E1,1.7586565E0,3.0271484E1],"tree_param":{"num_deleted":"0","num_feature":"110","num_nodes":"17","size_leaf_vector":"0"}},{"base_weights":[-5.1973397E-1],"categories":[],"categories_nodes":[],"categories_segments":[],"categories_sizes":[],"default_left":[false],"id":23,"left_children":[-1],"loss_changes":[0E0],"parents":[2147483647],"right_children":[-1],"split_conditions":[-5.19734E-2],"split_indices":[0],"split_type":[0],"sum_hessian":[5.57562E3],"tree_param":{"num_deleted":"0","num_feature":"110","num_nodes":"1","size_leaf_vector":"0"}},{"base_weights":[-5.387131E-1,-5.388894E-1,-0E0],"categories":[],"categories_nodes":[],"categories_segments":[],"categories_sizes":[],"default_left":[true,false,false],"id":24,"left_children":[1,-1,-1],"loss_changes":[2.8979492E-1,0E0,0E0],"parents":[2147483647,0,0],"right_children":[2,-1,-1],"split_conditions":[3.9249462E-1,-5.3888943E-2,-0E0],"split_indices":[106,0,0],"split_type":[0,0,0],"sum_hessian":[5.5569443E3,5.5543057E3,2.638733E0],"tree_param":{"num_deleted":"0","num_feature":"110","num_nodes":"3","size_leaf_vector":"0"}},{"base_weights":[-5.380012E-1,-5.408496E-1,-0E0],"categories":[],"categories_nodes":[],"categories_segments":[],"categories_sizes":[],"default_left":[true,false,false],"id":25,"left_children":[1,-1,-1],"loss_changes":[1.0270386E1,0E0,0E0],"parents":[2147483647,0,0],"right_children":[2,-1,-1],"split_conditions":[6.872933E-2,-5.4084964E-2,-0E0],"split_indices":[8,0,0],"split_type":[0,0,0],"sum_hessian":[5.5575713E3,5.5342866E3,2.3284641E1],"tree_param":{"num_deleted":"0","num_feature":"110","num_nodes":"3","size_leaf_vector":"0"}},{"base_weights":[-5.3533006E-1,-5.394385E-1,-0E0,-0E0,-5.3961796E-1,-1.5222178E-1,1.4098737E0],"categories":[],"categories_nodes":[],"categories_segments":[],"categories_sizes":[],"default_left":[true,true,true,false,false,false,false],"id":26,"left_children":[1,3,5,-1,-1,-1,-1],"loss_changes":[1.5280273E1,7.545166E-1,1.4379E1,0E0,0E0,0E0,0E0],"parents":[2147483647,0,0,1,1,2,2],"right_children":[2,4,6,-1,-1,-1,-1],"split_conditions":[8.792271E-2,-1.0318169E1,1.5154994E-2,-0E0,-5.3961795E-2,-1.5222179E-2,1.4098738E-1],"split_indices":[7,107,13,0,0,0,0],"split_type":[0,0,0,0,0,0,0],"sum_hessian":[5.560321E3,5.528443E3,3.1877748E1,1.0866047E0,5.5273564E3,2.5958176E1,5.9195733E0],"tree_param":{"num_deleted":"0","num_feature":"110","num_nodes":"7","size_leaf_vector":"0"}},{"base_weights":[-5.3497624E-1,-5.3729683E-1,-0E0,-5.3747445E-1,-0E0,-0E0,3.4593326E-1],"categories":[],"categories_nodes":[],"categories_segments":[],"categories_sizes":[],"default_left":[true,true,true,false,false,false,false],"id":27,"left_children":[1,3,5,-1,-1,-1,-1],"loss_changes":[1.2142578E1,7.3339844E-1,4.713249E-1,0E0,0E0,0E0,0E0],"parents":[2147483647,0,0,1,1,2,2],"right_children":[2,4,6,-1,-1,-1,-1],"split_conditions":[1.9074371E-1,4.6428573E-1,3.241627E-2,-5.3747445E-2,-0E0,-0E0,3.4593325E-2],"split_indices":[9,12,13,0,0,0,0],"split_type":[0,0,0,0,0,0,0],"sum_hessian":[5.560496E3,5.554621E3,5.8752165E0,5.5534883E3,1.1330028E0,2.9366717E0,2.9385445E0],"tree_param":{"num_deleted":"0","num_feature":"110","num_nodes":"7","size_leaf_vector":"0"}},{"base_weights":[-5.250335E-1,-5.321141E-1,3.6281973E-1,-5.32465E-1,-0E0,2.127028E0,-0E0,2.9323657E0,-0E0,-0E0,-8.7727875E-2],"categories":[],"categories_nodes":[],"categories_segments":[],"categories_sizes":[],"default_left":[true,true,true,false,false,true,true,false,false,false,false],"id":28,"left_children":[1,3,5,-1,-1,7,9,-1,-1,-1,-1],"loss_changes":[3.6907593E1,1.0286865E0,4.0416832E1,0E0,0E0,2.0643593E1,1.7653945E-1,0E0,0E0,0E0,0E0],"parents":[2147483647,0,0,1,1,2,2,5,5,6,6],"right_children":[2,4,6,-1,-1,8,10,-1,-1,-1,-1],"split_conditions":[2.45256E-1,2.3222783E-1,6.5E0,-5.3246498E-2,-0E0,-5.1349966E-4,-1.0963678E1,2.9323658E-1,-0E0,-0E0,-8.772788E-3],"split_indices":[13,8,66,0,0,103,109,0,0,0,0],"split_type":[0,0,0,0,0,0,0,0,0,0,0],"sum_hessian":[5.5698433E3,5.537346E3,3.249672E1,5.5336777E3,3.6684513E0,8.908007E0,2.358871E1,6.6138663E0,2.2941403E0,1.6501298E0,2.1938581E1],"tree_param":{"num_deleted":"0","num_feature":"110","num_nodes":"11","size_leaf_vector":"0"}},{"base_weights":[-5.069627E-1,-5.3704315E-1,7.430075E-2,-5.372249E-1,-0E0,-1.9736798E-2,1.9429281E0,3.4495783E-1,-1.8862098E-1,2.050142E0,-0E0,-0E0,9.487287E-1,-0E0,-3.3239928E-1,1.4342374E0,-0E0,-0E0,2.184799E-1,-3.7081546E-1,-0E0],"categories":[],"categories_nodes":[],"categories_segments":[],"categories_sizes":[],"default_left":[true,true,true,false,false,true,true,true,true,false,false,false,true,true,true,false,false,false,false,false,false],"id":29,"left_children":[1,3,5,-1,-1,7,9,11,13,-1,-1,-1,15,17,19,-1,-1,-1,-1,-1,-1],"loss_changes":[1.0238025E2,1.3574219E-1,6.4869194E1,0E0,0E0,1.3465733E1,2.8695526E0,1.5437902E1,7.593698E0,0E0,0E0,0E0,1.6275808E1,1.0266846E0,2.654398E0,0E0,0E0,0E0,0E0,0E0,0E0],"parents":[2147483647,0,0,1,1,2,2,5,5,6,6,7,7,8,8,12,12,13,13,14,14],"right_children":[2,4,6,-1,-1,8,10,12,14,-1,-1,-1,16,18,20,-1,-1,-1,-1,-1,-1],"split_conditions":[9.915037E0,2.826361E-1,4.35E1,-5.372249E-2,-0E0,1.2011111E1,4.45E1,1.1959785E1,8.5E0,2.0501421E-1,-0E0,-0E0,6.45E1,1.8379076E-1,1.0874704E-2,1.4342374E-1,-0E0,-0E0,2.1847991E-2,-3.7081547E-2,-0E0],"split_indices":[3,14,21,0,0,3,21,3,20,0,0,0,0,14,8,0,0,0,0,0,0],"split_type":[0,0,0,0,0,0,0,0,0,0,0,0,0,0,0,0,0,0,0,0,0],"sum_hessian":[5.587491E3,5.328995E3,2.5849597E2,5.32586E3,3.1354434E0,2.4195753E2,1.653845E1,5.7511143E1,1.8444638E2,1.5434768E1,1.1036837E0,3.3624092E1,2.388705E1,5.700418E1,1.2744221E2,1.7801945E1,6.0851054E0,3.6495483E1,2.0508696E1,1.2151188E2,5.930326E0],"tree_param":{"num_deleted":"0","num_feature":"110","num_nodes":"21","size_leaf_vector":"0"}},{"base_weights":[-4.8777384E-1,-5.359347E-1,4.1917253E-1,1.0618207E0,-3.18129E-1,-0E0,1.4946035E0,-0E0,-4.0437946E-1,-0E0,-1.9127458E-1,1.7799548E0,-0E0,-4.1618013E-1,-0E0,-2.0996271E-1,-0E0,2.7064471E0,1.0232435E0,2.1452066E-1,-0E0],"categories":[],"categories_nodes":[],"categories_segments":[],"categories_sizes":[],"default_left":[true,false,true,true,true,true,true,false,true,false,true,true,true,false,false,false,false,false,false,false,false],"id":30,"left_children":[1,-1,3,5,7,9,11,-1,13,-1,15,17,19,-1,-1,-1,-1,-1,-1,-1,-1],"loss_changes":[2.4637378E2,0E0,1.3708374E2,8.321294E1,6.9395123E0,1.2577437E0,3.5677307E1,0E0,3.46426E-1,0E0,2.135557E-1,2.4486816E1,5.6519365E-1,0E0,0E0,0E0,0E0,0E0,0E0,0E0,0E0],"parents":[2147483647,0,0,2,2,3,3,4,4,5,5,6,6,8,8,10,10,11,11,12,12],"right_children":[2,-1,4,6,8,10,12,-1,14,-1,16,18,20,-1,-1,-1,-1,-1,-1,-1,-1],"split_conditions":[1.0232143E1,-5.3593468E-2,9.5E0,7.5E0,-5.210109E-1,-3.720944E-1,8.5E0,-0E0,1.4731183E-2,-0E0,2.1658497E1,8.5E0,8.5E0,-4.1618016E-2,-0E0,-2.099627E-2,-0E0,2.7064472E-1,1.0232436E-1,2.1452067E-2,-0E0],"split_indices":[3,0,22,22,106,106,44,0,8,0,3,22,22,0,0,0,0,0,0,0,0],"split_type":[0,0,0,0,0,0,0,0,0,0,0,0,0,0,0,0,0,0,0,0,0],"sum_hessian":[5.6076426E3,5.3357383E3,2.719043E2,1.5228883E2,1.19615456E2,3.866983E1,1.13618996E2,3.5275872E0,1.1608787E2,5.2920685E0,3.337776E1,9.1075676E1,2.254332E1,1.11542076E2,4.54579E0,3.237465E1,1.0031123E0,3.3845135E1,5.723054E1,1.1281714E1,1.1261604E1],"tree_param":{"num_deleted":"0","num_feature":"110","num_nodes":"21","size_leaf_vector":"0"}},{"base_weights":[-4.6481958E-1,-5.278317E-1,3.0190068E-1,-5.2801985E-1,-0E0,1.3293782E0,8.333019E-2,-0E0,1.8383511E0,-1.1569698E-1,8.389732E-1,1.9068898E0,-0E0,-3.9457172E-1,7.08368E-2,1.964613E0,-0E0,6.481436E-2,2.1921546E0,-4.3240985E-1,-0E0,5.5442864E-1,-1.05272785E-1,2.1864386E0,-0E0,-1.4802875E-2,1.9753557E-1],"categories":[],"categories_nodes":[],"categories_segments":[],"categories_sizes":[],"default_left":[true,true,true,false,false,true,true,false,true,true,true,true,false,true,true,true,true,false,false,false,false,false,false,false,false,false,false],"id":31,"left_children":[1,3,5,-1,-1,7,9,-1,11,13,15,17,-1,19,21,23,25,-1,-1,-1,-1,-1,-1,-1,-1,-1,-1],"loss_changes":[2.7435767E2,7.39624E-1,7.919596E1,0E0,0E0,5.800741E1,6.029216E1,0E0,5.5708313E-1,1.7266119E1,7.120863E1,2.322815E0,0E0,2.315899E0,1.6527065E1,1.1085068E1,9.0911484E-1,0E0,0E0,0E0,0E0,0E0,0E0,0E0,0E0,0E0,0E0],"parents":[2147483647,0,0,1,1,2,2,5,5,6,6,8,8,9,9,10,10,11,11,13,13,14,14,15,15,16,16],"right_children":[2,4,6,-1,-1,8,10,-1,12,14,16,18,-1,20,22,24,26,-1,-1,-1,-1,-1,-1,-1,-1,-1,-1],"split_conditions":[8.492607E-2,4.5E1,-4.95E1,-5.2801985E-2,-0E0,8.5E0,8.5E0,-0E0,7.1231616E-1,1.35E1,9.5E0,9.5E0,-0E0,5.146769E-1,9.5E0,1.3E1,-5E-1,6.481436E-3,2.1921547E-1,-4.3240987E-2,-0E0,5.5442866E-2,-1.0527278E-2,2.1864386E-1,-0E0,-1.4802875E-3,1.9753559E-2],"split_indices":[6,43,87,0,0,22,88,0,6,43,88,43,0,6,22,43,2,0,0,0,0,0,0,0,0,0,0],"split_type":[0,0,0,0,0,0,0,0,0,0,0,0,0,0,0,0,0,0,0,0,0,0,0,0,0,0,0],"sum_hessian":[5.627733E3,5.212688E3,4.1504495E2,5.2116255E3,1.062288E0,6.3886604E1,3.5115836E2,1.3791403E1,5.00952E1,2.681453E2,8.301308E1,4.6641422E1,3.4537792E0,1.28511E2,1.3963428E2,3.2770317E1,5.0242756E1,1.1119627E1,3.5521793E1,1.19222824E2,9.288177E0,5.1860756E1,8.777352E1,2.8584373E1,4.1859446E0,2.8107706E1,2.213505E1],"tree_param":{"num_deleted":"0","num_feature":"110","num_nodes":"27","size_leaf_vector":"0"}},{"base_weights":[-4.1389465E-1,-5.3193355E-1,1.7338831E0,-5.373242E-1,-0E0,4.737108E-3,2.1075509E0,-5.384189E-1,-0E0,-2.2534856E-1,4.0233016E-2,-2.551999E-1,1.3099333E0,-0E0,2.1577368E0,-2.7436262E-1,-0E0,-0E0,5.1548815E-1,-2.7181524E-1,-0E0,-0E0,1.3929805E0,6.852526E-2,2.2466102E0,-0E0,-2.8466594E-1,6.295272E-1,-0E0,-0E0,6.9081473E-1,-0E0,2.3292177E0],"categories":[],"categories_nodes":[],"categories_segments":[],"categories_sizes":[],"default_left":[true,true,true,true,true,true,true,false,false,true,true,true,true,false,true,true,false,false,true,false,false,false,false,true,true,false,false,false,false,false,false,false,false],"id":32,"left_children":[1,3,5,7,9,11,13,-1,-1,15,17,19,21,-1,23,25,-1,-1,27,-1,-1,-1,-1,29,31,-1,-1,-1,-1,-1,-1,-1,-1],"loss_changes":[1.4308733E3,1.0570068E1,1.6761902E2,1.6955566E0,2.3527377E0,3.0446829E1,2.3349487E1,0E0,0E0,9.0367055E-1,3.033361E0,2.9593801E-1,1.2892704E0,0E0,1.933496E1,7.177234E-2,0E0,0E0,4.084878E-1,0E0,0E0,0E0,0E0,3.099307E0,2.3725464E1,0E0,0E0,0E0,0E0,0E0,0E0,0E0,0E0],"parents":[2147483647,0,0,1,1,2,2,3,3,4,4,5,5,6,6,9,9,10,10,11,11,12,12,14,14,15,15,18,18,23,23,24,24],"right_children":[2,4,6,8,10,12,14,-1,-1,16,18,20,22,-1,24,26,-1,-1,28,-1,-1,-1,-1,30,32,-1,-1,-1,-1,-1,-1,-1,-1],"split_conditions":[3.0901855E-1,1.8898809E-1,9.5E0,5.094451E1,-8.8778836E-1,9.5E0,-3.6336672E-1,-5.384189E-2,-0E0,6.5E0,9.5E0,1.3890903E0,2.3209747E1,-0E0,5.5E0,1.9615385E-1,-0E0,-0E0,2.649123E-1,-2.7181525E-2,-0E0,-0E0,1.3929805E-1,5.5E0,-2.669005E0,-0E0,-2.8466595E-2,6.295272E-2,-0E0,-0E0,6.908148E-2,-0E0,2.3292176E-1],"split_indices":[6,6,22,108,105,88,106,0,0,18,22,105,108,0,15,6,0,0,6,0,0,0,0,88,105,0,0,0,0,0,0,0,0],"split_type":[0,0,0,0,0,0,0,0,0,0,0,0,0,0,0,0,0,0,0,0,0,0,0,0,0,0,0,0,0,0,0,0,0],"sum_hessian":[5.6867686E3,5.39564E3,2.9112857E2,5.3245107E3,7.112914E1,5.6668716E1,2.3445987E2,5.308727E3,1.5783721E1,4.4447815E1,2.6681328E1,4.1538822E1,1.5129894E1,5.810468E0,2.286494E2,4.166499E1,2.782828E0,1.609742E1,1.0583907E1,4.050267E1,1.0361534E0,1.2015032E0,1.3928391E1,1.3993133E1,2.1465627E2,2.146877E0,3.9518112E1,7.7979226E0,2.785985E0,8.351171E0,5.6419616E0,1.0652438E1,2.0400383E2],"tree_param":{"num_deleted":"0","num_feature":"110","num_nodes":"33","size_leaf_vector":"0"}},{"base_weights":[1.8515561E0,1.8825458E0,-1.9041413E-1,1.891905E0,5.092272E-1,3.3445403E-1,-4.3294087E-1,1.893857E0,-0E0,9.299378E-1,-0E0,6.3280284E-1,-0E0,-0E0,-4.5564786E-1,1.895287E0,5.659634E-1,-0E0,1.378156E0,8.725761E-1,-0E0,-0E0,-4.6156472E-1,1.1260064E0,-0E0,1.443256E0,-0E0,-0E0,9.6365505E-1,-0E0,-4.6657643E-1],"categories":[],"categories_nodes":[],"categories_segments":[],"categories_sizes":[],"default_left":[true,true,true,true,true,true,true,true,false,true,false,true,false,false,true,false,true,false,true,true,false,false,true,false,false,false,false,false,false,false,false],"id":33,"left_children":[1,3,5,7,9,11,13,15,-1,17,-1,19,-1,-1,21,-1,23,-1,25,27,-1,-1,29,-1,-1,-1,-1,-1,-1,-1,-1],"loss_changes":[9.2309766E2,1.5632031E2,2.7871376E1,4.469922E1,2.8095848E1,7.8121037E0,2.4156914E0,8.671875E-1,0E0,3.59726E1,0E0,6.477894E0,0E0,0E0,6.024933E-1,0E0,1.254632E1,0E0,1.6335831E0,1.8192787E0,0E0,0E0,6.585693E-2,0E0,0E0,0E0,0E0,0E0,0E0,0E0,0E0],"parents":[2147483647,0,0,1,1,2,2,3,3,4,4,5,5,6,6,7,7,9,9,11,11,14,14,16,16,18,18,19,19,22,22],"right_children":[2,4,6,8,10,12,14,16,-1,18,-1,20,-1,-1,22,-1,24,-1,26,28,-1,-1,30,-1,-1,-1,-1,-1,-1,-1,-1],"split_conditions":[1.269275E-1,6.711712E-2,9.433962E-3,1.5728022E-1,3.923077E-2,9.1957426E-1,-2.2928126E-3,4.35E1,-0E0,-4.0522715E-1,-0E0,2.5833333E-1,-0E0,-0E0,-6.514601E-1,1.895287E-1,7.19697E-2,-0E0,1.2029388E0,-2.185141E-12,-0E0,-0E0,-2.1962432E-12,1.1260064E-1,-0E0,1.443256E-1,-0E0,-0E0,9.6365504E-2,-0E0,-4.6657644E-2],"split_indices":[14,13,13,9,14,104,100,21,0,106,0,14,0,0,106,0,9,0,104,101,0,0,101,0,0,0,0,0,0,0,0],"split_type":[0,0,0,0,0,0,0,0,0,0,0,0,0,0,0,0,0,0,0,0,0,0,0,0,0,0,0,0,0,0,0],"sum_hessian":[1.4313332E4,1.4104255E4,2.0907736E2,1.4001179E4,1.0307609E2,5.2925716E1,1.5615166E2,1.398479E4,1.638885E1,6.2696884E1,4.0379208E1,3.357254E1,1.9353178E1,3.637422E0,1.5251424E2,1.3961797E4,2.2993073E1,1.575501E1,4.6941875E1,2.5690823E1,7.881717E0,1.0825729E0,1.5143166E2,1.4956941E1,8.036132E0,4.3498695E1,3.4431796E0,2.8477895E0,2.2843033E1,2.954556E0,1.484771E2],"tree_param":{"num_deleted":"0","num_feature":"110","num_nodes":"31","size_leaf_vector":"0"}},{"base_weights":[-5.1531243E-1,-5.1549697E-1,-0E0],"categories":[],"categories_nodes":[],"categories_segments":[],"categories_sizes":[],"default_left":[true,false,false],"id":34,"left_children":[1,-1,-1],"loss_changes":[6.9177246E-1,0E0,0E0],"parents":[2147483647,0,0],"right_children":[2,-1,-1],"split_conditions":[5.15E1,-5.15497E-2,-0E0],"split_indices":[21,0,0],"split_type":[0,0,0],"sum_hessian":[5.2487124E3,5.2475576E3,1.1548086E0],"tree_param":{"num_deleted":"0","num_feature":"110","num_nodes":"3","size_leaf_vector":"0"}},{"base_weights":[-5.354104E-1,-5.367292E-1,-0E0],"categories":[],"categories_nodes":[],"categories_segments":[],"categories_sizes":[],"default_left":[true,false,false],"id":35,"left_children":[1,-1,-1],"loss_changes":[3.47583E0,0E0,0E0],"parents":[2147483647,0,0],"right_children":[2,-1,-1],"split_conditions":[1.2916666E-1,-5.367292E-2,-0E0],"split_indices":[8,0,0],"split_type":[0,0,0],"sum_hessian":[5.2219136E3,5.208344E3,1.3569737E1],"tree_param":{"num_deleted":"0","num_feature":"110","num_nodes":"3","size_leaf_vector":"0"}},{"base_weights":[-5.3465635E-1,-5.376715E-1,-0E0],"categories":[],"categories_nodes":[],"categories_segments":[],"categories_sizes":[],"default_left":[true,false,false],"id":36,"left_children":[1,-1,-1],"loss_changes":[1.013269E1,0E0,0E0],"parents":[2147483647,0,0],"right_children":[2,-1,-1],"split_conditions":[6.872933E-2,-5.3767152E-2,-0E0],"split_indices":[8,0,0],"split_type":[0,0,0],"sum_hessian":[5.2225723E3,5.199201E3,2.3371033E1],"tree_param":{"num_deleted":"0","num_feature":"110","num_nodes":"3","size_leaf_vector":"0"}},{"base_weights":[-5.318289E-1,-5.361913E-1,5.291062E-1,-0E0,-5.3638095E-1,1.4898248E0,-0E0],"categories":[],"categories_nodes":[],"categories_segments":[],"categories_sizes":[],"default_left":[true,true,true,false,false,false,false],"id":37,"left_children":[1,3,5,-1,-1,-1,-1],"loss_changes":[2.4549316E1,7.515869E-1,9.022339E0,0E0,0E0,0E0,0E0],"parents":[2147483647,0,0,1,1,2,2],"right_children":[2,4,6,-1,-1,-1,-1],"split_conditions":[1.9805196E-1,-1.0318169E1,6.5E0,-0E0,-5.3638097E-2,1.4898248E-1,-0E0],"split_indices":[8,107,21,0,0,0,0],"split_type":[0,0,0,0,0,0,0],"sum_hessian":[5.226663E3,5.2151396E3,1.1523533E1,1.076304E0,5.2140635E3,4.644471E0,6.879062E0],"tree_param":{"num_deleted":"0","num_feature":"110","num_nodes":"7","size_leaf_vector":"0"}},{"base_weights":[-5.3144366E-1,-5.331555E-1,-0E0,-5.3633124E-1,-0E0,1.3596004E-1,-2.1667497E-1,-0E0,3.1218147E-1,-2.3272906E-1,-0E0,-0E0,-2.4232304E-1],"categories":[],"categories_nodes":[],"categories_segments":[],"categories_sizes":[],"default_left":[true,true,false,false,true,true,true,false,false,true,false,false,false],"id":38,"left_children":[1,3,-1,-1,5,7,9,-1,-1,11,-1,-1,-1],"loss_changes":[7.9782715E0,4.517578E0,0E0,0E0,2.063307E0,3.882758E-1,2.4015951E-1,0E0,0E0,6.509662E-2,0E0,0E0,0E0],"parents":[2147483647,0,0,1,1,4,4,5,5,6,6,9,9],"right_children":[2,4,-1,-1,6,8,10,-1,-1,12,-1,-1,-1],"split_conditions":[6.514923E1,1.3446328E-1,-0E0,-5.3633124E-2,1.1699507E-2,9.613764E0,5.0104523E1,-0E0,3.1218147E-2,-9.453522E-1,-0E0,-0E0,-2.4232304E-2],"split_indices":[108,11,0,0,14,3,108,0,0,105,0,0,0],"split_type":[0,0,0,0,0,0,0,0,0,0,0,0,0],"sum_hessian":[5.226301E3,5.2208545E3,5.446514E0,5.1749033E3,4.5951122E1,5.6017203E0,4.0349403E1,1.3654826E0,4.2362375E0,3.927547E1,1.073933E0,2.0174277E0,3.725804E1],"tree_param":{"num_deleted":"0","num_feature":"110","num_nodes":"13","size_leaf_vector":"0"}},{"base_weights":[-5.2094954E-1,-5.3545314E-1,5.747234E-1,-5.360133E-1,-0E0,2.5002382E0,-1.2130792E-1,-5.362014E-1,-0E0,-0E0,3.1826217E0,-0E0,-2.4131766E-1,-5.363903E-1,-0E0],"categories":[],"categories_nodes":[],"categories_segments":[],"categories_sizes":[],"default_left":[true,true,true,true,false,true,true,true,false,false,false,false,false,false,false],"id":39,"left_children":[1,3,5,7,-1,9,11,13,-1,-1,-1,-1,-1,-1,-1],"loss_changes":[8.321106E1,1.0423584E0,1.0444232E2,4.399414E-1,0E0,2.9208084E1,1.4002295E0,1.9458008E-1,0E0,0E0,0E0,0E0,0E0,0E0,0E0],"parents":[2147483647,0,0,1,1,2,2,3,3,5,5,6,6,7,7],"right_children":[2,4,6,8,-1,10,12,14,-1,-1,-1,-1,-1,-1,-1],"split_conditions":[1.1882353E-1,1.75248E-1,6.5E0,3.4057972E-1,-0E0,5.5E0,-8.9796185E-1,1.10101014E-1,-0E0,-0E0,3.182622E-1,-0E0,-2.4131766E-2,-5.3639032E-2,-0E0],"split_indices":[11,9,66,12,0,66,104,11,0,0,0,0,0,0,0],"split_type":[0,0,0,0,0,0,0,0,0,0,0,0,0,0,0],"sum_hessian":[5.2406445E3,5.1816914E3,5.8952698E1,5.1744927E3,7.199124E0,1.8778507E1,4.017419E1,5.172392E3,2.1003602E0,4.6885586E0,1.4089949E1,6.724808E0,3.3449383E1,5.1694253E3,2.966848E0],"tree_param":{"num_deleted":"0","num_feature":"110","num_nodes":"15","size_leaf_vector":"0"}},{"base_weights":[-5.0200737E-1,-5.1160735E-1,9.153461E-1,-5.12311E-1,-0E0,-0E0,1.7057493E0,-0E0,-5.128273E-1],"categories":[],"categories_nodes":[],"categories_segments":[],"categories_sizes":[],"default_left":[true,true,true,true,false,false,false,false,false],"id":40,"left_children":[1,3,5,7,-1,-1,-1,-1,-1],"loss_changes":[6.809143E1,1.6573486E0,2.8931295E1,6.225586E-3,0E0,0E0,0E0,0E0,0E0],"parents":[2147483647,0,0,1,1,2,2,3,3],"right_children":[2,4,6,8,-1,-1,-1,-1,-1],"split_conditions":[4.25E1,1.87594E-1,4.55E1,-9.467373E-2,-0E0,-0E0,1.7057493E-1,-0E0,-5.128273E-2],"split_indices":[65,9,0,103,0,0,0,0,0],"split_type":[0,0,0,0,0,0,0,0,0],"sum_hessian":[5.265613E3,5.2378306E3,2.778229E1,5.229764E3,8.066249E0,1.0550528E1,1.7231762E1,1.0503038E1,5.219261E3],"tree_param":{"num_deleted":"0","num_feature":"110","num_nodes":"9","size_leaf_vector":"0"}},{"base_weights":[-4.8205486E-1,-5.1923716E-1,9.0132666E-1,-7.236116E-2,-5.3511274E-1,2.5112945E-1,1.7673147E0,-1.9381863E-1,1.5242247E-1,7.067638E-1,-5.8104914E-2,1.8814888E0,-0E0,-2.2465286E-1,-0E0,4.1347814E-1,-0E0,8.4620976E-1,-0E0,-0E0,-1.3935477E-1,1.9579717E0,-0E0,-0E0,-2.4359381E-1,-0E0,1.1066327E0,9.1738987E-1,-0E0,2.032249E0,-0E0],"categories":[],"categories_nodes":[],"categories_segments":[],"categories_sizes":[],"default_left":[true,true,true,true,false,true,true,true,true,true,true,true,false,true,false,true,false,true,false,false,false,true,false,false,false,false,false,false,false,false,false],"id":41,"left_children":[1,3,5,7,-1,9,11,13,15,17,19,21,-1,23,-1,25,-1,27,-1,-1,-1,29,-1,-1,-1,-1,-1,-1,-1,-1,-1],"loss_changes":[2.6898022E2,3.0519043E1,5.3642647E1,5.901447E0,0E0,1.8236319E1,1.248439E1,1.4386325E0,4.2262845E0,6.299061E0,4.6365833E-1,8.387787E0,0E0,1.0649676E0,0E0,9.097525E0,0E0,3.5150623E0,0E0,0E0,0E0,5.027359E0,0E0,0E0,0E0,0E0,0E0,0E0,0E0,0E0,0E0],"parents":[2147483647,0,0,1,1,2,2,3,3,5,5,6,6,7,7,8,8,9,9,10,10,11,11,13,13,15,15,17,17,21,21],"right_children":[2,4,6,8,-1,10,12,14,16,18,20,22,-1,24,-1,26,-1,28,-1,-1,-1,30,-1,-1,-1,-1,-1,-1,-1,-1,-1],"split_conditions":[7.453704E-2,3.4848487E-1,1.3713696E1,1.3354851E1,-5.3511273E-2,5.1020407E-3,2.9821713E-2,2.75E1,8.5E0,2.1807066E-1,-1.5214711E-4,8.5E0,-0E0,-3.5377815E-3,-0E0,-1.2603722E1,-0E0,1.2466087E1,-0E0,-0E0,-1.3935477E-2,2.85E1,-0E0,-0E0,-2.435938E-2,-0E0,1.1066327E-1,9.173899E-2,-0E0,2.032249E-1,-0E0],"split_indices":[11,4,109,109,0,4,102,19,88,11,100,88,0,100,0,108,0,108,0,0,0,19,0,0,0,0,0,0,0,0,0],"split_type":[0,0,0,0,0,0,0,0,0,0,0,0,0,0,0,0,0,0,0,0,0,0,0,0,0,0,0,0,0,0,0],"sum_hessian":[5.293468E3,5.1625625E3,1.3090515E2,1.9891255E2,4.96365E3,8.21004E1,4.8804752E1,1.5810732E2,4.0805244E1,4.5747375E1,3.6353024E1,4.6470226E1,2.334529E0,1.4593411E2,1.2173195E1,2.9401278E1,1.1403967E1,4.0406624E1,5.340753E0,6.9834824E0,2.9369541E1,4.5022003E1,1.4482203E0,4.014238E0,1.4191988E2,1.8728374E1,1.0672901E1,3.8407055E1,1.9995694E0,4.2936607E1,2.0853963E0],"tree_param":{"num_deleted":"0","num_feature":"110","num_nodes":"31","size_leaf_vector":"0"}},{"base_weights":[-4.5808607E-1,-5.2911294E-1,6.1562693E-1,-5.3257483E-1,-0E0,-0E0,1.0085772E0,-0E0,-2.9669803E-2,-3.485018E-1,3.6886343E-1,1.9029636E0,1.597392E-1,-0E0,-5.73619E-2,-3.5962376E-1,-0E0,-0E0,1.0047184E0,-3.57015E-3,2.650786E0,-4.6547137E-2,1.367533E0,-3.6872518E-1,-0E0,-5.803996E-2,-0E0,-0E0,1.6069646E0,-4.3394472E-2,-0E0,2.7809093E0,-0E0,-1.578906E-1,-0E0,1.5216445E0,-0E0],"categories":[],"categories_nodes":[],"categories_segments":[],"categories_sizes":[],"default_left":[true,true,true,false,true,true,true,false,true,true,true,true,true,false,false,true,false,true,true,true,true,true,true,false,false,false,false,false,false,false,false,false,false,false,false,false,false],"id":42,"left_children":[1,3,5,-1,7,9,11,-1,13,15,17,19,21,-1,-1,23,-1,25,27,29,31,33,35,-1,-1,-1,-1,-1,-1,-1,-1,-1,-1,-1,-1,-1,-1],"loss_changes":[4.0553284E2,6.932129E0,8.280137E1,0E0,2.9773695E-2,1.5673872E1,1.3197517E2,0E0,7.442904E-2,4.0507412E-1,2.2414387E1,1.5799872E2,4.072078E1,0E0,0E0,1.8988991E-1,0E0,7.8956276E-2,2.5027082E1,3.9464455E-2,1.6843872E1,1.2385478E0,6.3333435E0,0E0,0E0,0E0,0E0,0E0,0E0,0E0,0E0,0E0,0E0,0E0,0E0,0E0,0E0],"parents":[2147483647,0,0,1,1,2,2,4,4,5,5,6,6,8,8,9,9,10,10,11,11,12,12,15,15,17,17,18,18,19,19,20,20,21,21,22,22],"right_children":[2,4,6,-1,8,10,12,-1,14,16,18,20,22,-1,-1,24,-1,26,28,30,32,34,36,-1,-1,-1,-1,-1,-1,-1,-1,-1,-1,-1,-1,-1,-1],"split_conditions":[9.490741E0,7.751852E0,8.5E0,-5.3257484E-2,-2.1826985E-12,1.2871561E1,9.5E0,-0E0,-1.1581532E1,1.13019064E-1,8.792922E-1,-4.0848592E-1,2.2764893E1,-0E0,-5.7361904E-3,1.1558593E1,-0E0,2.08625E1,8.5E0,-1.85163E-12,3.224596E1,2.7932541E0,2.4171429E1,-3.6872517E-2,-0E0,-5.803996E-3,-0E0,-0E0,1.6069646E-1,-4.3394472E-3,-0E0,2.7809092E-1,-0E0,-1.578906E-2,-0E0,1.5216444E-1,-0E0],"split_indices":[3,3,66,0,101,108,66,0,108,102,109,106,3,0,0,108,0,3,20,102,108,109,3,0,0,0,0,0,0,0,0,0,0,0,0,0,0],"split_type":[0,0,0,0,0,0,0,0,0,0,0,0,0,0,0,0,0,0,0,0,0,0,0,0,0,0,0,0,0,0,0,0,0,0,0,0,0],"sum_hessian":[5.3236685E3,5.002566E3,3.2110248E2,4.9621685E3,4.0397655E1,1.2069522E2,2.0040726E2,7.575334E0,3.2822323E1,6.8835526E1,5.18597E1,9.124423E1,1.09163025E2,2.1534867E0,3.0668835E1,6.771488E1,1.120639E0,2.3530636E1,2.8329063E1,2.22196E1,6.902463E1,8.698777E1,2.2175259E1,6.5761185E1,1.9537024E0,2.2438643E1,1.0919935E0,8.172411E0,2.0156652E1,2.0114557E1,2.1050422E0,6.4802864E1,4.221768E0,5.6329216E1,3.0658552E1,2.045393E1,1.7213291E0],"tree_param":{"num_deleted":"0","num_feature":"110","num_nodes":"37","size_leaf_vector":"0"}},{"base_weights":[-4.0631565E-1,-4.46153E-1,6.798707E-1,-5.0492185E-1,-1.9597463E-1,-0E0,1.4963838E0,-5.184291E-1,-0E0,-5.138815E-1,1.887299E-2,-5.119805E-2,2.0173784E-2,1.5402402E0,-0E0,-6.0891904E-2,-5.221518E-1,-3.3575913E-1,1.22543424E-1,-3.62596E-1,5.732791E-1,-0E0,-1.3965166E-1,-0E0,1.5780856E-1,1.6028471E0,-0E0,-3.2427508E-1,2.7271E-1,-0E0,5.201021E-1,-4.0362567E-1,5.621495E-3,1.074751E0,-2.9404047E-1,-1.590447E-1,-0E0,2.6555604E-1,-0E0,-0E0,1.6342436E0],"categories":[],"categories_nodes":[],"categories_segments":[],"categories_sizes":[],"default_left":[true,true,true,true,true,true,true,true,true,false,true,true,true,true,false,true,false,false,true,true,true,false,true,false,true,true,false,false,false,false,false,false,false,false,false,false,false,false,false,false,false],"id":43,"left_children":[1,3,5,7,9,11,13,15,17,-1,19,21,23,25,-1,27,-1,-1,29,31,33,-1,35,-1,37,39,-1,-1,-1,-1,-1,-1,-1,-1,-1,-1,-1,-1,-1,-1,-1],"loss_changes":[2.3174463E2,6.9655396E1,1.01707436E2,2.4485962E1,7.511654E1,1.113103E-1,5.8272095E0,1.0705566E0,6.9062586E0,0E0,1.2817705E2,4.7779024E-1,9.5080155E-1,5.2238617E0,0E0,5.4947805E0,0E0,0E0,7.714103E0,9.156376E0,1.18444664E2,0E0,1.3941783E-1,0E0,3.2881892E-1,2.445938E0,0E0,0E0,0E0,0E0,0E0,0E0,0E0,0E0,0E0,0E0,0E0,0E0,0E0,0E0,0E0],"parents":[2147483647,0,0,1,1,2,2,3,3,4,4,5,5,6,6,7,7,8,8,10,10,11,11,12,12,13,13,15,15,18,18,19,19,20,20,22,22,24,24,25,25],"right_children":[2,4,6,8,10,12,14,16,18,-1,20,22,24,26,-1,28,-1,-1,30,32,34,-1,36,-1,38,40,-1,-1,-1,-1,-1,-1,-1,-1,-1,-1,-1,-1,-1,-1,-1],"split_conditions":[9.5E0,7.5E0,-1.5020207E-12,2.9826698E0,5E-1,5.5E0,1.0416667E-2,-4.0765924E0,5E-1,-5.1388152E-2,-1.2659993E-4,5.5E0,-2.3045355E-1,1.261824E-12,-0E0,-4.185152E0,-5.2215185E-2,-3.3575915E-2,-8.7010306E-1,8.5E0,7.812369E-1,-0E0,-2.1779245E-12,-0E0,7.5E0,5.5E0,-0E0,-3.242751E-2,2.7271E-2,-0E0,5.201021E-2,-4.0362567E-2,5.621495E-4,1.074751E-1,-2.9404048E-2,-1.590447E-2,-0E0,2.6555603E-2,-0E0,-0E0,1.6342436E-1],"split_indices":[44,44,107,107,17,15,5,107,17,0,100,18,107,105,0,107,0,0,105,44,105,0,100,0,15,15,0,0,0,0,0,0,0,0,0,0,0,0,0,0,0],"split_type":[0,0,0,0,0,0,0,0,0,0,0,0,0,0,0,0,0,0,0,0,0,0,0,0,0,0,0,0,0,0,0,0,0,0,0,0,0,0,0,0,0],"sum_hessian":[5.401686E3,5.2200303E3,1.816559E2,4.193868E3,1.0261622E3,9.952872E1,8.212718E1,4.0692327E3,1.24635544E2,4.3203668E2,5.9412555E2,3.060876E1,6.891996E1,7.991701E1,2.2101765E0,5.466141E1,4.0145713E3,5.0214943E1,7.44206E1,3.414757E2,2.526498E2,2.861575E0,2.7747185E1,3.0597935E1,3.8322025E1,7.575258E1,4.164422E0,4.7311867E1,7.349545E0,4.2716404E1,3.1704195E1,3.315892E2,9.886533E0,1.6724292E2,8.540688E1,2.6675678E1,1.0715067E0,1.7549015E1,2.0773012E1,2.00494E0,7.374764E1],"tree_param":{"num_deleted":"0","num_feature":"110","num_nodes":"41","size_leaf_vector":"0"}},{"base_weights":[1.5599725E0,1.5928289E0,-2.0796333E-1,3.5963E-1,-3.9790925E-1,6.86006E-1,-0E0,-4.4408503E-1,-0E0,-0E0,9.1969806E-1,-0E0,-4.59251E-1,-0E0,1.0420477E0,-4.6345854E-1,-0E0],"categories":[],"categories_nodes":[],"categories_segments":[],"categories_sizes":[],"default_left":[true,false,true,true,true,true,false,true,false,false,true,false,true,false,false,false,false],"id":44,"left_children":[1,-1,3,5,7,9,-1,11,-1,-1,13,-1,15,-1,-1,-1,-1],"loss_changes":[9.344844E2,0E0,3.1187643E1,1.2458618E1,6.44508E0,8.113598E0,0E0,1.323204E0,0E0,0E0,3.2907753E0,0E0,5.0484467E-1,0E0,0E0,0E0,0E0],"parents":[2147483647,0,0,2,2,3,3,4,4,5,5,7,7,10,10,12,12],"right_children":[2,-1,4,6,8,10,-1,12,-1,-1,14,-1,16,-1,-1,-1,-1],"split_conditions":[9.179167E0,1.592829E-1,8.5E0,1.69E1,3.5098523E-2,6.5E0,-0E0,1.05E1,-0E0,-0E0,-2.354783E-12,-0E0,1.7240845E-2,-0E0,1.04204774E-1,-4.6345856E-2,-0E0],"split_indices":[3,0,0,3,7,15,0,0,0,0,102,0,101,0,0,0,0],"split_type":[0,0,0,0,0,0,0,0,0,0,0,0,0,0,0,0,0],"sum_hessian":[1.5842292E4,1.5558892E4,2.834001E2,5.7635307E1,2.2576477E2,4.15881E1,1.6047209E1,2.1373972E2,1.2025064E1,9.300964E0,3.2287136E1,7.6748414E0,2.0606487E2,4.327221E0,2.7959913E1,2.0467258E2,1.3922999E0],"tree_param":{"num_deleted":"0","num_feature":"110","num_nodes":"17","size_leaf_vector":"0"}},{"base_weights":[-5.109414E-1,-5.2351E-1,5.428525E-1,-5.2469504E-1,-0E0,-2.2613737E-1,2.68004E0,-5.2489614E-1,-0E0,3.5683646E0,-0E0],"categories":[],"categories_nodes":[],"categories_segments":[],"categories_sizes":[],"default_left":[true,true,true,true,false,false,true,false,false,false,false],"id":45,"left_children":[1,3,5,7,-1,-1,9,-1,-1,-1,-1],"loss_changes":[6.5457886E1,1.7141113E0,1.0614091E2,7.1154785E-1,0E0,0E0,4.320249E1,0E0,0E0,0E0,0E0],"parents":[2147483647,0,0,1,1,2,2,3,3,6,6],"right_children":[2,4,6,8,-1,-1,10,-1,-1,-1,-1],"split_conditions":[3.65E1,3.167644E-1,3.5185188E-2,5.15E1,-0E0,-2.2613738E-2,3.774929E-2,-5.2489616E-2,-0E0,3.5683647E-1,-0E0],"split_indices":[87,5,5,21,0,0,5,0,0,0,0],"split_type":[0,0,0,0,0,0,0,0,0,0,0],"sum_hessian":[4.93435E3,4.886067E3,4.8283253E1,4.870242E3,1.5824384E1,3.2723885E1,1.5559368E1,4.869092E3,1.1504134E0,1.1733777E1,3.8255913E0],"tree_param":{"num_deleted":"0","num_feature":"110","num_nodes":"11","size_leaf_vector":"0"}},{"base_weights":[-5.322692E-1,-5.3366584E-1,-0E0],"categories":[],"categories_nodes":[],"categories_segments":[],"categories_sizes":[],"default_left":[true,false,false],"id":46,"left_children":[1,-1,-1],"loss_changes":[3.430664E0,0E0,0E0],"parents":[2147483647,0,0],"right_children":[2,-1,-1],"split_conditions":[1.2916666E-1,-5.3366583E-2,-0E0],"split_indices":[8,0,0],"split_type":[0,0,0],"sum_hessian":[4.8999487E3,4.886376E3,1.357281E1],"tree_param":{"num_deleted":"0","num_feature":"110","num_nodes":"3","size_leaf_vector":"0"}},{"base_weights":[-5.314681E-1,-5.334752E-1,-0E0,-5.3408647E-1,-0E0],"categories":[],"categories_nodes":[],"categories_segments":[],"categories_sizes":[],"default_left":[true,true,false,false,false],"id":47,"left_children":[1,3,-1,-1,-1],"loss_changes":[4.6691895E0,2.5163574E0,0E0,0E0,0E0],"parents":[2147483647,0,0,1,1],"right_children":[2,4,-1,-1,-1],"split_conditions":[1.0172414E-1,3.8419572E-1,-0E0,-5.340865E-2,-0E0],"split_indices":[7,106,0,0,0],"split_type":[0,0,0,0,0],"sum_hessian":[4.900617E3,4.8802104E3,2.040703E1,4.877865E3,2.3450685E0],"tree_param":{"num_deleted":"0","num_feature":"110","num_nodes":"5","size_leaf_vector":"0"}},{"base_weights":[-5.28465E-1,-5.341053E-1,5.558085E-1,-5.3450745E-1,-0E0,1.13914E0,-0E0,-0E0,-5.347102E-1,-0E0,1.8915174E0],"categories":[],"categories_nodes":[],"categories_segments":[],"categories_sizes":[],"default_left":[true,true,true,true,false,true,false,false,false,false,false],"id":48,"left_children":[1,3,5,7,-1,9,-1,-1,-1,-1,-1],"loss_changes":[3.0084595E1,9.8461914E-1,7.479261E0,7.6672363E-1,0E0,1.1491552E1,0E0,0E0,0E0,0E0,0E0],"parents":[2147483647,0,0,1,1,2,2,3,3,5,5],"right_children":[2,4,6,8,-1,10,-1,-1,-1,-1,-1],"split_conditions":[1.3746631E-1,1.0102041E-1,4.5E0,-1.0165505E1,-0E0,3.5E0,-0E0,-0E0,-5.3471025E-2,-0E0,1.8915175E-1],"split_indices":[9,9,66,107,0,66,0,0,0,0,0],"split_type":[0,0,0,0,0,0,0,0,0,0,0],"sum_hessian":[4.9052075E3,4.8895024E3,1.5704726E1,4.885593E3,3.91014E0,8.740557E0,6.9641685E0,1.0233773E0,4.8845693E3,2.995901E0,5.744656E0],"tree_param":{"num_deleted":"0","num_feature":"110","num_nodes":"11","size_leaf_vector":"0"}},{"base_weights":[-5.280553E-1,-5.282546E-1,-0E0],"categories":[],"categories_nodes":[],"categories_segments":[],"categories_sizes":[],"default_left":[true,false,false],"id":49,"left_children":[1,-1,-1],"loss_changes":[7.2387695E-1,0E0,0E0],"parents":[2147483647,0,0],"right_children":[2,-1,-1],"split_conditions":[4.6428573E-1,-5.2825462E-2,-0E0],"split_indices":[12,0,0],"split_type":[0,0,0],"sum_hessian":[4.9054155E3,4.904307E3,1.1082263E0],"tree_param":{"num_deleted":"0","num_feature":"110","num_nodes":"3","size_leaf_vector":"0"}},{"base_weights":[-5.1702166E-1,-5.322965E-1,5.0027627E-1,-5.326972E-1,-0E0,1.9543585E0,-1.17206775E-1,-5.3289527E-1,-0E0,-0E0,2.3684049E0,-0E0,-2.6276287E-1],"categories":[],"categories_nodes":[],"categories_segments":[],"categories_sizes":[],"default_left":[true,true,true,true,false,true,true,false,false,false,false,false,false],"id":50,"left_children":[1,3,5,7,-1,9,11,-1,-1,-1,-1,-1,-1],"loss_changes":[7.711902E1,1.0546875E0,7.578513E1,1.303711E-1,0E0,1.6037842E1,2.0028408E0,0E0,0E0,0E0,0E0,0E0,0E0],"parents":[2147483647,0,0,1,1,2,2,3,3,5,5,6,6],"right_children":[2,4,6,8,-1,10,12,-1,-1,-1,-1,-1,-1],"split_conditions":[1.1882353E-1,2.3222783E-1,6.5E0,1.10101014E-1,-0E0,5.5E0,6.5E0,-5.328953E-2,-0E0,-0E0,2.3684049E-1,-0E0,-2.6276289E-2],"split_indices":[11,8,66,11,0,66,20,0,0,0,0,0,0],"split_type":[0,0,0,0,0,0,0,0,0,0,0,0,0],"sum_hessian":[4.9241753E3,4.8614863E3,6.2689045E1,4.8578906E3,3.5957158E0,2.2867996E1,3.982105E1,4.854738E3,3.1526551E0,4.7566533E0,1.8111343E1,3.6910324E0,3.6130016E1],"tree_param":{"num_deleted":"0","num_feature":"110","num_nodes":"13","size_leaf_vector":"0"}},{"base_weights":[-4.9703655E-1,-5.226526E-1,7.900488E-1,-5.309662E-1,-1.20988026E-1,-0E0,1.0814397E0,-5.3179336E-1,-0E0,3.901468E-1,-3.033034E-1,2.7839746E0,2.80562E-1,-5.319991E-1,-0E0,-0E0,1.3218112E0,-3.4407258E-1,-0E0,2.9677415E0,-0E0,1.3855239E0,-1.7087427E-1,-3.6854574E-1,-0E0,1.4704508E0,-0E0,-1.8181102E-1,-0E0],"categories":[],"categories_nodes":[],"categories_segments":[],"categories_sizes":[],"default_left":[true,true,true,true,true,false,true,true,false,true,true,true,true,false,false,false,false,true,false,false,false,true,true,false,false,false,false,false,false],"id":51,"left_children":[1,3,5,7,9,-1,11,13,-1,15,17,19,21,-1,-1,-1,-1,23,-1,-1,-1,25,27,-1,-1,-1,-1,-1,-1],"loss_changes":[1.6118616E2,9.674927E0,2.9412766E1,2.9385986E0,1.0844227E1,0E0,6.801118E1,3.9733887E-1,0E0,6.982251E0,1.2564383E0,1.147673E1,3.9670307E1,0E0,0E0,0E0,0E0,1.0885277E0,0E0,0E0,0E0,2.3165169E0,7.1029365E-2,0E0,0E0,0E0,0E0,0E0,0E0],"parents":[2147483647,0,0,1,1,2,2,3,3,4,4,6,6,7,7,9,9,10,10,11,11,12,12,17,17,21,21,22,22],"right_children":[2,4,6,8,10,-1,12,14,-1,16,18,20,22,-1,-1,-1,-1,24,-1,-1,-1,26,28,-1,-1,-1,-1,-1,-1],"split_conditions":[9.600614E-2,7.947368E-2,6.5E0,2.3117408E-1,7.5E0,-0E0,7.5E0,7.549858E-2,-0E0,4.1247356E-1,1.1949251E0,3.104517E1,1.04714915E-1,-5.3199913E-2,-0E0,-0E0,1.3218112E-1,2.792208E-1,-0E0,2.9677415E-1,-0E0,5.5E0,3.774929E-2,-3.6854576E-2,-0E0,1.4704508E-1,-0E0,-1.8181102E-2,-0E0],"split_indices":[11,13,22,8,22,0,22,11,0,104,104,108,11,0,0,0,0,13,0,0,0,15,8,0,0,0,0,0,0],"split_type":[0,0,0,0,0,0,0,0,0,0,0,0,0,0,0,0,0,0,0,0,0,0,0,0,0,0,0,0,0],"sum_hessian":[4.956434E3,4.8679146E3,8.851986E1,4.744495E3,1.2341904E2,1.6592846E1,7.192701E1,4.7401367E3,4.3588214E0,1.7727814E1,1.0569122E2,1.8223782E1,5.370323E1,4.737873E3,2.2632773E0,1.3099963E1,4.6278515E0,9.2518524E1,1.3172694E1,1.7219828E1,1.0039526E0,2.1401657E1,3.2301575E1,8.85249E1,3.9936247E0,1.9960094E1,1.4415619E0,3.056441E1,1.737165E0],"tree_param":{"num_deleted":"0","num_feature":"110","num_nodes":"29","size_leaf_vector":"0"}},{"base_weights":[-4.764521E-1,-5.160065E-1,8.20268E-1,-9.295259E-2,-5.316987E-1,-2.9993925E-2,1.1625198E0,4.184344E-1,-3.178257E-1,-5.319102E-1,-0E0,-1.6224588E-1,-0E0,-0E0,1.4625697E0,-0E0,1.2577842E0,-0E0,-3.730635E-1,-1.8337709E-1,-0E0,1.6256095E0,-0E0,-0E0,-1.078798E-1,1.7837415E0,-0E0,-0E0,-4.1961816E-1,1.6991041E0,-0E0],"categories":[],"categories_nodes":[],"categories_segments":[],"categories_sizes":[],"default_left":[true,true,true,true,true,true,true,true,true,false,false,true,false,false,true,true,true,false,true,false,false,true,false,false,false,false,false,false,false,false,false],"id":52,"left_children":[1,3,5,7,9,11,13,15,17,-1,-1,19,-1,-1,21,23,25,-1,27,-1,-1,29,-1,-1,-1,-1,-1,-1,-1,-1,-1],"loss_changes":[2.5344812E2,2.5919678E1,5.2298965E1,2.1846558E1,6.444092E-1,7.305268E-1,4.7867813E1,2.6518417E1,5.382882E0,0E0,0E0,1.7689908E-1,0E0,0E0,2.0609573E1,2.7853817E-1,7.3766174E0,0E0,1.8464279E-1,0E0,0E0,8.475327E0,0E0,0E0,0E0,0E0,0E0,0E0,0E0,0E0,0E0],"parents":[2147483647,0,0,1,1,2,2,3,3,4,4,5,5,6,6,7,7,8,8,11,11,14,14,15,15,16,16,18,18,21,21],"right_children":[2,4,6,8,10,12,14,16,18,-1,-1,20,-1,-1,22,24,26,-1,28,-1,-1,30,-1,-1,-1,-1,-1,-1,-1,-1,-1],"split_conditions":[9.498747E-2,3.4848487E-1,7.5E0,8.5E0,1.8333334E-1,2.05E1,7.5E0,7.5E0,-5.6260586E-1,-5.3191017E-2,-0E0,3.2795697E-1,-0E0,-0E0,9.5E0,-3.8906074E-1,1.45E1,-0E0,9.5E0,-1.833771E-2,-0E0,3.4057972E-1,-0E0,-0E0,-1.0787981E-2,1.7837416E-1,-0E0,-0E0,-4.1961815E-2,1.6991042E-1,-0E0],"split_indices":[12,4,22,22,11,21,20,22,106,0,0,14,0,0,22,106,21,0,22,0,0,14,0,0,0,0,0,0,0,0,0],"split_type":[0,0,0,0,0,0,0,0,0,0,0,0,0,0,0,0,0,0,0,0,0,0,0,0,0,0,0,0,0,0,0],"sum_hessian":[4.991439E3,4.8517573E3,1.3968152E2,1.9656705E2,4.6551904E3,3.1964838E1,1.0771668E2,4.6191673E1,1.5037538E2,4.6537656E3,1.4245651E0,2.7878248E1,4.08659E0,1.765395E1,9.006274E1,2.5206451E1,2.098522E1,2.8315535E0,1.4754382E2,2.686683E1,1.0114176E0,8.05115E1,9.551242E0,2.2730505E0,2.2933401E1,1.2249915E1,8.735304E0,3.0083448E1,1.1746038E2,7.6548195E1,3.9633017E0],"tree_param":{"num_deleted":"0","num_feature":"110","num_nodes":"31","size_leaf_vector":"0"}},{"base_weights":[-4.5171002E-1,-5.236573E-1,1.0585932E0,-5.3422374E-1,-5.78088E-2,1.4043608E0,3.2782406E-1,-2.4097735E-1,-0E0,2.2779942E-1,2.18223E0,-0E0,1.3007736E0,-3.0426604E-1,-0E0,8.909828E-1,-1.5283956E-1,-1.109633E-1,8.8920796E-1,-8.3110034E-2,-0E0,-0E0,1.3606509E0,-1.949966E-1,-0E0,-1.7590427E-1,-0E0,-0E0,1.152952E0,-1.3275647E-1,-0E0,4.0729082E-1,-0E0],"categories":[],"categories_nodes":[],"categories_segments":[],"categories_sizes":[],"default_left":[true,true,true,false,true,true,true,true,true,true,false,true,false,false,false,true,true,true,true,true,true,false,false,false,false,false,false,false,false,false,false,false,false],"id":53,"left_children":[1,3,5,-1,7,9,11,13,15,17,-1,19,-1,-1,-1,21,23,25,27,29,31,-1,-1,-1,-1,-1,-1,-1,-1,-1,-1,-1,-1],"loss_changes":[5.4208655E2,1.7730103E1,3.852983E1,0E0,3.4148793E0,1.050777E2,3.2664955E1,1.6338205E-1,1.5078545E1,2.1913063E1,0E0,2.4304232E-1,0E0,0E0,0E0,6.7269583E0,5.794314E-1,5.3020227E-1,1.0478754E1,2.4199313E-1,1.969035E0,0E0,0E0,0E0,0E0,0E0,0E0,0E0,0E0,0E0,0E0,0E0,0E0],"parents":[2147483647,0,0,1,1,2,2,4,4,5,5,6,6,7,7,8,8,9,9,11,11,15,15,16,16,17,17,18,18,19,19,20,20],"right_children":[2,4,6,-1,8,10,12,14,16,18,-1,20,-1,-1,-1,22,24,26,28,30,32,-1,-1,-1,-1,-1,-1,-1,-1,-1,-1,-1,-1],"split_conditions":[1.7607313E-1,7.0598006E-2,9.5E0,-5.3422373E-2,8.5E0,8.5E0,5.801282E-1,8.5E0,9.5E0,8.5E0,2.18223E-1,3.288288E-1,1.3007736E-1,-3.0426605E-2,-0E0,6.5E0,5E-1,4.9E-1,5E-1,2.45E1,5.584416E-1,-0E0,1.360651E-1,-1.949966E-2,-0E0,-1.7590428E-2,-0E0,-0E0,1.15295194E-1,-1.3275648E-2,-0E0,4.0729083E-2,-0E0],"split_indices":[14,14,66,0,66,66,14,44,66,44,0,14,0,0,0,44,16,14,16,43,14,0,0,0,0,0,0,0,0,0,0,0,0],"split_type":[0,0,0,0,0,0,0,0,0,0,0,0,0,0,0,0,0,0,0,0,0,0,0,0,0,0,0,0,0,0,0,0,0],"sum_hessian":[5.0318555E3,4.809993E3,2.2186244E2,4.6821787E3,1.2781443E2,1.4068877E2,8.1173676E1,6.521927E1,6.2595158E1,6.1625694E1,7.906307E1,5.7649002E1,2.3524675E1,4.2301308E1,2.2917963E1,1.6611649E1,4.598351E1,3.1304844E1,3.0320848E1,3.4186417E1,2.3462587E1,6.4264393E0,1.0185209E1,4.310313E1,2.8803768E0,2.899023E1,2.314613E0,4.8077126E0,2.5513136E1,2.6520863E1,7.665552E0,1.08698225E1,1.2592764E1],"tree_param":{"num_deleted":"0","num_feature":"110","num_nodes":"33","size_leaf_vector":"0"}},{"base_weights":[-3.9825636E-1,-5.249212E-1,1.3204854E0,-5.309196E-1,-0E0,1.4521499E0,4.3270234E-2,-5.3173435E-1,-0E0,3.0103413E-2,-1.6587289E-1,1.4665066E0,-0E0,-0E0,1.5460148E-1,1.7080458E-1,-0E0,-0E0,-2.0305535E-1,1.4727786E0,-0E0,3.5793155E-1,-0E0,2.8080568E-1,-0E0,-2.1418549E-1,-0E0,1.4784306E0,-0E0,5.8583724E-1,-0E0],"categories":[],"categories_nodes":[],"categories_segments":[],"categories_sizes":[],"default_left":[true,true,true,true,true,true,true,false,false,true,true,true,false,false,true,true,false,false,true,true,false,true,false,false,false,false,false,false,false,false,false],"id":54,"left_children":[1,3,5,7,9,11,13,-1,-1,15,17,19,-1,-1,21,23,-1,-1,25,27,-1,29,-1,-1,-1,-1,-1,-1,-1,-1,-1],"loss_changes":[1.109875E3,1.1074829E1,4.3348877E1,2.026123E0,1.3717761E0,5.087097E0,6.0561925E-1,0E0,0E0,4.7560182E-1,5.359931E-1,1.4932861E0,0E0,0E0,1.4707572E0,1.9891354E-1,0E0,0E0,1.4563906E-1,1.1419678E0,0E0,1.2597439E0,0E0,0E0,0E0,0E0,0E0,0E0,0E0,0E0,0E0],"parents":[2147483647,0,0,1,1,2,2,3,3,4,4,5,5,6,6,9,9,10,10,11,11,14,14,15,15,18,18,19,19,21,21],"right_children":[2,4,6,8,10,12,14,-1,-1,16,18,20,-1,-1,22,24,-1,-1,26,28,-1,30,-1,-1,-1,-1,-1,-1,-1,-1,-1],"split_conditions":[3.0901855E-1,1.8898809E-1,2.4264705E-1,2.7429467E-1,1.5692309E-1,1.6139534E-1,-1.0651041E1,-5.3173434E-2,-0E0,1.8269232E-1,-2.2627478E0,3.0625E-1,-0E0,-0E0,1.85E1,4.1313477E0,-0E0,-0E0,2.5205368E1,1.7095266E-2,-0E0,2.4909964E-2,-0E0,2.8080568E-2,-0E0,-2.141855E-2,-0E0,1.4784306E-1,-0E0,5.8583725E-2,-0E0],"split_indices":[6,6,4,13,4,12,108,0,0,12,109,13,0,0,43,109,0,0,108,9,0,13,0,0,0,0,0,0,0,0,0],"split_type":[0,0,0,0,0,0,0,0,0,0,0,0,0,0,0,0,0,0,0,0,0,0,0,0,0,0,0,0,0,0,0],"sum_hessian":[5.1304507E3,4.784373E3,3.4607748E2,4.7161416E3,6.8231674E1,3.0651337E2,3.9564114E1,4.7088623E3,7.27915E0,2.0067854E1,4.816382E1,3.028873E2,3.6260865E0,1.2048558E1,2.7515558E1,1.5956552E1,4.111302E0,3.3571389E0,4.4806683E1,3.0099298E2,1.8942978E0,1.5799947E1,1.17156105E1,7.796338E0,8.160213E0,4.334436E1,1.4623203E0,2.992108E2,1.7822227E0,8.941772E0,6.858174E0],"tree_param":{"num_deleted":"0","num_feature":"110","num_nodes":"31","size_leaf_vector":"0"}},{"base_weights":[1.3556116E0,6.914838E-2,1.3594576E0,2.361199E-1,-0E0,1.3746424E0,1.0882742E0,-0E0,5.105987E-1,1.3783287E0,8.545941E-1,-0E0,1.1893024E0,5.7780385E-1,-0E0,1.3801965E0,6.3012844E-1,1.2554674E0,-0E0,-3.1295004E-1,6.3238317E-1,1.3447798E0,6.5378654E-1,5.9478134E-1,-0E0,1.380281E0,-0E0,9.343189E-1,-0E0,-3.6625856E-1,5.357693E-1,-0E0,-3.54552E-1,6.7616963E-1,-0E0,1.347916E0,-0E0,8.012545E-1,-0E0],"categories":[],"categories_nodes":[],"categories_segments":[],"categories_sizes":[],"default_left":[true,true,true,true,false,true,true,false,true,true,true,true,true,true,false,true,true,false,true,true,true,true,true,false,false,false,false,false,false,false,false,false,false,false,false,false,false,false,false],"id":55,"left_children":[1,3,5,7,-1,9,11,-1,13,15,17,19,21,23,-1,25,27,-1,29,31,33,35,37,-1,-1,-1,-1,-1,-1,-1,-1,-1,-1,-1,-1,-1,-1,-1,-1],"loss_changes":[6.958594E1,1.8573972E0,4.3521484E1,4.325264E0,0E0,7.123047E0,1.112384E2,0E0,1.0535989E0,1.1679688E0,4.939203E1,1.2761986E1,5.0974365E1,5.8625698E-2,0E0,6.972656E-1,1.5656321E1,0E0,7.911586E0,1.4371457E0,3.9948177E-1,2.6968994E0,1.3247307E1,0E0,0E0,0E0,0E0,0E0,0E0,0E0,0E0,0E0,0E0,0E0,0E0,0E0,0E0,0E0,0E0],"parents":[2147483647,0,0,1,1,2,2,3,3,5,5,6,6,8,8,9,9,10,10,11,11,12,12,13,13,15,15,16,16,18,18,19,19,20,20,21,21,22,22],"right_children":[2,4,6,8,-1,10,12,-1,14,16,18,20,22,24,-1,26,28,-1,30,32,34,36,38,-1,-1,-1,-1,-1,-1,-1,-1,-1,-1,-1,-1,-1,-1,-1,-1],"split_conditions":[-4.5397526E-1,1.35E1,9.0773416E-1,-6.240754E-1,-0E0,3.65E1,-4.95E1,-0E0,1.0932921E-12,5.0029133E1,3.5185188E-2,1.212522E-2,1.55E1,-4.639033E-1,-0E0,3.7623227E-1,1.45E1,1.2554674E-1,3.935185E-2,-6.054397E0,2.8908186E0,1.45E1,-2.2734037E-12,5.9478134E-2,-0E0,1.380281E-1,-0E0,9.343189E-2,-0E0,-3.662586E-2,5.3576928E-2,-0E0,-3.54552E-2,6.761696E-2,-0E0,1.347916E-1,-0E0,8.012545E-2,-0E0],"split_indices":[106,87,104,106,0,43,87,0,105,108,5,5,19,106,0,106,87,0,5,105,105,43,105,0,0,0,0,0,0,0,0,0,0,0,0,0,0,0,0],"split_type":[0,0,0,0,0,0,0,0,0,0,0,0,0,0,0,0,0,0,0,0,0,0,0,0,0,0,0,0,0,0,0,0,0,0,0,0,0,0,0],"sum_hessian":[1.697026E4,5.838903E1,1.6911871E4,3.740835E1,2.0980677E1,1.5976337E4,9.3553345E2,1.3604531E1,2.3803822E1,1.5843154E4,1.3318304E2,7.370932E1,8.618241E2,2.1525278E1,2.2785428E0,1.5789528E4,5.3625397E1,9.250986E1,4.0673183E1,5.700169E1,1.6707634E1,6.5226575E2,2.0955833E2,2.0423424E1,1.1018549E0,1.5787959E4,1.5695213E0,4.178126E1,1.1844135E1,2.7368877E1,1.3304306E1,1.3803974E0,5.5621292E1,1.5362262E1,1.3453727E0,6.5071375E2,1.5519966E0,1.5981976E2,4.973857E1],"tree_param":{"num_deleted":"0","num_feature":"110","num_nodes":"39","size_leaf_vector":"0"}},{"base_weights":[-5.0664604E-1,-5.199127E-1,4.9154395E-1,-5.2116853E-1,-0E0,-2.1317416E-1,2.126232E0,-5.215907E-1,-0E0,2.6849642E0,-0E0],"categories":[],"categories_nodes":[],"categories_segments":[],"categories_sizes":[],"default_left":[true,true,true,true,false,false,true,false,false,false,false],"id":56,"left_children":[1,3,5,7,-1,-1,9,-1,-1,-1,-1],"loss_changes":[6.187622E1,1.7728271E0,7.8772766E1,7.277832E-1,0E0,0E0,2.6300499E1,0E0,0E0,0E0,0E0],"parents":[2147483647,0,0,1,1,2,2,3,3,6,6],"right_children":[2,4,6,8,-1,-1,10,-1,-1,-1,-1],"split_conditions":[3.65E1,3.167644E-1,3.5185188E-2,4.55E1,-0E0,-2.1317417E-2,6.507937E-1,-5.215907E-2,-0E0,2.6849642E-1,-0E0],"split_indices":[87,5,5,21,0,0,3,0,0,0,0],"split_type":[0,0,0,0,0,0,0,0,0,0,0],"sum_hessian":[4.6307656E3,4.580386E3,5.0379543E1,4.564861E3,1.5525215E1,3.1536356E1,1.8843185E1,4.5601475E3,4.7136655E0,1.5092145E1,3.7510407E0],"tree_param":{"num_deleted":"0","num_feature":"110","num_nodes":"11","size_leaf_vector":"0"}},{"base_weights":[-5.292559E-1,-5.303349E-1,-0E0],"categories":[],"categories_nodes":[],"categories_segments":[],"categories_sizes":[],"default_left":[true,false,false],"id":57,"left_children":[1,-1,-1],"loss_changes":[4.4555664E0,0E0,0E0],"parents":[2147483647,0,0],"right_children":[2,-1,-1],"split_conditions":[1.9660226E-1,-5.303349E-2,-0E0],"split_indices":[9,0,0],"split_type":[0,0,0],"sum_hessian":[4.5890425E3,4.586226E3,2.8161933E0],"tree_param":{"num_deleted":"0","num_feature":"110","num_nodes":"3","size_leaf_vector":"0"}},{"base_weights":[-5.284019E-1,-5.3053457E-1,-0E0],"categories":[],"categories_nodes":[],"categories_segments":[],"categories_sizes":[],"default_left":[true,false,false],"id":58,"left_children":[1,-1,-1],"loss_changes":[4.699829E0,0E0,0E0],"parents":[2147483647,0,0],"right_children":[2,-1,-1],"split_conditions":[1.0172414E-1,-5.3053457E-2,-0E0],"split_indices":[7,0,0],"split_type":[0,0,0],"sum_hessian":[4.5899526E3,4.569816E3,2.013683E1],"tree_param":{"num_deleted":"0","num_feature":"110","num_nodes":"3","size_leaf_vector":"0"}},{"base_weights":[-5.252231E-1,-5.301203E-1,3.841467E-1,-5.3033525E-1,-0E0,-0E0,8.973933E-1,1.4382992E0,-0E0],"categories":[],"categories_nodes":[],"categories_segments":[],"categories_sizes":[],"default_left":[true,true,true,false,false,false,true,false,false],"id":59,"left_children":[1,3,5,-1,-1,-1,7,-1,-1],"loss_changes":[2.2130981E1,7.503662E-1,5.313095E0,0E0,0E0,0E0,6.471239E0,0E0,0E0],"parents":[2147483647,0,0,1,1,2,2,6,6],"right_children":[2,4,6,-1,-1,-1,8,-1,-1],"split_conditions":[1.9805196E-1,8.585933E1,3.5E0,-5.3033527E-2,-0E0,-0E0,2.3117408E-1,1.4382993E-1,-0E0],"split_indices":[8,108,66,0,0,0,8,0,0],"split_type":[0,0,0,0,0,0,0,0,0],"sum_hessian":[4.5949365E3,4.5816763E3,1.3260101E1,4.5806313E3,1.0451204E0,5.0494914E0,8.210609E0,5.713709E0,2.4969008E0],"tree_param":{"num_deleted":"0","num_feature":"110","num_nodes":"9","size_leaf_vector":"0"}},{"base_weights":[-5.247661E-1,-5.303253E-1,-0E0,2.1894287E-1,-0E0,8.5943097E-1,-0E0,9.657638E-1,-0E0,-0E0,1.0820283E0],"categories":[],"categories_nodes":[],"categories_segments":[],"categories_sizes":[],"default_left":[true,false,true,true,false,true,false,true,false,false,false],"id":60,"left_children":[1,-1,3,5,-1,7,-1,9,-1,-1,-1],"loss_changes":[1.7812988E1,0E0,7.2071254E-1,4.2673645E0,0E0,2.5335646E-1,0E0,1.5488148E-1,0E0,0E0,0E0],"parents":[2147483647,0,0,2,2,3,3,5,5,7,7],"right_children":[2,-1,4,6,-1,8,-1,10,-1,-1,-1],"split_conditions":[1.1035007E-1,-5.303253E-2,5.5E0,5.8497537E-2,-0E0,1.3377402E0,-0E0,3.5E0,-0E0,-0E0,1.0820283E-1],"split_indices":[10,0,44,8,0,104,0,44,0,0,0],"split_type":[0,0,0,0,0,0,0,0,0,0,0],"sum_hessian":[4.5959717E3,4.5634365E3,3.25356E1,1.4034898E1,1.85007E1,5.753224E0,8.281674E0,4.6196365E0,1.1335872E0,1.0104946E0,3.609142E0],"tree_param":{"num_deleted":"0","num_feature":"110","num_nodes":"11","size_leaf_vector":"0"}},{"base_weights":[-5.131898E-1,-5.311986E-1,-1.4253168E-1,1.0757523E0,-4.14654E-1,-0E0,1.8175315E0,-0E0,-4.7430557E-1,-0E0,2.0340583E0,-0E0,2.2415588E-2,-0E0,2.7673948E-1],"categories":[],"categories_nodes":[],"categories_segments":[],"categories_sizes":[],"default_left":[true,false,true,true,true,false,true,true,false,false,false,false,true,false,false],"id":61,"left_children":[1,-1,3,5,7,-1,9,11,-1,-1,-1,-1,13,-1,-1],"loss_changes":[2.40177E1,0E0,7.376701E1,4.034061E1,5.214657E0,0E0,9.137001E0,3.9605107E-3,0E0,0E0,0E0,0E0,3.211492E-1,0E0,0E0],"parents":[2147483647,0,0,2,2,3,3,4,4,6,6,7,7,12,12],"right_children":[2,-1,4,6,8,-1,10,12,-1,-1,-1,-1,14,-1,-1],"split_conditions":[9.3447485E0,-5.3119864E-2,6.5E0,5.5E0,6.5E0,-0E0,9E0,2.744495E1,-4.7430556E-2,-0E0,2.0340584E-1,-0E0,5.5E0,-0E0,2.7673949E-2],"split_indices":[3,0,22,22,44,0,19,108,0,0,0,0,44,0,0],"split_type":[0,0,0,0,0,0,0,0,0,0,0,0,0,0,0],"sum_hessian":[4.6177783E3,4.377673E3,2.4010577E2,3.6590366E1,2.0351541E2,1.2210068E1,2.4380299E1,2.5027603E1,1.7848781E2,2.9075E0,2.1472797E1,1.8145342E1,6.882262E0,3.6371646E0,3.2450976E0],"tree_param":{"num_deleted":"0","num_feature":"110","num_nodes":"15","size_leaf_vector":"0"}},{"base_weights":[-4.922198E-1,-5.085343E-1,4.079264E-1,-5.1901746E-1,8.5052204E-1,1.1722971E0,-1.1665248E-1,-5.26771E-1,-9.567937E-2,1.1948428E0,-0E0,1.6839616E0,-0E0,-2.040554E-1,-0E0,3.8560364E-1,-3.4437883E-1,-0E0,2.2557008E0,-0E0,1.2396214E0,-0E0,-3.75133E-1],"categories":[],"categories_nodes":[],"categories_segments":[],"categories_sizes":[],"default_left":[true,true,true,true,true,true,true,false,true,false,false,true,false,false,false,true,true,false,false,false,false,false,false],"id":62,"left_children":[1,3,5,7,9,11,13,-1,15,-1,-1,17,-1,-1,-1,19,21,-1,-1,-1,-1,-1,-1],"loss_changes":[6.961572E1,6.2468018E1,3.9787888E1,8.689697E0,1.1872921E1,3.0310074E1,7.94842E-1,0E0,1.245818E1,0E0,0E0,2.7808113E1,0E0,0E0,0E0,1.2441471E1,1.5367146E0,0E0,0E0,0E0,0E0,0E0,0E0],"parents":[2147483647,0,0,1,1,2,2,3,3,4,4,5,5,6,6,8,8,11,11,15,15,16,16],"right_children":[2,4,6,8,10,12,14,-1,16,-1,-1,18,-1,-1,-1,20,22,-1,-1,-1,-1,-1,-1],"split_conditions":[1.9023809E-1,4.35E1,7.5E0,7.947368E-2,4.35E1,7.5E0,2.55E1,-5.2677102E-2,7.5E0,1.1948428E-1,-0E0,6.5E0,-0E0,-2.040554E-2,-0E0,6.5E0,5.5E0,-0E0,2.2557008E-1,-0E0,1.2396214E-1,-0E0,-3.75133E-2],"split_indices":[13,21,66,13,65,88,65,0,66,0,0,66,0,0,0,66,44,0,0,0,0,0,0],"split_type":[0,0,0,0,0,0,0,0,0,0,0,0,0,0,0,0,0,0,0,0,0,0,0],"sum_hessian":[4.656829E3,4.585269E3,7.156027E1,4.558086E3,2.7182974E1,3.637946E1,3.5180813E1,4.4526685E3,1.0541758E2,2.159668E1,5.5862937E0,2.780388E1,8.575578E0,2.9913218E1,5.267596E0,2.2028463E1,8.338912E1,7.2857885E0,2.0518093E1,1.2703755E1,9.324708E0,2.3496091E0,8.103951E1],"tree_param":{"num_deleted":"0","num_feature":"110","num_nodes":"23","size_leaf_vector":"0"}},{"base_weights":[-4.709891E-1,-5.1205045E-1,7.1828485E-1,1.7857492E-3,-5.166828E-1,-1.9710597E-2,1.0004193E0,2.718869E-1,-0E0,-1.592386E-1,-0E0,-0E0,1.2475713E0,-0E0,4.9735522E-1,1.3466331E0,-0E0,1.4394288E0,-0E0],"categories":[],"categories_nodes":[],"categories_segments":[],"categories_sizes":[],"default_left":[true,true,true,true,false,true,true,true,false,false,false,false,true,false,false,true,false,false,false],"id":63,"left_children":[1,3,5,7,-1,9,11,13,-1,-1,-1,-1,15,-1,-1,17,-1,-1,-1],"loss_changes":[2.2777502E2,1.5982422E1,4.0874596E1,1.1030476E0,0E0,7.1752506E-1,3.7700607E1,1.5561395E0,0E0,0E0,0E0,0E0,1.5284561E1,0E0,0E0,9.089111E0,0E0,0E0,0E0],"parents":[2147483647,0,0,1,1,2,2,3,3,5,5,6,6,7,7,12,12,15,15],"right_children":[2,4,6,8,-1,10,12,14,-1,-1,-1,-1,16,-1,-1,18,-1,-1,-1],"split_conditions":[9.498747E-2,-4.5448703E-1,7.5E0,8.5E0,-5.1668283E-2,7.5E0,7.5E0,7.5E0,-0E0,-1.5923861E-2,-0E0,-0E0,8.5E0,-0E0,4.9735524E-2,9.5E0,-0E0,1.4394288E-1,-0E0],"split_indices":[12,106,22,20,0,88,20,88,0,0,0,0,88,0,0,22,0,0,0],"split_type":[0,0,0,0,0,0,0,0,0,0,0,0,0,0,0,0,0,0,0],"sum_hessian":[4.698048E3,4.549933E3,1.4811491E2,2.1370039E1,4.528563E3,3.1418287E1,1.1669663E2,1.3922646E1,7.447393E0,2.7793695E1,3.6245909E0,1.7791395E1,9.8905235E1,4.172183E0,9.750463E0,9.31759E1,5.7293363E0,8.581154E1,7.364366E0],"tree_param":{"num_deleted":"0","num_feature":"110","num_nodes":"19","size_leaf_vector":"0"}},{"base_weights":[-4.453165E-1,-4.91493E-1,8.494934E-4,2.4160148E-1,-5.044484E-1,-4.8068705E-1,3.882895E-1,-7.605743E-2,8.447106E-1,-0E0,-5.0710684E-1,1.1663418E0,-9.031104E-4,-1.4932266E-1,-0E0,-0E0,1.062195E0,-1.6352305E-1,-0E0,-5.077621E-1,-0E0,-0E0,1.4252251E0,4.2919427E-1,-2.2469151E-1,-1.6783169E-1,-0E0,-0E0,1.180256E0,-5.079871E-1,-0E0,1.5581831E0,-0E0,-0E0,8.199474E-1,-0E0,-2.94317E-1],"categories":[],"categories_nodes":[],"categories_segments":[],"categories_sizes":[],"default_left":[true,true,true,true,true,false,true,true,true,true,true,true,true,true,false,false,true,false,false,true,false,false,true,true,true,false,false,false,false,false,false,false,false,false,false,false,false],"id":64,"left_children":[1,3,5,7,9,-1,11,13,15,17,19,21,23,25,-1,-1,27,-1,-1,29,-1,-1,31,33,35,-1,-1,-1,-1,-1,-1,-1,-1,-1,-1,-1,-1],"loss_changes":[1.02693665E2,4.3794434E1,7.8711494E1,1.9689728E1,2.6730957E0,0E0,8.676521E1,4.751435E-1,7.8217545E0,7.54098E-1,1.375E0,2.8648201E1,1.32368E1,1.4120823E-1,0E0,0E0,4.655319E0,0E0,0E0,6.958008E-1,0E0,0E0,1.2547241E1,1.1584625E1,1.7412229E0,0E0,0E0,0E0,0E0,0E0,0E0,0E0,0E0,0E0,0E0,0E0,0E0],"parents":[2147483647,0,0,1,1,2,2,3,3,4,4,6,6,7,7,8,8,9,9,10,10,11,11,12,12,13,13,16,16,19,19,22,22,23,23,24,24],"right_children":[2,4,6,8,10,-1,12,14,16,18,20,22,24,26,-1,-1,28,-1,-1,30,-1,-1,32,34,36,-1,-1,-1,-1,-1,-1,-1,-1,-1,-1,-1,-1],"split_conditions":[9.0191174E-1,-4.1587266E-1,8.5E0,9.5E0,-3.4330073E-1,-4.8068706E-2,9.5E0,1.45E1,1.35E1,1.25E1,3.4208375E-1,-1.7036791E-3,-4.95E1,-4.382459E-1,-0E0,-0E0,-5.227896E-1,-1.6352305E-2,-0E0,4.45E1,-0E0,-0E0,1.4381359E0,4.5E0,-1.3376296E-1,-1.6783169E-2,-0E0,-0E0,1.180256E-1,-5.079871E-2,-0E0,1.5581831E-1,-0E0,-0E0,8.199474E-2,-0E0,-2.94317E-2],"split_indices":[104,106,22,22,106,0,22,87,87,87,106,100,87,106,0,0,106,0,0,87,0,0,104,18,106,0,0,0,0,0,0,0,0,0,0,0,0],"split_type":[0,0,0,0,0,0,0,0,0,0,0,0,0,0,0,0,0,0,0,0,0,0,0,0,0,0,0,0,0,0,0,0,0,0,0,0,0],"sum_hessian":[4.745379E3,4.3205317E3,4.2484714E2,6.1317394E1,4.2592144E3,1.7780634E2,2.470408E2,2.9875202E1,3.1442192E1,3.4154472E1,4.22506E3,9.027181E1,1.5676898E2,2.8319674E1,1.5555288E0,4.9924235E0,2.6449768E1,2.7201347E1,6.9531245E0,4.219493E3,5.5665946E0,1.6042854E1,7.4228966E1,3.8045902E1,1.1872308E2,2.7222496E1,1.0971773E0,1.8750131E0,2.4574755E1,4.2184517E3,1.0418249E0,6.710617E1,7.12279E0,1.1116709E1,2.6929195E1,2.984348E1,8.887961E1],"tree_param":{"num_deleted":"0","num_feature":"110","num_nodes":"37","size_leaf_vector":"0"}},{"base_weights":[-3.9071798E-1,-5.136516E-1,8.3188707E-1,-5.270749E-1,1.8630098E-1,-1.4357503E-1,1.2748524E0,-1.287633E-1,9.089911E-1,-4.2204994E-1,6.382946E-1,1.3568251E0,-0E0,-2.5894472E-1,-0E0,-0E0,1.0217521E0,-4.3025103E-1,-0E0,-0E0,7.930318E-1,-0E0,1.4268821E0,-0E0,1.1116475E0,-0E0,-4.3799767E-1,9.1797227E-1,-0E0,1.4508262E0,-0E0],"categories":[],"categories_nodes":[],"categories_segments":[],"categories_sizes":[],"default_left":[true,true,true,false,true,true,true,true,true,true,true,true,false,false,false,false,true,true,false,false,true,false,true,false,false,false,false,false,false,false,false],"id":65,"left_children":[1,3,5,-1,7,9,11,13,15,17,19,21,-1,-1,-1,-1,23,25,-1,-1,27,-1,29,-1,-1,-1,-1,-1,-1,-1,-1],"loss_changes":[7.2756555E2,4.5065063E1,2.0027716E2,0E0,2.3846716E1,2.6474836E1,3.558429E1,1.8508062E0,4.4291744E0,5.5290985E-1,3.7593107E0,2.9586487E1,0E0,0E0,0E0,0E0,3.585352E0,3.639412E-1,0E0,0E0,1.5194092E0,0E0,1.0110657E1,0E0,0E0,0E0,0E0,0E0,0E0,0E0,0E0],"parents":[2147483647,0,0,1,1,2,2,4,4,5,5,6,6,7,7,8,8,9,9,10,10,11,11,16,16,17,17,20,20,22,22],"right_children":[2,4,6,-1,8,10,12,14,16,18,20,22,-1,-1,-1,-1,24,26,-1,-1,28,-1,30,-1,-1,-1,-1,-1,-1,-1,-1],"split_conditions":[7.643622E-2,8.527536E0,9.5E0,-5.270749E-2,9.5E0,9.5E0,5.162139E0,9.5E0,-1.2082499E0,5.346497E-3,1.0343434E1,4.8135705E0,-0E0,-2.5894472E-2,-0E0,-0E0,-5.1127167E0,2.5720587E0,-0E0,-0E0,4.3303573E-1,-0E0,5.801282E-1,-0E0,1.1116475E-1,-0E0,-4.379977E-2,9.1797225E-2,-0E0,1.4508262E-1,-0E0],"split_indices":[14,3,22,0,22,44,107,44,107,100,3,3,0,0,0,0,105,3,0,0,14,0,14,0,0,0,0,0,0,0,0],"split_type":[0,0,0,0,0,0,0,0,0,0,0,0,0,0,0,0,0,0,0,0,0,0,0,0,0,0,0,0,0,0,0],"sum_hessian":[4.8581113E3,4.4222144E3,4.3589685E2,4.353263E3,6.895091E1,1.2928867E2,3.066082E2,3.8953407E1,2.9997503E1,1.0510424E2,2.4184433E1,2.8989166E2,1.671652E1,3.6481644E1,2.4717643E0,2.221668E0,2.7775835E1,1.0408467E2,1.0195664E0,2.891599E0,2.1292835E1,1.3331451E1,2.765602E2,1.564506E0,2.621133E1,1.7872019E0,1.0229747E2,1.7440557E1,3.852277E0,2.7227768E2,4.2825265E0],"tree_param":{"num_deleted":"0","num_feature":"110","num_nodes":"31","size_leaf_vector":"0"}},{"base_weights":[1.2044466E0,1.2284275E0,-2.200619E-1,1.2314079E0,7.8553176E-1,-3.3709192E-1,3.1585585E-2,6.1009586E-4,1.1086916E0,-3.8904163E-1,-0E0,3.4733436E-1,-1.52555825E-2,7.952147E-1,-3.4426528E-1,-0E0,-4.0123975E-1,6.406679E-1,-0E0,-1.1419879E-1,-0E0,-0E0,-4.4655645E-1,-0E0,8.216508E-1],"categories":[],"categories_nodes":[],"categories_segments":[],"categories_sizes":[],"default_left":[true,true,true,false,true,true,true,true,false,true,false,true,true,false,false,false,true,true,false,false,false,false,false,false,false],"id":66,"left_children":[1,3,5,-1,7,9,11,13,-1,15,-1,17,19,-1,-1,-1,21,23,-1,-1,-1,-1,-1,-1,-1],"loss_changes":[6.168906E2,1.921875E0,1.1544368E1,0E0,2.4912498E1,6.8290043E0,4.290073E0,1.887523E1,0E0,1.7096901E0,0E0,6.8474193E0,3.312381E-1,0E0,0E0,0E0,5.186386E-1,2.4807978E0,0E0,0E0,0E0,0E0,0E0,0E0,0E0],"parents":[2147483647,0,0,1,1,2,2,4,4,5,5,6,6,7,7,9,9,11,11,12,12,16,16,17,17],"right_children":[2,4,6,-1,8,10,12,14,-1,16,-1,18,20,-1,-1,-1,22,24,-1,-1,-1,-1,-1,-1,-1],"split_conditions":[9.179167E0,3.65E1,-2.2378766E-12,1.2314079E-1,-2.0187205E-2,3.55E1,1.3033333E1,-4.9343705E-4,1.1086916E-1,-6.55145E-1,-0E0,3.0309988E-2,3.65E1,7.952147E-2,-3.442653E-2,-0E0,1.1435294E1,8.5E0,-0E0,-1.1419879E-2,-0E0,-0E0,-4.4655647E-2,-0E0,8.2165085E-2],"split_indices":[3,43,106,0,106,19,3,103,0,106,0,11,21,0,0,0,3,21,0,0,0,0,0,0,0],"split_type":[0,0,0,0,0,0,0,0,0,0,0,0,0,0,0,0,0,0,0,0,0,0,0,0,0],"sum_hessian":[1.775419E4,1.7467293E4,2.86897E2,1.7326344E4,1.4094937E2,2.2271895E2,6.417806E1,5.042313E1,9.052624E1,2.1208015E2,1.0638794E1,3.5041462E1,2.9136602E1,2.36418E1,2.678133E1,2.1391597E0,2.09941E2,2.6275812E1,8.765652E0,2.493685E1,4.1997533E0,3.8039562E1,1.7190143E2,7.017927E0,1.9257885E1],"tree_param":{"num_deleted":"0","num_feature":"110","num_nodes":"25","size_leaf_vector":"0"}},{"base_weights":[-5.024429E-1,-5.16387E-1,4.302655E-1,-5.168326E-1,-0E0,-7.595945E-2,1.1774306E0,-0E0,-5.170497E-1,2.0619574E0,-0E0],"categories":[],"categories_nodes":[],"categories_segments":[],"categories_sizes":[],"default_left":[true,true,true,true,false,false,true,false,false,false,false],"id":67,"left_children":[1,3,5,7,-1,-1,9,-1,-1,-1,-1],"loss_changes":[5.753662E1,7.380371E-1,3.1498142E1,1.2451172E-2,0E0,0E0,4.2283154E1,0E0,0E0,0E0,0E0],"parents":[2147483647,0,0,1,1,2,2,3,3,6,6],"right_children":[2,4,6,8,-1,-1,10,-1,-1,-1,-1],"split_conditions":[3.65E1,4.55E1,2.534923E-1,-7.5820446E0,-0E0,-7.595945E-3,2.6663578E-1,-0E0,-5.170497E-2,2.0619574E-1,-0E0],"split_indices":[87,21,107,107,0,0,107,0,0,0,0],"split_type":[0,0,0,0,0,0,0,0,0,0,0],"sum_hessian":[4.3396294E3,4.2867104E3,5.2919037E1,4.2820825E3,4.62757E0,2.4103004E1,2.8816032E1,3.5484192E0,4.278534E3,1.8667198E1,1.0148834E1],"tree_param":{"num_deleted":"0","num_feature":"110","num_nodes":"11","size_leaf_vector":"0"}},{"base_weights":[-5.263703E-1,-0E0,-5.26596E-1],"categories":[],"categories_nodes":[],"categories_segments":[],"categories_sizes":[],"default_left":[true,false,false],"id":68,"left_children":[1,-1,-1],"loss_changes":[3.5534668E-1,0E0,0E0],"parents":[2147483647,0,0],"right_children":[2,-1,-1],"split_conditions":[-8.972583E0,-0E0,-5.26596E-2],"split_indices":[107,0,0],"split_type":[0,0,0],"sum_hessian":[4.290613E3,2.3972867E0,4.2882153E3],"tree_param":{"num_deleted":"0","num_feature":"110","num_nodes":"3","size_leaf_vector":"0"}},{"base_weights":[-5.254652E-1,-5.2773917E-1,-0E0,-5.279699E-1,-0E0,-5.281994E-1,-0E0],"categories":[],"categories_nodes":[],"categories_segments":[],"categories_sizes":[],"default_left":[true,true,false,true,false,false,false],"id":69,"left_children":[1,3,-1,5,-1,-1,-1],"loss_changes":[6.7651367E0,6.555176E-1,0E0,6.4953613E-1,0E0,0E0,0E0],"parents":[2147483647,0,0,1,1,3,3],"right_children":[2,4,-1,6,-1,-1,-1],"split_conditions":[1.6369048E-1,4.4774786E-1,-0E0,2.4932203E1,-0E0,-5.2819937E-2,-0E0],"split_indices":[9,106,0,3,0,0,0],"split_type":[0,0,0,0,0,0,0],"sum_hessian":[4.2922197E3,4.2795913E3,1.2628143E1,4.2782026E3,1.3885294E0,4.276814E3,1.3890426E0],"tree_param":{"num_deleted":"0","num_feature":"110","num_nodes":"7","size_leaf_vector":"0"}},{"base_weights":[-5.220948E-1,-5.2729076E-1,3.3235568E-1,-5.275201E-1,-0E0,9.008085E-1,-0E0],"categories":[],"categories_nodes":[],"categories_segments":[],"categories_sizes":[],"default_left":[true,true,true,false,false,false,false],"id":70,"left_children":[1,3,5,-1,-1,-1,-1],"loss_changes":[2.1208374E1,7.529297E-1,4.6299014E0,0E0,0E0,0E0,0E0],"parents":[2147483647,0,0,1,1,2,2],"right_children":[2,4,6,-1,-1,-1,-1],"split_conditions":[1.9805196E-1,4.7660083E-1,6.5E0,-5.2752014E-2,-0E0,9.008085E-2,-0E0],"split_indices":[8,106,21,0,0,0,0],"split_type":[0,0,0,0,0,0,0],"sum_hessian":[4.297431E3,4.2834697E3,1.3961735E1,4.2824497E3,1.0198904E0,6.742353E0,7.219382E0],"tree_param":{"num_deleted":"0","num_feature":"110","num_nodes":"7","size_leaf_vector":"0"}},{"base_weights":[-5.21593E-1,-5.24567E-1,-0E0,-5.254692E-1,-0E0,1.5065679E-1,-0E0],"categories":[],"categories_nodes":[],"categories_segments":[],"categories_sizes":[],"default_left":[true,true,true,false,false,false,false],"id":71,"left_children":[1,3,5,-1,-1,-1,-1],"loss_changes":[1.1689941E1,1.885376E0,1.12914026E-1,0E0,0E0,0E0,0E0],"parents":[2147483647,0,0,1,1,2,2],"right_children":[2,4,6,-1,-1,-1,-1],"split_conditions":[1.9074371E-1,2.3798627E-1,1.635101E-1,-5.254692E-2,-0E0,1.5065679E-2,-0E0],"split_indices":[9,11,8,0,0,0,0],"split_type":[0,0,0,0,0,0,0],"sum_hessian":[4.298931E3,4.292795E3,6.1360283E0,4.2848916E3,7.9033747E0,3.974741E0,2.1612873E0],"tree_param":{"num_deleted":"0","num_feature":"110","num_nodes":"7","size_leaf_vector":"0"}},{"base_weights":[-5.094918E-1,-5.258397E-1,1.2575195E-3,1.190014E0,-3.436609E-1,-0E0,1.588533E0,-0E0,-4.0292385E-1,-0E0,1.6617614E0],"categories":[],"categories_nodes":[],"categories_segments":[],"categories_sizes":[],"default_left":[true,false,true,true,true,false,true,false,false,false,false],"id":72,"left_children":[1,-1,3,5,7,-1,9,-1,-1,-1,-1],"loss_changes":[4.136377E1,0E0,5.651054E1,1.8575626E1,2.5860567E0,0E0,2.5624237E0,0E0,0E0,0E0,0E0],"parents":[2147483647,0,0,2,2,3,3,4,4,6,6],"right_children":[2,-1,4,6,8,-1,10,-1,-1,-1,-1],"split_conditions":[8.163643E-2,-5.258397E-2,6.5E0,5.5E0,-8.856547E0,-0E0,-3.6088276E-1,-0E0,-4.0292386E-2,-0E0,1.6617614E-1],"split_indices":[12,0,66,66,109,0,106,0,0,0,0],"split_type":[0,0,0,0,0,0,0,0,0,0,0],"sum_hessian":[4.324591E3,4.209407E3,1.15183556E2,3.1873663E1,8.33099E1,7.063981E0,2.480968E1,7.047952E0,7.626194E1,1.2966496E0,2.3513031E1],"tree_param":{"num_deleted":"0","num_feature":"110","num_nodes":"11","size_leaf_vector":"0"}},{"base_weights":[-4.8743388E-1,-5.20366E-1,7.9001594E-1,-5.282679E-1,-1.551527E-1,-0E0,9.2423105E-1,-0E0,-3.378807E-1,1.9047427E0,3.2524455E-1,-1.4848834E-1,1.1873661E0,-0E0,-3.4872538E-1,-5.8682967E-2,1.0966605E0,-2.3703219E-1,-0E0,1.3936486E0,-0E0,-0E0,-3.595064E-1,-0E0,-1.3260297E-1,1.2691296E0,-0E0],"categories":[],"categories_nodes":[],"categories_segments":[],"categories_sizes":[],"default_left":[true,true,true,false,true,false,true,true,true,false,true,true,true,false,true,true,true,false,false,false,false,false,false,false,false,false,false],"id":73,"left_children":[1,3,5,-1,7,-1,9,11,13,-1,15,17,19,-1,21,23,25,-1,-1,-1,-1,-1,-1,-1,-1,-1,-1],"loss_changes":[1.8154883E2,5.4014893E0,1.1577034E1,0E0,5.4982886E0,0E0,2.9062576E1,1.4930248E1,4.1687298E-1,0E0,2.8948864E1,1.152776E0,3.2593737E0,0E0,3.8885498E-1,4.604727E-1,7.5174522E0,0E0,0E0,0E0,0E0,0E0,0E0,0E0,0E0,0E0,0E0],"parents":[2147483647,0,0,1,1,2,2,4,4,6,6,7,7,8,8,10,10,11,11,12,12,14,14,15,15,16,16],"right_children":[2,4,6,-1,8,-1,10,12,14,-1,16,18,20,-1,22,24,26,-1,-1,-1,-1,-1,-1,-1,-1,-1,-1],"split_conditions":[1.0300619E-1,3.478524E-2,6.5E0,-5.2826792E-2,7.5E0,-0E0,7.5E0,1.14583336E-1,-7.96509E-2,1.9047427E-1,3.8325677E0,9.160839E-2,9.5E0,-0E0,3.5E0,-9.0971366E-2,7.5E0,-2.370322E-2,-0E0,1.3936487E-1,-0E0,-0E0,-3.5950642E-2,-0E0,-1.32602975E-2,1.2691297E-1,-0E0],"split_indices":[12,12,66,0,66,0,22,6,103,0,107,12,88,0,44,103,44,0,0,0,0,0,0,0,0,0,0],"split_type":[0,0,0,0,0,0,0,0,0,0,0,0,0,0,0,0,0,0,0,0,0,0,0,0,0,0,0],"sum_hessian":[4.368811E3,4.267224E3,1.0158652E2,4.1496133E3,1.1761093E2,1.4078448E1,8.7508064E1,4.543918E1,7.217175E1,2.6027504E1,6.148056E1,3.643458E1,9.004595E0,1.0522753E0,7.1119484E1,3.3011673E1,2.846889E1,3.4208496E1,2.2260852E0,7.9402385E0,1.0643561E0,1.2519598E0,6.986752E1,1.1628779E0,3.1848795E1,2.567095E1,2.7979403E0],"tree_param":{"num_deleted":"0","num_feature":"110","num_nodes":"27","size_leaf_vector":"0"}},{"base_weights":[-4.654615E-1,-5.2345985E-1,5.752973E-1,-5.254724E-1,-0E0,8.8467485E-1,-1.0765697E-1,-0E0,1.190033E0,-3.0293506E-1,-0E0,-1.8253055E-1,-0E0,1.2251812E0,-0E0,-0E0,-3.2817036E-1,-0E0,-1.9896786E-1,-0E0,1.2412382E0],"categories":[],"categories_nodes":[],"categories_segments":[],"categories_sizes":[],"default_left":[true,true,true,false,false,true,true,true,true,true,false,true,false,true,false,false,false,false,false,false,false],"id":74,"left_children":[1,3,5,-1,-1,7,9,11,13,15,-1,17,-1,19,-1,-1,-1,-1,-1,-1,-1],"loss_changes":[2.6637573E2,9.885254E-1,5.530114E1,0E0,0E0,5.3913254E1,4.151999E0,1.0307004E0,3.0083923E0,5.119972E-1,0E0,1.3846934E-1,0E0,1.5569763E0,0E0,0E0,0E0,0E0,0E0,0E0,0E0],"parents":[2147483647,0,0,1,1,2,2,5,5,6,6,7,7,8,8,9,9,11,11,13,13],"right_children":[2,4,6,-1,-1,8,10,12,14,16,-1,18,-1,20,-1,-1,-1,-1,-1,-1,-1],"split_conditions":[9.338663E-2,7.2949E-2,9.5E0,-5.2547242E-2,-0E0,7.5E0,3.972032E0,4.6366024E0,-2.1760371E-12,6.5E0,-0E0,3.5E0,-0E0,-3.7352017E-1,-0E0,-0E0,-3.2817036E-2,-0E0,-1.9896787E-2,-0E0,1.2412383E-1],"split_indices":[13,13,22,0,0,22,107,107,103,65,0,0,0,107,0,0,0,0,0,0,0],"split_type":[0,0,0,0,0,0,0,0,0,0,0,0,0,0,0,0,0,0,0,0,0],"sum_hessian":[4.41555E3,4.1920454E3,2.2350456E2,4.163568E3,2.8477417E1,1.6369693E2,5.9807632E1,3.560782E1,1.2808911E2,5.192339E1,7.8842416E0,2.9935799E1,5.67202E0,1.2279285E2,5.296268E0,3.0722494E0,4.8851143E1,1.4025155E0,2.8533283E1,2.1715426E0,1.2062131E2],"tree_param":{"num_deleted":"0","num_feature":"110","num_nodes":"21","size_leaf_vector":"0"}},{"base_weights":[-4.3848434E-1,-5.2095E-1,4.6312502E-1,-5.230224E-1,-0E0,6.434419E-1,-1.8076979E-1,-5.234892E-1,-0E0,-0E0,7.774358E-1,-3.2174885E-1,-0E0,-5.2395374E-1,-0E0,-2.2890441E-1,4.0707216E-1,1.6344566E0,3.441354E-1,-0E0,-3.3386278E-1,-0E0,6.3970715E-1,1.6520487E0,-0E0,-6.4970754E-2,7.9492694E-1,-3.45321E-1,-0E0],"categories":[],"categories_nodes":[],"categories_segments":[],"categories_sizes":[],"default_left":[true,true,true,true,false,true,true,true,false,true,true,true,false,false,false,false,true,true,true,false,true,false,false,false,false,false,false,false,false],"id":75,"left_children":[1,3,5,7,-1,9,11,13,-1,15,17,19,-1,-1,-1,-1,21,23,25,-1,27,-1,-1,-1,-1,-1,-1,-1,-1],"loss_changes":[3.3343896E2,2.7913818E0,4.715101E1,9.350586E-2,0E0,2.4019653E1,4.011093E0,4.9438477E-2,0E0,5.598806E0,7.013559E1,3.5110998E-1,0E0,0E0,0E0,0E0,3.5080063E0,1.4509888E0,3.88608E1,0E0,2.8472614E-1,0E0,0E0,0E0,0E0,0E0,0E0,0E0,0E0],"parents":[2147483647,0,0,1,1,2,2,3,3,5,5,6,6,7,7,9,9,10,10,11,11,16,16,17,17,18,18,20,20],"right_children":[2,4,6,8,-1,10,12,14,-1,16,18,20,-1,-1,-1,-1,22,24,26,-1,28,-1,-1,-1,-1,-1,-1,-1,-1],"split_conditions":[9.259615E0,7.751852E0,3.306011E-2,8.012821E-2,-0E0,8.5E0,8.5E0,7.443548E0,-0E0,1.1558593E1,9.5E0,-1.6305861E-3,-0E0,-5.2395374E-2,-0E0,-2.2890441E-2,8.5E0,4.5705315E1,1.6042315E0,-0E0,2.95E1,-0E0,6.3970715E-2,1.6520487E-1,-0E0,-6.4970753E-3,7.9492696E-2,-3.45321E-2,-0E0],"split_indices":[3,3,10,12,0,22,44,3,0,108,22,100,0,0,0,0,44,108,